343 128
272 0.20992933 0.005849945 -0.00056950777 0.1813025 -0.04301883 -0.29672185 -0.027993921 -0.05758373 0.09087745 0.026136069 -0.20410196 -0.03674078 -0.2004673 -0.04708624 -0.22659817 0.0035779746 0.26508623 -0.11299174 0.04431371 -0.07231625 -0.024007175 -0.03530246 -0.12233565 -0.17272794 0.16979869 0.12061554 -0.060829017 0.157127 0.20244606 -0.046065506 -0.066112936 0.2173373 0.18356769 -0.29861227 -0.09571146 0.19784613 0.003730325 -0.010384863 -0.17357199 -0.06462719 0.005635174 0.0746566 0.031059222 0.024648396 -0.10572827 -0.22878788 -0.041089777 -0.004838914 0.07457993 0.09901595 -0.046191286 0.062235102 -0.014474855 -0.13163911 0.075436436 -0.12320676 0.071256876 0.10263105 -0.27169102 0.010526975 0.08312387 -0.048256572 0.030882664 0.124972425 0.13644443 -0.06493322 -0.09899872 0.057181697 -0.279399 -0.10524237 0.23872997 -0.06855969 0.08601439 -0.26991776 -0.07683004 0.09627569 -0.0797278 0.10502944 -0.04835981 -0.192285 -0.15784952 -0.053706635 0.044373155 0.031131234 -0.11777911 -0.04742704 -0.16957068 0.053212713 -0.0017173536 -0.19338426 -0.0073690373 0.16403858 0.110785216 0.20573048 -0.123648204 0.0070157447 0.1209277 -0.10092507 0.049133617 -0.20822182 0.063115664 -0.1821603 0.021152662 0.014106151 -0.09652473 -0.12116163 0.17233936 -0.07315268 -0.266881 -0.042028077 -0.015199155 0.00478751 0.038736813 -0.032781187 0.07743623 0.049632736 -0.02461136 -0.16092588 -0.25916708 -0.0439966 0.16789266 0.02793149 -0.040034518 0.07282901 -0.24163827 -0.00740158 -0.09365899 -0.12377531
148 0.06619847 0.0156926 -0.12547056 0.13844506 0.062154137 -0.27606446 -0.2688423 -0.010980441 0.08879363 0.1413005 -0.11941644 0.013370131 -0.16884659 -0.23320095 -0.20938139 -0.16408342 0.020942425 0.012381695 0.07387165 -0.017815752 0.05033188 0.008478837 -0.048691425 -0.117957085 -0.0033881392 0.15134884 -0.07462811 0.026452394 0.20069753 0.07772982 -0.03922881 0.28843096 0.27193648 -0.22108287 -0.19925193 0.20711426 0.19582339 -0.09141437 -0.27776247 -0.07381767 0.100530125 0.05067429 0.08203688 0.02775936 -0.24329305 -0.13005355 0.054265153 0.16660498 0.065369084 0.21875435 0.04066134 0.055495918 0.012396168 -0.1708754 0.068498604 0.003544193 0.057047963 -0.08703167 -0.24393898 0.07300532 -0.036010355 -0.11629422 0.050262146 0.1418326 0.17591454 0.0035936798 -0.16700234 0.08026434 -0.0059803436 -0.09524798 0.13648474 -0.21644314 0.11815368 -0.1560306 -0.14386244 0.07573427 0.061027233 -0.07500535 -0.050363656 -0.25139207 -0.15975115 0.17952888 -0.05811186 -0.018855458 -0.01843798 -0.13743635 -0.30155504 0.08867237 -0.09547108 -0.036458816 -0.030575035 0.25117508 0.009728807 0.091190256 0.1436836 -0.006251261 0.048085634 -0.0037927683 0.15877399 -0.07986674 -0.11666105 -0.27185932 0.048341118 -0.17384493 0.0016503007 -0.207538 0.062431928 -0.1138351 -0.27554625 -0.07104663 0.08740792 -0.054683693 -0.12296892 -0.099276185 0.16836476 -0.07508114 0.08851651 -0.13583268 -0.107927606 -0.11567564 0.16897209 0.1143684 -0.001036314 -0.010748915 -3.261387e-05 0.06613425 -0.20207144 -0.057087477
0 -0.008501044 0.087829776 0.12506802 -0.10394565 0.013488487 -0.26456892 -0.10172613 0.07669021 0.047392223 0.08165747 -0.13134755 -0.119403735 -0.06762545 -0.11340239 0.12937 0.060115967 -0.018776456 0.009259787 -0.15086232 0.060281817 -0.11352468 -0.2613835 -0.03443565 -0.25328183 -0.04509057 0.025138378 0.0872034 0.17863923 0.18140557 0.049505904 0.14659831 0.09329549 -0.2046827 -0.25187662 0.03816837 -0.08378427 0.16055526 0.035464406 0.0019703421 0.08449902 0.116543554 0.07890387 0.25446817 0.002353704 -0.38141343 -0.1505899 0.08683836 0.15033336 -0.026920732 -0.008689655 0.22855592 -0.056210626 -0.05411316 -0.17673819 0.059807915 0.061233956 0.15298702 -0.21558437 -0.31601912 -0.030003415 0.082647 0.059385926 0.3520595 -0.040691767 -0.025659537 -0.2291047 -0.15899406 -0.011271394 0.19830413 0.010490002 0.14308208 -0.21729417 -0.040662985 0.08859014 0.18915476 0.19720909 -0.24947105 0.029758343 0.08697705 0.08362131 -0.08970004 0.03388012 -0.30991217 0.07877635 -0.08526264 -0.0633042 0.004148855 -0.13963409 -0.017255314 -0.07069315 0.09187326 0.10241398 -0.07650426 -0.026210792 -0.16264684 0.24523336 0.11214866 -0.099451974 -0.026065469 -0.22265291 -0.010285699 0.17060222 0.12727433 0.09131677 0.056199245 0.02015802 -0.05691354 -0.16903912 -0.06293002 -0.123747244 -0.10720567 0.1099617 0.024718458 -0.033367008 -0.0029765624 -0.12394765 0.04528572 -0.00515291 0.27722412 -0.03815811 0.17012052 0.0241924 -0.15456004 0.17162466 0.048754983 -0.09201557 -0.0209525 0.00021321102
229 0.18479325 0.06392331 -0.08828667 0.20167734 -0.011477695 -0.059679672 -0.32832384 0.10048515 0.17367883 0.13728589 -0.16460373 0.01706227 -0.17249216 -0.048438534 -0.44293496 0.08197583 0.13324961 0.052007012 0.076084785 0.072896525 -0.016411483 0.01025404 -0.26060954 0.0052198535 -0.09759075 0.13660488 -0.042575978 0.07239524 0.22558004 0.077620715 -0.00844701 0.29481056 0.048377164 -0.16752398 -0.21741404 0.020782389 0.067980304 0.05648289 -0.19177578 -0.10954427 -0.047141302 0.08837556 -0.067000285 -0.10790373 -0.1900527 -0.22783749 0.04602836 0.095547654 -0.11017614 0.08141221 0.029339226 -0.019822812 -0.06974484 -0.24714799 0.04248162 -0.026532965 0.040388834 -0.120030165 -0.27874666 -0.00050513016 0.18100321 0.0006090885 0.13730946 0.13868794 0.04624728 0.029238163 -0.12279661 0.03604318 0.02927833 -0.013287264 0.0692927 -0.0756755 0.061801497 -0.10809551 -0.05110154 0.0059475983 0.003876756 0.075892426 -0.13479474 -0.15741125 -0.1410859 -0.06059903 0.028100032 0.075483285 0.03238298 0.018275827 -0.24646741 0.03939243 0.072937444 -0.23271312 0.10041588 -0.059027985 -0.0219048 0.00918451 0.19627152 -0.03620581 -0.020795837 -0.085493565 0.14741682 -0.21783365 -0.0025905352 -0.16626094 0.08013126 -0.15143973 0.085743606 -0.18037842 -0.018755913 -0.14125828 -0.19708605 -0.02562912 0.10827348 -0.13568684 -0.11135751 -0.2853112 0.18658395 -0.23424706 -0.03003213 -0.16312456 0.0636637 -0.04326288 0.3834615 0.20256114 -0.124878615 0.006560527 -0.23719965 0.0038705103 -0.09032088 -0.17700239
56 0.2521664 0.04593968 -0.08334988 0.08304872 0.12034813 -0.28910467 -0.06997282 -0.12439998 -0.09290232 0.017828533 -0.13269044 -0.0011565688 -0.3211488 -0.11569494 -0.16838229 0.026258098 0.081945784 0.14726001 0.27893084 -0.097695746 0.06981932 0.10675504 0.09284935 -0.248031 0.036848918 0.16646421 0.0034631197 0.10473379 0.25197497 0.1986433 -0.011814172 0.06811103 0.15438707 -0.29200113 0.015449567 0.2680812 -0.081728555 0.083869606 -0.16443595 -0.11515265 -0.06144088 0.06037301 0.035493128 -0.040040255 0.07312472 -0.1492961 0.05173062 0.14420915 -0.0034745405 0.43931282 0.054028638 -0.05759223 -0.059497308 -0.08776862 -0.10801018 -0.15670867 0.03554058 -0.14848293 -0.16414046 -0.003988462 -0.028360177 -0.086432815 0.15302669 0.18271092 0.06165393 0.11148328 0.04650562 0.12225221 -0.19410218 0.06836227 0.20168401 -0.21506889 0.19127186 0.012205553 0.009200116 0.060855154 -0.07083582 0.080868915 0.04213368 -0.11275849 -0.09193898 0.09053687 0.063161984 -0.06796048 -0.13914524 0.023019189 -0.20606275 0.067122936 -0.021964291 -0.13997664 0.018945409 0.06136852 0.084965184 0.12078142 -0.01879183 0.012058797 0.09112501 -0.017154448 -0.028240547 -0.25577644 0.055111244 -0.35943764 0.28276113 -0.008288795 0.044134635 -0.16089974 0.11609394 0.11031812 -0.27483344 -0.23879254 -0.089689545 0.074058145 -0.0033606815 -0.017115805 0.064700514 0.10106927 0.14890555 -0.042290572 -0.14549609 0.14509936 0.22841902 0.279632 -0.069356956 0.22906856 -0.078343496 -0.32593805 0.07106997 0.016053334
21 0.12067503 -0.092990234 -0.05146246 0.0735546 0.03939808 -0.28952202 -0.016110625 -0.062371865 0.109091885 0.16562107 -0.22352266 0.039000433 -0.22052102 -0.14683305 -0.12855862 0.0037729258 0.2445117 0.10060442 0.10332591 -0.14026867 -0.008319464 0.10499383 0.17259526 -0.13177091 0.16493651 -0.05154735 0.11829945 0.029853592 0.26787078 -0.020078043 -0.01995019 0.10746925 0.14684536 -0.19622578 -0.026233463 0.06290228 -0.09163694 -0.0073863226 -0.05945713 -0.16914147 -0.126885 0.12321163 0.048459984 -0.09930304 -0.22279547 -0.2129012 -0.06383331 0.018805144 0.106168866 0.20044634 -0.06856409 0.06600744 -0.2522776 -0.15828915 0.032961283 -0.20179099 0.059380345 -0.10314151 -0.25863302 -0.003362402 0.16876085 -0.07804849 0.060076084 0.21313342 0.20845386 0.14898358 -0.17275828 -0.18652284 -0.19041629 0.06565994 0.09099844 -0.17146127 0.1964804 -0.265841 0.010314424 0.08748689 -0.094396874 0.10604315 -0.13618995 -0.18284908 -0.14022951 -0.073987596 -0.15828247 0.026045477 -0.10619994 0.034370676 -0.20881914 0.20288557 -0.038145803 0.11170837 0.05736642 0.14047474 -0.0389836 0.13621193 -0.16661136 -0.039917465 0.10132836 -0.10749303 -0.043866023 -0.025598083 0.1455503 -0.2547754 -0.16781968 0.014238037 -0.14223379 -0.18625773 0.16717772 0.008179427 -0.3547516 0.0071735005 -0.07761173 -0.15888272 0.10956046 -0.019729055 0.047230616 -0.049885556 0.091622576 0.028029237 -0.08792855 0.044787277 0.23667611 0.1844917 -0.122124545 0.1033486 -0.016247861 -0.24085283 -0.1147212 -0.2723691
252 0.29781136 -0.2110505 -0.2171379 0.015834399 0.034583915 -0.42930743 -0.21975955 -0.11894139 -0.042756267 -0.006949881 -0.17312887 0.1212347 -0.26059648 -0.020917967 -0.20629856 -0.13994129 0.139503 0.19044702 0.29811874 -0.004570183 -0.08004214 0.053413555 0.18529132 -0.11515227 -0.010601086 0.093157776 0.06291342 0.12548144 0.33861923 0.059032578 -0.046870936 0.23094273 0.10654959 -0.33630726 -0.09009267 0.10289244 0.055508744 -0.09178132 -0.2433338 -0.18398762 -0.07160268 0.04249907 0.07702357 0.07318865 -0.034103423 -0.184521 0.03275171 0.11414807 -0.016978173 0.23455498 0.060279477 0.045699637 -0.047340702 -0.04343141 -0.07223353 -0.11246409 -0.012102516 0.038764935 -0.0746104 -0.13569874 -0.055592205 0.069625475 0.03712823 0.24842131 0.06192509 -0.08977106 -0.10834248 -0.030159015 -0.10047502 0.052278873 0.19263525 -0.07018518 0.17120062 -0.16690905 0.10434769 0.20487855 -0.13190857 -0.025458146 -0.023204982 -0.19353248 -0.0989894 -0.007813864 0.035957545 0.25646102 -0.11488342 -0.043188117 -0.098184526 0.14787877 -0.09607128 -0.071987264 0.017841185 0.062102847 0.13465752 0.20674945 0.019284604 -0.036198523 0.066450045 -0.0353782 -0.12239039 0.017299633 0.19391209 -0.16558138 -0.044591144 0.08540445 -0.017817158 -0.19046524 0.18054052 0.017699942 -0.38761413 -0.17406155 -0.03546719 0.030019395 0.089678556 -0.085471414 0.13400266 0.023207458 0.05281412 -0.3169507 -0.14940326 0.19528612 0.22206496 0.21188651 -0.006557896 0.08316594 -0.25520116 -0.14501673 -0.12788182 -0.009693714
322 0.06970771 0.028066901 -0.10873664 0.16814591 0.21199538 -0.4611906 0.0213192 0.021319287 -0.08595549 -0.02560212 0.0052457615 0.123104215 -0.32718816 0.013667057 -0.024423674 0.015849158 0.33750775 0.04619264 0.16799739 -0.08621147 -0.082640275 0.0749712 0.24608266 -0.11504747 0.06833351 -0.0001262908 -0.048292287 -0.016478164 0.17341542 -0.06787819 0.16250733 0.15706344 0.11239019 -0.15491648 -0.13540103 0.07082657 0.0956544 -0.0738792 -0.03718742 -0.060829792 0.23390925 0.08961314 0.22677025 0.112918995 0.052816853 -0.20047064 0.04501465 0.014621231 -0.14966711 0.022484625 0.004503422 -0.118036926 -0.09521327 0.02674364 -0.08501043 -0.05890031 0.07632162 -0.2145786 -0.17923087 0.017557064 -0.005484909 0.052934643 0.26526374 0.13550958 -0.025380058 0.05026639 0.15287133 0.006588364 -0.112771146 0.07084792 0.25834882 -0.16503748 0.37541822 0.08213458 0.1328003 0.021619154 -0.1615297 0.07159709 0.18691523 -0.123956285 -0.16726892 -0.09353378 0.06014584 -0.1710802 0.063249975 -0.03807745 -0.15538558 0.033769555 -0.067327574 -0.49003506 -0.058328826 -0.034830693 0.28577226 0.1161975 -0.2569568 0.0005694345 0.07285862 0.051829293 0.12862504 -0.24037583 0.2559038 -0.06738742 0.1763403 0.22164646 0.047960274 -0.014308125 0.18791506 -0.20677538 -0.1927494 -0.05242062 -0.25997826 -0.043379333 0.13057265 0.01069771 0.01672156 0.021502405 0.22669433 0.16906302 -0.083283305 0.13476503 0.1190476 0.13325778 0.009988144 0.35602686 -0.030653667 -0.31480807 -0.13722467 -0.2794978
122 0.076895766 -0.008480117 -0.074187875 0.013731379 0.101687595 -0.32394454 0.021289386 -0.047697607 0.10595774 0.053858567 -0.13273606 0.03434394 -0.27766868 -0.13895579 -0.23337613 0.019815298 0.1466007 -0.041975383 0.20618556 -0.1665664 0.084916055 0.10384794 0.06740653 -0.053824443 0.23270199 -0.03397309 0.17276232 -0.007821906 0.11048096 0.00030061946 0.1466907 0.0032300847 0.20630497 -0.2658368 0.057625934 0.17129171 0.00831115 -0.070645116 -0.21923979 -0.24288648 -0.17979175 0.002400066 0.14712156 0.032120377 -0.21064068 -0.14354342 0.08358135 0.053549055 -0.03554626 0.1426655 -0.121206515 0.09770825 -0.25912574 0.031073796 0.02865546 -0.18014574 0.121003814 0.047354747 -0.13856894 -0.10763858 -0.06925357 -0.061589 0.15714376 0.111885555 0.08984478 0.1501221 -0.072804965 -0.017615011 -0.17484386 -0.0108489115 0.049465906 -0.08575026 0.07493326 -0.17076498 0.077513 0.20606972 -0.12562467 0.18514639 0.10767458 -0.12183753 -0.06335549 0.1531654 -0.037208427 0.0671543 0.009243168 -0.088189475 -0.22534715 0.22302817 -0.15525667 -0.0029365704 0.07601603 0.16768155 0.12065014 0.04124004 0.03447554 -0.067424424 -0.0062562493 -0.0527703 -0.031415366 -0.15293886 0.12148787 -0.05982295 -0.053944737 -0.06154821 -0.23640259 -0.07809034 0.082977355 -0.061881743 -0.32699534 -0.1680189 -0.09071125 -0.33252144 0.06394071 -0.031612683 0.220931 0.10488616 0.07929747 0.07369383 0.0007877521 0.0581182 0.2458276 0.28080437 -0.15167016 0.25166494 -0.09217313 -0.22372499 -0.18319084 -0.124645315
203 0.23757392 -0.2708601 -0.115210526 -0.14022265 0.05606521 -0.3726584 -0.14552204 0.066896856 0.17935987 0.035771225 -0.15142608 -0.14781922 -0.16898838 0.020494556 -0.2144589 -0.16958271 0.14468409 0.30115536 0.12977274 -0.012670032 -0.034379445 -0.12894982 0.1911747 -0.16803402 0.16001531 0.12600942 -0.10577441 0.13797835 0.12260316 0.07460392 -0.13925436 0.18766995 0.13450426 -0.2194036 -0.25269085 0.21628532 0.028642053 -0.121582076 -0.26108187 -0.21225919 -0.2835591 0.14885916 0.048191488 0.039906573 -0.12537906 -0.21397476 -0.018167997 0.117887795 -0.029923202 0.19373754 0.05693819 -0.084844954 0.041467175 0.010675007 -0.10265747 -0.11652361 -0.067764215 -0.025586467 -0.12746915 0.12864235 -0.09263006 -0.023148563 0.12694298 0.006697268 0.049479734 -0.07235231 -0.025103863 0.008025379 -0.032906495 0.05065123 0.3324797 -0.13461152 0.26946375 -0.112544596 0.08681426 0.22570649 -0.101749904 -0.14873135 0.11217611 -0.33957767 -0.2140094 -0.05028757 -0.038295217 0.007692139 -0.1401909 -0.048246175 0.0619162 -0.11253469 -0.032872137 -0.03084995 -0.15497492 0.043960523 0.07883887 0.19174692 -0.019651856 -0.076561704 0.1662241 -0.06824368 0.011558575 -0.06927108 0.078652866 -0.1811767 0.058811698 0.051962115 -0.040937014 -0.011408307 -0.013807498 -0.044673063 -0.31278852 -0.24664018 -0.025097791 -0.08721276 0.08733371 0.12082041 0.02689778 -0.124568254 0.08928948 -0.20186289 -0.14049669 0.164108 0.15871549 0.21088633 0.025799694 0.106062144 -0.20940062 -0.15787798 -0.2527721 0.00670921
237 0.5329664 -0.159416 0.051438533 0.0077045937 0.11728149 -0.30861557 -0.095328294 -0.19126482 0.102216974 -0.014961187 -0.11347399 -0.11324427 -0.057074055 -0.17686321 -0.1587406 0.05664195 0.025617346 0.048258543 -0.017594209 -0.056995515 -0.20209935 0.10541477 0.038098995 -0.10713401 -0.09131969 -0.04997019 0.094746485 0.34980085 0.15638034 0.03237007 -0.15245757 0.1076467 0.090198 -0.08341535 0.0732526 -0.08202979 -0.055746585 0.1356576 0.1994557 -0.074865445 0.18453278 0.04774171 0.41430476 0.12604025 -0.1966239 0.34812987 -0.04894646 0.16795991 0.00560991 0.13565704 0.05338516 -0.07209815 0.091442205 0.016354647 -0.18327905 -0.015155444 0.08444143 -0.25944015 -0.26905036 -0.08227802 -0.17820208 -0.20101339 0.037246257 0.0938128 0.057153266 -0.21384543 -0.21006745 -0.07814639 -0.010125778 -0.07600673 0.041109253 -0.084388204 -0.1159208 -0.083297096 0.18297149 0.26887852 -0.054377764 0.25938445 0.072657816 0.12748802 0.091339074 -0.09841401 -0.07624324 -0.17641906 -0.031428643 -0.15958782 0.058642 0.1735273 0.03023908 -0.22682345 0.1445611 0.2010687 0.16338627 0.022889713 0.09365622 0.16479631 0.043965407 -0.103180386 -0.17767599 -0.438311 0.11111967 -0.037211344 0.034170654 0.015813474 -0.05793054 -0.079167075 -0.2636498 -0.0710613 -0.26395833 0.09506032 0.022890251 -0.21805044 -0.10101926 -0.0985607 0.058816344 -0.31365442 0.017406223 -0.16135487 0.27148068 0.09931283 0.13325898 0.14714238 -0.116929434 -0.021236664 0.009649361 0.27911097 0.0016673524 0.104500465
239 0.27895728 0.035413347 0.025359135 0.10146904 0.08042792 -0.28595722 -0.16687392 -0.034616552 0.1830621 0.16548875 -0.10551293 0.15578768 -0.3561598 -0.042407498 -0.02658369 0.06522429 0.2347425 0.055676673 0.21311806 0.062442023 0.010867501 0.10533428 0.16762458 -0.109950356 0.22628045 0.0049283756 -0.08053619 0.10146769 0.2735642 -0.022086084 -0.09559119 0.37559438 0.110156305 -0.27562964 -0.050406665 0.2508363 0.0040473794 -0.063736945 -0.24682032 -0.35184306 0.118972056 -0.024978902 0.31862536 -0.15358855 -0.04420799 -0.14406131 -0.063821286 0.15429723 -0.03575955 0.20384786 0.18823563 0.004589221 -0.112833604 -0.07284172 0.065711685 -0.067761116 0.10254533 0.053153303 -0.013529383 -0.0013267787 -0.00091875496 0.019061163 0.11755716 0.015288946 0.009391192 -0.024639951 -0.014670917 0.14772898 -0.089927234 -0.03812622 0.1523993 -0.2205141 0.102383964 0.014173645 -0.021881476 0.27587143 -0.012203346 0.043596 0.099994704 -0.14849812 -0.056448724 0.05095768 0.009784853 0.11471804 -0.33500126 -0.03707245 -0.21113604 0.08302432 -0.16201308 -0.119904675 -0.0064272857 0.21474902 0.03293134 0.05936193 0.033738777 0.026650725 0.013250062 0.013819888 0.012331701 -0.109103926 0.07539177 -0.08008567 0.0038535725 0.043499492 -0.13991767 -0.01589493 0.104934186 0.062630445 -0.26457298 -0.15726422 -0.055808946 0.048317812 0.051148925 -0.08950265 0.19786392 0.06968412 0.1482785 -0.06982107 0.039333817 0.12887754 0.10724584 0.26379997 0.024932032 0.0113185635 -0.06944386 -0.2933972 -0.13968593 -0.08609535
304 0.25107262 -0.024344597 -0.01705992 0.06281876 0.18377349 -0.29193395 -0.23849143 -0.13083816 0.13476562 0.13741037 -0.26753378 0.061608747 -0.22662616 -0.08081933 -0.19484174 0.23077667 0.37908915 -0.07416642 0.21686248 -0.13219438 -0.11745455 0.07425483 -0.022529474 -0.19356498 0.1751065 0.117338575 -0.06514039 0.16636288 0.24783906 -0.043397482 0.15548626 0.24253778 0.12050166 -0.10916309 -0.07699601 0.2532392 0.11300319 -0.009440887 -0.13195065 -0.05808221 0.15809977 0.105294265 0.20651692 0.046497684 -0.08767916 -0.27620307 -0.05463381 0.105401225 0.25573078 0.23323964 0.012797755 0.101451725 -0.09951726 -0.008372267 -0.09414019 0.064114965 -0.114234306 0.008099362 -0.09486533 -0.13168946 -0.07103945 0.018420944 -0.011173957 0.0060543055 -0.12389381 0.058530275 0.06134911 -0.011262246 -0.039484415 0.14421238 0.18760087 -0.04224096 0.112879165 -0.13292922 -0.045121133 0.16118065 -0.010204249 0.06422816 0.0012734535 -0.019080842 -0.25364682 -0.018811453 -0.014412813 0.11428991 -0.12684722 -0.08683076 0.0048497636 0.18781736 -0.017752938 -0.14035502 -0.14095302 0.11678942 0.106455155 0.11942435 0.056740094 0.0023534826 0.009124622 -0.040254068 0.06506134 -0.18068443 0.10471852 -0.1541406 -0.19651899 0.07156601 0.098510385 -0.17597623 -0.056509893 -0.14886928 -0.3639292 -0.055254836 -0.079566054 -0.04666574 0.059582084 0.031092849 0.07551159 0.07505679 0.009888972 -0.11325581 -0.13937965 0.074951 0.05523926 0.21067704 -0.020538643 0.39516252 -0.0723436 -0.1609678 -0.025156926 -0.17487077
77 0.07496851 0.11273909 0.00881623 0.103237785 -0.09853696 -0.40107554 0.19817437 -0.037077747 0.219342 0.302038 0.192846 -0.113852665 -0.12765692 -0.18219551 -0.13878658 0.1259223 0.095210604 -0.00921293 0.023324184 -0.10101618 -0.23091587 -0.3601574 0.0040930603 0.07718758 -0.21496949 -0.08839498 0.012917175 0.079172425 0.25784847 0.07930666 -0.13315067 0.041654453 0.0024183197 -0.042396534 -0.012195475 0.1179237 0.07692752 0.05066004 -0.05460923 0.13465029 0.11863186 0.12922958 0.22681755 0.04482706 0.020376418 0.008661114 0.003027906 0.17998062 -0.17617665 0.019298654 0.14977883 -0.05126846 -0.062436454 -0.109777376 0.22192954 0.0699132 0.2056028 -0.06691595 -0.1861466 -0.22703071 0.33398762 0.108398 -0.15294641 -0.10357432 -0.0507094 -0.13216549 -0.25483534 -0.22209132 -0.12876987 0.008465061 0.0737322 -0.13597399 0.20408803 0.19647299 0.0741136 -0.0092648445 -0.19727847 0.10200975 0.13194063 -0.15600307 -0.10255494 0.013853952 0.02087119 0.07130425 -0.21823719 0.060154967 0.14004922 -0.020294448 -0.1650098 0.29647496 -0.077599615 -0.08940325 -0.27153698 -0.18212447 0.09360761 0.12918262 0.16331172 0.07007773 0.0248428 -0.24492519 0.121165894 -0.044263557 0.18400298 0.15582348 -0.06539136 -0.26432922 0.1044378 -0.18305829 -0.13887766 0.15524349 -0.0630618 -0.21961404 -0.13222802 0.0380221 0.32024568 -0.021160642 -0.0115111405 -0.13989912 -0.093443826 0.23277496 0.20153022 0.08927726 -0.018207876 0.29265487 -0.02519963 -0.36838093 -0.24913052 -0.24592265
25 0.06067456 -0.0015657992 0.18911642 0.12088106 0.1478935 -0.46848652 -0.029399356 -0.26026276 0.058963858 0.024555836 -0.18049395 -0.11965391 -0.15439484 -0.26426867 -0.11811682 -0.023947354 0.11755289 0.20363487 0.05913656 -0.18307073 -0.14138381 0.13353635 -0.057224363 -0.222555 0.007343768 0.11904794 0.011900728 0.16790472 -0.026606092 0.019410243 -0.2267528 0.12926526 0.25714123 -0.26105484 -0.07613887 0.19854276 -0.019869197 -0.18822654 -0.036620814 -0.12192698 0.12771149 -0.13290697 0.42752066 0.07808294 -0.22949916 -0.0014705312 -0.03358597 -0.08924312 -0.06007839 0.08559668 -0.120231666 -0.12564586 -0.02171223 -0.07838934 -0.24952534 -0.01590205 0.25243697 -0.2290177 -0.08111904 -0.010592643 0.085477576 -0.16009891 0.14271982 0.092908144 0.010575443 -0.12969668 0.16124603 0.07903796 -0.02805192 -0.029118914 -0.09986636 -0.034958195 0.2276581 -0.2729514 -0.022121254 0.10738903 -0.10119645 -0.009975152 0.019330548 0.17795812 -0.02393517 0.0874973 -0.008062512 -0.24826942 0.19006412 -0.12643926 0.03628122 -0.058871258 0.008475434 -0.124678664 -0.04501649 0.14563589 0.15670641 0.20152189 -0.01857241 0.10270789 0.10646766 0.058364492 0.08957649 -0.032305866 -0.02456419 0.032127198 0.07134413 0.13930145 0.14587337 0.026911067 -0.21512584 -0.10135916 -0.47691756 -0.23154894 -0.08341499 0.029058957 0.03906815 -0.079806276 -0.07083836 -0.20643918 0.090574734 -0.27901053 0.25029144 -0.012933406 0.4040914 0.084086515 -0.25077012 0.20687614 -0.16116714 0.07801078 -0.23390004 0.045512848
315 0.071092255 0.016840847 0.24284875 -0.1444625 0.08918663 -0.39694053 0.003614718 0.08662726 0.024001788 0.076493084 -0.26484087 0.11577112 -0.4203074 -0.36764082 -0.15260907 0.1238974 0.14262356 -0.025259387 0.21259947 -0.34232986 0.03539163 0.2643949 0.2753699 -0.14151022 0.01791839 -0.15061036 0.122030765 0.21879794 0.23941348 -0.08334707 0.083466835 0.14246711 0.17362557 -0.04857757 -0.10109602 0.1420549 0.1293327 -0.09005846 -0.14172502 -0.11996888 0.06284226 0.17144233 0.1980456 -0.042064358 -0.01560868 -0.10571774 -0.07637906 0.134316 0.08622593 0.01316464 0.013152583 0.12019005 -0.21994461 0.11505054 0.058244355 0.100833766 0.031037275 -0.115431 -0.20578639 -0.053547025 0.011648445 0.15553519 0.34014767 0.026437048 0.05894022 0.029922105 -0.27333933 -0.12984152 -0.00841137 0.029055264 0.18833296 0.12398014 0.3430972 -0.13186142 -0.09433545 -0.08956468 -0.2200715 0.0007017053 0.090056345 -0.17975484 0.053295456 -0.016431333 0.022113921 -0.32080796 0.0023410667 -0.14001596 0.08418832 -0.075116314 -0.30865473 -0.17906946 -0.06317047 0.0005469627 0.16646588 0.23620681 0.009819649 0.104129516 -0.056446847 -0.014836076 0.016351504 -0.06379472 0.10927562 -0.062544584 -0.03322444 -0.06257832 0.08362962 -0.31191355 0.016430028 -0.18342516 -0.2905229 0.019132815 -0.13557567 -0.22641683 0.12569599 -0.02952064 0.02198924 -0.09533304 0.270555 -0.04799463 -0.1339852 -0.11248907 0.12742178 -0.05351026 0.016640913 0.13794282 -0.018576914 -0.09781452 -0.30048758 -0.017004373
186 0.16943207 0.0115801385 -0.21992844 0.0020604562 0.120377354 -0.33425993 0.038418427 0.11029641 0.046976924 0.07414645 -0.0909353 0.18497689 -0.2682586 -0.22477359 -0.18185285 -0.065600455 0.1394317 0.0603749 0.052660733 -0.029573832 -0.025264839 0.23774947 0.12132486 -0.13013496 0.018273719 0.21227416 -0.067254566 -0.0023064972 0.0517379 -0.04514879 -0.027215311 0.10225196 0.199361 -0.30852824 0.037000913 0.15697174 0.08629574 0.061319076 -0.11055526 -0.22768669 -0.10289021 -0.07021283 0.09883487 0.08705752 0.07949024 -0.20991583 -0.01953266 0.024483304 -0.03039647 0.23905252 -0.067395285 0.02335575 -0.10018998 0.061925907 -0.033409316 -0.16410987 0.15223184 -0.13558158 -0.032168925 -0.01594123 -0.0572122 -0.081706196 0.19826797 0.052519754 0.10862327 0.03444328 0.017066656 0.17649783 -0.13028492 0.048866495 0.22801913 -0.17948635 0.4030263 -0.1564966 0.035428714 0.19731696 -0.035858847 0.057689764 -0.03344585 -0.23192343 -0.040253278 -0.028464954 0.013652583 -0.111680634 -0.09859697 -0.094732314 -0.10461429 0.0388626 -0.1327085 -0.00016251008 -0.0014395169 0.2809537 0.13080779 0.0056861937 0.019490363 0.14495938 0.09902676 -0.0443855 0.0065565817 -0.16460967 -0.046421874 -0.15860575 0.11879589 -0.08542528 -0.08893392 -0.14232871 0.030085852 0.0056039463 -0.19107375 -0.09107618 -0.022383858 -0.068212666 -0.03985317 -0.026937105 0.20440063 -0.05827754 0.048625097 0.013955089 -0.12860622 0.1827397 0.27066252 0.1006676 -0.11951278 0.19269872 -0.27790728 -0.38215828 -0.28675145 -0.16941452
236 0.12402631 -0.018913677 0.061313782 0.06022768 0.0647599 -0.48065245 -0.121264696 -0.016792465 0.0053800987 -0.09482478 -0.23614335 -0.05114201 -0.2122991 -0.124225326 -0.10823194 -0.13411823 0.38986963 -0.19581106 0.2340709 -0.25170925 0.020582257 0.042652395 -0.06171771 -0.02883347 0.04848931 -0.07439018 0.012844533 -0.015155729 0.3630521 0.015218373 -0.011890268 0.074514076 0.15921909 -0.33886915 0.042739805 0.12542883 -0.0066887243 -0.07181756 0.037285954 -0.27218446 0.067557454 0.33415106 0.31593552 0.05736795 0.040257737 -0.023046602 -0.06740314 0.07716188 0.015959857 0.20582737 0.0034300422 0.22005995 -0.12006236 -0.061819494 -0.03408129 -0.040337175 0.14192833 0.037480794 -0.2810409 0.17887588 0.025446013 0.20049253 0.1440813 0.0017390343 0.14590697 0.11186411 -0.0013841619 -0.054408923 -0.025397113 -0.0027509243 0.28390747 0.1948649 0.20200095 -0.26025876 -0.10499362 -0.10534231 -0.0042226133 -0.045081258 -0.19314621 -0.19952555 -0.13641399 -0.02998441 0.20138597 0.103747204 -0.0052158823 -0.12566276 -0.03300798 0.17033087 -0.1125441 -0.25170437 0.0057458333 0.16921675 0.0637374 0.0019339686 0.026834365 -0.07762641 0.09111752 -0.0054993792 -0.021976387 -0.29119864 0.13875918 -0.07690194 0.10577084 -0.023137607 0.024303293 -0.008093176 -0.06893111 -0.04877139 -0.2743541 -0.31376117 -0.016935498 -0.15406428 -0.005063995 -0.014486058 0.14785406 -0.10634069 0.2508469 -0.07719915 -0.12945972 0.10095993 0.09162068 0.12286253 -0.097972915 0.26588762 -0.05592714 -0.13206552 0.026330482 0.0012145166
213 -0.01596114 -0.22333539 0.03912956 0.17867367 0.06273872 -0.27455494 -0.18832274 0.10128477 0.12595773 -0.070024036 -0.2488251 0.007944179 -0.5137796 -0.13497281 -0.03275102 -0.04224103 0.27142957 0.083308816 0.06462191 -0.12937294 0.2087761 0.00680555 0.12765306 0.040317208 0.04367178 -0.021041328 -0.026793005 0.17323618 0.28642613 -0.1503123 0.10187172 0.15942365 0.10792692 -0.015642084 -0.2920098 0.3547673 0.20991631 -0.021798816 -0.073187396 0.18160105 -0.013885457 -0.015351387 0.13941684 0.0039555486 -0.07915785 -0.18327075 -0.028885141 -0.053414404 0.03114123 0.09451615 -0.014528076 0.1040704 -0.118175514 0.024091301 0.056446847 0.067664474 -0.005261457 -0.09284317 -0.06081398 -0.12942076 0.13138045 -0.04674932 0.09421053 -0.043317385 -0.008225836 -0.05607742 -0.14119165 -0.32586184 0.057053298 0.062514365 0.30673343 -0.009298312 0.1794467 -0.14682765 0.122039996 0.05184298 -0.09479361 0.025598388 -0.05045819 -0.09349652 -0.14365527 -0.028809022 -0.08862931 -0.027233195 -0.014127785 -0.09182511 0.0129251415 -0.015254022 -0.0011954594 -0.40903935 0.092990175 0.06576453 0.027035119 0.15741761 -0.060131166 -0.07860474 -0.1874728 -0.06970204 -0.06960252 -0.012614404 0.09388538 -0.31702244 0.13011762 -0.13330926 0.010755198 -0.1263405 0.069744684 -0.09987122 -0.27072483 -0.0925513 -0.13733537 -0.27856204 0.075265594 0.0519799 0.11304851 0.077978864 -0.029844776 -0.14775231 -0.2616799 0.021317523 0.20721759 0.18708207 -0.1338418 0.28361833 0.10634483 -0.3034014 -0.17736328 -0.16104807
119 0.067243814 -0.11009579 -0.16724233 -0.018046418 0.033483855 -0.11279254 -0.12173678 -0.044117834 0.07798083 0.07868712 -0.23869352 -0.19425204 -0.13408034 0.09601735 -0.21730226 -0.047858156 -0.10636637 0.1456978 0.20861408 0.00013542743 -0.016638797 0.18589595 0.030488394 -0.11590818 0.027964689 0.16918944 -0.01177756 -0.0599058 0.17459732 0.10804109 -0.037626278 0.26995072 0.24374208 -0.07094752 -0.26308924 0.059807274 0.15574755 -0.28114954 -0.18084769 -0.40499857 -0.14123261 0.06126886 0.15151697 -0.27977905 -0.27435365 -0.09791129 0.17416133 0.09526118 0.10731122 0.028921502 -0.1360436 0.17878178 -0.061976843 -0.14984685 0.018020378 0.07985127 0.16944875 -0.19734673 -0.3845785 0.1250692 0.07735392 0.06857142 -0.02135692 -0.0070778443 -0.08006976 -0.12342076 -0.08280942 0.16621363 -0.0026210519 -0.23988642 0.21836203 -0.14435588 0.16960864 -0.10495452 -0.15484291 -0.086414054 -0.35147867 0.011452436 -0.13530429 -0.1595023 -0.18973838 -0.11611472 0.005587424 0.06840139 -0.004428171 -0.06486781 -0.22859344 0.09186553 -0.14849165 0.18388818 0.09606074 -0.1430542 0.11512836 0.29177913 0.06683532 -0.12779148 0.098150276 0.14311409 -0.009378933 -0.4322069 0.19530258 -0.006028645 -0.050832495 -0.094546564 -0.18081427 -0.18196978 0.1948485 -0.013177688 -0.15601218 -0.2773801 -0.07579063 0.07567567 -0.13644171 -0.008469195 -0.011746719 -0.13532299 0.14280643 0.10254022 -0.20066224 -0.121666074 0.33183277 -0.19591287 -0.10090816 0.10525172 -0.37162396 -0.2295357 -0.22244893 -0.15066919
334 0.28224847 -0.069046415 -0.01145 0.07537253 0.11910149 -0.106770076 0.019522343 0.09281443 0.18089132 0.058786757 -0.08487845 0.15862684 -0.19153439 -0.07219229 -0.07298067 0.098834395 -0.039989613 0.22015539 0.17102715 -0.16601337 -0.07270789 -0.013455844 -0.050596964 -0.1060578 0.09777912 0.07834471 0.09676728 -0.11425226 0.32519966 0.035426587 -0.050445523 0.26787695 0.13584426 -0.060568012 -0.24036235 0.01336136 0.15205683 -0.18043059 -0.23254272 -0.26159635 -0.13569468 0.25969 0.14335534 0.023922646 -0.072735496 -0.32283095 -0.037248008 0.05842192 0.17683583 0.19891636 -0.040171206 0.029752348 -0.10318174 0.06961775 -0.030528827 -0.082328595 -0.08101824 -0.01501398 -0.37605268 0.09414525 0.19056943 0.021653047 -0.02003305 -0.05516848 0.2876111 0.07067861 -0.15724431 0.053735472 -0.069592714 0.06465042 0.3275435 -0.041472536 0.30676267 -0.07920036 0.016130794 0.113720305 -0.12790497 -0.21851698 -0.084029675 -0.11953002 -0.18408506 0.28254446 -0.11342192 0.22311155 -0.052616395 -0.16859417 -0.15348944 0.12789945 -0.107403316 -0.11395058 -0.13051456 0.16863757 0.05334922 0.023389675 -0.03715408 0.06029981 -0.10507065 0.0031755457 -0.07778707 -0.3483374 -0.007702824 -0.18269737 0.027062876 -0.098393776 -0.13089 -0.3882742 0.037014335 -0.051494952 -0.34128594 -0.07927081 0.236403 -0.10983718 0.11081592 -0.16462882 0.14850588 0.16637743 0.24504925 -0.0064407 0.11386526 -0.087968886 0.27240697 0.24475873 -0.062487297 -0.09128872 -0.06261869 -0.21827696 -0.14024943 0.123240516
271 0.11793949 -0.0066058086 -0.049713597 0.06028622 0.06793952 -0.21076179 -0.1670499 0.021741433 0.059250638 0.02844918 -0.16290918 0.05984947 -0.23021628 -0.08774443 -0.28772038 -0.04124895 0.16548881 0.107044734 0.19487916 -0.032942984 -0.055985298 0.12619898 0.054320455 -0.17343628 0.17340733 0.067941055 0.023602955 0.006948822 0.23820353 0.105041 -0.06759039 0.13336442 0.05376638 -0.26166528 -0.07875499 0.24587147 -0.045544997 -0.18122973 -0.0863522 -0.1726274 0.0057347906 0.15943071 0.091500446 -0.052345302 -0.07193936 -0.17056915 0.07531323 0.12669046 0.0091072805 0.27064353 0.04021622 -0.06227593 0.04553334 0.032362517 -0.039221145 -0.13240306 0.034941025 -0.03798334 -0.27093095 0.032473803 0.07707516 0.12866384 0.0973085 0.019892618 0.07543749 0.060780283 -0.05994774 0.03775793 -0.3143757 0.03404783 0.17710991 -0.17035674 0.1611601 -0.03781087 -0.09936544 0.19680583 -0.10143577 -0.08475255 -0.04086555 -0.38256395 -0.21382391 0.15176201 0.061626904 0.036358096 -0.15238178 0.003792707 -0.143684 0.1137349 -0.12053181 -0.1379455 -0.12480059 0.030070815 0.14774619 0.1814826 0.056231722 -0.06699778 0.06130625 -0.0811765 0.028348433 -0.2738935 0.022527004 -0.07174366 0.11294888 -0.08873127 -0.12669818 -0.06738783 0.06345505 0.013121759 -0.10752579 -0.15359862 -0.10998903 -0.022742502 -0.03213629 0.01794671 0.18843172 0.039363854 0.19949548 -0.16619985 -0.15095697 0.093136415 0.20705748 0.21765985 0.11983464 0.22240853 -0.1491843 -0.18116345 -0.18309425 0.057399414
67 0.105843574 -0.1268705 0.04285058 0.03667578 0.094729796 -0.36080953 -0.10945826 0.057616744 0.18521045 -0.11582866 -0.20592253 0.12983587 -0.40483427 -0.0803243 -0.11231633 -0.00244169 0.17416331 0.08493745 0.27073297 -0.14371842 0.023295417 0.105704404 0.18068996 -0.1343608 0.1402982 0.075297944 0.0771011 0.018962612 0.16583265 0.0019002493 -0.020717267 0.15542419 0.15034996 -0.1756802 -0.005293729 0.15368159 0.07966033 -0.017969256 -0.12900026 -0.14403681 -0.14798664 0.08388733 0.11149021 -0.018018672 -0.07312516 -0.0102145765 0.04762107 0.13892917 0.13130371 0.10538166 0.13183323 0.067684755 -0.17157875 -0.015540716 -0.12727147 -0.107549354 -0.095713496 -0.10624054 -0.15428789 -0.04597842 -0.03751539 -0.0064624585 0.18241715 0.14280762 0.10677423 0.084057145 0.06865927 0.0044861687 -0.117051974 0.07142409 0.18513857 -0.022433529 0.1972702 -0.23246565 -0.0518928 0.16461888 -0.08925994 0.02073393 0.09184779 -0.21068089 -0.16935894 0.11081665 -0.037060104 0.19632353 0.008567261 -0.077401675 -0.20844357 0.18061988 -0.11595226 -0.07345378 0.02379346 0.08505392 0.12156449 0.039874684 0.0076681776 0.088020496 0.04841248 0.10455352 0.022515448 -0.112778015 0.09790107 -0.0427181 -0.006575324 0.06292783 -0.017306048 -0.10774332 0.15089323 -0.11778463 -0.28800443 -0.1070347 0.08221012 -0.121908955 0.016488878 -0.009379177 0.14659585 -0.006827535 0.09902916 -0.037302535 0.027753977 0.10371018 0.1516806 0.12711239 -0.18435873 0.23400836 -0.11412702 -0.25976625 -0.18619712 -0.1359167
142 0.23266695 0.058352176 0.015476312 0.038835924 0.02789918 -0.30802712 0.08071144 0.081027396 0.107835375 -0.08145714 -0.004250851 0.14100568 -0.18305041 -0.044989657 -0.15430042 0.2172719 0.026043126 0.07058672 0.07952333 -0.16184846 -0.05142522 0.049652092 0.108744234 -0.025997587 0.058524087 0.14237525 -0.03323145 -0.06686673 -0.027361302 0.011563159 0.22141226 0.35736352 0.17743942 -0.16032222 -0.09565575 0.088268265 0.0012117508 0.026607016 -0.1303484 -0.18611649 -0.1629088 -0.06331791 0.08756098 0.11146096 0.0062407134 -0.044570245 0.0325665 0.2594077 -0.07866237 -0.009544484 0.19244424 0.046982814 -0.37309784 -0.08248367 -0.031929478 -0.10366747 -0.06613568 -0.15556882 -0.12624706 -0.038849495 -0.12511393 0.0028655303 0.21393801 0.079889536 0.041680194 0.09599325 0.015960963 -0.12653206 0.07022648 0.1447819 0.29188055 0.043474205 0.26315987 -0.36598766 -0.06330548 0.022917883 0.061009005 -0.009176702 0.21974514 -0.17752141 -0.08924258 -0.037905052 -0.04075741 0.13713272 0.062043 -0.1418752 -0.14449055 0.18856318 -0.18583691 -0.037112713 0.12252007 0.22625214 0.1010358 0.118340366 -0.05918634 0.060433332 0.0398701 0.031418994 0.03521163 -0.21931502 0.03467722 0.01567296 -0.15918098 0.14673337 -0.078731485 -0.20146571 0.13386321 -0.15588497 -0.49417645 -0.047138087 0.1327363 -0.2371067 0.22476873 0.11011681 0.17548092 -0.025861623 0.008084336 0.089943826 0.07154477 0.08473656 0.29354095 0.18185028 -0.20188086 0.30473873 -0.12627958 -0.3249661 -0.28312823 -0.29464725
9 -0.09219986 -0.11116049 0.07271687 0.06987347 0.018695481 -0.31910625 -0.1676085 -0.02142367 0.24888258 0.041701563 -0.22076531 -0.03662382 -0.28676203 -0.112730354 -0.20967281 0.1256766 0.107266895 0.09958204 0.23536643 -0.16221736 0.008613826 0.012938232 -0.021549948 -0.068851456 0.14766833 0.054123674 0.062793925 0.07266189 0.30813882 -0.23087259 0.016307935 0.2462563 0.24229805 -0.13505004 -0.071017824 0.17356871 0.015708582 -0.1258811 -0.16031049 -0.102691226 0.13290259 0.11491281 0.07831375 -0.0027886042 -0.108114034 -0.26003203 -0.20157146 0.13153975 0.06959102 0.116030395 0.04527781 -0.06999398 -0.15183252 -0.07023301 -0.08744325 -0.19062227 -0.08964415 0.057266943 -0.058478724 0.015403905 0.017348282 0.01905866 -0.01664564 0.0354901 0.118050836 0.029742641 -0.0078695575 0.034064304 -0.066840336 0.08865343 0.2256255 -0.03960943 0.15393063 -0.18446457 -0.059407428 0.12432129 -0.107165776 0.06387671 0.06592353 -0.07891259 -0.21902634 -0.021451382 0.051929817 0.09387788 -0.014742657 -0.092170715 -0.06779096 0.14843322 -0.05270907 -0.12687123 0.08541798 0.06449504 0.09569475 0.042864036 0.037329074 0.046003435 0.004857504 -0.069789514 0.09815603 -0.29950485 0.025048941 -0.114477806 -0.060303926 0.005153265 -0.12393031 -0.08418466 0.03258807 -0.110517465 -0.32837486 -0.12211025 0.043899044 -0.11877391 -0.0705187 -0.14125146 0.40376616 0.00035531278 0.14412233 -0.11350561 -0.12301116 0.152886 0.19528347 0.13479093 -0.08865321 0.12856908 -0.09257037 -0.12193456 -0.055076204 -0.11176046
231 0.20745514 0.024337752 0.07921027 0.2175728 -0.023222737 -0.3094437 0.07537244 0.099896625 0.25081533 0.08763957 0.14044997 -0.16383737 -0.11346358 -0.17578423 -0.19028029 0.09833993 0.15426375 0.015487696 0.15442936 0.033536807 -0.13116987 -0.19216713 0.1542073 -0.024442108 -0.19307306 0.05056933 -0.15639728 0.034112964 0.3864673 0.13179481 -0.0967168 0.078878656 -0.053823628 -0.1402093 -0.095619746 0.026850777 -0.15480483 -0.065306194 -0.21424438 0.008385901 -0.008414955 -0.0702726 0.19228734 0.105311155 0.0049890853 -0.10442358 -0.19718458 0.11529803 -0.09235491 0.09848647 0.05118221 -0.18809208 0.1096212 0.017336484 0.2154165 -0.048199642 0.20563199 -0.07449781 -0.051152628 -0.30877677 0.16173884 -0.007712432 0.029809352 0.08971325 0.0019248734 -0.14394656 -0.22926709 -0.09220844 -0.11034331 -0.15034929 0.16657159 -0.23919593 0.38584074 0.26048017 0.05469146 -0.014642493 0.03367672 0.048850097 0.23085026 -0.0908479 -0.16827704 0.018155692 -0.010697229 -0.01683725 -0.021428682 -0.03948642 0.13293561 -0.08567848 -0.08757592 0.11808548 -0.021540742 0.08458987 -0.32458618 -0.17346275 -0.085059814 -0.1177163 0.12765633 -0.0822691 0.08550977 -0.18025173 0.1894278 0.013629627 0.1438524 -0.012371401 -0.24659185 -0.4108195 0.035668056 -0.1357927 -0.20309027 -0.06754493 -0.062406514 -0.20586906 -0.09036187 0.20737895 0.22727582 -0.023120046 -0.001305621 -0.5320654 -0.17257668 0.35748896 0.07873147 0.13411866 -0.10653242 0.3028295 0.049972087 -0.27372092 -0.2680894 -0.2578539
195 0.4525618 -0.08278069 -0.4294517 0.28361553 0.5474812 -0.38394216 0.27944732 -0.4582856 0.34973246 0.015789255 0.44936714 0.17121296 0.383772 -0.2439837 0.08617828 0.37930843 -0.03212844 -0.18387547 -0.25800243 -0.23666914 -0.17664674 -0.22725207 0.019522967 -0.03688389 0.54648805 0.16585153 0.2902073 0.14837693 0.23822731 0.12889083 0.47224954 0.029034596 0.0652665 -0.66974664 -0.14949998 0.29807103 0.073869266 -0.48145708 0.19711266 -0.51204973 -0.06715455 0.23029079 0.9387651 -0.175126 -0.2634627 -0.47507828 0.7972585 0.38829032 0.13467006 -0.21202007 -0.60170674 0.1817005 0.17056659 -0.0033827405 -0.49157897 0.2917112 -0.52248746 0.29402936 -0.019767964 0.2949297 0.07938173 0.35482314 0.20027958 0.46085024 0.23532578 -0.8067036 0.38281286 0.100265 0.35691345 0.020924533 -0.07340614 -0.8597258 0.014917685 0.38459504 0.57412714 -0.040917207 -0.41951746 0.8537771 0.016877513 -0.66169876 -0.27375078 0.069368556 -0.8013606 -0.10578494 0.24093726 0.395327 0.00059056387 -0.42138323 -0.21677355 -0.043818597 0.23243824 -0.18722989 -0.38782147 0.11933324 0.034807976 0.25640678 0.19421168 -0.46204707 0.34189412 -0.9785355 -0.029935833 -0.29488838 0.6322699 -0.42994872 0.23407745 -0.49328068 0.08977403 -0.69251776 -0.7803169 0.13618568 -0.42569214 -0.8572735 -0.6045678 -0.13409531 0.23373984 0.04642774 -0.3426965 -0.56132084 0.18666333 -0.45818013 0.46950054 0.4358628 0.3567329 0.15984859 -0.11698729 -0.2765644 -0.40781438 0.1368566
109 0.21517867 0.027554955 -0.004132868 0.1405457 0.10138495 -0.039676476 -0.09298466 -0.02284655 0.026520383 -0.078939274 -0.18840349 -0.009116985 -0.37974897 -0.06186746 -0.22105145 0.021668648 0.08603053 -0.10605961 0.14149582 -0.0843101 0.020063868 0.031164909 0.059823986 -0.035836246 -0.016757162 0.029588139 -0.0056199115 0.0873441 0.1579533 0.1286362 -0.18495432 0.17017715 0.26520056 -0.07870884 -0.2117958 0.042304184 0.08353014 -0.110268034 -0.019096069 -0.20125918 0.03021677 0.13028458 0.17297941 -0.020482011 -0.089540355 -0.049547903 -0.07506489 0.1414205 0.2694801 0.14191827 -0.014880939 0.064012654 -0.097112276 -0.21715459 -0.06492669 -0.0875077 0.0074101305 -0.113888964 -0.38749468 0.1602513 -0.11852241 0.21323852 0.058162306 0.006512926 0.0372818 0.0018029613 -0.118466824 0.18382132 -0.16753781 0.04932179 0.17857035 -0.16453655 0.21196605 -0.069702566 -0.022821339 0.08572984 -0.11621116 -0.14792144 0.037777383 -0.2386448 -0.30342054 0.15357605 0.06703527 0.044396605 -0.08099483 -0.029752241 -0.15104659 0.07856445 -0.1922937 -0.0398737 0.013963084 0.12480997 0.18559827 0.21558857 0.022823667 -0.025968913 0.05365762 0.16565648 -0.0045299116 -0.30331716 0.045004398 -0.13448308 0.06614356 0.048513953 -0.16418439 -0.035599716 0.13912621 0.011716124 -0.18822268 -0.16168022 0.23289157 -0.1390308 0.008544181 -0.0033347972 0.114520766 -0.022934211 0.13667381 -0.054408535 -0.14327729 0.13887694 0.1904975 0.14385733 -0.04157116 0.18142882 -0.32790348 -0.2942856 -0.32932648 -0.05295947
277 0.08153027 -0.004455193 -0.04077919 0.042661335 -0.17320028 -0.15309027 -0.05797445 0.121066295 0.29296848 0.024162106 -0.14380527 -0.050703302 -0.20558386 -0.0917043 -0.13288489 0.23276486 0.1947105 0.25408387 -0.09887258 0.09897125 -0.12511595 0.041979097 0.1603916 -0.251745 0.10360519 0.16990711 -0.14886586 0.11632534 0.32667068 0.00058651675 -0.019658567 0.12642199 0.22409515 -0.060629394 -0.12762518 0.043016743 0.08995235 -0.13399518 0.03850642 -0.13176641 -0.11572025 0.023534639 0.15368453 0.012855636 -0.06804136 -0.10798108 -0.073330164 0.03820681 -0.052221768 -0.09025185 0.0027688092 -0.06112615 -0.08875375 -0.0015020724 0.06746057 0.1844889 0.004649884 -0.19951682 -0.33930084 -0.036216993 0.03427118 0.06103185 0.1353007 0.083544895 0.13387604 -0.10513595 -0.0078452965 -0.1309061 -0.17947455 0.0012214268 -0.015311475 -0.09843962 0.14419335 -0.030462721 0.002832808 0.06665906 -0.16882603 -0.095005974 -0.029346094 -0.10720437 -0.2681477 -0.046034295 -0.047229894 0.17352721 -0.290177 -0.023024755 -0.022982448 -0.15413363 -0.08863831 -0.035144348 0.0662328 0.3654317 0.06396105 0.038001206 -0.0023039333 -0.015129282 0.04485947 -0.053740628 0.055794515 0.0196149 0.035993967 -0.30501112 -0.07873437 0.009451146 -0.03473235 -0.108719476 0.1279459 0.009358775 -0.27714393 -0.16607282 0.019529667 -0.3416148 0.03576925 0.13009684 0.13025442 0.066408314 0.07554766 -0.094930135 -0.10709241 0.025676839 0.076253876 0.138519 -0.15078822 0.35777298 -0.15186691 -0.2260841 -0.07435928 -0.15079743
40 0.13324623 0.10907517 0.09665965 0.03338606 -0.108762324 -0.40553632 -0.095639996 0.0636304 0.23156714 0.032925956 0.035551142 -0.20718126 -0.28157666 -0.17323743 -0.2748438 0.109986655 -0.05887382 0.10609453 0.10115862 -0.042569548 0.05473845 -0.20428629 0.13706037 -0.14876318 -0.008816085 -0.05461308 -0.17944549 0.07324753 0.20977218 0.11564769 -0.13241814 -0.018907957 0.076765366 -0.2766378 -0.031027773 0.1476914 -0.11152279 -0.07902466 0.09571579 0.03927885 0.030517258 -0.024011642 0.115037635 -0.004921521 -0.08114042 -0.037874866 -0.17189649 0.21927911 0.10545677 0.123541184 -0.00022600003 -0.16975358 -0.05375331 -0.23614499 0.32679585 -0.03830689 0.10802752 -0.07317576 -0.093869664 -0.22510047 0.046106175 0.0139607405 0.07585993 0.09704416 -0.023485528 -0.08274646 -0.09497793 -0.054477446 -0.08735004 0.018976098 0.20136388 -0.1957507 0.43102062 0.013422729 -0.10233238 -0.07460281 -0.035365637 0.15736808 0.14149924 -0.029925905 -0.19165441 0.08943193 -0.07177691 0.12840393 -0.0025494853 -0.11237481 0.08046012 0.022715887 0.012228084 -0.0063323737 -0.010971246 0.13282958 -0.18534914 -0.10973304 -0.04243663 0.050513085 0.13907866 -0.015822424 -0.15251313 -0.036274035 0.0637219 -0.18544666 -0.1040959 0.11530697 -0.015448515 -0.09690608 0.119933695 -0.14895326 -0.30590028 -0.18385871 -0.05406634 -0.14665239 -0.071757615 -0.030876914 0.15383089 0.11740414 0.03341227 -0.24463388 0.021676237 0.0855513 0.2728735 0.24448904 -0.07581029 0.21817584 0.0406754 -0.33597302 -0.1297401 -0.030035177
23 0.35266316 -0.018303508 -0.3061397 0.053545415 0.24371244 -0.21977554 -0.2571034 0.1846376 0.042115964 0.12981695 0.07281451 -0.10247517 -0.1100398 0.1223329 -0.1642207 -0.0057283384 -0.06329198 -0.0009137072 -0.17840567 0.11691932 -0.29395348 -0.12600763 -0.15651831 -0.2706129 -0.12763675 -0.17039962 0.1791413 0.08354556 0.03391111 0.14726819 -0.19178368 -0.0063190586 0.06156289 -0.052072134 0.021011103 -0.093540765 -0.051292825 0.24269843 0.32754394 0.0017683909 0.2839661 0.018649682 0.35435346 0.12907363 -0.31162414 -0.044641167 -0.12674606 0.30287617 -0.0009819774 0.070081405 0.22166975 -0.027577743 0.02968971 -0.26391742 -0.0022510523 0.14063403 -0.050127696 -0.011132539 -0.20135008 0.08355833 0.0032595098 -0.1447762 0.22533768 -0.040384233 0.15740149 -0.26863825 -0.05687027 -0.26376644 -0.03246137 -0.27669105 0.031172093 -0.15783697 -0.20029402 -0.073227696 0.21499377 0.2155624 -0.3332107 0.20312616 -0.06858334 0.17105822 0.07176661 -0.09734283 -0.023488801 -0.024021745 0.026292564 -0.18066946 0.34192416 -0.13270803 -0.0018152114 -0.08158943 0.30186808 0.22004093 -0.006254591 -0.14894702 -0.038736377 0.25578654 0.23813613 -0.21479529 -0.16803643 -0.4017679 -0.3042572 -0.2764976 0.13252825 -0.14919142 -0.0029020857 0.18149932 -0.3140093 -0.09295676 -0.002161995 -0.08684012 0.4436232 -0.19051878 -0.11304881 -0.17048961 0.45546243 -0.3368778 -0.14509606 -0.12769209 0.38050383 -0.03415251 0.12916183 -0.04878896 -0.30267373 -0.069873065 -0.13349098 -0.14386211 -0.16916877 -0.07685784
257 -0.042326014 0.006064706 -0.08217679 0.29653943 -0.005085391 -0.4901204 -0.14028397 -0.12821664 0.44755977 0.11854794 -0.14650564 -0.014497397 -0.32205346 -0.13757323 -0.009348285 -0.03476383 0.101160794 0.17725639 0.20260046 -0.013691182 0.015743667 0.06729481 0.16196913 -0.20991512 0.2586895 -0.1926503 -0.060719907 -0.005233332 0.39924404 -0.17566095 -0.04317203 0.12544398 0.13665053 -0.36502972 0.07806001 0.19534507 -0.13383996 -0.012508749 -0.029309418 -0.06799297 0.12863302 0.3207221 0.5018337 -0.15605113 -0.02016284 -0.13468477 -0.09408885 0.09792149 -0.06970408 0.08508588 -0.024465343 -0.09260982 -0.060083512 -0.093562774 0.019534975 -0.07655274 -0.14980914 -0.14001757 -0.18032494 0.11261708 0.35407814 -0.011422165 -0.07429459 0.021904984 0.15778898 -0.21227661 0.042994414 -0.0057851425 -0.1578746 -0.09949293 0.07104372 0.05941824 0.26863593 -0.31958345 -0.15914753 0.09670624 -0.058115356 0.06845741 -0.19899993 -0.09115389 -0.18948074 -0.044019718 0.17262861 -0.026019862 -0.16245079 0.019232756 -0.15484793 0.11784467 0.016292972 0.048243694 -0.20553952 0.2515132 0.06578053 0.13562602 -0.17021352 -0.01991697 0.15174666 0.008187339 0.03364195 -0.1627925 -0.016246893 -0.06863976 -0.124393225 0.071543336 -0.06040588 -0.07156239 0.068253934 0.12938114 -0.38394028 -0.049622275 0.038638603 -0.08860196 -0.07595516 0.1234457 0.1492117 -0.04207961 0.0077187642 0.0053607365 -0.124715835 0.0023679596 0.11307571 0.016189983 0.020809812 0.18622023 0.024140785 -0.13390855 0.08406805 -0.072298035
53 0.04440832 0.030037785 0.019629218 0.012843013 -0.09441234 -0.09530238 0.059748307 -0.04082055 -0.16646546 -0.36965412 0.08381193 0.023309836 -0.4719174 -0.034106806 -0.026443314 -0.051108204 -0.016052533 0.11325809 0.14792493 0.27888533 0.07920033 0.018634314 0.36834285 -0.3403791 -0.18555279 0.26723152 0.28071678 0.12729892 0.20393999 -0.035199884 0.01358918 0.31855452 0.12157977 -0.33414477 -0.20222686 0.2670679 -0.08958884 -0.34656328 -0.12050651 -0.1156361 0.0467462 0.15770528 0.6370407 -0.11976546 -0.2594216 0.2321665 -0.053851567 -0.08665249 0.13671216 -0.1425161 -0.082684785 0.19222666 -0.06827874 -0.14793217 0.043021273 0.36610892 -0.08950203 -0.008196334 -0.025488734 0.1142599 0.18314968 -0.16851494 0.1295417 0.33262938 -0.18491654 0.124713436 -0.06542287 -0.13848446 -0.20290278 -0.26328418 0.5268025 0.14279306 0.51398206 -0.24524641 0.011153984 -0.39486012 -0.31932485 -0.02627801 -0.17161492 -0.19714703 0.024533952 -0.23932645 -0.09303528 -0.14331982 0.03043384 -0.07085181 0.002072201 0.08426354 -0.092969 -0.27449486 0.039068744 0.22566451 0.07006157 -0.01274281 0.058887556 0.003410448 0.08599766 0.058561113 0.32560718 -0.10991944 0.0072638975 -0.13746008 0.15249293 0.065021984 0.24946108 0.10038451 0.10823375 -0.20826334 -0.0035952937 -0.0925599 -0.37536427 -0.2731058 -0.03415854 -0.0019322772 0.08735386 -0.09794119 0.23623444 -0.47046074 -0.20372029 -0.08531754 0.34407526 0.30290917 -0.28268296 0.1755039 -0.08551512 -0.16527031 0.081040196 -0.26776907
98 0.16620918 -0.009898198 -0.06416625 0.054287333 0.07448753 -0.37537345 -0.12304864 -0.15164046 0.13023333 0.03353525 -0.18550102 0.017929241 -0.15318416 -0.066348575 -0.17977878 -0.058945466 0.2096528 0.113419004 0.051403113 0.11491996 -0.010012945 0.1643549 0.06614808 -0.056029502 0.0487175 0.11885126 -0.009332935 -0.027692534 0.27559265 0.14465709 -0.1190101 0.119319595 -0.011980668 -0.20423134 -0.24242672 0.24421844 0.12987974 -0.09767329 -0.12376759 -0.34296745 -0.119686045 0.03272244 0.10835453 0.0106679145 0.027015403 -0.059198115 0.04116917 0.12830614 -0.023930524 0.25117943 0.020616306 -0.03314326 -0.052502062 0.0012490595 0.00788791 -0.018414328 -0.06556858 -0.018565191 -0.15065321 0.046777528 0.10588467 -0.051044762 0.09467144 0.14102738 0.117796704 -0.013232894 0.004893422 0.03543368 -0.08798536 -0.045242656 0.20171903 -0.07470685 0.20349532 -0.2047283 -0.10471974 0.19734573 -0.016098455 -0.071019575 -0.14710353 -0.21773206 -0.19374737 0.079046205 0.10905911 0.052478552 -0.10091314 0.034426298 0.029306427 0.09853266 -0.14305538 -0.055613384 -0.054877643 0.12722561 0.11164525 0.024062302 -0.06016378 0.06259321 0.15310876 -0.09659908 -0.01730169 -0.23903577 0.0059553236 -0.07609317 0.09838551 -0.03625059 0.05337812 -0.094866134 -0.022778884 -0.02651169 -0.13079031 -0.14897437 0.0958669 -0.08353359 -0.039557405 -0.11425318 0.08915561 0.09410672 0.028884597 -0.21584718 0.031450193 0.041821912 0.22851118 0.19464728 -0.013241362 0.056404203 -0.22421952 -0.2401982 -0.18571907 -0.31025806
26 0.1864711 0.034006454 0.027083075 0.06884363 0.022409942 -0.35958198 -0.07363428 0.002342009 0.02421283 -0.048910365 -0.21018547 0.05942525 -0.33800185 -0.22650425 -0.288349 0.18416272 0.115494296 0.17956051 0.33340514 -0.088627584 0.08217094 -0.06333701 -0.03397678 -0.11575232 0.1722798 0.16000193 0.107301354 -0.016139358 0.22791664 0.066078834 0.16273706 0.24455927 0.03245865 -0.21432509 0.059621163 0.28454217 -0.0018504001 -0.113893524 -0.1516673 -0.1506163 0.0761148 0.13326624 0.04125646 -0.016780572 -0.07747162 -0.047546238 0.003593821 0.14139006 -0.051220253 0.072908215 0.15368643 -0.0037757573 -0.18402466 -0.1720117 -0.06254984 -0.28894946 0.041937627 -0.02008735 -0.036012523 -0.043521892 -0.098859355 -0.08169199 0.23980533 0.123913616 0.087709494 0.115891285 0.08069657 -0.020532915 -0.08631085 0.20286758 0.21381547 -0.107663825 0.20946354 -0.07577984 -0.079265215 0.24846902 0.087353036 -0.045223076 0.13137299 -0.1802115 -0.1833994 -0.055332664 0.07867314 0.0652782 0.03514865 -0.2852286 -0.1494336 0.25071806 -0.21831015 0.00074189564 -0.06584779 0.09935986 0.08921689 0.17722493 -0.059220634 -0.050779626 -0.096026525 -0.0515794 0.04943 -0.22542293 0.038168643 -0.14695546 -0.12009294 -0.045009445 -0.069582075 -0.14121091 0.028870156 0.064092405 -0.5061892 -0.30038944 -0.015925048 -0.00528948 0.20681216 0.0076255533 0.2171398 0.0021441716 0.19741245 -0.10790732 0.0014002916 0.10415692 0.26405454 0.09397212 -0.06477611 0.18854341 -0.06853289 -0.22094087 -0.13840276 -0.015288843
285 0.040105566 0.07747211 -0.04843883 0.34108534 0.010862989 -0.5089406 -0.10675325 -0.12096817 0.0354322 0.18500029 0.115516804 0.06499743 -0.5594384 -0.103850484 -0.08584202 -0.16030453 0.16427714 0.059382908 0.18261445 -0.0048928773 -0.09559453 -0.017715942 0.24857993 -0.052067406 -0.11764519 -0.006836689 -0.13218246 0.07997817 0.10597994 -0.033820845 -0.09260379 0.1973971 0.33238918 -0.023117958 0.15871145 0.05317242 0.0047757 -0.065356575 -0.12926206 -0.20150411 -0.03187471 -0.19809362 0.17649847 0.016874699 -0.039929386 -0.01583329 0.016500577 0.0016957928 -0.13241194 0.14157058 -0.14720681 0.029234635 -0.13183488 -0.15078115 -0.12836297 0.10981694 0.17482884 -0.12660988 -0.2556397 -0.04952312 -0.047096282 0.016783932 0.18859738 0.12804824 -0.09093056 0.03181397 -0.17443642 0.07655989 -0.08369765 -0.09563837 0.09654345 -0.19031508 0.2707475 -0.032021254 0.123408675 0.08549043 -0.15529457 0.081360154 0.055654615 -0.07064132 0.07178687 0.1663355 -0.06649841 -0.03471549 -0.029648615 0.011051696 -0.26463795 0.12426124 -0.10800989 -0.35230651 0.03589791 0.06873983 0.058045946 0.15021203 -0.07303904 -0.019338809 0.17706509 -0.01706568 0.055750705 0.020582087 0.13078043 -0.2065825 0.075974174 0.07785548 0.016833354 -0.07326463 -0.031938102 -0.04470303 -0.3178664 -0.24541777 0.11268407 -0.11658232 -0.16677447 0.10351181 0.0285333 -0.004218077 0.103940934 0.09107866 -0.026898708 0.01899585 0.23298272 0.14399469 -0.1378108 0.22622596 -0.21548945 -0.30566275 -0.18912303 -0.039063517
128 0.42436793 -0.18307303 -0.10173942 -0.013974728 -0.055499844 -0.19064723 -0.06344352 -0.07135982 0.07066309 0.041159336 -0.22493051 -0.056491353 -0.21957445 -0.16023749 -0.2903974 0.14285938 0.03404819 0.23733062 0.25456458 0.04888955 0.1606887 0.032082494 0.009163284 0.06811974 -0.0113217905 0.29385087 0.010844418 -0.026796706 0.26329088 0.029842768 -0.15152238 0.42553714 0.08003959 -0.19174929 0.13592084 0.22632103 -0.029882345 0.0031458898 -0.10859243 -0.42863372 -0.07807843 0.034294255 0.093274064 -0.09175741 -0.1747261 -0.03941467 -0.25463915 0.05767982 -0.051915202 0.042757586 0.17716786 -0.024023937 -0.11632963 -0.19738771 -0.065488346 0.024184253 -0.015276727 0.010230065 -0.17616662 0.06072127 -0.06881121 0.18109314 0.039241087 0.13722089 -0.19226004 -0.08418121 0.052620627 0.065938964 0.08966499 -0.2718402 0.08108208 -0.32684377 0.3146135 -0.13521312 0.020140301 0.024705818 0.0058814217 0.17389679 0.076623894 -0.21822591 -0.12710051 -0.32196024 0.027662596 -0.091312885 0.09339601 0.013860417 0.036671147 0.25288478 -0.19533972 -0.14317605 -0.10465531 -0.024614304 0.08141773 0.25443143 0.089087576 -0.01898189 -0.046436932 0.13646014 -0.14199732 -0.15436961 0.12687552 -0.28114617 -0.21899429 -0.25843266 0.057335127 -0.15568326 0.0148636745 0.09634665 -0.21471721 -0.40586272 -0.15418442 -0.0024130512 0.16615026 0.21193053 0.212018 -0.23175728 -0.05456993 0.04375454 -0.031163707 0.0004691801 0.1851991 0.046398476 0.0073532383 0.064055905 -0.11049801 -0.39299467 -0.32578182 -0.054284275
78 0.3694052 -0.14412223 -0.4099121 0.2849395 0.5646217 -0.38366604 0.33036515 -0.49696022 0.29404977 -0.057758525 0.44354942 0.20960169 0.49753356 -0.2557339 0.031106392 0.3968792 0.07162917 -0.15145749 -0.1279272 -0.31392208 -0.13579662 -0.35928628 -0.07503101 -0.022933345 0.52226055 0.16246647 0.18851541 0.060285993 0.19079514 0.11795532 0.48620865 -0.08136991 0.105617054 -0.6061739 -0.060345996 0.28070378 0.18358634 -0.4522472 0.24093616 -0.5034702 -0.28086877 0.16289505 0.8179134 -0.28937298 -0.23694974 -0.5087268 0.76644623 0.36047423 0.09213206 -0.2953767 -0.50101584 0.09310319 0.10514252 0.027287744 -0.50759727 0.24419446 -0.46964285 0.24360648 -0.009874672 0.3098156 0.1155434 0.39014205 0.2176427 0.42046088 0.23525116 -0.8536325 0.40943012 0.13579908 0.3730638 0.063485354 0.035781257 -0.95749724 0.079626895 0.4016395 0.5087046 -0.00015735935 -0.4566775 0.8765964 -0.060975973 -0.6267787 -0.28323603 0.04053637 -0.77603346 -0.06016667 0.12577127 0.420768 0.029514907 -0.47415406 -0.28107023 -0.080737054 0.18358788 -0.22206385 -0.35161367 0.17354889 0.091537595 0.27637455 0.24089481 -0.523414 0.26801085 -1.0835835 -0.014854044 -0.35595098 0.58502805 -0.32446375 0.28939712 -0.70753413 0.17493501 -0.70239383 -0.8691619 0.102179766 -0.54848385 -0.94681054 -0.66323113 -0.15085515 0.2305045 -0.016352318 -0.2902328 -0.4698216 0.2004322 -0.42741615 0.5138271 0.42575228 0.30593777 0.24002056 -0.085359156 -0.37432528 -0.23328671 0.15490153
273 0.39991078 -0.13808274 -0.3827729 0.3726576 0.5568863 -0.4935838 0.3677212 -0.4621592 0.31518346 -0.046317186 0.44791996 0.18434262 0.30773166 -0.25255603 0.094583526 0.47551593 0.111429565 -0.1851589 -0.1588018 -0.34246403 -0.1515305 -0.39702046 -0.124435805 0.0008917784 0.6227089 0.27388915 0.22337921 0.052919544 0.25759637 -0.004391996 0.5680143 -0.046565127 0.02172334 -0.61154777 0.016029278 0.26031056 0.15050423 -0.50736934 0.17968659 -0.57079977 -0.17389365 0.23467769 0.91136146 -0.26856312 -0.26286808 -0.48963672 0.69676185 0.29925707 0.07655542 -0.28958878 -0.6040712 0.16722019 0.10218617 0.015224313 -0.6311188 0.25438908 -0.4759439 0.15298042 -0.032597892 0.3316769 0.12040659 0.3948538 0.2079522 0.49545 0.2569576 -0.8611478 0.47811377 0.13456242 0.38320482 -0.024373991 -0.055040892 -0.9177911 0.020556191 0.3397566 0.6382723 -0.029960893 -0.5047048 0.92386615 -0.06898261 -0.6517422 -0.28759873 0.04811913 -0.8877948 0.016813036 0.2863177 0.3817848 -0.10108822 -0.37345356 -0.25422326 -0.044618703 0.32104248 -0.18929203 -0.30912402 0.09293693 -0.08045053 0.3051695 0.24832433 -0.4890861 0.38407162 -1.0402033 -0.006452848 -0.30157816 0.6935745 -0.28729108 0.24090345 -0.49511537 0.16812351 -0.7357354 -0.84382033 0.06704075 -0.5123911 -0.92891514 -0.64066386 -0.13400115 0.29091057 0.02458516 -0.30031192 -0.4507455 0.15619618 -0.41737548 0.4658177 0.36748102 0.26353252 0.20578352 -0.051129647 -0.360408 -0.24343728 0.19143629
280 -0.014316622 0.010179224 0.08895425 0.16737066 0.17616785 -0.53522617 0.027101608 -0.21642067 0.15903018 -0.05798655 -0.2045253 -0.0131777935 -0.15782331 -0.13516985 -0.27702522 0.11969441 0.21595973 -0.02695551 0.20046313 -0.14184983 0.13060698 -0.042775866 0.09097609 0.012364557 0.0022209997 -0.25114068 0.02522953 0.05828608 0.21184567 -0.018566456 0.0017869818 0.12980282 0.17855933 -0.2050136 -0.15932962 0.10509027 -0.015877316 -0.27320266 0.042443346 -0.26756245 0.10067805 0.061312925 0.29685533 -0.034080546 -0.19191389 -0.20232251 -0.00826084 0.2119152 -0.06802118 -0.013416035 -0.036906023 0.061692536 -0.10927043 -0.09816132 0.024967736 -0.20900467 0.19144644 0.06672459 -0.2531856 -0.24293189 0.16564336 0.055239774 0.1560048 -0.006879573 0.12026314 0.15828156 -0.15672012 -0.11788314 0.08825216 -0.08115537 -0.024772123 -0.09771666 0.22826459 -0.10911187 -0.10761161 -0.08037057 -0.06657748 -0.07138056 -0.01967689 -0.14878987 -0.17476264 0.0026608163 0.18773173 -0.043712296 -0.028457055 -0.018465886 -0.042930894 0.057705346 -0.16822971 -0.08347106 -0.008607736 0.026824303 -0.16997322 0.04267171 -0.05632226 0.011388402 0.19382994 -0.11279821 -0.017039252 -0.15249343 0.013924504 -0.062348355 -0.16144307 0.16589001 -0.11959451 -0.14277825 0.10803857 0.028932763 -0.38184953 -0.12128814 -0.01351549 -0.18291128 0.0055224355 -0.038371872 0.14040451 -0.11675667 0.22515413 -0.13940656 -0.07664753 0.23050973 0.14074816 0.13381223 -0.03557914 0.11173234 -0.074261606 -0.18329145 -0.08750331 -0.09031393
332 0.41281933 0.17583746 -0.01367577 0.01946611 -0.0017374976 -0.342086 0.0016047552 0.051138498 0.24036238 0.16198099 0.0020978008 -0.022987721 -0.15268366 -0.10520162 -0.3463925 0.079152144 0.15388948 0.15717836 0.055857502 0.018832035 -0.055533737 -0.20674038 0.21509026 -0.12563497 -0.15210669 -0.0066597946 -0.08797116 0.03495017 0.12773852 -0.16155733 -0.08708382 0.10492425 0.1536972 -0.02209656 -0.0940433 0.13277589 -0.023632487 -0.13560574 -0.07653877 -0.14665225 0.12537378 -0.10672043 0.20172842 0.13604143 -0.008325679 0.1275405 -0.085228026 0.03775904 -0.0835393 0.009399576 0.09690948 -0.08204077 0.03904934 -0.1326556 0.09954101 -0.027163303 0.20353977 -0.14450164 -0.1532104 -0.32460535 0.14793912 0.23004954 -0.015109103 0.14530313 -0.0047214394 -0.14279318 -0.17673129 -0.11268299 -0.09820444 0.053286064 0.17654839 0.039240085 0.4747366 0.25078923 -0.120795555 -0.07683494 0.009064462 -0.030012174 0.20028509 -0.06523879 -0.29648817 0.00599383 -0.07311778 -0.03245089 -0.09324212 0.117269106 0.1760684 -0.0051354207 -0.33580083 0.16265751 -0.069440074 0.063407905 -0.16597302 0.03521012 -0.16996074 -0.06862949 -0.047620405 -0.09308658 0.022594975 -0.15482679 0.15153754 0.069918856 -0.013856281 0.16709128 0.033387706 -0.08217504 0.11568471 -0.2516225 0.04057617 -0.051756322 0.0067998082 -0.27014124 0.004045112 0.09398652 0.1345185 0.04921776 0.036875114 -0.22247957 -0.055629216 0.08913441 0.108500525 0.22816917 -0.25665593 0.40441006 0.11367942 -0.3470454 -0.23463555 -0.09939647
188 0.09663082 -0.19432992 -0.015265693 0.018582873 0.16263688 -0.4178373 -0.089993864 -0.17390934 0.08265011 0.09840076 -0.08086556 -0.11183132 -0.26996723 -0.025439823 -0.09302501 0.10921624 0.19775917 0.093971066 0.17627436 -0.1307149 0.09388494 0.041748144 0.057758525 -0.18414746 0.19023593 -0.053718537 0.11800847 0.1374911 0.16062948 -0.0448962 0.052873712 0.0253806 0.16003749 -0.26063395 -0.010870309 0.24936825 -0.052599475 -0.03984541 -0.05139272 -0.07439325 0.18698774 -0.017490972 -0.012316014 0.04683229 -0.06614694 -0.12881052 -0.14713895 0.07801024 -0.01872979 0.22958328 -0.050600227 0.060881916 -0.04345177 -0.11226283 -0.039797183 -0.24117824 -0.033744548 -0.067345865 -0.28719813 -0.030981615 -0.0051057083 -0.04790814 0.14063178 0.10976141 0.04956519 0.012275837 -0.012147719 -0.09806457 -0.08324275 -0.13101807 0.19026099 -0.09578554 0.15623711 -0.16773695 -0.13177872 0.052351754 -0.10601252 0.09016127 0.06642381 -0.16792704 -0.27169117 -0.017399386 0.04707496 0.073153764 -0.030923208 -0.03235944 -0.1565011 0.21130574 -0.2080397 -0.21558872 0.032878757 0.00565337 -0.011783628 0.19435665 -0.043759197 0.11223507 0.10157748 -0.08265316 0.012738586 -0.07870342 0.0864641 -0.18911535 -0.085140936 -0.049310915 -0.21428142 -0.07801538 0.0763767 0.01902282 -0.32837918 -0.2227524 0.049394924 -0.079578854 -0.027161203 -0.08197626 0.25875518 -0.07638389 0.1822605 0.040888444 -0.21901165 0.21076035 0.1714778 0.10381633 -0.11047114 0.16585614 -0.04401805 -0.11329034 -0.16452207 -0.12278614
200 0.12373982 0.04477359 0.04234254 0.004617142 0.16091077 -0.2685366 0.03795605 0.055136632 -0.00065504987 -0.07485816 -0.12477039 -0.022544395 -0.2531403 -0.09161006 -0.22572298 0.19894889 0.17555511 0.101673245 0.26817715 -0.050475042 -0.03259927 0.081100166 0.0099496925 -0.120384656 0.1849328 0.095943846 0.14665689 -0.030077921 0.16096973 0.11709541 0.046191074 0.15640286 0.12099012 -0.2546932 0.0097843185 0.16897792 -0.030833095 -0.036073938 -0.04659803 -0.16842777 -0.18690541 -0.036804773 0.055555455 0.0019734232 0.013848903 -0.18177396 -0.04053878 0.19191882 -0.038849697 0.20711073 -0.0005268089 0.0108983945 -0.20457518 0.0018514398 -0.10794699 -0.15418576 0.004483292 -0.1398227 -0.30314353 -0.084624514 -0.07301337 -0.058088213 0.12817362 0.04092661 0.12767243 0.049826104 0.094445005 -0.28307372 -0.23530182 -0.00509726 0.16605537 -0.09813426 0.23389922 -0.14599255 -0.10327996 0.31144375 0.048014317 0.10284034 0.08322241 -0.20334038 -0.2022781 -0.036752954 0.10556498 0.07540118 -0.15386276 -0.04382152 -0.052630473 0.32330292 -0.22515908 0.028550033 0.057088412 0.17870292 0.21125716 0.2033353 -0.031380035 -0.060723502 0.13677903 0.09378979 0.12872155 -0.23081355 0.02543846 0.030349294 -0.08957629 0.048218902 -0.0379459 -0.13530213 -0.06294845 0.06283454 -0.44300386 -0.15402706 -0.028138367 -0.111178674 -0.072397634 -0.045171883 0.37669802 -0.100283206 0.0759338 -0.053629573 -0.04970257 0.22142251 0.14939824 0.12319542 -0.1202702 0.2068328 -0.17908943 -0.12082117 -0.26787427 -0.17708078
104 0.068458416 0.08790057 0.053289343 0.0101581 -0.038872655 -0.21527421 -0.008794341 0.16835785 0.39061722 -0.012746891 -0.24609768 -0.0044479948 -0.4398171 -0.046173666 -0.208453 0.025118846 -0.015955541 -0.030095687 0.26794592 -0.063866235 0.06395591 0.047778912 0.26083085 -0.02255831 0.24758916 -0.0073197805 0.0095118 -0.0029440427 0.1960718 0.021066176 -0.09313146 0.24195918 0.06536401 -0.18045543 0.17140558 -0.06986463 -0.10052896 -0.15836978 -0.113396525 -0.046317954 -0.09051855 0.03891609 0.4791304 -0.06751194 0.066639565 0.0735501 -0.005472546 -0.05590911 -0.041101467 0.22089835 0.011068401 -0.06467845 -0.2465994 -0.056484073 -0.12933415 -0.08028422 0.02042749 -0.08636925 -0.14084715 0.14078559 0.074698746 0.083093755 0.10282164 -0.16289178 0.08301695 -0.0077778916 -0.054816004 0.14308348 -0.17661251 0.098623246 0.23585632 -0.067572795 0.3243387 -0.05997265 -0.07036611 0.23895916 0.09046566 0.009030305 0.18035191 -0.10753853 -0.082083255 0.0860271 -0.07360585 -0.023611518 -0.29611337 -0.19275665 -0.26534384 0.2172909 -0.19060288 0.14596276 -0.03186887 0.09077456 0.1780335 0.05391435 -0.08468198 -0.03275253 -0.21810696 -0.038103286 0.13607983 -0.34058464 0.10175585 0.028271317 -0.052368347 0.011899688 0.01986045 -0.10962771 -0.1094126 -0.050892934 -0.34263262 -0.11568305 -0.072638415 -0.10065503 -0.070916936 0.017443266 0.1307892 0.0021479675 0.055616383 -0.0028758582 0.032703977 -0.02043816 0.036238737 0.07336642 -0.048433013 0.27004912 -0.33584532 -0.3386329 -0.22724809 -0.11282824
178 0.09137739 -0.03098677 0.12232942 0.09492968 0.13863738 -0.6088347 0.056680858 -0.11056114 0.06820401 -0.008691892 -0.013570581 0.23941821 -0.121317245 0.034905184 0.044823155 -0.29026064 0.17014836 -0.19498587 0.14121872 -0.12547018 -0.090179875 -0.2294809 0.19894727 0.052580073 -0.040888406 -0.019916937 0.0004794867 0.02877256 0.33858213 -0.19126287 -0.17224559 0.3149748 0.054199416 -0.50522596 -0.076898836 0.3778657 -0.09690301 0.114588544 -0.030444754 -0.17490803 0.10471234 0.09135973 0.0049070767 0.22156022 0.030369338 -0.03845986 -0.27415618 -0.13517047 0.11494959 0.027717054 -0.14657475 0.004103001 0.017738197 0.013125433 -0.06433734 0.0058848886 0.14074466 -0.13167274 -0.1622315 -0.2747657 0.016147917 -0.08135579 -0.13365628 0.31938648 0.16461262 0.061484378 -0.123145446 -0.13015166 -0.17483708 0.024664607 -0.006100823 -0.13128199 0.2081773 -0.116837725 -0.10179968 -0.029273985 0.043137994 0.033443265 -0.058348782 -0.097267866 -0.20330003 -0.049694385 0.1366076 -0.10537126 -0.10687134 0.113440074 -0.2817095 -0.044042807 -0.09060092 -0.113005705 0.24720776 0.3973519 -0.05061257 -0.07456951 -0.23532295 -0.06839845 0.09300588 0.16023126 0.061795905 -0.14149801 0.17847808 -0.13510635 0.39846793 -0.15248455 -0.1667552 -0.07001694 0.17938565 -0.08229115 -0.24288155 -0.2628538 -0.11070192 -0.028323581 -0.28043866 -0.08122193 0.34039462 0.020552818 0.1343673 -0.11537439 -0.22051464 0.010655449 0.17096396 0.008542026 -0.18149845 -0.04393821 -0.0646372 -0.37882736 -0.1612605 -0.1646262
31 0.650031 -0.2511816 -0.23709038 0.20339592 0.06835545 -0.44499213 -0.08708313 0.03127535 0.20495075 0.02768398 -0.24233745 -0.2149803 -0.023246929 -0.037846785 0.02118409 0.1456282 0.17147484 0.11592106 -0.029188737 -0.1605485 -0.18486279 0.12423278 0.053385306 -0.038057856 0.059243526 -0.118839525 0.11078689 0.1434086 0.22479823 0.06641615 0.06360351 0.4393813 0.16339031 -0.07400987 0.021540463 -0.1088778 -0.112897106 -0.111224934 -0.07602649 -0.19066271 0.36262164 -0.0316715 0.3528838 0.23230144 -0.1658629 0.0998051 -0.022888198 0.12096013 -0.11013194 0.33452484 -0.0069970693 -0.11568198 0.20580184 0.12168151 -0.090407096 -0.026140992 0.20837389 -0.10824943 -0.16405885 0.005996487 0.09573487 -0.16236581 0.08192827 0.032935347 0.025230177 -0.28745177 -0.050391622 -0.23509292 0.030598596 0.040006075 -0.02901573 -0.07194427 -0.19221795 -0.08907582 0.0032529072 0.21571253 -0.111602224 -0.03990997 -0.0015882095 0.17858863 0.110176116 0.0018957687 -0.12970497 0.03640985 -0.02032824 -0.22592562 0.18836592 0.15048721 -0.011214682 -0.07315328 -0.0095523875 0.30587685 0.26997852 0.18151736 0.078423254 0.016831748 0.25256747 -0.20490584 -0.048769787 -0.30017108 0.0027427906 -0.14878915 0.041401304 0.044532258 0.02956899 0.07318286 -0.24297409 -0.26850763 -0.05477938 0.13114603 -0.11047268 -0.17557593 0.07750864 -0.0038797345 0.074905366 -0.0033617935 0.11944939 0.08899606 0.2927758 0.035726443 -0.0064688977 0.1928692 0.018186595 0.06335384 -0.17353714 0.099069394 -0.26435882 0.02997823
190 0.031032309 0.08143001 -0.09056803 0.112814635 0.1995633 -0.079796 -0.031894695 0.03562846 0.101698756 0.038858324 -0.07899019 0.119503014 -0.08746084 -0.09267296 -0.15151553 -0.1200964 0.12265232 0.035938956 -0.066974044 -0.17295969 -0.044596888 0.047623873 -0.23558474 0.0806131 -0.1663783 0.058676127 -0.030245516 0.10730548 0.02669118 0.030003257 -0.053899165 0.09168626 0.0783369 -0.06828808 -0.16151209 0.1200096 0.31610385 -0.026364276 0.23097447 0.03180529 0.15761963 0.03340486 0.039412454 -0.12753193 -0.18334983 -0.20943919 -0.018431174 0.27972606 0.19938344 0.16874467 -0.053545035 -0.008500064 0.16051601 -0.18220049 0.13986664 0.00041234703 -0.01659637 -0.31673184 -0.44435716 0.15689613 0.13349852 -0.019366983 0.028069943 -0.12170983 0.16911224 -0.18532972 -0.138097 -0.058372382 -0.1821089 -0.11663582 0.19927317 -0.22350135 -0.05636921 -0.11381011 0.01563419 0.0014534894 -0.057766758 0.16388784 -0.0909687 -0.221649 0.009869538 0.21110919 -0.11513818 -0.040759284 0.033253416 -0.21363172 0.033793587 0.14410514 -0.011757954 -0.046918906 0.053768393 0.13902593 0.0011612584 0.15529335 0.04738102 -0.046593327 -0.06861102 0.03600863 -0.08876779 -0.25916317 -0.102150075 -0.1060038 0.24137959 -0.19046141 -0.0005050771 -0.009091421 0.11190985 -0.02313746 0.07242645 0.008962884 0.22369687 -0.18911257 0.028214617 -0.16246536 0.1481086 -0.20082022 -0.05596885 -0.1678998 0.10388814 -0.008043496 0.44220498 0.29525512 -0.040653843 0.072423585 0.079617046 -0.07174904 -0.2758869 0.13282467
113 0.28967118 0.052461024 0.09083213 0.050315153 0.10252823 -0.21179485 -0.10955541 -0.00821008 0.044125926 0.16332701 -0.14409393 0.12965834 -0.18500662 -0.021106297 -0.10087704 0.082248345 0.08514472 0.1344414 0.3178268 -0.21865618 -0.11417857 0.089082286 0.0144382985 -0.20822854 0.023980612 0.078984015 -0.05823002 0.010134737 0.20636715 0.16866532 -0.052268073 0.3234208 0.19966568 -0.115699016 -0.17602104 0.020521758 -0.008189798 -0.001015788 -0.18289037 -0.2370826 -0.07100276 0.0016693125 0.048903964 0.050553966 -0.03851857 -0.15261947 -0.09396541 0.14323989 0.12658635 0.21619739 -0.06770157 0.10659174 -0.2248867 -0.17125495 -0.037756316 -0.10753299 0.16602604 -0.008925585 -0.21883622 -0.019384766 0.045753125 0.06688678 -0.028544178 0.17780845 0.13079831 0.03619663 -0.01473952 -0.013793684 -0.12276999 0.17312747 0.19913308 -0.11360907 0.13383605 -0.17906396 -0.06739971 0.02805142 -0.13840298 0.06250858 -0.012253904 -0.09456493 -0.12601891 0.03250082 -0.059178155 0.15981765 -0.054090228 -0.07797934 -0.10651896 0.12203043 -0.21520376 -0.07613555 0.052026425 0.034288783 0.07934898 0.18555635 0.0175295 0.007576186 0.001570682 0.02651315 -0.10913543 -0.20387188 0.09435649 -0.26945117 -0.01965301 0.04020569 -0.053948287 -0.18757029 0.10642183 -0.092739016 -0.43979564 -0.08789553 0.22919059 0.026493555 0.122557014 -0.17291485 0.19040588 0.0069628228 0.072597325 -0.15032582 -0.016099097 0.016757704 0.21989214 0.15209529 -0.16690959 0.1812819 -0.19322832 -0.20937909 -0.22719185 -0.114663385
80 0.24111554 -0.10464525 0.16469987 -0.1369833 0.20357843 -0.023421882 0.0028144415 -0.021480702 0.08711063 -0.31950444 0.0154287405 0.043267954 -0.31680185 -0.20999904 0.0061186454 -0.100727506 0.17750537 -0.08923296 -0.005453283 0.026108267 0.22649878 0.20877974 0.28500777 -0.4665279 -0.20569348 0.11069885 0.22078796 0.20534508 0.26922128 0.02104109 0.031024437 0.44639447 0.19601828 -0.15274395 0.05701623 0.19699031 -0.11980635 -0.26860705 0.13997222 0.19164729 0.12508939 -0.038072743 0.35504052 -0.02382399 -0.09570875 0.16533728 0.062126018 -0.21231979 0.23076434 -0.27417666 0.043058176 0.11786509 0.042025983 -0.12887338 -0.07324721 0.38305056 0.19199891 0.09740205 -0.13872136 0.04433997 0.36678806 -0.15063497 0.39608952 0.3944192 -0.28803697 -0.16473953 -0.24689902 -0.1762584 -0.17078881 -0.3653945 0.6619294 -0.082082406 0.34589893 -0.1815288 -0.04062682 -0.030156393 -0.118844666 0.17289379 -0.34531575 -0.25711378 -0.2491238 -0.074923374 -0.2721162 -0.12800156 -0.056210034 0.19220416 0.17357698 0.011620381 0.1446126 -0.3069475 0.06845565 -0.012513385 0.14492539 0.10689781 0.00082186 0.27983588 -0.25831288 -0.14332607 0.313915 -0.14608735 -0.16857935 -0.31686842 0.19196627 0.12169925 0.05485213 0.09581641 0.2146062 -0.24469875 -0.09962969 -0.038410615 -0.43658918 -0.25914082 0.050497554 0.039046105 -0.029964903 -0.11230871 0.17902322 -0.22884347 -0.25839615 -0.16360667 0.19142078 -0.092167914 -0.08971814 0.2185868 0.1825662 -0.1350226 -0.2168455 -0.0122662345
94 0.06173768 -0.12521155 0.02105397 -0.14127077 0.1636297 -0.15237576 0.03238999 -0.05479591 0.15682748 -0.2236871 -0.111182705 0.028813904 -0.40490216 -0.108325236 0.008802718 -0.11072994 0.18392672 0.033025842 0.031339414 0.0945081 0.16325644 0.15578741 0.27848157 -0.3831808 -0.26372027 0.14348035 0.085372575 0.03427376 0.26118162 -0.09338393 0.053129457 0.11060056 0.16971722 -0.059852734 -0.054106094 0.27010384 -0.17206965 -0.30798334 0.14914255 0.19520913 0.09191764 -0.07177928 0.3841175 -0.12573825 -0.29432157 0.15864474 0.08565484 -0.14991163 0.21556883 -0.25041828 0.021031564 0.2455412 -0.102013275 -0.0933175 0.027542694 0.36868352 0.19035585 0.1830939 0.15971912 0.09871585 0.27010792 -0.2402978 0.30408356 0.18294856 -0.088450275 -0.24122284 -0.17751424 -0.14794567 -0.11043934 -0.525414 0.6138229 -0.15713169 0.32170886 -0.12648766 0.040719107 -0.05975823 -0.14823304 0.2128927 -0.14005563 -0.23456156 -0.18878385 0.09393295 -0.28317258 0.02582429 -0.015673427 0.1175137 0.110624954 -0.1607524 0.0490763 -0.4291974 0.045902904 0.29990777 0.20944563 0.037399393 -0.07961792 0.20640025 -0.1556094 -0.2682731 0.23293594 -0.09610781 -0.1513442 -0.050548248 0.15885492 0.15609439 -0.0061021834 0.04940072 0.07673899 -0.2864382 -0.1351452 -0.047085837 -0.48754957 -0.35202512 0.028073736 -0.20980401 0.04771315 -0.08326983 0.16080892 -0.2914304 -0.29022565 -0.18461585 0.2281451 0.0041788034 0.05999825 0.24832289 0.24570985 -0.08096275 -0.18114409 -0.14383347
170 0.1941309 -0.16353391 -0.15350941 -0.036449987 0.031943597 -0.23404916 0.1595526 -0.11142794 0.050420165 0.13820876 -0.11689623 0.02398707 -0.18463153 0.30953112 -0.28390986 0.13005516 0.15148313 0.1840577 0.23181479 0.12877496 -0.003259526 -0.045271453 0.108554296 0.037906133 0.11594377 0.18481597 -0.0086334115 0.20316954 0.076920584 -0.12007128 0.101420775 0.02149833 0.09825448 -0.25454938 -0.0034661274 0.07319714 0.043366533 0.13614792 -0.15896101 -0.24982037 0.05685804 0.012869721 0.047944743 0.01133729 0.031411927 -0.2789587 -0.061939538 0.22755997 -0.09563821 0.34549755 0.29971665 -0.1024981 -0.071388446 0.16550207 -0.001285491 0.0049306015 -0.17059939 -0.29726318 -0.07659584 0.12052644 0.037510235 -0.10686432 0.23684685 0.21701387 -0.12763192 0.06297557 0.04718482 -0.0011390592 -0.13015646 -0.104457594 0.17997898 -0.09290259 0.25326225 -0.26668587 -0.027159207 -0.0582025 -0.42657107 0.10426033 0.06453989 -0.16837093 0.045800023 0.08809707 0.06724867 -0.022539018 -0.036509976 -0.27867538 -0.23153678 0.15646528 -0.26694807 -0.30555752 -0.13661854 0.14814867 0.042114865 0.2609137 -0.12257974 0.042432074 0.03620767 -0.091702536 0.11759925 -0.20054762 -0.14363131 -0.20321167 0.2482845 0.008300656 -0.013224065 -0.12780565 -0.043815233 0.027113818 -0.19331506 -0.20958836 -0.04873548 0.117295794 0.15100704 -0.05471613 0.27660856 -0.16168705 0.036079165 -0.019289244 -0.1593308 0.11262887 0.37226343 0.33700642 0.03852735 0.39177758 -0.1794413 -0.13839252 -0.2951091 -0.27728
223 0.28823498 0.1936461 -0.007349406 0.19447286 0.10697977 -0.3667368 -0.19730724 0.03985984 0.035760473 0.295245 0.0897581 0.10115348 -0.17644599 -0.02686722 -0.058639996 0.03407347 0.2246711 -0.0042362665 0.28235418 0.102774546 0.053743985 -0.10955258 0.010146739 0.04271658 0.049641393 0.058531255 0.09358253 0.035783537 0.24487494 0.09594916 0.057572193 0.16963509 -0.030000323 -0.041094884 -0.059498895 0.11164438 0.0675888 -0.005690567 -0.19714455 -0.2969055 -0.102377094 0.09621521 0.1261147 0.005647828 -0.053487673 -0.19693759 0.13705446 0.23736918 -0.05974743 0.39107752 0.1073947 -0.05946052 -0.10919194 0.021358185 -0.050883908 0.20252272 -0.15719482 -0.10823539 -0.28525293 0.13732778 -0.124645926 0.120047644 0.37810957 0.16756573 0.052651778 0.097785264 -0.10238341 -0.0046601696 -0.11507636 -0.25231957 0.07741048 0.013906723 0.4327461 -0.20916395 0.058695674 0.10505079 0.017454922 -0.015904235 -0.18987307 -0.06856303 0.04019577 -0.013602518 0.021875652 -0.20533438 -0.102140844 -0.17703955 -0.006961867 0.17111076 -0.15931553 -0.24311058 -0.04082926 -0.018804362 0.024207776 0.16511862 -0.01688384 -0.052078497 -0.023242928 -0.05098625 -0.16248883 -0.24542393 0.2576382 -0.34284264 -0.056415938 -0.19600792 0.1022911 -0.16243325 -0.20969889 0.09405607 -0.40172538 -0.1118218 -0.14269458 -0.0064887144 0.22395445 0.21421117 -0.036975116 0.1135826 0.01737897 -0.16467696 0.032826133 -0.005016468 0.28365117 0.18213782 0.076719254 0.24193159 -0.028838113 -0.2765907 -0.2403863 -0.16577275
329 -0.037011847 -0.24316177 -0.11770685 0.030134788 0.025568701 -0.37075636 0.030479308 -0.11987622 0.13995217 0.04764915 -0.13921636 -0.06273089 -0.27345195 -0.032048825 -0.22907192 -0.23700185 0.3624761 -0.15574859 0.23605162 -0.13729493 0.24670637 0.0011802219 -0.051109415 -0.2889472 -0.1236624 0.14948319 0.18698539 0.065059334 0.288661 0.23255564 0.047736038 0.13995431 0.23416364 -0.36225057 -0.22114635 0.08725982 0.12849227 -0.21244034 -0.29074404 0.064047046 -0.03138257 -0.047589537 0.29658058 -0.37756664 -0.2056655 -0.20481902 -0.07711504 -0.115688704 -0.1158844 0.058656175 -0.05452465 0.033406824 -0.07025148 0.039215367 0.26830295 0.051639296 0.23260231 0.11123352 -0.054418772 -0.13244875 0.31352153 -0.017458534 -0.30952486 0.109119266 -0.110574946 -0.19100825 0.14847162 -0.21551311 0.06354164 -0.3680843 0.35210752 -0.13822818 0.027662046 0.08855256 -0.14055325 -0.07644704 -0.07958391 0.11015909 -0.2503291 -0.029918581 -0.1261683 -0.21561351 -0.118797675 0.12453195 -0.1371105 0.06953275 -0.043909322 -0.2553727 -0.07614845 0.07563136 0.15289845 -0.0593429 0.0601727 0.02337934 -0.0741928 -0.0578239 -0.076668814 0.027082952 -0.079460956 -0.18872716 0.055679247 -0.123941906 0.041438956 -0.31865838 -0.08771604 -0.39187145 0.102786005 -0.043564983 -0.08296599 -0.2555633 -0.33927348 -0.15317583 0.003684313 0.110846475 0.03865182 -0.0028091697 -0.10310683 -0.02551665 -0.09673319 0.16510764 -0.023679417 -0.015382613 -0.0089068785 0.16794895 -0.12956233 -0.23962586 -0.08102867 -0.27306637
261 0.37049317 0.14212573 -0.11341025 0.049642563 0.10357853 -0.2639135 -0.17452529 -0.039972957 0.043460045 -0.014910159 -0.15825358 0.20012382 -0.34305537 -0.03786411 -0.26883736 -0.33327118 0.054110054 0.13083836 0.027475743 0.04203489 0.050399847 0.25084436 0.25792474 -0.11989764 0.087114185 0.087142155 0.03119636 0.20273265 0.08132535 0.12080068 -0.11391944 0.25556248 0.12987497 -0.3292277 -0.16114819 0.07392361 -0.096909165 -0.12971841 0.0048247944 -0.19050188 -0.2169056 0.1514265 0.10162654 -0.09236519 0.054236542 -0.12569045 0.11222528 0.23230861 0.06321731 0.21627012 -0.037722826 0.036548793 -0.19180672 -0.047361974 0.06952689 -0.062294062 0.09848437 -0.10553402 -0.16841558 0.07257152 -0.06612611 0.16279255 0.031139372 0.059482526 0.039518557 0.10468103 0.027487686 0.12412177 -0.081480175 0.07776362 0.20963815 -0.12051515 0.14476325 -0.117250636 -0.102936044 0.10768782 -0.07637353 -0.08399599 0.059182923 -0.40325525 -0.15896569 0.055341206 -0.025883405 -0.06653415 -0.1341079 0.031087616 -0.15474838 0.060447652 -0.10638853 -0.1475008 0.040698357 -0.0038772905 0.14492513 0.10089919 -0.10353856 0.06608817 -0.020403871 0.004993275 -0.040920295 -0.2816824 0.1226228 0.0027043675 0.09473684 -0.26788056 -0.17838158 -0.11875663 0.012439077 -0.033205 -0.26539993 -0.13154933 0.11214196 0.027828198 0.0442239 -0.07712691 0.048500247 -0.22569734 -0.11050046 -0.18350683 -0.124011196 0.17413175 0.20988753 0.19860798 0.109647155 0.028557781 -0.16723783 -0.09885766 -0.3663818 -0.12668796
62 -0.13343678 0.03528017 0.11555779 0.0808102 0.23390777 -0.16603611 0.11552209 0.13322051 -0.04270597 -0.17345293 -0.19897982 0.1986088 -0.091091506 -0.1907994 -0.16152129 0.12143782 0.21977891 0.09355813 0.49342418 0.0037687956 0.0703947 -0.15435761 -0.07580556 -0.15935719 0.120856084 0.013674166 0.044915743 0.11880013 0.08196168 -0.20856304 0.15141436 0.21223995 0.108994834 -0.32831147 -0.0743572 0.31060308 0.1708253 -0.2367663 0.100553736 -0.23471175 -0.13895626 0.37088192 0.19766319 -0.110580556 -0.21247889 -0.3138652 0.023064556 0.18838257 -0.103282854 0.18508379 -0.050593805 -0.0933908 -0.16380835 -0.03086241 -0.060526054 -0.25496158 0.085471526 0.0020534594 -0.12513041 0.2369703 0.03497791 0.020615086 0.3957402 -0.08196544 0.20525672 0.068461165 0.15311883 -0.022787545 -0.17423394 0.04876422 0.2983188 -0.048541617 0.31577906 -0.016706742 0.027082516 -0.02137341 -0.038060088 0.10028143 -0.04973707 -0.11692691 -0.17009342 -0.06765281 0.031276852 -0.03675293 -0.09958448 -0.2634128 0.1382105 0.27258456 -0.2086726 -0.34487057 0.020690065 0.25198454 -0.014314448 0.23866726 0.1037968 -0.061728 -0.15163378 -0.27763122 -0.14421746 -0.29472572 0.10325872 -0.16234608 0.13007984 -0.05684965 -0.13034837 -0.11290094 -0.010490189 0.20464146 -0.07791116 0.038242526 -0.06433608 -0.0033913068 -0.012838547 -0.013581351 0.13689488 -0.033810124 0.22002369 -0.077076405 0.0031184761 0.18246956 0.12194956 0.1346523 -0.033613406 0.39137915 0.113479696 -0.1561192 -0.14795426 -0.1039024
48 0.15421204 -0.2126155 0.2527216 0.11774178 0.22281319 -0.3911511 0.065015316 -0.028787695 -0.051099095 -0.18225561 -0.10591405 -0.13594677 -0.22834717 -0.064151116 -0.15398438 -0.02928343 0.08142083 0.025455471 0.020146815 0.15459824 0.24857108 0.040693842 0.16682525 -0.30770636 -0.1312508 0.28335905 0.25899792 -0.15676205 0.11521826 0.18507437 -0.17424385 0.19223832 0.20874615 -0.13300422 -0.22538532 0.14582287 0.1651212 -0.31602782 0.11490724 -0.0640869 0.2322831 0.0038394178 0.24658446 -0.27703744 -0.13773754 0.057280704 -0.034349676 -0.15602273 -0.11353829 -0.2724668 0.062698625 0.17798194 -0.15833656 -0.19063438 -0.22854942 0.5353939 -0.08865776 -0.012051134 -0.011085597 0.06560718 0.07124717 -0.0172105 0.23248233 0.15001321 0.03300648 0.10890938 0.021756306 -0.2870226 -0.13216563 -0.24245447 0.610393 0.030394934 0.3256203 0.104585804 0.15360174 -0.12208923 -0.16306846 -0.032595117 -0.13440035 -0.1675704 -0.21339712 0.024008503 -0.00076178834 -0.20088714 -0.29230645 0.12013598 -0.026042331 -0.11172855 0.065433316 -0.23125605 -0.024824785 0.010207893 0.23259676 0.26620072 0.10939907 -0.0114669055 -0.13598591 -0.09914207 0.29811332 -0.21632263 -0.13697194 -0.031200433 0.13746546 0.29984596 0.17564121 -0.10693186 0.24117547 -0.015914926 -0.026312096 -0.049617898 -0.37179083 -0.31132454 -0.10783747 -0.09001198 0.18518683 0.060158018 0.19416077 -0.16885796 -0.28770152 0.07089325 0.09687112 -0.042286884 -0.21949705 0.35884178 0.06049027 -0.12008174 -0.0974615 -0.38386443
185 0.2812774 -0.088807814 -0.0286875 0.013055688 0.03996137 -0.3499253 -0.1262827 -0.076831125 0.10195361 -0.09879144 -0.14498168 -0.08940056 -0.3311055 -0.09263187 -0.20328441 -0.045157 0.10404453 0.19116996 0.18061587 -0.05175241 0.0059872763 0.17924775 0.15531814 -0.19874948 0.23453978 0.12889996 -0.039775036 0.14238663 0.16460219 -0.09260414 0.11975792 0.059637006 0.17902666 -0.14718069 -0.0330714 0.2761018 0.02898213 -0.06095657 -0.19309196 -0.11875479 -0.19299872 0.12109897 0.18621312 0.057481397 -0.043107893 -0.1679818 0.05734368 0.18154448 0.12562926 0.22983886 -0.118424125 0.014737171 -0.01598249 -0.00873004 -0.05558852 -0.09476755 0.019473013 -0.22004138 -0.25350487 0.029284248 0.08884931 -0.100664474 -0.0059361015 -0.025639487 0.021975351 -0.14211002 -0.085848294 -0.010619991 -0.15078531 -0.09503301 0.1534046 -0.1066725 0.35700983 -0.18037252 -0.004382238 0.09660491 -0.14814252 0.035061203 -0.012019939 -0.11373735 -0.120552346 0.022658745 0.09610448 0.15345454 -0.020864958 -0.14102946 -0.10004229 0.23210503 -0.05935559 -0.12642692 -0.08183567 0.22347601 0.023856847 0.05516099 -0.017151764 0.034058545 0.08364863 0.009277151 -0.013724334 -0.0061075096 0.030382466 -0.050174486 -0.0663887 0.16483103 -0.09095034 -0.1577972 -0.06031312 -0.027161097 -0.24024276 -0.15234621 0.0019360462 -0.1856928 0.07900501 0.08954983 0.12703694 0.032485995 0.0046194615 -0.052896827 -0.084017165 0.08221055 0.19358557 0.17751901 -0.115089975 0.08162439 -0.09021875 -0.32658184 -0.0860462 -0.08280233
224 0.20143825 -0.1015641 0.12317274 0.12353571 0.09434008 -0.3188329 -0.157542 -0.0335287 0.08010826 -0.06795231 -0.063734464 -0.06864193 -0.15800107 -0.20154984 -0.26297206 -0.1182521 0.31383726 -0.16592252 0.22365455 -0.05800282 0.06915493 0.019858418 -0.0858554 0.022397744 0.079846375 0.040622946 0.06035513 0.02434945 0.221659 0.07762639 0.14607577 0.17152649 0.19012855 -0.21771364 -0.081459954 0.3407923 0.12525459 0.09857572 0.12080633 -0.13086358 -0.015434567 0.15110457 0.17653185 0.008616406 -0.20509352 -0.20942336 -0.059434786 0.16836704 0.09851645 0.064670354 -0.006049793 0.09613477 -0.03550673 0.047114175 -0.037208196 -0.036335763 0.23074494 -0.016024493 -0.4485457 0.08422677 0.051215872 -0.0018150987 -0.07899863 -0.032720383 0.012225349 -0.02867785 -0.08993016 0.049227756 -0.017587462 -0.10467994 0.36577302 -0.09832434 0.2505316 -0.10418901 -0.11201366 0.06551642 -0.022266665 0.029737765 -0.25797468 -0.13162182 -0.14196087 0.09241703 0.22632931 0.084840976 0.0661195 -0.07602834 0.047482528 0.3028445 -0.1183036 -0.2934729 0.016753545 0.062021755 -0.043792192 0.08574566 0.11872459 0.032479778 -0.011414948 0.07893018 0.03593664 -0.18481001 0.022931276 -0.038011808 0.12862083 -0.011982497 -0.08171491 -0.14643621 -0.060279198 0.08795981 -0.23928608 -0.035725344 0.006262677 -0.15825658 -0.1599985 -0.18532617 0.27502546 -0.077861056 0.20413533 -0.06913032 -0.17530058 0.18664609 0.043274935 0.14959963 -0.05350509 0.26264364 0.090927534 -0.1734223 -0.09504484 -0.10525536
82 0.123600796 0.14709477 -0.09479451 -0.19577445 0.050172616 -0.28654966 -0.39729318 -0.03930504 0.091917984 0.031195901 -0.23194118 0.008313202 -0.08707696 -0.3616706 -0.4309426 -0.07105105 0.14281195 0.010084481 -0.15172713 -0.062417213 0.14149088 0.025609836 0.07106492 -0.12552737 -0.18297008 0.2347778 0.03641782 0.2044908 0.18115169 0.16917072 -0.21944314 0.12480646 0.27434132 -0.28485647 -0.1333287 0.050251465 -0.0582021 -0.05226315 -0.23267554 -0.23489296 0.00013822562 0.26938984 0.15152071 -0.025756888 -0.044761796 -0.16037612 0.1374256 0.11747722 0.05368569 0.4507795 0.10838007 0.10263151 -0.12375957 -0.10480328 0.039873615 -0.0473878 0.19852065 0.040322926 -0.21695489 0.14008354 -0.051371653 0.18985549 -0.056610037 0.047449764 0.080436066 0.01126529 -0.13411267 0.009053028 -0.041670304 -0.045088302 0.2539606 0.046073362 0.22947568 -0.15165973 -0.042034943 0.16770743 0.03593665 -0.12950267 -0.03376751 -0.24029033 -0.09761618 -0.051482253 -0.081026115 -0.08041022 -0.17082897 0.019782338 -0.01973537 -0.076683395 0.03979204 -0.069314726 0.05161585 0.16690919 0.1548313 -0.053192217 0.046973612 -0.084743306 -0.104988694 -0.057986498 -0.24331255 -0.28753877 0.04778569 -0.068636864 -0.015050141 -0.29007855 0.008837738 -0.21229447 -0.02633113 -0.0700138 -0.14806433 -0.0421295 0.020166682 -0.014751903 0.0050609773 0.07514542 -0.011685566 -0.11379906 -0.055440884 -0.12749231 0.0009465602 0.24779388 0.27521607 0.260312 0.034170464 0.11570124 -0.14503247 -0.19931152 -0.17917451 -0.18033749
117 0.29460838 0.0797296 0.20449263 0.18879844 -0.11269035 -0.41444898 0.23713323 -0.02827852 0.31449 0.15912807 0.20856293 -0.04984836 -0.08920183 -0.04329804 -0.14397058 0.091860384 0.0034660972 -0.12207392 0.08725255 -0.087333076 -0.0580006 -0.3792786 0.054490846 -0.109102726 -0.14013897 -0.0011422304 -0.04368143 -0.004367391 0.344599 -0.055402655 -0.014233174 -0.004596155 -0.024635978 -0.23898965 -0.2022436 0.36392128 0.05393331 0.12433719 -0.11589152 -0.0692925 0.26206505 0.06430001 0.2071753 0.22644047 0.08834909 -0.0900781 -0.07064671 0.0755069 -0.1891614 -0.2005636 -0.010290172 -0.099205144 0.020031711 -0.0116674965 0.26934713 0.094416365 0.18228373 -0.15333217 -0.09534254 -0.26258445 0.20461243 0.16761047 -0.06371745 0.050496794 0.026548656 -0.24591075 -0.11192751 -0.21958767 0.022410452 0.14011852 -0.039608385 0.047722556 0.27700824 0.23406638 -0.025281616 -0.042981785 -0.20424335 -0.023031581 0.26608646 -0.20150338 -0.2744777 0.0021538036 0.04513749 0.05334806 -0.24771412 0.020854738 0.24858655 -0.051130004 -0.35231346 0.19505191 -0.06796121 -0.016269142 -0.14482684 0.009877748 -0.10138877 -0.15668665 0.18786651 0.085583866 -0.031946223 -0.2288679 0.26116273 -0.041422583 0.08239778 -0.008127314 -0.0512795 -0.172902 0.13254191 -0.1878064 0.009054567 0.0851933 0.048514966 -0.05963418 -0.13149588 0.045680914 0.15600847 -0.04341807 -0.18020396 -0.37733454 -0.15208314 0.18148902 0.16573165 0.099360205 -0.25185716 0.22156836 -0.08953661 -0.44184652 -0.17589994 -0.2083758
199 0.22947298 0.037925217 0.16305862 -0.13541235 0.07939143 -0.33550832 -0.20619144 -0.06186114 0.09342136 -0.02099052 -0.1747649 0.17015919 -0.07737836 -0.027578328 -0.29150248 0.022706926 0.042196073 0.1384828 0.4282789 -0.10057129 0.096535034 -0.06402303 0.13038592 -0.034849 -0.0015546696 0.049264863 0.14865185 0.030162914 0.2626134 0.07435405 0.13234809 -0.027864585 -0.06921074 -0.22559679 0.14538334 0.15790427 0.017475283 0.047567204 -0.14081682 -0.20356995 -0.011132998 0.03268864 0.15002249 -0.079042986 0.003733771 0.0949668 0.13608675 0.012561534 0.19316252 0.21926653 0.1962899 -0.20284316 0.15536602 -0.14265707 0.023622356 -0.0072414214 -0.051935107 0.061003372 -0.18467401 -0.017202988 0.16377471 0.008520959 0.14427255 0.05120374 -0.034349803 -0.04568901 -0.060707275 -0.03608374 -0.0037366082 -0.11867688 0.26383668 -0.17728947 0.15431464 -0.02393221 -0.17910255 0.22448048 -0.040527545 0.078170225 -0.09727254 -0.18837406 -0.15014778 -0.024235196 0.09814278 -0.12407529 -0.1569695 -0.11252082 0.059806667 0.19054337 -0.026855586 -0.24057555 -0.20000353 -0.028092789 0.051463753 0.21798797 -0.05222671 -0.17033033 0.079646066 -0.0012629661 -0.111119054 -0.19453102 0.07827877 -0.18538655 0.10489018 -0.1736751 -0.049349546 -0.24181789 -0.10076987 0.017751513 -0.35691404 -0.28013352 -0.1257301 -0.116221726 0.3137044 0.072187185 0.1378475 0.06419031 0.11295515 -0.080002025 -0.0887918 0.038045842 0.33321077 0.2470293 0.024186647 0.37071592 -0.09999737 -0.4924758 -0.17616034 0.041121874
302 0.08978784 -0.0053921524 0.2714364 -0.16101767 0.042008713 -0.10026649 -0.012810549 -0.011067076 0.14650907 -0.30732098 -0.19071 -0.0008423171 -0.48981202 -0.10305989 -0.031082379 0.029163659 0.21777299 0.1568904 0.050692525 -0.015358274 0.12280935 0.10255644 0.26524577 -0.3491137 -0.19199836 0.18381931 0.18965429 0.15036759 0.2764945 -0.080154374 0.019588726 0.33022037 0.11758606 -0.093336724 -0.20323886 0.29905552 -0.098404914 -0.3441428 0.038795263 0.007610314 0.112322055 -0.029535307 0.41475174 -0.08819479 -0.24012312 0.19617507 0.08776115 -0.116274446 0.19759467 -0.34235242 0.078227915 0.27424634 -0.013938782 -0.17685226 0.022631438 0.43774605 -0.19270985 0.09335828 -0.0023824328 0.010949719 0.2607435 0.004052482 0.303561 0.26263383 -0.35520664 -0.19620666 -0.16956626 -0.35861206 -0.025181575 -0.20089717 0.678139 -0.08746666 0.43349737 -0.28228107 -0.052659035 -0.035096675 -0.25755167 0.15447931 -0.19399773 -0.29188883 -0.26832125 -0.15971398 -0.242793 -0.09465476 -0.090121925 0.27716506 0.23023921 -0.01941622 -0.048222337 -0.29744035 0.017233165 0.16615576 -0.022105511 -0.015000644 -0.039739635 0.115274385 -0.2049355 -0.19272839 0.2910808 0.07040566 -0.1968749 -0.2571777 0.0065333094 0.22114708 0.14925566 0.08730739 0.1438621 -0.23673475 -0.022514649 -0.082957454 -0.42302743 -0.32401913 0.01790991 0.05108709 0.061611507 0.001442466 0.1626143 -0.36207846 -0.3122947 -0.29787973 0.17845933 0.21174298 0.014636065 0.281381 0.15320244 -0.18724762 -0.10795457 -0.09792137
339 0.25112432 0.12810902 -0.11548931 0.27791977 0.18252175 -0.13079366 -0.24386732 -0.19221929 -0.00079653214 -0.03953462 -0.14885552 0.02983614 -0.05507442 0.14323737 0.14380659 0.12737252 0.209597 0.028522298 0.12486252 -0.14303763 -0.010501883 -0.088354334 0.2995228 0.0075914143 0.21270554 -0.13402048 -0.1718816 0.1788435 0.22473995 -0.09505435 0.2354192 0.07797639 0.16608006 -0.20745149 -0.28358302 0.16095471 0.14712454 0.018182559 -0.1610854 -0.34228772 -0.123930365 0.20028235 0.31816489 0.010095915 -0.23438783 -0.4106518 -0.09174772 0.03588797 0.16881128 0.17510344 -0.3442648 -0.14537537 0.04125657 0.0011546576 -0.056313314 0.023828506 -0.055046618 -0.3034985 -0.3357392 -0.09882206 -0.0014664639 0.27630502 -0.026704721 0.12761804 -0.19648373 -0.26861134 -0.033674065 -0.048071958 0.105324015 0.045740254 -0.07003266 -0.16783242 0.2999091 -0.1773329 0.079503685 0.10181187 0.009032198 0.01906239 -0.036127463 -0.1968006 -0.10375129 -0.22188468 -0.036250412 -0.03918952 0.22916937 0.09522169 -0.092574164 -0.0107514225 0.2740617 -0.32094997 0.0107957 -0.018528137 0.156559 0.23291665 -0.019189512 -0.2290327 0.16973281 0.1705869 0.25247258 -0.22585982 0.058985982 -0.29182565 0.15407705 0.0634669 0.18406372 -0.1505679 -0.1344547 -0.29570368 -0.36539152 -0.09709307 -0.057857785 -0.25205627 0.03708886 0.17664024 0.20415697 0.14984462 0.007490407 -0.03196302 0.20359966 -0.09621407 0.16373739 0.22460246 -0.031153006 0.07461426 -0.35971957 -0.033182565 -0.12268286 -0.16831608
291 0.34555727 0.049859665 0.0070603453 0.28283533 0.06315858 -0.38210365 -0.101845555 -0.053917903 0.14666413 -0.06751947 -0.07854594 -0.089336924 -0.18679427 -0.11108837 0.0063351355 0.16323511 0.12434099 0.023199234 0.1252769 -0.2305121 0.08340612 -0.07807129 0.21706523 -0.11561034 0.18600689 0.02439107 -0.06753917 0.16357122 0.44745994 -0.27439904 0.05892388 0.27168098 0.3900788 -0.2667336 -0.029618068 0.28336385 0.07748867 -0.1796923 -0.22137056 -0.17276163 -0.0581459 -0.040656615 0.17116778 0.098382965 -0.08533003 -0.083970904 -0.08143293 0.055033974 0.017362315 0.19382073 -0.22786152 -0.17013331 -0.13200158 0.06636876 0.115485065 0.055300966 0.0685665 0.012056885 -0.24269629 -0.17684297 0.008408996 -0.14141257 0.05892123 -0.074330546 -0.09123878 0.03467493 -0.031538464 -0.057723515 -0.2249862 -0.108344935 0.030836647 -0.11801042 0.080080226 -0.16840902 0.051305953 0.12564336 -0.09281841 0.071371995 0.18588492 -0.18217883 -0.1758885 0.039547693 0.1965651 -0.04256845 -0.13262387 -0.022078149 -0.096157625 -0.012414241 -0.041649986 -0.16317339 -0.14180337 0.24226631 0.115347706 -0.04884285 0.12041292 0.1009432 0.10288583 0.023921391 0.053657573 -0.32112363 -0.012271007 -0.33776134 0.007128279 0.15879573 -0.04389371 -0.11228849 0.12619425 -0.07610061 -0.101227395 -0.014868089 0.010597882 -0.13006487 -0.08277062 0.2911876 0.26014552 0.17098787 0.12350263 0.0593693 0.008282427 0.11966633 0.01422942 0.12903693 0.101029284 0.1716548 -0.20123385 -0.12695855 -0.03665012 -0.23063996
116 0.45723715 -0.06935083 0.003440671 -0.023315012 0.15365875 -0.34516394 -0.12851742 -0.3878769 0.2651735 0.008232964 0.08726622 0.23597011 -0.114999756 -0.04494838 -0.08390139 -0.1639052 -0.0132187065 0.18912674 -0.23339468 -0.108665206 -0.14783224 -0.28968936 0.0579053 -0.028756581 -0.17527491 0.34436083 0.18991746 -0.11083486 -0.17399095 0.13477375 0.23371604 0.33871692 -0.0688642 -0.08064461 0.43427584 0.27379724 -0.110405564 0.056905366 0.17829232 0.20118475 0.5838409 0.090559185 0.16789211 0.1864593 -0.2978375 -0.10530293 0.14844869 0.28262138 -0.011964578 0.07795097 0.13457288 0.43987703 0.02685193 -0.13800828 -0.07548891 -0.0013073438 -0.5589298 -0.34440213 -0.2729007 0.41099483 0.27019662 -0.02175419 0.40804583 -0.09096777 0.06193119 -0.29165065 0.16604875 -0.4891502 -0.34161106 -0.080753885 -0.041380145 -0.151912 -0.031465344 0.02553206 0.110837206 0.5462311 -0.27216166 0.25369614 0.21963936 0.107824005 0.24005428 -0.011648989 -0.4207793 0.0107246945 -0.109176576 -0.11979404 0.22122474 -0.02532801 -0.13501602 0.055238105 -0.057377797 -0.13722178 -0.15783074 0.020320743 0.17619807 0.30156633 -0.28948057 -0.4559825 -0.013647153 -0.37801048 0.13464205 0.20384382 0.27856427 -0.23463064 -0.1492666 -0.10618899 -0.09303803 -0.25492063 0.13991089 -0.31940338 0.40209916 -0.16668844 -0.40351948 -0.12338798 0.43395877 -0.19082756 -0.14150506 -0.050779127 0.050205387 -0.36892685 0.25418258 -0.047244694 -0.28990692 0.23931819 -0.23743354 -0.044187803 0.047600027 0.14124775
303 0.2317168 0.00597895 0.063925676 0.15123978 -0.10444979 -0.4009477 -0.05003801 0.1546475 0.054003723 -0.1702668 0.09495036 0.054449722 -0.2386116 -0.1540652 -0.18997952 -0.1873076 -0.06987405 0.1748749 0.007841117 -0.25279388 -0.24462204 0.17117848 -0.056545492 -0.17125472 0.019027984 0.07319938 -0.025660414 0.18175438 -0.030612443 0.099686116 0.023468165 0.2909514 0.08292171 -0.32082036 -0.051639568 -0.02463802 -0.06810308 -0.06403987 -0.0750334 -0.11407993 0.0059808483 0.021872979 -0.017765516 0.19452344 0.26106095 -0.17237794 -0.028045509 -0.20476162 -0.12355004 -0.16809522 -0.06087293 0.08445475 -0.16844966 0.0055002347 0.017673513 0.12601069 0.082465 -0.170004 -0.23932181 -0.07069088 -0.06517662 -0.094079345 -0.06624568 0.14142647 0.09521359 -0.06561804 0.0018047064 -0.11200436 0.0765886 -0.09314604 0.19744298 -0.236811 0.30130178 -0.21424015 -0.053346664 0.13673925 -0.1217849 0.0053435885 -0.050325964 0.019339995 -0.035212204 0.13655384 -0.0838819 -0.14685905 -0.19691385 -0.057382323 -0.15050393 0.39017084 -0.18119547 -0.2765992 0.22349037 0.031759106 0.31434783 0.06427672 -0.21080332 -0.02311798 0.11699001 0.049126633 0.17671014 -0.011104757 -0.04013336 -0.1454478 0.19418105 -0.14707413 -0.05523523 -0.09267835 0.06274324 -0.18957648 -0.23818797 -0.15455909 -0.2136107 -0.28172415 -0.18447208 -0.15599771 0.21289475 0.067072265 0.062138386 0.20233727 -0.14659995 0.263353 0.20206678 0.058980647 -0.15550052 0.19844931 -0.15028621 -0.5121168 -0.052106 -0.061536606
