171 128
830 0.23528823 0.1205642 -0.03045605 -0.06615429 -0.0076473155 0.041078724 0.060707282 -0.12651111 0.054074977 -0.07677663 -0.11706676 0.065495946 -0.073646575 0.018328337 -0.07092151 -0.09196146 0.05200128 0.03642756 -0.12802231 -0.05157439 -0.022153858 0.087456696 0.23501866 -0.07336673 0.23039354 0.021601317 0.018166378 -0.19015151 0.0949006 0.08901033 0.04623952 0.17790383 0.21935685 0.09157123 -0.118333474 0.10374806 -0.07868028 -0.03254871 0.07577908 -0.07024505 -0.13838014 0.14462937 -0.03082139 -0.013627606 -0.11301804 -0.07484025 0.10299862 -0.19767356 -0.03530055 0.058052376 -0.09470307 -0.1416317 -0.025820177 -0.12310406 0.11015321 0.019555757 0.070986286 0.018060882 -0.17746475 -0.031168668 -0.18651846 -0.124596484 0.20633967 -0.0468378 -0.062321227 -0.013569302 0.13766201 -0.012866417 -0.18959136 0.038559265 0.31529886 0.053407047 -0.00941601 0.13252525 0.005800664 0.024117472 -0.06816499 -0.111078255 -0.13752055 -0.026780106 0.032263666 -0.03537312 -0.075500876 0.012109856 -0.23596337 -0.21822582 0.10952678 0.03848998 0.01868336 -0.010001948 0.005557078 -0.1142873 0.022779834 -0.1998527 0.10539558 0.17534314 -0.024897862 -0.19848573 0.13238722 0.039653204 0.15250275 0.12404299 0.028590538 0.010265178 0.12939337 -0.020969052 0.22544178 0.19070148 0.13732514 -0.025388509 -0.005356482 -0.035705343 0.13096887 0.10940009 0.15117674 0.092526354 0.017405326 -0.06124301 -0.08086085 0.15968072 -0.0030775098 0.024427628 0.1746437 0.009949325 -0.08545894 0.053958982 0.007690842 -0.03509513
784 0.030866468 -0.025949731 0.049706858 -0.10286232 -0.10986919 -0.11614408 0.05016195 0.09659733 0.15570262 0.037199356 -0.108170964 -0.17586435 -0.0328885 -0.039859988 -0.0042975345 -0.049869046 0.1297349 0.033907782 -0.009925958 -0.09267603 -0.011703388 0.11079633 0.19811343 -0.0005193747 0.11165353 -0.04127266 0.017971776 -0.0015369735 0.051556617 0.00994548 0.06521575 0.16078155 0.15234515 0.037683293 -0.012976415 0.15375414 -0.062654465 -0.034427598 -0.044416584 0.18051663 -0.09292604 0.17910789 -0.23010966 0.19460438 -0.31464916 -0.0165973 0.15639964 -0.12832902 0.08658182 -0.020872436 0.044744823 -0.21532312 0.08582947 0.034790337 0.2093057 0.1429706 0.21290381 0.07045664 -0.16222265 -0.114726275 -0.04206769 -0.09841073 0.1684466 -0.09134761 -0.08588773 0.037213936 0.19720516 -0.072552115 -0.18068385 -0.03559118 0.14075612 0.13265793 -0.10688087 0.13144578 0.09955439 0.04031937 -0.15179747 -0.06657786 -0.13163614 0.20325781 0.08316782 -0.052378397 0.038726307 0.021868005 -0.17105941 -0.09889421 0.08274143 -0.10287571 0.014533783 0.044123866 0.13788489 -0.066697605 0.16349189 -0.16688213 0.08851058 0.1059213 -0.07564175 -0.030066 -0.011625121 0.059252527 0.09296954 -0.15204328 0.020411879 0.093859255 0.0070581753 -0.0099039385 0.110537454 -0.004735821 0.024633044 -0.09391633 -0.0055323103 0.085291244 0.07090404 0.053743027 0.15138015 0.2040617 0.101324365 -0.059442345 -0.035661582 0.08612046 -0.03810799 0.15315151 0.13185336 0.022618236 -0.04858691 0.14652647 0.21319745 -0.060297348
734 0.10712993 -0.039101962 -0.075569265 -0.0467688 -0.12066378 -0.11823323 0.25099996 -0.12163625 0.20039783 -0.1460871 -0.10870893 -0.16122417 -0.057854578 0.036293868 0.089075856 0.0702739 0.09576931 0.04985906 -0.06351135 -0.0211661 8.024788e-05 0.08508994 0.14791359 0.04629539 0.09744131 -0.057864275 -0.013455215 0.1134809 0.21451418 0.084087744 -0.07787401 0.04120402 0.20500527 -0.042763267 -0.009408741 0.022752449 -0.031368565 0.044586476 -0.14357175 0.2902696 0.034954004 0.2353263 -0.18074615 0.06242068 -0.21345852 -0.06862727 0.051092576 -0.16343406 0.03991423 0.0949333 0.14732064 -0.090238534 0.02546695 -0.07865389 0.2085573 0.09715991 0.20415463 -0.08382558 0.0737751 -0.26718217 -0.09624534 -0.1311021 0.20990339 -0.016752921 -0.056542043 -0.10022653 0.29406628 0.00645712 -0.38938186 0.020198544 0.06904176 0.24925503 -0.025113396 0.24583542 0.105571285 0.059533253 -0.093910284 0.0035689487 -0.19322437 0.1724367 0.113147125 -0.023969434 -0.13184169 0.022235896 -0.19807805 -0.105456054 0.10996019 0.010209185 0.07239637 -0.039308865 0.08470595 -0.1843749 0.022366311 -0.23157556 0.03972949 -0.05233941 -0.081785254 -0.022459421 -0.003679291 0.042171568 0.13448864 0.09387882 0.01593434 0.094918355 -0.079509735 0.065768324 0.09276697 0.018754521 -0.08287748 -0.019090828 -0.11757154 -0.011388664 0.0708452 -0.05844029 0.05446216 0.21469077 0.15702103 -0.1919503 -0.077641666 0.10494751 -0.013801474 0.013016407 0.05861317 0.14037114 -0.09404995 0.113539405 0.06526521 -0.09108995
686 0.0054898695 0.027031006 -0.11727228 -0.04978963 0.053376526 -0.14658073 0.14299713 0.036506027 0.070446864 -0.1115915 -0.12761015 0.061680406 -0.032012492 0.016642665 -0.027050031 -0.12771565 0.00295961 0.15309927 -0.023122186 -0.011567032 -0.05736762 0.07189403 0.15150793 0.30691487 0.03415866 0.08589125 0.040830024 -0.096433185 0.033653244 0.05145193 -0.053132996 0.14492464 0.28822336 0.041561 -0.12615046 0.17235722 0.13499193 -0.023881605 0.033492967 0.025938958 0.083325535 0.18698837 -0.10795796 0.14776814 -0.18968634 -0.3089095 0.0066408403 -0.13189572 0.0468313 0.013501841 0.14157929 -0.012799063 -0.046741277 -0.19561747 0.08918162 -0.08445028 0.30962333 -0.005417358 -0.17071593 -0.18005088 -0.079383574 -0.06242796 0.076806426 -0.12795553 0.014464541 0.047184933 0.12034324 -0.021942185 0.22399132 0.21285464 -0.069765516 -0.04311738 -0.20029254 0.029351788 -0.10682224 0.041796584 -0.0009632616 -0.13878548 0.026181597 -0.0011716889 0.06364452 0.14371265 0.08430693 0.019659197 -0.010653403 0.020681946 -0.08571137 0.053702775 -0.06125537 0.21892227 0.14696148 -0.1953204 -0.24069159 0.20294735 0.17645317 0.2544443 0.15968321 -0.04116843 -0.05987061 0.06438349 0.050361082 0.1128554 0.064229816 0.041930657 -0.06865093 0.076972805 0.1448859 0.058727387 0.031180413 -0.0007649587 -0.02580462 0.028256338 -0.15634441 -0.01757184 -0.02929044 0.18173772 0.11279886 0.11019878 -0.004886334 0.034811303 -0.07644864 -0.025123265 0.07319938 -0.13999012 0.06940931 0.1230913 0.34411597 -0.042404387
758 -0.0878915 0.16929576 -0.008508598 -0.13344912 -0.097541094 -0.17244056 0.19692837 0.054590758 -0.07863279 -0.120726265 -0.0743477 0.09857207 0.0028761767 -0.23499978 -0.11535298 -0.24180086 0.12873758 0.1063682 0.22181964 -0.027396593 0.18312363 0.069136456 0.10280249 0.014488121 0.18581443 -0.13864127 -0.07288356 0.08004981 -0.12256542 0.16309366 0.20235375 0.18899806 0.03515039 0.12123771 -0.121426255 -0.017658312 -0.018800987 0.030589478 0.1669347 0.11696482 0.044183496 0.011606493 -0.027829 -0.14799483 -0.2590536 -0.15279533 -0.06542038 -0.21719788 -0.077830546 0.06923056 -0.040671427 -0.015903274 0.038587227 -0.18065889 0.09159041 -0.16476688 0.21186654 -0.07505595 -0.07601279 0.05718772 -0.32257804 -0.05643217 0.21610561 -0.14015654 0.060786135 0.15458195 0.26037195 -0.031949334 -0.23843053 -0.019044433 0.26427928 0.17746727 -0.13572998 0.09288878 0.12737212 0.10382283 0.02571562 -0.038154233 -0.0709963 0.15524243 0.291092 0.0046695457 0.09475365 -0.074508995 -0.32326353 -0.006296692 -0.032463934 0.15072282 0.1525668 -0.017380865 0.31377977 -0.18383446 0.16176042 -0.04280745 -0.036715835 0.44823718 0.060390703 -0.061808188 0.18942097 0.02020865 0.14635502 0.085584186 -0.21262741 -0.10900313 0.20280512 -0.020372443 0.30079758 -0.07753756 -0.047131836 0.039995413 -0.052023735 0.11186578 0.085888796 0.24382485 -0.068919055 -0.11728054 0.04515552 -0.09245524 -0.031734824 0.2715923 -0.21068744 -0.20812641 0.08163508 -0.052246023 0.066434376 0.10904488 -0.12535104 0.06223468
747 -0.066284806 0.090292014 -0.0030064876 -0.08666987 0.02467525 -0.17190453 0.036103815 -0.0062093893 0.05514807 -0.26268846 -0.2743858 0.18678927 -0.11792268 -0.1668751 -0.06742665 -0.34263524 0.15432666 -0.11564776 0.15085071 -0.2701387 0.22042787 0.17024156 0.3296724 0.17370118 0.13370761 -0.0065045585 0.08465313 -0.12071189 -0.08585086 0.028621595 -0.009084376 0.17853239 0.15395923 0.13997957 -0.022422692 0.03133931 0.0066609234 -0.13662164 0.14560705 -0.039114706 0.06287653 0.13156407 0.0017070213 0.041953057 -0.18400037 -0.18090728 0.042412177 -0.088736415 0.062113814 0.07310336 -0.052883334 -0.1102776 -0.095515855 -0.21247514 0.09417314 0.15212642 0.22309908 -0.0006883826 -0.07815136 -0.052317802 -0.1466523 -0.0611024 0.13664521 0.042308114 -0.032412287 0.09069614 0.06748766 0.11085891 -0.16991194 0.0049498626 0.16275942 0.11476477 -0.010927971 0.086849116 0.13222614 0.07423352 -0.0108932145 -0.09341612 -0.074302666 -0.0024187467 0.060550984 0.0638639 0.07329394 -0.091750875 -0.32828507 -0.08001306 0.010455947 0.21378636 0.22833581 0.09267528 0.006290341 -0.121466964 0.111127645 -0.020455228 0.031506382 0.100794286 0.026766038 -0.21917617 0.119173065 0.018343959 0.19079836 0.14318281 -0.02689774 -0.035203047 0.07644173 -0.059640683 0.1692368 -0.008429931 0.010808545 -0.06477853 0.0014057079 -0.029183656 0.048215803 0.013341322 -0.008459651 0.023947177 0.048060995 -0.13303006 -0.024180245 0.21323371 -0.076409355 -0.12042451 0.031143773 -0.004069944 -0.04117452 -0.013765686 -0.009764348 0.05881467
736 -0.23287266 -0.24585752 -0.037472334 0.19341193 0.0014275012 -0.13748372 0.16505942 0.00872407 0.28373256 0.07562952 0.22746894 -0.116578914 -0.16580573 0.22042708 0.079614416 -0.095073186 0.111703426 0.06415118 -0.048454277 -0.019995699 -0.14981943 0.32795745 -0.061760474 -0.0117600355 -0.17428878 0.1305223 0.18858351 0.09029551 0.21794793 -0.029826306 -0.08674873 0.23960404 0.24322212 -0.070302464 0.15149575 0.44355902 -0.0135281915 -0.02903786 0.06630928 -0.10287422 0.097511254 0.08550483 -0.14266151 0.060152702 0.2769848 -0.2032853 0.10665442 -0.19963646 0.0364867 0.16688314 0.18402778 0.053505033 0.100853674 0.026850827 0.24617016 -0.09817267 0.090955645 0.019797675 -0.3133741 -0.1338974 0.1072026 -0.0060133357 -0.080292106 -0.09179811 -0.19804507 0.23990273 0.3626973 -0.047974497 -0.047051277 0.26252863 0.15905741 0.33116877 -0.2213877 0.089055456 -0.10829769 0.31378925 0.08504176 -0.087361954 -0.057960983 0.020875208 0.11843048 0.1533393 0.03381729 -0.10636183 0.006014767 -0.0716161 0.19618683 0.047491774 0.11902316 0.25724763 -0.08235926 -0.31696403 0.011016707 0.07276648 0.27050257 0.30519393 0.34602043 -0.00973446 0.09344382 -0.016776318 0.19814634 -0.022388281 -0.18255009 0.3019549 -0.28668517 0.17727058 0.20693754 0.08098789 0.16362846 -0.11484757 -0.30518153 0.09518864 -0.16570687 0.1980439 0.08790102 0.1870763 -0.033842426 0.14756992 0.14140956 -0.055728648 -0.12195327 -0.03829973 0.007909323 -0.1401237 0.008482007 -0.057271663 0.28086454 0.08611614
713 0.0671716 -0.028843252 -0.0073128263 -0.04506833 -0.0013356198 -0.100886874 0.18095481 -0.061538436 0.12009637 0.118449226 0.102331385 -0.04624315 -0.11698802 -0.007934198 -0.009149668 -0.023974631 0.07878417 0.100779615 -0.047904138 0.08140426 -0.097228035 0.093437515 0.072006844 -0.0042299945 -0.039900977 0.04213689 0.054321874 0.0150477 0.08466845 0.053875793 0.12210993 0.13139342 0.09594883 0.04675689 -0.0034485285 0.15407965 0.06736229 -0.004974913 -0.019558385 -0.018337388 0.023768194 0.162805 -0.11112928 0.101041496 -0.024727408 -0.07010914 0.12601401 -0.16844283 0.069490865 -0.0049953293 0.01673608 -0.047273662 0.050753906 -0.039163787 0.242959 0.06730578 0.118481494 0.026904948 -0.20754266 -0.045027573 -0.022778869 -0.13889459 0.07046144 -0.049031656 -0.087991804 0.037399784 0.24710989 -0.16333827 -0.09720653 0.045979287 0.18798113 0.092323676 -0.13581452 0.1512498 -0.02698473 0.0897372 -0.047609556 -0.12839569 -0.13088031 0.018509317 0.12314666 -0.047232967 0.06673258 -0.048016164 -0.19637954 -0.18349035 0.21152253 0.04312652 0.10168221 0.10478251 0.009382025 -0.19103119 0.022889081 0.013543518 0.11441961 0.16376106 0.12577805 -0.049830247 0.036876347 0.05512432 0.13296102 -0.027292188 -0.01676537 0.14023545 0.027286235 0.0067826966 0.22326036 0.05809488 0.06816707 -0.07494975 -0.09844981 0.07157608 0.024802368 0.07448694 0.15815972 0.16621032 0.14400376 0.047325127 -0.0216202 0.08204912 -0.053156585 0.113638185 0.091951035 -0.0043405816 -0.004931441 0.1599099 0.10212495 0.053177867
694 0.16825326 0.20149325 -0.17513183 0.002366128 0.009968 -0.3351552 0.26798838 -0.15608917 0.0071838438 0.03675494 -0.04559083 -0.103588395 -0.013073215 0.036734015 0.004485187 -0.113689266 -0.039353292 -0.02127457 -0.10733262 -0.07644985 -0.038399775 -0.016184831 0.251071 0.061515223 0.12445518 -0.0570314 -0.014236297 -0.17278078 -0.08606124 0.13854563 0.024099553 0.10486107 0.24957584 0.014188302 -0.12471258 0.13847475 -0.0012056233 0.038344882 -0.04244141 0.06253038 -0.12100667 0.14193496 -0.044005975 0.10244199 -0.2987449 -0.13650435 0.09084337 -0.078809194 0.05248451 3.110111e-05 -0.09123021 -0.22203748 -0.040091667 -0.06519144 -0.031540368 0.2156843 0.011959929 -0.009739986 -0.16508818 -0.106953606 -0.20761213 -0.07400111 0.11085419 -0.15139575 0.01405159 -0.0014921589 0.1361548 -0.1270376 -0.12441544 0.050768647 0.18498544 -0.013309266 -0.11826469 -0.021000767 -0.08013618 0.020668225 -0.08885744 -0.12032647 -0.12461657 0.083895996 -0.030118933 0.030082619 -0.0026758714 0.08637468 -0.2105805 -0.20187943 0.08812785 -0.09130662 0.060118526 0.15169498 0.0925575 -0.060752638 0.11844391 -0.09234611 0.11174506 0.1611287 0.0034812188 -0.21164867 0.0022662622 0.023605533 0.10984788 -0.1412433 0.033830676 -0.02430364 0.10582192 -0.018122591 0.09021638 0.10151051 -0.02914078 -0.06471729 0.08659615 0.07126948 0.07160025 0.07043139 0.09088651 0.17712261 0.16980639 -0.044973228 -0.051332165 0.10691407 0.12616165 0.0652413 0.25635105 0.032403287 -0.0063951854 0.055297237 0.03710292 -0.029458316
849 -0.03100723 0.12806945 0.10658148 -0.18096633 -0.049858954 -0.13296506 -0.0068636523 0.112204306 -0.03594145 -0.25007212 -0.27948168 0.021536753 -0.08594179 -0.13834763 -0.048992444 -0.14437579 0.18243673 -0.0674309 0.060944736 -0.20815694 0.1695649 0.067193724 0.26121384 -0.026419876 0.10624804 -0.027446337 -0.010579554 -0.15124872 -0.088157505 0.028216064 0.060944982 0.21193427 0.10345482 -0.045547955 0.0009775313 0.127257 0.00017042608 -0.048116498 0.11505562 0.117743835 0.049880818 0.14914246 -0.07457406 0.018601926 -0.14678888 -0.11297847 0.022423154 -0.036287636 -0.01688668 0.04294323 -0.033994306 -0.091037646 -0.094658986 -0.1381275 0.027239565 0.08331576 0.1551361 0.028804861 0.075756505 -0.080389515 -0.21132845 0.037408005 0.13391049 -0.0494853 0.016636945 0.19041635 0.1838591 0.051428784 -0.22890791 0.0029114257 0.16415066 0.2239757 -0.106238686 0.07473818 0.13547114 0.13544424 -0.0027224787 -0.17956084 -0.1257836 0.11786406 0.10594414 -0.063083865 0.041193675 -0.12638605 -0.289927 -0.086820565 -0.015862118 0.17382428 0.16552939 0.12638225 0.10116779 -0.13203737 0.073872946 -0.14959794 0.09102467 0.15125652 -0.060259845 -0.1526269 0.013865208 0.12036982 0.18534724 0.021991834 -0.03909672 -0.091222405 0.043127876 -0.041397613 0.17594914 -0.027091974 -0.06358105 -0.0036241056 -0.0437376 0.09022728 0.15501481 0.112384394 0.050355252 0.11770129 0.08240557 -0.10846971 0.04609046 0.28392625 0.00057596253 -0.0646885 0.1695847 0.01227283 -0.0033002102 0.17235248 0.017794479 0.00025371066
724 0.031323012 -0.031537462 -0.008683769 -0.017866148 -0.03134299 -0.08056721 0.117048405 -0.0032541498 0.023068944 0.0223729 0.021077553 0.043858737 -0.06239707 0.04827387 -0.03931541 0.09025699 0.042702504 0.05816581 -0.045425627 0.08659073 0.027735114 0.06886712 0.054897685 -0.033508662 0.123387225 0.02720254 -0.057634164 -0.030725596 0.0713398 0.053869866 0.09887926 0.095278166 0.143821 0.15030292 0.033541065 0.08089229 -0.055319954 -0.0030431338 -0.03812696 0.02462194 -0.13205595 0.12524335 -0.08334814 0.14869 0.014061343 -0.017413141 0.21642812 -0.09428827 0.016394317 0.05289784 -0.04265393 -0.12832962 0.051392134 -0.21686842 0.053635232 0.117182426 0.09961187 0.07793177 -0.15183069 -0.031166574 -0.074107796 -0.13873212 0.20178966 -0.09393329 -0.10261209 0.047858402 0.28690767 -0.014411303 -0.13009197 0.032391444 0.18994015 0.15729077 -0.06207293 0.1795446 0.022132298 0.06903494 -0.14599548 -0.1275343 -0.13182303 0.041222755 0.0025631303 -0.037542187 0.1040069 -0.0356176 -0.17430256 -0.16222739 0.2029993 0.067762606 -0.0032442587 0.038565435 0.024214787 -0.08940706 0.09024552 -0.09103684 0.06728506 0.13853563 0.001028975 -0.12337341 0.047078595 0.045723088 0.084622644 0.003021582 -0.0044335304 0.09661149 0.01613425 -0.08564754 0.3418255 0.11424455 0.08069494 -0.1165539 -0.14725918 0.13599387 0.09561484 0.0226894 0.10625197 0.2158539 0.17942867 -0.025327785 0.045317672 0.067646325 0.033136662 0.12723087 0.13161592 -0.04610378 -0.019106213 0.11276058 0.15199184 0.029307777
828 0.1034869 0.20761128 -0.14034969 -0.07465778 -0.036572266 -0.12358424 0.12840565 -0.20011897 0.093629815 -0.05800767 -0.12198817 -0.07304738 -0.062318638 0.018603407 0.03180945 -0.1232519 -0.005708266 -0.021350382 -0.12437496 -0.034572657 -0.046198357 0.09328425 0.28618938 0.049460538 0.11559148 -0.07643941 0.03882111 -0.01689121 -0.05895121 0.16052262 0.024640584 0.08272719 0.16524012 -0.010417077 -0.08897878 0.21950878 0.011503204 -0.048623525 0.0059430655 0.04222072 -0.09855135 0.21269757 -0.07133471 0.026633298 -0.13100816 -0.19513124 0.05215428 -0.2231534 0.050644107 0.030170187 -0.0645925 -0.0954868 -0.038813222 -0.185745 0.11826067 0.15686806 0.16114205 0.0036414005 -0.18167499 -0.06478116 -0.13421953 -0.103630625 0.11727364 -0.00011312601 -0.014393927 -0.04109197 0.2134628 -0.029306073 -0.17340825 0.06115287 0.29440755 0.023380727 0.025713041 0.039871003 0.10648782 0.05852933 -0.12488862 -0.08945938 -0.17896429 0.022692438 0.030515907 -0.056159962 -0.039658286 -0.013638771 -0.22095951 -0.11082635 0.103530295 -0.020835696 0.13464496 -0.0711641 0.029636746 -0.055422395 0.15639947 -0.07388022 0.0397667 0.18657878 -0.054763556 -0.19105028 0.036830783 0.012777846 0.13143045 -0.056297798 0.034435775 -0.023794856 0.13586763 -0.01995822 0.09650478 0.09385758 0.037515607 -0.09140747 -0.0027198654 -0.027773816 0.06430315 0.07405765 0.09132439 0.020868191 0.118565224 -0.080858625 -0.050278183 0.17341377 -0.022220599 0.059279673 0.09557191 -0.02066338 -0.1196818 0.03901521 0.07093942 0.042437717
719 0.034722008 0.020274715 -0.04396481 0.027264452 0.03764834 -0.10996208 0.0720942 -0.114060596 0.047079667 0.0061068074 -0.0076408875 -0.12418379 -0.06698242 0.054176293 0.006923577 -0.05515945 0.091888435 0.05620802 -0.10914404 0.010913934 -0.00018986722 0.03759853 0.19704358 0.090929955 0.047589514 -0.04571906 -0.04214898 0.025061835 -0.064334124 0.14736825 0.08638687 0.025565445 0.22874682 -0.035705857 -0.045523282 0.15932572 -0.06138249 -0.026600214 0.018433044 0.087276414 -0.12360014 0.039976873 -0.11089492 0.08579119 -0.21599673 -0.1310228 0.049310345 -0.20101261 -0.034963425 0.05611544 0.079269566 -0.16103084 0.065786935 -0.11855916 0.16695946 0.12591784 0.07180402 0.096897535 -0.18039958 -0.07703888 -0.048144553 -0.069613494 0.16945104 -0.031570647 -0.14410076 -0.055798024 0.19556403 -0.101472415 -0.1589765 0.08198631 0.15064913 0.16529804 -0.055432826 0.17421786 0.016575858 0.052816115 0.00027428137 -0.024023188 -0.120181344 0.15608773 0.07953449 0.07550133 0.03822684 0.04668136 -0.18664414 -0.1310219 0.15841033 0.008752468 0.048131667 0.043748822 0.010391111 -0.07981668 0.09631102 -0.14264025 -0.009320986 0.19595613 0.04157572 -0.10588591 0.005977604 0.02421145 0.085041374 -0.08877356 -0.07350853 0.052205704 0.012969804 -0.06845717 0.18135956 0.11369223 0.053001463 -0.036247436 0.0021661608 0.08844876 0.08758112 0.1197637 0.12185122 0.14909516 0.102414176 -0.042381607 0.0042315535 0.0212719 -0.011594892 0.08874414 0.027469417 -0.029881166 -0.097850405 0.10251473 0.031398866 0.047976583
695 0.053339265 0.01321676 -0.07618093 -0.18254568 -0.1353299 -0.043729495 0.11313885 -0.013433421 0.070266835 -0.015652107 0.07323233 -0.07625183 -0.02847897 -0.045048464 -0.052081823 0.022195308 0.045937523 0.06533381 -0.11594252 -0.023127776 -0.10011038 0.12949817 0.16054142 -0.11112283 0.21753868 0.010434813 -0.026351804 -0.13715485 0.14982004 0.074369036 0.07867241 0.20121847 0.14176726 0.08040663 -0.04679585 0.07362946 -0.11331024 0.03184913 -0.051661484 0.11419262 -0.05605973 0.16549878 -0.067319565 0.1530732 -0.15446898 -0.048322316 0.24637458 -0.1523818 0.02910207 0.007718646 -0.08774835 -0.21549997 0.044038665 -0.19698274 0.11173898 0.11057346 0.13638212 0.072813995 -0.11665659 -0.0399153 -0.13388261 -0.18557231 0.27802932 -0.050547034 -0.08478627 -0.06364568 0.25443983 -0.027261209 -0.21791522 0.040473044 0.0565182 0.10020131 -0.08451105 0.17125645 0.0011868053 0.20029138 -0.07082685 -0.08801085 0.020223211 0.12444881 0.08001481 -0.066042446 -0.049631014 0.07181414 -0.1281572 -0.12896736 0.13658404 -0.0484063 0.04787012 0.028249223 0.1572189 -0.17195104 0.106359154 -0.04580557 -0.02108705 0.06341978 -0.098826125 -0.028321678 0.049027406 0.08743297 0.09323873 0.0127933435 0.06438613 0.0817163 -0.034352817 -0.09991703 0.24287729 0.06557998 -0.0104594305 -0.030350989 -0.0479413 0.10143483 0.113016956 0.027183976 0.122573845 0.20526308 0.10033748 -0.020779764 -0.06141334 -0.03206971 -0.050011374 0.16149661 0.18382463 0.09442559 0.038584795 0.24665573 0.09659545 -0.1489373
688 0.02023665 -0.039069716 -0.06782875 -0.065209225 -0.08447284 -0.028284317 0.1917874 -0.019329928 0.039844524 -0.12147359 -0.10413353 -0.096197575 -0.04281512 -0.026072918 0.094099164 -0.050712712 0.05829867 0.06529048 -0.095613934 -0.08602011 -0.07474914 0.034868408 0.14031304 0.06486167 0.19970684 0.06499084 0.01113941 -0.21958652 0.09402029 0.03654838 -0.027381403 0.18026215 0.21950455 0.09832049 -0.017341828 0.17537859 -0.07825744 -0.018468149 0.07083974 -0.011874535 -0.07246199 0.1792596 -0.021180272 0.04011589 -0.05073364 -0.12900901 0.08025312 -0.09191266 0.004837193 0.06872393 -0.026675535 -0.13847604 -0.041439876 -0.17661978 0.12070336 -0.059232395 0.1187794 -0.017432766 -0.073903605 -0.111979574 -0.1292941 -0.12607221 0.23553003 -0.010410069 -0.12056622 0.049066167 0.16927916 0.0964347 -0.16993515 0.08830518 0.11868111 0.030539664 -0.0012390438 0.19803536 0.07285288 0.059104487 -0.0547158 -0.094447955 -0.065210916 0.074383125 0.08619882 0.044036224 -0.115755945 -0.07920188 -0.15058497 -0.15491134 0.03661798 0.028693411 -0.0488102 0.04793874 0.10692494 -0.15614417 0.019243684 -0.086387314 0.08037006 0.10581921 0.10779891 -0.13508248 0.0647222 0.039448917 0.09394401 0.042880084 0.039937627 0.13706042 0.019634187 -0.15859061 0.14714393 0.16282271 -0.07170582 -0.017926777 0.0028928353 0.07433114 0.14716528 0.011747676 0.038829416 0.16391186 0.030971857 -0.05701282 -0.061506327 0.07584594 -0.06571772 0.050344206 0.20369327 -0.011529092 0.025744753 0.091898926 0.06542168 -0.06183247
834 0.13977405 0.029415876 -0.10566605 0.00088158424 -0.031110423 -0.12050168 0.18469678 -0.14527498 0.1024843 -0.005032828 0.06801922 -0.025262382 0.029817604 -0.033844367 -0.10640033 -0.059689842 0.12014586 0.03612957 -0.10268402 0.002258243 0.0024066204 0.1283365 0.18532938 0.010779686 0.15775229 -0.008479783 0.01972297 -0.06441479 0.088054076 0.1184796 0.049291957 0.024199506 0.21034308 0.06578418 -0.053311087 0.018520264 -0.10418328 0.043650918 -0.028856846 0.01936685 -0.057156455 0.068000294 -0.04607342 0.126803 -0.22412267 -0.040527575 0.11561545 -0.15176886 -0.0037540055 0.099954605 -0.022545522 -0.14109322 0.045479402 -0.11399859 0.13301387 0.15738644 0.04327644 0.027948253 -0.1714444 -0.0060733366 -0.06223937 -0.12145568 0.19382018 -0.047584537 -0.072010964 -0.051974174 0.23700324 -0.053082738 -0.26694912 0.0969534 0.1958158 0.15873976 -0.09430809 0.13032643 -0.0040934472 0.056776486 -0.096839234 -0.03807847 -0.09237492 0.13393888 0.06642634 0.02816467 -0.0060542338 0.12241851 -0.2458465 -0.21104558 0.16180152 -0.066881336 0.053362705 0.015423083 0.09679461 -0.15318093 0.15069912 -0.1490838 -0.01655881 0.14448102 -0.039950617 -0.10887143 0.054047428 0.02482864 0.1819935 0.018377373 0.008678654 0.05390278 0.0007933996 -0.025484936 0.20212945 0.122075796 0.07513898 -0.03438425 -0.04889755 0.027216012 0.12191021 0.12290976 0.1401561 0.16213204 0.111817814 -0.027576152 -0.114540584 0.089996435 -0.044582188 0.038688563 0.1650197 0.04450482 -0.03448024 0.03253384 0.024090234 -0.012869775
705 0.08979494 0.06673685 -0.054454245 -0.12963398 0.002368514 -0.16317263 0.09606216 -0.07147979 0.11358964 -0.100378394 -0.15615083 0.025981523 -0.06790234 -0.16803038 -0.04523187 -0.17850779 0.044071224 -0.111392625 0.06938915 -0.076283254 0.090931535 0.06635921 0.25707614 0.07958901 0.13236938 0.0066239974 -0.021690993 -0.042817213 -0.06247166 0.063534506 -0.033993125 0.1276579 0.21439429 0.07956311 -0.12019131 -0.03103092 -0.020028472 0.072334655 -0.008773075 0.09608374 0.025312075 0.04438788 -0.077838816 0.027135901 -0.27108654 -0.027049122 0.026029639 -0.16373664 -0.038414035 0.037188362 -0.026826546 -0.16195773 0.07046033 -0.096711196 0.079116724 0.17408724 0.08992197 -0.034175918 -0.09826797 -0.13378026 -0.09751296 -0.032323044 0.16015364 -0.12224646 -0.04844298 0.10757616 0.29885715 -0.063727066 -0.16021055 0.09483674 0.16774042 0.2039505 -0.067250885 0.0940699 0.15781514 0.069901995 0.0022878277 -0.08102165 -0.19951335 0.14288081 0.07249049 0.10119959 0.040534776 -0.057108827 -0.27607834 -0.10204898 0.077968635 0.06065812 0.09875729 0.064428605 0.118917696 -0.16183782 0.191486 -0.11593886 0.048999738 0.10057095 0.001075419 -0.010975937 0.055481315 0.052909225 0.13398948 0.0630943 -0.05849446 0.08859122 -0.021962361 0.033458147 0.17310607 -0.0034855856 -0.026307644 -0.05091894 -0.09637128 0.042789876 0.122643 0.1001196 0.020995507 0.13161859 0.09510643 -0.14037503 -0.010676642 0.17055865 -0.08053898 -0.025184836 0.056606207 0.013660741 0.071088694 -0.0029720652 0.08119457 0.036390454
829 -0.019578908 -0.08066125 -0.12447509 0.17165078 0.004215462 -0.1479717 0.13141659 -0.028941825 -0.04200968 0.045881126 -0.05847809 -0.088960044 -0.008978792 0.07487207 0.020332418 0.13306034 0.055854082 0.16368234 -0.09139325 0.010337349 -0.021082245 0.15089309 0.11412625 0.121475264 0.024792328 -0.012302625 -0.18398724 0.20835273 0.11023639 0.14686172 0.14267392 0.089257516 0.2911037 -0.060162243 0.068663225 0.13300051 -0.22125185 -0.12010916 -0.052760664 0.16064541 -0.14387819 0.11154099 -0.28055698 0.22839046 -0.29829824 -0.096231855 -0.00067303254 -0.22062297 -0.10609071 0.011458867 0.107572384 -0.12070456 0.11715863 -0.20145918 0.11871749 0.23595616 0.1622627 0.08914246 -0.1381397 -0.059026342 -0.005247774 -0.078167565 0.32472852 0.022601387 -0.10424818 -0.235571 0.081329204 -0.07459319 -0.08573657 0.08642403 -0.06433972 0.13335715 -0.07577095 0.29657894 0.074288614 0.105778046 0.06848653 0.033401966 0.11919162 0.16137588 0.07771886 0.14190894 0.093329355 0.19432423 0.0088498555 0.049950443 0.094852075 0.029447041 0.016203152 0.04697151 0.024370436 -0.11224928 0.057317175 -0.0075199734 -0.098519534 0.2043079 -0.038861852 -0.09789353 -0.01713668 0.110670716 0.06923204 0.0006034073 -0.028579967 -0.029383756 -0.14354818 -0.029248975 0.2796972 0.089579105 0.03153546 -0.16897783 -0.0033529296 0.1789721 0.056975372 0.086999804 0.1320688 0.28347543 0.15136415 -0.012645938 0.021986915 -0.12336342 -0.07035519 0.091236964 0.036261424 -0.19203596 -0.047621332 0.20273256 0.12082883 -0.058753032
726 0.07633525 0.12350999 -0.20163365 -0.08628025 -0.062454782 -0.22421905 0.3595802 -0.20276603 0.08760703 -0.10733231 -0.03779306 -0.070285074 -0.037334204 0.063902386 -0.085723706 -0.077665865 0.16988935 -0.07669769 -0.11281083 -0.15559456 -0.001017892 0.096754976 0.27489772 -0.07294087 0.1275321 -0.042939227 -0.0039863656 -0.18732208 0.038314957 0.05189572 -0.03266735 0.020371052 0.14662406 0.030358538 -0.051846217 0.20228522 0.016858816 -0.028048547 -0.092968345 0.05470438 -0.030135557 0.091437854 -0.037684176 0.1357255 -0.098655306 -0.13650174 0.22645585 -0.09799843 0.0903637 0.06000545 -0.09068613 -0.18464088 -0.124638446 -0.17055447 0.087527424 0.18431886 0.02934476 0.08068657 -0.110760644 0.027201375 -0.17062786 -0.12494377 0.10152175 -0.037330594 -0.027327606 0.03507576 0.14203425 -0.07863955 -0.22558355 0.09054984 0.15316388 0.09705262 -0.12574795 0.030552411 -0.053725474 0.16391899 -0.16356161 -0.022014407 -0.071532935 0.0413661 0.059777055 -0.01288666 -0.037041888 0.09649243 -0.24098606 -0.29340473 0.1464723 -0.02249897 0.1215882 -0.004631389 0.05605621 -0.08022705 0.09602255 -0.06281701 0.057192564 0.032330666 -0.084560946 -0.17636558 0.014140217 0.041383646 0.058150318 -0.08305478 0.085629724 -0.058907244 -0.06232792 -0.03384556 0.21135104 0.09092795 0.06691705 0.09962592 0.033662178 0.0024789665 0.044122223 0.010639222 0.11833618 0.15397081 0.06519997 0.034041554 -0.08668636 0.032541018 0.0054871305 -0.045730274 0.14313821 -0.056071922 -0.04466781 0.13941896 0.008245914 -0.013157488
745 0.085995376 0.039977677 0.012561347 -0.09960842 -0.0455849 -0.0552807 0.028977493 -0.02844385 0.041304536 -0.0028837135 -0.050238047 -0.07916076 -0.00045903033 -0.091802515 -0.110572875 -0.09969042 0.07495473 -0.094094515 0.007927205 -0.17804353 0.034962807 0.08019488 0.20061934 0.015694633 0.16818376 0.0072421622 -0.015138646 -0.12685595 0.0026836095 -0.018773604 0.019980645 0.18969527 0.19967403 0.011756836 -0.06602432 0.1724762 -0.08885434 0.032500297 0.07985335 0.12109956 0.008365832 0.018289419 -0.070846625 0.049458787 -0.23962024 -0.010967285 0.07715587 -0.09393593 0.024969684 -0.05377418 0.006314863 -0.1724616 0.04266389 -0.08813328 0.04571149 0.1212993 -0.0023950096 0.03233337 -0.0718459 -0.05164007 -0.15402634 -0.07895868 0.23107877 -0.07984956 -0.044904433 0.052280206 0.16347007 -0.080706045 -0.16514082 0.11312727 0.14968449 0.22811975 -0.14597337 0.12533127 0.004867763 0.027358241 -0.043148316 -0.17367026 -0.16099417 0.08409585 0.0987431 0.06310899 0.05256045 0.040038995 -0.29691252 -0.15310499 0.078437895 0.05569581 0.115414605 0.05570768 0.14682941 -0.15980679 0.1488963 -0.12170798 0.09270694 0.10868448 -0.05893063 -0.09433649 0.0933528 0.1490119 0.13031942 0.012180009 -0.018916572 0.01541881 0.040393867 0.013504522 0.2509464 0.008765108 -0.018180408 0.0042105946 -0.01690161 0.112672396 0.07033003 0.1591524 0.08099534 0.15532297 -0.0075646187 -0.046708755 -0.0015721193 0.083188675 -0.009109755 -0.0077262986 0.0738986 0.01538231 0.029651292 0.10185466 0.15089805 -0.024149053
766 0.09902555 -0.05610443 0.017189274 -0.09718249 -0.024489177 0.06199028 0.029881215 0.019219793 0.13733265 -0.029323895 -0.06042455 -0.08236585 -0.044521194 0.06618364 0.038625825 -0.02667673 0.04088036 -0.024066018 -0.06724905 -0.074136645 -0.08722952 0.04373996 0.22113211 -0.046541143 0.09211493 -0.0061055957 -0.0051412885 -0.11472623 0.050162252 0.07708572 -0.052366406 0.13315158 0.25475234 -0.01893303 -0.09160334 0.10534466 0.0008521786 -0.03566037 -0.09841949 0.045907613 -0.08957514 0.208912 -0.08760955 0.018658837 -0.04208067 -0.15302327 0.006975936 -0.14696227 0.012368118 0.062072486 0.023205819 -0.13589923 -0.045253504 -0.05893284 0.13814281 0.04239374 0.061384503 -0.011447583 -0.12487289 -0.17168626 -0.09949476 -0.06010068 0.14018753 -0.049431592 -0.15652962 0.04308382 0.31583488 -0.08971083 -0.28414047 0.049561758 0.17336303 0.12958467 -0.042864956 0.20817643 0.06262075 0.13462502 0.02447419 -0.055330664 -0.24919622 0.17889318 0.06040618 -0.009181002 -0.06265315 -0.075393796 -0.20092487 -0.21965605 0.1084613 0.029552042 0.10879231 0.16620673 0.05928347 -0.08281687 0.022079246 -0.17839321 0.07729284 0.12596394 -0.008453039 -0.15369843 -0.0041303365 0.032444254 0.08990402 0.0023284561 0.048804548 0.09579296 -0.09162428 -0.01920511 0.12859282 0.10463607 0.033412497 -0.026369195 -0.08876982 0.09471189 0.10988777 -0.013186692 0.08666138 0.211505 0.0822656 -0.11310104 -0.11291067 0.09639343 -0.043747205 0.013315307 0.17222804 0.048614524 0.048934028 -0.003919732 0.04095781 -0.048132896
824 0.066492416 0.12987126 -0.07419316 -0.07553071 -0.040458452 -0.066557266 0.11454315 -0.18448757 0.06701834 -0.12811807 -0.13706684 0.025331628 -0.042945214 0.074841395 -0.10841397 -0.052008335 -0.016583318 0.039174985 -0.06009471 -0.103004746 0.025245184 0.061170205 0.19652261 -0.014366683 0.16091634 -0.11392063 0.036832772 -0.15891372 -0.03514427 0.077322364 0.007076251 0.0266392 0.21863444 0.025340037 -0.08093046 0.15575917 -0.048119426 0.04894802 -0.023982665 0.115202025 -0.050594892 0.1740059 0.053986926 0.053862687 -0.1247007 -0.25715536 0.109029576 -0.09855484 0.076489106 0.043494258 -0.03741016 -0.11177696 -0.05772709 -0.19189726 -0.03192586 0.09847768 0.124593794 -0.036116075 -0.10589309 -0.04606785 -0.23380947 -0.061983295 0.13684289 -0.11740302 -0.051071294 -0.023065811 0.19522363 -0.00012194182 -0.24903949 0.06959313 0.21061817 0.026070345 -0.020047175 0.045144394 0.0139325205 0.081674784 -0.081923224 -0.1182156 -0.20545632 0.077218935 0.052787323 0.01162385 0.025092298 0.04075222 -0.24177285 -0.1717251 0.013734579 0.019269936 0.09601437 0.019988686 0.1387317 -0.081993 0.11883049 -0.10146718 0.014172507 0.16902429 -0.010816833 -0.22751227 0.07199319 0.03333274 0.09661314 -0.04186925 0.06811492 0.0119623905 0.10402259 -0.14703369 0.1766282 0.09004438 -0.027227525 -0.099582076 -0.072776884 0.07738737 0.102452375 0.019527717 0.047413874 0.111480206 0.064929575 -0.037978817 -0.027604403 0.1297359 -0.0319054 0.012818062 0.14261936 0.00790452 -0.042523723 0.10960475 0.05579827 -0.03675333
853 0.042985905 0.008775113 0.0059873685 -0.06028093 -0.122888364 -0.18406697 0.151009 -0.12170496 0.14531602 0.066970386 -0.081759244 -0.13514253 -0.15790899 0.086540125 -0.019228365 -0.061618965 0.024646396 -0.002349599 -0.038449846 0.008641467 -0.034979757 0.15261179 0.2246319 -0.026461443 0.11413523 -0.06983928 -0.041855752 -0.030601988 -0.053744163 0.075909615 0.030550724 0.1448123 0.26416573 -0.026536675 -0.13511187 0.12342143 0.021483047 0.0678067 -0.07456721 0.14642179 -0.07285394 0.12208061 -0.13784908 0.1353931 -0.20800894 -0.058987956 0.15814115 -0.18647927 0.05731344 0.029561978 0.08704484 -0.12418295 0.075359575 -0.013669848 0.12647595 0.18891227 0.15455821 0.04457575 -0.12423076 -0.088964716 -0.1547412 -0.057758972 0.14688604 -0.13863043 -0.04720051 0.03733521 0.17836092 -0.12744716 -0.17728254 0.048267484 0.15866405 0.12461658 -0.01452476 0.052020017 0.06915538 0.0010379821 -0.00013287563 -0.10407993 -0.118712105 0.15167306 0.038712375 0.025293943 -0.013752493 0.029974343 -0.23261258 -0.09300721 0.16904183 -0.029538222 0.104581095 0.047856186 0.032697216 -0.037585616 0.116121225 -0.09141519 -0.06268615 0.10719962 0.002450383 -0.030781351 0.0669942 0.021140827 0.052742552 -0.09202578 -0.054399084 0.16757166 -0.014584924 0.029687341 0.09441564 0.039713454 0.024740035 -0.15252583 -0.049165346 0.076961756 0.11055344 0.042767327 0.13100998 0.16331206 0.101264305 -0.07090671 -0.060371555 0.094315834 0.0018018858 0.07551181 0.12186456 0.017913187 0.026272256 0.06155152 0.05215033 -0.00911718
774 -0.12711015 0.111570634 -0.030903913 -0.04903601 -0.015378559 -0.10988502 -0.015771847 -0.022502912 0.09031118 0.052529875 -0.06347678 0.12909128 0.11182681 -0.038280804 -0.058559258 -0.16356769 -0.04176008 0.07535932 0.13978454 -0.22639915 -0.037561573 0.024433782 0.119208276 0.025261957 0.10221359 -0.071110435 0.07600806 -0.119820625 -0.090351425 -0.055235557 -0.039855484 0.12785038 0.13813585 0.22655097 -0.028531246 -0.026753593 -0.046003815 -0.06969738 0.031218013 -0.010329654 -0.07698709 0.08812994 -0.07343311 0.14904338 -0.257846 -0.0051917834 0.07482859 -0.15342896 0.09281076 -0.079657815 -0.035980802 -0.14272301 -0.025729224 -0.042785216 0.09281525 0.12594736 0.18049373 -0.030221261 -0.21820281 -0.01986758 -0.014694169 -0.13695231 0.13614918 -0.10492885 -0.13530536 -0.10091339 0.12030493 -0.06076825 -0.18790935 -0.022539759 0.10388631 0.029166453 -0.13242707 0.06967242 0.010438153 -0.14151862 -0.072418 -0.16073704 -0.15990627 -0.006841275 0.11027315 0.05308205 0.15691479 0.0007206257 -0.29861277 -0.07782967 0.124520086 -0.027139952 0.30898562 0.07210315 0.14666454 -0.1640622 0.058267847 -0.118881695 -0.056975223 0.28194028 0.05321062 -0.26822355 0.21491769 0.059124704 0.2088169 0.07440732 0.054268647 0.13735771 0.1721913 -0.08210813 0.20102493 0.064645484 0.040036406 -0.10979003 0.03208668 0.090076156 -0.05414935 0.014766426 -0.03673042 0.061630152 0.06929555 0.00090575346 -0.06049297 0.04763317 -0.038292512 -0.0076187984 0.23616578 0.074079014 -0.07881745 -0.056348145 0.12427984 -0.07958758
752 0.14947829 -0.013463403 -0.07111754 -0.055862047 0.024704926 -0.12936673 0.11253094 -0.15646556 0.15638606 -0.012555485 -0.096501365 -0.13286309 -0.026694218 0.038924035 0.092675194 -0.06635207 -0.0277152 -0.0504002 -0.07519471 -0.027556606 -0.025979975 0.0043852488 0.2077988 0.060126748 0.104236774 -0.051791284 0.010408283 -0.05913714 -0.028775148 0.11914689 -0.08216577 0.057512693 0.31542373 0.011195417 -0.107074 0.04672695 -0.043628845 0.0142376935 -0.0041281567 0.12695114 -0.14075819 0.07406805 -0.042441063 0.10819736 -0.16885692 -0.10845239 0.074349575 -0.14862472 0.021583635 0.08142598 0.03335141 -0.14176355 0.017185226 -0.071176276 0.12370915 0.14489315 0.06461929 0.019802833 -0.14214705 -0.13094686 -0.047200933 -0.028003382 0.13591404 -0.015868152 -0.15561488 0.020404048 0.2508446 -0.077114955 -0.27406618 0.058919985 0.20660584 0.12808709 0.034002252 0.18161069 0.11559572 0.01809784 0.0024318518 -0.05176428 -0.24069744 0.15955041 0.008467962 0.07179527 -0.028564664 -0.034462612 -0.26774788 -0.2018738 0.06612214 0.031072931 0.06359763 0.10275369 0.061486375 -0.08414019 0.08974121 -0.22999695 -0.006510685 0.07821303 0.056991626 -0.18858708 0.031750504 -0.015251311 0.121443644 -0.048364993 -0.009779833 0.14996573 -0.034931272 -0.055392753 0.11602274 0.10527742 0.036458246 -0.05824224 -0.004176738 0.035926465 0.18900028 0.07826919 0.10075488 0.13359067 0.08573892 -0.1684367 -0.040750366 0.08792269 -0.056702793 0.06368229 0.11835066 0.03766539 0.007227407 -0.0025799675 -0.029368905 -0.0074260957
812 0.26415586 0.1205668 -0.36690137 -0.052709673 0.033494372 -0.060937077 0.18489751 -0.25658217 0.18114838 -0.102698475 -0.20466912 -0.024672957 0.13578394 0.041910715 -0.084209464 -0.33987415 -0.13968511 0.07621681 -0.14723222 -0.121826984 -0.0863951 0.20720293 0.12754992 0.03802041 0.08430679 0.1375941 -0.022469588 -0.051302105 0.117012605 0.15908284 0.19829623 0.07391736 0.25774524 0.2406288 -0.19907537 0.09599283 0.019961298 -0.0905247 -0.15188293 0.092391916 -0.02086343 0.10474004 0.16465294 0.18120728 -0.1622096 -0.3540333 0.27133343 -0.30435413 -0.1870907 -0.042803086 -0.043992933 -0.18755554 0.04275227 -0.18195601 -0.0517412 0.20170689 0.0007811552 0.09383081 -0.28187352 -0.008996947 -0.050658833 -0.056092415 0.07466007 -0.0049616885 0.08745596 -0.091747195 0.12233911 -0.18612494 -0.136618 0.051496565 0.15333545 0.03428357 -0.17644885 0.12970941 0.1655441 0.21426281 -0.16843669 0.051116593 -0.14706782 0.0017665217 -0.09868613 0.08237149 0.016692203 0.12537365 -0.21672064 -0.32881555 0.20232975 0.10656582 0.16592038 0.052115243 0.21936326 -0.023726346 0.22734922 -0.071453094 -0.02798289 0.1421927 -0.11224835 -0.1943874 0.09717482 0.040465526 0.058720566 -0.09492268 0.2617656 0.016690902 -0.098038934 -0.13529192 0.18940909 0.06424468 0.23011976 0.049664382 -0.022379503 -0.0904011 0.10287617 -0.16887602 -0.10222893 -0.02631807 0.061799172 -0.126263 -0.12636991 0.04407267 -0.03850982 0.10224326 -0.24898346 -0.058354598 0.07070764 0.058878474 0.01676742 0.01569977
805 0.063283876 0.024859956 -0.011444245 -0.04703163 -0.057888 -0.14222582 0.19460873 -0.19961251 0.19753613 0.005493403 -0.06345958 -0.13432087 -0.10635256 -0.018898932 -0.041721463 -0.11179471 0.10350463 0.023169609 -0.01345732 -0.0058398684 -0.028103603 0.11050279 0.20594445 0.017062299 0.15076661 -0.020203775 0.047834318 -0.11166916 0.043909784 0.14627098 0.040701073 0.09155245 0.23614667 0.09450472 -0.13202937 0.0819627 0.039524116 0.07807954 -0.024628248 0.03202837 -0.06970096 0.15247668 -0.107697494 0.1395843 -0.21215115 -0.04561627 0.19493721 -0.2009401 0.09577647 0.09416613 0.07412377 -0.17035152 0.08261957 -0.070401065 0.24724717 0.11013396 0.219463 0.00071038946 -0.1650916 -0.10144641 -0.06660471 -0.14407219 0.16000128 -0.02241905 -0.07744042 0.019364027 0.1123575 -0.038613796 -0.18233767 0.019093078 0.13529634 0.08091456 -0.0054047257 0.050693568 0.03449134 -0.0037215182 -0.11333716 -0.0010223602 -0.15621063 0.06765392 0.09585764 -0.0015857277 -0.029688463 -0.038508255 -0.205055 -0.10928698 0.12692772 -0.040807687 0.05175241 -0.0046203914 0.036202103 -0.114589855 0.06083366 -0.20284805 -0.00017867154 0.09728881 0.08963773 -0.013847388 0.08692944 -0.036089096 0.03189389 0.006244647 -0.037197318 0.18720256 0.08547374 0.02622061 0.17376387 0.122384325 0.077748455 -0.04628176 -0.09240567 0.011712588 0.119741924 0.00836597 0.071602605 0.06962933 0.108258605 -0.05996235 -0.086043455 0.12148535 0.0039284374 0.09360688 0.11368488 0.148375 -0.056633927 -0.0032135332 0.015538978 0.06093453
748 0.054165382 0.12666582 -0.06629231 -0.07268539 0.005607458 -0.19136682 0.10855684 0.012043839 -0.0734004 -0.24919389 -0.19376701 0.117429554 -0.16038501 -0.14256078 0.0015114766 -0.31275988 0.11012403 0.014283163 0.05746402 -0.124807276 0.17760013 0.10754747 0.26352468 0.20388086 0.1598443 0.035219956 0.012693371 -0.04419746 -0.14552759 0.1567618 0.066947505 0.20989817 0.17255533 -0.021242484 -0.12047614 0.07957135 -0.01123434 -0.017821247 0.25070614 -0.0061687864 0.06918577 0.054025803 -0.025112387 -0.17641176 -0.21857695 -0.10794773 -0.24225649 -0.12700222 -0.016044095 0.053239167 -0.0741266 -0.06598905 -0.040134963 -0.084919386 0.08512264 -0.14831075 0.106617555 -0.046714857 -0.050237738 -0.003588651 -0.23025623 -0.009369939 0.10378128 -0.10609657 -0.12029605 0.043450266 0.2525174 0.1215123 -0.24021815 0.16269268 0.2840288 0.1688073 -0.061552566 0.20269766 0.08936047 0.08308901 0.15605305 -0.023077995 0.01994195 0.14706217 0.15961136 0.09065834 -0.05973575 -0.033868004 -0.36031666 -0.12299925 -0.028817402 0.18167037 0.04842036 0.10837803 0.11416731 -0.15877986 0.118449315 0.011928832 0.033070005 0.22877362 0.03741345 -0.1290301 0.08536912 0.049496647 0.22344206 0.12171912 -0.14015071 -0.08856804 0.12267063 -0.12906092 0.12726806 -0.006649272 -0.07166574 0.037948523 0.095803574 -0.03684459 0.16103372 0.09903889 0.018225439 0.027924942 0.025959056 -0.12741117 -0.08028956 0.28859484 -0.19898094 -0.11550477 -0.0062371413 -0.040921442 -0.036113597 0.06786551 -0.008931506 0.017670024
781 0.088190526 0.09947407 0.045782387 -0.048228994 -0.042499185 -0.09869947 0.033673164 0.023913246 0.011958831 -0.084610365 -0.099800125 0.028414946 -0.043725144 -0.057019837 -0.09247662 -0.10552349 0.114518374 -0.0021455141 -0.021227114 -0.10245793 0.10761132 0.05389143 0.18237717 0.08717409 0.14547867 -0.00897233 -0.09719112 -0.08056073 -0.055217337 0.032187536 -0.019565402 0.18359318 0.14009067 0.05674662 -0.0613693 -0.011334132 0.019482804 -0.029352218 0.04425249 0.060240146 0.0010643826 0.023873253 -0.108832374 0.065957196 -0.22598721 0.0089322785 0.027222494 -0.15657741 -0.01303192 -0.0026477086 -0.008058596 -0.109167755 0.0026214337 -0.17810142 0.1347355 -0.021603707 0.11596949 0.05992978 -0.062383518 -0.018718662 -0.09281957 -0.1031462 0.19177318 -0.13330054 -0.13753831 0.014138944 0.21360719 -0.052334726 -0.11210221 0.083565466 0.11406653 0.18868911 -0.09924805 0.23179354 0.005974502 0.027690468 0.052805617 -0.12722063 -0.13281617 0.1383959 0.11213086 0.056342483 0.06511687 0.0138533935 -0.31429315 -0.17662093 0.10726096 0.15536469 0.06074967 0.1264965 0.12399383 -0.12054374 0.04591232 -0.04207758 0.017634483 0.1272777 -0.10205375 -0.048861615 0.053809214 0.15987305 0.045639783 0.09120107 -0.029363053 -0.010254476 -0.012199629 0.013612765 0.25378975 0.0063722245 0.07388246 0.06692972 0.0098519325 0.057307567 0.056305982 0.019358056 0.05809252 0.14482524 0.062152527 -0.03354579 -0.03728731 0.07858496 -0.09921746 -0.036075708 0.052457538 0.013003237 -0.0119988015 0.092383176 0.1363957 -0.06804161
760 0.08735892 0.029283473 -0.028182302 -0.03011332 -0.07916687 -0.05976459 0.060542032 0.0038283516 0.045516312 0.05135306 0.041442145 -0.14359054 -0.02618906 0.036872018 -0.04847054 -0.06837148 0.041850373 0.032099668 -0.11633855 -0.09134841 0.02450114 0.1460689 0.15565462 -0.0125716375 0.21117048 -0.005852696 -0.055641655 -0.10931708 0.07944116 0.06747612 0.013329014 0.11762614 0.12366835 0.039090667 -0.010474145 0.10982256 -0.15218456 0.02472362 -0.059291955 0.14006867 -0.13848883 0.15586817 -0.088812925 0.11101497 -0.1883735 -0.032157198 0.10373469 -0.07920619 0.044798452 0.055678606 0.02794805 -0.13812938 0.03656959 -0.090685256 0.072874434 0.099629454 0.013798589 0.014507223 -0.07840706 -0.043351434 -0.0972576 -0.11408101 0.17749758 -0.13043007 -0.1636819 -0.074012354 0.26600358 -0.013485776 -0.29927644 0.051282484 0.14094144 0.23933318 -0.09669484 0.19919376 -0.03588086 0.042298667 -0.07002768 -0.13091113 -0.11223319 0.190913 0.05724422 -0.004674887 -0.028856616 0.12417926 -0.21134692 -0.17436844 0.22362112 -0.008952401 0.14010966 0.07642603 0.12569222 -0.10993307 0.19073388 -0.21579276 -0.048543427 0.13589981 -0.1345729 -0.13195367 0.105572835 0.10051188 0.11901336 -0.019891618 -0.047612328 0.06762072 -0.032060165 -0.028914245 0.16294606 0.115474604 -0.019696759 -0.009834828 -0.015415345 0.034436822 0.0722787 -0.0047192355 0.06718339 0.16230237 0.12375121 -0.17093608 -0.026364097 0.04889292 0.036705088 0.06065642 0.17031144 0.11545445 -0.029913617 -0.0034133303 0.07403429 -0.120198235
827 0.11373036 0.124629766 0.0037274542 -0.03997818 0.039013013 -0.17517239 0.07027599 -0.0053785555 0.060966846 -0.12946308 -0.063730694 -0.027170666 -0.06554331 -0.14795303 -0.029159613 -0.18940206 0.092805214 -0.058793433 0.043347288 -0.11526708 0.1029482 0.038460866 0.27828684 0.08154028 0.12902355 -0.06338355 -0.027728377 -0.12542987 -0.0117968805 0.09835522 0.0007656804 0.10904914 0.13141985 0.056640476 -0.10951501 -0.066117935 -0.0068577114 -0.032487985 0.05852015 0.11449612 -0.021621 0.019220056 -0.12572248 0.038311414 -0.22137359 -0.022396889 -0.0480516 -0.108152665 0.014421307 0.07751333 -0.01166507 -0.15676895 0.059316125 -0.1570896 0.18143989 0.0676141 0.08260364 0.025051905 -0.08148667 -0.090306655 -0.11578484 -0.075184464 0.13328362 -0.10790927 -0.14034502 0.046191506 0.18184818 -0.10748631 -0.23536146 0.038209457 0.14425483 0.20073794 -0.027513625 0.1919802 -0.015782911 0.08120952 0.020698497 -0.045855522 -0.14544389 0.17404018 0.10161904 0.022722084 0.013618033 0.045160983 -0.21124862 -0.15538788 0.12401372 0.08743037 0.08310346 0.18077178 0.028577885 -0.12373299 0.122642756 -0.17529425 0.040286187 0.1361632 -0.027650082 -0.09881303 0.027304744 0.07672121 0.1509308 0.020624062 -0.14511454 0.03967807 -0.0033897727 0.02462956 0.24049373 0.036210142 0.02001693 0.02991229 -0.02664569 0.07123816 0.076982096 0.044167656 0.092088945 0.13168311 0.12208517 -0.17291395 -0.055764128 0.05207551 -0.04957032 -0.006521671 0.056634903 0.100294106 0.017003834 0.066805914 0.025372736 -0.08045312
733 -0.105197854 -0.12013379 -0.13734211 0.4146109 -0.058106147 -0.3001085 0.22984779 -0.16807352 -0.098807395 0.16338311 -0.23276041 -0.19883892 -0.067455396 0.36371738 0.07555275 0.03570493 0.04409861 0.19823444 -0.24270852 -0.095192626 0.14855936 0.33548823 -0.094915725 0.08222348 0.0050721252 0.039416052 -0.33786863 0.1674634 0.18741788 0.19188543 0.19296506 0.30757552 0.2974475 -0.23222952 0.31961957 0.4329607 -0.20992595 -0.16262645 0.14519142 0.113415405 -0.10471763 0.18473569 -0.28078395 0.22752982 -0.08564604 -0.038000844 0.14923742 -0.07290992 -0.09738007 0.18801011 0.23487782 0.15127707 0.20578948 -0.24978064 0.08169185 0.08174243 0.2173688 0.16719508 -0.030318338 -0.08328656 -0.011611361 -0.005244876 0.25179446 -0.048131008 0.07337805 -0.055978723 -0.055798683 0.09948335 -0.09810728 0.07568796 -0.049377907 0.39811578 0.048810754 0.15189613 -0.06268836 0.10731355 -0.012308426 -0.027880868 0.10086099 0.07198904 -0.113299526 0.23250149 -0.012713577 0.04373426 -0.013382377 0.07602481 -0.034614123 0.03051675 -0.13141924 0.1539382 -0.11384709 0.067423485 0.11317538 0.06942372 -0.10057749 0.2820339 -0.13356964 -0.07033738 -0.05555192 0.11079258 0.07749662 0.058297392 0.065468304 -0.15888144 -0.047752645 0.14870645 0.41720146 0.09866581 0.22696708 -0.115284055 -0.035843525 0.23996936 -0.05813276 0.08316979 0.059655964 0.25783935 -0.014427616 0.06759448 0.11135125 0.17009252 0.062239796 0.14770262 -0.028912669 -0.18145348 -0.11878477 0.080348395 0.17669906 -0.047270406
696 0.0036454895 0.06587519 -0.15471025 0.023153897 0.006087826 -0.16258948 0.1225309 -0.1462095 -0.021059552 0.046732854 0.022261469 -3.691054e-05 0.026275944 0.05701334 0.036540657 -0.041448567 -0.019874528 -0.019906325 -0.015069953 -0.06744621 0.045861945 0.018109843 0.123358935 0.08052066 0.16443077 0.030380161 -0.01039849 -0.075200714 0.008096915 0.06399883 -0.009913788 0.08924317 0.2290473 0.075405605 0.020123316 0.086760476 -0.10499132 0.038209278 0.03755064 0.024313042 -0.10574648 0.07804415 -0.0024320937 0.026071358 -0.19548213 -0.0975471 0.06499648 -0.10734996 -0.021279544 0.09703957 -0.051999796 -0.19247882 -0.01908458 -0.11535987 0.017359525 0.10065769 0.091323465 0.0029811617 -0.1866619 -0.103933655 -0.07580003 -0.06680964 0.2006469 -0.029451182 -0.067781515 -0.0074404483 0.29698828 0.04782871 -0.23284565 0.049029622 0.16397314 0.14681517 -0.06254547 0.105229124 -0.020635521 0.057285506 -0.12385178 -0.05933566 -0.04421343 0.042835455 -0.030869856 0.10142786 -0.07483384 -0.05265863 -0.2673689 -0.13383085 0.1137206 -0.011804143 0.038312137 0.086576104 0.08394909 -0.1815889 0.11155171 -0.16276184 0.0639992 0.10669522 0.049643632 -0.12918414 0.06531802 0.01844029 0.1480187 0.07837104 0.058819678 0.09157918 0.12204916 -0.035653822 0.18445374 0.082401626 -0.0028756477 -0.05388625 0.027226742 0.073881134 0.010849685 0.053748634 -0.0040699407 0.14934087 0.072663195 -0.09439978 -0.07167117 0.12201438 0.009492819 0.017595548 0.10226559 0.05250125 -0.075957835 0.056067776 0.09727123 -0.05900099
727 0.18982619 0.06433132 -0.05937816 -0.074532725 -0.0066494695 -0.040614147 0.12664859 -0.16200076 0.20773773 -0.11038976 -0.21150528 -0.10190791 -0.03692144 0.06415212 0.1291076 -0.041118618 -0.03376169 0.09359867 -0.10744211 -0.057848472 -0.024613464 0.06343439 0.23297317 0.036694754 0.06811965 -0.12893654 -0.06087726 0.050396625 0.064883 0.109384075 -0.16292141 0.1233093 0.21481334 -0.063373536 -0.042663656 0.089940324 0.02104932 -0.023018021 0.068344675 0.1533001 -0.021029156 0.15063494 -0.052944347 0.0042012287 -0.045957685 -0.068211414 0.12076027 -0.1780731 0.008877963 0.18309832 0.027506866 -0.052233003 -0.043680105 -0.12318608 0.1072042 0.0560974 0.17009786 -0.05537802 -0.024740959 -0.28146407 -0.02588974 0.0127628 0.13235657 -0.024973275 -0.013243232 0.03584037 0.27117258 -0.0847963 -0.35497895 0.033937953 0.09194457 0.16622008 0.10451358 0.1782437 0.08436744 0.093398385 -0.028664231 -0.11250014 -0.22678885 0.07144806 0.09293788 -0.122941844 0.005473087 -0.16209175 -0.10566208 -0.028903851 0.014290523 -0.015896752 -0.029935205 0.013410532 0.036450844 -0.08071696 -0.085222945 -0.26088378 -0.012857568 0.05472683 0.079956576 -0.1511833 -0.04262981 -0.007124031 0.1507007 -0.024641804 0.108225934 0.15271433 -0.039029036 0.09260727 0.29807466 0.052678343 0.16236398 -0.11695741 -0.13912946 0.14055659 0.094593436 0.09802917 0.10366894 0.096575886 0.052158587 -0.15049624 0.047651645 0.16812727 0.036615863 0.036077656 0.17947352 0.05482883 -0.014247252 0.06555829 0.10482613 -0.12563752
847 0.12779209 -0.10227337 -0.02861943 -0.007688284 -0.09086099 -0.031143263 0.13297254 -0.06866112 0.19441603 -0.1760494 -0.17061977 -0.15895583 -0.034999873 0.027017184 0.038082477 -0.06693488 0.06468081 0.0253521 -0.04689894 0.03844117 -0.03569227 0.07762968 0.23320767 0.09741872 0.10369434 -0.08030753 0.026247958 -0.067938045 0.090494566 0.13174455 0.019548897 0.06442561 0.32928476 -0.06708528 -0.12305694 0.072299324 0.0072578974 0.0008692938 -0.011612456 0.16815755 0.011207942 0.10381813 -0.08125205 0.14378212 -0.17615329 -0.06585483 0.08753451 -0.14346611 -0.02144845 0.08534404 0.1255185 -0.08792475 0.042964414 -0.0831878 0.1579974 0.12479276 0.14658925 0.0009393123 -0.025327705 -0.14895277 -0.13530093 -0.07212928 0.16406833 -0.008569144 -0.020383805 -0.0019256929 0.1040972 0.0034737743 -0.29281455 0.0879702 0.1228193 0.18388675 -0.01828096 0.18308386 0.11199431 0.007861979 -0.055756576 -0.014117835 -0.15263455 0.17345099 0.048849143 0.030029261 -0.043337926 0.08637037 -0.20890987 -0.12867379 0.14309326 0.0014009589 0.068314284 0.033983834 0.04029291 -0.099701166 0.05342557 -0.23309255 -0.016180415 0.078965545 0.048237957 -0.12683134 0.03960554 0.026658185 0.2213239 -0.032538857 -0.022716284 0.14431839 0.00011308836 -0.18488432 0.13059361 0.14565796 -0.011349745 -0.11405156 -0.07961171 -0.023563042 0.21847022 0.027982537 0.09907228 0.18060373 0.1214429 -0.15740746 -0.13035488 0.14498326 0.064159475 0.12235024 0.08853195 0.11171862 -0.0038534538 0.11420534 0.009336907 -0.031102875
773 0.048827205 0.018861637 -0.03910135 -0.10417708 -0.16597083 -0.3218292 0.2178636 -0.047236513 0.09024145 0.021442916 -0.045264367 0.018097013 -0.08053476 0.025726087 -0.07771223 -0.10477899 0.07616277 0.04445772 -0.022366174 0.08115761 0.014952804 0.14418587 0.090631776 0.042265628 0.1689788 0.007589855 -0.044041805 0.07149566 -0.07298103 0.030421445 0.04701198 0.108366914 0.21522616 0.24501157 -0.12105219 -0.106420815 0.060322963 0.10426325 -0.065652445 0.105642445 -0.17395279 0.034884017 -0.09911592 0.23737255 -0.23251542 -0.02250398 0.27842098 -0.19931485 0.10137202 0.031649947 0.029184062 -0.1527054 0.06786155 -0.10365259 0.069284596 0.097629674 0.16017671 0.096691154 -0.13560157 0.055043843 -0.13998133 -0.1372099 0.12547126 -0.14353603 -0.12762111 0.058746472 0.27448535 -0.09162209 -0.11590234 0.033017457 0.18779759 0.1261231 -0.012109744 0.08246219 0.08785587 0.0027829215 -0.047916874 -0.105450295 -0.08529972 0.1494517 0.0073455432 0.0026222714 0.059324056 0.024640108 -0.37832853 -0.17718281 0.12494019 0.07118708 0.030791065 -0.0047784117 0.10961727 -0.051823102 0.14613563 0.014758873 -0.07693284 0.16207847 -0.05446329 -0.01238387 0.10105555 0.0004316209 0.015122624 -0.037095137 0.0008537619 0.09475642 -0.06750626 0.02861233 0.15901059 -0.034523364 0.09961386 -0.033837795 -0.027315317 0.019627526 0.095347285 -0.010382573 0.03474976 0.11925953 0.13213019 0.0017388939 0.024706751 0.09635114 -0.09470757 0.026346305 0.15725173 -0.019536633 0.008739876 0.091056675 0.051180203 0.06643647
697 0.026613783 0.13383108 -0.051952217 -0.09725156 0.033274643 -0.022294765 0.0509618 -0.09477794 0.034343254 -0.057935096 0.012887325 0.007106923 -0.00879697 -0.08377257 -0.040302675 -0.22220172 0.08548252 0.046298116 -0.07512684 -0.14441298 -0.027649269 0.06546056 0.22651075 0.02990545 0.14503947 0.020166487 0.07173147 -0.20957515 0.061628636 0.123244494 -0.04542186 0.19108945 0.12988925 0.15591902 -0.07768625 0.036448106 -0.029375266 -0.061643206 0.05130575 -0.081792556 -0.086014085 0.132599 0.011706623 0.039990976 -0.053369183 -0.108828254 0.14529873 -0.2000409 0.019498909 0.13602522 -0.058351908 -0.09695106 -0.078843996 -0.17850082 0.11996052 0.03904228 0.045626797 -0.024360051 -0.1719685 -0.12705019 -0.07525738 -0.1470507 0.16200866 0.059361495 -0.088570505 0.018668536 0.17742005 -0.051771853 -0.22611536 0.036734473 0.12715706 0.08256162 -0.03615872 0.12474069 -0.07277237 0.08685662 -0.033701833 -0.15882772 -0.11631515 -0.015521703 0.1101489 -0.072355896 -0.010079029 -0.055188105 -0.11238223 -0.12482073 0.094733454 0.009655977 0.19270591 0.14645194 0.0023478302 -0.16208589 -0.06394664 -0.18431371 5.8524252e-05 0.1301218 0.042424396 -0.20597765 0.1156172 0.011368541 0.12864923 0.09103551 0.01636031 0.0690697 0.028197052 0.06101102 0.25806212 0.14697829 0.064174436 0.0425265 -0.04907031 0.060370754 0.0416671 0.10945028 0.052528318 0.047460284 0.03850362 -0.11504346 0.0031921756 0.07019829 0.04215962 -0.041836422 0.340122 0.07660592 -0.033716552 -0.058021642 -0.08882536 -0.03279454
810 0.06601687 0.20478772 0.07012003 -0.10400891 -0.11808828 -0.10047793 -0.0065891854 -0.23647846 0.14067748 -0.016140034 -0.05869434 -0.12571491 -0.17408332 -0.026984936 -0.063745946 -0.13035361 0.0043408284 -0.07367916 -0.08186429 0.02483405 -0.026432682 0.01620447 0.30432513 0.07135317 0.07216191 -0.13071941 0.0064380174 -0.10958637 -0.14933726 0.08685072 0.047281977 0.12963085 0.32310286 0.0053107655 -0.16137663 0.1579965 0.008420713 0.084356174 0.02169978 0.094884835 -0.02121356 -0.050502006 -0.117321424 0.0717079 -0.10069763 0.04692371 0.15409622 -0.27018422 -0.058782607 -0.085352734 0.10035775 -0.16429855 0.16597614 -0.14870383 0.1012662 0.13651381 0.04094476 0.03891045 -0.15200658 -0.030545762 -0.08565343 -0.16575624 0.21934263 -0.14510146 -0.0830496 -0.0061514443 0.09645715 -0.19411032 -0.13266839 0.12585776 0.12217317 0.1833919 -0.05193993 0.1058415 -0.061109148 -0.12199002 0.060023427 -0.14291415 -0.32075864 0.02838155 0.06017077 0.010595678 0.058747705 0.007949324 -0.2659148 -0.13567308 0.24408084 0.07252161 0.118146025 -0.016097344 0.060198728 -0.18532035 0.07060227 -0.14070399 -0.030752795 0.078150794 -0.057735816 0.027683351 0.12472392 0.1212553 -0.00043880971 -0.08629584 -0.14027761 0.117137425 0.086318694 -0.013857778 0.19129547 0.050498288 0.0034970138 -0.024754796 -0.13079378 0.105291694 0.038099807 0.18732603 0.010288488 0.12141078 0.033972226 0.011708336 -0.002347316 -0.035713267 0.0829474 0.100838564 -0.04030285 0.08336726 -0.052972637 0.10139344 0.16725726 0.04911971
842 0.09567734 0.009426837 0.03008448 -0.025974374 -0.0147966 -0.062362622 0.07223265 -0.012245285 0.10247604 0.01941482 0.04881348 -0.06543217 -0.09086177 -0.00049546733 -0.04177169 0.03318769 0.048501085 -0.017692797 -0.0313259 -0.00017705325 0.038212977 0.039802015 0.17101768 0.027020765 0.15967983 -0.051540654 -0.07451794 -0.031674705 0.03683554 0.09208388 0.006657546 0.09465077 0.20088165 0.051523156 -0.0771226 0.041900788 -0.058294844 0.044461258 -0.09172997 0.17179272 -0.09398827 0.12284176 -0.17956005 0.07790355 -0.2453162 -0.029616728 0.07358572 -0.1602147 -0.009966048 0.009567356 0.019643564 -0.19322747 0.09197311 -0.18582062 0.117449455 0.13362272 0.09195972 0.049700912 -0.17997573 -0.17287724 -0.10779208 -0.12465568 0.24255538 -0.15767564 -0.089530036 0.0025952423 0.29561064 -0.10268077 -0.107876785 0.025289673 0.11530303 0.21950024 -0.067750156 0.18311498 0.047485366 0.08374612 -0.06376048 -0.071178354 -0.17434904 0.2063605 0.056752563 0.023251975 0.0077454946 0.057275523 -0.11847809 -0.1350253 0.1943135 0.037930325 -0.016591132 0.045827147 0.10187783 -0.12506773 0.13716476 -0.16764916 0.09182035 0.07561256 -0.044593297 0.036641847 -0.032791365 0.09454097 0.065213636 -0.015595094 -0.07372968 0.075630344 -0.019385422 0.0018451122 0.22923836 0.040654954 -0.022146717 -0.061778266 -0.16061166 0.13512404 0.046360128 0.025545618 0.09480427 0.22434333 0.12941243 -0.11152196 -0.00097472663 0.0087116305 -0.0017766557 0.09484436 0.059823453 0.07470647 0.015849048 0.11093713 0.19821933 -0.08804783
823 -0.010784986 0.10120983 -0.07781321 -0.0909745 0.023779333 -0.04914001 0.08771909 -0.20935518 0.032808345 -0.062466912 -0.13705689 -0.0381063 -0.04762694 -0.050120678 -0.056783978 -0.13720682 0.023518294 0.036585983 -0.039164342 -0.12704772 -0.0040210355 0.09963748 0.2306867 0.08489922 0.10531471 -0.08384761 0.083286256 -0.13025723 -0.057062622 0.08381588 -0.03616993 -0.0059783044 0.14898805 0.11322397 -0.07402283 0.07721329 -0.05074165 -0.040293213 0.004060048 0.047829974 -0.1453153 0.1101112 0.013331201 0.11442967 -0.1464455 -0.12173628 0.18367754 -0.094113156 0.13186856 0.06411544 -0.025999468 -0.14548 -0.017263949 -0.1254094 -0.0017815381 0.19535296 0.1432653 0.021694493 -0.14943029 -0.018118698 -0.07997711 -0.056367468 0.08713854 0.08553538 -0.10359552 -0.06313486 0.18034317 -0.07276879 -0.22241306 0.0648938 0.13274474 0.076619565 0.008818282 0.06650003 0.03972699 0.04078469 -0.12464533 -0.06518812 -0.15600204 0.006264019 0.055470217 0.058889594 0.08561818 -0.0011501319 -0.22401543 -0.08230811 0.06043318 0.01855053 0.17726609 0.0016996339 0.05153527 -0.11242951 0.16485943 -0.18293017 -0.10517061 0.20426601 0.11219145 -0.27096933 0.13303319 -0.0055537773 0.13208412 -0.00087719376 0.054190774 0.047535148 0.05288868 -0.05686588 0.28227758 0.11581954 -0.036113165 -0.08579377 0.00462754 0.044347093 0.05480718 0.011814119 0.042903535 0.047663853 0.11559887 -0.11450439 0.07659064 0.12071987 0.0023962734 0.07661742 0.20316148 -0.0198604 -0.1479122 0.14735492 0.054841008 0.04494377
797 -0.20975667 0.11742804 -0.025109908 -0.12335011 -0.030612879 -0.20037806 0.07946678 0.09733595 -0.26109242 -0.21147272 -0.220456 0.16904214 -0.0401862 -0.19631863 -0.09068125 -0.2186418 0.13037582 0.118898734 0.15910792 -0.13191824 0.22167575 -0.04641578 0.13318191 0.073789686 0.050195567 -0.0098592695 0.022103216 -0.029628042 -0.27072385 0.15495649 0.18298437 0.23523282 0.057945758 0.13490075 -0.029699918 0.014778827 0.1439883 -0.033069286 0.08604413 0.03330889 0.040318105 0.18660285 -0.09341026 -0.059058137 -0.3984378 -0.2769239 0.016641524 -0.23168056 -0.042521466 0.09629596 -0.0429632 -0.17983796 -0.121464156 -0.1498375 0.16711983 -0.07503485 0.33398113 -0.047295243 -0.08960562 -0.07076282 -0.25079396 -0.014301762 0.1388936 -0.10041134 -0.08231274 0.08924265 0.23983848 0.061994005 -0.25473344 0.023974564 0.21721514 0.15630803 -0.20635533 0.08181631 0.12710726 0.03864738 0.03334837 -0.0018326613 0.005625719 0.19143507 0.20396222 0.18067577 0.087727964 -0.14123015 -0.35023263 -0.0362971 -0.15307242 0.09901452 0.25439784 0.21312752 0.2068866 -0.09161755 0.11525518 0.030783849 -0.059451766 0.32545218 -0.013844433 -0.06393999 0.059480544 0.04963376 0.08162359 0.131874 -0.12332515 -0.13936923 0.17035484 -0.022690896 0.07314343 -0.06767203 -0.12398933 0.09301039 0.15307622 0.077557944 0.012719541 0.0077958 -0.11487189 -0.019863546 0.09108742 0.023031197 -0.05097537 0.3370734 -0.20523538 -0.10400619 0.050666206 -0.12547232 -0.05078806 0.06477889 -0.049800746 0.121753044
687 -0.1876147 0.06429182 0.034887638 -0.001245865 -0.05468374 -0.12652877 -0.047050312 -0.039517306 0.010366042 -0.13124202 -0.21175386 0.16945323 -0.07996068 -0.017396752 -0.0811599 -0.1900839 0.079534635 0.078951955 0.009588603 -0.16394685 0.082023166 0.10379323 0.1960752 0.03221712 0.14157018 -0.042324275 0.07752766 -0.0978272 -0.20268069 0.12521984 0.09284019 0.10711252 0.19519225 0.16712329 -0.068605304 0.06212151 -0.06625523 -0.074262 0.074305356 -0.1720887 -0.19537859 0.15744933 -0.012634826 0.0061160554 -0.24459404 -0.17841846 0.012457946 -0.13565493 0.07315438 0.082565606 -0.040675655 -0.20208527 -0.04461096 -0.07815237 0.07040595 0.02639255 0.28024152 0.039305933 -0.1917518 0.036585696 -0.13584629 -0.110145345 0.15561199 0.055208668 -0.24989107 -0.12595142 0.17451727 0.13258582 -0.27225384 0.088173404 0.1699107 0.054751772 -0.036574062 0.0773853 0.08951983 0.001710344 0.05356244 0.07942582 0.056737628 0.06551266 0.037281692 0.09976462 0.03316853 -0.045769215 -0.33765325 -0.010590059 -0.03591037 0.039882343 0.1920321 -0.016224468 0.010260095 -0.13635404 0.06615753 -0.122993276 -0.11518505 0.33307946 0.08407863 -0.2295258 0.19077241 -0.09809852 0.16552787 0.13289666 -0.049803894 -0.020508507 0.18900669 -0.15930401 0.07131638 0.15036388 0.02764708 -0.09735458 0.112385556 -0.017746285 0.067223325 0.031869095 0.017549124 0.021676844 0.056804966 -0.018386712 -0.10718934 0.14020686 -0.09120735 -0.0054285787 0.1886409 0.030844858 -0.2004918 -0.028670846 -0.043280926 0.040379293
731 0.11041993 0.06969525 -0.024647621 -0.06771852 -0.05336956 -0.05356678 0.10444949 -0.06514886 0.09612687 0.003208215 -0.051593598 -0.18145256 0.016433707 0.008689806 -0.012131085 -0.09087829 0.05051508 -0.02769382 -0.1100019 -0.043083362 -0.105456844 0.035256293 0.22277547 0.031533524 0.06951438 -0.04178934 -0.0006474044 -0.12809227 -0.038001034 0.06439681 0.05138017 0.07308062 0.17449456 -0.015499862 -0.0873777 0.15211515 -0.0062175016 -0.059817683 -0.049974337 0.07554858 -0.114494815 0.11881072 -0.09708893 0.13862202 -0.10513566 -0.10751405 0.064137176 -0.1502131 0.01841553 -0.03923086 0.007192229 -0.09826654 -0.020433607 -0.10028726 0.17934419 0.16116497 0.023276385 0.072240315 -0.124509834 -0.064081825 -0.046010777 -0.085493505 0.12376987 -0.011113085 -0.10297448 0.0027316886 0.18909551 -0.14485738 -0.2389571 0.06420262 0.19409852 0.081398115 -0.080080144 0.15705663 0.06757999 -0.004464129 -0.049882427 -0.14617261 -0.24981333 0.12666549 0.032039944 0.006565652 -0.027196191 0.0447164 -0.27724475 -0.24741325 0.15167305 -0.017338326 0.1891349 0.1463439 0.085527316 -0.07065586 0.07996458 -0.14903437 0.024127787 0.18518294 -0.08142106 -0.18024783 0.055266798 0.1009773 0.11100701 -0.083419584 0.0045695566 0.039071623 0.009524987 -0.06520822 0.11665876 0.11552857 -0.016630994 -0.011185536 0.014979405 0.036478743 0.11213037 0.08142541 0.10005096 0.13835219 0.09430527 -0.074743554 -0.11235901 0.047939148 -0.0074968026 0.10274085 0.13305724 0.024945201 -0.012625718 0.062405758 0.03527324 0.00016567565
800 0.07190921 0.16816734 0.067430876 0.010540291 0.045439404 -0.12468158 0.06690351 -0.109361194 0.046734795 0.044554483 0.017888859 -0.1752708 -0.053559024 -0.07910571 -0.011910045 -0.077481754 0.021700433 -0.080490336 0.007080538 -0.09272034 0.01787991 -0.0020007063 0.24974535 0.13026622 0.14524691 -0.09947828 0.046528682 -0.20141552 -0.08220278 0.100218 -0.021822745 0.03847453 0.11820522 0.01947485 -0.04146585 0.14762123 -0.03391109 -0.040638905 0.046571765 0.038993403 -0.14814064 0.16243367 -0.16143918 0.07174746 -0.108868115 -0.09979335 -0.01344837 -0.09592467 0.10846797 0.0019542454 -0.01746678 -0.108987 -0.016476057 -0.23263861 0.18949556 0.16788109 0.12338437 0.0124080675 -0.15991138 -0.15567954 -0.054444417 -0.08439846 0.16892643 -0.057281703 -0.060785197 -0.0043283426 0.09340851 -0.10775793 -0.1222176 -0.0010286421 0.15439771 0.059050396 -0.044531498 0.05960936 -0.06124053 -0.094257854 -0.07873129 -0.23146899 -0.32492957 0.063400924 0.04198218 -0.02508919 0.062375855 -0.022578467 -0.15164712 -0.13310866 0.124302365 0.022865143 0.16922127 0.18763483 0.038957905 -0.08093766 0.035976656 -0.19359505 0.120437995 0.19678108 0.029011354 -0.21400253 0.009212113 0.09064158 0.13727893 -0.00020177948 -0.12455881 0.041523274 0.15431707 0.11425252 0.22968766 0.13595647 -0.057230614 -0.046688493 -0.043816097 0.12006876 -0.008241836 0.112659395 0.06037906 0.045604587 0.16796869 -0.14090714 -0.035475712 0.046471447 0.06549179 0.067982234 0.17080766 0.10618381 -0.052016877 -0.032095242 0.1304434 0.022414831
856 -0.103410296 0.25406447 0.034218717 -0.14417566 0.111494794 -0.07661784 -0.12202483 -0.24485785 -0.003362846 -0.13078986 -0.11235138 0.046785083 -0.060743574 -0.097979926 -0.09575812 -0.28995517 0.13882023 0.10423326 0.04329289 -0.24033652 0.07012917 -0.05062806 0.2342223 0.07798258 0.1381786 0.03378844 0.0650005 -0.24936724 -0.0768966 0.09223786 0.09372722 0.15254243 0.17108615 0.17869227 -0.049608562 0.13980253 0.079500824 -0.14540255 0.07348168 -0.10544242 -0.08210061 0.22222775 -0.044337336 0.2244343 -0.18252577 -0.18745804 0.07150303 -0.111000605 0.13277362 -0.042367075 0.06772035 -0.019382495 -0.019122867 -0.15512262 0.18080167 0.07796267 0.14121035 0.08576346 -0.16848323 0.05139747 -0.08462344 -0.08918688 -0.016078442 0.16853377 -0.14130993 -0.0720724 -0.13921064 -0.060468167 -0.009329865 -0.050481386 0.042519264 -0.05756872 0.041139893 0.036871523 -0.05897867 -0.040397424 -0.0006899958 -0.18924844 -0.21285406 -0.05569484 0.13419296 0.016748885 0.043316893 -0.030841138 -0.25715685 -0.13126574 0.028300699 0.18288553 0.23527363 0.14164782 -0.05649718 -0.12847845 -0.048451174 -0.13562284 -0.10142108 0.30148438 0.1332942 -0.2757519 0.16029003 0.010453074 0.08096849 0.049229223 0.10992331 0.02900649 0.17408362 -0.015301582 0.25444832 0.17551103 0.06963167 0.011191513 -0.03501525 0.05734958 -0.019558858 -0.0092497105 -0.050468765 0.035668343 0.05555762 -0.053344946 0.081781976 0.06339249 -0.0010072406 0.054652862 0.2759206 0.10382373 -0.19964255 0.08365604 -0.057438176 0.08687588
815 0.11521419 0.23088571 -0.17421363 -0.1553325 -0.057852827 -0.18170545 0.21236984 -0.25590032 0.122230746 -0.104148105 -0.07932172 -0.086395174 -0.06447874 -0.068507135 -0.15320633 -0.25352266 0.019699568 -0.08896743 -0.124543674 -0.051056232 -0.058983233 0.12841281 0.29052243 -0.07606243 0.14463979 -0.10245084 0.08915521 -0.24500895 -0.023051629 0.12938793 0.059511315 -0.015610846 0.21068718 0.08862611 -0.20848717 0.15522495 -0.029958772 0.027415428 -0.031639345 0.048149187 -0.058327932 0.03898584 0.042494733 0.07974573 -0.09738929 -0.17098501 0.20582554 -0.15327935 0.016501477 -0.00900894 -0.056789864 -0.17505142 0.016283164 -0.11615707 0.011996725 0.16833922 0.013787644 0.04612564 -0.19035599 0.019374564 -0.15700659 -0.09581973 0.11485609 -0.051423367 -0.0013306639 -0.0025872446 0.09752575 -0.15374182 -0.19603145 0.12648149 0.17339113 0.044678215 -0.095853716 0.019364761 -0.062200073 0.10043885 -0.06445439 -0.051161233 -0.16350609 0.02934233 0.03712449 0.03285281 -0.012850932 0.092553765 -0.18939157 -0.23379777 0.094606005 0.004698433 0.16509028 -0.008287916 0.10597926 -0.1680244 0.10393744 -0.12285613 0.02183749 0.19449188 -0.07166133 -0.17429018 0.16279334 -0.0050933696 0.068070225 -0.07572585 -0.03622797 -0.0036392426 -0.0047518695 -0.032432564 0.22560972 0.15103838 0.098174244 0.05590156 -0.027822549 -0.007728102 0.068536475 0.087843895 0.055021405 0.044742264 0.030775804 -0.028147375 -0.090219 -0.02504065 -0.007454894 0.049026337 0.049290106 -0.0064102076 0.04556381 0.07970148 0.00995951 0.027215462
738 0.06873752 -0.03817944 0.043789405 -0.07743876 -0.09996142 0.040808577 0.08980143 -0.018568566 0.079471745 0.23383483 0.045041252 -0.12347706 0.025808929 0.058931258 -0.019349204 0.14269693 0.01464687 0.00852999 -0.012526671 -0.16230765 -0.05667574 0.08741147 0.20043008 0.055440128 0.1353439 -0.036133513 -0.17294289 -0.0030193473 -0.028987901 -0.043512743 -0.10505615 0.25449762 0.12244193 0.0039672484 -0.052449178 0.18575002 -0.06691516 -0.018936658 0.005132248 0.15697676 -0.09237689 0.09697588 -0.21924844 0.0801555 -0.27953792 0.063218534 0.14635447 -0.18026814 0.08983717 -0.016458072 -0.062610984 -0.22487372 0.059141174 -0.120034784 0.14948201 0.14179452 0.18193999 0.112640895 -0.13228375 -0.094176225 -0.046192557 -0.12335112 0.23080757 -0.13783883 -0.17147864 0.010710868 0.3106705 -0.15357073 -0.20140351 0.058696657 0.09954031 0.17767477 -0.024926124 0.19693226 0.06574178 0.06150798 -0.16126978 -0.0976719 -0.11760225 0.09456024 0.10353726 -0.011434008 0.027051263 -0.00854196 -0.33196616 -0.10512595 0.15313402 -0.099702895 -0.038226105 0.028699378 0.16426612 -0.06556803 0.23231626 -0.087437436 0.01050783 0.038758907 -0.050215025 -0.008384207 -0.035022244 0.17104366 0.034932815 -0.05567556 0.12685733 0.09736441 0.05933263 0.026038574 0.24980026 -0.10735663 0.0012689623 -0.11867844 0.0046173343 0.1864899 0.008872215 0.054403666 0.14032742 0.24143995 0.0674996 -0.042927194 0.014658466 0.08583059 -0.041396204 0.044064004 0.10199312 0.0031819602 -0.07187322 0.14129137 0.28780234 -0.124473795
840 -0.0811057 0.26862833 -0.123028055 -0.06602697 0.08232657 -0.110350974 0.17678376 -0.21417314 0.017027993 -0.12937468 -0.016486386 0.14245838 0.007243427 -0.113421835 -0.12048788 -0.26794988 0.00024053067 -0.042236935 0.040250193 -0.07371372 0.12650621 0.01563149 0.29705057 0.14422534 0.14182293 -0.05875158 0.0894622 -0.26944202 -0.06719308 0.16040465 -0.027643524 0.07572919 0.15570772 0.14165042 -0.1053596 0.060706973 -0.04596449 -0.025177166 0.10695258 -0.07782691 -0.05784707 0.09942704 0.058335096 0.032503277 -0.054114964 -0.0830458 0.09105479 -0.0752793 0.06899631 0.099039346 -0.07649609 -0.09251342 -0.071527205 -0.1506784 0.056941636 0.14498578 0.11683125 0.0027862084 -0.21439862 -0.08787042 -0.07106872 -0.1392538 0.0815128 0.10852531 -0.111179546 -0.031794492 0.108493805 0.0031399492 -0.31442472 0.056597408 0.1167058 0.08274743 0.03239066 0.113717824 -0.07402497 0.034944862 -0.12759753 -0.008968051 -0.032319177 -0.09893975 0.012219153 0.028960194 -0.047536016 -0.08678926 -0.20901524 -0.04073797 0.08614236 0.08429338 0.09788557 0.017644707 -0.021671033 -0.22758979 -0.015839145 -0.25098094 -0.03971382 0.16807301 0.13829358 -0.22742036 0.17572348 -0.042950794 0.15217349 0.10966582 -0.016159577 0.092602685 0.16521691 -0.07440774 0.27337435 0.20453322 0.075978324 -0.05098468 -0.086734496 0.018579667 -0.04792776 0.030099262 -0.04221234 0.032452397 0.04313498 -0.087626114 -0.06792321 0.12058715 0.051664017 0.04697161 0.14921363 0.025789695 -0.11603967 0.00048538856 0.016791854 -0.0011244569
820 -0.021507565 0.09944347 -0.076356076 -0.101868935 -0.037074048 -0.16304325 0.12668355 -0.12546587 -0.043340076 -0.099370144 -0.30028376 -0.03543771 -0.07327981 -0.030060463 0.010686701 -0.19496877 0.049381983 -0.076909795 -0.07233006 -0.15099269 0.052225657 0.051375818 0.252771 0.023602216 0.053513363 0.05533395 0.0010051258 -0.12468404 -0.1202363 0.08862731 0.060695004 0.14403607 0.149212 0.09130674 -0.048162483 0.031540465 0.06456435 -0.014677835 -0.03204246 0.02432882 -0.18071936 0.09432609 -0.06679026 0.05344282 -0.19222055 -0.11567168 0.17411436 -0.13539079 -0.016974285 0.14360167 -0.07683306 -0.24219985 -0.045429245 -0.04879944 0.09458955 0.16029477 0.14993772 0.09197066 -0.15726697 -0.15797248 -0.105480686 -0.011593214 0.12740158 0.09719075 -0.12965572 0.13168561 0.29417175 -0.056251857 -0.29384732 0.03311317 0.19394827 0.16541603 -0.003656775 0.03247581 0.13577163 0.13872379 -0.085108034 0.044977788 -0.082180135 0.09926312 -0.07364516 0.10865496 -0.038306013 -0.1348104 -0.2627544 -0.108093046 -0.039704483 -0.033572163 0.118352935 0.18357334 -0.052077886 -0.008145249 0.1588198 -0.23248516 -0.0435114 0.14945132 -0.050358877 -0.10731468 0.032117188 -0.0119832335 0.05680544 0.026964072 0.022436418 -0.021031095 0.013222016 0.064281166 0.15921225 0.035376 0.014040593 0.020501709 0.053398937 0.088390835 0.079576164 -0.006927016 0.031028178 0.090899274 0.040047146 -0.09413735 -0.022715926 0.19662175 0.008764545 0.09990985 0.18588246 0.008028626 -0.095150076 0.10032505 -0.038149547 0.07785928
701 0.09904029 0.031028127 -0.15737271 -0.01683213 -0.06914596 -0.065639414 0.16549613 -0.12067007 -0.012356296 -0.06153251 0.02317085 -0.07059361 0.08999712 0.018280849 -0.102790356 -0.022640524 0.0060591605 0.026399704 -0.12063034 -0.09326359 -0.06950231 0.060905136 0.060266133 -0.104695484 0.16564693 0.0657512 0.0030909039 -0.21731223 0.14633052 -0.024672382 0.066896684 0.0666026 0.1353598 0.1311142 0.0087923 0.11772073 -0.044625178 0.051191382 -0.016493568 0.00039622694 -0.06339521 0.015712142 0.046854146 0.094569854 -0.109428614 -0.004129509 0.20399272 -0.06679821 0.007667501 0.07650092 -0.115099125 -0.23554198 -0.049964067 -0.06869939 -0.041533343 0.0575502 -0.023244204 0.0340897 -0.07331246 -0.010371109 -0.1648685 -0.121211514 0.15753399 -0.003748238 -0.07220107 0.0034448176 0.24734591 -0.020568281 -0.33400992 0.15165669 0.115625314 0.21052419 -0.19320923 0.13123074 -0.111543074 0.14445825 -0.13503504 -0.07712595 0.008179386 0.042274103 0.06344151 -0.0035235414 0.0139368605 0.062554725 -0.2639992 -0.23174156 0.14225155 -0.007944554 0.11309922 0.047043882 0.04525366 -0.17250258 0.08185001 -0.24404944 0.039927155 0.16943407 0.002775485 -0.20881483 0.16500486 0.057266425 0.21029074 -0.010536169 0.105374955 0.041421212 -0.02355186 -0.082942985 0.3104715 0.11768703 0.03475143 0.057457346 -0.0022216921 0.044891935 0.07635225 0.022767829 0.0868571 0.1618622 0.02843155 0.009069765 -0.02851161 0.0393681 0.09263981 0.03880854 0.24497166 0.04083629 -0.04115668 0.17897078 0.058465745 -0.08881975
819 -0.0726659 0.1284848 -0.036701076 -0.10471323 0.055340018 -0.0039264406 -0.012095577 -0.17719138 0.04477285 -0.1352481 -0.02193728 0.011914729 -0.12644827 -0.014041803 -0.10217359 -0.24850994 0.09373768 0.042157914 -0.045617573 -0.19585773 0.043611977 0.170168 0.27738503 0.10265369 0.17019251 0.013697768 0.14952864 -0.23534054 0.01101687 0.057648174 0.009400231 0.06298036 0.1642692 0.12153488 -0.024946595 0.16822553 -0.10834067 -0.0012983077 0.09823884 -0.011533066 -0.07315091 0.13402092 0.06170345 0.10196663 -0.054738566 -0.1876635 0.12863512 -0.100699514 0.13383456 0.10035837 -0.014285949 -0.10948607 -0.05090606 -0.19328031 0.080645144 0.10998523 0.06187021 0.00980983 -0.18344302 -0.024614003 -0.119586 -0.082261994 0.12196617 0.059744056 -0.16062422 -0.055694763 0.12431303 0.05985168 -0.2324965 0.06440378 0.16040497 0.0738103 0.008310997 0.037896402 -0.050390963 0.06435869 -0.053331118 -0.15195742 -0.06721472 -0.039331347 0.11504985 0.0064443443 -0.002054969 0.031565525 -0.16999608 -0.11617081 0.060932666 0.048874497 0.15411559 0.06812235 0.0043757805 -0.18210435 0.0147687765 -0.17524172 -0.0717496 0.12789445 0.10719445 -0.24682142 0.1527304 0.021395927 0.14410856 0.0555585 -0.004883962 0.1102962 0.067438 -0.09890394 0.21858183 0.16229887 -0.02136027 -0.022429751 -0.061173286 0.03927452 0.022249253 0.055679996 0.005853623 0.04966654 -0.006973836 -0.092150785 0.03387779 0.039079163 -0.0038435028 0.02248817 0.20788774 0.05384381 -0.13106002 0.056470748 -0.0073329452 0.039969213
839 -0.40766326 -0.0008487361 -0.18389167 0.2659566 0.02747153 -0.38628617 0.3527334 0.035194017 -0.048071064 0.21750063 -0.06664712 -0.20104723 -0.016653517 0.32562384 0.21746968 -0.14409111 0.102439225 0.24568968 -0.17637013 -0.01498622 -0.0665333 0.2528055 -0.111009195 0.012790069 -0.09096563 0.1101921 -0.23730552 0.21711065 0.010253645 0.23736948 0.14524701 0.2524695 0.32022426 -0.3207778 0.094116785 0.37597337 -0.043048356 -0.16848567 -0.055298403 0.18342268 -0.08947623 0.17367208 -0.2546707 0.1462213 0.11211863 -0.22380735 -0.11741256 -0.2044348 -0.14367206 -0.018682774 0.34328797 0.13929263 0.019998189 -0.09199417 0.21207848 -0.09070302 0.16362849 0.16147421 -0.18288538 -0.07448753 0.03378507 0.011706724 0.088382855 -0.0568106 -0.04134019 -0.1456224 0.17810431 -0.17760588 -0.012779991 0.11116377 -0.214045 0.29312134 -0.2538176 0.2245785 -0.085016206 0.15360115 0.22245193 -0.0055074 0.15689403 0.14901872 -0.05300898 0.18217932 -0.083006516 -0.0033102604 0.10370906 -0.021733042 0.040072385 0.15374227 0.058651447 0.2805584 0.048268974 -0.0767567 -0.3003884 0.032336723 -0.09315249 0.399515 -0.10182412 -0.15484439 0.061277177 0.11084966 0.0033678361 0.030533548 0.0015755671 0.01596735 -0.22302103 0.17289744 0.40033823 0.2624304 0.3077175 0.0993533 0.039879344 0.30700484 -0.08996862 -0.03203796 -0.0339738 0.18818314 0.10159247 0.15882257 -0.022152105 -0.070907176 -0.17307751 0.09653861 -0.02043236 -0.2369469 0.0022361313 0.19131635 0.10649001 -0.16942586
778 0.06967244 0.10352161 -0.1809384 -0.06653226 -0.013756603 -0.02678015 0.23101844 -0.0499143 0.12062561 -0.08261226 0.10839325 -0.059200857 -0.06951339 0.016867263 -0.09298494 -0.15600699 0.07894717 -0.09539659 -0.14533308 -0.046944343 -0.072405666 0.1306224 0.22566168 -0.076923676 0.08027696 -0.000497682 0.15569012 -0.24106133 0.107418396 0.09691408 0.04341779 0.094633624 0.06774635 0.05641665 -0.075959735 0.30256787 0.035274137 -0.029943608 -0.12536505 0.06833213 0.0026643109 0.23686759 0.01950474 0.07748496 -0.037598148 -0.24690157 0.26084784 -0.09679378 0.08685414 0.014573913 -0.06558955 -0.2264493 -0.12580709 -0.20812304 0.097929806 0.20262367 0.053888742 0.005801075 -0.19436024 -0.12981589 -0.20025049 -0.23611417 0.06088947 -0.07154546 0.03485445 0.03230712 0.18715899 -0.045677748 -0.0847338 0.050045673 0.21723911 0.024466472 -0.18890595 -0.004249069 -0.05573774 0.21337862 -0.28036413 -0.09823904 -0.0895097 0.035573326 0.01804669 -0.028033657 -0.09036669 0.056099944 -0.11695645 -0.2683768 0.22239658 -0.015783709 0.15496068 -0.005261677 0.027786696 -0.10300641 0.12958288 -0.07147191 0.22845781 0.058586683 -0.073567696 -0.14388469 0.041657023 0.03952901 0.061615083 -0.071418434 0.018564839 0.005584573 -0.006192641 -0.06494212 0.17232038 0.14461 0.006298334 0.018146627 -0.087292865 -0.028035048 -0.049844097 -0.06997197 0.08743342 0.15527906 0.15481746 0.025045617 -0.082138166 0.044485673 0.044272114 0.12811874 0.05734457 -0.027986903 -0.03367848 0.15766634 0.1661573 -0.021195704
803 -0.2692603 -0.07286562 -0.122284375 -0.022063829 -0.03748867 -0.057867218 0.2686878 -0.028557563 0.039932463 -0.007651455 -0.26246643 0.013453157 -0.13096686 -0.05149821 0.13344589 -0.11387792 -0.034223177 0.019686738 0.17871344 -0.13856274 -0.043666318 0.015537763 0.18497665 0.037453588 0.12544987 0.07012898 0.055694588 -0.14705266 -0.085627094 0.0470714 0.054620653 0.3823753 0.2970275 0.0061578774 -0.13283958 0.2126247 -0.062497962 -0.008791492 -0.08419882 0.122789055 -0.09009901 0.22949962 -0.1511645 -0.06993605 -0.1357054 -0.124664396 0.110400595 -0.22418226 -0.058953047 -0.010796903 0.023216777 -0.34686166 -0.07358346 -0.16009988 0.093122825 0.36248887 0.2821251 -0.11720584 -0.14333178 -0.3425246 -0.28602737 -0.17733699 0.37199607 -0.021796243 0.154843 -0.0069002626 0.13778527 -0.026613535 -0.06429054 -0.03478724 -0.036370885 0.15226813 -0.1859848 -0.1726083 0.20393503 -0.056106053 -0.09420351 -0.028797267 -0.041359566 -0.046632905 -0.027786288 0.07539856 -0.009541496 -0.17733099 -0.013760158 0.20174484 -0.021092521 -0.030967886 0.21381399 -0.11810336 0.013738549 -0.023842648 -0.039541088 -0.24363549 -0.009859997 -0.09443112 0.17863025 -0.069452256 0.09857877 -0.0151748955 0.09648026 0.23140179 -0.019200515 0.08287133 0.18560232 -0.033590782 0.14424047 0.13926296 -0.22388723 -0.13090654 -0.066980004 0.12201011 0.0008463366 -0.057340115 -0.16752672 0.022809494 0.083933614 -0.06143054 -0.15725558 0.22123168 0.16049176 0.09290946 0.21438304 -0.014483307 0.07936831 0.124972805 0.057395667 -0.07741325
780 0.010820763 0.035316963 -0.083176464 -0.0436118 -0.030989232 0.013736191 0.06307354 -0.16483171 0.033539664 -0.11584305 -0.119665705 0.005684877 -0.045436416 0.06147879 -0.08135219 -0.017797092 0.026072893 0.0036001024 -0.051651258 -0.051537607 -0.0055053863 0.030847505 0.15949035 -0.17825627 0.14270164 -0.110083945 0.048810046 -0.19369033 0.034703348 0.09966055 0.029222948 -0.005022384 0.24382593 0.055853516 -0.049394254 0.08287699 -0.092915356 -0.0060903844 -0.009966639 -0.004664825 -0.13466844 0.102248974 0.014840161 0.03558071 -0.10579761 -0.025022425 0.115975834 -0.10269868 0.0169882 0.073695906 -0.06398191 -0.18899474 -0.034444384 -0.03607229 -0.0037665255 0.08894748 0.10821189 -0.017350476 -0.12528117 0.009298809 -0.13878907 -0.06355923 0.17118317 0.02277148 -0.117717735 -0.09081117 0.15989529 0.015411577 -0.31301033 0.016727982 0.18608862 0.11441858 -0.025659913 0.1564533 0.026134947 0.12798402 -0.07348648 -0.004680981 -0.10577479 0.08709616 0.10270236 0.05637394 -0.0030602694 -0.040794656 -0.2222967 -0.15359665 0.1023183 0.014668641 0.08433945 -0.031557098 -0.0029092177 -0.15300703 0.11893728 -0.28191096 -0.017591922 0.2634782 0.09482216 -0.28778136 0.15968092 0.006659374 0.15086298 0.04549615 0.03586608 0.09571771 0.08018208 -0.1605734 0.2931523 0.2052769 0.076455444 -0.11080945 -0.074607134 0.08980382 0.1196364 0.0071469913 0.087042816 0.1342443 0.023622315 -0.020836566 -0.070545495 0.12740807 -0.0058327755 0.08878274 0.25084192 -0.006393272 -0.10346765 0.119468264 0.027669478 -0.01650541
777 -0.12813261 0.012775693 -0.04366328 0.010580395 -0.055680584 -0.08045064 -0.026404278 -0.086881064 0.09510065 -0.29339865 -0.09040528 0.18943207 -0.048632015 0.07415406 -0.22797273 -0.04357019 0.10251493 0.09336297 -0.05455943 -0.031998377 0.17117743 -0.021900347 0.12980938 -0.015147505 0.23399559 -0.040672425 0.045782894 -0.1666248 0.026657136 0.07673761 -0.010874018 -0.04261327 0.22161193 0.23764642 0.04410307 0.027235301 -0.12072634 0.0911712 0.081624694 -0.132697 -0.12950704 0.037703775 0.014862875 0.12688716 -0.11906242 -0.057120338 0.19306104 -0.094903864 -0.0019868927 0.24349038 -0.12215465 -0.19272944 -0.05487443 -0.24854895 -0.063541226 -0.03961294 0.14933407 0.040566806 -0.2150811 -0.006135368 -0.11739812 -0.091925986 0.1841555 0.016326755 -0.22894858 0.017099947 0.3063979 0.25456843 -0.26773092 0.14835407 0.113789834 0.18713646 -0.030088963 0.17919065 -0.10213314 0.16322444 -0.11724846 0.027123986 0.04310438 0.13604182 0.07387245 -0.0049032215 0.055341918 -0.016000547 -0.19239146 -0.108258545 0.06647117 0.07231546 -0.035592727 -0.07734198 0.01666624 -0.329919 -0.050205182 -0.23471126 -0.039350756 0.18258898 0.042263065 -0.1692547 0.05904138 -0.0633953 0.09580994 0.063373394 0.044376686 0.040446516 -0.0060299 -0.24591841 0.25300506 0.18479578 0.14248934 -0.00072644843 -0.18174098 -0.029424125 0.09336404 0.05502139 -0.021465465 0.22154956 -0.01575779 -0.0015246018 -0.02152483 0.06683054 0.12931283 0.006889563 0.23474027 0.09746647 -0.11949907 0.04694296 0.083512165 -0.028537154
770 -0.031053035 0.10034719 0.046488065 -0.0722521 -0.16809241 -0.08927692 0.010693323 0.037378043 -0.01939634 -0.3653527 -0.3187952 0.011832971 -0.16468467 -0.02334958 0.11410982 -0.058618736 0.091048054 0.06952804 -0.1002443 0.06270481 0.011416997 -0.105399325 0.20391262 0.079140246 0.11424958 0.028432503 -0.014087655 -0.06511664 -0.028445916 0.055117056 0.04131577 0.2899385 0.29893225 0.009277385 -0.11816765 0.05753511 0.1315693 -0.021980714 -0.025924953 0.11997794 0.03209176 0.11027123 -0.030205032 -0.0726873 -0.17945714 -0.12240697 0.10687344 -0.26710388 -0.21527827 0.09023643 0.014599223 -0.20457232 -0.06948479 -0.25006375 0.0011659601 0.033587404 0.31952345 0.09659626 0.047996007 -0.34194222 -0.274505 -0.13355495 0.295539 -0.00121729 0.05181663 0.12044724 0.35092646 0.07409706 -0.09520436 0.07554013 0.034464777 0.1845806 -0.02569644 0.14375448 0.14803243 0.19104317 0.078899175 -0.03983641 -0.04710324 0.11947355 -0.009597102 -0.071484506 -0.06123581 -0.1554402 -0.097484656 0.045396812 0.11447421 0.12653054 -0.005973506 -0.0027562191 -0.016692637 -0.08414522 -0.112408794 -0.08809139 0.09904338 0.045111287 -0.003771848 0.016796893 0.0030119375 0.025994435 0.13184252 0.07263332 -0.02065808 -0.018980928 0.038223382 -0.09648189 0.043355368 0.0066884044 -0.13974358 -0.04710646 -0.19283509 0.041392352 0.1588422 -0.016840471 0.0048173056 0.12897971 0.13046096 -0.08407895 0.046450213 0.1821373 0.118194625 0.122497626 0.07018878 0.12463174 -0.09376733 0.33862025 0.13947012 -0.08612436
708 -0.016375748 0.10887555 0.0760963 -0.09944731 0.05125135 -0.023589779 -0.057713937 -0.089342244 -0.04554664 -0.020579005 -0.13799043 0.09958625 -0.11828387 -0.09557122 -0.044375636 -0.21174948 0.18373342 0.018795565 0.008539926 -0.3631585 0.1413292 0.12476034 0.18606527 0.058754936 0.1263996 0.11651451 -0.010113345 -0.024829976 -0.004990215 0.008310484 0.032390364 0.18445636 0.029802145 0.16420026 -0.0008141256 0.09982991 -0.080370635 -0.060239796 0.048324324 -0.019943578 -0.16978325 0.13977265 -0.07449333 -0.032591756 -0.23897548 -0.15060332 0.029338952 -0.12342961 0.0523008 0.011954318 -0.06548011 -0.12614623 -0.06687002 -0.11321989 0.11965501 0.03473643 0.06786019 0.0027566773 -0.18323176 -0.038344834 -0.15431722 -0.112356156 0.19768277 0.064813964 -0.16633134 -0.03823943 0.27111506 -0.04071787 -0.14534856 -0.012599842 0.20872298 0.09522068 -0.062774114 0.16932663 0.04049231 0.03385064 0.024219476 -0.10937498 -0.1680208 0.05387224 0.057516266 0.018537542 -0.014592575 -0.017606227 -0.3395869 -0.19120613 0.0138291195 0.116380505 0.24129069 0.101057924 0.026238767 -0.14849898 0.11388796 -0.13073902 -0.0042433385 0.15410078 -0.11166343 -0.20493492 0.121531054 0.056299537 0.08559849 0.20982927 -0.016413087 -0.12925269 0.079472065 0.20132378 0.20364702 -0.010346116 -0.075139605 0.13997598 0.063882634 0.05958594 -0.04071816 0.07465786 0.04124346 0.040565517 0.041831847 -0.20249559 0.1071454 0.12843761 -0.104970194 -0.12109823 0.10249179 0.03500631 -0.2274399 0.06795451 -0.03947911 0.0758556
703 -0.042809673 0.14426528 -0.009498304 -0.10104491 -0.0460514 -0.27191165 0.07448569 -0.06437797 0.013424549 -0.18151507 -0.2162901 0.12891202 -0.2016228 -0.10198981 -0.08538895 -0.3426123 0.1243391 0.013468227 0.105512366 -0.17239226 0.18223903 0.17439075 0.27830145 0.12254207 0.18612628 -0.045717623 0.0073671313 -0.047641646 -0.17388487 0.19037122 0.070132054 0.17660761 0.24502227 0.10234767 -0.13971537 0.021641593 -0.0041923965 -0.04515718 0.18459138 -0.041891716 -0.040407483 0.09773189 -0.043805238 -0.0033998468 -0.16154698 -0.17159522 -0.014887102 -0.18100458 0.06922893 0.09481443 -0.014601925 -0.023788147 -0.042765304 -0.19001774 0.043032374 0.026310096 0.18540803 -0.033692896 -0.08804552 0.026350288 -0.224849 -0.0418818 0.1380603 -0.044821646 -0.082478374 0.05619929 0.11489642 0.07180964 -0.18368389 0.07135425 0.2183164 0.121206075 0.034120746 0.05339548 0.07638452 0.032176465 0.15029483 -0.08162187 -0.054752156 0.048860244 0.111322656 0.03598517 0.050784748 -0.0600947 -0.30342966 -0.07436504 -0.061248418 0.18908326 0.18180422 0.07513672 0.03979677 -0.06765359 0.04683423 0.079045795 -0.07356864 0.21227507 0.034358192 -0.19666776 0.11038034 -0.0026127216 0.12210537 0.11838927 -0.11188631 -0.10055638 0.07752043 0.015049082 0.18289171 -0.0036691178 0.033252582 0.008101093 0.020914067 0.021023387 0.12918504 0.10991223 -0.014594065 -0.067255825 0.017889638 -0.09339136 -0.04715645 0.19945553 -0.13665147 -0.17595829 0.12120843 -0.03633164 0.018244391 -0.09233978 -0.14700232 0.12134525
723 0.07000024 0.024744583 0.03775225 -0.098011754 -0.018455626 -0.06340784 0.006856729 -0.0218181 0.08288298 -0.16913691 -0.23270394 -0.030267816 -0.091864794 0.13180393 0.039982226 -0.033720054 0.12662031 0.046168268 -0.05952584 -0.08670243 0.08441669 -0.07922614 0.21260726 0.012521867 0.16351765 -0.026944438 0.015357485 -0.13865721 -0.010213656 0.13102035 -0.0062670363 0.15645579 0.29754415 -0.08200916 -0.07850136 0.147941 0.01420764 -0.018373527 -0.022351313 0.14298268 -0.10611586 0.21895441 -0.030936183 0.05211971 -0.13307196 -0.14265606 0.06890811 -0.11942956 0.07051559 0.11029733 0.014168986 -0.1500823 -0.089035645 -0.11972504 0.07112666 0.013920444 0.15035662 -0.007983292 -0.044159595 -0.14448088 -0.21652824 -0.08137425 0.16471498 -0.07532382 -0.0955233 0.04021146 0.24691893 0.089085534 -0.27292192 -0.027371645 0.18542695 0.1619679 -0.045659546 0.17025964 0.016915262 0.076351024 -0.03523577 -0.06419014 -0.22113885 0.17561395 0.017817121 -0.13670589 -0.013551623 -0.054306887 -0.20189796 -0.16361 0.031186877 0.05988805 0.01923503 0.09123188 0.06518563 -0.010986119 -0.046012007 -0.24113871 0.07939857 0.021994958 -0.06974704 -0.24263343 -0.021889463 0.020300124 0.08661314 -0.020895647 0.071766555 -0.018986875 0.0782424 -0.13632275 0.073642425 0.09735463 0.00408883 -0.01672992 -0.06755694 0.02456194 0.2107388 -0.02451224 0.07200107 0.14922422 0.09393769 -0.12759224 -0.030250648 0.23246033 0.080425516 0.021167856 0.18859324 0.14759801 -0.102730475 0.06964416 -0.010605677 -0.07148631
833 -0.31822214 -0.23538625 -0.025163868 0.19950996 -0.03270873 -0.11143825 0.21195228 0.0010772435 0.038474325 0.108927205 -0.021768635 -0.0924587 -0.10678255 0.12085251 0.09390813 0.12705557 -0.0954483 0.028676823 -0.04634826 0.00037569614 -0.119589016 0.170139 -0.15365845 0.015933972 -0.15797468 0.20365681 -0.08281947 0.09056032 0.18960112 -0.12889314 0.07025363 0.33812878 0.17786822 -0.09463525 0.35215595 0.49443784 -0.047486935 -0.12549746 0.10232916 -0.11232261 0.1505184 0.15732548 -0.25046578 0.15260863 0.14219709 0.011721697 0.05013957 -0.11680063 -0.033565585 -0.1370793 0.1207703 0.12070639 0.09883356 -0.021265574 0.2023628 -0.020835726 0.24362177 0.15812856 -0.20347622 -0.10327577 0.20448987 0.02230876 0.053133775 0.14879481 -0.17900252 0.056842875 0.16360712 -0.05224469 0.15230252 0.25899196 -0.0046143574 0.21482699 -0.24612077 0.29963344 0.05104313 0.233461 0.053195257 -0.15456507 -0.0026943334 -0.07139501 0.124384046 0.35959765 0.11745711 -0.2521542 -0.15707377 0.08374748 0.17910936 0.293881 0.09481517 0.19110303 -0.063852444 -0.3852529 0.011924885 0.22227961 0.15224276 0.420542 0.3217213 -0.10283633 0.09018041 0.18104039 0.10855714 0.1558818 0.017479436 0.31520143 -0.12200078 0.0063470625 0.42642903 0.09669223 0.16032735 -0.27047274 -0.15150353 0.19342294 -0.15725169 -0.011941086 0.041625798 0.40017182 0.06267852 0.15726148 0.13872413 0.00065893034 -0.12751517 0.27428606 -0.13210231 -0.3542185 -0.015686892 0.24968465 0.5253267 0.08647642
754 0.045977537 0.052158967 -0.19944125 -0.21939221 -0.01759873 0.009900251 0.11758988 -0.115526386 0.023232903 -0.18776211 -0.0628949 0.12420608 -0.05160949 0.016404442 -0.13529214 -0.1289018 0.014000269 0.010902546 -0.027982062 -0.048748057 0.023454338 0.062460557 0.28424376 0.004528997 0.13974954 0.0067882696 -0.020604309 -0.14182754 -0.017361905 0.069206916 -0.038481083 0.06086329 0.23331603 0.23686874 -0.05752885 0.06867787 -0.03272863 -0.008073162 -0.0153455585 -0.05480429 -0.10074763 0.025361005 0.051142063 0.12865497 -0.04390887 -0.10131131 0.2558083 -0.14015865 -0.000774054 0.13286293 -0.09597131 -0.16473623 -0.050677665 -0.17046829 -0.08205985 0.1221796 -0.035075933 0.048997477 -0.19334337 0.015229454 -0.12062498 -0.03369915 0.13139187 0.021409124 -0.15128852 0.087096125 0.24138832 -0.00435748 -0.24480172 0.14733286 0.13893168 0.13834205 -0.010369197 0.11804336 0.007621617 0.17362002 -0.09501648 -0.064335644 -0.021379951 0.006267145 0.06091173 0.032912 0.08672533 -0.008937648 -0.17517321 -0.12608534 0.14689581 0.06235613 0.1586641 0.025661146 0.020752577 -0.16337022 0.051950745 -0.12500954 -0.10844099 0.14343433 0.13412075 -0.17118573 0.140545 -0.018067615 0.08621527 0.0052005146 0.050619286 0.11561767 -0.12081856 -0.18038265 0.38470957 0.11488256 0.060711958 -0.01907294 -0.07207453 0.04595704 0.056913488 0.022067858 0.008577712 0.17637199 0.028069913 -0.09141598 0.029694347 0.039352115 0.062342968 -0.039578173 0.29497787 -0.0890412 0.016545357 0.09027624 0.0017341333 0.012782082
817 -0.05628575 0.012177477 0.022832321 -0.07237923 -0.09554092 -0.06706974 0.013765071 0.10337565 0.025728177 -0.19737159 -0.10449972 0.03153832 -0.046099465 -0.18251167 -0.0068167406 -0.24603644 0.1570194 0.030754987 0.09843617 -0.085095495 0.019750739 0.15831003 0.19340378 0.09801502 0.13041022 0.07717047 0.05938383 -0.09710023 -0.022596853 0.04553291 0.06986553 0.25760633 0.1836589 -0.0073272944 -0.12997329 0.043011375 0.003742119 -0.020189436 0.2087434 -0.053510286 0.14517455 0.0065758727 -0.040428083 -0.08555407 -0.18560869 -0.0051619736 -0.14548834 -0.15449253 -0.043985713 0.015914695 -0.058676608 -0.08476469 0.038421832 -0.014156379 0.12931745 -0.1332544 0.17296706 0.013935999 -0.05775742 0.034741 -0.14601788 -0.055822633 0.124441124 -0.0016674141 -0.14197667 0.09334515 0.23217134 0.08340294 -0.26562637 0.17723519 0.14475647 0.21704541 -0.13105224 0.22794269 0.10291171 0.15150087 0.15339132 0.034673564 0.06641356 0.11040745 0.17934723 0.032963667 -0.018101018 -0.013659888 -0.287027 -0.049781706 0.07293607 0.09805831 0.09575685 0.098893486 0.12991633 -0.2428419 0.13354586 -0.025557483 0.019131374 0.28497943 0.11520616 -0.060762785 0.17220277 0.056392036 0.30450946 0.09089634 -0.121465184 0.069517456 0.08819683 -0.15069906 0.105459966 0.018743282 -0.024758475 -0.010102946 -0.01114493 -0.019507311 0.16865048 0.09543111 0.036459327 0.013631517 -0.0063980445 -0.048660103 -0.123685785 0.21084812 -0.1747356 -0.034656785 0.02743422 0.07683254 -0.022442888 0.11542476 0.055409167 -0.023339309
698 0.04481937 0.3976269 -0.017595569 -0.11001986 0.14615226 -0.17120196 0.07264438 -0.26033103 -0.0123198135 -0.07382216 -0.09600884 0.041329347 -0.04900232 -0.16289267 0.005445342 -0.3624977 0.08845428 0.069034286 0.0065262252 -0.27789384 0.04311402 -0.104491584 0.19183697 0.16490486 0.07764281 0.06288532 0.04722137 -0.26880357 0.07665351 0.098481946 0.01554351 0.24453641 0.1399067 0.21720822 -0.060914535 0.041079633 0.13577136 -0.17637514 -0.014893215 0.01864599 -0.047329087 0.23389447 -0.1085429 0.18726178 -0.21400972 -0.08356177 0.04420057 -0.03213931 0.12999126 -0.122664936 0.11364443 0.04619705 0.07074016 -0.100695096 0.24506053 0.04007509 0.09335975 0.05370977 -0.11530229 -0.11754211 -0.025535882 -0.18185136 -0.007959035 0.10074266 -0.087553665 -0.100511715 -0.10414605 -0.210473 -0.001612023 -0.122244716 -0.022661509 -0.061175317 0.06164835 0.14031354 -0.12967318 -0.092966385 -0.030176483 -0.20323153 -0.27225104 -0.08325741 0.005927552 0.04522673 -0.08312466 0.0124466615 -0.19042717 -0.18156385 0.08779402 0.1679753 0.2160736 0.30583507 -0.0005060061 -0.19841564 -0.073816635 -0.1412507 0.02391041 0.21805625 0.050537776 -0.15352543 0.17016993 0.06219255 0.054509923 0.16537783 0.0039415974 0.008378778 0.14611928 0.22388469 0.26432183 0.11097942 -0.058659017 0.11580768 -0.050458796 0.049958285 -0.18419756 -0.084815726 -0.050840106 0.08225651 0.13843533 -0.20714994 0.09369413 0.009044366 0.012685518 0.09937435 0.16264132 0.24125457 -0.24885087 0.1471546 0.06275016 -0.03375313
795 -0.009363587 0.027362227 -0.17051262 -0.10774652 -0.112152375 -0.17506966 0.032167707 0.05520343 -0.21049014 0.14255333 0.028128235 -0.06046066 0.033449817 0.016862605 0.0084743155 0.051128928 0.048868716 0.124666564 -0.15025452 -0.04363403 -0.00035334867 0.11677485 0.12575799 0.005388072 0.0801311 0.058168933 -0.16131973 0.17665233 0.03659712 0.07847182 0.09113222 0.27534282 0.16119877 0.055140547 0.09181309 0.14287841 -0.106742084 -0.061769716 -0.010072588 0.26064214 -0.14220247 0.13140965 -0.24350515 0.17627342 -0.41577706 -0.08806315 0.23754996 -0.27563 -0.10238822 0.056360018 0.033542372 -0.20321555 0.07370852 -0.121415585 0.04199294 0.07652389 0.17194487 0.19440246 -0.16132018 -0.08522325 -0.055501662 -0.0359865 0.34071174 -0.019217512 -0.06279503 -0.093172655 0.259238 -0.08102746 -0.27317905 0.0055420483 -0.008724079 0.24535477 -0.0846539 0.2694497 0.00046855386 0.2253849 -0.078231245 -0.047373883 0.29411405 0.1838891 0.009785606 0.0038980865 -0.0054910076 0.074175835 0.013419893 0.102437936 0.09727157 -0.08777259 0.031736005 0.07129713 0.14702347 -0.121159784 0.12691694 -0.082070366 -0.13674672 0.16245845 -0.17932399 0.037434112 -0.013797999 0.06189014 0.09743274 -0.066719264 0.033032835 -0.011743389 -0.07108509 0.106146626 0.23697169 -0.08891002 0.074324705 -0.053696703 0.08940073 0.2107494 -0.06902864 0.058831565 0.12523669 0.22200693 0.094958186 -0.04953402 0.11816901 0.016999653 -0.01341406 0.08415661 0.118054114 -0.1040516 -0.09793902 0.28028584 0.24482241 -0.21627206
846 0.20220588 -0.066045344 -0.055977695 -0.022581503 0.040324382 0.13638999 0.025702955 -0.023529612 0.24998057 -0.16566071 -0.12843752 -0.077542774 -0.1422612 0.18947093 0.1440888 -0.11629553 -0.011736638 0.07485056 -0.15308358 -0.045668118 -0.0053295386 0.09474088 0.26835808 0.12008713 -0.10719947 -0.18181816 0.13480863 -0.046615936 -0.028823012 0.16509303 -0.12111047 0.070551835 0.23776758 -0.23368947 -0.07878117 0.23912065 0.07169991 -0.09821672 -0.03155179 0.2133334 0.124461256 0.22465725 0.036351558 -0.08614976 -0.09511183 -0.12026097 0.060084075 -0.049467593 0.020246422 0.028908134 0.056388266 -0.16545746 -0.1256203 0.004883897 0.023515215 0.10423477 0.18186334 -0.13740015 0.006740889 -0.3397746 -0.07229079 -0.045765217 0.0101748165 -0.1514487 0.06622051 -0.1856413 0.23617435 -0.04961884 -0.3749164 -0.045395184 0.074522644 0.14174868 -0.12920731 0.21936151 0.051768374 0.112940185 0.018478952 -0.050081983 -0.1647205 0.17083327 0.027366959 -0.0718103 0.043591216 -0.05283887 -0.14282393 -0.08657482 0.18955328 -0.00029348885 0.16563863 0.13464378 0.112431526 -0.11258575 -0.11984357 -0.20703804 0.06709843 0.073926926 0.156892 -0.34417 -0.053362317 -0.01431234 0.24473381 -0.020581398 -0.07136815 0.09169397 0.031978704 -0.1276715 0.10690456 0.041198052 -0.05854309 -0.16870797 -0.070990555 -0.004388807 -0.044948477 -0.06292592 0.04201552 0.14092274 0.23380157 -0.19947028 -0.09469563 0.2610724 0.18441637 0.09670469 -0.0756811 0.11704231 -0.19279242 0.15892504 0.22573341 -0.14653264
