1033 128
1101 -0.14247079 -0.1669427 0.02700742 0.04397943 0.22755052 -0.17907105 -0.2802085 -0.30042723 -0.11881134 -0.036652565 0.14219522 0.05720175 0.2301121 0.44869098 0.06483179 0.0756493 -0.384003 0.14499499 0.2062245 -0.1563517 0.01214334 0.25154653 -0.04838311 -0.15154637 0.102234 -0.27368155 0.19577557 0.23790948 0.06658143 0.19844909 -0.11400854 -0.21803916 -0.092084855 0.06392805 0.07072436 0.111702204 0.0206156 0.16688944 -0.020283345 -0.14124048 0.33130434 0.0026649977 0.27025515 0.070470475 0.014528732 0.011993529 0.10242268 -0.09525544 -0.32410893 -0.06643887 0.0018526069 -0.29537734 0.14651407 0.23720673 0.38326642 -0.09875783 -0.05049728 -0.036709227 0.15465492 -0.16455758 0.09459302 0.26638827 -0.014914698 -0.057765644 -0.11803878 0.105353035 -0.047967006 -0.26178858 0.27647918 0.23186284 0.011035438 -0.12687178 0.066743545 -0.1377872 -0.0984808 -0.14531057 -0.13472138 0.22539541 0.33913025 -0.08914282 -0.004244556 -0.028017629 -0.25780895 -0.5146954 -0.033420358 -0.12690692 -0.033375215 -0.25887662 -0.06614715 -0.13351713 0.18527007 -0.19571333 -0.070848465 -0.36869156 0.15008004 0.29080737 -0.18597652 0.1980642 -0.043983646 0.027011976 -0.30583683 0.13107578 0.024890177 0.048407633 -0.061309732 -0.05196874 0.29258174 -0.11566227 -0.27319884 0.29395002 -0.08091225 0.02287291 0.1828884 0.055634875 -0.045367416 -0.055185672 0.11375961 0.21257661 -0.14334771 -0.26727283 -0.036360018 0.19886655 -0.025845353 -0.32878911 -0.13407806 0.05022658 -0.107929274 -0.27527046
1080 0.2141052 -0.12996598 -0.17953964 -0.101657584 0.10790186 -0.2837634 -0.08959642 -0.034210652 -0.15628989 0.07067212 0.35057247 0.015490062 -0.24086577 0.17441389 0.06687732 0.03175564 -0.052721992 0.14256214 -0.11317772 -0.1945257 -0.081586495 0.03975654 0.031434488 0.111903444 0.09502988 0.059381127 -0.009750556 0.14205994 0.104475945 0.033990804 0.10281834 -0.20995049 -0.109961 -0.2103642 0.121341415 -0.30039322 0.25055113 0.06059884 0.24627972 0.06925931 -0.115649655 -0.073352054 0.081971884 0.063798726 0.4056037 0.07164974 -0.0016769966 -0.12481585 -0.13517328 -0.025897095 0.012034666 -0.023877278 0.09291158 -0.111604035 -0.101692446 0.42026156 0.013745572 0.09339751 -0.040863287 -0.091542214 0.12301519 -0.060165256 -0.32042056 -0.28972846 -0.30918634 0.048744727 -0.08070773 0.10766712 -0.18048672 0.04800978 0.22595441 -0.0647201 0.11019728 0.16863367 -0.34342587 0.015339134 -0.0959141 -0.07257751 0.16610485 -0.029651972 -0.00078241277 0.035985395 0.1469375 -0.21309952 -0.04958638 0.09872203 -0.16770938 0.17857057 0.04491891 0.29865003 -0.088068224 -0.20892672 -0.32693607 -0.07769739 0.093873695 0.06846856 -0.253814 0.17780131 0.32926047 0.3227808 -0.25552708 0.2376511 0.24705467 0.027739977 0.04675624 -0.33914828 -0.040630914 0.28419718 0.047985394 0.065229125 0.099327296 -0.41727003 -0.42593455 0.088917494 0.27997175 0.01043159 -0.093968995 -0.21540621 -0.119646996 0.16879812 -0.05958758 -0.01322595 0.0939852 -0.25273886 -0.043788828 -0.16033198 -0.13807645 0.073631264
1210 -0.053594816 -0.19867314 -0.09269108 0.17394234 0.23816785 -0.34680963 0.06265532 -0.04849339 -0.063865215 0.11076675 0.075385325 -0.01156401 -0.08149232 -0.037695695 0.11544882 0.13348801 0.10667135 0.18383826 -0.19784956 -0.3274636 -0.04965434 -0.0042240145 0.09838013 0.06832742 -0.017098378 -0.09986877 0.27569848 0.15942484 0.27523062 0.10314926 -0.041315 -0.1950733 -0.036143042 -0.39867124 -0.054273225 -0.36260134 0.3577771 0.19073015 0.13993606 0.14746998 -0.2296953 -0.13704254 0.169274 0.13502526 0.34258527 -0.1601886 0.14043583 -0.2556001 -0.0070414036 -0.03494963 -0.016584057 -0.11987253 0.026817504 -0.27639252 -0.07296401 0.21416435 0.06825869 0.06385312 0.13281389 -0.016873937 0.16326447 -0.20969221 -0.3485533 -0.13022195 -0.34689113 0.0080872625 0.0007186329 0.115895376 -0.23189448 0.01806868 0.023961272 -0.030793231 0.030356804 0.4475672 -0.21857497 0.24455422 -0.12711108 -0.04460528 -0.0100651495 0.10735698 0.051547244 0.033431724 -0.09957935 -0.12745713 -0.0922366 0.024397679 -0.110105574 0.23843212 -0.0474155 0.2479204 -0.25841305 -0.1940079 -0.42097372 -0.25035414 0.1854381 -0.032469336 -0.25309944 0.29064175 0.23377107 0.19816852 -0.26513577 0.11814876 0.2860733 -0.08026741 -0.20108882 -0.2855209 -0.15713441 0.29370567 -0.13961919 0.15707801 -0.12647921 -0.3487242 -0.2201603 0.07670688 0.13110518 0.03421414 0.18604788 -0.44649768 -0.111277275 0.069251694 0.08204006 0.26101023 0.2726705 -0.1919123 -0.1756275 0.020296616 -0.12107354 0.101204455
1524 -0.078961246 -0.11872745 -0.05345699 -0.27013794 -0.025702082 -0.21240917 -0.20813522 -0.43294436 -0.07722483 0.356628 0.011238778 -0.14079241 0.27207926 0.41416487 0.33543658 -0.26043752 -0.13056372 0.0555396 0.03956323 -0.33196637 -0.041451942 0.27118164 0.15736598 0.17285234 0.020630758 -0.1131978 0.1997564 0.26631433 0.1218872 0.13949287 -0.14487159 -0.11183016 -0.10537543 0.09172692 0.029507287 0.21413422 -0.18930961 -0.09025867 -0.2136673 -0.4349675 0.06816807 -0.13366616 0.035873022 0.031620298 0.09374939 0.14450067 -0.25536168 -0.045404542 -0.27252737 0.21418735 0.15319319 -0.029817348 0.2184248 0.08252141 0.049106788 -0.1899836 0.037460122 -0.25334427 0.08592791 -0.068946056 0.1322191 -0.03927148 0.023457406 0.050262276 0.11191059 0.18471894 -0.40167412 0.083182745 -0.08276663 0.38041818 0.058931444 -0.06747429 0.3135663 -0.2428856 -0.024391994 -0.34517044 -0.20815606 0.5599904 0.0038018816 -0.14535506 0.21232343 -0.06510184 0.039747093 -0.36867148 -0.11122095 -0.29967013 -0.16293672 -0.14849089 0.21027963 0.094356075 -0.13772042 -0.4760988 0.05005492 -0.008432684 -0.35247505 0.27654207 -0.018757224 -0.019822964 -0.14985739 -0.25793093 -0.35599634 0.18225175 0.19452894 0.23832618 -0.17750207 0.10277926 0.17822683 0.03043285 0.04229161 0.20212846 0.0062444396 0.13826367 -0.0013832175 0.40761635 -0.08706103 0.1390571 0.20731328 0.024675326 0.04639613 -0.11998455 -0.011864415 0.13316518 0.0048262863 -0.62156844 -0.11050679 0.023622232 -0.1973257 -0.26040965
1723 -0.23778586 -0.17337905 0.16193655 -0.013490496 0.1782707 -0.13748133 -0.20763 -0.23149084 -0.1490335 0.42647052 0.26624325 0.15376924 0.21322024 0.15294953 0.32744643 0.24826461 -0.20004527 -0.020492671 -0.1665458 -0.20471492 0.41115996 0.35856393 0.1207826 0.08156187 0.05329706 -0.017149433 -0.003985064 -0.025518958 0.31574252 0.06383421 -0.35831535 -0.06642179 -0.11377267 0.0023874813 0.15737593 -0.06819773 -0.0133802015 0.131305 0.3971902 -0.035693042 0.080341786 -0.030731266 0.069329485 0.287418 0.0809499 0.10807316 -0.30804905 -0.13121507 -0.3410347 0.28380787 -0.10367655 -0.35683843 -0.061829306 0.26047626 0.1452239 -0.26251325 0.04314638 -0.23792474 0.09695476 0.004773325 0.3473062 -0.22562072 -0.037095528 -0.41668308 0.057106543 0.35001823 0.16785313 -0.21362622 -0.060498893 -0.058905892 0.12465319 -0.14606187 0.18203355 -0.19563444 -0.03513255 -0.111170456 -0.20902632 0.11711588 -0.020867618 -0.16859795 0.0946697 0.103736505 0.03746039 -0.4830066 0.024552105 -0.074534595 -0.0225294 -0.37741214 -0.11997955 -0.2993021 0.0773972 -0.10505478 0.08388245 0.06759942 -0.036322474 0.3494674 -0.1882325 0.13936138 0.16710535 -0.03548024 -0.39368618 0.10100335 0.3697256 -0.040978245 0.08036967 0.3438472 0.12578227 -0.34265605 -0.41546482 0.25113398 -0.108075835 0.2611833 0.22354302 -0.35629523 0.014251799 0.11546269 0.17584004 0.05380897 0.029951949 0.0009960684 -0.056686122 0.40777746 0.15509342 -0.18337622 0.085051395 -0.11293176 0.10054497 -0.13584308
107 0.027314736 -0.18520162 0.107518606 -0.16996546 0.027569778 0.28699052 -0.36272812 -0.071721576 -0.20224054 0.17703207 -0.26599568 0.00027371195 0.19600962 -0.13581952 0.121729806 -0.031952977 -0.17606562 0.2676961 0.018132895 -0.09705084 0.12028832 -0.1054594 -0.045992702 -0.061997417 0.0010858495 -0.21441576 -0.036300022 0.036188476 0.108460516 0.13509853 0.0018962699 -0.1431593 0.07529286 -0.1737975 -0.015259079 -0.3587881 0.022031585 0.13179329 0.014911829 0.0399515 -0.078162745 -0.06783538 0.08235482 0.1266027 0.26185718 0.42382088 -0.1307363 -0.083859354 -0.35689196 0.33091742 0.09811242 -0.20984505 0.082722746 -0.01291536 -0.042574253 0.20591965 0.02184733 -0.10366742 -0.06521864 0.011984251 0.20835087 -0.13407144 -0.2641329 0.008871328 0.03476602 0.05202508 -0.15020405 -0.004946792 -0.14275305 -0.06459187 -0.065741405 -0.21068895 0.26019782 0.015915701 -0.16313218 -0.07838283 -0.19546768 0.04215306 0.1888536 0.05483177 0.1420022 0.08109917 -0.01868523 -0.18471074 -0.04113305 0.07466559 -0.19410512 -0.16188571 0.09498169 0.04911147 -0.15165302 0.09700777 0.08009643 -0.21781884 0.09198643 0.034336943 0.033218298 0.14136055 -0.24020363 -0.37003094 -0.1661662 0.023714276 0.16617301 0.07520894 -0.048567306 -0.038894143 0.32880953 -0.08843363 -0.05387606 0.11745185 -0.06932373 0.07081551 -0.055817034 0.06459304 -0.030086678 -0.15962173 0.124260455 -0.23285127 -0.06765891 -0.19438851 -0.06846293 0.15500048 0.20217972 -0.2711648 -0.12486108 -0.1864956 -0.14605442 0.085807286
991 -0.07706059 -0.35741326 0.09870764 -0.19096063 -0.0023711573 0.044368166 -0.29823613 -0.13237388 -0.058842167 0.3276615 -0.3870986 -0.22504045 -0.11591945 0.37306798 -0.013452158 0.029131684 -0.09221439 -0.0818902 0.48211354 -0.15864003 0.3266265 -0.23045239 0.04441087 0.038049284 -0.1518921 -0.25720158 -0.088132724 -0.09319315 -0.39462298 0.08175097 -0.16376336 -0.33229503 0.17502274 0.14788733 0.011728154 -0.0791203 0.025667382 0.07309392 0.0817407 -0.23799069 0.096576475 -0.12960535 -0.061329454 0.59938353 0.32084498 0.49755776 -0.048472967 -0.11048662 -0.26910514 0.09790048 -0.31666103 -0.31701222 0.09103341 -0.04214093 0.005640419 0.11914378 0.038959455 -0.34054267 0.10643701 -0.16413333 0.3662634 -0.032952096 -0.32876062 -0.05212362 0.009972861 -0.27642837 0.102896966 -0.19381362 0.110817805 -0.017885353 -0.16056466 0.1470611 -0.12882906 -0.12185443 -0.36456972 0.025857382 0.0040100184 0.08824914 0.19279358 0.07892258 0.47386217 0.20097737 -0.27484953 -0.3884979 -0.21019822 -0.074813634 -0.4569428 0.04754877 -0.112367354 -0.09151174 -0.120298915 0.04767086 0.072191365 0.09911696 -0.20152521 -0.017416382 -0.12887843 0.2288809 -0.13694315 -0.10558582 -0.005507534 0.17174079 0.20189148 -0.0009418908 -0.049628567 0.27722213 0.15452649 -0.23144124 -0.3111113 0.38639945 -0.09513875 0.08390767 0.14263742 0.042430587 0.09926865 -0.02621854 0.23296043 -0.28413332 -0.3139019 -0.3016018 -0.13336419 0.22104666 -0.04556796 -0.6140908 -0.0061274683 0.0010024448 -0.5379523 0.18689945
1268 -0.10345023 -0.07443663 -0.05505006 -0.09375569 0.4452558 -0.48283818 -0.12224341 0.016847853 -0.3022638 0.12466532 0.041056924 0.1138974 -0.06776773 0.21533874 0.0066513526 0.2307201 -0.115450576 -0.018711204 -0.24457619 -0.27219328 -0.15389022 -0.0946033 0.3948623 -0.014297928 -0.0050265826 -0.22390845 0.13069464 0.18868592 0.14350891 0.42322862 -0.1185664 -0.31646973 -0.24097823 -0.39490438 -0.23872916 -0.39327025 0.29898813 0.18086624 0.14850983 0.0024683282 -0.17825836 -0.08395323 0.20249355 0.1341577 0.3495959 -0.11087004 0.20503242 -0.15669966 0.35803875 -0.18564259 0.109653376 -0.2784957 -0.050237093 -0.32346293 0.24965648 0.15014926 0.16162057 0.07357387 0.24171798 0.14234886 0.06301709 -0.38145685 -0.56532323 -0.011708656 -0.24757841 -0.19844079 -0.3967717 0.22268386 -0.24932303 0.02261711 -0.049502835 -0.09794374 0.046651598 0.4215828 -0.44682273 0.08886909 0.103536315 -0.1677082 0.11181002 0.09063611 0.1307145 0.04488013 0.25783327 -0.046052873 -0.10152353 -0.00014938833 -0.20279796 0.22601455 0.099866204 0.47688195 -0.4401949 -0.06764364 -0.37029544 -0.11385581 0.26144442 -0.10475904 -0.36509034 0.12589628 0.13556758 0.23883274 -0.11290777 -0.04092696 0.12119038 -0.036814995 -0.17635375 -0.3072472 -0.33140942 0.22792931 -0.23279737 0.15353464 0.08531762 -0.30928668 -0.017168876 0.13804007 0.24715741 -0.18664996 0.12908782 -0.31286827 -0.11858665 0.19820932 0.15325232 0.21831158 0.13615918 -0.18179734 -0.34293035 0.009105959 -0.0808022 -0.08679659
1091 -0.14461532 -0.45111445 0.16235524 0.010318079 -0.0073785065 0.08794178 -0.3037326 -0.363606 -0.20729645 -0.023865007 0.4515811 -0.17887989 0.45190814 0.39029497 0.032615628 0.031430133 -0.27634898 0.24225631 0.053420383 -0.14933166 0.3908946 0.3680128 -0.15665428 -0.23419581 -0.010942584 -0.4278658 0.5997986 0.24969311 0.12318922 0.101314545 -0.2022113 -0.043293685 0.22499965 0.1516078 0.3352475 0.037712246 -0.14107399 0.044032898 0.20815767 -0.22908187 0.34757066 -0.08005071 0.0994277 0.11549424 0.25457504 0.20985422 0.03660632 0.07285779 0.07295276 0.20312215 -0.057331193 -0.026782623 0.12745342 -0.08059093 0.11506067 -0.12693709 -0.11516957 0.22239983 0.22960988 -0.27733687 -0.14994241 0.08450352 0.06803277 0.019270984 -0.2026814 0.21008316 -0.27134463 0.0120827835 -0.27581337 0.42396674 0.036796946 0.0013833412 0.28820777 -0.27028647 0.161903 -0.38364005 -0.08725746 0.34336856 0.1864118 0.1080547 0.08323758 0.012926467 -0.1195749 -0.3886006 -0.08124433 -0.0046273586 0.028111465 -0.056162797 -0.21383631 0.019397087 0.06938521 -0.30056366 -0.046859838 0.076923825 -0.012091155 0.40627736 -0.5395641 0.3637669 -0.042771846 0.043423705 -0.1258078 0.056572065 -0.03103853 -0.004941337 -0.26349068 -0.20569225 0.2825207 -0.1658874 -0.5915972 0.010949046 0.015893081 0.41567293 0.18020514 -0.03414251 -0.07237491 -0.06373658 0.026924033 -0.27595678 -0.30319694 0.12596968 -0.13975899 -0.06957527 0.08494996 -0.495943 0.22035141 0.5091092 -0.21467142 -0.1625131
1414 0.09501511 -0.095896915 0.14656192 0.05137983 0.23023477 -1.1346315 0.011170511 -0.258649 0.55482024 -0.09511615 0.33715245 0.44299394 0.22992632 -0.2517307 0.10386798 0.33845013 -0.21046174 0.06881138 -0.16951978 0.175499 0.2373576 0.3290247 -0.22136565 0.04970309 -0.03101105 -0.03816671 0.010812547 0.07207671 0.28161806 0.53021485 -0.053565342 -0.041936144 -0.22818103 -0.18363413 -0.13433258 -0.34454334 -0.18089159 0.14079216 -0.34396136 0.06623263 0.28960449 0.003698636 -0.08216091 0.4928545 0.43461564 0.36081448 -0.2016953 -0.25076404 0.30958465 -0.18129934 -0.2678649 -0.033652797 0.5234073 -0.20626554 0.30450663 0.01589629 -0.20910315 0.1242439 -0.18193915 -0.064315975 0.13984977 0.052063253 -0.61064714 -0.06398802 -0.3221199 -0.103808105 -0.181333 -0.105503306 -0.43595544 0.115090854 0.015177642 -0.32507977 0.21447594 -0.368757 -0.49684522 0.029156085 -0.5180899 0.035694312 -0.2823755 0.13187355 0.16623582 0.37195247 0.05253754 0.15752095 -0.15020113 -0.5062779 -0.074169934 0.38913435 -0.4172362 0.24156353 -0.20716855 0.1857645 0.3344563 -0.029591335 -0.20307924 0.021305807 -0.35132283 -0.22650245 0.41608134 0.13481866 -0.3159404 -0.10005061 0.43790835 -0.26864904 -0.17151853 -0.272381 0.065018795 0.25694528 0.163662 0.12521768 -0.005018384 0.17960784 -0.3739968 0.19732974 0.39200997 0.19237356 -0.14629026 -0.16493033 -0.04724393 -0.11726813 -0.34334892 0.48041457 0.43187475 0.45125398 0.1136965 -0.108641654 -0.00961782 0.0952701
1235 0.12747067 0.0997352 0.2637205 0.36741915 0.10190935 -0.8817947 -0.14836146 -0.27322826 0.5622006 -0.0920863 0.033153985 0.52930576 0.21078171 -0.23333906 -0.09473098 0.38302937 -0.19534622 0.12300599 -0.13433681 0.16610031 0.22962064 0.14016822 -0.14374293 0.039444577 0.010478953 -0.08295462 0.010531443 0.17231564 0.11874762 0.47513068 -0.07803784 0.0071641263 -0.25428218 -0.12898354 -0.17405039 -0.25240973 -0.17444248 0.12974262 -0.017389378 -0.22506022 0.08948616 0.008614566 -0.18714482 0.47777516 0.42185318 0.20388813 -0.18288799 -0.23719886 0.18703316 0.016720418 -0.14735396 0.059958823 0.61137056 -0.3158328 0.1121047 0.059086863 -0.09485439 0.15167704 -0.2004503 -0.05240201 0.25555795 -0.120569564 -0.54746586 0.0401674 -0.4777839 -0.12792069 -0.18329926 -0.017254027 -0.44813037 0.16459809 -0.057911433 -0.34677836 0.15200341 -0.2893229 -0.10427795 -0.0978397 -0.49177355 -0.13786046 -0.17066671 0.18778683 0.10512702 0.24780184 -0.025887279 0.05947104 -0.108809 -0.30511042 -0.14525747 0.25179818 -0.17628635 0.23588051 0.047990598 -0.0882703 0.23418811 -0.013849232 -0.20121221 -0.019069098 -0.22055474 -0.06622255 0.123369314 0.11310018 -0.2414361 -0.2610385 0.324777 -0.17094219 -0.15420838 -0.44377753 -0.019321209 0.31881925 -0.033321805 0.031463798 -0.1992037 0.04463939 -0.32012472 -0.07443694 0.113925606 0.054559197 0.043692168 -0.3826429 -0.19128199 -0.36723098 -0.406111 0.25230774 0.2783737 0.16701378 -0.11547352 0.028129969 0.07869693 0.22983775
1613 -0.11177642 -0.032659657 0.026619144 0.08759929 -0.12784107 0.010065653 -0.18874961 -0.45608163 -0.14612782 0.31931743 0.043200605 -0.097064234 0.12910315 0.4049338 0.37801763 0.10380839 -0.20701033 0.10888425 0.26455033 -0.24583241 0.03524474 0.33805156 0.15085222 0.0865456 0.07054256 -0.09769887 0.17601961 0.09790096 0.12958914 0.11703513 -0.14719947 -0.39553255 -0.08006791 0.27452147 0.06388855 0.04486463 0.14530584 0.020240298 0.03086175 -0.2721596 0.38905466 -0.12936027 0.16377245 0.27727956 0.0099989595 0.0073510646 0.057466134 -0.19919866 -0.20495382 -0.090067774 -0.20800404 -0.12627624 0.111654915 0.14451124 0.24237156 -0.13115725 -0.18592298 -0.3749584 0.027829126 -0.046791524 0.03311785 0.1331406 -0.0056560463 -0.06787822 0.11548448 0.09823426 0.0017952595 -0.0032482906 -0.08284787 0.24685355 0.20911673 -0.08165812 0.2289186 -0.25504366 0.057992972 -0.15841967 -0.16630235 0.24998797 0.1509763 0.034277618 -0.11949843 0.18409339 -0.13443357 -0.36586228 0.1757491 -0.24600068 -0.18737632 -0.08662212 0.07041204 0.05959707 -0.05127051 -0.16956232 -0.133719 -0.16551445 -0.085865326 0.45311707 -0.12166435 0.117849305 -0.13696289 -0.22300676 -0.31914678 -0.117594846 0.19380873 0.14669731 -0.12496497 0.035425775 0.16733013 -0.0031580376 -0.23578675 -0.047656637 0.0558545 0.16162723 0.08445577 0.049620025 -0.09720012 0.06791882 0.15144123 0.18559828 -0.029402452 -0.17593327 -0.044998728 0.22959523 -0.08000044 -0.31041464 0.11021652 0.07544554 -0.15567575 0.0017660218
601 0.11958682 -0.44221216 0.0077338773 0.09209072 0.08997361 -0.62726957 0.03390224 -0.15994774 -0.4268984 -0.2875816 0.30677968 0.43117997 -0.11286724 0.18995818 -0.1358602 0.07798761 0.16622564 0.09893772 -0.0026770162 -0.10596858 -0.13231821 -0.14136826 0.027339164 -0.031857237 -0.04155677 0.20731124 0.21670628 0.10221896 -0.049354985 0.35348687 0.19841017 -0.058192007 -0.23048742 -0.27188182 -0.2657673 -0.223507 0.17239337 0.010877917 -0.15282477 -0.0074337134 -0.4168822 0.06301835 -0.29101932 0.08311487 0.5344689 0.10079859 -0.18993576 -0.21448667 0.004765815 0.13251193 0.13476513 -0.13082938 0.085808575 0.024583822 0.12753655 0.04584099 -0.096165515 0.04697933 -0.08026504 -0.36495805 0.14803949 0.020111054 -0.03852504 -0.25524983 -0.18511532 0.053060737 0.29032758 0.35874173 -0.26340652 0.19712977 -0.027658956 -0.17897633 0.1019501 0.14943732 -0.35571754 0.20645237 -0.24611825 0.03593301 -0.090273544 0.35953942 -0.07542322 0.16145816 -0.19553883 -0.006833974 -0.059611905 0.016220288 -0.4057468 0.262603 -0.07626103 0.3921942 -0.21919402 -0.04509934 -0.4778451 -0.28184932 0.40826702 -0.22326538 -0.2508349 0.039289452 0.2334876 0.044603523 -0.3849303 0.27319047 0.37348002 -0.10486104 -0.09719681 -0.21365379 -0.4686471 0.013709766 0.12780036 -0.12224058 -0.27363274 -0.0401107 -0.08222047 -0.06163802 0.20841295 -0.16908059 0.31035203 -0.55940974 0.2802434 -0.024542047 -0.035503566 0.13220377 0.20708002 -0.35583466 0.15529123 -0.036971044 -0.29978162 -0.033449143
1072 0.029558316 -0.093884595 -0.16634297 0.14606997 0.16224855 -0.10779332 -0.14608583 -0.2420807 0.22823012 0.110986695 0.0023772116 0.061745625 -0.3817961 -0.13689315 -0.23325376 0.5441935 -0.2839878 0.59916514 -0.3333472 0.11569485 0.2615327 0.43746907 0.6009645 -0.27182737 -0.18646404 0.21951659 0.514527 0.28602597 0.11863392 -0.018419243 0.11528335 -0.12126208 -0.30258974 -0.06645806 -0.50863606 0.010851407 0.2078609 0.35091418 0.08201938 -0.139177 -0.05931789 -0.22704853 -0.012704777 -0.024934974 0.30618897 0.015220771 0.044209693 -0.5908949 0.30970183 -0.5515342 0.27362162 -0.57080686 0.11251485 -0.17174438 0.27482727 0.49737573 0.21422762 -0.008102073 0.20580111 -0.041986734 0.39756772 0.2470219 -0.5391172 -0.121317625 -0.06185684 0.026325949 0.27261332 0.09629023 -0.20630495 0.3802741 0.08507259 0.32822126 -0.29792306 -0.4220773 -0.6444704 -0.24134775 -0.14397693 0.0094791055 0.12812531 -0.1883984 -0.058176648 0.04331729 0.14439225 0.7097589 -0.5669969 0.23980728 -0.4457269 0.3413262 0.41394013 0.27613124 0.15752748 -0.08646318 0.16704567 -0.086893424 0.1266336 -0.28032717 -0.52342564 -0.010863809 0.24425577 0.11711144 -0.22234531 0.41538167 -0.035637148 0.32663926 -0.49301448 -0.2744104 -0.24024555 0.41332486 -0.26793915 0.060722247 0.14037688 -0.2588741 -0.25181326 0.12797272 0.18021366 0.019144133 0.23801355 -0.7162738 0.2169631 -0.0006766686 -0.18901698 0.7931562 0.33267134 -0.5780854 -0.023432111 0.09226784 -0.25004098 0.22910872
1827 -0.16620326 -0.01793894 0.04485457 -0.16084062 -0.030414496 0.0350779 -0.033233486 -0.17306404 -0.25285092 0.096194096 -0.123781234 0.17514884 0.18077077 0.24948382 0.31189138 -0.08730004 -0.12464534 0.034980293 -0.012001785 -0.37028965 0.030434549 0.38471118 0.34330335 0.08420974 -0.12861136 -0.091546275 0.10016777 0.0017237612 0.19753964 0.19069628 0.01274667 -0.16982095 -0.058055475 0.2577277 -0.13671915 0.056896646 0.03361619 0.04422025 -0.12513512 -0.46394914 0.08916212 -0.29509532 0.1497718 0.19194984 0.009125448 0.06497121 -0.27758935 -0.108351305 -0.21965377 0.042807277 -0.24122372 -0.37347645 0.08728177 0.14114526 0.21398887 -0.07841897 -0.1821759 -0.28034842 -0.08426625 -0.009373546 0.041025437 0.19729142 0.07002538 0.1374808 0.0928051 0.009712745 -0.22014497 -0.071772106 -0.15755746 0.21435864 0.087122135 0.04714669 0.14181797 0.04110026 -0.023943089 -0.25512204 -0.3219133 0.27755582 0.25038704 0.09989393 -0.1625446 0.019596476 0.18258081 -0.37499818 -0.1482742 -0.07830274 -0.22866552 -0.070469104 0.28175417 -0.18624137 0.034532942 -0.36766034 -0.016434168 -0.28139076 -0.16024067 0.24807492 -0.19672395 0.20951203 -0.04195634 -0.1424135 -0.20237732 0.013956544 0.16860664 -0.026583929 -0.013855641 0.015801158 0.20353931 -0.14095554 -0.23485273 0.017533183 -0.016526558 -0.14030373 0.23017783 0.039724477 -0.06687928 0.13315876 0.1375286 0.18874225 0.101839535 -0.27014866 -0.10199162 -0.0505431 0.25413966 -0.4879737 0.103843324 -0.0074611777 -0.2091902 -0.14723875
1839 -0.10802509 -0.33322325 -0.12570909 -0.076960534 0.18154356 -0.06688111 -0.22885035 -0.08957596 -0.11211608 0.12099692 0.05820066 -0.041247528 0.10143424 0.32180935 0.1495826 0.06089947 -0.16510274 0.18814519 0.08931027 -0.15648456 0.18022436 0.37779844 0.15107255 0.08837513 -0.031013986 -0.12830108 0.25802717 0.32588154 0.16921756 0.080957286 -0.30202135 -0.2247933 0.087323174 0.12735078 0.0838273 -0.049880527 0.108337395 0.023193635 0.07953566 -0.15202099 0.14289251 -0.037244428 0.17436346 0.16718644 0.09050675 0.23619552 -0.027873205 -0.059741706 -0.058260687 -0.04138066 -0.24245392 -0.24119206 -0.0015923346 0.10334262 0.116403855 -0.3621426 0.026756333 -0.2293168 -0.036544837 -0.2577908 0.20767865 -0.06245912 0.14368293 -0.04456591 -0.08068048 0.38317606 -0.038476367 -0.3147138 -0.14907624 0.32577714 0.10175029 -0.32031354 -0.04881114 -0.2402126 -0.028658742 -0.1958878 -0.11404436 0.29540282 0.06860622 -0.053222075 0.14887837 -0.23215005 -0.12757048 -0.40616825 0.072020866 -0.08648991 0.10413734 -0.18370438 -0.25672874 -0.003265651 0.18738633 -0.27635542 0.02842237 -0.26682472 -0.06931451 0.29212528 -0.20488162 0.10333315 0.06519396 0.12314915 -0.20962778 0.021966487 0.09569798 0.041234937 -0.13466924 -0.034546867 0.23946501 -0.19397032 -0.3683856 0.2516083 0.04848535 -0.0023065284 0.18730931 -0.15905932 -0.046004012 -0.07582964 -0.016976949 0.024819214 -0.16724576 -0.09562305 0.116948016 0.14387082 0.13866878 -0.3514134 -0.08034712 0.15727937 -0.21156412 -0.27122498
1551 -0.108168304 0.048097517 -0.107869506 -0.085619666 0.2960138 -0.077150606 -0.22905368 -0.28165025 -0.03866164 0.1644103 0.16185515 0.03682666 0.14067818 0.38268408 0.1804481 0.1460803 -0.05663917 0.1508373 0.109210946 -0.15735206 0.19410266 0.2916154 0.048057195 0.13662027 -0.080394424 -0.08536128 0.1709255 0.103863634 0.35992053 0.10613261 -0.19686556 -0.29092073 -0.08335339 0.08320853 0.16801557 0.058637653 -0.047343418 0.057671763 -0.14995 -0.08742719 0.21669364 -0.08606587 0.028487321 0.033585224 0.23282373 0.16640393 0.03812085 -0.077283345 -0.109888285 0.02840099 -0.1301304 -0.31955066 0.02461067 0.07465648 0.3549891 -0.24983872 -0.2107176 -0.49856016 -0.00495946 -0.06824759 0.17516384 -0.048769895 0.025571136 -0.11507309 0.03984265 0.08377967 0.09728882 -0.32585293 -0.08990437 0.28578082 0.2082157 -0.100105494 0.26775995 -0.20596102 -0.14903842 -0.03347476 -0.0094564 0.11380651 0.18746895 -0.12373533 -0.024802312 -0.06223666 -0.016473638 -0.45010155 0.10946329 -0.020838823 -0.20896262 -0.28892848 0.10827277 -0.26131728 0.13083413 -0.2532527 -0.05288201 -0.19486262 0.047321383 0.21310064 -0.004685419 0.07896071 -0.069612905 -0.037775267 -0.33790132 0.07557245 0.1206239 -0.09695283 0.15308395 0.05616123 0.03437561 -0.27567843 -0.49173433 0.35198817 0.06605648 -0.058834355 0.04029004 0.054115865 0.15590237 0.20552331 0.09612837 0.1975844 -0.04040234 0.10747459 0.07467259 0.169441 -0.062437154 -0.44736576 -0.03268393 0.010540762 -0.13262935 -0.107326806
580 0.013793937 -0.15164922 -0.19618899 0.09941632 0.01602104 -0.6631018 -0.10359765 -0.084907226 -0.154601 -0.085190475 0.31251106 0.30259728 -0.0026888223 0.014546041 0.14606637 0.096030414 0.15511788 -0.21359704 -0.3051912 -0.057530276 -0.15156347 0.1458175 -0.032670178 0.10733789 0.04699169 -0.07900678 0.17761 0.15606004 -0.035904583 -0.065791026 0.059378304 -0.123704106 -0.1678591 -0.40042618 -0.056275778 -0.12314437 0.42947832 0.18438375 -0.15270327 0.004283928 -0.30949223 0.09503669 -0.023328451 0.07518459 0.34726197 -0.035681598 0.12109802 -0.13644417 0.06300872 0.2682097 0.24716105 -0.06572388 0.17290968 -0.07731668 -0.04693282 0.3668552 0.075415745 0.22191596 0.08088826 -0.14363037 0.29984444 -0.15706477 -0.07475051 -0.1057689 -0.20131768 0.1451594 0.106424905 0.17750336 -0.3420916 0.02691357 0.057003174 -0.09241686 0.07940577 0.10697277 -0.28269854 0.09553975 -0.30807716 -0.04935111 0.074374266 0.20039827 0.077254094 0.07995338 0.0077256574 -0.2096833 -0.11354562 0.2304752 -0.31901562 0.20089638 0.04384648 0.29248983 -0.21393691 -0.18835792 -0.3982957 -0.37128416 0.2500439 -0.023992844 -0.3162564 0.15854676 0.21087378 0.18094641 -0.14949541 0.24530742 0.3036195 0.017237201 -0.11647384 -0.22390288 -0.22817856 -0.00760247 -0.13144185 0.078800686 -0.040563866 -0.25752205 -0.16261095 0.04448308 0.26913333 0.13449669 0.18230276 -0.4342058 0.019667946 0.18805994 -0.016302815 0.19049442 0.11901827 -0.39246032 -0.22533719 -0.01576059 -0.31360832 -0.006766961
1589 -0.06909687 -0.090651415 -0.06650232 -0.21042395 -0.016732488 -0.15008561 -0.13282174 -0.18146735 -0.16150464 0.1719843 0.07578673 0.051855862 0.1369819 0.35216656 0.27386668 -0.048515815 -0.2362954 0.006887261 0.10877896 -0.25953066 0.19677462 0.23984878 0.15316212 0.087639466 0.21134129 -0.0016172051 0.18333337 0.047169723 0.1471933 0.2970407 -0.1943892 -0.2105056 0.053688694 0.14244212 0.004932086 0.14316802 0.13048223 0.11167416 -0.15509523 -0.20773035 0.14671543 -0.14053263 0.066781655 0.2599425 0.031678766 0.19034879 -0.09557796 -0.25328285 -0.2624215 -0.09196742 -0.1831379 -0.09009953 0.13781108 0.09602939 0.19451204 -0.21097834 -0.19336003 -0.19680037 0.26027858 -0.06984224 0.008055096 0.05409928 0.22088306 -0.036775272 0.090719685 0.08020429 -0.23128724 -0.0088064615 -0.122078486 0.32338193 0.27965474 -0.27264526 0.15764533 -0.28190896 -0.06652289 -0.21457236 -0.13292263 0.26758197 0.071511015 -0.03205048 0.078892305 0.12846144 0.008473262 -0.3289228 0.1265219 -0.13957664 -0.041054744 -0.036433887 0.11090907 -0.029379742 0.017210955 -0.1841462 -0.044943724 -0.24237393 -0.13466601 0.4492347 -0.07394979 0.25530678 -0.20401141 -0.25883815 -0.10849793 -0.024194816 0.3977373 0.24256715 0.084817894 0.12807824 0.15874179 0.021386972 -0.1446067 0.04367447 0.03458935 0.14271043 0.110778496 0.07781893 -0.081158645 0.25411105 0.1974804 0.24806401 -0.03814127 -0.18515168 -0.32180023 0.2520263 -0.1340495 -0.6351971 0.05394393 0.08717429 -0.15331694 -0.13901499
1559 -0.05363869 -0.009026895 -0.03642042 0.08480999 0.23587145 -0.22959833 -0.24464151 -0.14515984 -0.17522511 0.17118622 0.079810366 0.08648293 0.3569634 0.37812924 0.03926999 0.07343251 -0.28860122 0.25983235 0.25579298 -0.077961534 0.0874193 0.33901733 0.14744762 0.0772968 0.07525236 -0.2834181 0.1172335 0.010659674 0.24186566 0.11506074 -0.26309007 -0.19826204 0.14931013 0.22024629 -0.03462505 0.10861277 -0.042203374 0.13604762 0.0065226136 -0.20981567 0.04209129 -0.20128007 -0.011212828 0.28150666 0.38504365 0.104031265 -0.16647066 -0.20261838 -0.20509502 -0.074265465 -0.19864424 -0.14481375 -0.0069932435 0.15621726 0.084093586 -0.29920596 0.11683744 -0.32483873 0.097710684 -0.25088185 0.21605614 0.06288892 0.041620333 0.0008124737 0.005013941 0.19192062 -0.008007718 -0.30235606 -0.05952513 0.15638398 0.09542045 -0.07871595 0.08586183 -0.15074366 -0.2383514 -0.1930269 -0.108651415 0.24595882 -0.060570356 0.09864525 0.10143249 0.07896913 0.06773207 -0.58894014 0.011151359 0.15334418 -0.17697132 -0.10429497 -0.21076308 -0.07761927 0.3440844 -0.24835676 -0.010553365 -0.17934993 0.048960548 0.0657157 -0.17289013 0.033990595 -0.0852381 -0.027169645 -0.2114613 0.039655983 0.28390297 -0.053639777 0.05246686 0.24055077 0.020012675 -0.21532439 -0.27098858 0.17272587 -0.03763424 0.17113402 0.18671513 0.18229133 0.18871981 0.17780313 0.10705751 0.18160495 0.0265071 -0.11191297 -0.06600581 0.06755911 0.012923172 -0.32008183 0.07595144 0.25694913 -0.0009060369 -0.19894676
1358 -0.05398854 -0.05961731 -0.23882662 0.11214465 -0.0501496 -0.49349022 0.1540358 -0.022295082 -0.14513585 0.04025355 0.16997366 0.16529852 -0.12832752 0.07696876 -0.013651119 0.12515187 -0.18765202 0.060714334 -0.15750366 -0.2051805 -0.20431077 -0.0692912 0.11837817 0.13566814 -0.0010762704 -0.13661459 0.15459982 0.0466847 0.20983024 0.07570592 0.036117926 -0.051694483 -0.18173385 -0.385188 0.11694575 -0.32255834 0.3109559 0.21750712 -0.13644719 0.17000514 -0.12349922 -0.09703996 -0.077612 0.19635606 0.26346654 0.07346718 -0.022601139 -0.018373543 0.009032498 -0.07063585 0.004225297 -0.18138872 0.19417961 -0.20661664 -0.30857527 0.3139647 -0.08222308 0.023242395 0.16388375 -0.17471424 0.12146567 0.063103855 -0.36982447 -0.22820035 -0.4767391 0.044000123 0.18529709 0.1939933 -0.07228506 0.016654983 0.15298232 -0.23820454 0.12740454 0.30470172 -0.22113809 -0.029208863 -0.2146355 0.1899839 0.046088718 0.27970225 -0.11892241 -0.06693268 0.000537645 -0.0858384 -0.0064324997 0.04737352 -0.2748623 0.23809138 0.041537564 0.48959848 -0.23873955 -0.06121268 -0.4313895 -0.37268052 0.14951678 0.22833852 -0.30358893 0.0371045 0.35678476 0.047581613 -0.072854176 0.036232714 0.30818328 -0.042657427 -0.04877146 -0.12105678 -0.23822126 -0.027110191 -0.22226948 0.030101944 -0.07779366 -0.2279858 -0.38134262 0.03518902 0.17529935 0.004917836 0.037036784 -0.39785194 0.037216827 0.12220032 0.06593928 0.0105732465 0.036130834 -0.33468166 -0.05449849 0.033679947 -0.1684791 0.04207493
1736 -0.12088067 -0.09462649 -0.0951558 -0.12803523 0.23620237 -0.119310446 -0.2287265 -0.3088903 -0.06867692 0.2751335 0.14935105 0.12892483 0.18357676 0.21558517 0.07338584 -0.058509376 -0.09672806 0.17131335 0.20045479 -0.24638729 0.19915348 0.35651925 -0.11036571 -0.03123772 -0.064947285 -0.16045599 0.22141139 0.15369304 0.074832805 0.21379258 -0.288273 -0.2551939 -0.026192926 0.15283082 0.17775774 -0.07400443 0.06937418 -0.07791575 0.012527281 -0.12253271 0.2128981 -0.15467694 0.094604164 0.035164885 0.3320461 0.26613456 -0.11306125 -0.095761456 -0.40541962 -0.0718631 -0.2393751 -0.16307431 0.13053566 0.15669781 0.363903 -0.029565075 -0.054125328 -0.2800904 0.11639711 -0.032046426 0.23413454 0.13541551 0.0016393923 -0.2892592 -0.095457405 0.14101186 -0.059794705 -0.29405588 0.10908796 0.26831898 0.15615958 -0.21336833 0.13451718 -0.08282633 -0.0050416845 -0.14510198 -0.04828542 0.23624085 0.09123666 -0.0155161135 0.14775565 -0.082065254 -0.16262227 -0.51517195 0.043294378 0.17424192 0.08677699 -0.24515289 -0.16408777 -0.0718238 0.27953786 -0.06085518 -0.06769292 -0.17503433 -0.0004966925 0.31064537 -0.03433186 0.18273151 0.042777587 -0.08581719 -0.123953074 0.09522268 0.26158696 0.10115005 -0.0543187 -0.0146921 0.105111875 -0.26139095 -0.2556235 0.25802726 -0.012058553 0.18925437 0.04543047 -0.038171124 0.035591897 -0.018213438 -0.13467692 0.119189955 -0.06138874 -0.035935625 -0.02069129 0.25262642 -0.08298731 -0.31071675 -0.01787177 -0.043722227 -0.15817288 -0.12722829
1752 0.0070642107 -0.17399578 -0.14209001 -0.030073889 0.04034414 -0.2788739 -0.12544063 -0.42497626 -0.15903395 0.13338768 -0.09263944 -0.014486849 0.031616315 0.3484839 0.20807758 -0.10468596 -0.14176166 0.15982825 0.06171218 -0.30001122 0.10353007 0.2779061 0.10398718 0.040097486 0.059815932 -0.05720788 0.43561238 0.26357126 0.01111684 0.17540796 -0.22590068 -0.13969263 0.10684291 0.076970644 0.09038718 0.0437352 0.003760437 0.18573347 -0.0015369796 -0.37840667 0.3159505 -0.19673993 -0.07660533 0.2676342 0.10418317 0.20266622 0.0526503 0.012315607 -0.093090594 -0.010934501 0.010874527 -0.13085626 0.13611963 -0.09079037 0.2589854 -0.20659074 -0.26990572 -0.2958723 -0.14606436 -0.10031836 0.001293905 0.073120944 0.05603919 -0.040368713 -0.110900335 0.054069526 -0.2579839 -0.15100038 -0.15527327 0.41943136 0.046369612 -0.14999399 0.24704526 -0.2152228 0.35471225 0.044950753 -0.004947699 0.39168996 0.054244045 -0.06961495 0.21927682 -0.016533103 -0.12466614 -0.45652443 -0.2034444 -0.011205447 -0.05505317 -0.21637465 0.09778966 -0.2943799 0.0082185455 -0.13019045 -0.07397212 -0.1220462 -0.18475875 0.41364658 -0.12685038 0.23383598 0.10722199 -0.10800544 -0.38624316 0.014458998 0.049056794 0.15601675 -0.14507855 0.10980276 0.15550835 -0.035025265 -0.4032711 0.005834295 0.13836552 0.04491259 0.2813264 0.058908157 -0.053410586 0.10667489 0.13392332 0.16719656 -0.22729371 -0.19653109 -0.018593801 0.13803597 0.1866284 -0.47561285 -0.064318806 0.2361544 -0.15057622 -0.13857827
1768 -0.07175335 -0.16160601 -0.09854238 0.030885877 -0.01095028 0.0033631695 -0.06300797 -0.34649333 0.020975977 0.18482864 0.05439426 0.023285883 0.052271295 0.5745986 0.25205746 0.11955742 -0.33450326 0.28508598 0.2542909 -0.14949502 0.008930911 0.1826569 -0.1326812 -0.041143823 -0.23159792 -0.2514275 0.26048598 0.13355693 0.1378756 -0.025905697 -0.0905969 -0.25846943 0.044495992 0.13864526 0.18797073 -0.0061689713 -0.028238954 0.26454672 0.020954456 -0.22810982 0.08750701 -0.18285728 0.1226038 0.031264547 0.077858515 -0.26306543 0.11279427 -0.12279041 -0.039213598 -0.14901277 -0.09315636 0.06803843 -0.0828646 0.26441082 0.34048864 -0.1817783 -0.010519365 -0.52192926 0.12685953 -0.27608687 0.07903255 0.234255 0.01956035 -0.13669941 -0.03486169 -0.013199609 -0.04935271 -0.14731796 0.04048959 0.23054178 0.30374742 -0.105532125 0.31787738 0.025107037 -0.074844286 0.03314161 -0.100746684 0.19652882 0.26282704 0.018871574 0.08307361 -0.043298062 0.1575827 -0.35067248 0.050236437 -0.2925028 -0.1662158 -0.28596088 0.016985485 0.20787823 0.17193887 -0.14921027 0.077038094 -0.10162999 -0.11275797 0.20769307 -0.40322053 0.06412954 -0.09190689 -0.1267926 -0.34750822 -0.066256486 0.1035755 0.043267597 0.044900205 0.201381 0.11840777 -0.15099391 -0.41573632 0.22260274 -0.24493523 0.012098188 0.15810339 0.14956279 0.071706176 -0.055759784 -0.10207642 0.060504433 -0.3356668 -0.19911748 -0.01159247 0.31218937 0.04079214 -0.35392964 0.13763414 -0.10226953 -0.27717382 0.026924096
1427 0.28929946 -0.26771793 -0.14490311 0.14494026 -0.068974435 -0.64583987 0.00617598 -0.038062032 -0.21487217 0.22873512 0.29780397 0.16472419 -0.02008266 0.010718214 0.21101446 0.08510749 0.18771812 0.3869755 -0.3440628 0.13159211 -0.13283864 0.16417041 0.20789908 -0.1672083 -0.18013667 0.044703208 0.11638728 -0.030470027 0.26721066 -0.010582605 0.0333811 0.02270417 -0.22405402 -0.29827592 -0.076299824 -0.108690694 0.19990101 0.18653949 0.06473106 0.18509501 -0.22977115 -0.044740267 -0.027219208 0.28956148 0.18553558 -0.09370037 -0.07312978 -0.28700116 -0.24624096 0.051463336 -0.063188426 -0.21485282 0.4356327 -0.22263744 -0.014762279 0.61396074 -0.14002368 0.25386453 0.058709204 0.011471481 -0.10494664 -0.15637861 -0.23353854 -0.22776456 -0.42171726 -0.08443534 0.0015201253 0.010004825 -0.15351954 0.17315525 0.036884718 0.06363264 -0.06276053 0.09926814 -0.34623545 0.24623261 -0.043461945 -0.17296265 0.011374192 0.04022191 0.09413633 0.12118785 0.14168689 -0.052561946 -0.14872454 -0.12942635 -0.21856387 0.25106046 0.11405527 0.4350849 -0.055331312 -0.289896 -0.47290534 -0.25369808 0.13367917 0.20797181 -0.28026843 0.060415592 0.06522209 0.07943588 -0.26835573 -0.006533709 0.23257574 0.07136352 -0.199562 -0.24123228 -0.010444589 -0.0033397954 0.07148443 0.045607902 -0.24583365 -0.17114022 -0.13405246 -0.22015606 0.18586217 0.04079509 -0.026056834 -0.108894065 -0.123870686 0.22433415 0.051480897 -0.09975333 0.07630876 -0.23093724 -0.28526345 0.08679567 0.10630242 0.09828842
1800 -0.15635252 -0.14596598 -0.13805631 0.06027862 0.009660033 -0.012990617 -0.18209381 -0.36160126 -0.19552879 0.14578678 0.07916864 0.011821471 0.23356943 0.3258584 0.15092918 -0.08166466 -0.21544728 0.16323483 0.09934832 -0.24296752 0.25105107 0.23516925 0.0015193691 -0.05753027 0.01833714 -0.014656372 0.11049529 0.16932887 0.1812504 0.18544847 -0.19627747 -0.1684584 0.074784845 0.18528943 -0.029611662 -0.12782192 0.14240764 0.13604489 -0.20632517 -0.12339073 0.11434521 -0.15613586 0.07012162 0.20536698 0.1362702 0.044935647 -0.1596324 -0.13763015 -0.08856778 0.17409629 -0.18913965 -0.07871165 0.018820731 0.21666959 0.38462242 -0.028785417 -0.16636695 -0.0041051605 -0.0438636 -0.08592475 0.039032195 -0.06179088 0.06032071 -0.04442031 0.19087446 0.062418576 -0.1932776 -0.2611933 -0.083478324 0.3128218 0.2224162 -0.22134186 0.081312686 -0.15977381 -0.04213491 -0.07089672 -0.072720714 0.08314331 0.20849 0.253939 0.046214495 -0.13826302 -0.072368935 -0.6149675 -0.029850312 0.07626198 -0.20914362 -0.19036645 0.035891 -0.20229949 0.06196778 -0.123201095 -0.038039304 -0.19117935 -0.10333006 0.2636577 -0.14879878 0.05692698 0.0021707162 -0.047750548 -0.35174325 -0.020364307 0.27909452 0.06534348 0.032803126 0.074464224 -0.03981021 -0.018703565 -0.18160287 0.2473041 -0.0063422048 0.1280878 0.24136187 0.14390022 -0.031060783 0.21480724 0.06344426 0.14947957 -0.13347094 -0.1100824 0.060930472 0.15807879 -0.04205099 -0.42602682 -0.053213406 -0.20290765 -0.062228654 -0.03941969
1004 -0.077771075 -0.22857976 -0.13511696 -0.22571509 0.15132093 -0.27463275 -0.07481809 -0.31366247 -0.043735586 0.050001156 -0.09964936 0.1557454 0.030354382 0.32780582 0.1190729 -0.002351736 -0.20616016 0.41065097 0.09574376 -0.40647662 0.26668748 0.30566055 0.21583243 0.06574843 -0.03422657 -0.18726861 0.31520063 0.19824441 0.053901594 0.09540025 -0.22812527 -0.015893612 0.045752767 0.32619175 -0.006920237 0.010015036 0.06626798 0.22222303 -0.021765666 -0.1656651 0.16410963 -0.13078664 0.14794186 0.19795336 0.24805348 0.18455878 -0.0042360714 -0.06512917 -0.27840915 0.06424906 -0.09259737 -0.07387829 0.019726688 0.06612494 0.1839788 -0.19257218 -0.16965413 -0.12755966 0.0025543452 -0.24563392 0.09470476 0.1014142 0.0072784163 -0.07809195 -0.017172635 -0.050082732 -0.32621908 -0.20436366 -0.022018313 0.32208398 0.033805273 -0.10837512 0.27457872 -0.25881687 0.40806141 -0.050695024 -0.071997695 0.36183834 0.07117083 -0.16789272 0.19021145 -0.0067665265 0.0039644865 -0.3112033 0.06252457 -0.19970123 -0.15633555 -0.27416033 0.18909495 -0.16149226 0.14337799 -0.18262804 -0.14774191 -0.14288083 -0.048156258 0.28169435 -0.28046784 0.1117311 -0.116065025 -0.010567197 -0.22128834 -0.1516032 0.102805875 0.03876682 -0.14667849 0.09261856 0.16073687 -0.0071149645 -0.30107754 -0.0400501 0.035688583 0.23111017 0.08401398 0.015227105 -0.10618717 -0.03496714 0.22684054 0.07088976 -0.100399345 -0.20024928 -0.016956858 0.04903705 0.121785924 -0.53539 -0.20059913 0.29323724 -0.21201532 -0.21641912
1329 0.04383225 -0.06615754 -0.18794085 0.015899725 -0.022057509 -0.19614889 -0.21899372 -0.19324185 -0.0036779414 0.28376293 0.1521915 -0.009009747 0.052866504 0.24027674 0.2141951 0.1149186 -0.18115844 0.30632842 0.2596412 -0.16678323 0.21283609 0.14718108 -0.04591419 0.15001382 0.039974097 -0.30673894 0.13142706 -0.08889244 0.1385024 0.12942795 -0.33401924 -0.34397146 -0.05909166 0.174054 -0.05574164 0.039519504 -0.16862933 0.10986801 0.17083244 -0.1536895 0.15943077 -0.18772176 -0.051776465 0.036488418 0.060467713 -0.029894236 0.040142145 -0.20076565 -0.1010389 0.048678935 -0.27248994 -0.3349197 -0.20137946 0.1704568 0.4604984 -0.26190484 0.09965781 -0.24315295 0.04483552 -0.015237092 0.14852192 -0.060807943 0.009094802 -0.09164916 -0.025485318 0.112283766 -0.14476077 -0.25397676 -0.123379864 0.20001656 0.1413726 -0.16401875 0.30420962 -0.09857041 0.007783651 -0.2337983 -0.20972908 0.03544491 0.22347426 -0.03632846 -0.0037703125 -0.0036363027 -0.06386413 -0.350663 -0.10642884 -0.1182819 -0.12120035 -0.2792173 -0.321612 -0.16231416 0.35718262 0.11300658 -0.02471264 -0.08642096 0.045057587 0.14578938 -0.036718015 0.28632706 -0.119643636 -0.062422965 -0.3005125 0.073723204 0.1737482 0.13508207 -0.15365662 0.24685477 -0.0949416 -0.26323596 -0.26840484 0.26439285 -0.2533133 -0.13014308 0.17388977 -0.09528178 0.08795718 0.107407525 0.28617588 0.15467362 -0.1494294 -0.114851415 0.19092228 0.16315806 -0.12426733 -0.28561825 -0.039004482 0.059277322 -0.18449704 -0.064339735
1888 0.019837232 -0.14652555 -0.16821346 -0.018356 -0.030757712 -0.10706398 -0.20272906 -0.2262084 0.0060465336 0.23045918 -0.040190067 0.033482913 0.13196543 0.38675132 0.22563826 -0.03288981 -0.2342744 0.17534915 0.21516776 -0.11485114 0.0847144 0.07365268 0.1603517 0.099943504 -0.14215192 -0.22461262 0.13544358 0.0023766493 0.12207821 0.07633301 -0.31727588 -0.24699384 0.07258882 0.1254701 0.07217398 -0.101799056 0.15393713 0.10651135 0.042206787 -0.1051822 0.2785165 -0.01725464 0.13952439 0.030513095 -0.06305807 0.100088954 0.04297279 -0.26308286 -0.34338978 -0.06975604 0.07090942 -0.3423144 0.1179617 0.12183635 0.20377822 -0.20579135 -0.1438574 -0.16590044 0.15776618 0.00087802944 0.03660958 0.012731887 0.13472155 -0.0681394 0.097182 0.116882116 -0.013520532 -0.23874559 0.024661222 0.3092907 0.42032844 -0.0910344 0.1911243 -0.24259552 -0.003037136 -0.11197621 -0.18348962 0.29165062 0.19793454 -0.057329267 -0.09703677 -0.011659444 -0.09805944 -0.46986553 0.08422678 -0.08199465 -0.123510055 -0.1673636 0.0393532 0.017847093 0.058646265 -0.20746897 0.06844134 -0.17749546 -0.09058253 0.42101917 -0.17296302 0.41310355 -0.0599903 -0.1793114 -0.34749392 0.09997183 0.19456556 -0.008668154 -0.08226736 -0.015803833 0.0045976406 0.013979533 -0.31645802 -0.116023466 0.06172357 0.04162615 0.14351967 0.051464383 -0.0953713 -0.0062858136 0.13707007 0.11850038 -0.045639127 -0.24919827 -0.060112186 0.12012795 -0.17584045 -0.5656735 -0.059241883 -0.0353512 -0.22610874 -0.01996467
1079 -0.1480897 -0.14648584 -0.03903664 -0.15644677 -0.033137128 -0.15141878 -0.010523119 -0.4343494 -0.13535888 0.12212127 -0.09373679 0.12263614 0.20159015 0.42806625 0.02143032 0.15145123 -0.07550506 0.10924186 0.17660536 -0.5054332 0.03273554 0.27681333 0.14594251 -0.083339855 -0.019475771 -0.11278729 0.10480605 0.09780246 0.18205585 0.018877285 -0.13893747 -0.08557523 -0.0027698122 0.31077817 -0.08525601 -0.074357025 -0.122389264 0.062966906 -0.06658084 -0.39260995 0.047858972 -0.12624788 0.34558317 0.24542037 0.12694335 0.04371815 -0.1454588 -0.14628626 -0.4453763 -0.028173754 -0.15201147 -0.07527185 0.18790063 0.099299274 0.2518645 -0.21372566 -0.087280944 -0.0531699 0.034065116 -0.021474095 -0.02285171 0.09049999 -0.089556314 0.07288135 0.05562336 0.0011623573 -0.20505328 -0.05936195 0.05914636 0.30831227 0.3520333 -0.07469988 0.14969608 -0.18678088 0.033600815 0.049046464 0.04377567 0.32549313 0.14175396 -0.005501624 -0.14190704 -0.052962665 -0.024847915 -0.33732018 0.10645729 -0.14391977 0.036229063 -0.21869123 0.23510782 -0.10637659 0.13993147 -0.2755907 0.016060576 -0.23025407 -0.10493598 0.28891897 -0.08216444 0.098878674 -0.034694865 -0.1151533 -0.47009975 0.060114507 0.20712455 0.050156604 -0.20392883 0.22461474 0.22070225 -0.15020633 -0.06170063 -0.12516548 -0.053728815 0.009479881 0.18493085 0.092011444 -0.0028534383 0.16912016 0.1695779 -0.036252055 -0.12130868 -0.25861287 -0.0010434204 0.32380915 -0.011849677 -0.42140853 0.0039094 0.034983404 -0.10714628 -0.020496657
483 0.11303823 -0.22588359 0.17078191 -0.012369931 -0.06908007 -0.5859737 0.00034670276 -0.24913323 0.04197285 -0.06764236 0.20862512 0.4242318 -0.16597189 -0.1114658 0.0055257864 0.48990962 -0.07410817 0.13630086 -0.11346579 -0.009490946 -0.14966728 -0.04893739 0.062405944 0.11299619 -0.12320347 0.08924263 0.08800119 -0.03457433 0.18504353 0.2254752 -0.18723018 -0.37909225 0.067351766 -0.20568049 -0.14391796 -0.15311588 0.18904293 0.13379289 0.094087675 0.18173121 -0.109563425 0.25768808 -0.16070949 -0.038010556 0.3881854 -0.20817213 -0.14035584 -0.18771218 0.19610138 0.25116304 0.08598501 -0.0014724536 0.13278173 -0.28948766 0.19999172 0.33128515 -0.08073296 0.297653 -0.15832712 0.0485671 0.096862674 0.07188597 -0.06171639 -0.037453678 -0.36879292 -0.050884545 0.18988252 0.12855197 -0.007321235 0.13061047 0.0045884866 -0.12645297 0.053593837 0.3245587 -0.07268032 -0.046298042 0.03129325 0.05817129 -0.04699801 0.22752425 -0.17528465 0.05166567 -0.07807023 -0.115255825 -0.00940282 -0.026712738 -0.22966065 -0.026059883 -0.11342725 0.2716922 -0.23462182 -0.1808205 -0.04599118 -0.29266992 0.11779303 0.091847464 -0.3137424 0.20119537 0.19075523 0.2701766 -0.18866563 0.040433317 0.45719302 0.035141483 -0.17105274 -0.3193588 -0.2508858 0.13295569 0.17611974 -0.0935859 -0.16696315 0.014716266 -0.38846946 0.010948385 0.520531 0.014710809 -0.026261754 -0.49437553 -0.06529973 0.03466367 0.040520985 0.051447846 0.15737174 -0.13795055 -0.2516311 0.1384153 -0.32448563 0.3887338
1707 -0.21341018 -0.15992652 -0.17433079 0.06453053 0.17018907 -0.103646934 -0.00935879 -0.32969353 -0.27431965 0.21069548 0.12198118 -0.05169849 0.24022657 0.32402056 0.28749174 0.050533082 -0.19892882 0.27228376 0.118629545 0.007964433 -0.009412078 0.31465724 0.07704876 0.09248007 -0.09115971 -0.06920896 0.35870516 0.09229685 0.19780962 0.14786746 -0.30993178 -0.3813883 -0.09144903 0.09544126 -0.091109276 -0.0378128 0.059980314 -0.009291706 0.05401724 -0.06797958 0.1317973 -0.18412217 0.3639557 0.0702671 0.15093319 0.18081619 0.17192292 -0.1113628 -0.07766577 -0.051110543 -0.15880176 -0.22297424 0.19482753 0.011155175 0.18177336 -0.0824695 0.02353183 -0.20904401 0.13910903 0.055513505 0.049767323 0.13275096 0.025058575 0.022439163 -0.14850128 0.011549007 -0.035330374 -0.40975338 0.13829541 0.18244813 0.12311664 -0.14845052 0.10588478 -0.24871176 -0.039641015 -0.061570037 -0.05774512 0.2584478 0.13291565 0.15944417 0.07035669 -0.11230407 0.05289411 -0.52235276 0.16687053 -0.173518 -0.010094213 -0.16266714 -0.024878994 -0.08122281 0.14905857 -0.20559022 0.05363691 -0.14573017 -0.009231019 0.42886952 -0.13415092 0.035297357 -0.033014834 -0.04720763 -0.034722127 0.0696054 0.22654709 -0.054535985 -0.096753545 0.16297916 0.246943 -0.06138778 -0.31644747 0.1744693 -0.12183233 0.19346505 0.07152448 0.06872032 -0.05986616 0.039131835 0.029803682 0.08783569 -0.18207149 -0.085180365 0.08666019 0.09243645 0.0072672106 -0.47979888 -0.0024052581 -0.10151968 -0.26155978 -0.056445543
1793 -0.16361798 -0.1070759 -0.19998027 0.02702231 0.4634304 -0.09040008 -0.2228823 -0.28172103 0.041470338 0.37536025 0.12710324 0.09344033 0.1681577 0.31789306 0.15337498 -0.05619952 -0.212445 0.15446036 0.08469957 -0.0762179 0.20077541 0.40389678 0.06677252 0.086423345 0.14391392 -0.090935476 0.2460586 0.19377014 0.21260992 0.16438787 -0.2592418 -0.16265978 -0.21369953 0.26116285 -0.0021427702 -0.2220296 0.04385923 -0.100237146 -0.0431774 -0.06592934 -0.039130993 -0.057059728 0.07918586 0.1889547 0.28592515 0.35197365 -0.037185103 -0.07304935 -0.26742592 -0.08442895 -0.1915869 -0.24050336 0.081158124 0.11574418 0.35995576 -0.17679629 -0.058344934 -0.13506809 -0.013891992 -0.06189266 -0.12698324 -0.09037059 -0.092475675 0.044831056 -0.096414335 0.17304817 0.14792556 -0.13777767 -0.0389165 0.24751827 0.19675195 -0.08541624 0.11354062 -0.15888783 -0.0784316 -0.23043847 0.06514826 0.16625555 0.118375026 0.09847151 -0.024493849 -0.13091709 -0.034185898 -0.57788396 0.13676138 -0.07647286 -0.081982605 -0.2784005 -0.22001465 -0.22724594 0.19434868 -0.26201957 -0.027502954 -0.3100806 -0.0658252 0.3681278 -0.11873498 0.046940506 -0.023113033 -0.11899261 -0.16074798 0.085494995 0.19222821 0.021190278 0.06445642 0.12905385 0.045806844 -0.37053004 -0.22515942 0.2967392 -0.0025004607 0.03957145 0.21976794 -0.17891303 0.025172018 -0.08203473 0.23743635 0.15581648 -0.03055608 -0.054440293 -0.00813677 0.07378718 -0.18187027 -0.27754572 0.028821198 0.025587566 -0.14113134 -0.033126675
1211 -0.2131867 -0.23502043 -0.017003221 0.26766893 0.00835752 -0.20636976 -0.11794096 -0.35872215 -0.22865513 0.1226447 -0.004982923 0.09493563 0.367036 0.25654414 0.134801 0.11569048 -0.3307486 0.14205462 0.1899141 -0.1728686 0.03796797 0.35087055 0.038134087 0.21290344 -0.12483576 -0.20592956 0.17047296 0.12243865 0.055360682 0.11171938 -0.21107718 -0.26788437 -0.016453337 0.1526742 0.14588621 -0.13157882 -0.006243861 0.26995322 0.031003071 -0.094355024 0.17242424 -0.028306669 0.2110249 0.02030427 0.22204685 0.0535096 -0.13118823 -0.0057862294 -0.06756116 -0.15866138 -0.28866357 -0.42017183 0.2746389 0.14228131 0.15744458 -0.11361412 -0.027277049 -0.18701397 -0.0010223077 0.014234433 -0.041457143 0.00393349 0.06908377 -0.009573634 0.044527754 0.102040194 -0.036103517 -0.18216988 0.11065168 0.18348238 0.14803861 -0.18782368 0.15100476 -0.1244574 0.0019693782 -0.033693388 0.10769362 0.26937786 0.20785977 -0.10621426 -0.07167723 -0.16773197 0.04610577 -0.43037295 0.099402726 -0.12190566 -0.2907478 -0.23029079 -0.18126188 -0.107722506 0.17495777 -0.20487219 0.032141276 -0.23308803 -0.048763722 0.43063083 -0.025208049 0.054477137 -0.23519002 -0.09715833 -0.025147803 0.1913213 0.13822569 -0.038854383 -0.05011962 -0.11992937 0.16518204 -0.05925479 -0.30457127 0.06803327 -0.1069135 0.054165166 0.09050333 0.096816435 0.050479706 0.042206753 0.056523733 0.08193672 -0.29564595 -0.2398819 0.10247179 0.10290483 0.0036001403 -0.45290968 -0.031138869 0.1005144 -0.17559026 -0.16267845
925 -0.15074112 -0.14208192 -0.09954922 -0.41414577 -0.14456952 0.028587772 -0.04846949 -0.25822243 -0.03603801 0.31814933 -0.23160435 0.050166737 0.22672586 0.23859112 0.3733225 -0.20483917 -0.18698819 0.21522067 0.06931965 -0.33471382 -0.04469712 0.3612792 0.13090138 0.039574888 0.018529477 -0.118448354 0.24652116 0.08181442 0.062002737 0.14894894 -0.14757696 -0.20019081 0.18240364 0.08404387 -0.05436954 -0.012834732 0.052523497 0.17608242 -0.03862228 -0.33784303 0.22171462 -0.31302714 0.24302824 0.3214472 0.053245958 0.3290164 0.18042837 -0.08975358 -0.13978143 -0.008142892 0.028882297 -0.13814484 0.11164632 0.13089243 0.35387522 -0.082891315 -0.3748901 -0.19681408 -0.07917134 -0.02560081 -0.031608224 -0.009111043 0.019094039 -0.09100812 0.2281443 -0.031139906 0.03733391 0.12036925 -0.3216926 0.404121 0.12999806 -0.08130225 0.3485982 -0.08164235 0.14195737 -0.15604746 -0.17121579 0.32004994 0.06511624 -0.10833718 -0.011767976 0.029916732 -0.04307223 -0.22631963 0.12976983 -0.05815457 -0.12887411 -0.10688817 0.2404562 0.057683315 0.19375756 -0.22905011 0.28576702 -0.1911507 -0.16098319 0.3190952 -0.19612315 0.06600697 0.022828907 -0.047421522 -0.36374512 -0.005396975 0.22356024 0.09074749 -0.122575775 0.014837811 0.046999104 -0.39050418 -0.12775895 0.17126603 -0.16071045 0.023604326 0.047283452 0.22649321 -0.08697971 -0.051999208 0.3875506 -0.023241758 -0.214184 -0.24630107 -0.020631041 0.09591045 -0.0051798285 -0.44958347 -0.16315603 -0.047360033 -0.08870409 -0.101289615
1086 0.11498883 -0.3680013 0.19845176 0.23161086 0.07843313 -0.21175411 0.056516554 -0.09910177 -0.002827353 -0.16757116 0.22169533 0.04524048 -0.1623581 -0.058634527 0.22160895 -0.15133381 -0.37749705 0.3067193 0.09287811 -0.16337247 0.08609239 0.29480174 -0.14090918 0.15535009 0.027208714 -0.2812815 0.3954599 0.13194573 -0.15687922 0.39816076 -0.14470638 -0.14213622 -0.09263003 0.26816168 0.12322718 0.06606326 -0.07028577 -0.26437178 0.111411616 -0.002613778 0.11682517 0.093133844 0.30585548 0.2208431 0.06474207 0.15553428 -0.050928086 0.23109467 -0.07594685 -0.110823385 0.0736476 0.17418432 0.31643656 -0.13680798 0.08586121 -0.078716464 -0.120459825 0.2645727 0.24835087 -0.18435098 0.10533329 0.29327953 0.23812972 -0.2777928 -0.13487795 0.09002547 -0.121735305 -0.3599346 -0.12398562 0.19839774 -0.09174588 -0.19173169 -0.12902907 -0.19414082 0.2799162 -0.17303808 -0.060068816 0.047225527 0.13599074 0.06738995 0.02194026 0.13893165 -0.033318505 -0.22189598 -0.1251423 -0.04831809 0.030686159 -0.22819765 -6.203868e-06 0.062577166 -0.21042715 -0.32323563 -0.112151206 -0.20919749 0.0041173263 0.19020936 -0.3488876 0.045153167 -0.09149291 0.33336306 -0.13168168 0.09748855 0.14883451 -0.008735152 0.023537338 0.058961444 -0.16376802 0.1587092 -0.46583742 0.046727866 -0.07298383 0.12344455 0.030397432 0.12149181 -0.0028601147 -0.074748494 0.052770216 -0.14752844 -0.21496214 0.003991209 0.12527625 0.090920225 0.28231475 0.0102332905 -0.03127318 0.14799945 0.034364477 -0.13907886
1204 0.092780925 -0.01807181 0.22440255 -0.07606313 0.25910047 -0.44099885 -0.25926688 -0.09135948 0.34414008 -0.013072083 0.305478 0.31550032 0.060598597 -0.25366023 0.11106462 0.4572187 0.018929103 0.24116233 -0.18335776 0.10171238 0.22267914 0.15993433 -0.31818464 0.030474806 -0.13189383 0.29646304 0.12804635 0.12950467 0.05268478 0.23823395 0.2771528 -0.16147907 -0.1349214 -0.048452094 -0.30801278 0.31379357 -0.075530715 0.024733545 -0.054612126 0.023261046 0.12063515 0.28959966 -0.27882114 0.30922216 0.44311443 0.3158539 -0.098387174 -0.21656638 0.07014801 -0.08919966 -0.1890843 -0.21292077 0.6246566 -0.17469007 0.36089817 0.39034924 0.17699032 0.10625515 0.024177663 0.15929356 0.30106917 0.027408747 -0.35553682 0.17997006 -0.5249004 -0.07094823 -0.22685772 -0.04830561 -0.5786289 -0.11499434 0.118452884 -0.16993903 0.100307085 -0.26702186 -0.14336312 0.04147535 -0.5415508 0.08372411 -0.16483475 0.014620275 -0.27812564 0.22193411 -0.108312026 0.065272875 -0.0078098075 -0.4014719 -0.2252073 0.1270974 -0.06779603 0.29017022 -0.049197383 -0.06421125 0.09993637 0.046494626 0.05534609 0.09157793 -0.09368452 -0.22655272 0.19748938 -0.015513885 -0.33533776 -0.06192448 0.2723703 -0.30805305 -0.3084471 -0.5438847 -0.15454154 0.3727261 -0.097233325 0.047744717 -0.21212837 0.17374535 -0.11905911 0.08794947 0.28288266 -0.0010146223 0.07694234 -0.61204964 -0.3522149 -0.25040817 -0.25128186 0.07782008 0.36776873 0.01813043 -0.19654511 0.040860374 -0.13438928 0.22761883
1725 -0.13153037 -0.27764618 0.14917429 -0.005872951 0.08889714 -0.34076774 -0.11188029 -0.47458112 -0.0035871363 -0.023090415 0.21288948 -0.018172693 -0.16530128 -0.1813433 -0.40417644 0.17714933 -0.2868095 0.08948528 -0.26118886 0.19528382 0.3016312 0.33222994 0.32456067 0.20900913 -0.10848389 -0.0069072987 0.23177396 0.13459142 0.17004554 0.33499283 -0.061391212 -0.0061227013 -0.13926747 -0.43190688 -0.27095202 -0.032208327 -0.00120001 0.1316824 0.09523008 -0.10999797 -0.0077507934 -0.21281585 0.03296769 0.18207142 0.08075565 -0.14078477 -0.033463046 -0.27983806 0.23245923 -0.2975219 0.021308562 -0.29789433 -0.043414373 -0.0371873 0.20827794 0.66301394 0.3412764 0.032615535 -0.21083458 0.03135316 0.5495468 -0.017763246 -0.70917785 0.1188128 -0.15112054 0.22906949 -0.34109786 0.14275835 -0.45788142 0.17538384 0.12308616 0.22127827 -0.32069534 -0.2997168 -0.64505655 0.18389423 -0.15768464 0.006320209 0.103800155 -0.28629386 -0.364264 -0.43411332 -0.12654097 0.28361374 -0.29116058 -0.1647418 -0.39774248 0.14055414 -0.21530682 0.038534973 0.20797634 -0.14121726 0.053397804 -0.050758187 -0.13210613 -0.055191044 -0.39810577 0.045406807 0.34661376 0.047585316 -0.081320666 0.19813637 -0.043471508 0.14534183 -0.2405908 -0.36807 -0.23766463 0.41281322 -0.039420772 -0.13147897 0.30262256 -0.38153368 -0.32199726 0.08574318 0.0665162 -0.3457154 -0.10824012 -0.59802014 0.011575282 0.15698907 -0.24855109 0.37916866 0.033789318 -0.40841743 -0.2218628 0.18711154 0.023453722 0.48452833
1835 -0.18610735 -0.09842226 -0.12455725 0.13890819 -0.055044506 0.011364972 -0.32968992 -0.24656479 -0.057173047 0.025025306 0.15660165 0.11286286 0.329644 0.12142609 0.092247374 0.09082306 -0.3186865 0.32610115 0.3203525 -0.27446213 0.049211446 -0.09226013 0.14582323 0.012764343 0.08771923 -0.37164107 0.08779416 0.06079358 0.059732746 0.020134972 -0.36456862 -0.31011882 -0.17645562 0.0023650988 0.09944178 0.14878576 -0.010580336 0.033157896 0.11711052 -0.32812563 0.060900398 -0.12796172 0.16161795 0.14572309 0.21611962 0.024512064 0.10135525 -0.0050431076 -0.281118 -0.07818648 0.01150389 -0.26895338 0.103424035 0.30472177 0.36984608 -0.24656814 -0.31456935 -0.27513826 -0.108360656 -0.089976065 -0.22289163 0.14100687 -0.040250037 -0.16656332 -0.030604124 0.07366401 -0.14066269 -0.28494796 -0.12209563 0.24898563 0.1426964 0.10731608 0.25716737 -0.19992477 0.1005387 -0.0230377 -0.07176912 0.26167056 0.23911074 -0.071622975 0.102882296 -0.012839891 -0.077607945 -0.2775992 -0.10677111 -0.30996737 -0.3236896 -0.29195893 -0.018515775 0.13981226 0.1400752 -0.119448036 -0.05680462 -0.15286103 -0.057031967 0.23488969 -0.022466373 0.13790032 -0.017237926 -0.072055176 -0.0018356808 0.18929894 0.25240752 0.021976737 -0.17244375 0.29963955 -0.10178172 0.02656934 -0.27807182 0.38962045 -0.13188305 -0.1041668 0.18160638 -0.17029044 0.029136201 0.14573373 0.16323163 0.27164733 -0.064333774 -0.09978737 -0.074317634 0.32957593 -0.15995008 -0.33720997 0.12837543 0.14672092 -0.1888957 0.10739162
1376 -0.10728311 -0.3502009 0.020588506 0.084458925 0.09872415 -0.17127399 -0.267799 -0.28519392 -0.20764805 0.20720041 -0.16714755 0.14189665 0.022371847 0.35431507 -0.060457926 0.19864984 -0.30177742 0.1584845 0.33337927 -0.35231918 -0.054738678 -0.01107545 -0.019005232 0.062613085 0.1407354 -0.16911396 0.33351198 0.101066306 0.26350123 0.20698166 -0.2550652 -0.17525615 0.02784112 0.09321813 0.1377629 0.0050205067 -0.16589478 0.042562712 0.21946055 -0.3419763 0.3265337 -0.20950747 0.21785012 0.29419282 -0.023212235 0.21264827 0.1678009 -0.1435154 -0.1009925 0.07451913 -0.077378795 -0.15336737 -0.12155603 0.2016116 0.40648484 -0.18471953 -0.14707081 -0.30980897 -0.055900883 -0.0669456 -0.06961079 0.24585241 0.18217121 0.015440669 0.2581056 0.18184909 -0.006117454 -0.17929909 -0.040464625 0.12647207 0.2067577 -0.010542339 0.25237226 -0.12363507 -0.05388085 -0.030160556 -0.13827908 0.14780606 0.33190334 0.102859005 0.12787385 -0.0060329824 0.1413953 -0.5128521 0.037231997 -0.15110402 -0.20247313 -0.05241283 -0.085952446 -0.11271415 0.11402597 -0.062362924 0.09608548 -0.098965 0.088150226 0.3732634 -0.30672854 0.2423736 0.20043463 -0.133192 -0.25816405 0.2368147 0.2038828 -0.09656489 -0.28203505 0.28442985 0.038546965 -0.043840066 -0.08499073 0.12038594 -0.10802697 0.028702935 -0.03444593 0.004428006 0.033296485 0.08643137 -0.077189274 0.07459509 -0.08194041 -0.15529333 -0.06829483 0.13753082 -0.03471926 -0.27535406 -0.101495095 -0.13991901 -0.19157526 -0.11496736
1730 0.010322005 -0.018387621 -0.013220479 -0.053179078 0.022208791 0.18578118 -0.13720079 -0.1565033 0.058064003 0.2715477 0.0019862647 0.015180149 0.21760118 0.29034403 0.29455483 -0.017173186 -0.12481925 0.061975982 0.09086786 -0.3309049 0.16192123 0.24091168 0.32558328 0.211822 -0.006706573 0.06427725 0.20948909 0.18666309 0.2669069 0.18150485 -0.31638727 -0.19995497 -0.11660924 -0.026879007 0.17117004 0.048653234 -0.17182148 0.14278921 -0.24426581 -0.059730012 -0.05980313 -0.20686914 0.029994495 0.13006625 0.3034089 0.18490292 -0.05199334 -0.33278078 -0.20551558 -0.019156387 -0.20624804 -0.2469722 -0.14291874 0.09359102 0.3524603 -0.16238753 -0.21304137 -0.28338656 -0.065944366 0.04666444 0.003025886 0.09686481 0.025023222 -0.09906162 0.06887842 0.12450159 0.1005438 -0.22735207 -0.10965143 0.27508935 0.27925208 -0.22679785 0.087750144 -0.013343402 -0.10707574 -0.33322766 -0.22473651 0.24812397 0.12440072 0.042107474 0.05518426 -0.08646634 0.030932965 -0.46342513 -0.18522009 -0.046209216 -0.04353872 -0.09707105 0.15938424 -0.0051452583 0.11089927 -0.15340976 -0.033557452 -0.23757932 -0.1081851 0.07888615 -0.11052814 0.23513992 0.014399271 -0.021065716 -0.23033264 -0.041175872 0.236961 0.08289909 -0.13523167 0.051114887 0.0868846 -0.26565257 -0.10820082 0.05067719 0.075156495 0.09125852 0.14133541 0.014001102 0.021729592 0.10115502 0.23139957 0.25811192 -0.33058134 0.0009877778 0.09124717 0.22044261 -0.14981917 -0.4772364 -0.06773912 -0.19321354 -0.07830828 -0.073685855
1598 -0.11438987 -0.40465155 -0.09180792 -0.109917805 0.19264013 -0.25380057 -0.124372534 -0.24450277 -0.082725756 0.053365543 -0.03779264 0.048429158 -0.09595152 0.3063959 0.2159549 -0.035568833 -0.31373265 0.19638248 -0.09797002 0.0033758143 0.14410695 0.056676883 0.19207668 -0.0015017623 -0.08417001 -0.13624322 0.33754432 0.08414171 0.15903424 0.1437488 -0.1546381 -0.32740292 -0.06102243 0.08045846 0.21897377 0.17976783 0.014590429 0.022025747 0.07578642 -0.23021632 0.30834267 -0.0404508 -0.011598291 0.07234222 0.33554924 0.2524052 0.008108739 -0.23821272 0.037828248 0.08466681 -0.2178697 -0.060029753 0.014467696 0.09558762 0.2646733 -0.16016783 0.123020135 0.17435037 0.06165822 -0.3335237 -0.13867822 0.25309387 -0.011787397 -0.32235748 0.13299493 0.08807034 -0.08923037 -0.13247682 0.1704938 0.36445454 0.0796203 0.026041333 0.27434847 -0.4151913 0.06766398 -0.070772976 -0.13034521 0.56833977 0.11829914 0.093602344 0.2533781 -0.05869697 -0.26133212 -0.37759864 -0.4002532 -0.16708994 -0.008196504 -0.2551579 -0.3398035 -0.1708477 0.07919627 -0.32185677 -0.044659335 -0.19666551 -0.1784414 0.39120048 -0.400505 0.21363729 -0.14086863 -0.11386628 -0.18457209 0.0023533108 0.1060089 0.0542664 -0.04747685 -0.0039660498 0.12909059 -0.18262768 -0.39008412 0.04528866 0.12217212 0.018115921 0.25368947 -0.11853791 0.08381828 -0.22278449 -0.072737314 0.16738091 -0.16398689 0.008748309 0.31238157 0.046083458 0.047295697 -0.15005814 0.44864103 0.23622887 -0.17057279 -0.18922973
993 -0.17353207 -0.31273168 -0.11129914 0.024229337 0.11596163 0.0012405962 -0.17738886 -0.24038275 -0.31918535 0.07082377 0.1296359 0.115338326 0.10249641 0.27711985 0.011479166 0.11164166 -0.3628965 0.3286618 0.4424223 -0.22003661 0.18345939 0.17765824 -0.0005274685 0.18459052 -0.08577882 -0.10299011 0.2590125 0.09724878 0.1221375 0.16325487 -0.2400103 -0.14670515 -0.022440922 0.19453928 -0.1815474 0.12814978 -0.14829086 0.15308419 -0.008254822 -0.18785231 0.07305526 -0.19983904 0.07863431 0.11567871 0.17832616 0.019712813 0.20181945 -0.18915717 -0.39311865 -0.10769472 -0.026699929 -0.36411855 0.110737056 0.015673216 0.37033483 -0.18392241 -0.1467154 -0.15975854 0.021416986 -0.18975165 -0.052420158 0.067917414 -0.00075473374 -0.30164573 -0.01473453 0.25487006 0.06556956 0.06309068 0.01656482 0.34053493 0.16597174 0.06189483 0.40643093 -0.03502927 0.10267035 -0.05345697 -0.13509633 0.2752439 0.28359407 -0.09739004 0.20884743 -0.22543533 0.029698746 -0.41622737 0.13499905 -0.33517778 -0.2897072 -0.21970847 -0.065371834 -0.033213854 0.13946284 -0.07582537 -0.22926995 -0.067796595 0.0071713435 0.060420714 -0.112958 0.14029394 -0.12061423 -0.026006278 0.116718955 0.16792615 0.12821007 -0.05546006 0.010640672 0.119064376 -0.009996172 -0.051520173 -0.28810462 0.052106738 -0.09758184 -0.084827065 0.075602494 0.039026994 0.029268688 0.10148743 0.021517195 0.16736554 -0.19484729 -0.33324084 0.08543404 0.11622802 -0.015535224 -0.27175555 0.05245262 -0.012937231 -0.22157554 -0.21085237
1017 -0.029983792 -0.3126526 -0.31852219 0.11380393 0.052526794 -0.22113341 -0.19673318 -0.25257784 0.12090099 0.30508858 0.08729413 -0.08861752 0.31550488 0.2963983 0.16033283 -0.054421935 -0.25240508 0.3160979 0.28702822 -0.30366218 -0.095965184 0.30730572 0.29471606 0.029252125 -0.04372366 -0.23356502 0.17193066 0.18153644 0.21729279 0.14294337 -0.13329574 -0.34701928 0.20035674 0.1665435 0.15702562 -0.127644 0.23273405 0.03965353 0.18523782 -0.19996442 0.26086348 -0.101247124 0.19583368 0.00024948714 0.09099207 0.013138377 -0.21239805 0.05903476 -0.19916458 -0.18878894 -0.31434056 -0.19172025 0.04256451 0.21045612 0.20519792 -0.20200141 -0.11068733 -0.13699803 0.019416356 -0.09812867 0.17349394 0.112893775 0.17367586 0.06777513 -0.0078088404 0.11699227 -0.07517061 -0.24327505 0.114558354 0.2224096 0.15205441 -0.05378352 0.007012132 -0.102327585 -0.11214875 0.02713478 -0.0744815 0.23872606 0.26079336 -0.12866844 0.053467877 -0.21773797 -0.15384625 -0.4927973 0.008289618 -0.19305107 -0.2113412 -0.014192928 -0.108079776 -0.08242294 0.20496745 -0.15504907 0.0039616507 -0.11160088 -0.1412484 0.21294475 -0.2757992 0.15313995 0.071528636 -0.0135920495 0.03188011 0.17832533 0.171754 -0.027721725 -0.040359292 0.059506066 0.3343042 0.062772565 -0.3072643 0.029021101 -0.31992817 0.09049786 0.23275615 0.15521453 0.08789543 -0.0067641856 -0.045223255 0.082908496 -0.057814796 -0.30115 -0.089608036 0.33676848 -0.08839892 -0.29896414 -0.0971068 0.0728137 -0.2554861 -0.34413525
1879 -0.12314222 -0.18154955 -0.0762497 -0.028677521 0.17361282 -0.197903 -0.031867597 -0.3194505 -0.2810349 0.22676338 -0.01340631 0.13345253 0.081522115 0.3972266 0.0795912 -0.0063476465 -0.4637241 0.2404277 -0.028537352 -0.06443375 0.054369517 0.25170568 0.107015096 0.04104492 -0.043839213 -0.051753394 0.20483735 0.110011645 0.10660527 0.28114215 -0.40344822 -0.17100778 -0.09272571 0.34894904 0.27868104 -0.0149373505 0.08938772 0.115331724 -0.029683078 -0.32760656 0.25259033 -0.17118414 0.30457145 -0.05797352 0.20764722 0.111396715 0.1436689 -0.022720518 -0.33251235 0.026471913 -0.1941841 -0.22795935 0.18723613 0.24064341 0.28134137 -0.27362555 -0.10295961 -0.09453032 0.2837519 0.052751575 0.066343345 0.19812359 -0.13116048 0.050813917 0.049813792 0.002662807 -0.04881453 -0.15944028 -0.017514495 0.30691236 0.064706534 -0.21951362 0.09503236 -0.20352216 -0.07276724 0.111075394 -0.00028406997 0.27425835 0.22039825 0.020108134 -0.021582985 -0.11052455 -0.1351851 -0.38224834 0.11974125 -0.2542428 0.09168553 -0.15516345 -0.092677735 0.1382923 0.070217595 -0.13574062 0.095401235 0.036464732 -0.17641242 0.37379822 -0.12786397 0.09571347 0.029086556 -0.004360517 -0.11024258 0.23156786 0.24726604 -0.062460534 -0.2629273 -0.028900713 0.21562515 -0.16111028 -0.43391886 0.21485633 -0.11166363 0.00014724534 0.11034769 0.032179568 -0.1467817 -0.06854326 0.010288999 0.0695308 -0.1288337 -0.044625796 0.12678997 0.15188351 -0.10114661 -0.2566555 -0.049377646 -0.12991624 -0.21033458 -0.1729497
1902 0.029709078 -0.432706 -0.08060624 0.060240563 0.09336561 -0.20271128 0.04244408 -0.29150522 -0.16364352 0.20980233 0.31797677 -0.11700112 -0.08611773 0.30929035 0.25048298 -0.27486652 -0.16645867 -0.044121195 0.16724706 -0.1891098 -0.013641146 0.21138434 -0.10852387 0.015698921 0.022412764 -0.14121138 0.029667964 0.16622147 0.22113584 0.17717624 -0.084086135 -0.16921577 0.02718396 0.19741632 -0.008729614 0.04693851 0.08392329 0.02811375 -0.06957085 -0.06959792 -0.1635472 -0.22924867 0.31486142 0.1827449 0.10932774 -0.072846234 0.033718698 0.13573895 -0.22430466 -0.33126333 -0.056065045 0.12695645 0.13706061 0.016134333 0.1672267 0.035556734 -0.061884753 0.08355747 0.16178666 -0.061982878 0.018496484 0.21870787 0.0022047546 -0.35984337 -0.17785294 0.37650383 -0.01433367 -0.16219214 -0.13238353 -0.041211434 0.047718428 -0.23388554 0.10338589 -0.18468063 -0.38071376 -0.0110504795 0.0057954774 0.07099805 0.33225802 0.027616039 0.36644402 -0.17848395 -0.11022926 -0.20433217 0.22622174 0.15929112 -0.04443243 -0.09651932 0.05624658 -0.2363542 0.042924114 -0.20074034 -0.13217929 -0.2667936 0.15424302 0.2618782 -0.3487234 0.20454322 0.087822296 -0.05005346 -0.022989694 0.13916335 0.13356237 0.14407337 0.0618328 -0.10454362 0.05590072 0.037203718 -0.19235204 0.43542755 -0.278509 -0.03236567 -0.10017735 0.03291053 0.058846194 -0.12346643 0.15709072 -0.025235338 -0.17026646 0.00082992646 0.14929987 0.10729934 -0.0031370812 -0.22511476 0.2712762 -0.14350697 0.049385905 -0.04057536
1717 -0.15581864 0.036991406 -0.15801513 0.07030593 0.1665532 -0.0013751744 -0.25732422 -0.19020014 0.17965594 0.33152434 0.09860093 0.055044368 0.12278212 0.34355032 0.055781905 -0.02749336 -0.11564307 0.21470046 0.027608337 -0.28796226 0.2734011 0.34430683 0.2829199 -0.0926289 0.040793184 -0.035684444 0.18269467 0.24142027 0.17778842 0.26177654 -0.20952499 -0.09217035 -0.066567324 0.2989512 -0.001332635 -0.056904975 -0.09935603 0.15749164 0.051268958 -0.12912275 -0.07114093 -0.2950014 0.25385004 0.2154164 0.15047446 0.12200616 -0.11757813 -0.22203326 -0.43330592 0.15966372 -0.14727582 -0.3182757 0.12538849 0.3706156 0.43447205 -0.21935482 -0.07798491 -0.19088493 -0.007153559 -0.24536592 0.16519219 -0.26602957 -0.11845798 0.037155665 0.229069 0.2443737 -0.107476406 0.05307382 -0.055641517 0.35425714 0.210425 -0.015589411 0.019094173 -0.2948554 0.035266317 -0.17478442 -0.19650942 0.24473038 0.14209926 0.20543343 0.07009591 0.06974728 0.24314722 -0.41236928 -0.1320109 0.12903178 -0.016944995 -0.16392915 -0.14066903 -0.23145598 -0.02291225 -0.08530957 0.12317121 -0.041205224 0.021410275 0.23911156 -0.01970758 0.11227121 0.23349133 -0.15837114 -0.25409093 -0.008495877 0.18064797 -0.2070387 0.07604376 0.12179269 0.01849937 -0.5284991 -0.45578706 -0.0041487576 -0.018663485 0.06616281 0.1892508 -0.16865617 0.031085404 0.049436104 -0.04722303 -0.19369048 -0.1669492 -0.0077888425 0.13698958 0.055658933 0.03155051 -0.34917986 -0.021270812 0.037920736 -0.17776172 -0.12816228
946 -0.12520833 -0.41830814 0.09071856 -0.29675913 -0.12600946 -0.042447228 -0.31437415 -0.33280239 -0.15675503 0.20221011 -0.39908502 -0.16810809 0.07148364 0.17228052 0.12759288 -0.05662667 -0.42392555 0.18221624 0.088895254 -0.2558687 -0.0015067643 0.030421194 0.120935455 -0.06193277 0.053875305 -0.48474568 0.06398283 -0.0043724766 -0.0667229 -0.021562994 -0.16754434 -0.07281127 0.14782652 0.17488644 0.016130172 -0.15678373 0.10046983 0.051664993 0.14812964 -0.33663803 0.16865191 -0.034477696 -0.18022485 0.34337786 0.23811865 0.34883392 -0.03746813 -0.14072426 -0.33994323 -0.12380961 -0.18148565 -0.45650196 0.14530678 -0.14798872 0.23531316 -0.10336781 0.07276454 -0.24900322 0.13144703 0.020946765 0.33689982 -0.08513757 -0.048330273 0.12694466 0.14057006 -0.07450283 -0.14404576 -0.43459532 -0.018018566 -0.10160938 0.08205532 0.14466892 0.265078 -0.12856029 -0.20085882 -0.07231181 -0.11030173 0.36285955 0.035599537 0.14760898 0.22332309 0.24190049 -0.07914826 -0.26214147 0.0821779 0.017437803 -0.35281134 0.054560997 -0.0835367 -0.010513415 -0.001896393 -0.2581085 0.068644606 -0.15217243 -0.0025053292 0.14202502 -0.117899165 0.18181534 -0.01458724 -0.13308817 0.07203662 0.20140052 0.10486597 -0.1307148 0.044332307 0.00560063 0.24700244 -0.31078443 -0.40307277 0.15560912 0.16710079 0.12813295 0.19446813 0.14537776 0.04050599 0.2014413 0.18686223 0.08019735 -0.20261222 -0.3905319 0.056731835 -0.10028252 -0.0017247795 -0.43331578 -0.11804136 0.20973787 -0.40330192 0.11380748
1716 0.036468346 -0.11194941 0.23105326 0.12921557 0.15659481 -0.8326561 -0.1910423 -0.08921727 0.5912906 -0.24303828 0.15202078 0.5378323 -0.06937982 -0.2783628 0.009818785 0.41768584 -0.14081478 0.058767095 -0.15071985 0.13818644 0.0888156 0.21541254 -0.25924778 0.046086628 0.036228593 0.094901554 0.03150082 0.19465055 0.068954445 0.34569648 0.07215493 -0.13529311 -0.093142234 -0.059636064 -0.2515771 -0.14333929 -0.18545999 -0.07607346 -0.27243254 -0.18472768 0.04990919 0.1368598 -0.096329354 0.55212617 0.5709557 0.27755648 0.010954121 -0.26414743 0.18820721 -0.05611342 -0.4391904 -6.635297e-05 0.6499206 -0.21165773 0.28352365 -0.09667808 -0.03618956 0.39768407 -0.22042508 -0.12627089 0.13906293 -0.19751567 -0.55144614 0.21555829 -0.19507949 -0.08477502 -0.14819178 -0.18514577 -0.5757975 0.06435944 0.10226063 -0.3921623 0.20914482 -0.19966666 -0.41374597 0.06645984 -0.5923805 0.16975737 -0.33153126 -0.07005169 0.16130236 0.23250309 -0.032294527 0.074432954 0.053466134 -0.36535442 -0.24290165 0.23785962 -0.24968125 0.30035606 0.082981244 -0.0011687237 0.19039294 -0.15937579 -0.20062384 0.017174074 -0.4499367 -0.23672158 0.42530832 -0.111126944 -0.20790702 -0.07990048 0.5565924 -0.23190479 -0.30756837 -0.2959432 -0.07606142 0.19102463 0.20447673 0.04832094 -0.42810732 -0.048812803 -0.25379282 0.2182085 0.27552062 -0.12718393 -0.075907044 -0.31873974 -0.004669997 -0.280536 -0.35298446 0.6591749 0.3421454 0.3749474 -0.00657897 -0.10937065 -0.070882656 0.27364337
1431 -0.17511494 -0.24890332 -0.12932917 -0.040508077 0.32364047 -0.19095334 -0.18718822 -0.24784946 -0.20862916 0.107898 0.2753341 0.0656795 -0.016463978 0.31464925 0.17428973 0.22316752 -0.20553724 0.17808877 0.28409934 -0.11706855 0.11307367 0.39023745 0.19845548 -0.11382374 -0.04193878 -0.46163362 0.38311058 0.054382924 0.003536466 0.1414578 -0.38283873 -0.1931424 -0.031155946 -0.023559751 0.36533365 -0.041569863 0.17001727 0.0746543 -0.1692883 -0.19553973 0.10035436 -0.23987482 0.16677918 0.21828303 0.12290495 0.15189712 0.12998992 -0.05784502 -0.20528632 0.15555812 0.12062376 -0.006888886 0.23178306 0.15082617 0.32892865 -0.20200321 -0.027561886 -0.33130923 -0.10888657 -0.110249236 0.20298032 -0.033807825 0.19667089 -0.08523328 0.110815726 -0.080923915 -0.00918067 -0.4117491 0.29387036 0.11782601 0.29793724 -0.088479705 0.33907476 -0.24198975 0.03530244 -0.30149326 0.14090344 0.12560856 0.12510896 -0.13024825 0.07318049 -0.04883806 0.04248792 -0.43647686 -0.09801358 -0.06791198 -0.2378202 -0.085916534 -0.08171253 0.07964843 0.0676546 -0.2954135 0.10072919 -0.33066434 0.050322406 0.15876779 -0.11033957 0.14965008 -0.012434481 -0.23497511 -0.20189084 0.13415302 0.31081498 -0.16243763 -0.049299117 0.08753023 0.2998089 -0.1303142 -0.22600569 0.0685542 -0.037316043 -0.033265222 0.10331421 0.05481072 -0.1064606 -0.08296881 -0.07012585 0.050996132 0.078213006 -0.38181025 -0.072578244 0.13868423 -0.29368195 -0.25605524 0.07868441 0.06565028 -0.21693635 0.0035978707
1390 -0.24458867 -0.21851069 0.051827066 -0.14147434 -0.07286507 -0.060778826 -0.03399581 -0.23809475 -0.0812483 0.36211017 0.03069442 0.17541032 0.25327644 0.11760418 0.15327154 -0.0813329 -0.1784328 0.20341727 0.028972143 -0.32811502 -0.052992772 0.20160618 0.10803743 0.120879695 -0.108302385 -0.1805492 0.30079702 0.012585941 0.19864647 0.1811605 -0.06738526 -0.20923132 0.14226513 0.16140358 0.10736009 -0.07190268 -0.06774389 0.14982045 -0.101770334 -0.23483104 0.10344012 -0.2227729 0.15732524 0.11172629 0.013438346 0.00067345833 0.014782178 -0.09232476 -0.32784477 -0.023281127 -0.11879055 -0.13554642 0.13219899 0.10542815 0.1999165 -0.22542632 -0.18057275 -0.15223923 0.1838742 -0.11908621 -0.08061309 0.0806543 -0.2096778 0.021421848 -0.03831215 -0.29506972 -0.061948452 -0.14432448 0.0860991 0.4059169 0.17617765 -0.014353475 0.09259039 -0.22123085 -0.086281106 -0.13271984 -0.0015418442 0.43085527 0.3138028 0.047775447 0.06710725 -0.0068648015 -0.16226624 -0.42457896 0.14379604 -0.13479319 -0.34896713 -0.280216 0.04093996 -0.17214093 0.06033075 -0.33645552 -0.013515332 -0.3532866 -0.1036202 0.32658195 -0.15580072 0.12297842 0.12662034 -0.16854781 -0.14933473 -0.01679231 0.003604512 0.107315056 0.014695533 -0.06172181 -0.041001994 -0.18513454 -0.23996387 -0.006975332 -0.031866014 0.08431194 0.18606351 0.09676847 -0.0055141416 -0.009524308 0.12323317 0.13498023 -0.18964279 -0.08293306 0.0020182726 0.2638644 0.056806467 -0.5516863 -0.103610344 0.00690736 -0.13069366 -0.13911855
1799 -0.073465236 -0.1929002 -0.14184283 0.01320878 -0.039554708 -0.34862545 -0.18424015 -0.3497528 -0.20363991 -0.069871284 -0.093680196 -0.07700337 0.11148988 0.43502155 0.07128385 0.039437216 -0.17746699 0.3115014 0.30131516 -0.060560673 0.11681241 0.30968887 -0.0030678096 -0.05408218 -0.013670671 -0.26674065 -0.05683882 -0.046344545 0.15613674 0.041433096 -0.28924322 -0.27116832 0.22797157 0.1344121 0.17263624 0.054214027 -0.105938934 0.13484219 -0.009720368 -0.17294057 0.2786736 -0.34545004 0.23111983 -0.10974165 0.19603813 0.15122013 0.06398737 -0.052417357 -0.16093744 0.018843163 -0.18662004 -0.25475204 0.13993718 0.03581447 0.38969576 -0.11147139 -0.17774554 -0.096393965 -0.24500395 0.073018454 0.094773985 -0.014009742 0.066231914 -0.14986499 0.092221774 0.2561167 0.018380197 -0.29535863 0.08638356 0.22968131 0.30636245 -0.008960805 -0.058101106 -0.2745564 0.024228524 -0.04449411 0.014217184 0.37462974 0.15701213 0.037734598 0.08163287 -0.043731682 -0.07652179 -0.4054613 -0.16838045 -0.16439463 -0.10975719 -0.2220636 -0.02043284 -0.002625345 0.13697729 -0.37326992 0.10186763 -0.21660458 -0.03368064 0.26569635 -0.20387399 0.1446423 -0.09429965 -0.023102397 -0.057219416 0.17935215 0.20278877 -0.13765684 -0.057211425 0.13682099 0.14054006 -0.04798238 -0.2943252 -0.0015691669 -0.15928888 0.24011171 0.1460063 0.061127163 -0.011452859 0.12025624 0.25998154 0.09580234 -0.14397144 -0.08182008 -0.0326402 0.3593558 0.08115126 -0.4097863 -0.16152644 0.048637327 -0.119255394 0.02098392
1662 -0.049437698 -0.28223127 -0.1794636 0.17751047 0.2618175 -0.2266461 -0.17235574 -0.33794373 -0.2212015 0.08376529 0.026562681 -0.13058646 0.25345367 0.3690641 0.39694023 0.037307847 -0.3220012 0.15429196 0.12176689 -0.09761191 -0.019991893 0.24641974 0.06047839 -0.01172573 -0.082189195 -0.17649269 0.17829578 0.1918922 0.1823677 0.17317337 -0.2880315 -0.26172218 0.14418027 0.18932448 -0.013515814 0.10121879 0.07733847 0.013858635 -0.0652395 -0.1994254 0.096106395 -0.16096865 0.18774725 0.13626656 0.038454108 0.12559891 0.15969533 0.024650246 -0.2640181 -0.10125582 -0.19939119 -0.30007803 0.09656346 0.12802684 0.31876817 -0.1398658 -0.17321494 -0.095558755 -0.002080984 -0.047480814 -0.018844053 0.113215186 -0.070614696 -0.02027518 -0.15991361 0.17685041 -0.15693885 -0.43643022 -0.021120204 0.22739998 0.30781522 -0.03514123 0.002912827 -0.27653742 -0.05294744 0.00058041245 -0.014439134 0.35433134 0.11436585 -0.037275344 0.037129525 -0.27205953 -0.055896018 -0.31249732 0.036169488 -0.18903245 -0.18357262 -0.2922657 -0.1384466 -0.071017645 0.12235909 -0.076596856 0.07844061 -0.27940947 -0.09198964 0.46120605 -0.09289315 0.20635411 -0.06114319 0.038767282 -0.16938864 0.07376837 0.20731503 0.05009528 -0.06532892 0.13410322 0.21202587 -0.2639288 -0.27541393 0.07280696 -0.13630623 0.12151868 0.14858878 0.15368818 -0.056044053 -0.12764503 0.09976274 -0.04419656 -0.105086856 -0.08697414 0.100086905 0.13792959 -0.033375397 -0.21149325 0.12242613 -0.08399488 -0.1750626 -0.15029125
1192 0.026144499 -0.1405422 0.11868634 0.23164737 0.11930017 -0.40502024 -0.36585033 -0.1460589 0.3943653 -0.14368556 0.40727663 0.5104114 -0.13724306 -0.0677373 0.15538009 0.38571888 -0.042815797 0.08063115 -0.098758295 0.005328864 0.09636459 -0.015453393 -0.11725376 0.36495665 -0.15243743 0.102580875 -0.025510112 0.44659448 0.093970366 0.16311468 0.17899512 -0.16371436 -0.19841231 -0.09923996 -0.20167188 0.010305373 -0.28033873 -0.3806429 -0.46381307 0.046329606 0.11212785 0.09012729 -0.43631193 0.17680252 0.3840317 0.08113284 -0.07272793 -0.32980758 0.1307831 0.15888825 -0.35581395 -0.45109856 0.7723687 -0.3443452 0.31381655 0.45774037 -0.11228402 -0.006918767 -0.22359593 -0.06259104 0.29148555 0.10462182 -0.30636665 0.025969015 -0.48913655 -0.20187251 -0.026861463 -0.09048977 -0.26860797 0.27025577 0.052856535 -0.30066824 0.073457375 -0.08239153 -0.14261107 0.082738176 -0.65451396 -0.024348669 0.074698016 0.11516283 -0.1444107 0.23383017 -0.06947518 0.03090922 -0.2116106 -0.4890783 -0.10533709 0.16661479 -0.16996251 0.31046763 -0.20618686 -0.14210632 0.18530378 -0.03367976 -0.0681059 -0.12918448 -0.48191506 -0.11725592 0.3091844 -0.061864633 -0.23444092 -0.08059045 0.2657504 -0.22760214 -0.42962724 -0.5533475 -0.06261465 0.18525907 0.13001806 0.018996596 0.0042223837 0.02121158 -0.113531 0.09924729 0.3005665 0.11734516 -0.16187638 -0.36324286 -0.061041873 -0.17010617 -0.22360499 0.29914457 0.10436252 0.114409536 -0.12028405 0.051252265 0.09467485 0.36324292
1714 -0.07849806 -0.015872102 -0.19569626 -0.09515383 0.008112349 -0.1577139 -0.27644435 -0.33631805 -0.10034911 0.23782426 -0.06766104 0.13888028 0.09181248 0.30258036 0.08563941 0.17032158 -0.2906296 0.27052307 0.21703452 -0.20257175 0.08898276 0.30655053 0.114510275 0.09285368 0.114979856 -0.062157854 0.28467047 0.06917132 0.20218773 0.22144234 -0.15285797 -0.23638551 -0.061138973 0.18795022 0.16329643 0.039975233 0.00591453 0.011246122 0.058814354 -0.13272052 0.29810274 -0.14411901 0.07345621 0.12408208 0.22469541 0.08339977 -0.16976139 -0.25841478 -0.27410665 -0.048691597 -0.25740558 -0.1463545 0.058743995 0.20668279 0.17120317 -0.24728133 -0.10758052 -0.38672033 -0.0006443327 -0.24156001 0.003228396 -0.037843708 -0.081200086 -0.12713507 -0.027144438 0.20811956 -0.059691574 -0.18299066 -0.053884592 0.2256514 0.12470909 -0.16599526 0.30186057 -0.44007185 -0.06553616 -0.09945595 -0.03449988 0.1224415 0.054637484 0.049809173 0.107831694 0.0970854 0.00022552285 -0.28793532 0.1735198 -0.07432944 -0.12941189 0.062456757 -0.33543557 -0.13202056 0.085770585 -0.19274892 0.08534873 -0.3010125 -0.006936379 0.27493 -0.13935074 0.18218736 0.08751576 0.109075814 -0.126393 0.13790622 0.1503507 0.022597676 -0.039259963 0.28049985 0.119811825 -0.13942997 -0.2677268 0.18824176 0.083362386 0.17987895 0.20796654 -0.10530657 -0.1156192 0.05298192 -0.0021710081 0.18372823 -0.06941947 -0.11059262 0.05119372 0.22252478 -0.264882 -0.4716534 -0.08251777 -0.1533635 0.063729525 -0.20729777
1471 -0.07881693 -0.17194253 -0.21105625 0.035634134 0.12148855 -0.25673595 -0.2534865 -0.1925504 -0.23050834 0.057281844 0.04651272 0.14300978 0.11907705 0.4940805 0.2649416 -0.18043861 -0.33145452 0.30527636 0.008821031 -0.22139838 -0.043321345 0.19865365 -0.005070499 -0.16676547 0.024755664 -0.2954865 0.31837064 0.20003714 0.04874904 0.1906783 -0.13790023 -0.04527329 0.030283963 0.023389455 0.25008637 -0.03040091 0.22362694 -0.064894535 0.183101 -0.0331229 0.33294922 -0.046076708 0.1648572 0.17895265 0.2632257 0.14182614 0.053575683 -0.13256277 0.03838706 0.060305975 -0.3041945 -0.18785782 0.24114074 0.17955238 0.14167815 -0.35600117 -0.15993002 -0.24202171 0.24516591 -0.2699483 0.06828616 0.20451142 0.06369276 0.033697765 -0.062959686 0.1844432 -0.04112538 -0.30813897 -0.1596628 0.27703464 -0.000568163 0.0025871631 0.18023558 -0.31676462 0.1594409 -0.2587031 0.07914756 0.18379858 0.3927429 -0.025755027 0.07868016 0.024003288 -0.15651576 -0.25813484 -0.012137884 -0.0770425 -0.054464336 -0.2928242 -0.044455618 -0.017023208 0.1254548 -0.24719456 0.20715433 -0.058274243 -0.16963574 0.333177 -0.29687485 0.2985574 -0.19956769 -0.10872287 -0.33899093 -0.0735608 0.115260385 0.036969155 -0.18173158 -0.13021493 0.19137079 -0.12435183 -0.3909637 0.19027357 0.038148805 0.0004955717 0.26064858 0.0030217434 -0.07037875 -0.0029643576 0.0075174095 0.00370499 -0.020408485 -0.25916997 0.16217254 0.19010553 -0.0038933975 -0.39327294 0.27508035 0.32936355 -0.1311053 -0.11516819
353 0.19895948 -0.35234988 -0.0735981 -0.021429412 0.16710229 -0.71020013 -0.0036316817 -0.26600817 -0.4219922 0.01120404 0.22881702 0.32335722 -0.1468475 -0.081751235 0.02545226 0.11213642 0.22217248 -0.10826288 -0.2080113 0.06907862 -0.16402431 -0.05375873 -0.31868643 0.04297679 -0.011172158 -0.016032293 0.30892035 0.16315025 0.10379881 0.45963517 -0.02200507 -0.108200714 -0.26407468 -0.21974325 -0.16931276 -0.34155637 0.22564588 -0.0031209562 -0.11067422 -0.111753136 -0.37922564 0.06349752 -0.29593346 -0.09335609 0.3643778 -0.0026861022 0.047221225 0.07026803 0.07567907 -0.025318697 0.384079 -0.08797007 0.035069216 -0.13952842 0.08086555 0.22284178 0.070325054 0.24100858 0.010571174 -0.033582836 0.40776908 0.032809693 0.019547515 -0.19446163 -0.04187165 -0.1363915 0.13306846 0.14625357 -0.18388033 -0.013953647 0.25309917 0.028547188 0.068602614 0.25347227 -0.1146972 -0.05572955 -0.28062087 0.030154634 0.19422263 0.31369174 -0.2301809 0.1561316 -0.2778704 0.16305107 -0.04544107 0.16816032 -0.43158984 0.2190951 0.05354169 0.32468072 -0.100945175 -0.06686224 -0.44218946 -0.068657145 0.19151561 0.04422937 -0.22107117 -0.014776449 0.31159273 -0.15115726 -0.31535214 0.1618627 0.39037243 -0.036229417 -0.11310641 -0.22433746 -0.3158258 -0.087504305 0.048492547 -0.047722913 -0.1983928 -0.17798017 -0.04454417 0.24123943 0.2627645 -0.17525505 0.21532807 -0.4405261 -0.008496802 -0.050434753 0.19481988 0.2892213 0.17193316 -0.47210395 0.20351496 -0.10997995 -0.27215788 -0.12007346
641 -0.046178382 -0.032001026 0.07433738 -0.08525255 0.13603096 -0.6032625 0.11054725 -0.3851095 -0.117320634 0.019136764 0.12147554 0.17254321 -0.1737281 -0.011060815 0.2917056 0.04554923 0.111958526 0.22388737 -0.24634455 -0.00995871 0.24404564 0.14221618 -0.09578895 0.15538119 0.09830889 0.06270864 0.49142462 -0.18497352 0.17551878 0.2443393 0.15904821 -0.0038564804 0.25930727 -0.45136827 0.024919778 -0.3522961 0.16972813 0.16962865 -0.015710397 0.20813866 -0.14735346 -0.13147414 -0.08404424 0.4002107 0.43976805 0.21027224 -0.13374993 0.029487379 0.2675621 0.10449906 0.109213695 0.037453406 0.3961073 -0.271895 0.00086031394 0.102096274 -0.14862205 0.09648952 0.019984655 -0.09449731 0.2813877 -0.22446333 -0.39541516 0.0122105265 -0.4156448 -0.1758729 0.21938273 0.031544454 -0.38200355 0.19923283 0.042808887 -0.102226436 -0.1615973 0.37513548 -0.065593116 0.19921073 -0.17461221 -0.010894728 -0.1145007 0.14420468 0.03229336 0.18037136 -0.2327962 0.00036524265 0.29047704 0.08475859 -0.129433 0.40986776 -0.15711719 0.4290036 -0.02911994 0.08114259 -0.36933368 -0.14119783 0.1846027 -0.23044103 -0.45818684 0.09180359 0.26051867 0.08995693 -0.088047385 -0.23111698 0.25630277 -0.0893953 -0.11233334 -0.33698854 -0.27571645 0.14016818 -0.2972684 0.019862661 -0.16724585 -0.42585376 -0.30806068 -0.03095246 0.08312244 -0.040172473 0.037433054 -0.27697507 -0.19147612 0.2087262 -0.13823508 0.25779253 0.16314617 -0.30620164 -0.11320772 -0.15633619 -0.18597314 -0.16474737
1612 -0.010535615 -0.2218838 -0.059765805 -0.0077165216 -0.061659217 -0.22053438 -0.10718261 -0.11904328 -0.1766035 0.14341432 -0.28580233 0.0006033461 0.15456012 0.26601383 0.07400727 0.095671535 -0.12743211 0.18952529 0.25095755 -0.028713886 0.09117539 0.3834605 0.09410204 -0.023215426 0.049093466 -0.2237683 0.1870117 0.047629002 0.14696471 0.11656428 -0.18354729 -0.25629315 0.11171229 0.13886276 0.038469065 -0.034008287 -0.08215166 -0.008261105 0.061861638 -0.20694934 0.31095937 -0.25146484 0.00718183 0.14073956 0.25512153 0.11128764 0.16727924 -0.09339266 -0.13584113 0.013976111 -0.29455718 -0.21713382 0.31012514 0.13417855 0.4181006 -0.2074437 -0.23627248 -0.028432926 0.08909391 -0.16581544 0.03643982 -0.18373546 0.1802411 -0.17811267 0.3848172 -0.031562682 0.112101704 -0.07793275 -0.12344789 0.0601703 0.20087232 -0.20063663 0.048576847 -0.12963961 0.11766928 -0.3435529 -0.36608377 0.4033177 0.121055454 0.056828633 -0.023378145 -0.13545537 0.24895763 -0.2647525 -0.075966954 -0.14639783 -0.31043407 -0.28472817 -0.016770527 0.031242514 -0.049800858 -0.13879365 0.24231131 -0.29941225 -0.0038103408 0.30259493 -0.13878393 0.19264688 -0.004049548 -0.10527889 -0.22485149 0.21962401 0.30403802 -0.050519288 -0.17581889 0.21031192 0.31180596 -0.14080766 -0.3771701 0.27297604 0.013164192 0.100914165 0.17295258 0.18944126 -0.19221039 0.04958113 0.015676802 0.28204927 -0.07254995 -0.16440752 0.028392978 0.10370373 0.012872115 -0.55795115 -0.19167161 0.18257147 -0.094923966 -0.011409573
1893 -0.011129149 -0.056014787 -0.037947748 0.075172216 0.20023836 -0.8546585 -0.13602677 -0.18067144 0.42839003 -0.12298945 0.38738295 0.43452504 -0.12042021 -0.23404686 -0.20307156 0.50226915 0.0076038605 0.1855529 -0.2997283 -0.15652405 -0.050105583 0.023338346 -0.10425715 0.278854 -0.17334017 0.05095207 -0.11459129 -0.028079975 -0.032783862 0.4913237 0.031227458 -0.07382959 0.11486991 -0.13639942 -0.34339854 -0.14311638 -0.0731722 -0.005217939 0.0054995855 -0.08071646 0.058743563 -0.17058721 -0.36401162 0.113766946 0.24792615 0.1247169 -0.52672035 -0.27923515 0.105097145 0.08385034 -0.020299133 0.022717455 0.45858967 -0.14471963 0.5340509 0.22876993 0.0775401 0.36920586 -0.17850286 -0.041379638 -0.0062294574 -0.001882586 -0.122472286 -0.14988576 -0.36169493 -0.20413175 0.16381757 -0.036471903 -0.67962784 0.13451248 -0.13599794 -0.27913323 0.07095145 -0.07428867 -0.041391395 0.2566922 -0.5008502 0.027946975 -0.032197002 -0.034836926 -0.02734409 0.1214956 -0.06431035 0.12507166 -0.19155253 -0.28306496 -0.3180667 0.16178356 -0.04482061 0.022753589 -0.055334218 -0.11246345 0.094795994 0.0219907 0.008753204 -0.018928915 -0.34960562 -0.03922633 -0.107044585 0.084022224 -0.15059432 0.20699318 0.3808949 -0.095992744 -0.5247302 -0.4750948 -0.2752333 0.45503053 -0.037679955 -0.14085187 -0.047906905 0.04401633 0.025617385 -0.079217866 0.67927045 -0.08935121 -0.05661055 -0.252704 0.008713281 -0.024832282 -0.23064807 0.13441552 0.11312493 -0.22666574 0.22120531 0.0867057 -0.20104194 0.24044305
1663 -0.13531706 -0.047648434 0.0105209295 -0.09653675 0.32793713 -0.051945094 -0.1544071 -0.10680755 -0.016003944 0.41789263 0.055126876 0.11429509 0.2189106 0.229395 0.14524436 0.040626932 -0.23731211 0.057572268 0.10428834 -0.13923584 0.118116245 0.21801198 0.101464175 -0.04723833 -0.023501495 -0.18273523 0.07550992 0.10920748 -0.12154588 0.006961275 -0.16199914 -0.22588632 -0.07639627 0.13427143 -0.003142471 -0.008421981 -0.045714933 0.097643234 0.16020216 -0.2017644 0.4844367 -0.343219 0.0073304446 0.05087684 0.36497656 0.20478506 0.011738357 -0.18236409 -0.25634623 -0.15250966 -0.08460379 -0.22333245 -0.099238135 0.075467475 0.22688349 -0.32654408 0.10652386 -0.2702256 -0.112892896 -0.1008459 0.079944156 -0.23016296 0.32808337 -0.14026232 -0.0016785174 0.22682711 0.10625836 -0.15114285 -0.058676396 0.4746104 0.32036918 -0.080855906 0.09960967 -0.19739394 -0.063635565 -0.29813632 -0.3807437 0.16092978 0.12604496 0.05073668 0.15990975 0.14163013 0.2575631 -0.33764318 0.14937867 0.09313078 -0.114647225 -0.20812888 -0.07891607 -0.009493139 0.20011751 -0.2862652 0.055895958 -0.16294125 -0.055200286 0.049818408 -0.16335009 0.07176357 0.2197955 -0.007051084 -0.19123924 0.011824916 0.35075852 -0.059550915 0.1328706 0.03368838 -0.017039832 -0.13790917 -0.50102836 0.2640468 -0.1600485 0.15321182 0.32105616 -0.059585825 0.07158093 0.10049847 0.25296414 0.073242955 -0.24755609 -0.004957711 0.017907206 0.24935353 0.0014210353 -0.39184165 0.044423662 -0.1369208 -0.084504806 -0.22897884
1199 -0.1328016 -0.17627354 -0.17543708 0.08082968 0.07190764 -0.21254025 -0.19255142 -0.4110228 -0.09239824 0.19228525 0.03836616 -0.06527142 0.047528204 0.33411542 0.044993117 -0.036429048 -0.18637492 0.2435101 0.27723023 -0.19614604 0.21540616 0.25336823 0.10534016 -0.036630977 -0.050156508 -0.021085668 -0.026393948 0.2172516 0.19621357 0.015684953 -0.31595212 -0.1883699 -0.0826519 0.13214844 0.11889989 -0.14797981 0.063037515 0.00832419 0.049672224 -0.31323838 0.21397452 -0.0681847 0.13474584 0.04409086 0.03811322 0.0985608 0.14448835 -0.15368076 -0.11098746 -0.10246222 0.0448013 -0.21476221 0.11664103 0.14869978 0.13803333 -0.010986854 -0.0628323 -0.110071644 0.14746782 -0.030944418 0.14974101 0.094698235 0.045224234 -0.16605283 0.094022535 0.16707848 -0.008470844 -0.40170327 0.18344821 0.35322088 0.23220797 0.06290731 0.05356105 -0.024486905 -0.061550096 -0.15599862 -0.14702258 0.14758353 0.12200429 0.021726474 0.029137967 -0.001550556 -0.04838106 -0.53168446 0.19372806 -0.10932763 -0.11253756 0.0019204995 -0.23817769 0.0501105 0.090762086 -0.30105716 0.015330878 -0.1941816 -0.23508072 0.37167236 -0.21617003 0.06381805 -0.094304085 -0.14194876 -0.08206881 -0.0033293457 0.30531007 -0.05157634 -0.116060324 0.0009139379 0.24225266 -0.116983585 -0.31790817 0.11561013 -0.10919295 0.11647605 0.4464256 0.031643197 0.14475209 -0.023334783 -0.031831495 0.25116268 -0.08836937 -0.35923082 0.030964306 0.14685939 -0.0076110703 -0.41760227 0.06976317 0.17099102 -0.21403703 -0.09413466
1125 -0.107988365 -0.3286834 -0.092035644 0.045474812 0.30657852 -0.1952033 -0.19520126 -0.1028584 -0.13204335 0.09494396 0.13657391 -0.10035645 0.23286268 0.45184466 0.166216 0.34207606 -0.38985014 0.20190032 0.09914724 -0.08004292 0.08610526 0.44743606 -0.22901438 -0.0118393665 0.110695265 -0.080237515 0.3986794 0.174867 -0.09708949 0.21296197 -0.31731746 -0.20998655 0.16204214 0.24939519 0.13726696 -0.055723652 0.05550618 -0.0626616 0.18023543 -0.21198402 0.1886576 -0.10170653 0.22161359 -0.030371174 0.1631972 0.14476381 0.01900099 -0.043545526 -0.2032105 -0.056734912 -0.10772714 -0.2796565 0.18648542 0.42934993 0.23258464 -0.32998425 -0.08469837 -0.04958602 0.10902703 -0.11443231 -0.07203649 0.13694753 -0.104017556 0.030129444 -0.11493428 -0.10178481 -0.15307999 -0.19800112 -0.114213735 0.28317368 0.04313909 0.21358328 0.18299878 -0.18248886 -0.023645986 0.18978256 -0.15571477 0.20453885 0.3384106 -0.12762846 0.07711032 0.24877481 -0.0031956262 -0.39378974 -0.029322773 0.103961214 -0.13829441 -0.12582885 -0.17369282 -0.021933988 0.11983876 -0.44330448 -0.009355814 -0.32869884 -0.097149074 0.38808295 -0.17998812 -0.095310315 0.00041211088 -0.15379971 -0.3080456 0.08555161 0.20822617 0.2080294 0.10699676 -0.05069981 0.27432668 0.13396814 -0.29644153 0.15694965 -0.19682208 0.05380525 0.17941357 0.026753386 -0.0042352113 -0.14746763 -0.092314966 0.45676765 0.018131753 -0.1084256 0.18855569 0.23614044 0.14361344 -0.39481762 -0.061799284 -0.06691017 -0.15779041 -0.23471805
1665 -0.19612391 -0.34084496 0.006448088 -0.17582211 0.30044466 -0.2188388 -0.1742777 -0.4760263 -0.037701335 0.08777374 0.19015278 -0.22857487 0.3613664 0.49188173 0.2454083 -0.14096783 -0.11514808 0.10058461 0.06532208 -0.060377408 0.16376968 0.107406855 0.17937993 0.16873103 0.042445462 -0.19960384 0.44486097 0.15205325 0.11282238 0.15422206 -0.20962732 -0.1710068 -0.06463678 0.29465201 -0.02082243 -0.08954102 -0.022543147 0.12489075 0.0051615885 -0.06914756 0.08286712 -0.04379133 0.26441458 0.07623832 0.08479799 0.07055214 0.16809778 -0.1654554 -0.14813296 -0.1298931 -0.18928464 -0.3519284 0.17452158 0.06217185 0.11946423 -0.1767456 -0.15517431 -0.21853934 0.09248585 -0.2539647 -0.017387122 0.1807159 0.09753174 -0.090689756 -0.0023386108 0.04476316 -0.029839925 -0.25219655 -0.11346522 0.17292257 0.02489667 -0.05077371 0.053047005 -0.22326918 -0.1678412 -0.024617288 -0.016574532 0.14643899 0.14063308 -0.08609552 0.0982088 0.016045688 -0.25239894 -0.6930016 0.24609599 -0.22819482 -0.14507936 -0.0962676 -0.12176264 0.022628484 0.259529 -0.09454676 0.17051564 -0.22896203 0.007998169 0.32955286 -0.2710408 -0.016573338 0.16141464 -0.20721415 -0.17233999 0.2541793 0.16948397 -0.027862335 0.04788779 -0.058334768 0.20501195 -0.17464362 -0.34385955 -0.007961773 -0.13920823 0.02441971 0.11681352 0.099646434 -0.042862307 -0.109814376 0.1750025 0.31078538 -0.032310594 -0.076008886 0.11288703 0.20152998 -0.17782049 -0.2510601 -0.20054923 0.086015776 -0.17844556 -0.07165588
1277 0.10632804 -0.04867491 0.14734289 0.11894728 0.17602116 -0.7444721 -0.10413969 -0.22893779 0.6282019 -0.054269698 0.24527268 0.46402356 0.06857959 -0.5437673 -0.08081215 0.4408385 -0.11064661 0.0030147093 -0.24171545 0.30595046 0.1844577 0.03419027 -0.11122132 0.09713555 0.03739627 -0.15847433 0.03603776 0.2749465 0.29077023 0.29215577 -0.054679953 -0.27710444 -0.30371138 -0.11701086 -0.15222791 -0.19225699 -0.15959857 -0.022887086 -0.16613317 -0.12808575 0.20253791 0.12795939 -0.23903276 0.3957554 0.5458335 0.31869137 -0.094951436 -0.31422186 0.25115103 -0.13690583 -0.27223238 -0.037676893 0.5433079 -0.2157429 0.39050084 0.24687418 -0.0653508 0.22602619 -0.029373549 0.028277714 0.055805728 -0.00018769377 -0.27018675 0.16677022 -0.447877 -0.21640202 -0.018060146 0.016124725 -0.38069996 -0.06110201 0.07579958 -0.29658282 0.20378862 -0.22106002 -0.35608265 0.13521567 -0.51476634 0.08058116 -0.07339852 0.027473599 0.2003904 0.32732415 -0.21563874 -0.09581142 -0.21399412 -0.52614564 -0.25463322 0.33171374 -0.09136044 0.30409744 0.004300094 0.04668606 0.2188872 -0.11119982 -0.2188862 0.082665585 -0.111985296 -0.013071956 0.31139135 -0.024430566 -0.21341854 -0.12541682 0.34835362 -0.33186144 -0.34970194 -0.5459712 -0.0065734885 0.21586862 0.14142458 -0.057086963 -0.37930307 0.17152536 -0.20203607 0.08113403 0.41470772 0.04590502 -0.079312645 -0.3362025 0.0015786934 -0.18478951 -0.42234465 0.4310685 0.14495789 -0.003587795 -0.13648948 -0.25455987 0.012757404 0.2211897
1456 -0.14418168 -0.34577677 -0.05246321 -0.09487169 0.16461034 -0.087074675 -0.0605767 -0.14600448 -0.10643269 0.18032174 0.045989525 0.0644064 0.09257746 0.35092556 -0.0371188 -0.17367122 -0.15692382 0.22394215 -0.1265668 -0.24797222 0.3568687 0.19000843 0.110784985 0.050201323 0.09387712 -0.2458767 0.3395149 0.15522937 -0.008458299 0.15247756 -0.18701455 -0.02735187 0.025310716 0.22655652 0.0560317 0.21262504 0.14740881 0.0403261 0.16697118 -0.15171894 0.25014213 -0.25250053 0.10138527 0.15040661 0.1512765 0.1835419 -0.045776285 -0.05746321 -0.19224809 0.10751606 -0.05578219 -0.050210673 0.21477188 0.13834262 0.10995445 -0.16697477 -0.1524053 0.007724078 0.13722757 -0.26270002 -0.08468307 0.19895878 -0.04731421 0.10641243 -0.1646435 0.0021710529 -0.08760716 -0.37601182 -0.03766608 0.51949894 0.10657343 -0.0848936 0.12511355 -0.3774158 0.17954381 -0.38901636 -0.041155245 0.42465666 0.065317705 0.020695185 0.21300665 -0.24486233 -0.24880168 -0.6872929 0.11335425 -0.16344067 0.055460557 -0.2695551 -0.11062826 0.049578246 0.21133317 -0.30031514 -0.03383125 -0.15041539 -0.30620492 0.48774633 -0.121611886 0.16946708 -0.060723733 -0.16880327 -0.2629913 0.04815308 0.1909779 0.25741136 -0.1900808 -0.040133692 0.29273537 0.11364807 -0.22597119 -0.030701663 -0.06650315 0.06988358 0.05537147 0.058434285 -0.02434286 -0.014364354 0.3574918 -0.04775333 -0.021972997 -0.13700518 0.111734584 0.11878087 0.188575 -0.33455485 0.11151387 0.13146715 -0.11618477 -0.07013931
