341 128
272 0.087457664 0.13779503 0.034286324 -0.077613115 -0.09002332 0.06288807 0.022418082 0.024773192 0.13114242 0.0861838 -0.31582224 -0.088403754 0.2423238 -0.091102324 0.109422304 -0.020853203 0.05942525 0.105344534 0.07246691 0.085301206 0.082748115 0.07747712 0.049584083 -0.22351621 0.07794133 0.0113404775 -0.06584091 -0.03168864 -0.15274423 0.0064831222 0.045614485 -0.06642353 0.12349619 0.08778924 0.00892149 0.036322013 0.17562403 -0.2654208 -0.1713332 -0.017341202 -0.14778782 -0.08994546 0.03007712 -0.122161955 0.09393627 -0.19826278 0.17378971 0.22924143 0.08189693 -0.06426953 0.074712865 0.025456898 -0.041636173 -0.07213457 -0.1607838 0.06254102 -0.11301693 0.02823452 -0.08913247 0.18907173 0.037503317 -0.09583419 0.11135109 0.07378 0.16621663 0.22149585 -0.048325427 0.24777557 0.17455904 -0.18860267 0.10547344 0.097827986 0.024782125 -0.07734131 -0.041857637 0.06645494 -0.08007743 -0.013744877 0.2176536 0.25646266 -0.12337611 -0.15865313 0.10357373 -0.13533236 -0.101165995 0.05328109 -0.11959682 0.14637281 0.12639907 -0.09139526 -0.02647025 0.0061270352 0.062780686 -0.074275166 -0.19849367 0.041476052 0.08898498 -0.10745333 -0.17796949 -0.030584842 -0.0075787357 0.1270032 0.054269552 -0.29441786 0.0819621 -0.024939165 -0.034406025 0.05150911 -0.19715142 -0.14714532 0.04577117 0.0023894107 -0.053067088 -0.042486664 -0.01957997 0.008958592 0.044845752 -0.21027207 -0.16094163 -0.020879367 0.10148701 -0.28964835 -0.22128767 0.18532932 0.039522346 0.21367049 0.09673748 0.08473143
148 -0.016204841 -0.21260512 0.0073861536 -0.09272338 -0.1634004 0.10944807 0.051516037 0.018970331 0.12496164 -0.015646998 -0.4475969 0.063336395 0.12445687 0.2011268 0.14060819 -0.027479151 0.11475399 -0.025790714 0.037597105 -0.08058033 -0.049457785 0.12033905 0.099836364 -0.15789835 0.05751563 -0.04523973 -0.08923599 0.056943864 0.08933573 0.10186242 0.1905886 -0.16149844 0.1047936 0.17728986 -0.0404656 0.08478212 0.0022427319 -0.31281438 -0.23914902 0.1548103 0.026682304 -0.22043048 0.045997627 -0.040629953 0.022442332 -0.07512071 -0.04229619 0.2599508 0.14008828 -0.09400805 -0.1093648 -0.015694188 -0.07319653 -0.036738142 -0.22989804 0.04711366 -0.08040458 0.020337164 0.057366 0.09298867 -0.12495408 0.061913278 0.23221338 0.028562957 0.09605156 0.103370614 0.01761301 0.111778975 0.074684605 -0.050881375 0.16451223 0.16372657 0.08383504 -0.04507014 -0.11199744 0.0015837181 -0.0007757538 -0.18965591 0.11330162 0.14919642 0.05584528 -0.09993129 0.1873824 -0.06347968 -0.05696376 0.034059316 -0.19585328 0.1028468 -0.03551182 -0.078656726 -0.12919752 -0.0732014 0.13841113 0.024164436 -0.09506668 -0.037721943 0.07498736 -0.25309598 0.03936142 -0.3227363 0.0024371156 0.13870713 -0.0050218166 -0.21161826 -0.046562005 -0.0063823923 -0.040195838 -0.05070966 -0.1616737 -0.14503749 0.03512391 0.02592216 0.062125344 -0.06241269 0.090030015 0.1000432 0.020023787 -0.06401246 -0.028706161 0.1288545 0.153917 -0.034766216 -0.17352426 0.13555267 0.2060079 0.21556632 -0.037464704 0.024081463
0 0.024835806 -0.104660936 0.17044309 0.07787301 -0.18812835 0.05069734 -0.028772391 0.23136745 -0.0695702 0.0042290892 0.07592975 0.043373987 -0.15776376 -0.10713304 0.028928952 -0.02418758 -0.09972817 0.050767813 -0.14345807 0.016855873 -0.09888945 0.03168158 -0.18770058 -0.22394642 0.24805628 0.024754353 -0.23300804 0.1020638 0.07033332 0.1597153 -0.007486962 -0.10655138 -0.03219069 -0.05147125 0.009875412 0.17711125 -0.008036584 -0.25898713 0.1575274 -0.040424686 -0.047199044 0.01588826 -0.09118159 0.04722826 -0.15280217 -0.09305265 0.019989574 0.49308255 -0.09394601 0.17589603 -0.010123674 0.24734062 0.03813938 -0.030019121 -0.18816414 -0.121829934 -0.051133417 0.11653837 -0.046459682 -0.3080845 0.28258878 0.05610009 -0.05436269 0.1179354 0.12417879 0.2748033 -0.09777594 -0.014900012 -0.31863832 0.1231059 0.0647397 0.22960272 -0.06950834 0.16551338 0.11392537 0.05939999 -0.03360567 0.029535636 0.11093904 0.093462184 0.008918716 0.06429892 -0.026245343 -0.043099064 0.013076811 -0.11002712 0.18119554 0.023705484 -0.022215322 0.13218233 -0.0680098 0.030595386 -0.12814058 -0.05215472 0.12878253 -0.17165062 0.0011498729 0.0038593411 0.21714465 -0.17180067 -0.06961985 0.19855973 0.07784731 -0.20943953 0.26797095 -0.0070735086 0.2233956 -0.16992368 -0.113203585 -0.11878 0.3257364 -0.114060536 -0.23646465 -0.13942648 0.046970904 0.059333496 -0.15410313 -0.09905336 -0.04349427 -0.1403727 0.13421708 0.046413254 -0.05874845 -0.13287657 -0.0069742505 -0.04618443 -0.120629095 -0.032278683
229 0.07634235 -0.09761564 0.008171671 -0.113714874 -0.09209237 -0.041471925 -0.11845693 0.009700781 0.1191416 0.04496701 -0.3213925 0.22082005 0.012132513 0.18163872 0.21526377 -0.046811257 0.07352246 0.10331433 -0.01726846 0.001970759 -0.12371336 0.26150078 0.12830019 -0.025180288 -0.067258045 -0.05000323 -0.23926574 -0.02085122 0.044978872 0.0655629 0.010607218 -0.062244464 -0.03969764 0.104251176 -0.07363697 0.050915174 0.05309166 -0.3308105 -0.17182937 0.03623463 -0.0662947 -0.24770486 0.15066008 -0.0049812635 0.034442324 -0.15447289 0.11932241 0.09591177 0.13893415 0.009620094 -0.12094097 0.005338953 -0.14255221 -0.021302704 -0.2906202 0.17731093 -0.27495605 -0.063338906 0.2131794 0.1679244 -0.014898264 -0.020228032 0.27257645 0.11909229 0.1306049 0.08847313 -0.03222663 0.07642308 0.013176377 0.020371856 0.042707805 0.22280803 0.100651436 0.07246208 -0.016441204 0.075146414 -0.05727618 -0.19922443 0.20955093 0.11852613 0.015836451 -0.19288366 0.047836386 0.015102422 0.09429325 -0.05845093 -0.06978008 0.13355814 0.24076615 -0.10236205 -0.12025981 -0.14706342 0.07668062 -0.19449905 -0.092946164 0.16518146 -0.0020932779 -0.22504649 0.09902298 -0.21467812 -0.04043303 0.14685245 0.17955576 -0.21756311 0.040307198 0.08696256 -0.11895461 -0.0025848618 -0.13512078 -0.090604655 -0.06193506 -0.19603519 0.1822554 0.20327945 0.13655932 0.10046258 -0.1469593 0.016151099 0.085587084 0.051311634 0.14966904 -0.14494853 -0.09928293 0.050725494 0.26067606 0.14467824 0.05727 0.114517584
56 0.28719914 -0.019607643 0.25973815 0.025519883 0.0555713 0.09371854 -0.10587506 -0.08878446 0.1751542 -0.017245188 -0.29071423 -0.120883524 0.13436149 0.23886196 0.15440437 0.024673596 -0.017722875 0.24584363 0.17712581 -0.22673598 0.17288116 0.124207854 -0.102408625 -0.21851622 0.053230282 0.051662706 0.097028345 -0.08049192 -0.15698111 -0.17298144 0.03026393 -0.09178193 0.20768303 0.17326726 -0.18961322 0.06724385 0.1387756 -0.15343913 -0.08598626 -0.07963744 -0.031230351 -0.13604783 0.10926994 -0.010270875 0.04907309 0.14179657 0.116159655 0.24431947 0.08220595 -0.10841119 -0.017867127 0.15157405 -0.051175334 -0.098120704 -0.28257835 -0.015157891 0.14256418 -0.0052234004 -0.02201909 0.2812841 0.19591418 -0.048161313 0.09619949 0.057759646 0.116021045 -0.07744802 -0.25517198 0.119495615 -0.0068880687 -0.2044639 0.20624308 0.012631716 -0.1764646 -0.0870669 -0.0047824527 -0.053740006 0.07212984 -0.029226119 0.065280624 0.037436638 -0.07900733 -0.06522123 0.042347528 -0.04528202 -0.23086074 -0.0062130326 -0.18815085 0.096656285 0.15159863 -0.008822451 0.036699906 0.16301538 0.12997515 0.09458545 0.047370695 0.047541853 0.08045535 -0.121401384 0.049580697 -0.39475414 -0.043223165 0.12313621 -0.005754891 -0.0657618 0.23751917 0.07777114 0.11304102 -0.047604673 -0.20269886 -0.1472131 0.21191713 0.19834739 -0.0698862 -0.035534192 0.049937714 0.09893853 -0.15360634 -0.032806423 0.024361055 -0.22114398 0.17080237 -0.18663175 -0.063375555 0.1503496 0.1289016 0.23935908 -0.043596163 0.054268375
21 -0.118394315 -0.09151439 -0.009147969 0.12971058 -0.04105186 0.07335867 -0.0052122893 -0.07950199 -0.03167571 0.08630008 -0.27176267 -0.110181734 0.017628882 0.03593401 0.23219705 0.086031586 0.029902749 0.10672568 0.055311278 0.010799816 0.1884528 0.18742687 0.007934432 -0.28750205 0.1398746 0.03444211 -0.39451155 0.086509906 -0.16714872 -0.2259838 0.19927159 -0.30265033 0.060955465 0.2693208 -0.18435359 0.032044344 0.1402241 -0.2754351 -0.12305866 0.006284191 -0.36845836 -0.19729783 -0.10087827 -0.1759965 0.023698507 0.041786604 0.12254059 0.09965114 -0.09045939 -0.13221902 -0.03237247 0.11277923 -0.1680917 0.14158814 -0.14605492 0.29431817 0.11442554 -0.04228789 0.038928725 0.16767338 0.0714181 -0.057159077 0.26121768 0.12315556 0.12326015 -0.02385991 0.0028535933 -0.050202616 0.22095022 -0.002780784 0.11201486 0.1380557 0.005101468 -0.029834138 0.031221235 0.26511282 -0.042605273 0.07140271 0.06567807 0.26227245 0.078046374 -0.28024334 0.015345515 0.039397802 0.04008981 0.09821547 -0.0205877 0.13033547 0.022687461 -0.09145481 0.120970875 0.013165849 0.06214608 0.16703768 -0.027261764 -0.03477002 -0.04268706 -0.17789309 -0.20977035 -0.25917798 0.22012976 0.30891782 -0.046359334 -0.25201935 0.1220553 0.07125967 -0.09673048 -0.14814985 -0.03183942 -0.20325486 0.11174818 -0.036871538 -0.10261569 -0.082010105 -0.17639983 -0.04367284 0.050093163 -0.037826955 0.06836995 -0.064002365 0.25244138 -0.022076633 0.052237272 -0.018101964 0.025682516 0.2828687 0.10317904 -0.05211936
252 0.0946499 -0.023100525 0.15497099 0.20115413 -0.12548628 0.03664492 -0.01883277 -0.057436094 0.35160336 0.14222531 -0.15615672 0.044866595 0.08522809 0.1415091 0.054356255 0.039069097 0.078513205 0.06468881 0.041138895 0.06644496 0.27536032 0.17734778 0.04456607 -0.031849228 0.17964093 0.004379674 -0.16819166 0.08155189 -0.001958238 -0.12411786 0.15088613 0.042698584 0.014801357 0.21517876 -0.2915127 0.1426829 0.07773616 -0.19449751 -0.13214882 -0.06054477 -0.10414373 -0.27480853 0.08424823 -0.21323447 0.10997057 0.058750067 0.10292824 0.4106408 0.0871419 0.0054816757 -0.23623456 -0.002335897 0.08248677 -0.02375667 -0.2993214 0.12378508 0.0073695737 -0.09610197 0.12988442 0.037329007 0.13740508 -0.1269002 0.14771241 0.01781672 0.023542628 0.114574276 -0.036643047 0.1724149 0.25048932 -0.17121764 0.08330631 0.022748927 0.06179245 -0.028397199 0.06998804 0.0844561 0.060417064 0.09402118 0.089866474 0.09464861 -0.08532378 -0.0023081242 -0.0005663692 -0.021867175 -0.25613374 0.056490157 -0.1123054 0.011645718 0.032880004 -0.055851366 0.08549448 0.12302311 -0.06121973 -0.179931 -0.03036165 0.048051678 0.0328625 -0.21172918 -0.20063683 -0.1837406 -0.021835253 0.2808042 0.16635026 -0.050086197 0.09576442 -0.009085284 -0.115829796 0.0077262297 -0.18141611 0.019497465 0.1251583 0.13981868 -0.21274212 -0.22518554 -0.14843094 0.05031527 -0.10248368 -0.12262998 -0.21835995 0.112306185 0.20754084 0.030014835 -0.15653805 0.050799835 0.20415545 0.108719386 0.26244405 0.015683053
322 0.12165045 -0.06713569 -0.017942652 -0.39253187 -0.0122447 -0.048884194 0.028211914 -0.09588059 0.07630856 0.08574722 -0.30059955 0.020000095 0.3003397 -0.02540185 0.014798278 0.09565696 0.06335101 0.359341 0.03978588 -0.060179975 0.2448626 0.27075106 -0.029185299 -0.06259452 0.064950295 0.11023801 0.13828197 -0.06957807 -0.09910688 -0.09951493 -0.012460532 -0.43816656 0.10726679 0.12794542 -0.10466282 0.02592414 0.02271193 -0.16956952 -0.10867561 0.11518317 -0.067477375 0.047591195 -0.05783379 -0.21236192 -0.108366154 0.1720172 0.09048477 0.45195085 0.086767696 -0.08257515 -0.04063734 0.18764009 0.3175656 -0.13042323 -0.18140903 0.12497806 0.17467287 0.16497946 -0.06690578 0.11115602 0.20295219 0.05538262 0.036132094 0.04289696 0.18641849 -0.040235817 0.07350112 0.2661069 -0.045824062 -0.04278992 -0.12340117 0.07207437 0.1605292 0.2576797 -0.1453094 0.04768922 0.013387068 -0.1276352 0.11861328 0.11042998 0.09731399 -0.058570445 -0.13464083 0.011471476 -0.22984424 0.111048244 0.1332485 0.22835726 0.030394847 -0.015581475 -0.04585899 0.06028148 0.23490876 0.08230917 -0.036026567 -0.13832885 0.039133366 -0.06697392 -0.08158575 -0.10995067 0.22528769 0.20374879 0.013854541 -0.08667567 0.17446496 0.06472183 0.041353434 -0.020908004 -0.30282703 0.06408522 0.37679747 0.18810429 -0.1758984 0.22770064 -0.1436207 0.05134388 -0.17609493 -0.16227983 0.04389033 -0.06049883 0.13422973 -0.07956014 0.08420456 0.23138262 -0.13702986 0.32633984 0.2507247 0.0023631149
237 0.028806569 -0.25091982 0.14170516 -0.11458089 -0.31677088 -0.053565785 -0.28068516 0.030872684 -0.045329913 -0.20898147 0.13399395 0.04359205 0.078349344 0.3088804 -0.23850392 -0.21434078 -0.010195285 0.010526473 -0.10187918 -0.1497214 0.08447119 0.017844763 -0.2900174 -0.10953061 -0.018968744 -0.020766646 -0.13861328 0.10235626 0.08971916 0.036214247 0.06957607 -0.14010446 0.016086543 0.058160566 0.013878075 0.060686693 0.040648 -0.3971875 0.004917666 0.01043013 -0.32904515 0.05463818 0.17604513 0.17689094 -0.19796687 0.0635924 0.087871365 0.123799935 0.041388717 0.16984096 0.034492128 0.0033981774 -0.09145718 -0.15537053 -0.22520739 0.16881761 -0.29935977 -0.23594293 0.03907285 -0.27924773 0.2171647 0.39220342 0.093471326 0.11223251 0.17884983 0.33249494 -0.026030881 0.07845495 0.16670313 -0.09348513 -0.112597436 0.038561955 -0.17875142 0.03245664 0.1509602 0.26580754 -0.18285854 0.053163026 0.12611404 0.04621941 0.08363368 -0.29834664 -0.19712909 -0.09012916 0.08747499 -0.0085713 0.03808563 -0.061410572 0.030948866 0.03538996 -0.07959567 -0.18357983 -0.13032933 -0.110769704 -0.13218164 -0.010878234 0.17129138 0.04294843 -0.081840664 -0.031546444 0.005966027 0.053680975 -0.2520709 -0.033872344 0.18178223 0.15781562 -0.022116516 -0.1856161 0.00626807 -0.050062284 0.27964306 0.020565981 -0.143003 0.18682101 -0.0016425895 0.08131784 0.17239998 -0.13544458 -0.10557761 -0.08775428 0.058017552 -0.1271398 -0.18604161 0.080451176 0.12742107 -0.088093385 -0.090683 0.28637683
122 0.08108791 0.04047804 0.15101333 0.068628296 -0.19489293 -0.025585126 0.02071014 0.05227015 -0.071468055 -0.022234742 -0.13327834 0.02154844 0.12009106 -0.047721993 0.16982765 0.033397052 0.14187756 0.034069642 0.09537365 -0.14913242 0.05917369 0.20744888 -0.09186716 -0.21493366 0.12995 0.114045955 -0.21761692 0.066275574 -0.15487418 -0.3983042 0.18834944 -0.26109383 0.04196311 0.22520475 -0.07609357 0.19777498 -0.05202638 -0.20044631 -0.16460925 0.15485603 -0.004387615 -0.1766615 -0.046492357 -0.16500737 0.17407034 -0.059808414 0.044079788 0.08211904 0.06235096 0.045478538 0.08152601 0.19814391 0.0593692 -0.04599047 -0.2275596 0.062230553 0.021693908 -0.084207945 0.10783477 0.12355675 -0.08522245 -0.0986851 0.032972015 0.2137529 0.3499231 -0.028823758 0.0499938 -0.0093165925 0.0055998256 -0.11236989 0.09057415 0.28102526 0.037899043 0.0025248667 -0.092757195 0.11438786 0.10759292 -0.18143858 0.18150158 0.058391355 0.050639126 -0.08276289 0.27625826 -0.12813872 0.053407215 0.23171002 0.09186756 0.19393955 0.14502406 -0.23223537 0.02664294 -0.021947423 0.08635053 -0.05156966 -0.18877816 0.13182057 0.07371212 -0.09397211 -0.10009221 -0.3019507 0.13189511 0.22160077 0.008272739 -0.17958488 0.048633292 0.084898956 -0.015727727 -0.08413591 -0.054745615 -0.02268376 0.12432753 0.03172168 -0.18617247 -0.15659134 0.036583755 -0.0650601 0.043539178 -0.22526887 -0.08815008 -0.13365108 0.0965362 0.047666337 -0.06904931 0.20314473 -0.02796463 0.2921286 0.17082651 0.13189293
239 0.2714284 -0.06795785 0.25317997 -0.008485088 -0.05291508 0.09466606 0.11552318 -0.0068686046 0.011602908 0.0360956 -0.16922155 0.047174674 0.3153534 -0.018020712 0.107307084 -0.045538124 0.10673409 0.3118486 0.0679113 -0.26573154 0.13065262 0.16146559 -0.03384372 -0.2106273 0.10551178 -0.032372955 -0.065859355 0.057863306 -0.077303864 -0.09098321 0.19544603 -0.048685435 0.0072340695 0.39481017 -0.031632435 0.13509381 -0.0789106 -0.3416369 -0.25350115 0.031632338 -0.11048692 -0.060988214 0.19460373 -0.16893584 0.0213798 0.10668331 0.09082086 0.108257845 0.19310297 -0.08736632 0.12819085 0.02022959 -0.031108575 -0.14409347 -0.121602766 -0.078929245 -0.010697593 -0.11002774 0.1496611 0.1855375 0.09186433 0.07379381 0.124013275 0.24053597 -0.006099345 0.17930682 0.025451776 0.14412458 0.15388979 -0.0951397 0.1907806 0.070571974 0.15536818 0.06705999 0.016950542 -0.056648795 0.16976285 -0.14570072 0.12951581 -0.056969002 0.11223025 0.10099902 0.2208165 -0.17014338 -0.1382598 -0.086456485 -0.04219852 0.024001725 0.21236198 -0.1694437 0.09286349 0.07898445 0.057873808 0.12986611 -0.050348543 -0.05232231 0.14064857 -0.22694533 -0.07935739 -0.22270551 -0.0115034925 0.28450525 0.2418341 -0.13181384 0.2707748 0.108931996 0.0749527 -0.07942188 -0.21071325 -0.029739399 0.056736346 0.18632945 -0.0014366731 -0.14231306 -0.017351732 -0.13409576 0.018782845 -0.21671979 -0.1476531 0.10997292 0.19675103 0.017521763 -0.06988924 -0.04042648 0.15095955 0.25703388 0.2520129 -0.004010826
203 0.06153723 -0.18514134 0.21826047 -0.010562053 -0.046067286 -0.2316982 0.05241306 0.051925126 0.03192466 -0.04741189 -0.1650776 0.21895848 0.26133224 0.12247934 0.23952866 -0.1521685 0.035915475 -0.048648342 0.03293555 -0.07464146 0.07369549 0.026396755 0.121759295 -0.08284589 0.12300518 0.09747002 -0.28952834 0.021302247 -0.10319055 -0.23583746 0.13537633 -0.117593065 0.08709454 0.25423056 0.09985485 0.17995521 0.25413406 -0.11514287 -0.14801678 -0.09183855 -0.05406778 -0.029069941 0.09603601 -0.17259252 -0.07710599 -0.12862067 0.006989219 0.29320285 -0.077453315 -0.3454797 -0.15852714 0.019633412 0.07991753 -0.09193443 0.002221585 0.12497885 -0.026234437 0.03859823 -0.03510495 0.23433527 -0.072514564 -0.041732844 -0.13464966 -0.017120104 0.3569827 0.17241548 0.113261476 0.19696686 0.19996083 -0.13549776 0.2375359 0.19275807 0.099605575 0.10138391 0.052168638 0.14843404 0.078907356 -0.23688225 0.23352 0.04969783 -0.014505198 -0.053118683 0.034460526 0.043029428 -0.28451604 -0.12475516 -0.16224658 0.20823938 0.105160974 0.13583852 0.21229212 0.033416934 0.2067406 -0.10476312 0.0501571 -0.09496413 0.008872276 -0.10115632 0.0074689924 -0.14291589 -0.10612287 0.24192561 0.07364689 -0.075384825 0.103152856 0.23996216 -0.15079416 -0.034348663 -0.1440474 -0.12127168 0.15607768 0.21589775 -0.16533884 0.137552 -0.15147448 -0.017269531 0.2147686 -0.0636957 -0.0904278 -0.12323734 0.19390999 -0.06392872 -0.035845496 -0.107216686 0.17394553 0.12678923 0.17511533 -0.0754203
25 0.10580383 -0.3209717 0.079055354 -0.25527468 -0.12772444 -0.025919877 -0.2831894 -0.10923074 -0.039521474 -0.114596255 -0.05847883 -0.23528789 0.033023342 0.15073313 -0.09179237 -0.14227597 0.28128734 0.06390088 0.16475955 -0.23767205 -0.087502524 0.047537263 -0.09517788 -0.25872082 0.2872287 -0.06808004 -0.19397186 0.03389965 0.1346016 -0.012745751 -0.013482054 -0.06692669 0.023853265 0.24808927 -0.00461002 -0.027385484 0.119504675 -0.34359264 -0.089585446 -0.095775284 -0.32896566 -0.08008734 -0.19287007 0.009849167 0.112887695 0.039259575 0.07833895 0.13087794 0.023348456 0.087141834 0.16771115 0.23770098 -0.007389702 -0.021204945 -0.23505957 0.20647733 -0.011880487 -0.001976241 0.048258968 0.072398916 0.09985639 -0.101022 0.26697072 0.003348962 0.08138637 -0.0541924 0.10222072 0.18304826 -0.011306474 -0.028097603 0.035584893 0.22193615 -0.21191551 0.30804902 0.15291528 0.31745508 0.035693392 0.16535302 0.07630482 0.09734957 0.070941016 -0.082248464 -0.032273695 -0.0062043187 -0.043009214 -0.030830193 0.17530943 0.038702905 0.1465156 0.044712715 0.04018262 0.058798354 0.15929367 0.053165246 -0.10107887 -0.010913102 0.105561 -0.016183248 0.08061894 0.052857846 0.036016457 -0.08925944 0.13255264 -0.031926934 0.15509135 0.36921936 -0.012065251 -0.15956366 -0.13726413 -0.09828639 0.066741966 0.25041136 -0.28937912 0.10687766 0.09129956 0.14208753 0.20432088 -0.17435805 0.09635224 0.09120296 0.01984751 -0.2138155 -0.2258522 0.10504362 0.22185019 0.20794185 0.041305564 0.032472398
304 0.34491876 -0.03922337 0.118396714 -0.022421733 -0.10641854 0.07090742 0.1897237 0.101819634 0.31736133 0.02670802 -0.23119614 0.014786856 0.0591474 -0.077429965 -0.008703424 -0.18630458 -0.08993521 0.18316591 0.16545047 -0.06721684 0.091400824 -0.05104816 0.0058180382 -0.27166376 -0.11255168 0.019280128 -0.07634009 0.063845836 -0.074102506 -0.05756175 0.015920717 -0.21214263 0.17288446 0.47342616 0.14092301 0.10232995 0.13604105 -0.12783413 -0.19676444 -0.1293395 -0.33510804 -0.21262357 0.073371425 0.04494051 -0.009340897 -0.09417172 0.013417777 0.31696546 0.0260686 -0.033790033 -0.088389106 -0.046220332 -0.169 0.08739493 -0.09596636 0.29276976 0.03743021 0.040062126 0.023832021 0.13550468 -0.08643503 0.0009718988 -0.0957743 -0.16753207 0.23327522 -0.015728483 0.034344546 0.022276938 0.14179198 -0.07304655 0.00627124 0.005822208 -0.09437033 0.13502578 -0.097220026 0.2103382 -0.040031325 -0.11289035 0.13368315 0.09109674 0.005884852 -0.07481864 -0.03696534 -0.084157325 -0.2516481 -0.05011983 -0.10286215 0.06884925 -0.0099465465 -0.09962503 0.14628439 -0.083952755 -0.03294085 -0.09922118 -0.17469732 -0.14364894 -0.01854004 -0.118596904 -0.19646409 -0.40289307 0.1340287 -0.14718999 0.10396029 -0.12857705 0.033553034 0.20847324 -0.1425961 -0.13875848 -0.22727785 -0.32983637 0.14417453 -0.06733328 -0.02239917 -0.06446397 0.14980564 0.14658365 0.04970089 -0.062123086 -0.22718984 -0.20789495 0.31770363 0.020599904 -0.080066584 0.0069352123 0.013995263 0.24881852 -0.00038566426 -0.033766463
236 0.09773922 0.15517694 0.00016773463 -0.44686547 -0.047593553 0.20148408 -0.11646116 -0.078988366 0.09864841 -0.25490808 -0.16578716 -0.24076878 0.12947528 0.04681636 -0.081756115 -0.04975636 0.0067457296 0.17350721 -0.023408674 -0.07763306 0.21160853 0.2563728 0.06252495 -0.12880784 0.073639 0.17377794 -0.095254 0.3424963 -0.028007114 -0.0042725285 0.3162614 -0.043126613 0.06075286 0.24110085 -0.12609155 0.15725422 0.2846936 -0.11921872 -0.22051133 0.07309174 -0.23010123 0.08105641 0.20360489 -0.29082796 -0.019966323 0.083107956 0.13945712 0.26066872 0.04290077 -0.22476123 -0.038651206 0.15194568 -0.032158002 0.06675708 -0.10440123 0.23970501 0.052063975 0.20802253 0.0995708 0.006334767 0.010371735 0.10238831 0.04885485 0.37542728 0.24230798 0.08814002 0.009897871 -0.051583 0.14497834 -0.05197958 0.11722912 0.10649079 -0.25825098 0.16801405 0.016413083 0.15711741 0.020124778 -0.006980866 -0.0781593 0.04969451 -0.13392434 -0.06289892 -0.008238791 0.009548292 -0.31898656 -0.109610885 -0.023039794 0.26994535 0.025077803 -0.1178083 -0.07482026 -0.17813773 0.08720393 0.032048997 -0.4698201 0.06741831 0.087918125 -0.22725853 -0.042980697 -0.2621323 0.18610759 -0.08182634 -0.09432929 -0.08320589 0.056286927 0.1274295 -0.11191475 -0.075377285 -0.16319923 -0.013462863 0.084926344 -0.016327774 0.077886894 -0.22374065 0.08242564 0.037133977 0.07235181 -0.071661465 -0.084118344 0.09221767 0.19373888 -0.056408677 -0.075057015 0.10072905 0.07259562 0.15571341 0.113705404 0.015556277
186 0.010611763 -0.11028006 0.12201589 0.003684352 -0.16593564 0.096130624 -0.06449873 -0.04587153 0.07007633 0.14337344 -0.18698552 -0.1537537 0.10793892 0.10336871 0.13936403 -0.027745232 0.1421631 -0.077963755 0.12800044 -0.13059638 0.1691659 0.27041492 -0.19404206 -0.24005702 0.087344304 0.16924627 -0.3337837 0.12453274 -0.10923861 -0.19795664 0.006268191 0.027583288 -0.012913066 0.11033482 -0.03594356 0.35069078 0.27923244 -0.031015718 -0.27585483 0.075587444 -0.06298961 0.048179224 0.15333387 -0.2665939 -0.11792016 -0.0479256 -0.012735886 0.2605288 0.07302435 -0.100438066 -0.041192558 0.08355061 0.19941972 -0.142581 -0.21009444 0.23523064 -0.18416378 0.16064996 -0.03349223 0.22241142 -0.036096055 0.074667186 -0.10864942 0.08648022 0.045565747 -0.0686727 -0.11720721 0.025580253 0.082108505 -0.11011062 0.10460274 0.17162785 0.1365829 -0.08029265 0.012488254 0.11192862 0.06587148 -0.0043819565 0.08013753 0.009090771 0.035504747 -0.21074773 0.16944373 -0.08357799 -0.22549598 -0.031181537 -0.16551827 0.19993268 0.14993152 -0.08266023 -0.10873995 -0.043100756 0.14751229 0.04787142 -0.03187061 -0.056195095 0.08725017 -0.10101977 -0.31012696 -0.14341816 0.07795253 0.10178597 0.15019926 -0.093549185 0.077828765 0.08981164 -0.20218857 -0.035525296 -0.14022774 -0.22957401 0.07592591 0.33963808 -0.0510673 0.1311436 -0.03399237 0.061147638 0.08150989 -0.120728955 -9.277968e-05 -0.13406433 0.23799282 -0.1279434 -0.18776534 0.22412977 -0.06494411 0.29768854 0.005977891 0.05443887
77 -0.023702536 -0.24768625 0.08259341 0.12711766 -0.053397164 -0.017115962 -0.13910249 0.015957128 0.27217647 -0.09746403 0.17335908 0.029065529 -0.023491357 -0.07388776 0.32495385 0.15176246 0.02701962 0.09186161 -0.174017 -0.32218993 0.1627966 -0.012627976 0.23766561 0.13176462 0.024568003 0.06390962 -0.24372794 0.032752164 -0.14048894 0.37829685 0.00506279 -0.28619254 -0.23716497 0.09678836 0.06729766 0.1137866 -0.27221525 -0.35982338 -0.09882071 -0.16721937 -0.02815261 0.11619497 0.21188396 0.122334436 0.2505301 0.11035615 0.079641245 0.3382031 -0.16864887 0.14585885 -0.043742113 0.17951755 0.2729849 0.04717129 0.035091363 -0.35064113 0.022073552 0.08267404 -0.10610368 0.039041176 0.0577739 0.17618576 0.076949775 -0.07454528 -0.10970443 0.19940141 0.028227758 0.12327656 -0.11007987 -0.015352322 0.21502878 0.1312499 -0.3383084 -0.016319528 -0.008538518 0.09160412 0.017631987 0.0552396 0.03369828 0.18206297 0.13664685 0.1643413 0.19096224 -0.23735222 -0.01625686 0.04744241 0.17365281 0.23774934 0.2796324 0.16251093 -0.07515684 0.13453293 0.11210674 -0.11275076 0.103035145 0.08395293 0.096218795 -0.11648727 -0.053580098 -0.15032978 0.21958639 0.1872387 0.03626678 -0.040739298 0.36476603 -0.090142645 -0.16975585 -0.056564078 -0.16310097 -0.039589684 0.1512157 -0.0030355954 0.013075675 0.03326879 -0.23196518 -0.039224394 -0.0811682 -0.14220518 -0.07137041 0.025356254 0.13614193 -0.06172068 0.03731921 -0.0781602 0.034280363 -0.008659332 -0.21943253 0.1500609
213 0.15331224 -0.025366487 0.015451357 -0.09042856 -0.060717072 0.08946989 0.01660785 -0.045102365 0.13623004 -0.09857358 -0.13706583 0.02408728 0.20679414 -0.2513966 -0.1729229 0.094278045 -0.26577762 0.19688806 -0.05834174 -0.19824512 0.05942027 0.09035196 0.20739365 -0.15280958 0.07884693 0.107010394 -0.2564763 -0.020633468 -0.22193415 -0.06523143 -0.034783628 -0.24816796 0.33538863 0.10641404 -0.15179989 0.10108074 0.07223761 -0.17282213 -0.13808595 -0.014581293 -0.065394476 -0.42725068 0.275707 -0.10586124 -0.017038431 -0.041251246 0.10597207 0.10112312 0.13416326 0.13553299 -0.048210967 0.25293973 0.016416386 -0.10373201 0.03467599 0.11278869 0.14204742 -0.021481883 -0.2723561 0.26007685 0.056031533 -0.17387854 -0.21484566 0.0626474 0.07090064 0.0016445857 -0.09658454 -0.06702791 0.1056271 -0.05225129 0.07502528 0.09929925 0.083248645 0.25876862 -0.21924049 0.15551917 -0.09964286 -0.10009203 0.20869243 0.022321288 0.116118774 -0.16061464 0.0041889376 -0.12543043 -0.169632 0.17222163 0.0126142865 0.092242464 0.1045864 -0.1495538 -0.060130753 0.05404395 0.13738479 -0.18584448 0.10587746 0.027385227 0.030605596 -0.49217227 -0.16452911 -0.18661387 -0.049259588 -0.088395715 0.024497941 -0.22532116 0.20351602 0.11410624 0.005176914 0.020847326 0.09917568 -0.112695344 0.039398037 0.04647843 -0.26135054 0.17411797 0.068318896 0.21510033 -0.0554619 -0.10936646 -0.19984035 0.23214619 0.12985411 -0.058732606 -0.03322104 0.15785933 -0.22566228 0.1837259 -0.11101663 0.031985022
315 0.05040565 -0.0026622962 -0.01951019 -0.13607588 -0.067953765 0.076631315 -0.021128863 0.049625926 0.06260414 0.06875402 -0.061501604 -0.17541806 0.2763763 -0.34605125 0.09637341 0.036939792 -0.034365367 0.24041925 0.10274759 -0.2273013 0.070911735 -0.13876162 0.083490245 -0.106763355 0.1550832 -0.1607195 -0.04663444 0.106917456 -0.2277718 -0.008239991 0.038323265 -0.012162352 0.16595836 0.36344787 -0.06330104 0.077275015 -0.0049880017 -0.36164138 -0.17826179 0.042833164 -0.22363997 -0.10714083 0.39061165 -0.1286899 0.00013235034 -0.07539673 -0.032002926 -0.018709693 -0.15850075 0.02257996 0.21509801 0.1117644 0.15141574 -0.054201316 -0.36872134 0.20218994 0.022131698 -0.01790701 -0.12866646 0.26970842 -0.051908646 0.10775709 -0.013663804 -0.23714201 0.4233228 -0.05897989 -0.12196182 0.19462454 -0.09606696 -0.057101987 0.24119659 -0.07132717 -0.07648748 0.19780192 -0.40934187 -0.09639228 0.13408387 -0.013082738 0.030824425 0.104942515 -0.12014978 -0.20473483 -0.057669893 0.19682683 -0.00088341965 0.06872982 0.09972494 0.28627172 -0.0038858748 -0.06227329 0.113813646 -0.09242969 -0.048139453 -0.16250364 -0.012884473 -0.17890517 -0.05477011 -0.33956516 -0.14943211 -0.17536157 0.029031359 0.06694333 0.22842008 -0.013490611 0.023775598 0.19940507 -0.11121148 0.07286519 -0.0793508 -0.12782697 0.081853785 -0.18445614 -0.3338093 0.14652477 -0.08178291 0.20948046 0.11125351 -0.110095456 -0.30782616 -0.2393115 0.24366733 -0.01803834 -0.10062507 -0.06930962 -0.030781064 0.31877056 0.021176243 -0.078700155
334 -0.014481698 -0.16429088 0.117269725 0.033303313 0.043978944 -0.34002033 -0.19638687 0.17058077 0.3622599 0.1265377 -0.17926587 0.054015864 0.13764858 -0.07524022 0.23115298 0.04497204 0.09832431 0.2748614 -0.040599335 -0.058898203 0.1057034 0.20614421 0.15687484 -0.017580196 0.103965946 0.066323586 0.0012626385 0.011184122 -0.102444656 0.07417129 0.32802355 -0.14762516 -0.09912904 0.27067438 -0.2610466 0.2647606 0.036724746 -0.11231631 -0.30206805 -0.017281862 -0.10753399 -0.104550675 0.15196036 -0.014320196 0.09241879 -0.18876961 -0.027823968 0.15049711 0.13949457 -0.122046486 0.048327155 0.05705955 0.02586401 -0.1864288 -0.1956435 0.30207005 -0.0906921 -0.037687898 0.19848989 0.1336463 -0.0033093616 0.12433557 0.2110594 0.009361307 0.412713 -0.032710403 -0.044446483 -0.12793104 0.031825725 -0.22464456 0.16916227 0.16762127 0.07872992 0.0781406 0.038277667 0.069261916 0.040462162 -0.23921557 0.24965747 0.3479855 0.20346676 -0.007516766 0.09910582 0.100009 -0.063677855 0.05166454 -0.18411644 -0.14587381 0.12362237 -0.01241521 0.14536393 -0.07037184 -0.0931638 0.009249292 -0.045570094 0.008948145 0.14492115 -0.3390261 -0.101681724 -0.31656474 0.1753534 0.16663039 0.18249136 -0.095965184 -0.08671074 0.038956612 -0.0025618626 -0.027922245 0.18061128 -0.17826176 0.34951106 0.06791631 0.16262823 0.2326611 0.111111484 0.10378544 -0.07419037 0.11508519 0.0088284 -0.05177625 -0.097345844 -0.25608376 -0.05153816 0.07889005 0.11628368 0.21628496 0.03474191 -0.18224481
67 0.082859196 0.027356943 0.12348614 0.018451005 0.049006373 -0.0064873393 -0.028344793 0.0856962 0.18158907 -0.16581213 -0.10709796 0.023939684 0.0428105 -0.14307691 0.19375522 -0.03536156 -0.012795128 0.05131299 0.0836468 -0.08806051 0.14542273 0.2627255 -0.05093482 -0.059475962 0.30180943 0.032057893 -0.21311907 0.09396091 -0.096779816 -0.26135287 0.104188986 -0.1165613 0.3694924 0.078822024 -0.22947812 0.15767306 0.08118946 -0.24712738 -0.089097045 -0.036619317 0.13043696 -0.16607065 0.16925317 -0.12815166 -0.015921561 0.025287975 0.04917022 0.42851332 -0.011038 -0.002551312 0.04468591 0.07304789 0.042496614 -0.023451012 -0.15468211 -0.062457673 -0.05668234 0.1198548 0.12827525 0.16253302 -0.07576491 0.009629875 -0.020403916 0.037240785 0.13519263 -0.09274009 -0.114471965 0.11448685 0.06984588 -0.27941933 0.034263138 0.037909776 0.18339846 0.068538174 0.11846219 0.32590336 -0.023451395 -0.191298 0.3841138 0.17541926 -0.0687448 -0.25592065 0.054078713 -0.046767466 -0.062446322 0.014553199 0.15239833 0.23245554 0.021367587 -0.25613376 0.111252055 0.08403679 0.08107329 -0.048025932 -0.029156748 0.1566451 0.086184666 -0.16510677 -0.13182536 -0.24397388 -0.07781673 0.15162376 0.2281321 -0.104032576 -0.04745295 0.026428366 0.04256714 -0.12470268 -0.20081866 -0.090271205 0.11666637 0.09291397 -0.015361728 -0.07443619 -0.070867315 0.06946461 0.08990993 -0.038479473 -0.17386305 0.030768959 0.20907858 0.030887773 -0.07538556 0.117201865 -0.06271512 0.17339773 0.15577209 0.11182217
119 0.0066050794 -0.028527036 0.027872328 0.092401505 -0.14937113 0.24638605 -0.18003255 0.09793496 0.094237596 0.31131718 -0.28883088 0.09476688 0.29902723 0.17542827 0.08629018 -0.0874866 0.20359649 0.05396974 -0.08923863 0.056843575 -0.018704552 0.24151649 0.07439605 0.15188736 0.17151815 -0.09533462 -0.2697509 -0.0044391095 0.24001254 0.021317568 0.25473794 -0.14366102 0.0655387 0.17185795 0.07659097 0.28616732 0.17737073 -0.28451174 -0.25733608 -0.109979324 -0.011732125 -0.2843033 0.060665164 -0.012982176 0.091694854 0.010935529 0.08137295 0.4557699 0.20555761 -0.046733595 0.059000224 -0.04796674 -0.089087665 0.08011944 -0.28296632 0.078258835 0.06626447 0.18439373 -0.26673603 0.13190337 -0.07675274 -0.080254205 -0.14138901 -0.07457361 0.13534547 0.2204656 0.044838265 -0.04061764 0.10564793 0.0036051748 0.036348913 0.10465667 0.060472876 -0.008511117 -0.00500765 -0.03414512 0.07733829 -0.2085588 -0.086009644 0.10743467 0.19475569 0.094621845 0.032394655 0.055186626 0.18336093 0.06212029 0.08954303 0.1882539 0.06269104 0.0925028 -0.24166276 -0.1541131 0.041692372 -0.23004586 -0.19320661 0.06387487 -0.1638115 -0.43339923 -0.029634997 -0.14176399 0.013342974 0.1776554 -0.14201769 -0.05340617 -0.025845958 0.0095289275 -0.1299215 -0.105251364 -0.055113744 -0.28525886 0.24676071 -0.034351625 0.06351669 0.124293424 0.19995968 -0.13698488 -0.17020899 -0.14980172 0.10212555 -0.17387946 -0.014317038 -0.33875248 -0.09341929 -0.011587374 0.15024175 0.10605835 0.21080463 0.05772138
9 0.099884495 0.13778032 0.053832535 -0.13252121 -0.08260742 0.09467664 -0.011937527 0.17261963 0.11196049 -0.033171628 -0.297598 0.043250434 0.10524253 -0.016270483 0.20483457 0.15273072 -0.058791384 0.20617531 -0.05403738 -0.14924724 0.1204486 0.06903919 0.035310637 -0.07831532 -0.027867263 0.09507199 -0.1302613 -0.01473667 -0.118307576 -0.08062129 0.09931459 -0.16357177 -0.07557773 0.34045488 -0.09512541 0.051119525 0.071654364 -0.06803846 -0.34325466 -0.021746669 -0.09409729 -0.08011241 0.1719462 -0.16588691 0.29279247 0.061396863 0.03941626 0.32062215 0.03820123 -0.06596985 -0.00024142646 0.17119813 0.012072645 0.03057302 -0.12662275 0.045535468 0.099008955 -0.03238567 0.13470015 0.09760993 -0.010130424 -0.12603511 0.16541934 0.2129428 0.2576078 -0.008515571 0.003387743 0.105640516 -0.059880424 -0.24574843 0.022422705 0.20632134 -0.17250413 0.17439882 0.124914825 0.09749982 -0.14545362 -0.18795072 0.14617696 0.18847397 -0.069961645 -0.027626572 0.097367704 0.004641661 -0.14568609 0.14499424 -0.075087346 0.32385662 0.15795325 -0.05817284 0.021152232 0.018825162 -0.017435117 -0.071843944 -0.25887787 -0.06670289 -0.015157554 -0.13461365 -0.036769718 -0.20686632 0.06176803 0.1346463 0.124558754 -0.1716715 -0.03465988 0.0888009 -0.020785116 -0.064583994 -0.090056 -0.16498706 0.0979696 0.07237812 -0.1234954 0.029428931 -0.05489665 0.050860386 -0.08319432 -0.10708294 -0.18503943 -0.005709032 -0.048050564 -0.027278291 -0.2567339 0.17867859 0.09600572 0.21489435 -0.012531278 -0.022512607
142 0.11572609 0.13726276 0.21409872 0.21062618 -0.063545585 -0.05638967 -0.018869946 -0.14771986 0.08845272 -0.11781313 -0.15410422 0.08087569 0.12611632 -0.06578833 0.10240357 -0.034306284 0.048982088 0.15293267 0.023498828 -0.15616861 0.13139698 0.20181468 0.060744464 -0.17450011 0.09093918 0.09366797 -0.20155774 0.078474805 0.024430737 -0.104374975 0.15217881 -0.022945197 0.0366479 0.14632276 -0.20652592 -0.10287786 0.048224524 -0.062184423 -0.1832867 -0.18223646 -0.045691524 -0.33179408 0.16039181 -0.104885474 -0.096666425 -0.15528588 -0.0043827803 0.12901516 0.04471632 -0.12560299 0.07404726 0.14866304 0.27319622 0.014083247 -0.38683978 0.21350056 -0.106377564 0.2529111 0.07485132 0.005384354 0.07030515 0.17492954 0.08439743 -0.06581573 0.34779167 -0.24384934 0.041004717 0.109869026 0.09558295 -0.098463 0.13253178 0.12772813 -0.019994073 0.033469073 0.22590768 0.060450755 0.22271101 -0.0525742 0.4561438 0.35194466 0.054887466 -0.041138347 0.09975323 -0.028503891 -0.09298264 0.2079007 0.19149408 0.13508469 0.37134266 -0.05501759 0.2400393 -0.027797423 -0.036091454 0.036889143 -0.13497332 -0.0115669435 0.30649546 -0.20953724 -0.2918216 -0.2498052 0.17513911 0.20730868 0.29547164 0.028924864 0.14919716 0.06352065 -0.12540825 -0.1205943 0.003034021 0.058890346 0.2058511 -0.16324972 -0.18656813 0.046840224 -0.19664107 -0.07395903 -0.051271997 0.032248847 -0.023118632 0.09425106 0.2438197 -0.046429254 -0.08850651 0.2593871 0.05705891 -0.03719888 0.1454597 0.024134096
109 0.17416717 -0.046258572 0.10070843 0.08891342 -0.2579999 0.13377176 -0.15768239 0.01754944 0.054467246 0.18551679 -0.2956222 -0.09165003 0.06786066 -0.18160988 0.20095997 -0.054867513 0.034347504 0.24034476 0.054887757 -0.08415023 0.12996425 0.098843 -0.11127733 -0.07958404 0.2209547 -0.06602331 -0.06594904 0.21152309 0.025415473 -0.0017714764 0.18280979 -0.15871765 0.015474477 0.112524346 -0.012158914 0.18088567 -0.02748841 -0.22646403 -0.29904485 -0.11277551 0.025059354 0.114134304 0.062297884 -0.034373302 -0.08566372 -0.07726538 0.13840702 0.15430951 0.24204029 -0.11569937 -0.072346546 0.011217316 0.0486922 -0.001673401 -0.14259417 0.12557949 -0.23270023 -0.048656635 0.018420046 0.15161934 0.07514267 -0.0032393055 0.21941546 0.107987426 0.18144275 0.015181041 0.021296907 -0.005331623 0.17526834 -0.24901672 0.021225601 0.21566167 0.15524322 0.22885486 -0.073178746 0.09019775 0.11864956 0.015483371 0.24284521 0.1311706 -0.016227683 0.007465745 0.18498968 0.03492239 -0.1324415 0.08598159 -0.07910643 0.14769259 0.205084 0.07408657 -0.2162888 -0.22258024 0.15241005 0.089230835 -0.23843047 0.22599657 0.12512001 -0.28940475 -0.081498384 -0.13533519 -0.093095765 0.082189545 0.073624566 -0.28128254 0.09317314 0.06708106 -0.16630414 -0.115497164 -0.039290708 -0.30253762 -0.0081346 0.119642176 0.071833804 0.1306086 0.16465929 0.019894531 0.04121517 0.075519904 -0.016340531 0.14183371 0.13183229 -0.020205865 -0.10870564 0.059737302 0.07843378 0.050719082 0.10262165 -0.0741424
23 -0.014475359 -0.32989216 0.09231796 -0.15915447 -0.3511643 -0.23916243 -0.37450644 -0.12973899 -0.06318096 -0.1387021 -0.036858167 0.38039207 -0.20891163 0.13718468 -0.036716685 -0.09863223 0.21324404 0.20747381 -0.2732474 -0.0127334455 -0.24668324 0.002224872 0.026034398 0.025258867 -0.16667417 -0.14897479 -0.14624533 0.1083141 -0.14278506 0.046663452 0.1892039 -0.016628858 -0.004077848 -0.12381709 0.0141201895 -0.20481426 -0.1000324 -0.54194105 -0.10242634 0.09930853 -0.2843042 0.13200536 0.08345126 0.18031488 -0.07389703 -0.030013334 -0.04765345 -0.044237923 0.36260194 0.07102294 -0.16849014 0.19875228 -0.46394664 -0.05679891 -0.3647041 -0.07162415 -0.3357428 -0.2594065 0.11917212 -0.24493672 0.02845881 0.23320931 0.012753718 -0.015360791 0.1728828 0.22240318 -0.09177519 0.17281438 -0.030208666 -0.023450544 -0.19672619 -0.09108902 0.024936393 0.29483807 0.4136682 0.21128583 0.045372676 0.34195682 0.17614171 0.040580638 0.0702927 -0.17183487 -0.35722187 -0.15086892 0.04654803 -0.3224664 -0.024930056 0.16228746 0.3164025 0.05216697 -0.27874702 0.09539509 -0.101347245 0.1365212 -0.094891034 0.1047015 0.12818624 -0.15224622 0.11043637 -0.25750074 0.028937984 0.03363787 -0.081739105 -0.3603044 0.3581629 -0.04169955 -0.060664516 0.06522578 0.032277446 0.01328766 0.16508351 0.23077774 0.06847298 0.1884989 0.25440684 0.22219272 0.08307462 -0.08395642 -0.09254166 -0.1366073 0.23801637 -0.16532749 -0.16773793 0.09764941 0.21759646 -0.040817063 -0.19251192 0.3275718
271 0.20042978 -0.06115519 -0.03518748 -0.19099034 0.05978799 0.09200576 -0.058610287 -0.062263235 0.18772075 0.19119589 -0.21076472 0.059964858 0.25560272 -0.046934176 0.23677453 -0.035420287 0.17153424 0.20820932 0.04999084 -0.087200135 0.23337363 0.1828641 0.0072093043 -0.33847335 0.060119532 -0.10351486 -0.018586393 -0.07994791 -0.1306093 -0.072689556 0.07620226 -0.01470755 0.0464147 0.18474959 -0.16204111 0.31380025 0.12228069 -0.2613818 -0.14099447 0.0058896733 0.020746587 -0.18268043 -0.12630484 -0.29163644 0.13655698 0.11367365 0.06517034 0.3115347 0.08300149 -0.20791285 -0.119852215 0.1802553 0.05575223 0.027342884 -0.22060876 0.1826947 -0.049224623 -0.050099023 0.011090216 0.013246763 -0.008495469 0.05855806 0.06358623 0.07763818 0.20636818 0.0015299099 0.06679932 0.23127973 0.052902218 -0.18724102 0.10477224 0.080510035 -0.16570012 0.21388116 -0.0074996767 0.007531848 0.19438793 -0.10906739 0.06978169 -0.18113029 -0.0342143 -0.10605981 0.022747042 -0.10788525 -0.15896189 0.053546157 0.011062275 0.05811642 0.078102335 0.31200233 0.066585645 -0.02303257 0.09763618 -0.019650916 -0.14671011 0.07428953 -0.11138541 -0.28866133 -0.02938693 -0.15017739 -0.16597688 0.20240347 -0.05645816 -0.24644358 0.1624473 0.19540736 0.02996836 -0.071146406 -0.064385414 0.023287255 -0.02897416 -0.052015323 0.07532498 0.10806842 -0.08060929 -0.023542717 -0.02376945 0.02396528 -0.1576307 -0.070614524 0.15347731 0.02374004 -0.08514148 -0.057994552 0.2406695 0.08726506 -0.04706341 0.04748119
277 0.031307388 -0.10777103 0.11815279 -0.036814477 -0.078130126 0.12757501 -0.15760714 0.03455307 0.15778543 0.08992807 -0.29066908 -0.0027691654 -0.035139788 -0.2151714 0.14661665 -0.030934662 0.012710729 0.124686904 -0.029366013 -0.1711128 0.15253878 0.17226684 0.013741473 -0.25076467 0.15109853 -0.21798569 -0.26178974 0.15222508 0.16214359 -0.08097856 0.08295044 -0.2220259 0.14226127 0.26083264 -0.14065097 0.101689115 0.16729717 -0.35756817 -0.0276814 -0.1463003 -0.0878672 -0.1966731 0.13114846 -0.13100135 0.116199344 -0.09489958 0.026163563 -0.04860018 0.11364101 -0.1757444 -0.3135594 -0.06590397 -0.0931856 -0.085752144 -0.07333547 -0.042661306 0.018378528 -0.08959345 0.034196258 0.121280126 0.1907368 -0.15879634 0.06616571 -0.055563297 0.14854579 0.043119352 -0.08574059 0.13194387 -0.06142316 -0.1265197 0.1241394 0.26613435 -0.071138896 0.034082837 -0.113506295 0.09462486 0.11199097 -0.20717092 0.051351346 0.20195518 0.14558908 -0.26279646 0.087702684 -0.016534384 -0.3187339 -0.023722319 -0.09099536 0.2743649 0.22110628 -0.046640612 0.123777576 0.011441092 -0.24029252 0.16121872 -0.021972604 -0.14306623 -0.009809025 -0.026810303 -0.20600794 -0.124850735 -0.011731761 0.19449586 0.013177094 -0.2649652 -0.18503317 0.24618447 -0.15732811 0.05896168 -0.08288838 0.024174228 0.18359773 0.082030125 -0.1824937 0.105556384 -0.06720735 0.07107579 0.0631741 -0.08569296 -0.12214668 -0.13462837 0.10023247 -0.02768339 0.011470678 0.065619394 -0.09186686 0.037792593 0.017824167 -0.057825122
231 -0.02328037 -0.30692974 0.2617543 -0.008529462 -0.107792445 -0.11178154 -0.28794 0.029000841 0.17610848 0.051030062 -0.08568996 0.03468903 -0.00077489443 -0.10130488 0.24865104 0.0034012892 0.16167212 0.05000463 -0.01574909 -0.32986283 0.27677542 -0.18138574 0.19512057 0.16370697 -0.071518034 -0.0739748 -0.056631643 0.0033381765 -0.10776443 0.34999597 -0.00865527 -0.1636026 -0.09076414 0.19452152 0.1984161 0.12886423 -0.12664148 -0.16726233 -0.16633286 -0.09686686 -0.15262578 -0.14128706 0.2455703 -0.09603842 0.00464675 0.07412318 0.53610647 0.32639274 -0.3038275 -0.11706335 0.050826978 0.15217257 0.17115745 0.009002472 0.15185684 -0.19090314 -0.03876869 -0.17812279 0.01034051 0.012394218 0.08084643 0.0642679 0.053249363 0.17982532 -0.24106601 0.20450272 0.101645015 0.12420429 -0.20163062 -0.183551 0.2214863 0.10842114 -0.2915643 -0.05471453 -0.08199755 0.0340797 0.013075183 -0.074061744 0.009667373 0.20370577 0.12797953 0.1477744 0.2439402 -0.06344738 -0.03478424 0.12670368 0.18897721 0.06723751 0.24427116 0.3444096 0.05255515 0.24276446 -0.026259067 0.047200464 0.12897147 0.24941202 0.21117128 -0.20741667 -0.17677292 -0.3709569 0.2218772 0.07903066 0.13232088 0.12517981 0.297603 -0.20400338 -0.1584917 0.07342804 -0.15136376 -0.007047579 0.02023193 -0.04257822 -0.15724522 -0.12865053 -0.053971063 0.25175285 -0.15880786 -0.08702098 -0.13621841 -0.054891232 0.2867405 -0.11345939 -0.09013288 0.013101163 -0.03912257 0.12835488 -0.0008419274 0.19327119
53 0.30702958 -0.023054842 -0.3766495 -0.002818176 -0.061435994 0.027115334 -0.14817882 0.33374 0.133327 -0.09580759 0.09296836 0.046612218 0.19328167 -0.164375 -0.035536915 -0.08942584 0.17744039 0.28281742 0.05294845 -0.16823614 0.15540682 0.027815333 0.36357504 0.054590818 0.30349904 -0.119094424 -0.31627688 0.12960154 0.0815174 0.3190681 -0.04298879 -0.30226132 0.1431748 0.36251765 0.16311844 0.31917006 0.18941167 -0.32037994 0.26319557 -0.016658043 -0.1368609 -0.089671984 0.08042042 -0.030081596 0.15449867 -0.048420653 0.31279308 0.33352098 0.03020057 -0.148594 -0.21511815 0.5504176 0.0920121 -0.32120323 -0.11458223 0.28006533 0.33060342 0.40694815 -0.06450106 -0.14704418 -0.083284065 0.09962295 0.16911715 -0.16743983 0.10545859 -0.30239245 -0.067662574 -0.20024899 -0.06808205 0.11045796 0.096961394 -0.19969422 0.24583143 -0.07330446 -0.2134396 0.07579079 -0.04057989 -0.05632248 0.039383218 -0.19614996 0.19589667 -0.39450574 -0.14264871 -0.35059717 -0.06283192 0.13104312 0.06430021 0.23005323 0.16013533 -0.033785556 -0.05954757 -0.008027778 0.21174204 -0.030251602 0.19761759 -0.034687705 -0.09013232 -0.14369392 -0.1280099 -0.17714898 0.078730084 -0.013536676 0.011401571 -0.37857926 0.4717088 0.09136323 -0.06538025 0.14262556 -0.3327044 -0.034412462 0.06804835 0.14002563 -0.2522313 0.06372266 0.0723586 0.07377744 0.1146961 -0.13624929 0.069319606 0.030757412 -0.29045483 -0.28847897 0.30865854 0.19038701 0.039460037 0.079046324 0.27559748 -0.09597624
332 0.06914441 -0.027380954 0.122845694 0.16119075 -0.25130045 -0.17435749 -0.030406311 0.1790698 0.17348088 0.18905441 0.023393778 -0.09400249 -0.03075128 -0.03307632 0.12567654 0.17684224 0.094096474 -0.024907567 0.061410956 -0.25818187 0.112478055 0.19062755 0.2715084 0.056307133 0.09674123 -0.043130714 -0.2925159 0.061494946 0.10597187 0.23847307 -0.09654781 -0.24950734 0.027520612 -0.00091519894 0.088028185 0.24645922 -0.17428969 -0.27273813 -0.1787154 -0.1787502 0.027136303 0.0048030936 0.24363062 -0.18615018 0.16868284 0.1758353 0.17304422 0.02358292 -0.15712336 0.08035176 -0.08704254 0.012954125 0.1866791 0.09608356 0.012306221 0.06142417 0.003827701 0.22430308 -0.0769685 -0.05396556 0.039083794 0.07833641 0.037891444 0.2769456 0.0038950804 0.30470118 -0.16802697 0.19454627 -0.24862438 -0.1275965 -0.03823116 0.014963071 -0.17502259 0.14964044 -0.2905202 0.060601994 0.019466572 -0.13054161 -0.14152612 0.27882537 0.14861736 -0.031787638 0.21328408 -0.30512777 -0.05440906 0.03790551 0.10188663 0.3580667 0.23811145 0.22718169 0.19421569 0.10339904 0.25733116 0.06895334 0.004768205 -0.008363768 0.10961754 -0.10042407 0.057821874 -0.42539802 0.284436 0.036255807 0.08649697 -0.021310735 0.26357913 0.03173779 -0.16479261 -0.07018079 -0.4242885 0.0364431 0.23739927 -0.045275096 0.03720424 0.13749605 -0.06591352 0.08777572 0.052457575 -0.13868684 -0.11687092 0.07074752 0.19933985 -0.010306069 -0.034440186 -0.11662419 -0.07029014 -0.15088542 0.26660934 0.11834218
257 0.011783616 -0.14192815 -0.036818497 -0.10601955 0.041978206 0.060466524 0.061081685 -0.24032195 0.124236144 -0.06597884 -0.114308864 -0.084903836 0.27965167 -0.17565402 0.13888623 0.010299621 -0.16375962 0.059345506 0.021763671 0.050603952 0.2863046 0.027413897 0.18024701 0.038948085 0.21463162 -0.03182127 -0.26733658 0.23988998 -0.02821363 -0.12168852 -0.014669291 -0.36732608 0.1357742 0.27937692 0.110830024 -0.013129697 0.00681973 -0.3188598 -0.33077902 0.18342537 -0.18591082 -0.18547232 -0.014062342 -0.10330871 0.16027716 -0.37075934 0.13598979 0.19546562 -0.044943336 -0.021198735 0.04038144 0.029892424 -0.006873369 -0.064390175 -0.29930156 0.117578276 0.03386732 -0.061428778 -0.18561618 0.02053425 0.15666363 0.09199024 -0.027010355 0.20585105 0.26862943 -0.20885494 -0.10221875 -0.012998435 0.110338345 -0.07723172 0.08172239 0.19744931 -0.09961676 0.03744241 0.2607266 0.07532547 -0.1755712 -0.03381366 0.13126662 0.20683071 -0.05503242 -0.19818392 0.14014058 -0.31703806 -0.14681402 -0.090513594 0.15044986 0.17851882 0.0923238 -0.07092449 0.12652817 0.16874987 -0.11694627 0.12846659 -0.13220714 -0.06435327 -0.1166642 -0.3860854 -0.021535547 0.017375441 -0.067622356 0.14923465 -0.054518465 0.077582575 -0.06420046 0.25611693 0.18051419 0.09476929 -0.28882152 0.007855605 0.019028783 0.28345984 0.0836303 -0.11600003 -0.067821816 0.039769653 -0.00044810242 -0.15852566 -0.13687204 -0.1035773 0.07017397 -0.14851183 -0.07992059 0.09723436 0.22171004 0.14696954 0.15174884 -0.10949836
26 0.17743851 0.17867179 0.07099972 -0.057793196 -0.06506289 -0.090656616 -0.21727209 -0.055286318 0.22088242 0.031028805 0.017512288 0.14986573 0.1776653 0.09253212 0.1655512 -0.08030605 -0.12499703 0.3500933 0.20990735 0.029475184 0.07410089 0.14949223 -0.14975512 -0.24270852 -0.048685804 0.22404665 -0.04230131 0.012567686 0.06404876 -0.117729604 0.27260217 -0.079692446 0.18882787 0.4547449 0.12335011 0.13430339 0.23751274 -0.013514025 -0.23419575 -0.1402072 -0.18781649 -0.28850344 0.06832998 -0.2712718 0.07864628 0.15059404 0.21695055 0.23528975 -0.0074279527 -0.053025458 0.08177961 0.26262993 -0.011121418 -0.044326562 -0.2537213 0.036630835 0.0645733 -0.029280433 0.0709429 -0.070647396 0.11490182 -0.06845164 0.09919958 -0.0011879015 0.13917701 0.019481303 0.04463085 0.19162597 -0.19489653 -0.16147594 0.12209373 0.23115486 0.027186723 0.01655451 0.18349141 0.004568086 0.30964082 -0.09372016 0.32094094 0.19055352 -0.05581618 -0.032426793 0.053833142 -0.08345285 -0.15220478 0.22446503 -0.115079425 0.17860775 0.15188564 -0.15035081 0.12907408 -0.106916025 0.12870666 -0.071461946 -0.14504607 -0.039624915 0.052144565 -0.19784917 -0.011361089 -0.32364258 0.027183808 0.17166643 0.025250392 -0.015856978 -0.029800335 0.045881845 -0.11189426 -0.05828479 -0.1735945 -0.11278202 0.28106108 0.10100368 -0.021977615 -0.050053712 -0.18988122 0.0031971154 0.0625222 0.023144156 -0.12988159 0.005686448 0.13598372 0.15497203 0.11182075 0.00027531746 0.25401676 0.27332628 0.1571804 0.12086318
273 0.20539546 -0.1309988 0.5834693 -0.22704723 -0.3606226 -0.38938412 -0.1334662 0.5723256 0.5045086 -0.086494885 -0.7973946 -0.48757315 0.3523169 1.0373544 0.2383311 0.09524373 0.066818394 1.0889974 -0.44481537 0.23723315 -0.13779105 -0.29021028 0.11104358 0.1215637 -0.39381933 0.35317686 -0.6843133 0.6249939 -0.35456944 0.20803972 0.6115685 -0.24679343 -0.15440024 -0.47817767 0.16334294 0.10067785 -0.18418863 -0.77789545 -0.16064087 -0.31756324 0.055432484 0.09163834 0.8783108 -0.018235113 0.5915548 -0.175824 0.14438243 0.762693 -0.2954613 0.15954986 -0.22476494 0.56024617 -0.13955244 -0.088638246 -0.5928243 -0.27940002 -0.60345334 -0.2692218 -0.4194267 -0.5425966 0.1095102 0.6899168 -0.36816746 -0.28649333 -0.22395879 0.41192928 -0.23238026 -0.27681437 0.53388804 0.048064396 0.30763647 0.14095291 0.24780983 -0.2648625 0.5384438 -0.51496935 -0.060637366 -0.21049726 0.21198547 -0.14673188 0.15235631 -0.95988184 -0.16995552 -0.17287955 0.10525421 1.0375354 0.08090857 0.33326033 0.54463917 0.56695706 0.33942527 -0.16112803 -0.20002809 0.017387602 -0.05308175 -0.47677624 0.81084776 -0.2173209 0.17204472 0.2012171 -0.0050680498 0.19440779 0.109844185 -0.10091671 0.049749095 0.105783015 0.27925974 -0.022882482 0.13014306 -0.62349373 0.34639373 -0.18991451 -0.7798566 -0.39124352 0.59647685 0.31906143 0.01631616 -0.13206564 0.3206347 0.4367182 0.57819265 -0.40974984 -0.0498036 -0.3880334 0.08352206 0.02417949 -0.097733125 -0.5435836
285 -0.007282521 -0.22844397 0.038380135 0.05634937 -0.32158962 0.093528025 -0.12291315 0.020989422 0.032629065 0.06918037 -0.17717375 0.0004820911 0.11323948 -0.07901428 0.12962887 -0.08364642 -0.0035840047 0.1295392 0.101757064 -0.12519442 0.18769793 -0.13694449 0.16549708 -0.26623845 0.11438352 0.005828793 -0.0814875 -0.02710949 0.011306817 0.10169617 -0.15845391 -0.12080704 0.27276635 0.28885213 -0.38595265 0.19992281 0.040194537 -0.34325427 -0.17664497 -0.088615306 0.10760658 -0.11167343 0.17326708 -0.09074632 -0.07937119 0.17697708 0.11518481 0.28147754 -0.019108837 -0.118489265 0.041447207 0.13089621 0.1550868 -0.05331179 -0.118191645 0.006498727 0.040655345 0.247965 0.0008491388 0.34174508 -0.00946498 -0.108712256 -0.008233078 0.12188302 -0.043496504 -0.054983947 -0.24746473 0.045257036 0.20561342 -0.12505904 0.03328984 0.090911485 -0.21061234 -0.017466009 0.14452668 -0.04929902 -0.012487921 -0.2658154 0.18974167 -0.018864803 -0.028885182 -0.0825915 0.18873829 -0.09493608 -0.06901705 -0.062979 0.19381712 0.085323274 0.24291517 -0.028812725 -0.061487608 0.29228088 0.19900367 -0.14207354 -0.27148888 0.14678776 0.020236278 -0.1930417 -0.16806091 -0.32798278 0.10728003 -0.087487325 0.16031367 -0.06753522 0.07568002 0.30581397 -0.2051985 0.15593319 -0.16162443 -0.08486738 0.0278362 0.04888953 0.060094465 0.06252775 0.07141497 0.07787283 0.14633349 0.067022845 0.06953263 -0.2637543 0.36148965 -0.122091815 0.08643782 0.16542941 0.034954853 0.23219535 0.09347811 -0.2747993
128 0.027532157 0.1333445 0.25397852 -0.04502669 0.03535233 0.034020253 -0.4664184 0.024278678 0.13847184 0.2564861 0.017921459 0.12724276 0.22784542 -0.11547686 0.0962493 -0.15722378 -0.13155788 0.13032915 0.055281416 -0.13053331 -0.14600587 0.262342 0.062479492 0.028204923 0.27022335 0.21887776 -0.27770117 0.28488484 -0.18942505 0.044438023 0.33175465 -0.01121391 0.120064445 0.25739634 0.105330735 0.26791856 0.13247128 -0.10571746 -0.04661334 0.087247685 0.040002104 -0.12806527 0.065751985 -0.015530037 -0.033797853 0.04439621 0.045360528 0.36379248 -0.033079308 -0.30918333 -0.21802872 0.02807303 0.07965871 -0.021569898 -0.45206964 0.06829762 0.028353374 0.120919846 0.2198201 0.29079404 0.14800079 -0.17529781 0.05445326 0.21830839 -0.07853221 -0.14221781 -0.159707 0.10592097 -0.10026007 -0.11883791 -0.1476614 -0.1433487 0.054367244 0.019471446 0.0029387614 -0.10073934 0.06540683 -0.12065936 0.25643563 0.14300436 0.24885292 -0.0651374 0.15752187 -0.013837349 -0.29094893 0.17146607 -0.17492497 0.14702049 0.045254268 0.044410113 0.05704118 0.18950687 0.09724931 -0.19344823 -0.15638627 -0.11102903 0.05465585 -0.26415247 -0.26459217 0.013679226 0.10193106 0.07141169 -0.15568438 -0.27577692 -0.027915848 0.2893131 -0.12339258 0.055854157 0.14553484 -0.19745988 0.15767193 -0.0213676 -0.1265516 0.18167183 -0.15488485 -0.03755546 -0.23654808 -0.259297 -0.07834579 -0.22523573 0.19885693 0.016595576 -0.19870079 -0.29057604 0.12524153 0.09709731 0.24104685 0.2769617
98 0.24217838 -0.21652362 0.12885652 0.0627121 -0.06177297 -0.011765328 -0.117401734 -0.04173587 0.038255848 0.03877357 -0.3098212 0.017652404 0.0689977 0.10484517 0.06476548 0.103611 0.0045758993 0.4222392 0.26107484 -0.024877701 0.0050701043 0.22604932 -0.062201083 -0.1547804 0.087860525 -0.059728004 -0.20981875 -0.002326371 0.04899372 -0.07492086 0.23167968 -0.14390369 0.013976192 0.18661019 0.03081089 0.06156138 0.03474877 -0.1753721 -0.2954784 0.10208902 0.049284644 -0.14044757 0.013414097 -0.26170966 0.058952183 -0.07468178 0.16147165 0.32943448 0.13196339 -0.0066842344 0.04261025 -0.012671394 0.20219266 -0.13678695 -0.10596152 0.2073351 0.04910005 -0.08282274 -0.031709537 0.17039625 0.018162226 -0.13193935 0.09282527 0.10695832 0.19407018 0.039226323 -0.17291173 0.026446244 0.09465428 -0.04851631 -0.036166944 0.060910735 -0.034016278 0.09610783 0.03772377 -0.054985628 0.120175965 -0.05238847 -0.059671897 0.006789556 0.004055587 0.02533757 0.17524333 -0.19236104 -0.2318687 0.019852478 -0.16454677 0.27577847 0.16626775 0.056849916 -0.10125059 0.119432814 0.03302383 -0.18925433 -0.2064964 0.08020438 0.016586265 -0.08144413 -0.16705158 -0.1877926 -0.07031616 0.10394683 0.21864612 -0.05604304 0.1073679 0.16020359 -0.015631631 -0.09341192 -0.12642807 0.02710673 0.14797081 0.105284534 0.14631307 -0.16890381 0.13342002 0.035759985 -0.03516414 -0.077383816 -0.18366486 -0.08774093 0.11783248 -0.2565382 -0.17549771 0.057636376 0.23856468 0.00051615207 0.07596827 -0.06899353
280 0.03487531 -0.0850797 -0.1289901 -0.086348675 0.022627598 0.16357562 -0.0014506462 -0.15443356 0.1467528 -0.12874195 0.1590525 -0.15663029 0.29733264 -0.05998134 0.23867552 0.15496397 0.2134548 0.14767842 -0.2525773 -0.12630178 0.2883789 -0.07364949 0.20417547 -0.14530249 0.01355363 -0.08094658 0.08867013 0.0750441 -0.15532973 -0.07991363 0.04360679 -0.05089019 0.001530752 0.3828203 -0.058066793 -0.009519734 0.15698668 -0.2204565 -0.34034404 0.08888378 0.064262636 -0.10008696 0.24851814 -0.15471783 0.053981513 -0.15690534 0.1804351 0.45290872 -0.057419688 0.063311785 -0.054878395 0.1949343 -0.087414294 0.08887598 -0.105001174 -0.016525136 0.05707294 0.068185605 0.0066025695 0.20913218 0.001245228 0.03690361 0.119564705 0.113662 -0.039663937 0.040813353 -0.032844197 0.07017668 -0.09865709 -0.03395043 0.19091447 0.25621104 -0.10783989 -0.016900705 -0.025079524 -0.0015927174 0.13024466 -0.022121713 0.061481565 0.42178434 0.10847096 0.21382384 -0.049614396 -0.11744896 -0.282714 0.03595747 0.24447767 0.34828603 0.20783094 -0.16211113 -0.08919585 -0.01839742 0.031329796 0.09937395 -0.05779219 -0.105694436 0.028020447 -0.32407162 -0.2001769 -0.1894091 0.15682305 0.22598378 -0.05672616 -0.14999354 0.1007945 0.2124734 -0.12406294 0.022728974 -0.27838877 -0.05417188 0.0974756 -0.1282381 0.0753305 0.014657581 0.046929177 -0.014992577 0.22600354 -0.19617552 -0.076977074 -0.17326169 0.35698196 -0.21476537 -0.13279115 -0.011059362 0.0196459 0.12629333 0.07962801 0.111147925
31 0.004244368 -0.022595322 0.24846765 -0.11942153 -0.37486112 -0.19083583 -0.116346255 0.09503768 0.22739 -0.18691005 0.2197862 0.03646697 -0.047025945 0.16993962 -0.1523624 -0.10423058 0.14111876 -0.080282904 -0.12826331 0.12920506 0.10823177 -0.032963283 -0.18870768 -0.24324176 -0.06480863 0.0845863 -0.07141665 0.3581243 0.33667526 0.08879159 0.14177035 -0.103310555 -0.053671993 0.012254497 -0.31231764 -0.0818774 0.12833345 -0.43986192 0.15792988 -0.09274085 -0.26303232 -0.033720486 -0.020186795 -0.05165039 0.00027992105 0.01574737 -0.006890478 0.12702988 0.19932042 -0.12489969 0.19689998 0.03384899 -0.077443935 -0.23837891 -0.12326335 0.20622201 -0.26616108 -0.40637407 0.07395221 -0.1198652 0.02982451 0.25210455 0.14212474 0.051950052 0.05350822 0.17468669 -0.10497003 0.21552329 -0.03419907 -0.024495658 -0.04524083 -0.34104347 -0.18937737 0.17250553 0.087207705 0.22493379 -0.08440991 -0.038172774 0.025201226 -0.1605549 0.26316065 -0.07084123 -0.1640399 0.04347833 0.014935672 -0.14866091 0.08798352 -0.01608291 0.3279285 -0.05171439 0.17485565 -0.23567429 -0.02534728 -0.09890551 0.045856073 -0.26644322 0.1301461 -0.21614525 -0.23964757 -0.30267647 -0.081908904 0.16561873 -0.16958788 0.020937018 0.19166327 0.13569812 -0.0057601 0.003355171 0.20827034 -0.12103525 0.094897404 -0.036140293 -0.31134886 0.056183495 0.057665687 0.12894832 0.15878135 -0.10549934 -0.25418696 0.017827196 0.28947595 -0.26224095 -0.025825229 0.16332687 0.40684995 0.11208799 -0.036275104 0.2874919
195 0.32921663 -0.08470823 0.4071983 -0.25164282 -0.3039418 -0.23645172 -0.08844908 0.5438684 0.6484537 -0.0049723135 -0.90571904 -0.51180327 0.3856238 0.90025175 0.33505657 -0.1620391 0.039362665 1.0953184 -0.30828598 0.33930227 -0.20461541 -0.14980744 -0.094627425 0.055151805 -0.36820698 0.14831579 -0.7720452 0.5058412 -0.31079996 0.2524334 0.6257745 -0.35187346 -0.092329726 -0.40762082 0.0068081026 0.22638892 -0.4508711 -0.8149833 -0.056398883 -0.34362623 -0.010669446 0.13771544 0.97738665 0.11543544 0.53338796 -0.16860355 0.22833005 0.8390712 -0.35143715 0.057514824 -0.25162697 0.56173235 -0.13590385 -0.14057373 -0.41340896 -0.40636495 -0.6396148 -0.37564433 -0.4612117 -0.4919354 0.37155935 0.5986928 -0.21403404 -0.18360798 -0.29735246 0.3146906 -0.41286436 -0.37396184 0.383072 0.103836976 0.27021742 0.038933996 0.30422264 -0.2095757 0.38990775 -0.50872964 -0.051673677 -0.29220718 0.35615793 -0.29525194 0.12395572 -0.82666487 -0.027869307 -0.3553476 0.18229803 0.9414035 0.13345404 0.28198797 0.5294975 0.4483203 0.3873848 -0.15831572 -0.25167355 -0.019927803 0.06535128 -0.5075078 0.5838264 -0.22647186 0.17987248 0.167829 -0.1009634 0.2092631 0.1370257 0.08175727 0.08354417 0.08593656 0.2991436 0.09023747 0.12288319 -0.52444226 0.30651435 -0.17497912 -0.7497633 -0.56099963 0.55030847 0.30255103 -0.08641989 -0.13834934 0.38444892 0.44323766 0.6753412 -0.50286156 -0.098101094 -0.33968636 0.08689865 0.0033889725 -0.12526056 -0.46455055
80 0.21360245 -0.074853525 -0.052345015 -0.31568843 0.2022584 0.20082739 -0.22482388 0.38786674 -0.08273161 0.17479752 0.043230448 0.055543467 0.24819139 0.108960085 0.034184363 -0.03478866 0.08696721 0.2077442 0.03302042 -0.017823897 0.018498136 -0.10280321 0.10551266 -0.017164918 0.21872215 0.10417235 -0.16245832 0.0685649 -0.14926186 -0.04395431 0.03289603 -0.2649092 0.1664755 0.39015186 0.16589941 0.2886606 0.10246564 -0.3263736 -0.051809143 0.17541122 0.11991475 -0.046328355 -0.007696662 -0.024939697 0.1942664 -0.21668987 0.09709694 -0.029502412 0.10601578 0.2312963 -0.09492167 0.6574547 0.16841798 -0.25465778 0.29016525 0.23356977 0.47286886 0.32875374 -0.115555406 -0.21872708 0.20771727 -0.099171594 0.090382874 -0.25021115 0.230674 0.20039931 -0.11404809 -0.057309505 0.014566222 -0.06038718 0.42128533 -0.2186715 -0.023589538 0.013439968 -0.21108882 0.37516683 -0.10124466 -0.1427198 0.314886 -0.00366825 0.05880469 -0.28883737 -0.26512536 -0.09850084 0.062030867 0.13933946 0.067593165 0.44746208 0.18665186 0.06914049 0.15864086 -0.00799058 0.06287066 -0.1185776 0.41611758 -0.10509843 -0.0695985 -0.30821034 -0.17058127 -0.10637309 -0.0097116325 -0.20581707 0.09620919 -0.48690403 0.16376022 0.057455562 -0.122668795 0.2963184 -0.39803696 -0.17495082 -0.12178066 0.048196647 -0.19571105 0.035033263 0.0091393 0.44998303 0.22333333 0.014196675 0.04199599 0.08186729 -0.04488184 -0.05039472 -0.01926041 0.15663353 -0.060504887 -0.0714688 0.053154606 0.12724069
113 0.23275602 0.038397714 0.08928963 0.20713396 0.185222 0.028714063 -0.17576419 0.08237782 0.14293127 0.09228939 -0.10434422 -0.032090444 0.014663123 -0.018263143 0.15716505 0.122213095 -0.11944091 0.25909498 -0.027672153 -0.111657254 0.045868516 0.13686804 -0.036437493 0.116266645 -0.04247164 -0.1419058 -0.098085 0.18594246 -0.081620395 -0.09562388 0.23827352 -0.062483147 0.056336593 0.08011965 0.0774673 0.10802937 0.08496103 -0.34127113 -0.3324739 0.13774858 -0.09406558 -0.11745511 0.029577386 0.092323154 0.12916155 -0.03967091 0.16017358 0.15186329 -0.017689522 -0.2508017 -0.06406096 0.14179337 -0.0060040215 -0.08223439 -0.21843646 0.17141981 0.021453736 0.042159025 0.23416658 0.23618104 -0.017887454 -0.16403984 0.34187216 0.016464321 0.37638587 -0.07110884 -0.038949218 0.04492889 0.038857464 -0.114681624 0.13271332 0.2659803 -0.029981237 0.0738272 0.11221201 -0.019828014 0.08896173 -0.049607877 0.23448576 0.11974975 -0.09415044 -0.18017691 0.068768844 0.06462873 -0.17583452 -0.027279628 -0.048730884 -0.0049829283 0.09552792 -0.058692083 0.063144065 0.015636992 0.25959334 -0.018844275 -0.01897871 -0.1344161 0.24942176 -0.13521878 -0.13713425 -0.27980545 0.11118168 0.27763957 0.091019064 -0.13179788 -0.011319874 0.043942586 -0.0801145 -0.2983612 0.00058942754 -0.08669813 0.12534007 0.012690309 0.013255925 0.071081325 0.27597415 0.044363983 -0.043109477 0.010468292 -0.1349423 -0.014928772 0.26405644 -0.13220528 0.06589475 0.041558515 0.18771182 0.19697574 0.04534565 0.007075237
104 0.16561235 0.17814748 0.026886258 -0.01770508 0.13422464 -0.07764909 -0.11943541 -0.06303987 0.13736169 0.14421293 -0.34600142 -0.18954518 0.011780886 -0.027140979 0.10733734 0.078284234 0.18127024 0.050252736 -0.018212158 -0.10590724 0.065424845 0.17870265 -0.35030645 -0.05839577 0.10564609 0.11696807 -0.3102243 -0.020022387 -0.08505992 -0.038229093 0.17122193 -0.34340844 0.28557253 0.33366036 0.13142912 0.30476153 -0.15826209 -0.3870816 -0.06046838 -0.043674834 0.1880695 -0.15338714 0.05115394 -0.093469545 -0.13759783 -0.013790156 0.22073346 0.29346702 0.3360561 -0.09208207 -0.13831487 0.06728969 0.23327348 0.06605402 -0.106730856 0.05259164 -0.087989554 0.09282122 0.038428657 0.20215635 0.09175953 0.22759007 0.020877033 0.24586669 0.11308326 -0.1238139 -0.10684694 -0.029095484 0.006845732 -0.07288218 -0.11913949 0.18819067 0.1420704 0.27520785 0.12551221 0.009816004 0.048460845 -0.15422441 0.31713733 0.14344746 0.35005984 0.09599809 0.1659645 -0.02574371 0.014544217 0.12994161 -0.18442039 -0.017598398 0.30167592 0.03342816 0.18800862 0.02423526 0.13129425 -0.08030112 -0.2061346 0.25255993 0.06508527 -0.21539101 -0.035273492 -0.049970143 -0.041408587 -0.008219633 -0.17204136 -0.03035165 0.16416267 0.014856474 0.073655225 -0.15492746 -0.006006345 0.045949705 0.1119227 0.23446728 -0.07151929 -0.20412225 -0.16609257 -0.053684954 0.35192835 -0.10571489 -0.31769857 -0.086795695 0.20903957 0.12670417 0.012389945 0.14881074 -0.0711802 0.3353295 0.0642117 0.08666948
261 0.055901513 -0.2549961 0.059317105 0.036308806 -0.17829178 0.059926506 -0.047052465 -0.08292209 0.03299544 -0.09669844 -0.3065708 0.036071673 -0.038555183 0.001127312 0.14390342 0.1845918 -0.009348634 0.1826494 0.28775665 -0.095447026 -0.1698282 0.24195744 0.001601086 -0.23045427 -0.07424709 0.1658285 -0.26983747 -0.061626222 -0.14515258 -0.045355238 0.3871424 -0.08667161 0.043790154 0.056278493 -0.07988274 0.2218345 0.16693686 -0.2443922 -0.15649168 -0.02235161 0.19402058 -0.28160167 0.13768561 -0.24246657 0.21336117 0.15904394 -0.05499148 0.2397824 0.11018293 -0.21268678 -0.10847426 0.1177033 0.2764216 -0.10973639 -0.28245962 0.13099603 0.09879718 -0.0035302103 0.1459823 0.19904366 0.02982877 0.19398056 0.074985884 0.20505103 0.19750357 0.003853636 0.026327042 0.18681775 0.13942142 -0.09946818 0.023530405 0.031009408 0.15698628 -0.0010584577 -0.174143 0.13822207 0.26098683 -0.11102616 0.075100765 -0.021801546 -0.19515328 -0.18891652 0.1401531 0.08293595 -0.041453592 -0.31299558 0.13976134 0.2019366 0.15221208 0.07671054 -0.06419745 0.21803518 0.1028666 -0.03310575 -0.21388441 0.009130877 0.04276812 -0.08753067 -0.14980888 0.0009350265 -0.08597713 0.17830168 0.16298905 -0.14514056 0.29584017 0.011283715 -0.05771083 -0.08933081 -0.0912639 -0.24369322 -0.0057269097 0.026198518 0.11085207 -0.17416827 0.02518724 -0.060408752 -0.11620619 -0.11322193 -0.31313977 0.070461646 0.12705156 -0.0034231828 -0.18727207 -0.19019158 0.14539899 -0.06704862 -0.19588064 0.13475072
190 0.0687567 -0.1614304 0.13754451 0.0061330167 -0.29621986 0.0028487758 -0.31648812 -0.094385125 0.0820834 0.18753107 -0.16977534 0.2134883 0.0076983054 0.19315678 0.15041223 0.010884515 0.24754597 0.27974254 -0.13952792 -0.12918557 -0.2338781 0.039934225 0.026424646 0.022203628 -0.02696978 -0.10859509 -0.01423839 -0.13547479 0.05386809 0.23714611 0.17687093 0.050316665 0.35023633 -0.1449592 -0.19168395 0.10955293 -0.20612288 -0.49777028 -0.32233518 0.1488525 -0.20798494 -0.16587427 0.08977819 -0.012885654 -0.00831405 -0.15513352 -0.022866653 -0.056689225 0.18678132 -0.064186856 -0.22846846 0.022504902 -0.31663412 0.022239868 -0.26221985 0.18226698 -0.14763989 -0.23602246 0.050791383 -0.13022813 -0.13384703 0.13709171 0.13623118 -0.00037896325 0.107340604 0.028496724 0.16188343 0.06483132 0.04742083 -0.14699535 -0.05239628 0.12525213 0.1431318 0.33153453 0.32627764 0.12751266 -0.18287311 0.00489758 0.11632246 0.13091779 -0.0046056868 -0.20779258 0.20923221 0.02613338 -0.11819148 -0.18326801 0.08312651 0.023765966 0.073535256 -0.112748675 -0.25198516 -0.29487264 0.051738136 0.023953421 -0.039623886 -0.007268863 0.07071578 -0.15483022 0.020799883 -0.16979373 -0.050059162 0.09606592 -0.023941668 -0.44828355 0.068091996 -0.031941526 0.084570795 0.14555556 0.016672112 -0.24780586 0.1963237 -0.1424577 0.21014452 0.11051535 0.13255829 0.16681679 0.0933845 -0.09288233 0.06658517 0.0851139 0.00091602706 -0.15284784 -0.3825909 0.054136775 0.2948381 0.062140647 0.0004906881 0.13966727
178 0.060066216 -0.17266892 0.028948376 -0.28213805 -0.25891367 0.17352132 0.21481796 -0.21572933 0.26646933 -0.065971866 -0.21647552 -0.21191974 0.053092185 -0.11283685 -0.0005680137 0.0019257822 0.0016826402 0.023882996 -0.220887 -0.05931271 0.19375984 0.007429658 0.13712396 -0.10816314 0.15609764 0.16670579 -0.33026356 0.050803855 -0.05859499 -0.017645564 0.15071796 -0.1750471 0.11594719 -0.08971239 -0.011778438 0.10537371 -0.018504685 -0.05967459 0.035051376 0.0412518 -0.39140078 0.12408622 0.10850982 -0.23400562 0.19745155 -0.0813884 0.015627373 0.31743714 -0.20394175 -0.2333759 0.080564596 -0.035660032 0.4292749 -0.35713893 -0.22858325 0.14403619 -0.1089091 0.19698189 -0.014577539 0.1476515 0.21005152 -0.23812546 0.05659024 0.15355965 0.020711213 0.26476693 -0.06334946 -0.12285433 0.17973599 -0.1390949 0.17483328 0.13699795 0.29681107 0.044698186 -0.007816071 0.038780052 0.06379222 0.0823855 0.44401106 0.011313508 -0.11070332 -0.13896808 0.04916222 0.017819315 -0.22211343 0.07561915 0.10290464 0.10733209 -0.047228966 -0.06423 -0.04209042 0.18401098 0.050520185 -0.1730676 0.068511374 0.04828092 0.10463121 -0.21483155 -0.34423858 -0.36683565 0.057715908 0.13518956 -0.1166068 -0.23611106 -0.07168868 -0.142567 -0.0036151598 -0.121015996 -0.37853208 0.021578195 0.041601893 0.13486935 0.11908508 0.24706979 0.0363876 0.16553031 0.099283256 -0.053810284 0.19406442 0.043073144 -0.020184603 -0.10275085 -0.097624645 0.2640331 -0.19811279 0.49144512 -0.11319255 0.12517436
62 0.25488466 0.05099248 0.30190954 -0.21917476 0.15957277 -0.27357224 0.23662747 -0.23473413 0.08417094 0.16879162 -0.31570905 0.06945084 0.20358373 -0.24792024 0.05243688 0.20405668 0.012557681 0.14324729 -0.18264261 -0.19365044 0.024085684 0.07938248 0.03472147 -0.12499143 0.23887695 0.053429596 -0.011149713 0.09400553 0.07033621 -0.34490117 0.0062468518 -0.11863567 0.13896587 0.3745449 0.07946495 0.28660962 0.01434755 0.093572125 -0.37036216 -0.09515084 0.029380873 -0.2470378 0.121426165 -0.097821 -0.008969509 -0.027476225 0.32929826 0.33599082 -0.023368118 -0.15057689 0.14531744 0.44921264 0.18295799 0.03942293 -0.20380346 0.2365599 -0.13000385 0.0052227275 -0.12936366 -0.23298377 -0.18257053 0.099597335 0.06723925 0.1653616 0.14863247 -0.035853922 -0.10455412 0.12063033 0.057148144 -0.013016682 -0.08067216 -0.017998444 -0.1036854 0.17931314 0.26484686 0.09289083 0.19948007 -0.040843137 -0.048548233 -0.15893242 0.12434481 -0.2755219 0.13049549 -0.15631936 -0.20479268 -0.044393614 0.10881694 0.07885937 0.05554431 -0.09128573 -0.030838756 0.08177835 0.16395351 0.15000251 -0.38775492 -0.08585783 0.0852536 -0.12745185 -0.34211904 0.03798888 0.085191116 0.24326356 -0.08416006 -0.16347428 0.22498399 0.19503811 -0.30966386 -0.08333374 -0.17932075 -0.029125286 0.30425778 0.16996665 0.072485656 0.01898845 -0.17707357 0.15048134 0.11153491 0.03133818 0.06867325 -0.04504867 0.18942916 -0.0006115542 0.10682149 0.07418453 0.24467483 0.31929216 0.17193444 -0.028565627
185 0.07766941 0.031830877 0.13123524 0.066320345 -0.031061359 -0.02354983 0.03941639 -0.07179784 0.23638843 0.009935344 -0.4070491 -0.027640134 0.011305609 -0.0027535849 0.084414564 -0.23219784 0.25188145 0.19164954 0.043389793 -0.16482805 0.09465103 0.028300071 -0.014857973 -0.13950764 0.42127046 0.12883146 -0.16693836 0.18866019 -0.0028920546 -0.10022723 0.0042154924 -0.23593585 0.07016301 0.24907732 -0.30267942 0.19789205 0.10451747 -0.29929903 -0.118959874 0.0005822159 0.009924979 -0.18055087 5.2285577e-06 -0.29845527 0.2031247 0.018074663 0.12741236 0.31590492 0.019272748 -0.08910528 -0.17487714 -0.06872617 0.06032133 -0.07517198 -0.29164246 -0.0270004 -0.08748438 -0.2282057 0.066198096 0.17205258 0.060784336 -0.03176868 0.15978447 0.019000461 0.34257877 -0.13884182 -0.064533465 0.056194153 -0.06729407 -0.115187705 0.082985595 0.35159725 0.15005095 -0.08376505 -0.18229179 0.19317834 0.017412718 -0.075275026 0.08242442 -0.0028145036 -0.088627525 0.07311879 -0.21645395 -0.21602304 -0.08459648 0.14019416 0.032240596 -0.0041910075 -0.24896285 -0.13910624 -0.048730474 0.16541824 0.31402072 -0.04023639 -0.12273183 0.07684339 -0.02973081 -0.13885622 0.09628137 -0.12728944 0.20771833 0.018672584 -0.020733217 -0.13143475 0.0014664931 -0.022956554 -0.087249205 0.20599301 -0.01298916 -0.15003434 0.0041285213 0.06992186 -0.090346605 0.05392659 -0.05446007 0.06547639 0.06704369 -0.23325169 -0.08194352 -0.11558417 0.2603394 -0.17017405 -0.00850665 0.14585839 0.07763827 0.16141436 -0.002274121 -0.027580533
291 0.12229848 -0.24255767 0.09121731 0.111524954 -0.21864976 0.16168885 0.0036570458 0.02694612 -0.019716013 -0.13284501 -0.2965421 -0.23420972 0.11017642 0.19950043 0.072212234 -0.1859405 0.041790783 0.008875189 0.057610277 0.09327714 -0.0775313 -0.071798205 0.1640079 -0.092557006 0.21369237 -0.06416519 -0.048115395 0.08735615 0.03132452 0.102922514 0.0876105 -0.3775221 0.35566851 0.2178227 -0.28466293 0.040766295 0.0848369 -0.19025135 -0.15118173 0.052749846 -0.2533062 -0.32384118 0.12901506 0.07040154 0.21328446 -0.01538024 -0.021349367 0.3921424 0.01712612 0.021698736 0.18617111 0.16888006 0.04457711 0.0779224 -0.02498492 0.17823358 0.12811147 -0.19032373 0.07052208 0.27070445 0.24784273 -0.11210033 -0.101820916 -0.08179021 0.027188256 0.14038639 -0.10323478 0.012680516 -0.08791778 -0.19176322 0.007914637 -0.11939392 -0.16086875 -0.07307338 0.19084662 0.10684183 0.031334493 -0.09372072 0.030264413 0.058960192 -0.14091578 0.08499648 0.13198963 -0.32553655 -0.0927718 0.18396997 -0.09726011 0.17786355 0.50773716 0.14383762 -0.118109785 -0.2247605 0.11590245 0.04063821 -0.2013714 -0.2700147 0.25249755 -0.25276527 -0.14660667 -0.32765165 0.16752556 -0.077419795 -0.022124808 -0.023600793 0.04882086 0.23834902 -0.10663091 0.08609905 -0.12852871 0.0591013 -0.08234647 0.005889744 0.08544997 0.13644648 -0.099139966 -0.14083642 -0.0077817426 -0.25154808 -0.2784485 0.11908774 0.33911157 -0.17800365 0.01560699 -0.048743557 -0.1186528 0.23122741 0.02351774 0.07731558
346 0.20274371 0.045701187 -0.016168633 -0.19770432 -0.012720191 0.31697637 -0.03658247 0.11132065 -0.010740709 -0.07122855 -0.09640328 -0.075705186 0.24144442 -0.012835134 -0.17027429 0.03859103 -0.15210813 0.19426951 0.2737584 -0.0630103 0.1717443 -0.27033466 0.14859258 -0.109210156 0.14095806 -0.0012087992 -0.1920909 -0.01124935 -0.107994184 -0.1384022 -0.0850246 -0.06881233 0.29686987 0.28865823 -0.034104366 0.021789273 0.15282494 -0.3615989 -0.07875143 0.056424912 0.26424092 -0.04282095 -0.069995 -0.0022685805 0.23002681 -0.17779294 0.16422148 0.32827574 0.01806411 0.1745329 -0.1422191 0.2883758 -0.12915552 -0.13128519 -0.119751304 0.2483258 0.105987646 0.3291067 0.10534261 -0.15705901 0.11504767 0.19740723 0.021660184 0.0019350835 0.07696769 -0.05458562 0.042064022 -0.14790966 0.19975346 -0.08217877 0.13120586 0.1035451 0.09232738 -0.15228245 -0.38000143 0.0047785616 0.090887256 0.087818824 0.183708 -0.091706775 0.11583316 -0.08442256 -0.12181628 -0.03905954 -0.115053184 0.12590684 0.13167094 0.31125882 0.098142125 0.039695557 0.23379597 -0.16207415 0.006356199 -0.1546534 0.19493839 0.018062374 -0.093414016 -0.40383145 -0.26257643 -0.10267992 0.06497475 0.15346654 0.20483503 -0.635215 0.14332172 0.08545561 -0.039980702 0.23372 -0.37726843 -0.12741683 -0.09506059 0.16367298 -0.15673427 0.002044714 0.09604509 0.36051 0.25387552 -0.19919387 0.07642884 0.057948865 -0.21429524 -0.46713996 -0.0049876906 -0.12128641 0.13271137 0.21163534 0.16945593 -0.0699435
78 0.37080178 -0.19070242 0.5220911 -0.25710696 -0.42937028 -0.27154297 -0.1866551 0.52610356 0.67187893 -0.0023822433 -0.7761215 -0.45424002 0.31156504 1.1481556 0.34298417 -0.09855119 -0.004242804 1.0802253 -0.37547484 0.2303647 -0.15120238 -0.101307146 0.03856582 -0.02185655 -0.42089382 0.3340925 -0.7198522 0.53668964 -0.26824194 0.23602773 0.6490898 -0.43735978 -0.13415603 -0.44008896 0.091683455 0.1602564 -0.2180186 -0.74383193 -0.11059811 -0.3575794 0.114520416 0.059137434 0.8696481 -0.0055940677 0.49677905 -0.07910851 0.24888588 0.75454164 -0.22996221 0.23984268 -0.23897806 0.50094783 -0.21282946 -0.092311 -0.47910613 -0.17977351 -0.45362118 -0.22710994 -0.32693607 -0.57070327 0.17592429 0.5974695 -0.3642631 -0.16763619 -0.2721681 0.30979937 -0.33073878 -0.3971534 0.3781656 0.004242568 0.22338255 0.10577629 0.19071952 -0.09178616 0.51370615 -0.5245889 -0.15938908 -0.19662294 0.21380524 -0.12546529 0.041406155 -0.7680062 -0.24275178 -0.23652108 0.11519718 1.0438037 0.25322938 0.3073122 0.5163113 0.54596573 0.32961717 -0.2660668 -0.07728892 0.10095255 -0.10210521 -0.43611073 0.78570396 -0.17500138 0.10408679 0.19399059 -0.08090804 0.23058805 -0.024306936 0.0024552376 -0.1724644 0.015400457 0.32729405 0.061439235 -0.06452915 -0.8051412 0.27290738 -0.3779089 -0.7525605 -0.34552816 0.70397466 0.21958813 0.019928638 -0.21876137 0.2546417 0.37623814 0.5756783 -0.3522474 0.08102628 -0.37842086 0.05287202 0.041156605 0.020870931 -0.5274482
200 0.15644118 0.1109331 0.09980075 0.18770133 -0.025930874 -0.099186644 0.06503827 -0.15254064 -0.06928513 -0.20983793 -0.1164317 -0.11107645 0.043721706 -0.13523273 0.2967323 -0.0747647 0.16440116 0.25047573 0.159402 -0.20485096 0.013543064 0.44807678 0.06358237 -0.30199912 -0.014044224 0.06537102 -0.21044739 0.24138987 -0.09523677 0.06423163 0.08141492 -0.21912502 -0.00030840348 0.17816904 -0.064249046 0.32120535 0.2158408 0.046317685 -0.051404852 0.07656009 -0.11190833 -0.22895464 0.014538447 -0.27619213 -0.051350757 0.10948702 0.089754775 0.29416737 0.1633163 0.13266349 -0.17002407 0.110294215 -0.040678684 -0.04734559 -0.22268969 0.16868237 0.07899761 -0.24130149 -0.06621327 0.11923796 0.16322266 0.139117 0.09873658 -0.18214685 0.10211327 0.013288271 -0.30414626 0.03751052 0.022833923 -0.30018678 0.08179905 0.0445468 0.09975731 0.00758015 0.15343155 0.08292854 0.049556743 0.012441933 0.24273261 0.05566022 -0.07876949 -0.040390354 0.09984137 -0.013937377 -0.019467026 0.029521946 0.136357 0.021571174 0.18663171 0.1417878 0.22576123 -0.15377182 0.027687578 -0.041581213 -0.21477877 -0.025955318 -0.007890833 -0.082655 -0.34550345 -0.015799474 0.07679649 0.2475034 0.043005556 -0.044936113 0.09755874 0.119942054 -0.22854023 -0.1635074 -0.093867645 -0.020740548 0.14094287 -0.03866896 0.17557527 0.30194184 -0.12934114 0.120762445 0.057837408 0.051118724 -0.006397685 -0.09785395 0.39824882 -0.08466404 -0.14738356 0.028752793 0.2808806 0.211844 0.24016276 -0.06317438
94 0.38440758 0.030801104 0.003790363 -0.13612664 -0.04424578 0.37394565 -0.08420108 0.17210013 0.018143829 0.0871077 0.01456715 -0.10573023 0.2171359 0.114678696 -0.15425776 0.11060016 -0.087382615 0.25787267 0.18446994 -0.17454809 0.24589124 -0.3399506 0.13877976 -0.024281807 0.3160871 0.07415686 -0.06183563 0.048377797 -0.011584861 0.07113626 0.13754414 -0.32764307 0.27984637 0.18165375 0.26198363 0.27509192 0.26198345 -0.46980232 -0.02423228 -0.014794042 0.13525353 -0.0028955527 -0.005955412 0.15947251 0.09743783 -0.033836775 0.10949172 0.12518519 -0.14375891 0.12948625 -0.21507914 0.6756422 0.058761973 -0.1964546 0.1169019 0.35607058 0.23503593 0.12634824 0.07337328 -0.18764164 0.23110634 0.377182 0.03185456 -0.06669031 0.357436 -0.16987692 0.06675392 -0.1475448 0.05262237 -0.13290405 0.22103807 -0.110314764 0.054201532 -0.17770435 -0.37737522 0.28539962 -0.1008202 -0.070101105 0.14341287 -0.05339781 0.011591831 -0.47489423 -0.29441458 -0.17644061 0.1493901 0.035730924 0.16300634 0.12112748 0.20672958 0.14657597 0.03870481 0.04384139 0.12222797 -0.22508423 0.37189057 -0.07928483 -0.3879818 -0.32212394 -0.23640065 -0.27101275 0.14109711 -0.107873425 0.17380506 -0.51317626 0.103284866 0.09630895 -0.21087259 0.24921672 -0.38732266 0.023889367 -0.11396752 0.20670715 -0.37749374 0.10272567 0.109861284 0.3576496 0.30943063 -0.09623671 0.071784586 -0.04872946 -0.1578256 -0.18938228 0.06587253 0.023977151 -0.17227173 -0.021141095 0.2311414 -0.026837066
40 -0.0442178 -0.14239976 -0.23712635 -0.03896479 0.14285706 0.21719807 -0.107597716 -0.02874625 0.2789147 0.08058147 -0.10527866 0.13767874 0.07663654 0.012911097 0.36508757 -0.040738 0.14061224 0.29103187 0.12549937 0.0102264425 0.17448723 -0.10560898 0.08602818 -0.17971978 0.24583656 0.011866426 0.0012766513 -0.02719452 -0.15499298 0.04779346 -0.102643155 -0.25010288 0.30044073 0.23149621 0.16460237 -0.032126557 -0.18137345 -0.078385614 -0.28958398 0.01822964 -0.12045674 0.10289773 0.038722944 -0.2054653 0.2304762 0.006076843 -0.012176302 0.23981853 -0.071196415 -0.13976799 -0.07491353 0.23838341 -0.03478631 -0.0021884225 -0.16840005 0.020772358 -0.21729918 -0.102267094 0.023973605 0.1270009 0.00018198285 0.15568222 -0.009090319 0.386728 0.10309109 -0.028113643 -0.026940778 0.009934396 -0.33663407 -0.0053157974 0.17401506 0.18033265 -0.057727657 0.3322653 -0.077804804 0.016306676 0.2624825 -0.067301124 0.17244203 0.04173637 -0.3751425 -0.09875013 0.03436051 -0.18112068 -0.049382534 0.07787194 -0.01988686 0.14392424 0.11431909 0.051629413 0.19940203 -0.056215536 -0.08004199 -0.032763705 -0.10938351 -0.3871288 0.06602719 -0.33311048 -0.19890003 -0.11080284 0.1657139 0.037695836 -0.16417022 0.012688408 0.25787988 0.333893 -0.07379733 -0.14771445 -0.07493925 -0.036612272 0.3930774 -0.008251659 0.07127079 -0.12025339 -0.0018656241 0.3099533 -0.09036651 0.09195667 -0.33550447 -0.047995944 0.11561867 -0.037324887 0.11749249 0.19387451 0.15737815 0.32627022 0.14419875 0.32959458
48 0.3010376 -0.062047284 -0.1565236 -0.019117033 0.07162237 0.27165774 -0.19240503 0.10405176 0.010797507 -0.079248466 -0.07287477 0.23830694 0.14437456 0.09310841 -0.19118771 0.30347523 0.24042034 0.2416512 -0.13740961 -0.4066122 0.22490396 0.2591975 0.10515276 -0.1745006 0.17233871 0.027449949 -0.3387344 0.37607697 -0.19050469 0.097541034 0.04302264 -0.19847953 0.20166595 0.19694352 0.07612622 0.374331 0.10670352 -0.32239935 -0.06411271 -0.19590065 -0.106820874 -0.21472216 -0.25550082 0.109467655 0.06787444 0.12283582 0.051473573 -0.072537035 -0.11966806 -0.04596778 -0.081810996 0.3434029 0.23316722 -0.34341908 0.03625659 0.1375374 0.035658754 0.20791948 -0.15927257 0.04681056 -0.14864324 0.10927152 0.16482577 -0.13216512 0.25568882 -0.0299188 0.05880805 0.03699098 -0.251808 0.18303706 0.028031033 -0.15837531 0.22006448 -0.05846941 -0.223387 0.2600285 -0.16106215 0.07455899 0.36052808 -0.024094822 -0.07681307 0.06275991 -0.15278576 -0.15774144 -0.043073017 0.24804027 0.08603951 0.31795737 -0.009359541 0.43655425 -0.110183194 -0.037422348 -0.011082035 -0.06678131 0.06719847 -0.0672803 -0.21963163 -0.16675064 -0.14889275 -0.1926906 -0.077531405 0.050950084 0.14291242 -0.13436194 0.36524916 0.06570812 -0.021235028 0.4358124 -0.38269338 -0.119982295 -0.0280738 0.26690137 -0.28583065 0.14615998 -0.0028471905 0.1319216 0.071867645 0.18124658 0.09600505 0.19341798 -0.034497824 -0.32689452 0.15788713 -0.18690367 -0.025281418 0.10145704 0.26783687 -0.06314899
329 0.15007575 -0.19102113 0.28851226 0.0334593 -0.13567592 0.05929431 0.034055535 0.030866131 0.11941816 0.14085281 -0.042942494 0.14911444 0.09632536 -0.04001805 0.14233811 -0.13424328 0.0606901 0.019628633 -0.1980324 -0.15998918 0.4201806 0.2254185 0.214206 -0.28313 -0.030286627 0.2869338 -0.21680602 0.099534936 -0.42575324 0.01043177 0.07858614 -0.29502985 0.5361862 0.2818274 0.048176553 0.2728637 -0.037412036 -0.15443048 -0.15001976 0.021462254 -0.1777405 -0.16773124 0.21238895 0.08962258 0.37059885 0.005306221 0.047645953 0.27173874 0.077728845 0.015309058 -0.078469016 0.046497524 -0.0112490365 0.028221786 -0.027487785 0.17010874 0.00097624236 0.116842814 -0.1486765 0.06570272 0.057897322 -0.06745952 0.19573613 0.24075474 -0.123992644 -0.12711854 0.016477752 0.13228041 -0.1921173 -0.030883927 0.1386647 0.02436952 -0.16704682 0.04565915 -0.21935995 0.3058908 0.110534415 0.000794805 -0.1922786 0.343134 -0.12511683 -0.072624214 0.24871603 -0.04619688 -0.08877895 -0.08311719 0.13520086 0.13478063 0.2133978 0.11398302 0.12171886 0.16760348 0.115124226 -0.028052006 -0.055327963 -0.035870478 0.08488718 -0.4126162 -0.14628899 -0.034047652 0.06021886 -0.069738425 -0.14660428 -0.08605294 0.15697373 -0.021207053 -0.009288129 -0.1707852 -0.24158785 -0.076825336 -0.17707737 -0.27846915 -0.32715464 -0.1443742 0.21159208 -0.04069231 -0.03721258 -0.24795933 -0.007998159 -0.09270696 -0.25787055 -0.44857424 0.0805317 0.058036022 0.14591818 0.0041423966 0.19041175 -0.24187748
188 0.06920662 -0.021818269 -0.10925227 -0.19738357 -0.14344156 0.030958062 0.2762537 0.12759002 0.052729473 0.09169062 -0.32748783 -0.13332637 -0.18367825 -0.106506705 0.047106393 0.036869038 0.334694 0.17917533 0.059150405 -0.1634841 0.20420805 0.17237772 0.032595754 -0.1385412 -0.015892189 0.04950841 0.12210508 0.19320476 -0.12938261 -0.17538475 0.2668276 -0.09094568 0.3430493 0.28871626 0.01453748 -0.016280012 0.15601689 0.09785167 -0.54894257 0.115801394 -0.0029400156 -0.16174385 -0.065795586 -0.456775 0.018483723 0.0808247 -0.014385907 0.20472354 -0.0763697 -0.08325582 -0.3186828 0.33433092 0.077278286 0.0023249697 -0.25878888 -0.1344273 -0.05615033 0.022591675 0.051528227 0.26594952 0.22565392 0.14436254 -0.027098117 0.026066866 0.28531644 -0.020188516 -0.056380976 0.33749452 -0.19417512 -0.092614345 -0.0010509766 0.08327663 -0.277765 0.14079842 0.21007018 0.1535761 -0.0027681673 -0.123542085 0.084081605 0.12064627 0.09339048 -0.35349184 0.04921728 -0.19634649 -0.09754661 0.07544691 0.004444394 -0.009798526 0.23835884 0.043388523 0.21353185 -0.044292975 0.041856695 -0.16982268 0.011060875 0.087627076 -0.0039899047 -0.1001249 -0.14919978 -0.18404856 0.0057273544 0.30395177 0.0615122 0.039079804 0.027837401 0.21491925 -0.08685717 -0.025690014 -0.22539845 -0.3384324 0.1219531 -0.21924004 -0.12568992 0.13350795 -0.19276246 -0.10114868 -0.07227366 -0.25659108 -0.07852085 -0.09708534 0.2291736 -0.08123973 -0.17756818 0.15780593 0.19631812 0.2467579 -0.010671941 -0.09822035
170 -0.15771286 -0.070742264 0.0229642 -0.15137936 0.16715956 -0.12385504 0.04210287 -0.066186644 0.06817451 0.37373552 -0.20729485 0.13004188 0.075347856 0.017868077 -0.1730564 -0.18201846 0.27851227 0.5070805 0.11362714 -0.439989 0.25559998 0.17167571 0.10777237 -0.16686234 -0.008838819 0.11720208 -0.06020998 0.027800325 0.077839375 -0.124162115 0.15441476 0.23416291 0.07509728 -0.034889307 0.246875 0.056748215 0.03745353 -0.3152216 0.021437014 0.0033726932 -0.014792487 -0.09559405 0.028697902 -0.16056268 -0.009801271 -0.0082803015 0.19230853 0.5722686 0.11744111 -0.08980941 -0.23985796 0.025275249 0.14840752 -0.31816584 -0.29039484 0.13450615 0.21369033 -0.24268411 -0.37395605 0.31794322 -0.000642588 0.22312136 0.008174856 0.039028823 0.55171674 0.029521197 -0.074709736 0.13681608 -0.029981079 0.14226781 0.0014464131 0.16589935 -0.063467264 -0.036073994 -0.025316358 0.30995452 0.18407555 -0.18924034 0.17096378 0.0050093955 -0.092131905 -0.15291949 0.33985528 -0.09311233 -0.270164 0.1371208 -0.009380984 0.16503364 0.026687695 -0.023454744 -0.08792736 0.034550223 0.23377474 -0.06005687 0.0805389 -0.12914526 -0.004444945 0.070212945 -0.095588386 -0.24881965 0.14843938 0.14985901 0.1289006 -0.12371489 0.043653175 0.24868464 -0.14248759 -0.057110526 -0.09297778 -0.039909087 -0.017307667 0.16780506 0.17813933 0.073835425 -0.24769874 0.059422567 -0.024290506 0.11637083 0.08548211 -0.16248737 0.24184445 -0.13311583 -0.019428058 0.19503316 0.09910503 0.11625116 0.09613 -0.04887233
302 0.27918088 0.024550594 -0.28848657 -0.11415878 0.1199987 0.27022105 -0.1335373 0.31076726 0.16054437 0.0881922 -0.050588515 -0.005694224 0.07649701 -0.07228505 0.024851907 -0.0041397433 0.05706489 0.18161006 0.02367865 -0.35046825 0.06076192 -0.16218244 0.37061846 -0.19395192 0.2721856 -0.20328131 -0.26030207 0.123373814 0.049809255 0.08079369 0.111486666 -0.37178513 0.282402 0.3938002 0.27552196 0.05432422 0.19263114 -0.28587544 -0.038924083 0.18030603 0.19478409 0.0073909326 -0.03380628 -0.0007596674 0.17305753 -0.022746423 0.27436343 0.15130384 -0.09336148 0.045633398 0.012726745 0.4894015 -0.0031238608 -0.32508445 0.0418117 0.21903226 0.33975142 0.33250993 -0.10845433 -0.04382575 0.41999716 0.12339931 0.10537826 -0.077370174 0.36491215 0.12345858 0.09670455 -0.30091864 -0.0021549526 -0.025479298 0.22660033 -0.13314445 0.19326404 -0.04496365 -0.23392963 0.1573431 -0.09862959 -0.07442067 0.27343822 -0.1582841 -0.04178174 -0.4944311 -0.23260127 -0.17644075 -0.061338745 -0.03604879 0.2590516 0.3527896 0.21278547 0.18330319 0.22038706 -0.22942784 0.061571322 -0.23181933 0.17800516 -0.07914218 -0.08859515 -0.32232022 -0.30260953 -0.12405987 0.053321164 -0.11129768 0.1924521 -0.45645466 0.16356829 0.021270083 -0.011174559 0.43601766 -0.28052005 0.06613382 0.057312332 0.08967363 -0.59476763 0.13187887 0.046909742 0.115459405 0.20088331 0.09178063 0.066353045 -0.06355948 -0.09384569 -0.07462332 0.09930852 0.027529266 -0.111161046 -0.08093281 0.22975491 -0.056815784
82 0.2958229 -0.23057649 0.25639233 0.025087025 -0.1031147 -0.08668807 0.055664394 0.012150539 0.22898787 0.24054724 -0.22428654 -0.22096361 -0.09281075 0.21691534 0.18430494 0.040403 0.006952347 -0.12588829 0.19941954 -0.14025293 0.088409364 0.25975707 0.21113369 -0.20190087 0.2589371 0.05568946 -0.049450226 0.166478 -0.016318858 0.17129971 0.24555723 -0.11670657 0.09749012 0.08535823 -0.09617899 0.35038403 0.33447373 -0.29541266 -0.46077397 0.1380822 0.041062634 -0.08455062 0.22856155 0.16555929 0.17885388 -0.17274643 0.11617143 0.2773353 0.06696558 -0.26139188 0.06990352 0.14628819 0.120589435 -0.38670468 -0.07520313 0.003984055 0.040413506 -0.029154772 0.10668249 0.21140942 0.0935263 0.273608 0.32139602 0.023475029 0.17080836 0.04590038 -0.09726262 -0.014008456 0.17716609 0.16337088 -0.12722495 0.10841288 -0.087564126 0.22913457 -0.031097664 0.063798435 -0.0018247659 0.021049848 -0.15995862 -0.091026045 -0.09577313 0.019879734 0.019092182 -0.04599339 -0.13186498 0.04620823 0.011366384 0.26406473 0.08696254 0.074762665 0.06340049 0.124491684 0.23991483 0.20861143 -0.15857245 0.03957823 -0.0011449758 -0.15349065 -0.11458637 -0.020990985 0.18177843 -0.020052921 0.073730506 -0.10224752 0.33975035 -0.07947985 -0.032346826 -0.361991 -0.13876559 -0.14559448 0.06454553 -0.0064211776 0.28124073 -0.034546804 0.007835074 0.07150629 -0.20769922 -0.0800386 -0.21611923 0.08241958 0.04994835 0.20326371 -0.1351288 0.0042367447 0.22075614 -0.18645349 0.09963922 0.21553639
169 -0.049070075 0.108029254 -0.22651236 -0.16888942 -0.18353 -0.008064616 -0.18053403 -0.11317529 -0.005693059 -0.04617737 0.07994417 -0.2057988 -0.048921265 -0.054576576 0.2750172 -0.16943592 -0.1441537 0.09016641 0.20308082 -0.19142732 0.23691978 0.44791675 0.09940028 -0.1031717 0.23813094 -0.06320864 -0.11947678 -0.07422748 -0.3183471 -0.10298325 0.28334245 -0.10826991 0.12377242 0.17887658 -0.10956045 0.11181751 -0.16617277 -0.31975785 -0.1437541 -0.053373683 -0.03677062 -0.31103504 0.27135795 -0.06289991 0.18992639 0.043215185 0.26747105 0.27220014 0.26350203 -0.24577792 -0.08708561 0.26328525 0.03771984 -0.015181349 -0.0036656195 0.3486287 -0.09940162 0.03456481 -0.20752008 0.10452591 -0.0993845 0.15212797 0.29903197 0.0029399318 0.2794393 -0.13728382 -0.20384751 0.10697197 -0.08921899 -0.011993662 0.18934512 -0.041338068 0.06813623 0.36542526 0.1424695 -0.11847422 0.022650609 -0.06743293 0.24690165 0.26072562 0.11540351 -0.042728778 -0.13402484 -0.121889874 -0.046606842 -0.046671852 -0.29485992 0.20726012 0.09996237 0.13464364 0.24416682 0.10855159 -0.16178174 -0.008034326 -0.13265553 -0.06328693 0.028452184 -0.16106316 -0.16966997 -0.10560295 0.21147285 -0.14308526 0.010906362 0.096934654 -0.044523656 -0.06806101 -0.18930084 0.0787764 -0.048953436 0.18932389 0.33036345 -0.044648014 -0.064250275 -0.03353347 -0.20842457 0.08717452 -0.0254273 -0.15715964 0.012049591 -0.099698275 0.27899012 -0.21956651 -0.24472886 -0.09341816 0.039861027 0.23941526 0.1525464 0.031691495
88 0.26181257 0.029885534 -0.09253186 -0.24289365 0.28892294 0.16273712 -0.1750373 -0.15200257 -0.14473338 0.007873672 0.038003348 0.108978584 -0.027645152 0.21237053 -0.16869016 0.014640603 0.14711572 0.24289207 -0.060366508 -0.30110043 -0.10144748 0.1705351 0.2221511 0.029685657 0.2103945 0.0833095 -0.31908163 0.17576677 -0.21707761 0.11870692 0.0805636 -0.11610241 -0.11299932 0.37137872 -0.051815998 0.18891068 0.12852345 -0.16164415 -0.25492036 0.19271953 -0.3398937 -0.18753378 -0.016463295 -0.22677155 0.17823364 0.19510004 0.30257982 0.5111679 -0.003231715 -0.10651677 0.06990358 0.26098442 0.3804296 -0.057416458 -0.015161771 0.24038596 -0.15989038 0.2732494 0.051317666 0.11086788 0.06704553 0.10232368 -0.02988371 -0.119839 -0.004698318 -0.005313034 -0.036252566 0.0040681353 0.06530729 0.14202306 0.0011062375 0.015788963 -0.12753205 0.1854193 -0.18736416 0.29164174 0.047117487 -0.20545004 -0.12395929 0.22617705 -0.122875795 -0.07286723 -0.19920659 -0.2241893 0.02860759 0.004290786 0.14014639 -0.052142687 -0.0577701 0.29360095 0.049227748 -0.27458155 -0.092729956 0.096258126 0.38028672 0.086646505 -0.0025669404 -0.17594106 -0.17266609 -0.11341518 -0.34812564 -0.076042645 -0.15863456 -0.38115776 0.20044532 -0.08676226 -0.23667674 0.10070002 -0.38471183 0.19626471 0.2950149 0.35579988 -0.45855466 0.10405149 0.17834027 0.1743528 0.335695 -0.29648256 0.10256636 0.055261146 0.022605022 -0.051054016 0.075666234 0.24343605 -0.123799995 0.060839456 0.05111093 -0.015207225
105 0.16050074 -0.039828997 -0.016467704 -0.17467467 0.059385218 0.20328973 -0.06572044 0.03471628 0.18650487 -0.015433262 -0.22252661 -0.1798392 0.20217161 -0.18711437 0.12229112 -0.17051601 0.10775447 0.025350155 0.0945368 -0.048590608 0.08146289 0.102715686 0.14464444 -0.12427831 -0.010492534 0.030052293 -0.024216948 0.06492165 -0.008800678 -0.0489978 0.14979261 -0.13768674 -0.15198761 0.24484532 -0.16502163 0.12154677 0.25218263 -0.2458861 -0.060874373 0.09116997 -0.04063411 -0.08412321 0.053191155 0.007326379 0.10766944 -0.094394565 0.13321467 0.2607864 -0.12896083 -0.17933594 -0.12482163 0.016993152 -0.103197984 0.007419193 -0.0642236 0.14345373 0.017258354 -0.07703848 -0.107882045 0.051756576 -0.024763236 -0.08831686 0.11942749 0.123893745 0.18310843 0.0043047625 0.08119685 0.045973405 0.10885249 0.20699571 0.06804424 0.24879734 -0.12249324 0.23356621 0.14417039 0.18902002 0.04844004 -0.045983184 0.26446348 0.34642044 -0.055673312 -0.28514823 -0.019529156 -0.1626052 -0.017212074 0.007191507 -0.047404945 0.3154255 -0.06255131 0.054239437 -0.05172094 0.09031266 0.07282532 -0.09410484 -0.16514741 0.0015776062 0.069736116 -0.091479406 -0.03142801 -0.277798 -0.10823601 0.17188649 -0.0057445727 -0.013434452 -0.07692876 0.14183359 0.09683425 -0.02676032 -0.16738707 -0.1688314 -0.018342366 -0.06139477 0.08998084 0.009243259 0.17557663 0.20808253 0.11200111 -0.16541007 -0.096382074 -0.07467891 0.15406744 -0.13113889 -0.20311336 0.19610368 0.029040936 0.1741139 0.18675326 0.10225568
224 0.14342861 0.008159354 0.078338385 -0.32230985 -0.18973121 0.08928168 0.05381431 0.03257745 0.009092273 -0.04742991 -0.19559298 -0.13225779 0.22392815 0.07785148 -0.008681414 0.17068295 0.14510582 -0.019977525 -0.08760259 -0.064732134 0.07884906 0.19558792 0.06673764 0.0018722654 0.33270317 0.17434573 0.10367226 0.22307226 -0.1764403 -0.12213229 0.0011362084 -0.021373225 -0.102247 0.24516138 -0.058416247 0.08582373 0.032593016 -0.2317928 -0.22703217 -0.033916492 -0.31618097 -0.19922662 0.114519395 -0.10261929 0.08452015 0.009183716 0.2357895 0.26008904 0.06051282 -0.013331345 -0.007296605 0.118451506 -0.010619102 -0.10422497 -0.2331772 0.11950006 0.06648522 -0.23299828 -0.06153262 0.1307159 -0.036162596 -0.028120756 0.038959444 -0.07262671 0.1283315 -0.030860402 0.109932534 0.028336111 -0.30015734 -0.2931025 0.35811764 0.14728811 -0.011435892 0.25847644 -0.07247489 -0.0031985198 -0.01662736 0.13315304 -0.011220571 0.03202854 0.13351248 -0.27972385 0.30963013 -0.09676182 -0.11093885 0.06494141 -0.03764838 0.10460085 0.13663544 -0.014194931 -0.14372529 -0.03485438 0.17049266 -0.17842488 -0.2698616 0.20128901 0.051967025 -0.21311864 -0.07315797 -0.1187846 0.04391871 -0.122077525 -0.096483074 -0.2122666 0.19825663 0.27220058 0.005483229 -0.32025236 -0.10523022 -0.02498883 0.3344598 -0.18127991 0.10301459 -0.05992997 0.12737332 -0.032365896 0.121669345 0.045329127 -0.15970813 0.112489134 0.029365247 0.08841372 -0.1150821 0.17321147 0.21838716 0.009753258 -0.050766837 0.015482139
339 0.05729503 -0.14430486 0.23449954 0.16637969 -0.3052306 0.072032176 0.021785676 0.008994577 0.4811197 -0.35658714 -0.46911302 0.10809152 0.12135615 0.3322011 0.030741282 -0.04292857 0.05028315 0.3267327 -0.16808513 -0.015192078 0.1813668 0.092456505 0.0695806 -0.020632038 -0.014200257 -0.11879265 -0.10065953 0.023166709 -0.014873431 0.065967225 -0.048169274 -0.2548413 0.027775638 -0.2004395 0.076289065 -0.12006301 -0.08351982 -0.47106698 -0.06398378 0.13938063 -0.4124826 -0.26875055 0.10410217 0.06999607 0.2532553 -0.1707336 0.2210028 0.4205971 0.019535773 -0.3118303 -0.09200904 0.3040167 0.38192427 -0.026898397 -0.12800103 0.4957346 0.03481833 0.05153358 -0.07772724 0.12793325 0.16419828 -0.19507831 -0.0073797554 -0.11639967 -0.061903086 0.14946087 -0.17363526 0.118150614 -0.11670921 0.07002324 -0.090686746 -0.116593696 0.26534986 0.04590196 -0.08140708 -0.2511477 0.050789166 -0.40981346 0.110840335 -0.11715811 -0.08411193 -0.28057116 -0.025392434 -0.05641922 -0.10120196 0.28603733 0.0387224 -0.0044182627 -0.010338892 -0.15244527 -0.08763985 -0.2622943 0.24842606 -0.018896291 -0.062440977 -0.035209306 -0.079915494 -0.01532954 0.13894378 -0.13499008 0.17911111 -0.028923506 0.24657746 -0.00850194 -0.0795134 0.14311807 -0.08027821 -0.05841227 0.054616164 -0.18682337 0.09599857 -0.105082154 -0.21227156 0.22956607 -0.027442997 0.070129186 -0.05248721 0.07496571 -0.2696613 0.0021367483 0.23984413 -0.10129925 -0.11830608 -0.014808929 0.13004139 0.23308462 -0.07727256 -0.18735006
194 0.24591753 -0.092915975 -0.16174991 -0.2803613 0.19842573 0.342992 -0.03343266 0.07558644 0.12443021 0.039504647 0.08605193 0.03429259 -0.009336023 0.048916828 -0.40156144 0.20729811 -0.06410037 0.34685466 0.2377026 -0.17657802 0.1298848 -0.18326971 0.22310078 -0.08299828 0.24860935 -0.005440243 -0.42856494 0.1667896 0.08427056 0.25556764 0.093083896 -0.412777 0.35037977 0.20730753 0.34150937 0.15002011 0.19036911 -0.40407503 -0.10062918 0.027783493 0.17926228 0.11468887 -0.12510152 0.036578845 0.19132654 -0.13226317 0.2586874 0.1728227 -0.08111625 0.06508546 -0.019912848 0.6042207 0.060262274 -0.26547274 0.00288295 0.2960801 0.31976613 0.0558184 -0.102903344 -0.27276614 0.16149308 0.1878435 -0.015420127 -0.31171483 0.19266365 -0.10495277 -0.019776998 -0.39790598 0.09225561 -0.034856148 0.21731786 0.03738945 0.08314742 0.020910809 -0.40056813 0.09082903 -0.019865273 0.014728108 0.1382642 -0.039106224 0.05780059 -0.1853848 -0.49034393 -0.18953905 -0.16073498 -0.06116343 0.26560533 0.26403102 0.2755769 0.06919542 -0.057862088 -0.19842817 -0.03122532 -0.16447912 0.40361953 -0.055567656 -0.037873477 -0.3696402 -0.071618244 -0.30130568 -0.030620126 0.095989466 0.15927075 -0.41757467 0.14480989 -0.049941026 -0.21616165 0.269181 -0.41789734 -0.012627111 -0.059300315 0.10874015 -0.32904968 -0.059336998 -0.039828144 0.3097904 0.19238178 -0.09877178 0.015886841 0.2064067 -0.08348445 -0.31386453 -0.017171307 0.22092587 0.0016678872 0.18404584 0.37636453 -0.14070486
