531 128
3830 0.07369213 0.047224678 0.047511145 -0.020997893 0.13023883 -0.08463942 -0.17153288 -0.15099977 0.12519498 -0.07642526 -0.09789103 -0.14707029 -0.009481885 0.19190405 0.072404124 0.0014062824 -0.29494736 -0.024209233 0.027547799 -0.02799409 0.09133611 -0.114622265 0.32191712 -0.14186794 0.045636244 0.1850853 0.049145576 -0.22618142 -0.21203992 0.030009521 0.0055669714 -0.016208481 -0.14061376 -0.2862181 -0.0192966 0.10355898 0.069636695 -0.24466927 0.047755927 0.09139696 0.02584494 -0.041594047 0.16908114 -0.08272321 0.300579 0.029461078 -0.29387477 -0.13661472 -0.07022374 0.078095414 -0.1817052 0.24677359 -0.18684757 -0.24399215 0.14604487 -0.15737936 -0.042295504 0.11045318 -0.2670341 -0.06990001 -0.19937864 0.3686184 -0.08746984 -0.2318649 -0.07053789 0.19328564 0.0150753 -0.16910632 -0.1413354 -0.09050466 -0.33492848 -0.29352003 -0.015294517 -0.058331717 -0.064386085 -0.005845119 -0.19904825 0.05215823 0.22255464 0.078136265 -0.0831719 -0.04345351 -0.1576576 -0.03278904 -0.12134148 0.2121157 -0.023940865 0.08684742 0.062813535 -0.1673692 0.21802555 0.272393 -0.030611139 -0.040770732 -0.045839682 -0.05909106 0.0362749 -0.06912581 0.019697083 0.19305883 -0.09118564 0.38278493 -0.17607024 -0.113198414 -0.067205034 0.13168421 -0.12977436 -0.3073777 0.079387404 -0.15667433 0.11382513 0.028653042 0.190037 -0.17815384 0.090107694 -0.017234894 -0.117365815 0.2569496 0.011583759 0.08167989 0.18659446 -0.043605875 0.008185246 -0.39371705 -0.03956008 -0.24087228 -0.043328997 -0.11901108
3680 0.086143106 -0.070966996 -0.026911523 0.017337643 0.254045 0.08931763 -0.0075221565 -0.24243665 0.033140454 -0.033086102 -0.21497594 -0.16191965 0.3022553 0.022281127 0.006767421 -0.17315054 0.10807695 0.021374928 0.152781 -0.09191371 -0.01428684 -0.12883294 0.2670925 -0.05613886 0.019903414 0.12066237 -0.18501651 -0.29061124 -0.20631301 -0.20912585 0.09535571 -0.15007183 -0.10412822 0.058362477 -0.048273947 -0.12111022 0.096999645 -0.0054374863 0.10763989 0.024231391 0.08157804 -0.21604039 0.14597125 -0.06877761 -0.29805046 0.041425187 -0.08628543 -0.04311241 -0.25729886 0.15580103 -0.20496498 -0.022004478 -0.059814546 -0.2630059 0.25335285 -0.1476948 -0.020135373 -0.0069369646 -0.351583 -0.037239894 0.10244233 0.10550639 0.19217157 -0.17402835 0.02629339 0.032264203 0.13051535 -0.10659193 -0.41933432 0.09734493 -0.06943475 -0.20887233 0.2399861 0.010961882 0.016445953 -0.13346104 -0.025171574 0.23808312 0.13808091 -0.01961308 0.20108806 0.15232584 0.17726785 -0.14960687 0.25780535 -0.027276762 -0.0421457 0.2628983 0.03197117 -0.010646169 -0.05737842 0.0061649377 -0.029100172 -0.04518827 0.21157257 -0.30850318 -0.09032658 -0.047032427 0.08194946 0.11809121 0.13555901 0.05999973 -0.2634326 -0.15099415 0.100095786 0.22255115 -0.3221286 -0.2839215 0.05820807 -0.23972668 0.18688571 0.411095 0.31885192 -0.21700004 0.0065492033 -0.041540418 0.083343364 0.11482618 -0.18291722 -0.015354957 0.2913739 -0.26150316 -0.082481444 -0.4089347 -0.20482714 0.2642652 0.17182657 -0.04714736
3545 0.2814251 0.06277094 0.18904299 0.005981672 0.0065637147 0.03954628 -0.14290588 0.13510054 0.21506624 0.060264952 -0.0134281805 -0.121259734 -0.24104816 0.0332736 0.06412026 -0.17355289 -0.33531845 0.058042284 0.16595829 -0.25050184 -0.17855158 -0.13853608 0.06728135 -0.089912616 0.11933272 0.11748067 0.19855072 -0.0056309276 -0.09932474 -0.19490504 0.028436085 0.123965375 -0.014334566 -0.2490404 -0.04794685 0.006391964 0.24266246 -0.09422659 0.04953154 -0.11867488 0.1780497 -0.21683839 -0.004665435 0.09575511 0.16743806 -0.013364684 -0.25074387 -0.03929758 -0.009007008 0.07141525 -0.21452203 0.05424616 -0.095211335 0.07568714 -0.12885307 -0.0041543585 -0.22234444 -0.023068374 -0.18783885 0.06652785 -0.059565067 0.13573882 -0.3151069 -0.21115282 0.09746025 0.012648381 -0.08964918 -0.42603642 0.0062755174 0.08503163 -0.058204338 -0.15172112 -0.1256173 -0.10482514 -0.07594593 0.02760834 -0.20961049 0.40269324 0.3487891 0.20690598 -0.2245023 0.12501577 -0.18026847 0.21675253 -0.04111835 0.0538707 -0.15274093 -0.22920021 0.08092742 -0.24456653 -0.11702267 0.24597141 -0.01981407 -0.08173802 -0.044701964 0.08492419 0.12503468 -0.07840552 -0.0017503436 0.17777674 -0.1767372 0.26210836 -0.051962666 0.121560566 -0.16766267 0.37451282 -0.21739414 -0.19938095 0.10885807 -0.22290692 0.21984793 0.099506475 0.15533035 0.044082157 0.21507443 -0.3519711 0.028733267 0.053857416 0.03561265 0.14956878 -0.13858128 -0.24777035 0.07615693 -0.41777322 0.0607917 -0.092815444 -0.06669636 -0.14460193
3924 -0.08716432 -0.02963448 0.15766351 -4.1846097e-06 0.074307986 0.25826892 -0.09966188 -0.032898836 -0.15285501 0.024200695 -0.28607658 -0.28255028 0.18641555 -0.014914274 -0.005186532 0.1319904 0.15757136 0.044499163 0.030095145 -0.1418061 -0.033341106 -0.2233116 0.31378323 -0.033702247 -0.12068218 -0.037931874 -0.17208372 -0.16242766 -0.23522466 -0.27972126 0.00033438005 -0.25098544 -0.18122074 -0.083967514 0.014619351 -0.06536755 0.27541286 -0.08523951 0.14536926 -0.033080213 0.110642254 -0.28153312 0.07100359 -0.23147003 -0.0702585 0.15826719 -0.14338261 -0.113681264 -0.26998913 0.17057708 -0.30247024 0.07760951 0.14850245 -0.27140352 0.20977698 -0.01939079 0.17773773 0.19546624 -0.490437 -0.03164257 0.4024971 0.18927453 0.2326116 -0.29431418 0.111178644 0.01739332 -0.07119362 0.16173176 -0.17947562 0.021761907 -0.09895352 -0.09359795 0.2851594 -0.09700845 0.06853585 -0.28173915 -0.062925704 0.22162892 0.096380755 0.078209735 0.15444297 0.1759571 0.2704412 -0.015913924 0.101440385 0.14443278 0.063319854 0.111252755 0.020211961 -0.019205796 -0.27010646 0.09897461 -0.13956948 0.13842674 0.20741808 -0.16812123 0.0058645923 0.06772328 0.20442471 -0.05874074 0.124868385 -0.055065993 -0.2322914 -0.26905814 0.118913054 0.07937078 -0.10765232 -0.20901547 0.17492358 -0.08098832 0.23095156 0.28236666 0.3093359 -0.030957617 0.07828034 -0.05492623 0.064528815 -0.13773926 -0.29772347 0.07258857 0.3387003 -0.1704932 0.018213933 -0.32171106 -0.27147278 0.27764663 0.17844352 -0.022318492
3611 0.19349802 -0.07406816 0.14699723 0.07042433 0.031399474 -0.15475997 -0.19936068 -0.013891012 0.09202593 -0.22044428 -0.14691958 0.031433195 -0.062020756 0.021261562 -0.0015532178 -0.13035513 -0.19066514 0.022057217 0.12202875 -0.08044908 -0.1733287 -0.29512748 0.093556225 -0.06601208 0.19650386 0.10162042 -0.15857077 -0.23464234 -0.060766008 -0.2953306 -0.040938154 -0.1555935 -0.06951526 -0.20282361 -0.0030485997 -0.0038307107 0.059532538 -0.080051266 0.048663795 0.03202289 0.1346186 -0.16559 0.3572315 0.118471384 0.15342166 0.12168917 -0.23793727 0.08642885 0.07363962 0.030544745 -0.29413295 0.039035205 -0.10296773 -0.12674367 -0.09746422 -0.16541365 -0.14082845 0.019737884 -0.28567338 -0.023010729 -0.11749526 -0.048589163 -0.23186009 -0.15248106 0.16784725 0.015009049 -0.08925427 -0.3469523 0.14123747 0.027950065 -0.15679725 -0.15589857 -0.14034559 -0.04788728 -0.21276122 0.002934356 -0.3613845 0.082749374 0.38969213 0.26149997 -0.18076476 -0.028261814 -0.21188493 0.21582516 -0.15653457 -0.14093192 -0.11271213 -0.11907104 -0.22152752 -0.28924662 0.1302586 0.24483064 -0.17095573 0.21967748 -0.07412035 0.117558084 0.07824876 -0.12580164 -0.0739062 0.0880825 -0.25325668 0.02868108 -0.024465641 0.04625435 -0.19424921 0.17708243 -0.14287323 -0.13534473 0.2687247 -0.4800121 0.21794641 -0.05085261 0.11575341 -0.007302492 0.15044433 -0.36691087 0.08465507 0.31204602 0.00020778767 0.15473312 0.18161075 -0.19117819 0.23302317 -0.27952093 0.13251121 -0.09676851 -0.11247078 -0.15790781
3629 -0.14113794 -0.26901948 0.30020213 -0.36971182 -0.13477743 0.12189802 -0.12991351 0.20245719 -0.06971278 0.03208831 -0.026018245 -0.38982028 0.026880013 -0.17896181 -0.0785802 -0.060107876 0.034944292 -0.08939234 0.5595357 -0.41321695 0.19055253 -0.10009806 0.019674132 0.099614486 0.15575853 -0.29883164 0.18328619 -0.26950723 -0.26299983 -0.48891026 0.23598133 -0.22072391 -0.3006202 -0.11633045 -0.15080762 0.30575818 0.45924765 -0.07101684 -0.113810174 -0.10530838 -0.09980448 0.05138247 -0.4762298 -0.4837983 -0.12074046 0.12584294 0.10668267 0.023269348 0.03072058 -0.041837327 -0.24405733 0.098800264 -0.2590886 -0.06623036 -0.07188678 0.23567376 -0.057193577 -0.041819215 -0.071468994 0.276951 0.34342402 -0.05772353 -0.105359405 0.090484515 -0.050939802 -0.0906496 0.053035885 -0.07193391 0.17769955 0.08653325 -0.4238387 -0.10100152 0.08627895 -0.20309854 0.04009585 -0.12392865 -0.5705265 0.24420272 -0.24785079 0.098823056 -0.10345076 0.06403312 0.34392196 -0.2194256 -0.2387686 -0.0368564 -0.19809686 -0.19165549 -0.19607805 -0.16645786 -0.37386474 0.33176762 -0.65184504 0.19590726 -0.2218163 -0.23784502 0.012300425 -0.025946757 -0.16089557 0.49024564 0.011361611 -0.08344829 0.01522955 -0.23274729 -0.094704695 0.3326754 -0.26140583 0.10199208 -0.016381372 -0.13415813 0.18293649 -0.21441026 -0.16983268 0.020054547 -0.22399257 -0.11017688 -0.1714514 -0.25517747 0.07538042 0.07836265 0.1676484 -0.2892624 -0.0080547 0.02457878 -0.40437576 0.05223707 -0.2131586 0.048237104
3514 0.18373993 0.013353938 0.017476404 0.0031359831 0.06725556 -0.11049759 -0.03636486 0.00043527826 0.09924573 -0.034992784 -0.24271022 0.12270658 -0.011929011 0.0030008547 -0.03701938 -0.1191887 -0.19040418 -0.05368919 0.28280815 -0.105256155 -0.14757644 -0.27028206 0.04993652 -0.14584485 0.14023781 0.1513703 0.16413271 -0.17794934 -0.21561746 -0.13147663 -0.04104235 0.09342862 0.082714885 -0.18398301 0.035088524 0.061286952 0.055173863 -0.011700233 0.1054295 0.13944873 0.11064002 -0.09853929 0.09010741 0.036954507 0.33459762 -0.009843689 0.00021504922 -0.04869899 0.04515493 0.22892058 -0.1952099 0.13721065 -0.04784196 -0.13642679 -0.15781091 -0.18944207 -0.16359858 0.13789585 -0.17443725 0.07391323 -0.1133531 0.111741565 -0.31501946 -0.08787328 0.1966219 0.018088406 -0.11930044 -0.16323635 -0.03789472 -0.014422388 -0.18747663 -0.15232526 -0.18779096 0.10044108 -0.110570535 -0.09617333 -0.31624573 0.03287869 0.5155183 0.26918688 -0.3308346 0.057742022 -0.23474166 0.20412052 -0.047722656 0.11042591 -0.19746788 -0.109979466 0.042467777 -0.24639088 0.059326135 0.09046802 -0.13331297 0.10954165 -0.03667606 -0.05970245 0.08908776 -0.17825174 -0.2834955 0.111286595 -0.10024565 0.20493948 -0.20990515 -0.043609932 -0.016158717 0.1707208 -0.09084517 -0.20724283 0.06910635 -0.3801028 0.13184027 -0.005713416 0.32442278 0.002484554 0.11163235 -0.3486358 0.05180552 0.21560262 -0.121664725 0.09315912 -0.079961434 -0.047037754 0.16853037 -0.343618 0.03135719 -0.055384006 -0.06486189 -0.12930161
3734 0.028422 0.042566244 0.033366278 0.0747267 0.09184315 -0.14922072 -0.016394598 -0.11404374 0.14492092 -0.040872727 -0.13365148 -0.037124153 -0.09224446 -0.21040516 0.034611214 -0.06767004 -0.32707477 0.11724508 -0.062217515 -0.07761546 -0.16223063 -0.3339577 0.008946409 -0.070747435 0.10496541 -0.04152165 0.1901719 -0.34650737 -0.3582966 -0.20069613 -0.10953163 0.038812578 0.021127371 -0.27737036 0.0801216 0.15977173 0.11606244 -0.2899853 0.07362644 0.1871867 0.2881401 -0.048531514 0.12184288 0.16829568 0.17349657 0.073549375 -0.11465434 0.08827093 0.0135993445 0.0931867 -0.13751508 0.0305613 -0.03436128 -0.029641397 -0.014571983 -0.11616188 -0.073026426 -0.006114162 0.028093748 0.103961796 -0.034556936 0.20846708 -0.13539898 -0.36254418 0.14700015 -0.023723988 -0.07779167 -0.2994341 0.08109448 -0.08026384 -0.19991785 -0.059044097 -0.11608947 -0.13395956 -0.21139877 0.010003168 -0.21290518 0.019132774 0.24211764 0.18938692 -0.3180398 0.0976552 -0.4150154 0.034124885 0.19445412 0.19509447 -0.015750451 -0.21083438 -0.19460629 -0.049204137 0.07042705 0.26588508 -0.13100663 0.1551588 -0.20240165 0.088281505 0.05132535 0.0976449 -0.07201076 0.12794662 -0.27302408 0.12872808 -0.30192053 -0.10106788 -0.14609636 0.23807 -0.066905744 -0.2438495 0.2882986 -0.32971844 0.20344387 0.023068028 0.074927844 0.13071363 -0.094592154 -0.2360962 -0.0061493986 0.1676287 0.049398355 0.18425483 0.0146782715 -0.0363565 -0.080243796 -0.35190243 0.040612955 -0.005253439 -0.084530264 -0.21136163
3456 0.30622447 -0.10116332 0.07299613 0.14144662 0.1308789 -0.24068701 -0.05280546 0.09478486 0.08995312 -0.11244656 -0.09486428 0.04507538 -0.28503534 0.13119 -0.028131375 -0.0051497915 -0.1693091 -0.14588946 -0.032957837 -0.18108049 0.030451607 -0.26779813 -0.024625046 -0.19290084 0.24661818 -0.0791923 -0.022565054 -0.16082527 -0.3018579 -0.39231288 0.09933758 0.03324835 0.08768481 -0.26840118 0.060858883 -0.072233506 0.36956322 -0.11933935 -0.02133283 0.018485429 0.07898475 0.04817853 0.4017445 0.0739684 0.22455464 0.004156703 -0.1488942 -0.073427 0.005062361 0.189226 -0.07605196 0.018650308 -0.014610283 0.013641482 -0.043693166 -0.10830586 0.025470983 -0.03255481 -0.07886238 0.20334017 -0.004595769 0.123535275 -0.09842785 -0.36785614 0.088135675 -0.004311464 0.12988456 -0.36289406 -0.024850992 -0.025467623 -0.18335347 -0.079521224 -0.27244928 -0.1626177 -0.017586414 0.117062755 -0.2622935 0.053259328 0.44349083 0.15604661 -0.42066798 0.16687968 -0.07791068 0.024377378 0.11649907 0.20215434 -0.1827926 0.0044240076 0.20035203 -0.13830094 0.11452313 0.1363822 0.110922314 -0.028995013 -0.20483096 -0.14870101 0.21915518 -0.0061367545 -0.13869561 0.1816148 -0.036647927 0.07054788 -0.2526336 0.21819007 -0.00044033164 0.21981964 -0.16865161 -0.21496929 -0.015074853 -0.3458304 0.23229244 -0.11476676 0.23612043 -0.021894954 -0.12249243 -0.09436394 -0.031366322 0.14807053 0.14553149 0.17002602 -0.024124982 -0.072683476 -0.089054234 -0.15246262 0.18839447 -0.18058674 -0.1572459 -0.12752222
3907 -0.025865585 -0.41115677 0.38785768 -0.268368 -0.002438816 0.18123539 -0.22978483 0.01695157 0.05544512 -0.16335976 0.1686949 -0.2539077 0.10334838 -0.14363968 -0.02953589 -0.14810614 0.19561464 -0.23787937 0.46939066 -0.3039329 0.31536064 -0.067994416 0.10135186 0.0151506215 0.034428503 -0.25546917 0.16570763 -0.3576693 -0.05136688 -0.5717496 0.058089312 -0.12812111 -0.18452811 -0.14042716 -0.07468576 0.20383501 0.30882493 -0.2184196 -0.10494725 -0.124980874 -0.119318366 0.041759614 -0.34289357 -0.33763343 -0.051942755 -0.06212996 -0.0033994627 0.06050698 0.1577139 -0.08133328 -0.16345906 0.084414974 -0.11435825 0.08533624 -0.046789784 0.030364325 -0.12117465 0.062474985 -0.02875787 0.08160327 0.28935865 0.19149888 0.06404445 -0.016769849 -0.020292906 -0.31906354 0.11405652 0.05914947 0.19320677 0.08968848 -0.47818127 0.024427844 0.075106844 -0.14436343 0.09761145 -0.21120301 -0.5429309 0.32079613 -0.074742235 -0.07561888 -0.08567396 0.090995796 0.42739162 -0.20232691 -0.27534854 -0.12645422 -0.28655648 -0.20022048 -0.08938419 -0.0985313 -0.47525343 0.22483385 -0.35796314 0.21725152 -0.24047242 -0.0801268 0.087593846 -0.15593958 -0.31883368 0.49692625 0.016500518 -0.10044562 0.13014722 -0.2021153 -0.012168825 0.36873734 -0.1666644 0.22773753 -0.05341135 -0.10823814 0.29063118 -0.27571052 -0.11858061 -0.00045474432 -0.30120343 -0.14233744 -0.104565114 -0.3245382 0.05297739 0.11045769 0.19439131 -0.3224596 -0.10369527 0.13843186 -0.5356449 -0.029665785 -0.03852222 -0.07133758
3674 0.012309176 0.18867528 -0.0014251624 0.056829184 0.080682635 -0.13925 -0.2469281 0.062328357 0.0979451 -0.10942739 -0.057941623 -0.16046171 -0.28684807 -0.122683056 -0.015335349 -0.065042146 -0.078001745 0.029443955 -0.0890607 -0.054549035 -0.15705734 -0.28172043 -0.009872139 -0.050286092 0.2158209 0.21647406 0.00882799 -0.16722097 -0.21984889 -0.31026092 -0.091910385 0.1769291 -0.114770874 -0.17122117 0.02828408 0.16163328 0.0650937 -0.2598967 0.080555186 0.15279697 0.20663083 0.06721081 0.16718133 -0.08965354 0.24078032 0.040390298 0.047958396 0.09168496 0.07806068 0.07220774 0.027872473 0.07480618 0.010282666 0.021786712 0.05717363 -0.03843417 -0.0074705645 0.122701034 -0.14182915 0.08764442 0.0901506 0.120012455 -0.27323937 -0.3529735 0.10715444 -0.033426233 0.011129742 -0.0882662 -0.049521115 -0.11483766 -0.18076898 -0.24719852 -0.40071255 -0.18030354 -0.11725299 -0.032602534 -0.17134203 -0.027826078 0.13681558 0.09739114 -0.10435961 0.015069539 -0.17386043 -0.0086346585 -0.0217252 -0.1300769 -0.1309961 -0.13496892 0.09051462 0.035218585 0.2396104 0.23128386 -0.14288832 -0.06714774 -0.12989742 0.14049624 0.24163376 -0.021318568 -0.048122194 0.17455831 -0.012410816 0.33235714 -0.21810488 0.12606268 -0.18116473 0.1458396 -0.06982301 -0.36949155 0.09141642 -0.31999385 0.31391376 -0.01536367 0.2659451 0.1492654 -0.20303334 -0.10929112 -0.075600564 0.26944986 -0.16694513 0.33195537 0.10856835 0.058144648 -0.04538845 -0.42302895 0.09441299 -0.059155375 -0.17426246 -0.103810005
3737 0.3400999 0.0009983935 0.21873581 -0.06563428 0.013613851 -0.0926464 -0.0012589559 0.23394144 0.23122196 -0.028258454 -0.04092147 -0.11206898 0.031285584 -0.0046355138 -0.22261871 0.013957481 -0.18398732 -0.017091775 0.1797532 -0.15124355 -0.24315944 -0.31975815 -0.023976969 0.05220649 0.2759969 0.1039881 -0.05091626 -0.15058099 -0.030653253 -0.21983035 -0.0071639405 -0.012110512 0.0922054 -0.21567613 0.17081293 0.07086528 0.20638669 -0.066717 -0.041519172 -0.01618583 0.14147079 -0.04032565 0.11036227 0.06591695 0.12623103 -0.028811239 -0.2660554 -0.0983502 0.030788602 0.21411678 0.017208496 0.1347165 -0.16815916 0.0009737343 -0.032404404 -0.17442696 -0.19881727 0.15537453 -0.43836582 0.1720496 -0.41784847 0.0022452043 -0.2916482 -0.09502267 0.21993752 -0.2380948 0.058166582 -0.25473538 0.20532984 -0.12686853 -0.13540962 -0.06468942 -0.34014913 0.0012213021 0.03689262 -0.02505345 -0.33358625 0.16678134 0.51181304 0.12217832 -0.34006727 0.061368693 -0.13679613 0.14595385 -0.07904311 0.3482609 -0.16149785 -0.27131736 -0.114949144 -0.06975661 -0.22421314 0.16101563 -0.27150676 -0.00999791 0.009949278 0.053411093 0.10237732 -0.2344186 0.03470118 -0.14791176 -0.18662655 0.26157326 -0.0731065 0.022520417 -0.18004978 0.19276193 -0.065708816 -0.45666575 0.14942366 -0.34763718 0.22514984 0.07004824 0.26596722 0.15732984 0.1289798 -0.29008865 0.23792216 0.22387286 -0.1358632 0.009637029 -0.2963067 -0.20505825 0.086578086 -0.32606658 -0.048941802 -0.22171275 -0.053344984 -0.004257324
3604 0.14052932 0.011155383 -0.04405142 0.17212908 0.17757781 -0.12917869 0.10435256 0.25818583 0.13691132 -0.066907525 -0.17223085 -0.037832774 -0.01506587 -0.030954119 -0.27339995 -0.18957484 -0.013393317 0.2056796 0.15584587 -0.058726326 0.029780718 -0.045977607 -0.05930152 -0.06540152 0.18601497 0.16802019 0.031768445 -0.07737849 -0.32020882 -0.36716455 0.15494154 0.13604409 0.065787405 -0.10521869 0.0045027942 -0.16913007 0.17119065 -0.32017356 0.31701788 0.06903666 0.3283094 -0.18597887 0.058825497 -0.026457243 0.07457492 0.03990656 -0.12884122 0.15678197 0.012316504 0.04069341 -0.2480995 0.03329799 -0.103943355 0.1825891 0.07054326 -0.18484755 -0.18748993 0.16280396 -0.03422342 -0.015388259 -0.064338654 -0.12246996 -0.402679 -0.03765009 -0.102940604 -0.033157155 -0.00545277 -0.2686694 0.14895785 -0.10295803 0.114810385 -0.052962948 -0.07597727 0.14706323 0.027932553 0.050725948 -0.31807235 0.17260851 0.52939457 0.024590826 -0.15257879 0.15041015 -0.05733475 0.037865464 0.0801719 0.10220447 0.13736464 0.06115507 -0.098493345 0.07222909 0.19599098 0.15318285 -0.10846407 0.020006644 -0.15831262 0.087575145 -0.010567041 0.004310995 -0.031567935 0.07042207 -0.24959305 0.36417326 -0.3524369 0.026848165 0.14772435 0.12135679 -0.07551337 -0.014195199 0.16316938 -0.20651415 0.26493424 0.13698919 0.22312255 0.07688258 0.28569183 -0.35076565 0.09930632 0.20410718 -0.21524031 0.04436769 0.26058352 -0.12085529 0.16264129 -0.30850264 0.14765327 -0.059634846 -0.22968698 -0.18425722
3633 0.1875993 -0.15649232 0.061873052 -0.04597306 0.12824365 -0.19976926 0.1320062 -0.06998251 0.20433408 -0.01235516 -0.25249228 0.09420591 -0.07002955 -0.24682342 0.18829033 -0.061443295 -0.11811145 -0.15403776 0.07537578 -0.02672427 -0.0043514273 -0.4095342 -0.10231974 -0.21565495 0.13514282 0.047390513 0.021843966 -0.26194534 -0.16667737 -0.24207513 -0.14483133 0.03614946 -0.057117343 -0.14270149 0.036973827 0.1875781 0.16201161 -0.33436528 0.06484203 -0.08650151 0.12016338 0.054523814 0.14518547 -0.11834882 0.21923737 0.075414166 -0.09586305 0.14457893 0.17071354 0.07397114 -0.10306637 0.054930143 -0.17647403 0.04487021 -0.0065197954 -0.065194294 -0.048291802 0.039082795 -0.04516714 0.1440144 -0.07284295 0.29617658 -0.11101858 -0.13948002 0.029900627 0.09164721 -0.14428355 -0.3719823 0.12623619 0.08259965 -0.00049674546 -0.21442974 -0.17123263 -0.2348475 -0.12290324 0.037859835 -0.23254563 -0.07887701 0.34923482 0.0044763093 -0.23276043 0.1480677 -0.08923785 0.11715813 0.088660374 0.20648995 -0.024522593 -0.19305387 -0.05188777 -0.27779546 0.10056954 0.31037602 -0.05144748 0.074092455 -0.021156775 0.15344621 0.2867147 -0.015380632 -0.03737792 0.22283798 -0.08301201 0.100076705 -0.20159261 -0.03725498 -0.13541007 0.16623417 -0.12856998 -0.3430163 0.09734647 -0.42267323 0.13157348 0.049298864 0.2272978 0.0987173 0.090887755 -0.21744701 -0.123169295 -0.0018959391 -0.025975537 0.08575171 -0.033206735 -0.18550707 0.042832613 -0.51460207 0.15626772 -0.29071704 0.016217457 -0.1710457
3824 0.15769252 0.08227974 0.10812646 0.13291588 0.0115464665 -0.07108048 -0.09386785 -0.07752158 0.21292765 -0.07250426 -0.30294794 0.01394421 -0.2725363 0.07155183 -0.09640041 0.0824598 -0.24968019 -0.051369347 0.02049513 -0.14769603 0.1250666 -0.22961378 -0.01974015 -0.10983106 0.3581912 0.25248802 0.052717224 -0.24983492 -0.20043264 -0.2796128 -0.054320503 0.023576505 0.022350648 -0.17837499 -0.013452916 0.07702793 0.14920376 -0.10146932 0.08800491 -0.1539086 0.3190015 -0.1908966 0.33581775 0.06300618 0.28605446 0.051876254 -0.14984651 0.025489822 -0.07851857 0.19343677 0.00091456703 0.0318246 -0.100124106 -0.07231455 -0.13274351 -0.10992385 -0.2379427 0.019629374 -0.20291995 0.13635622 -0.2773686 0.11933085 -0.25111926 0.00468226 0.23987448 0.109986074 -0.059223153 -0.36845565 -0.019239478 0.082199104 -0.09154695 -0.04022496 -0.31858844 -0.02705141 -0.19760582 -0.038655546 -0.2486527 0.18570702 0.4184609 0.21097942 -0.40848827 0.13797109 -0.0017576602 0.19298583 -0.15526564 -0.01153026 -0.12786083 -0.20305075 -0.14043847 -0.30284512 0.044180114 0.18116343 0.017756283 0.10605792 -0.04240117 0.06515916 0.032267787 -0.1344193 -0.11440387 0.14316216 -0.041418258 0.26551428 -0.1753443 -0.26782954 0.00094378064 0.19816372 -0.23848855 -0.21626553 0.24285781 -0.43989646 0.22110263 0.021045523 0.14247186 -0.04229853 -0.03719875 -0.3091031 0.07237874 0.09155976 0.047966525 0.099491194 -0.043219443 0.02429596 0.11000101 -0.22414482 -0.10358057 -0.18052223 -0.12047409 -0.094148055
3877 0.08413917 -0.047340177 0.10761733 0.23009148 0.24758199 -0.20257041 0.27879527 -0.04035365 0.009342737 -0.036464285 0.06340137 -0.17734408 -0.07074238 0.038340982 0.09619996 -0.07602315 -0.17859115 0.22311291 0.1551678 0.047802977 -0.113823146 -0.23227738 -0.0077471407 -0.18763055 0.19767225 0.022837138 0.06233013 -0.042992268 -0.05250649 -0.4430707 -0.106911466 0.165628 -0.22339536 -0.2864645 0.102990374 -0.101967864 0.0027495057 -0.24437253 -0.20920973 -0.10618159 0.22503655 -0.08187014 0.17459628 -0.056410555 0.062526815 -0.05194653 -0.24944355 0.10482355 -0.010823715 0.20722966 -0.09797365 0.33282965 0.028656399 -0.038545772 -0.024685437 -0.25104335 -0.21644557 -0.005883893 -0.29798812 0.16655137 -0.18044376 0.11206992 -0.025832592 -0.31696838 0.20429972 0.16134888 0.04614312 -0.102556996 0.14778638 -0.013866009 -0.35055292 0.012296009 -0.3199092 -0.11650611 -0.17480999 0.047975756 -0.32195517 -0.0882717 0.6285135 0.40433034 -0.3641285 0.0015337074 -0.3439466 0.23648971 0.016010394 0.03314966 -0.09171944 -0.23528858 -0.22352022 -0.12358617 0.13064101 0.24653113 -0.11980433 0.12746033 -0.081276156 0.038121954 0.06559615 -0.0068169245 0.053356964 0.1543568 -0.11489005 0.09740757 0.06614269 -0.00026407882 -0.25232238 0.22080418 -0.24168783 -0.036773026 0.14882228 -0.32631207 0.25885424 0.11699044 0.044221926 0.12313329 -0.02964818 -0.0952424 -0.18736719 0.14871578 0.11989203 0.12727821 0.21824391 -0.16706696 0.12374528 -0.38037655 -0.031054731 -0.17572723 -0.2314687 -0.18891287
3971 0.2708986 -0.11433074 0.31628132 -0.06898253 0.099458374 -0.24546063 -0.12040625 0.045202296 0.2385996 -0.1374663 -0.1429451 -0.16909674 -0.36050028 -0.10923354 0.10007814 0.06556491 -0.30210143 0.14145365 0.10526575 -0.029249914 -0.15007727 -0.14995064 -0.14794399 -0.07454065 -0.16754362 -0.12316221 -0.048007254 -0.3207392 -0.11979853 -0.0799127 0.016733551 0.11432056 -0.028781505 -0.1173482 -0.13177851 0.12718825 0.11729222 -0.23361523 -0.09150534 0.18747893 0.23274009 -0.037585653 0.32828468 -0.08146527 0.2221145 -0.05212683 -0.16437718 0.17282619 -0.10052631 -0.017911732 0.009642597 0.14779116 -0.25819707 -0.050058957 -0.014001118 -0.009514195 -0.07060437 0.008577285 -0.06992455 0.14253056 -0.016972968 0.0030241234 -0.20554653 -0.21199663 0.25511453 -0.24912326 -0.12594087 -0.26036575 0.017016934 0.107667536 -0.2374124 -0.2822034 -0.19970219 -0.16893049 -0.18352044 0.056360282 -0.14384577 0.16341288 0.47133106 0.3025691 -0.1208511 0.23019274 -0.29324248 0.07617029 0.048893377 0.10879239 -0.16484724 -0.013675988 0.036476538 -0.3698239 -0.14026871 0.19347435 -0.16112575 0.36327204 -0.16997242 -0.065134265 0.057698395 -0.020228472 0.08330109 0.120508425 -0.12862404 -0.024387429 -0.051630132 -0.0828964 -0.1770205 0.21171494 -0.19132769 -0.14407833 0.023033058 -0.43990806 0.14190888 5.7914654e-05 -0.1344924 0.042538937 -0.027262663 -0.0436102 0.010293955 0.24551114 0.06604417 0.15226816 0.23411125 -0.02960395 -0.0571924 -0.39997318 0.15067899 -0.18830705 -0.38989937 -0.092771575
3760 0.11560284 -0.15550366 -0.0037294088 -0.08130979 0.15652156 -0.3879633 -0.10825777 -0.23631722 0.22230396 -0.15500216 -0.168732 0.0764324 -0.03596712 0.11744191 0.20837489 0.106349155 -0.18258199 0.07528251 -0.101453304 -0.1007811 -0.17909396 -0.3125342 -0.018594151 0.25744987 -0.0106949825 0.16162573 0.2778036 -0.3051676 -0.44019666 -0.17610331 -0.11228473 -0.20376538 0.13738693 -0.12856881 -0.06329682 0.12028364 0.11023897 -0.20527667 0.005152508 -0.0067899954 0.23695435 -0.003117473 0.1466298 0.084465295 0.32161844 -0.14571747 0.13687274 0.33936968 -0.032111183 0.025549393 -0.067515954 0.2642489 -0.20818794 -0.047363542 0.06597125 -0.08605993 0.026440188 0.022275107 0.007962601 -0.33969215 -0.09799511 0.10104019 -0.4042106 -0.24581794 0.18091516 0.10732472 0.2143541 -0.23475125 -0.021141045 -0.1961617 -0.14541097 -0.18391997 -0.2026316 -0.1603436 0.09664014 -0.20357916 -0.25790244 -0.14180553 0.23380929 0.1381737 -0.25215292 0.11251567 -0.1037502 0.11329525 0.05350274 0.04694441 0.048021317 -0.19999748 0.01934715 -0.12849046 -0.040724687 0.09525838 -0.060340315 0.12463147 0.053024746 0.26087287 0.13518465 0.19574583 0.04716289 0.33490786 -0.1953316 0.32364637 -0.2893838 -0.15173455 -0.3137972 -0.017489076 -0.24757996 -0.2566854 0.0104278345 -0.2913162 0.2483933 0.17149594 0.27814296 0.109540924 -0.015167823 -0.039735597 0.017315438 -0.04207313 0.17623514 0.048300434 0.085763834 0.078191616 0.25515687 -0.65104717 0.067164764 0.020603796 -0.1020878 -0.18810944
3437 -0.09435118 0.12704252 0.063665636 -0.07076722 0.044531938 -0.07414869 0.2563107 -0.11127668 0.21859424 0.12418912 0.40073788 -0.2932449 0.1178478 -0.017172748 -0.052457795 0.10958854 0.010984968 -0.19464405 0.09188545 0.026548566 0.007151608 -0.0053454777 -0.2237067 0.028890608 -0.27101693 0.097363524 0.09169322 -0.060993306 -0.19691171 -0.13630396 -0.008785037 0.27506414 -0.05811304 0.080679305 0.21833932 -0.058150273 0.28898627 -0.19965902 0.059242215 -0.2419141 0.028685475 -0.13067201 0.36029062 -0.15926154 -0.25747547 0.09907161 -0.31606567 -0.16729133 0.022962002 -0.2416434 0.16440973 0.120150164 0.06692554 -0.009674492 -0.091458395 -0.043505196 0.0007381733 0.005223837 -0.18493585 0.3141765 0.3964658 -0.032055188 -0.19638287 -0.33479175 -0.1692489 0.0442102 -0.032403577 0.0024680241 -0.09096128 0.06933373 -0.082717285 -0.17742853 0.09843309 -0.082432315 0.0905243 0.064740755 -0.24773152 -0.05212611 0.09309238 0.064548336 -0.0068175755 -0.102048986 0.1562467 -0.007862428 -0.27933782 0.0074137123 -0.24554257 0.10855022 0.2093174 0.25507498 0.041664466 0.038337708 -0.22804248 0.10368995 -0.102289796 0.048063222 0.38055897 -0.047163922 -0.20611624 0.12365488 -0.042356607 0.15147625 0.18642282 -0.17846306 -0.098124996 0.0948286 -0.05270588 0.017225971 -0.100621276 -0.027090264 0.21001302 0.011769354 0.22363544 -0.2271283 -0.21430105 -0.12314279 -0.20082948 -0.082001664 -0.35095507 -0.005921441 0.07570162 0.26574066 0.25917098 -0.23338974 -0.30145147 0.21178879 0.017713148 0.13540602
3790 0.16097002 -0.014259214 0.056376908 0.004036387 0.15062727 -0.0071569197 -0.06208739 0.18591474 0.007782179 -0.21207716 -0.19523616 -0.10259341 -0.104473 -0.0638546 0.1739417 -0.16230293 -0.36508512 -0.031877417 0.17749694 -0.027142096 -0.2439529 -0.1831233 0.20165733 0.05906516 0.35378876 0.1873217 0.13661672 -0.10935681 0.019418621 -0.065347664 0.011454575 0.08206081 -0.033290893 -0.1057569 -0.07083613 -0.076451145 0.34808832 -0.042369615 0.037668847 0.06976399 0.21243057 -0.3215331 0.19722515 0.025161022 0.27301177 0.06663491 -0.13779977 -0.15665506 0.19550845 0.36012292 -0.043843146 0.1986711 -0.17366058 -0.05033004 0.033632126 -0.02271103 -0.21850488 0.036525026 -0.31578928 0.10029923 -0.3291938 0.04016228 -0.32826707 -0.11178935 0.11884284 0.091848634 -0.0935062 -0.321158 0.10247287 0.027636629 -0.18044084 -0.18063878 -0.24656513 0.13066795 -0.089845315 -0.07672622 -0.3596913 0.08805005 0.43561187 0.33964399 -0.32473922 0.14046851 -0.1785915 -0.03590128 -0.11537199 -0.041184086 -0.22602458 -0.11310323 -0.10610026 0.029067153 0.10713572 0.21700054 -0.25014454 -0.08821214 -0.1375604 -0.0065122526 -0.044638287 -0.049762003 -0.019657318 0.057656292 0.048380405 0.22271433 0.035140283 0.0042053163 0.03469613 0.11214544 -0.07406861 -0.2767806 0.2417905 -0.5405902 0.25514758 0.0133967325 0.25278664 -0.116128 0.1703274 -0.44702697 0.16256805 0.014045986 0.104221135 0.06806078 -0.20200534 -0.19661342 0.16850725 -0.3724406 -0.06131929 0.0970536 -0.12151554 -0.0094679
3873 0.12472574 0.17183252 0.14835364 0.05861122 -0.032409877 -0.26401997 0.088062994 0.1133598 0.19079068 -0.10250893 -0.08734961 -0.116599984 -0.016375573 -0.09279178 0.08171711 -0.08433916 -0.44718963 0.14144535 0.046556212 -0.14338075 -0.07877599 -0.23605542 -0.09913424 -0.17863089 0.16736554 0.024379214 0.029334603 -0.2166541 -0.22461627 -0.2209444 -0.12638324 -0.12723419 -0.12705936 -0.29372716 -0.057867453 0.089649536 0.22033279 -0.35296884 -0.09089105 0.03041254 -0.0138188815 -0.15521906 0.021546947 -0.11835802 0.14792758 0.09688042 -0.28697684 0.27620545 -0.02938573 0.11453388 -0.0077357893 0.033854876 0.023793872 0.009645477 -0.12481521 -0.12601471 -0.019838657 -0.073156625 -0.10067781 0.09130558 -0.105410874 0.097898014 -0.24361657 -0.37455547 0.07961651 0.0241665 -0.008468495 -0.46642286 0.065697774 0.06435793 -0.15844364 -0.14254694 -0.24146701 -0.22320934 -0.10140319 0.0037423433 -0.14077397 -0.01743705 0.22006078 0.58864284 -0.1383986 0.10806475 -0.13847934 -0.092687234 0.26322016 0.043240223 0.056703735 -0.24346374 -0.13962227 -0.01781285 0.13549154 0.1035111 -0.05573256 -0.018877983 0.111334786 -0.18217556 0.14516431 -0.1383627 -0.11710037 0.21348166 -0.0609191 0.12968959 -0.14685844 0.041609682 -0.07893016 0.14735177 -0.30869293 -0.13415244 0.04062196 -0.36940858 0.22154532 -0.34121913 0.2984212 0.2509444 -0.014105109 0.07016833 -0.2117406 0.3421292 0.014554986 -0.049835287 0.14312245 -0.20132706 0.14343181 -0.4077731 0.101502985 -0.26003557 -0.18620199 -0.20118752
3651 -0.0018837989 0.05075061 -0.03416677 0.15114726 0.107935704 -0.22348344 -0.03806292 0.053401977 0.20674913 -0.15548515 -0.11842552 0.045654133 -0.27377707 -0.06987424 0.068002425 0.1336886 -0.15461713 -0.16015247 0.28961253 -0.298392 -0.08527653 -0.15350696 0.09606655 -0.013344161 0.0693106 0.15905179 0.24007826 -0.35312992 -0.16667107 -0.2060159 -0.24495424 0.04736391 0.017352086 -0.019460818 0.0033072394 0.035442673 0.08455139 -0.5213818 -0.07892225 0.07673679 0.25130668 -0.15098324 0.1359586 0.099854276 0.048674352 0.032069717 -0.040259622 0.09623589 0.11878241 0.07193486 -0.066860355 0.38694516 -0.07992729 -0.020448996 -0.09304606 -0.20443799 -0.13182953 -0.06923535 -0.17679769 0.15321279 -0.13684313 0.1432208 -0.14895599 -0.26928526 0.10948767 -0.04697099 -0.046318676 -0.09199448 0.14367093 -0.055143893 -0.14330138 -0.15970707 -0.15614092 -0.077499524 -0.13138816 -0.0251711 0.03566996 0.14442055 0.3946107 0.2607073 -0.28495112 -0.1961489 -0.0037292154 -0.034601122 -0.01727719 0.07964357 -0.17494953 0.053979944 -0.04432398 -0.25079536 0.08116826 0.25469548 -0.084036574 -0.0880987 -0.083242655 0.051291704 0.2978751 -0.15242513 -0.0786928 0.18495323 0.12047785 0.19491838 -0.22316523 0.2491106 -0.06253659 0.31200618 -0.06803462 -0.2321336 0.22791237 -0.44050923 0.25671977 -0.08476572 0.024251042 -0.028978057 -0.078529805 0.10850307 0.00027350127 0.2561252 -0.19991699 0.35664326 -0.07986509 -0.3714798 0.06993054 -0.2803289 -0.1053247 -0.16767098 -0.0966769 -0.11443568
3884 0.25395185 -0.095444165 -0.073505074 0.119120315 0.024398822 -0.03379985 -0.09175668 0.08246883 0.08217981 0.08267968 -0.16154584 -0.102040574 -0.1900522 0.003862524 -0.09366609 0.041762758 -0.39025533 0.032390725 0.24041052 -0.26636106 -0.25518012 -0.30906475 -0.13109967 0.069748566 0.21849498 0.24030879 0.045584388 -0.32675412 -0.23114558 -0.2880653 -0.09548561 0.10112331 -0.01629395 -0.39873305 -0.09847185 -0.09417484 0.2904397 -0.019453075 -0.062218025 0.077428125 0.2824634 0.14579633 0.30540147 0.08346493 0.18761335 0.121326774 -0.22438268 -0.038583588 -0.030200187 0.12910801 -0.14979461 -0.05381301 -0.13391349 -0.068071276 0.081863806 -0.07898273 -0.2692333 -0.0887246 -0.13843337 0.06829416 0.039147288 -0.08655491 -0.013994935 -0.057845242 0.009795748 -0.026072707 -0.003582117 -0.29149404 -0.09637663 0.18191594 -0.1857901 -0.09551876 -0.4363626 0.04850122 -0.1995869 -0.047775175 -0.19004107 -0.029647142 0.4513897 0.25178608 -0.35669908 0.0731054 0.030954968 0.16429536 -0.0056660348 0.17841399 0.12791258 -0.30955297 -0.053686194 -0.24600938 0.14709857 0.23485942 -0.079644464 0.11740283 -0.104184695 -0.0927575 0.019205324 -0.14618403 -0.30487287 0.03712915 0.11811153 0.19895354 -0.090149574 0.16447158 -0.27797508 0.17119285 -0.17810862 -0.22350267 0.19372104 -0.2400462 0.27566358 0.11096419 0.020994524 -0.18381317 0.1610687 -0.23542234 -0.024617517 0.17143328 0.03321159 -0.02367533 -0.011641661 -0.16821708 0.07361796 -0.45010692 0.058777686 -0.06481834 -0.39476854 -0.13265221
3576 0.30564243 0.09222569 0.26447022 0.0017718284 0.108520664 -0.30446762 -0.064018585 0.16151744 -0.077641055 -0.039658178 -0.11245931 0.061705153 -0.0337893 -0.098732255 0.09948272 -0.101217784 -0.29491702 0.06651415 0.19131011 -0.07538738 0.0007391442 -0.16063456 0.102883354 -0.060254935 0.2501064 -0.0150136445 0.14101264 -0.144964 -0.13546015 -0.18143699 0.07058438 0.10735082 -0.05100504 0.017392017 -0.056366485 -0.07395103 0.09276424 -0.052127592 0.044872966 -0.102139816 0.359578 0.15543076 0.20078124 -0.04661241 -0.098749965 0.056275934 -0.29296163 -0.05378242 -0.00670066 0.20935628 -0.21871042 0.15829144 -0.032556117 -0.025220942 -0.0833512 -0.022862662 -0.18872103 0.15354607 -0.23658568 -0.012909339 -0.24137981 -0.07253744 0.004385082 -0.04185294 0.14994459 0.27521327 -0.17044328 -0.359627 0.13095123 0.027552685 -0.242038 -0.24774788 -0.22580676 0.029626748 -0.009450029 0.09899663 0.09001312 -0.002909293 0.39007705 0.43660453 -0.5110146 -0.03997847 -0.2989282 0.19096895 -0.16728167 -0.11923636 -0.16700348 -0.24438159 -0.08174327 -0.2220318 -0.009249374 0.23795177 -0.16559209 0.004797977 -0.05856469 0.05987353 0.10858983 -0.047734134 -0.0730626 0.18553378 -0.05454105 0.37119824 -0.02350959 -0.13111351 -0.18272479 0.2539346 -0.24469174 -0.4027217 0.26683682 -0.44176605 0.21615946 0.06445204 0.14868535 0.12684035 -0.07615526 -0.33020267 0.20805901 0.14534535 -0.30085346 -0.11172816 0.088204585 -0.15155211 0.19042559 -0.24462768 -0.19854718 -0.23691706 -0.20686096 -0.31146723
3578 0.09977437 -0.050776806 0.18390046 0.0050919177 -0.086989984 -0.1561342 -0.12719144 0.12057167 -0.07522976 -0.14532495 -0.20292361 -0.00016676665 -0.17620999 -0.11784944 0.05878172 -0.14156944 -0.12920454 0.005534776 0.1946315 -0.11330787 -0.19335745 -0.27710298 -0.113435104 -0.053502746 0.2568565 0.1597434 0.02693582 -0.34297255 -0.034610238 -0.20054486 -0.018162953 -0.049683467 0.06998932 -0.3559427 0.12481996 -0.061512444 0.1513071 0.005953299 0.038154185 0.08273294 0.14478591 -0.12975137 0.11457999 -0.034482814 0.18267833 0.036585152 -0.1528764 -0.015561084 -0.012871505 0.27376196 -0.15877007 0.1666874 0.027188538 -0.042428136 -0.1008106 -0.22637384 -0.1481826 -0.07188627 -0.25102678 0.118471675 -0.18331549 0.02210091 -0.2381721 -0.15773608 0.066891305 0.05092724 -0.28452185 -0.2572315 0.06736303 0.04347888 -0.2411284 -0.276219 -0.3743912 0.14906952 -0.09590236 0.050915074 -0.1537722 0.20958304 0.41879502 0.2829038 -0.29230455 -0.02629875 -0.16187112 0.25543877 0.037248515 -0.04198766 0.0473001 -0.1785912 -0.12627217 -0.17674927 0.008584102 0.17685133 -0.14767766 0.2753521 0.08070854 0.13789319 0.09259462 -0.17942983 -0.2045839 0.10333963 -0.20413342 0.31934425 0.007908784 -0.032713052 0.02837424 0.21808718 -0.14052607 -0.3359061 0.05721912 -0.30610552 0.091441125 0.18908067 0.27103627 0.04194784 0.23172863 -0.2647703 0.14388524 0.16993323 -0.14845887 0.31615907 -0.11180727 -0.13671333 0.1934989 -0.2889393 -0.027690943 -0.18680073 -0.146889 -0.06910006
3858 0.21595518 -0.0694551 0.12980911 0.13393548 0.07387951 -0.09945581 -0.0821121 0.031041592 -0.02836727 0.043897778 -0.16238673 -0.13285373 -0.112615444 -0.03413697 -0.06067554 0.03608967 -0.21719335 -0.07001102 0.031140408 -0.10707313 -0.10275899 -0.24567282 0.018815462 -0.17581384 0.16038887 0.28042704 0.119888544 -0.08010274 -0.105694875 -0.3225612 0.009778646 0.15067337 0.08850317 -0.45539603 0.11658196 -0.006442545 0.2757449 -0.08161687 -0.13107534 0.21166542 0.09051209 -0.076118365 0.2191323 0.054334883 0.19154437 -0.025510585 -0.18752827 -0.081521176 -0.030151676 0.18874598 -0.17111614 0.051486377 -0.17875347 -0.16268764 -0.109774165 -0.06559362 -0.17540403 0.03508543 -0.23568098 0.0373343 -0.34011012 -0.07151152 -0.12926681 -0.09999503 0.22806492 0.10767678 -0.2653526 -0.23906784 0.076305546 -0.07019935 -0.117688335 -0.16553776 -0.31518513 0.06376104 -0.06861015 0.03192946 -0.34103358 -0.01607569 0.34742385 0.17707956 -0.37226635 0.12617609 0.06629793 0.162707 -0.19088274 0.14037792 -0.11663753 -0.2964599 -0.024025416 -0.41126782 -0.072372675 0.24937709 -0.012330771 -0.04688441 0.036304273 0.25216392 0.046523407 -0.15670149 -0.06070952 -0.09507181 0.034005273 0.35384324 -0.0944195 -0.078241475 -0.050017048 0.32848734 -0.21397428 -0.3207566 0.28549403 -0.45845473 0.1773136 -0.11168762 0.3027288 -0.11497138 0.18307425 -0.22694981 0.18245818 0.2632717 -0.06787134 0.11482073 0.10078501 -0.18129127 0.12962037 -0.33866993 -0.17877355 -0.09461775 -0.026287127 -0.1561616
3438 0.35789835 -0.22662117 0.034254417 -0.15216246 0.12311844 -0.35063475 -0.18174289 -0.12975985 0.18949603 -0.13495627 0.03377844 -0.10365819 -0.25016478 -0.2768293 -0.020708764 -0.021040568 -0.024112167 0.053404372 -0.15514782 -0.2501894 -0.21029393 -0.31123844 0.022018027 0.19543532 -0.08660027 -0.22342813 0.00089143286 -0.16678385 -0.2612441 -0.059787612 -0.11067821 0.08012439 -0.1361517 -0.36031288 -0.2775939 0.04597037 0.24965082 -0.22729887 -0.0048007336 0.16074269 0.27379078 -0.0766051 0.3623965 0.21153232 0.13405058 -0.07545387 -0.050770316 0.01793613 0.098938294 0.2633866 -0.21116006 0.079492606 0.047924012 0.106626436 0.039970852 -0.028106255 0.015864257 -0.05134056 -0.043130253 -0.18339828 0.024449116 0.07082658 0.08043357 -0.36643803 0.028235013 -0.01910646 0.14153418 0.07039169 -0.0032054535 -0.062352616 -0.076780334 -0.15276568 -0.34259564 -0.09792066 -0.0403753 -0.16456324 -0.14304447 0.13123496 0.32091153 0.05727271 -0.34597513 0.07683084 -0.29509264 0.07297969 -0.053513534 0.06903511 0.021366825 -0.021857737 -0.15230429 -0.42122334 0.28620315 0.1079898 -0.18654671 0.0048509017 -0.14616348 -0.014454471 0.22198983 -0.041944057 0.20628 0.3545042 -0.05629634 -0.16194417 -0.2857366 -0.046807703 -0.15644483 0.43707454 -0.1166536 -0.1702349 0.19828354 0.005142978 0.036694705 0.058878947 0.43365955 0.21302208 -0.24162418 -0.18159401 0.2666039 0.07925057 0.09568768 0.01739732 0.09764167 -0.09315191 0.24546206 -0.70998317 0.1505695 0.24772725 0.13148515 -0.23899445
3630 0.17081037 0.026737273 0.2242062 -0.029067198 0.2659022 0.0010818525 0.021565985 0.11238185 0.09261133 -0.22786473 -0.19792451 -0.16181509 -0.0698308 0.0027709636 -0.20044488 -0.2837782 0.5916994 0.19641086 0.28585646 -0.29257572 0.2393426 -0.3972745 0.16982067 -0.060444217 0.029455535 0.16188316 -0.0955386 -0.11837104 -0.24243772 -0.37367254 0.13537085 -0.2818647 -0.057754464 0.09105864 0.26261726 0.14665157 0.14740533 0.12007499 0.3238611 0.1406447 0.19968277 -0.2364807 0.30837068 -0.15724987 -0.16734488 0.24661602 -0.49386054 0.20228866 -0.10139578 0.07169043 -0.14847672 0.4080439 0.21415356 0.22739394 0.3299953 -0.1721885 -0.30282554 0.21918389 -0.2611495 0.08825173 0.4819288 0.08467384 -0.20933914 -0.16816609 0.055011492 -0.25945824 0.10686737 0.040467326 -0.21175821 -0.14724797 0.06807595 -0.007399648 0.33828783 0.43455607 0.1357854 -0.07534999 -0.35869947 0.27104148 0.06401986 0.2789222 0.11366727 0.508774 0.19582243 -0.2717862 0.6050483 -0.2741603 0.2639886 0.30440977 -0.3393219 -0.04639038 -0.20920269 0.22647612 0.17109528 0.18429476 0.08517503 -0.095713116 0.15053584 -0.03059358 -0.09136503 -0.17891812 0.0070001404 0.57366925 -0.11822836 0.11051129 0.3822193 0.17117167 -0.14279099 -0.32220042 -0.038967684 -0.053138424 0.03342233 0.7806584 0.15083705 0.14783607 -0.017646769 -0.16392997 0.3090319 -0.13349319 -0.028473832 -0.2927024 0.44109064 0.11710173 0.09271805 -0.02030617 -0.08439108 -0.13583332 -0.13100168 0.33585367
3518 0.2685557 0.13901943 0.11629922 0.016957993 0.23444805 -0.29057938 -0.14038867 0.042950224 0.07651237 -0.05494894 -0.13821149 0.07724915 0.03826641 0.038693745 0.1284577 -0.25645748 -0.3502552 0.024537265 0.2090257 -0.25886503 -0.07417849 -0.1916316 0.112210885 -0.054587465 0.30078658 0.082646586 0.17050952 -0.10700574 -0.017486835 -0.07152917 0.05154905 0.23168306 -0.07509877 -0.27382195 0.16014315 -0.13296553 -0.02724377 0.120848745 0.14953458 0.11883194 0.20658086 -0.25433344 0.21294028 -0.033883687 0.14283136 -0.10287624 -0.35186595 0.00601391 0.05283507 0.31845832 0.049476806 0.02147621 -0.07528994 -0.19494608 0.06418352 -0.114820845 -0.11960628 0.058024567 -0.22027053 -0.00786224 -0.2490211 -0.10014816 -0.26842773 -0.07731117 0.06949897 -0.15416756 -0.10604864 -0.32437256 0.13803303 -0.015360992 -0.09857309 -0.03847964 -0.3723342 0.23098597 0.029245917 -0.010906155 -0.34482852 0.17457914 0.37774703 0.27798352 -0.4014941 0.10653052 -0.06510197 0.16069406 -0.08801439 -0.0417599 -0.20183632 -0.1865951 0.08494888 -0.099697046 0.084446765 0.26049185 -0.25337958 0.07735855 0.0070788274 0.0056215846 0.15651518 -0.24456528 -0.14509878 -0.051419895 -0.07000347 0.20904736 -0.2999968 -0.14189395 -0.015154013 0.18579404 -0.21619661 -0.5016429 0.18049002 -0.45956373 0.14948966 -0.07530113 0.30651677 -0.021199767 0.0739785 -0.5271671 0.11906773 0.21752678 -0.0068230066 0.15404378 -0.089307725 -0.11599703 0.016901204 -0.1981064 -0.020347783 -0.08738255 -0.21186873 0.010653389
3692 0.09343068 0.03228624 0.11719562 0.08674828 0.08340519 -0.33001336 -0.034621447 0.16509502 0.21571387 -0.030789005 -0.22916962 -0.04364317 -0.3029801 -0.18721971 0.12402959 0.073140725 -0.3802574 0.07404635 -0.07884884 -0.10845244 -0.102453604 -0.2162045 -0.13496095 -0.30465016 0.1941283 0.03480524 0.057690915 -0.33382815 -0.16198227 -0.31024885 0.03853245 0.08844213 0.19351305 -0.09759091 0.016342113 0.10965272 0.10477287 -0.37450033 -0.060898297 0.043848574 0.06522367 -0.031491004 0.18612707 0.1432179 0.06428128 -0.19622324 -0.14783841 0.14971685 -0.1463393 0.085384585 -0.07630552 0.10056082 -0.10189827 -0.028563572 -0.12428817 -0.20129286 0.1164376 0.05074466 -0.027751584 0.02926652 -0.03381025 0.3299096 -0.0040472127 -0.5847771 0.09368495 0.08552932 -0.0018103818 -0.43228236 0.019462217 -0.081574306 -0.11776606 0.032066654 -0.14795113 -0.12885547 -0.013380856 -0.29411992 -0.26465538 0.08401629 0.4109642 0.290342 -0.25383756 0.090941325 -0.32052675 -0.00044503933 0.074219376 0.012580089 0.008097585 -0.050862294 -0.0399237 -0.17344451 0.13833533 0.5020654 -0.35988593 -0.13763964 -0.1938831 -0.038234495 0.19771089 -0.2538698 -0.2127917 0.23984124 -0.25589368 -0.044357065 -0.09518969 0.03466601 0.013258016 0.13325597 -0.06802046 -0.30183318 0.16429129 -0.28691992 0.21160379 0.08943346 0.07502976 0.091675125 -0.08536903 -0.12564999 -0.0057424214 0.12976672 -0.135017 0.061012384 -0.007162234 -0.07271656 -0.20290188 -0.30552167 -0.0862499 -0.15526934 0.012369013 -0.3974516
3938 0.33727935 -0.023507522 0.17717758 0.046354994 0.18340768 -0.21121715 -0.014506748 -0.0051026153 0.24089715 -0.085547745 -0.20715761 -0.2869683 -0.13411193 -0.008025455 0.15083645 -0.019938385 -0.26052922 0.049584396 0.06914549 -0.23503174 -0.23876657 -0.26072654 -0.024644561 -0.22930343 0.3494139 -0.06393068 0.29029992 -0.12850736 -0.085960686 -0.28711933 -0.12952599 0.15687802 0.11321307 -0.27131587 0.18721832 -0.10076863 0.032660678 -0.15525894 0.11295833 0.10089189 0.047920585 0.088947505 0.17008048 -0.033510294 0.08684289 -0.14687115 -0.20548631 -0.040187974 -0.024192696 0.34204546 -0.24570063 0.07787071 0.011572264 0.06459098 -0.036152523 -0.12182748 -0.18453945 0.22144891 -0.10608517 0.22105385 -0.06611432 0.0053324206 -0.2076069 -0.1649882 0.12948996 0.16047831 -0.11189874 -0.4882038 -0.06268802 0.02664023 -0.041572798 -0.2680354 -0.24490964 0.013886986 -0.117549814 0.006103504 -0.29290423 0.1342753 0.32942632 0.19960514 -0.18522575 0.06569196 -0.25065306 0.14174537 -0.053536676 0.096663445 -0.27175707 -0.15478165 -0.11824118 -0.22874601 0.09518457 0.1412636 -0.024207037 0.09726829 0.009853435 0.15283984 0.14380305 -0.03740946 -0.10527212 0.12380507 0.013285133 0.21425189 -0.08189091 0.15000291 -0.018792022 0.09020607 -0.19357587 -0.12662072 0.23480767 -0.29505137 0.14624093 -0.07659635 0.136054 -0.0066368897 0.067383565 -0.17273763 0.114543915 0.3065435 -0.04247909 0.14005083 0.1059962 -0.23851308 0.040359672 -0.5430825 0.032808114 -0.007959563 -0.2723234 -0.17989638
3596 0.11709916 -0.054783337 0.15879732 -0.050680652 0.15074345 -0.27319187 0.05735885 -0.08017338 0.10785739 -0.3156426 -0.2578087 -0.052644905 -0.12877287 0.095218845 -0.061227087 -0.13963443 -0.2904404 -0.011183095 0.16974235 0.020005815 -0.27469054 -0.1092023 -0.0891725 0.008569346 0.2899294 0.23868836 0.24867316 -0.28520477 -0.084637254 -0.24258435 0.038523037 0.10959299 -0.06461504 -0.33602512 -0.021079032 -0.118143365 0.1445018 -0.19228344 -0.10320481 -0.023158414 0.22189313 -0.08658044 0.23524098 0.0035443245 0.1453494 -0.06873159 -0.3823495 0.030817889 0.16287848 0.3075622 -0.13741049 0.13526246 -0.11872761 -0.07092876 -0.017674798 -0.043678224 -0.13082558 0.10525946 -0.245889 0.1465347 -0.111366086 0.06734616 -0.30355325 -0.050848234 0.17359155 -0.12935314 -0.13117549 -0.32017133 0.16046503 0.09113234 -0.14634916 -0.037868578 -0.15757476 -0.1694016 -0.045595393 -0.056227963 -0.0675405 -0.021060994 0.46764073 0.13147202 -0.3055192 0.15355033 -0.30977964 0.16333058 -0.10569097 0.02779601 -0.1951624 0.046596047 0.14293875 -0.055381916 0.061246626 0.20678204 -0.09439269 -0.12741031 -0.04812673 0.12789612 0.17811187 -0.015064173 -0.18981391 0.009933514 -0.027181288 0.19489887 -0.03950154 0.038939685 -0.08926235 0.25388977 -0.23544253 -0.24104814 0.035574023 -0.37054917 0.15688558 0.082520254 0.27104965 0.2822651 -0.030483715 -0.3817554 0.039174877 0.2549051 -0.12413126 -0.02175346 -0.03704081 -0.18465266 -0.04978497 -0.34578466 -0.113942966 -0.055042405 -0.14970113 -0.30013832
3506 -0.10214113 -0.19423746 0.12423282 -0.05485122 0.25207582 0.30462232 0.06996525 -0.18862905 -0.05783064 0.09063481 0.017516946 -0.38562095 0.1556992 0.15849937 0.10480081 0.048899133 0.30126065 0.16534996 0.08794592 -0.09887036 -0.03442762 -0.33271626 0.2799596 -0.00090806826 -0.17064577 -0.29463738 -0.28287116 -0.14075023 -0.10757569 -0.1792111 0.090495095 -0.36948523 -0.33423355 0.18942086 -0.11437917 0.102986485 0.19477479 -0.060713068 0.117796116 0.022804754 0.072080806 -0.23266329 0.26480916 0.074784815 -0.26668927 0.20204622 -0.06505803 -0.19223769 -0.13504077 0.18279333 -0.29379106 0.08206485 0.20757668 -0.19630818 0.18848439 -0.19334754 0.058470048 0.1935352 -0.18637152 0.06709779 0.26318842 -0.019647554 0.24204591 -0.14180234 0.23986499 -0.039517384 0.112606734 0.1765588 -0.094437644 0.26113102 -0.03541286 0.00087940856 0.17199814 -0.011182123 0.22772387 -0.30345798 -0.15530014 0.39840648 0.44554722 0.17899668 0.029644573 0.4565829 0.2928619 -0.29294315 0.24328332 0.117033206 0.14205147 0.10094378 0.38344082 -0.07357124 -0.16634445 0.18012851 -0.26502943 0.2380937 0.24093498 -0.08112542 -0.077032946 0.07284944 0.28837055 -0.1876114 0.15804282 0.14364539 -0.36160678 -0.13137011 -0.07657732 -0.011820004 -0.23844516 -0.22883803 0.030699613 -0.120355606 0.25669417 0.41139027 0.26096722 0.0028885736 -0.140184 -0.14759085 0.022877052 0.15184857 -0.23172991 -0.028902607 0.17132439 -0.015576375 -0.08406622 -0.3281958 -0.111770935 0.07374888 0.043174356 -0.26323444
3471 0.15511383 0.058102515 -0.050698437 -0.040363833 -0.16103932 -0.21465833 0.026299514 0.3071409 -0.013365163 0.086980276 -0.24657881 0.0277564 -0.16714263 -0.14794682 0.14673406 -0.24512804 -0.37736017 0.10944046 -0.12212317 -0.09705372 -0.15350515 -0.09596149 -0.23910376 0.006923738 0.06471991 -0.16811632 0.110911585 -0.32923773 0.029430289 -0.28300875 -0.110382736 0.060977463 -0.1939737 -0.36442325 -0.089956984 -0.051927496 0.15960234 -0.06857053 -0.13181444 0.11137537 0.11303134 -0.16740619 0.20595114 -0.07088457 -0.09254525 -0.0022206495 -0.15353857 0.103708245 -0.1413486 0.1764461 -0.19162284 0.15223545 0.20899932 0.054109134 -0.08735647 -0.024204465 0.105674446 0.04944762 -0.32475483 -0.010697749 -0.29976183 -0.047286186 0.027436623 -0.14660317 0.052062057 -0.030274328 -0.09477983 -0.31632268 0.19121625 -0.11670618 -0.22700654 -0.08048872 -0.059009448 -0.21755448 0.056882877 -0.29108164 -0.36534482 0.29148504 0.3897814 0.043609172 -0.2142219 -0.031532347 -0.03830196 0.012715188 0.12542251 0.052367788 -0.47043803 -0.120847814 -0.1916153 -0.30008784 0.24105795 0.23700425 -0.2101945 0.13950549 -0.20486593 0.022332916 0.19504482 -0.11680339 -0.090617605 0.3028961 -0.35335234 0.304207 -0.0292096 0.009058859 -0.3407895 0.3340248 -0.287997 -0.12928206 0.251278 -0.5581975 0.013073872 -0.0027374418 -0.04923095 0.23393509 -0.014473475 -0.36088482 0.057029627 0.16841863 0.196585 0.038660657 0.22196762 -0.30558246 0.22913438 -0.20045139 -0.03463562 -0.18337476 -0.46174294 -0.036332544
3464 0.062852636 0.112849586 0.0020609489 0.09057576 0.29993072 0.038868587 0.0039205225 -0.10555326 -0.06305689 -0.12105166 -0.24402104 0.066006295 0.26371342 0.047630657 -0.13106771 -0.096973754 0.31494918 0.22573759 0.40649813 -0.13418904 -0.050344374 -0.12701353 0.24729854 -0.24190588 -0.12700349 0.08349562 -0.026036713 -0.08968791 -0.35087535 -0.44897237 0.092400074 -0.31499153 -0.010851758 -0.109397694 0.10521848 0.16482541 0.143943 0.06824237 0.14997916 0.29546654 0.019441329 -0.17143026 0.20324704 -0.07934801 -0.24591573 0.22549385 -0.31062955 0.039114036 0.011181535 0.31114513 0.15077093 0.0541212 0.09855771 0.25100836 0.07041099 -0.16243199 -0.15649034 0.18926144 -0.28460318 0.15737079 0.2787885 0.2080339 -0.25128582 -0.18891817 0.11755069 -0.11306028 0.09608614 0.013981247 -0.005565033 0.051682495 -0.054147527 -0.10604064 0.14874826 0.16814072 0.028938359 -0.018988354 -0.20378844 0.2868927 0.21337694 0.28786612 -0.2321454 0.3662408 0.07760508 -0.08923498 0.2522348 -0.056685958 0.27931947 0.30479154 -0.20134193 -0.046164196 0.074181125 0.2856834 0.18598267 0.099611394 0.26838252 -0.15984167 0.016699795 -0.018371057 0.036187276 -0.08759899 0.027094837 0.3678741 -0.10727111 0.115620464 0.4867127 0.21688442 0.13170901 -0.3744065 0.056941636 0.11483775 0.01900117 0.75831723 0.12548849 0.013865697 -0.011788271 -0.19396073 0.20408966 0.056151018 0.011364646 -0.2511922 0.6576739 0.016054 0.10681259 -0.0029575063 -0.18848884 0.15411413 -0.058195654 0.26357526
3675 0.38642505 -0.18041877 -0.0981017 -0.09472331 0.22549722 0.013388307 0.27798432 -0.163804 0.5668107 0.013690801 0.29188746 -0.0699991 0.37498513 0.2668469 -0.18048213 -0.038681097 0.071649484 -0.053194102 0.3483858 -0.24587624 0.32643583 -0.3384851 0.12638386 0.08456281 0.29497173 0.44942573 0.16826344 -0.2988117 -0.1723604 -0.119786225 -0.12566702 0.23403646 -0.3242537 0.09553042 0.02522409 0.023081595 0.3776329 -0.13912787 0.010506633 0.121868074 0.24569736 -0.014279287 -0.121421605 -0.66415566 -0.70357245 0.008091384 -0.112347394 -0.6908628 0.023027468 -0.097111724 0.06958437 0.14493895 -0.060148757 0.023593158 -0.49755165 -0.36417177 -0.11588851 0.15059581 -0.04328585 -0.055798925 0.3426643 0.26890406 -0.10372287 -0.44021422 -0.015473284 -0.24121936 -0.24282208 0.120475106 0.20996407 0.108651794 -0.21927471 -0.2953611 -0.060284283 -0.25076044 0.13794918 0.094280645 -0.60519874 -0.030166158 -0.40229708 0.6318806 0.26042134 0.27978984 0.030491244 -0.19051099 -0.1494509 0.036711782 -0.021057094 -0.01434679 0.35705933 -0.19571206 0.22953348 0.5370428 -0.24487583 -0.1472159 -0.020149715 0.19185472 0.27273086 0.19025655 -0.18393113 0.18567502 0.093551874 0.19690515 -0.04408124 -0.32531852 0.12835127 0.006771013 -0.17616957 -0.18477362 -0.12550005 -0.25276837 0.30157363 -0.096772045 0.17537907 -0.20443577 -0.012162533 0.23631665 0.037224323 0.062072128 0.03309135 0.23952477 -0.021996964 0.32913336 -0.15415137 0.16442527 -0.5989991 0.35546708 -0.151288 0.045593914
3730 0.18428542 0.05016947 -0.058957517 -0.044010393 0.007909595 -0.3988484 -0.3963962 0.14352971 0.11003643 -0.16068792 -0.028090825 0.061384268 -0.02199878 0.16085906 0.0026220742 -0.006362357 -0.14882167 -0.07018367 0.26906958 -0.13013242 -0.05547679 -0.41064233 0.16369997 -0.09121324 0.16656998 0.11702093 0.23289742 0.17489691 -0.11071055 -0.28467304 0.0015778072 0.06737678 0.03058718 -0.35408399 0.18278368 -0.07869169 0.062269602 0.06002899 0.07057782 0.01721933 0.30668545 -0.07334878 0.17450361 0.16089658 0.071425036 0.03308086 -0.09753481 -0.116345 0.15716097 0.062795445 -0.2327232 0.061518844 -0.12193184 -0.0024736412 -0.06550624 -0.15414017 -0.08297118 0.073124364 -0.3541851 0.20067354 -0.24626692 -0.017900301 -0.5043481 -0.24796587 0.16985846 -0.0934588 -0.2609867 -0.46647635 0.11903471 -0.013342793 -0.2184602 -0.10381667 -0.2632742 0.04052426 0.10570782 0.18550068 -0.25124395 0.24031465 0.5486162 0.13919428 -0.21049602 -0.048845056 -0.050847042 0.28413445 0.062875606 0.043258034 -0.070967056 -0.1586561 -0.13867739 -0.100358695 -0.012064143 0.20571816 0.044395473 0.11895845 -0.14025515 -0.088523775 0.062368754 -0.22602405 -0.20771325 -0.04215619 -0.13768366 0.19496936 -0.19631912 -0.07952251 -0.11038866 0.2860371 -0.24752185 -0.28653288 0.23219801 -0.4232098 0.15412304 0.0057075983 0.39199978 0.18638888 0.20545655 -0.48570043 0.14217784 0.24846162 -0.03449797 -0.12863895 -0.0839898 -0.039925426 0.105854034 -0.3504942 -0.3047534 -0.040635172 0.06383961 -0.17972988
3793 -0.2033592 -0.057303946 0.281602 0.13987562 0.1256449 0.2218037 -0.06259341 -0.07730698 -0.03329334 -0.026524587 -0.35437524 -0.14404218 0.28050128 0.12470821 -0.105637036 -0.25558183 0.3086238 0.26549426 0.04740853 -0.15196158 -0.06949186 -0.31091315 0.05940764 -0.048352152 -0.3188088 -0.21699604 0.030224174 -0.3400157 -0.22596158 -0.2130703 0.19384554 -0.18551421 -0.36794335 0.06927193 0.1930115 -0.12610997 0.0052090753 0.037759867 0.004691138 -0.010636349 0.028786017 -0.16950251 0.17132188 -0.21776365 -0.27457827 -0.02010235 -0.098476246 -0.20757462 -0.27072024 0.11664554 -0.2861661 0.39097917 0.1464001 -0.16912992 0.16373132 0.050864544 0.037964724 0.025175666 -0.28728148 -0.064020686 0.5856603 0.07083999 0.04041787 -0.40280584 0.062292296 -0.03308277 0.052852668 0.00028025205 -0.14774184 0.086428195 -0.22801733 -0.002619003 0.088860735 -0.07128973 0.15657727 -0.2818581 0.18637916 0.37070873 0.17405859 0.043909915 -0.008381147 0.44159746 0.362982 -0.38723698 0.087986 -0.12306523 0.014878811 0.089865774 0.068065174 -0.034205213 -0.19641747 0.14110962 -0.100583985 0.21313512 0.18612437 -0.22141835 -0.09267068 0.034969997 0.023240948 -0.12565036 0.32037392 -0.18381344 -0.05855197 -0.20524625 0.23270664 0.06618747 -0.29607835 0.060523722 0.033455182 -0.17041387 0.2257184 0.29209763 0.29053208 -0.0410796 0.0809994 -0.051429667 0.14759614 -0.09524551 -0.24152355 0.1715547 0.2597815 -0.03388587 0.25839487 -0.21390751 -0.30711085 0.22909407 0.12567355 -0.10728377
3804 0.42276525 -0.1659284 0.13798134 -0.17114145 -0.16138326 -0.09136241 0.0059724743 0.15777737 0.11243956 -0.09214526 -0.1970161 -0.015510431 -0.1982857 0.11821827 -0.0014892924 -0.21973127 -0.33860132 -0.02606929 0.06350497 -0.15439607 -0.083691984 -0.23647767 0.15801866 -0.17810823 0.08872658 0.17194834 0.03709169 -0.07283762 -0.08252087 -0.48081824 -0.114684574 -0.003085596 0.099534795 -0.031656858 -0.04014732 -0.06623568 0.25557414 -0.13983625 0.02053948 0.09112621 0.21496092 -0.12998495 0.23817644 0.13959827 0.2734757 0.15494728 -0.3064742 -0.1119759 0.037634872 0.1419197 -0.044502504 0.15742545 -0.085180804 -0.10315911 -0.109344125 -0.17577292 -0.24645647 0.10907597 -0.21361165 0.110187024 -0.21596834 0.064096615 -0.40862134 -0.11005737 0.2443293 0.2592203 -0.07545152 -0.32152462 0.13482918 -0.1586505 -0.14216499 -0.10260046 -0.24941535 0.07820981 -0.10132257 -0.13450469 -0.083598025 0.030578848 0.38485882 0.14303085 -0.38309643 0.10669177 -0.103302196 0.16783002 -0.044223554 0.2410959 -0.09817481 -0.08630688 -0.007639404 -0.115793966 0.08964994 0.16410238 -0.15418845 0.010104888 -0.20016839 -0.043800063 0.011010832 -0.006682901 -0.15396193 0.047035158 -0.14682952 0.24097158 0.009096615 -0.04397345 -0.101894714 0.19789098 -0.33420318 -0.32789314 0.26060238 -0.5073022 0.14281754 0.010533819 0.38614625 0.02062474 0.06943396 -0.48224625 0.22944574 0.16042739 -0.027470993 0.10857358 -0.026659546 0.043513745 0.15831034 -0.2942593 -0.09576556 0.041673306 -0.23144516 -0.1948423
3800 0.16259485 -0.04880551 0.027473716 0.09103683 -0.028876087 -0.16015695 -0.17508724 -0.10785112 -0.06826885 -0.13612519 -0.1861451 0.044221573 -0.06415796 0.17197898 0.051378097 0.13979526 -0.27574196 0.030802753 0.22603409 -0.2611234 -0.01724426 -0.25442338 -0.07093593 -0.08594596 0.29190606 -0.0010183981 0.015513077 -0.12515819 -0.14352919 -0.4245295 0.051742207 0.013473669 0.03490527 -0.13975963 -0.08401385 0.18767895 0.12565514 -0.32152924 0.026208835 -0.007671843 0.38145065 -0.063116886 0.19929944 0.008634086 0.065020345 0.107567556 -0.26994637 0.21014032 -0.15278977 0.1910777 -0.16003732 -0.035329565 0.003995833 -0.05528234 -0.05311546 -0.08587681 -0.1712488 0.20178372 -0.24262872 -0.032759853 -0.091240965 -0.048441667 -0.43004566 -0.02249354 0.04019636 -0.05921256 0.104180165 -0.42522106 0.04499851 0.06872415 -0.15946877 -0.00707991 -0.35192794 -0.052874107 -0.10114635 -0.09174014 -0.24309643 0.1995779 0.3212776 0.38352743 -0.34549415 0.029952107 -0.13795437 0.08688475 0.010523263 0.15525188 -0.037424985 -0.13067926 -0.010751036 0.0071099116 0.27098522 0.10121422 -0.045029454 -0.043821875 -0.11973914 0.17307113 0.08028382 -0.087876126 -0.03524421 0.06969369 -0.10609795 0.19014525 -0.023175433 -0.075986214 -0.2471044 0.32652315 -0.053617354 -0.1361197 0.21923411 -0.31830248 0.06443615 0.076975524 0.29482523 -0.051080074 -0.03366713 -0.45450872 0.26650807 0.087192625 -0.055159114 0.14279425 -0.03722879 -0.22346127 0.19929647 -0.36054158 0.042000774 -0.23952599 0.0044124033 -0.38412333
3521 -0.24727364 -0.250727 0.3604847 -0.31551963 -0.059158523 0.059315447 -0.0024483898 0.33161065 0.041510146 0.017788893 0.009569922 -0.3276077 -0.12732093 -0.33142623 -0.03663828 -0.10171534 0.104251295 -0.026065784 0.3746589 -0.38019872 -0.020562734 -0.007200397 -0.095113166 0.07275425 0.11880523 -0.25051326 0.05695081 -0.22612509 0.021180758 -0.48944595 0.55857587 -0.27298483 -0.5444682 -0.382711 -0.02762913 0.37179986 0.20734997 -0.25087264 0.0992856 -0.36861825 -0.19134083 0.22950135 -0.36529323 -0.35561085 0.04416412 0.02642433 0.18968666 0.07126567 0.3363097 -0.15450229 0.037148092 -0.14753872 -0.29279587 -0.15940094 -0.038458556 -0.04947785 -0.19902326 -0.15717664 -0.077579856 0.16938749 0.096388616 0.11293776 -0.18539578 -0.30704898 -0.12647516 -0.22658975 0.29441223 -0.18771206 0.061727464 -0.07080786 -0.4955174 -0.15396312 -0.04577741 -0.12697549 -0.23192209 -0.38525483 -0.51064247 0.307799 0.09293003 0.067876086 -0.151029 -0.08488679 0.037539385 -0.22607394 -0.2741686 0.06945545 -0.10646586 -0.34191915 -0.011225782 -0.48281792 -0.42797193 0.28264624 -0.45498592 0.14434321 -0.14419731 0.015752537 0.14556332 0.04299752 -0.16863273 0.25013074 0.31764325 -0.20073912 0.04517331 -0.11051317 -0.2434997 0.4000438 -0.109702215 0.02938263 -0.06636156 -0.11608164 0.18446091 -0.42097732 -0.09114601 0.11739869 -0.23801914 0.02755731 0.04659486 -0.18351224 0.12487379 -0.06257496 0.24897192 -0.18201268 0.15197143 0.13533993 -0.21582979 0.09985 -0.019967424 -0.024283879
3708 0.299655 -0.33216816 0.18184686 -0.15452062 0.18586873 0.29088897 0.4941571 0.058635518 0.45147422 -0.14831576 0.26363763 0.1726615 0.35852468 0.46746933 -0.21976176 -0.08298308 0.16033745 -0.2521742 0.5418 0.013293576 0.536128 -0.49817592 -0.040369704 0.030464817 0.18867578 0.63763005 0.10197731 -0.051907063 -0.2771209 -0.043495636 -0.046576824 0.05843747 -0.4703708 -0.34920406 0.16902596 0.17667499 0.5352267 -0.08668455 -0.034981444 -0.13391402 0.26443532 -0.024211094 -0.3164265 -0.7708666 -0.59427226 -0.10630124 -0.10849025 -0.8679173 0.0700028 0.025790205 -0.068495326 -0.11677187 -0.1198568 0.1914972 -0.27698216 -0.1373507 1.0667292e-05 -0.068417124 0.053596817 -0.10863798 0.25834614 0.30862382 -0.13547485 -0.4910616 0.23834604 -0.30115616 -0.28496677 0.3777297 0.16276039 0.21321023 -0.50718486 -0.32596374 0.0017451718 -0.10393064 0.11371003 0.06500008 -0.6007503 -0.06370026 -0.20869808 0.5637951 0.366605 0.31092337 -0.105381556 -0.071118936 -0.22832328 0.13484298 -0.08869713 0.020677183 0.09806118 -0.30410153 0.15121154 0.37467784 -0.27348602 0.0073262136 -0.15469144 -0.018227944 0.46473005 0.23476164 -0.2537836 0.37581623 -0.096179664 0.4344768 -0.13703793 -0.36524922 0.1379382 0.11689508 -0.18918456 -0.25834367 -0.015000039 -0.37609917 0.39902788 0.061964393 0.06293052 -0.24047297 -0.016778978 0.03909366 0.35435376 -0.026320225 0.20034339 0.356348 0.090304635 0.04164327 -0.2627416 0.17074063 -0.5951346 0.34216955 -0.043887757 0.02459134
3705 0.02330393 -0.28822124 0.114428 -0.17112228 -0.19170591 0.3080068 -0.22432278 -0.100415684 0.12442884 0.25729063 0.2404472 -0.11819405 0.39479634 -0.13574013 -0.12791635 -0.09343768 0.11632879 -0.07517233 0.49984306 -0.371353 0.2804036 -0.0105291 0.22434562 0.0926493 -0.36372408 -0.2521756 0.17386346 -0.05325616 -0.20705034 -0.3647435 0.1885807 -0.28447 -0.14274359 -0.053364366 0.021268032 0.031937104 0.15463525 -0.10998357 -0.11728947 -0.045311157 -0.13423702 -0.12008378 -0.06200988 -0.56093204 -0.022058962 -0.040641025 0.24659577 -0.03791454 -0.11557821 -0.049544264 -0.4808082 0.27280313 0.09956022 -0.11343695 -0.013262751 0.10074894 0.046317946 0.15306745 -0.31274614 0.02001736 0.24293686 0.29325822 0.09504757 0.055968642 0.17294103 -0.13315034 -0.08753647 -0.045767855 0.062288325 0.11400442 -0.5252036 0.04028405 0.42306533 -0.18282339 0.114235155 -0.41120055 -0.19831632 0.14221144 -0.3524576 0.077465005 0.057739127 0.29721755 0.3131207 -0.2469539 -0.11559747 -0.20659554 0.1426031 0.027759353 0.18500112 0.064957835 -0.11952524 0.41293055 -0.33387312 0.31589672 0.18953508 -0.12280526 0.029389257 -0.25679094 0.16690144 0.0062656943 0.23001307 -0.1678052 -0.10422225 -0.34501934 0.01710289 0.33211222 -0.41145292 0.14307912 -0.064787686 0.15593623 0.504578 0.04280464 -0.013012724 -0.12606646 -0.03651671 -0.24974349 0.19557571 0.11180201 0.15832229 0.07592519 0.029013695 -0.25237426 -0.029609984 0.034574814 -0.41668668 0.34613672 -0.016363388 0.13245448
3670 0.2460595 -0.04364388 -0.108440585 0.20632821 0.04913165 -0.08374985 -0.3535849 -0.14697964 0.07947245 -0.27206856 -0.31917748 -0.18621103 -0.13186544 0.02327564 0.08688311 -0.12538068 -0.43433902 -0.13019586 0.051389366 -0.045367934 -0.13962366 -0.2853082 0.25046295 -0.1887405 0.4175793 0.076745085 0.07087235 -0.13357292 0.06848983 -0.007908035 0.048227858 0.09398161 0.17489605 -0.25598484 -0.16690676 -0.1880244 0.42197555 -0.038763456 0.060191296 0.005805953 0.18893655 -0.15191346 0.17781456 0.051214695 0.10605729 -0.0232529 -0.16656639 -0.059808247 0.22825332 0.27904978 -0.03539631 0.06906732 -0.09377637 -0.05528087 -0.02775232 -0.21861646 -0.23004404 0.09458158 -0.49974626 0.09643755 -0.14673826 0.068875015 -0.3609298 -0.121161036 -0.04180727 -0.04271324 -0.3222831 -0.22626936 -0.08522795 0.07345984 -0.13597165 0.06593704 -0.21312386 0.24057347 -0.23846145 -0.25499976 -0.23671895 0.10486133 0.35573182 0.33506426 -0.47425064 0.028566394 -0.28108722 0.14176655 -0.042770736 0.1869193 -0.058555942 -0.0380996 0.06233128 -0.09359737 -0.051224984 0.16743733 -0.06829901 0.3039051 0.19727516 0.22311214 0.22081804 -0.0928898 -0.2223909 0.19505845 -0.09342585 0.39073133 0.06694435 0.11617813 -0.24167779 0.07929247 -0.3922504 -0.08998355 -0.042628713 -0.3712841 0.3274501 0.028323442 0.22236514 0.10103856 0.0027664143 -0.39604774 0.049145304 0.026719969 -0.14046541 0.027102668 0.16885018 -0.064454995 0.06551176 -0.37514827 -0.10363087 0.1574296 0.017977264 -0.3188983
3617 -0.3545629 0.031177757 0.08870012 0.060932167 0.2126722 -0.02099492 -0.07711003 0.05390148 0.14178835 0.12602365 0.01995236 -0.019974696 0.1046655 0.0376901 -0.03026286 -0.22813794 0.0487627 0.33374915 -0.13765004 0.1090716 0.11280378 -0.11645729 0.13110778 -0.291191 0.1740824 0.030321376 -0.06867838 -0.33687663 -0.15164559 -0.12095498 0.04579899 -0.18257082 0.10411596 0.25662547 -0.12172454 -0.11765521 0.17755343 -0.049329627 0.12101045 0.35299802 0.042838033 -0.2901106 0.20267767 0.10188889 0.021949561 -0.022792816 -0.23267052 -0.043418735 -0.14344846 -0.112756565 0.0354017 0.24414372 0.10635755 -0.21371825 0.25859928 -0.11009109 -0.029628681 0.371572 -0.21420512 0.14679109 0.1835866 0.1467561 0.018105583 -0.044298135 -0.24919364 -0.17355543 0.06156106 0.02995922 -0.06804001 0.14220935 -0.009028696 -0.41906214 0.281156 0.108709194 -0.05920775 -0.12232009 -0.14638047 0.22848415 0.16420963 0.15939793 -0.11861259 0.2112253 0.43402964 -0.37564194 0.026640994 0.097542435 -0.09008018 -0.16074167 0.21045066 -0.049798455 0.0144010605 -0.029705802 0.059350744 -0.010783766 0.15858251 -0.39970404 0.39646748 0.110513955 0.05891793 -0.024435615 0.08555025 0.22120075 -0.1888579 -0.25567803 0.32000765 -0.008003538 -0.039066527 -0.29981047 0.12116046 -0.0025661672 0.08603834 0.2691506 0.40603897 -0.016589336 -0.044566385 0.032185245 -0.06628327 -0.049723495 -0.009128778 0.04774265 0.5689966 0.0164009 0.2061773 -0.36165664 -0.5180442 -0.021787144 0.121202424 0.023562886
3593 -0.07702962 -0.14706601 -0.04181384 -0.026851326 0.017690301 0.07269727 0.013908367 -0.24893679 0.00020225986 0.045029975 -0.3391083 -0.4012714 0.3491471 0.08703048 -0.12325962 -0.1970024 0.26875392 -0.14950666 0.17104363 -0.1551685 0.12793754 -0.12328183 0.28475946 -0.15801804 -0.15061295 0.07379842 -0.21306376 -0.2576668 -0.16789988 -0.24485232 0.11011279 -0.13994943 -0.097948216 0.011260883 -0.11775163 0.01219864 -0.061992835 0.07832731 0.28597143 0.24745151 0.015548034 -0.2065885 0.27314022 -0.18785211 -0.28851953 0.2235632 -0.17021196 -0.060628586 -0.34607556 0.17050363 -0.32109293 0.11811839 0.31420603 -0.14623006 -0.0075540915 -0.15118766 0.16324888 0.0873123 -0.37699845 -0.123839736 0.25002423 -0.0521521 0.10339389 -0.4022422 0.35652894 -0.07429027 0.17063966 0.17575015 -0.029431257 0.2790808 -0.08064753 -0.20785116 0.34765992 -0.07379825 0.21762398 -0.19684678 -0.24326913 -0.013130341 0.20299062 0.23808946 -0.18058652 0.14913347 0.2889168 -0.16599216 0.20411654 -0.051566575 0.033254065 0.20085652 0.043381512 0.009580903 -0.26132855 0.3216759 -0.2229226 0.18789856 0.3105076 -0.14949365 -0.004926026 0.07872525 0.1340044 -0.14464049 0.2792688 0.07103637 -0.5104064 -0.0126765445 0.1533132 -0.2299283 -0.09113769 -0.12169438 -0.0028710875 0.024801884 0.18346553 0.26764458 0.27751553 0.24626014 0.09992376 -0.04081925 0.06958361 -0.09631809 -0.2857253 -0.1300711 0.21889742 -0.16967541 -0.01789895 -0.35205126 -0.3655202 0.024298541 0.2766778 0.03672122
3600 0.12256908 0.09033902 0.48515368 0.4532212 0.103772186 0.017058067 0.052247252 -0.38502863 0.3544907 0.018229336 -0.035152163 -0.4950658 0.09784124 0.16733707 -0.25743192 0.045354687 0.048546676 0.2826281 0.25944877 0.21602717 0.33961123 -0.07029548 0.05929678 -0.018749366 -0.10901916 -0.23449965 -0.13107288 -0.2192747 -0.3406358 -0.1778734 0.053501118 0.20413575 0.080058455 0.28949633 0.023927249 -0.4298431 0.41851887 0.14104891 0.10041342 -0.27354762 0.073234156 -0.086159006 0.19707909 -0.12407273 -0.5807664 0.15579642 0.058051024 -0.08548846 -0.010244259 0.13034485 0.038389113 0.31046027 -0.27166268 0.18556349 -0.2403027 -0.12412743 -0.112212576 0.18576966 -0.039757896 0.484349 -0.2100662 0.04492809 -0.18797924 0.048476834 0.20159063 -0.32427093 -0.1375459 0.14737052 0.13443573 -0.19316731 -0.18494283 -0.16865647 -0.077529706 -0.33184126 0.13088259 0.009039406 -0.3321118 0.1020053 -0.14028864 0.09202115 0.01177555 0.2524618 -0.07591855 -0.02866178 0.2988726 0.040926147 0.400265 0.03714077 0.1061379 0.058942165 0.09526637 0.32483304 -0.38057852 0.2163013 -0.12951626 -0.27798265 0.23230778 0.42826936 -0.33868673 0.049358934 0.25875837 0.1610881 -0.22036135 -0.14810629 0.43872836 -0.03455664 -0.16613358 -0.28854352 0.1791079 0.118412025 -0.01902703 0.41483796 0.08326634 -0.17414494 -0.13774921 -0.30026272 -0.076703854 0.07426006 -0.06707026 -0.22973289 0.55491745 -0.28658718 0.2876302 -0.13128887 0.2207656 0.049644064 -0.14816405 -0.033942185
3948 0.050194353 -0.24165778 0.13605408 0.04440337 0.032685913 -0.053585466 -0.06637676 0.025482427 -0.05777963 0.08806055 -0.008787553 0.12790237 -0.13992018 -0.100133196 0.035285678 -0.0061603477 -0.34371036 0.08251304 0.17644437 -0.0691824 -0.06347017 -0.119403556 0.05283531 -0.14454427 0.17065541 0.1549294 0.08680289 -0.24648468 -0.100356005 -0.16261084 -0.41351327 -0.20786177 0.014808016 -0.20256673 0.1997932 0.15697436 -0.016122496 -0.13221776 -0.09820457 -0.12266953 0.20654687 -0.06794768 0.40380377 0.031285573 0.13629736 -0.26361215 -0.06091557 0.10353322 0.101351954 -0.020806784 -0.09981725 0.21955469 -0.14471336 -0.09228018 -0.10180087 -0.38197494 -0.1588327 0.25255406 -0.03876428 0.05858032 0.05858317 0.21988368 -0.27529645 -0.3638831 0.03318106 0.028336503 -0.022221 -0.40343666 0.061445203 -0.27294853 -0.17152016 -0.005213496 -0.23596492 -0.2936532 -0.1589591 -0.15788934 -0.27516273 0.023686405 0.19119975 0.12815322 -0.3764545 0.24836606 -0.27965835 0.1373438 -0.06554063 0.05302996 -0.07235779 -0.11318009 0.020306936 -0.06888216 -0.015897833 0.14914787 -0.14050019 -0.024995506 -0.1201272 0.048616882 0.09416547 -0.001091715 -0.18741916 0.40618107 0.12522276 0.1287367 -0.1357038 -0.16832247 -0.11816422 0.26513755 0.08157901 -0.2349617 0.030672377 -0.28348967 0.31978557 -0.15241647 0.27358654 0.08117005 -0.113545135 0.041596685 0.0049020248 0.12053564 -0.107893646 -0.010142888 -0.014030904 -0.2054205 0.12475941 -0.51255137 0.23342451 -0.21902417 -0.09256732 -0.17720997
3758 -0.270398 -0.014074796 0.044904348 -0.025558958 -0.015620316 0.14048338 -0.1291237 -0.2165088 -0.0074998685 -0.0041309157 -0.19536959 -0.4444707 0.2534342 0.12523182 -0.07034765 -0.13256933 0.16552162 0.03848761 0.18995976 -0.14163394 -0.028058713 -0.3296146 0.17351574 0.17276956 -0.23459463 0.052093096 -0.101610705 -0.21575545 -0.43290585 -0.19797368 0.2911758 -0.14008586 -0.42945144 0.108413 -0.16173115 -0.29457664 0.13988699 -0.04217777 -0.14568123 -0.006293092 0.04784921 -0.17472763 0.19348016 -0.11982555 -0.21214488 0.19671409 -0.16591291 -0.027698508 0.038631503 0.017440977 -0.008252817 0.110513255 0.37786564 0.08302938 -0.06813719 -0.24302718 0.181063 0.0062638707 -0.4586929 0.09942755 0.36654449 0.23184806 0.004839132 -0.053927567 0.17210297 -0.049539432 0.17183733 0.15184931 -0.0899353 0.17212215 -0.0941064 -0.30253476 0.33049282 -0.11086539 -0.009918977 -0.24093801 -0.04669656 0.12650792 0.12770183 0.02992954 0.17652442 0.34508738 0.14787413 -0.08901629 0.1358038 -0.059156533 0.052517444 0.10456465 0.35276085 0.028846718 0.041698612 0.26363158 -0.120197535 0.3468109 0.2521465 -0.26663792 0.0026178611 0.32489315 -0.035503216 0.03024214 0.19190861 0.26956695 -0.25500256 -0.13631254 0.1994748 -0.16970617 -0.27790007 -0.034593917 0.14611459 0.028615039 0.15512381 0.36591426 0.19861048 0.049814533 -0.12844326 -0.22897334 0.18652943 -0.12883234 -0.40417394 -0.044356074 0.43076175 -0.18805455 0.094222836 -0.07270346 -0.069918096 0.23272601 0.15282486 0.0241712
3628 0.3207412 -0.061795235 -0.07114576 -0.08412633 0.48898786 0.112613596 -0.24755098 -0.16074687 0.3130962 -0.1044876 -0.022575477 -0.01764364 0.19438316 0.12799591 0.0732931 -0.03415707 -0.31730634 -0.28912795 0.14301823 -0.21120274 -0.20255725 -0.19974229 -0.21146254 0.45450577 0.34102568 0.023114225 0.17522451 -0.3692478 -0.08811882 -0.40394858 0.04223583 0.0022983595 -0.0043451125 -0.5343527 -0.30793172 0.5976867 0.028121075 -0.4048777 -0.040712062 0.10658523 0.00011355851 -0.056680635 0.36934566 0.0055580353 0.56303257 -0.22822359 0.005646177 0.07639807 -0.08718822 -0.043838542 0.20545034 0.2550277 -0.08478358 0.27931526 -0.16795582 -0.08553037 0.1203106 0.5315314 0.1623977 -0.27248147 -0.06005161 -0.19916032 -0.40306905 -0.3356476 0.044042647 0.12962624 0.095982954 -0.19444461 -0.17098175 -0.11741029 -0.37343657 -0.1965388 -0.06433223 -0.20531362 0.17707908 -0.400123 -0.35391217 -0.26820657 0.68834955 0.08655848 -0.3194842 0.2872063 0.0012036168 0.27977887 -0.058322176 -0.32668543 0.10860355 -0.38425198 -0.21005808 -0.16373244 -0.34632403 0.08829648 -0.035558715 0.2841397 0.01202901 -0.05754621 0.37353408 0.25269195 0.031169657 0.47689185 -0.17626956 0.26664233 -0.28129923 -0.06528137 -0.18030812 0.14020698 0.04493129 -0.2497244 0.09502695 -0.30050063 -0.03360859 0.20418149 0.5071163 0.25450733 -0.15457837 -0.012966589 -0.112051636 -0.16797714 -0.04656019 0.23802203 -0.18185104 0.23858675 0.43859643 -0.26476058 0.2553078 0.36266744 -0.047648586 -0.21228239
3838 0.37302503 -0.098288044 0.17089076 0.1360708 0.124804646 -0.028056543 0.11275369 0.14757794 0.2778867 -0.022451611 -0.33679056 -0.07851002 -0.17656586 0.07197487 -0.17057241 0.096463904 -0.37288582 0.08561596 0.13235714 0.02146688 -0.3479465 -0.5726505 -0.108952984 0.085774854 0.14499918 0.07301096 0.1667804 0.08323769 -0.099266954 -0.13085867 0.14341679 -0.099237 0.11181948 -0.18469644 0.042251635 -0.07160277 0.14856052 -0.07073386 0.19017838 -0.0054297615 0.2531693 -0.0069861026 0.21321337 -0.026460921 0.23479772 0.10691515 0.029854909 0.095407486 -0.059718713 0.18801363 -0.25227955 0.28092757 -0.1813135 -0.079797834 0.14399362 -0.11930903 -0.24758914 0.33938 -0.43483835 0.01060269 -0.20847309 0.06074669 -0.14201328 -0.21696597 0.06774781 0.09419562 -0.06591236 -0.14954704 0.21738502 0.12490542 0.10456213 -0.20430337 -0.21762715 -0.056191944 -0.19477448 -0.014221165 -0.30177552 0.3640726 0.52606547 0.18869449 -0.38180485 -0.0009969982 -0.1477841 0.1789053 -0.15179682 -0.08387351 -0.25855377 -0.25105944 -0.11409102 -0.10599412 0.23480651 0.17728108 -0.08300123 -0.07699819 -0.04925855 0.09790787 -0.004674214 -0.11728081 -0.18588164 0.028179746 -0.025054142 0.14266466 0.034029428 -0.05995923 -0.08232778 0.30347106 -0.2812409 -0.24316499 0.4138517 -0.4914224 0.09918151 -0.03669786 0.32606196 0.05322359 -0.075476505 -0.3372899 0.14539315 0.0030361156 -0.10636129 -0.014046707 0.013410464 -0.19239868 0.13256599 -0.192222 -0.08265099 -0.15270537 -0.3730963 -0.26836538
3756 -0.06720805 0.09102007 0.10138395 0.042239368 0.117339544 -0.08526577 -0.0930637 -0.1305257 0.21702297 -0.00590534 -0.14674172 0.07619834 -0.18376058 0.01927253 0.039772164 0.24302846 -0.23392291 -0.12878674 0.03980552 -0.08894464 -0.27253294 -0.109633945 -0.08460056 0.1089489 -0.04730275 0.17994197 0.14374456 -0.10012381 -0.16245598 -0.47908324 -0.1715564 0.05879708 0.21829875 -0.16758828 -0.042584304 0.1278187 0.15592213 -0.35898846 -0.06642082 -0.09530219 0.06588552 -0.13811606 0.08048183 -0.031803418 -0.0020540613 -0.07694716 -0.20743021 0.033272408 0.3258451 0.079201825 -0.01129947 0.29110077 0.08320963 -0.032976527 -0.103045255 -0.20155667 -0.29028386 0.15209642 -0.38559264 -0.10591508 -0.02086972 0.1534808 -0.2363496 -0.24919145 0.06950001 0.036007237 -0.11592057 -0.36098847 0.09050971 0.1632039 -0.25886077 0.0008502066 -0.381567 -0.16906166 -0.07375456 -0.034031138 -0.09939081 -0.0022141759 0.2004253 0.19573945 -0.35745245 0.08666024 -0.22961995 -0.012934121 0.24506591 -0.04034809 -0.19846308 0.014502249 -0.092661425 -0.12087063 0.19438358 0.39331567 -0.09492773 -0.14557266 -0.29418647 0.2401107 -0.06519905 -0.104889065 -0.05704788 0.18509828 -0.011019044 0.08424962 -0.27716842 -0.058586672 -0.03290626 0.28456587 0.0054321773 -0.091604665 0.4366272 -0.3002459 0.3729946 0.050300542 0.1925674 -0.015843937 -0.06367155 -0.17355776 0.07232482 0.22461356 -0.17535177 0.14889707 0.2982794 -0.0250874 -0.18139458 -0.48487076 0.09703039 -0.23093545 0.008478949 -0.29869512
3851 0.0705419 0.0028309282 0.08283066 0.14094459 0.031100096 -0.21063347 0.087966844 0.1525467 0.06704979 0.07071463 -0.16603284 0.050139073 -0.10741537 0.032937974 0.074643955 -0.026421601 -0.022682192 -0.03467634 -0.026700608 -0.16005926 -0.25090393 -0.29110855 -0.054437432 -0.11464932 0.15271877 -0.13081522 0.06663913 -0.20723104 -0.15711783 -0.21617337 -0.20134524 0.17701532 -0.1053335 -0.21735208 0.030619191 0.007133976 0.16534516 -0.13202475 0.013135802 0.012662017 0.07772336 -0.029668294 0.2825839 0.057145234 0.34662914 -0.11544301 -0.21761653 0.053430744 0.06108052 0.044396624 -0.13383825 0.17212918 -0.23800394 0.11493326 -0.18754238 0.013985966 -0.31788605 0.04820778 -0.0010962705 0.013378227 -0.19509612 0.09690427 -0.18512686 -0.41023368 0.13264887 0.0119139105 -0.14348173 -0.38644803 0.1125954 0.039138686 -0.21726118 -0.20920157 -0.03607397 -0.11817525 -0.042602252 0.038988907 -0.28639472 0.31099907 0.24472316 0.33883744 -0.2342071 -0.028324675 -0.35249597 -0.08975444 0.050379597 0.12078631 -0.04858533 0.0002954157 0.012404399 -0.27802935 0.20814055 0.28799012 -0.30304632 0.09712497 -0.062793 0.08047564 0.16005215 -0.053952634 0.027168714 0.062920116 -0.12863055 -0.01990782 -0.10875739 0.03594879 -0.18264802 0.29588956 -0.33712575 -0.0826959 0.20616737 -0.36887014 0.16525483 0.2491428 0.1036033 0.13158438 0.021944916 0.006733208 0.12115487 0.15114471 -0.10834492 0.056373693 0.1591686 -0.095279224 -0.13990796 -0.348983 0.19321202 -0.11086908 -0.24441674 -0.13725239
3495 0.18716794 -0.055906545 0.0058638025 -0.03344778 -0.13198744 0.009237684 -0.06600762 -0.14805421 0.38534117 0.11386072 -0.17287336 -0.0864785 -0.2608033 0.07795808 -0.051793493 0.15412274 -0.379503 0.13613124 0.13526094 0.0046062036 -0.033614162 -0.23373933 -0.06567493 -0.09064909 0.11466261 -0.05047311 -0.28408355 -0.3311684 -0.24548326 -0.2735372 0.08084216 0.110800385 -0.12810493 -0.441423 0.08793096 0.04073995 0.2502745 -0.32542312 0.072602056 0.13594764 0.2042131 -0.069512196 0.15749261 -0.14575157 0.17705584 -0.30421227 -0.043250795 -0.10432838 0.0064565535 0.07931602 -0.15869443 0.050719205 -0.055135198 0.04794063 -0.21856308 -0.1571998 -0.29257837 0.16897209 -0.18712488 0.18535347 -0.23127076 0.10214063 0.035339456 -0.46967107 0.07850357 -0.018830152 0.07470631 -0.3491646 -0.045387577 -0.12932603 -0.13491702 -0.010545799 -0.30099162 0.0421884 -0.16034424 0.09666397 -0.059885588 -0.0859941 0.4310204 0.15388082 -0.5252107 -0.10659522 -0.18922514 -0.013183844 0.2026737 -0.008764303 -0.003998292 -0.19244534 -0.0038127152 0.0110472115 0.19074552 0.11449464 0.04113678 -0.007072559 0.02985279 0.027017415 0.14366633 -0.11816777 -0.011944285 0.07565145 -0.057189718 0.19532563 -0.15100485 -0.064358845 -0.12489112 0.33987427 -0.22434817 -0.2277312 0.101173006 -0.3786544 0.48562747 -0.04975433 0.021094045 0.08897305 -0.32143846 -0.14573748 0.0076618646 0.104063354 0.08423535 0.07002407 0.17756748 -0.118843384 0.10013333 -0.2699906 -0.01911487 -0.3104234 -0.034938175 -0.09482916
3906 0.01633286 -0.08473165 0.4198928 -0.20296684 -0.012882877 0.15365136 -0.009388847 -0.20973971 -0.19237022 0.058823977 -0.27087617 -0.06272197 0.08034341 0.13374126 -0.19259517 -0.2204494 0.3184349 0.15311065 0.1561493 -0.17443602 0.12418159 -0.16097382 0.22533359 0.18189014 -0.30792484 -0.13416068 -0.06833076 -0.2566351 -0.26065305 -0.41212997 0.119845875 -0.3093263 -0.2456433 0.0002392286 -0.1429677 -0.3564739 0.23283878 0.0736006 -0.03640642 0.23918156 0.23131639 0.038567435 0.11071209 -0.12351563 -0.40463322 0.037418365 -0.05889023 -0.084472574 -0.27739775 0.10237211 -0.3415982 0.25318447 0.2301779 -0.012646084 0.3132021 -0.14903994 0.24986868 -0.090530895 -0.37441522 -0.04840356 0.37998605 0.12262953 0.19048128 -0.3815043 0.08918863 -0.07297401 -0.044189654 -0.19691288 -0.30062604 0.013294121 -0.18080841 -0.09558684 0.357166 0.15718392 0.29219997 -0.32709277 -0.18748426 0.3669129 0.16547467 0.06541482 -0.08174662 0.30381614 0.31983647 -0.073902346 0.049514927 -0.13154797 0.10016562 0.056036126 0.16076264 -0.18201509 -0.20312661 0.03246842 -0.111279726 0.21933657 0.017303852 -0.26366603 -0.12298447 0.18212514 0.16936512 -0.2207512 0.29581589 -0.21244757 -0.18453558 -0.22015987 -0.0034416462 -0.054757636 -0.15312757 -0.09745209 0.19144943 -0.08014966 0.3744988 0.27131084 0.300412 0.07666933 0.070648395 -0.051186956 0.042963646 0.0317471 -0.24068463 0.34911022 0.29826456 -0.11513932 0.17828915 -0.08313279 -0.0632797 0.13429406 0.25909597 0.07815061
3455 -0.09791369 -0.35607445 0.45592114 -0.16619986 -0.15657829 0.032666788 -0.10082003 0.37769425 0.060736574 -0.10324053 -0.11712066 -0.39603156 0.09863916 0.009881905 -0.075167015 -0.1986649 -0.09063328 -0.17294423 0.3416909 -0.38236958 0.12279459 -0.035368938 -0.09386799 0.16577363 -0.060393363 -0.17563283 0.005233839 -0.22254194 -0.09377807 -0.5627739 0.18740879 -0.25726646 -0.32112187 -0.27077183 -0.012702345 0.42015475 0.2654624 -0.45842925 -0.36092287 -0.03909578 -0.016442692 0.01735646 -0.13657342 -0.1380471 -0.07412864 -0.19673912 0.09091708 -0.100471005 0.057339597 0.0058033555 -0.03220914 -0.029599167 -0.23374936 -0.11799509 -0.096369565 0.0022947988 -0.080191016 -0.11833301 0.041948292 0.13104752 0.2846639 0.12904717 -0.022206506 0.13858582 -0.273255 -0.21691571 0.048165668 0.048878763 0.39314297 0.18170239 -0.41370782 -0.15727103 0.1858214 -0.029453896 0.22481397 -0.27869624 -0.6055478 0.21902032 -0.35910606 0.16436377 -0.09816107 0.15439206 0.33144063 -0.08277314 -0.0019818149 -0.082786106 -0.021553352 -0.10172062 -0.2799041 -0.31767124 -0.561369 0.3446866 -0.4666549 -0.023468098 -0.11755512 -0.13401656 -0.20317717 0.072351694 -0.3901032 0.64506763 0.17382815 0.085566044 0.0114737665 -0.47571024 -0.25772962 0.3967872 -0.23922282 -0.009891834 0.20525426 -0.02500827 0.37973094 -0.56388336 -0.068346925 -0.055320892 -0.31664473 -0.32514477 -0.1503549 -0.16409591 -0.037499145 0.028437426 0.074174285 -0.3822713 0.13838165 0.04432916 -0.37521705 -0.117617376 -0.22404344 0.20942312
3860 0.32920843 0.025585432 0.04520225 0.011107015 -0.0935685 -0.2409911 -0.10299227 -0.003630074 0.15666454 -0.081655525 -0.028602228 -0.05512043 0.06367217 -0.027470646 -0.060611457 0.03503774 -0.18845683 -0.09824581 0.16896984 -0.20793697 -0.14054348 -0.23517753 -0.0018284683 -0.10740997 0.26834908 0.15284902 0.15147196 -0.16658981 0.012442058 -0.20828682 0.09346564 -0.20401618 -0.057140205 -0.3074541 0.0059229773 -0.09785589 0.08624946 -0.14285423 -0.14260884 0.05085551 0.0988232 -0.19169392 0.29701528 0.055463076 0.24697381 0.23498367 -0.27205092 0.010974609 0.1792525 0.096030936 -0.16850127 0.06819248 -0.05942442 0.05559317 0.06572808 -0.23955412 -0.1005813 0.1747171 -0.3003316 0.22134647 -0.19827978 -0.024969792 -0.28445372 0.037131805 0.123673245 -0.035182297 -0.305949 -0.30181098 0.12040769 0.085227005 -0.18302959 -0.11203748 -0.25191113 -0.08665714 -0.13278793 -0.15218063 -0.38298658 0.18206207 0.5935576 0.2428854 -0.3325816 0.095625415 -0.13886195 0.25461912 -0.059694655 -0.021917265 -0.005642291 -0.26616246 0.04673369 -0.08893759 0.16305268 0.18113744 -0.03546113 -0.1613708 0.16397308 0.11450672 -0.0019246206 -0.07707539 -0.09812033 0.02137961 -0.09818483 0.3006639 -0.08849252 0.056062933 -0.19819368 0.13369118 -0.09841697 -0.20781037 0.1384822 -0.39792147 0.24417596 0.083769046 0.1338875 -0.0050903074 0.21159494 -0.27511582 0.35169792 0.26032427 -0.03863252 0.2221464 -0.090176836 -0.10108825 0.18439803 -0.41909736 -0.15061256 -0.023564441 -0.13260588 -0.09332132
3442 -0.16337022 -0.4738765 0.14831442 -0.21967702 -0.022707205 0.082111716 0.0431902 0.14180408 0.3127694 -0.10165171 0.16350453 -0.31644085 0.11417646 0.11258997 -0.18264414 0.10704643 0.014787142 -0.19136922 0.38708258 -0.19289201 -0.029689012 -0.15131833 0.19672811 0.13444783 0.20878592 -0.29183242 -0.03410837 -0.30960995 -0.2442814 -0.5081152 0.30870017 -0.23204398 -0.26381662 -0.057605334 -0.06757171 0.25740188 0.4352549 -0.31189233 -0.1143117 0.026936874 -0.10434123 0.25603345 -0.22955368 -0.55285776 -0.15064186 -0.19915156 0.00077301636 0.014132665 0.14120142 0.09828746 -0.2808478 0.10766554 -0.2485085 0.11453188 -0.21636522 0.04969716 -0.20462823 0.06454644 0.008840936 0.38240254 0.44045454 -0.13440774 0.022676354 -0.12976457 -0.23750557 -0.12612137 -0.05724115 0.09921671 0.143369 0.15772007 -0.38058484 -0.08682252 0.19281746 0.01975155 -0.03444145 -0.25836372 -0.26554972 0.24144673 -0.45341152 0.1494007 0.030387433 0.05480083 0.4707852 -0.01817956 -0.1957784 0.054801874 0.030515678 -0.43343815 -0.20340428 -0.48104024 -0.3473511 0.1677242 -0.5868466 0.1865739 -0.20251334 -0.26652804 -0.16275887 0.018874051 -0.39880237 0.31504452 -0.025282301 0.082617685 0.2554524 -0.20766911 -0.13884775 0.50802934 -0.040297907 0.24236216 -0.05454494 0.059295643 0.12626426 -0.28522173 -0.033276986 -0.08060281 -0.1400395 -0.32579225 0.023680137 2.5991092e-05 0.12988709 -0.17520027 0.3910371 -0.28813297 -0.24759682 -0.17793868 -0.48579943 0.22345077 0.047410987 0.25758022
3529 0.077091254 0.1574775 0.075781256 -0.0068321233 0.3514404 -0.106852405 -0.066531315 -0.05937412 -0.01905735 0.006947894 -0.47349706 -0.07919146 0.25084364 -0.24531527 -0.20098376 -0.003430295 0.5784012 0.36324915 0.3886317 -0.1701517 0.107754365 -0.122535326 0.18508184 0.19215044 -0.05535547 -0.015512967 -0.020058053 -0.13816378 -0.27944663 -0.40358865 0.033085383 -0.23693082 -0.21063419 -0.018870575 0.31690794 0.058758788 0.1613724 0.30646804 0.35865557 0.30434212 0.22615416 -0.005821351 0.15439181 -0.22228697 -0.13608749 0.2678155 -0.2965255 0.14944983 -0.15251529 0.0893706 -0.28488317 0.1170857 0.34901005 -0.010034473 0.2085924 -0.052372552 -0.11105824 0.121730976 -0.39038596 0.07011061 0.4096146 0.2956107 -0.033939384 -0.1417703 -0.021672897 -0.26661238 0.15620121 -0.050211996 -0.1389392 0.16552709 0.10158162 -0.13598202 0.12763426 0.33563274 -0.08284113 -0.05569404 -0.3908731 0.0459063 0.17820367 0.30044356 -0.07980679 0.69035405 0.21059838 -0.1508239 0.4708678 0.05079625 0.33095944 0.31382582 -0.08785563 0.052453294 0.09963204 0.13918576 0.20814201 0.10615828 0.11884826 -0.27033886 0.13887475 0.012343283 -0.23434961 -0.03572041 0.016867232 0.24844861 -0.08235863 -0.1267612 0.28864852 0.23557258 -0.020311195 -0.2898178 -0.01630766 0.061733387 0.15788312 0.6103813 0.19397901 0.16489962 -0.16091308 -0.103437364 0.3110285 -0.018062206 -0.14050473 0.020033602 0.61945945 0.09781911 0.31807122 0.037969306 -0.1342368 0.16858305 -0.08416509 0.1447349
3900 -0.18029583 0.039456483 0.10059933 0.013557745 0.28052333 0.17969991 0.08539939 -0.050569873 -0.13151546 0.04076847 -0.38773137 -0.17102404 0.09788098 -0.12331735 -0.16384237 0.21959008 0.31060666 0.06617614 -0.14996879 -0.38405412 -0.02957382 -0.029310755 0.31765085 0.13285203 -0.062101487 0.0695941 -0.11475068 -0.25938243 -0.22316246 -0.0993199 -0.122843064 -0.14634587 -0.26424193 0.13789792 -0.034142494 -0.11569688 0.34765 -0.100559644 -0.06021058 0.120295234 -0.003917958 -0.36937058 0.15495327 -0.16659093 -0.11970696 0.00967769 0.037073016 -0.056419693 -0.20705234 0.1151007 -0.48077157 0.20071818 0.3574522 -0.14911568 0.25206706 -0.16973019 0.07692672 0.05235961 -0.52104765 0.0048300577 0.23486009 0.1692187 -0.05471126 -0.4492541 -0.04478776 0.18638203 0.15820861 -0.029680403 -0.14012347 0.2650901 -0.01680126 0.022871604 0.17843209 0.03309279 0.16812305 -0.039931983 -0.10000837 0.17768307 0.16584902 0.15762913 0.16710114 0.4381344 0.20049554 -0.12561204 0.20043685 0.031718753 0.33753288 0.24869765 0.024266072 -0.017490441 -0.22031909 0.10026343 -0.11567116 0.17912334 0.33391756 -0.17290306 -0.116676725 0.16859762 0.114206396 0.11411996 0.3364775 0.049162492 -0.19473335 -0.0029262505 0.19471984 0.05266622 -0.2724116 -0.3129127 0.23926088 -0.1730889 0.281904 0.33394867 0.3668291 -0.028488427 0.0027124481 -0.26590112 0.39450023 -0.28057167 -0.25602052 -0.08734744 0.2874576 -0.046155315 0.13116299 -0.118246175 -0.2795368 0.18651329 0.01589397 0.016580462
3640 0.16700394 -0.15424167 -0.0986761 0.19102912 0.094523266 -0.12272125 -0.31183416 0.10924517 -0.002091941 -0.22860052 -0.09770223 0.017586458 -0.05917891 0.039303947 0.26384753 -0.18659587 -0.30684692 0.11232151 0.221005 -0.0116458675 -0.1740476 -0.12515572 0.08946921 -0.084833756 0.40633294 0.20621067 0.15611218 -0.2949659 -0.15237913 -0.13209295 0.18626499 0.083967194 -0.019161398 -0.050035696 0.14428134 -0.12622598 0.17957579 -0.12940842 -0.058591213 -0.048199337 0.29487953 -0.07292623 0.2541901 0.08758494 0.097509265 0.04919048 -0.2375503 -0.2642697 0.09533497 0.3327012 -0.31227553 0.24733685 -0.22175553 -0.06357809 -0.016260542 -0.27910855 -0.17524312 -0.04183378 -0.24610168 0.19167797 -0.38534847 -0.08689482 -0.32789302 -0.13828427 0.13663203 -0.030152442 -0.1444162 -0.20969407 0.1432654 0.23690924 -0.09527808 -0.25090587 -0.45802426 0.08816218 0.025838654 -0.052855287 -0.18759578 0.12840004 0.39392585 0.22756106 -0.38217404 0.11373467 -0.1364088 0.19615155 -0.05238887 -0.0903814 -0.23545969 -0.20622782 0.025233723 -0.20381269 -0.091641806 0.26704004 -0.069530345 0.090300255 -0.14928201 0.069759645 0.1797896 -0.10934459 -0.15652266 -0.123354524 0.0025397646 0.17192622 -0.04630724 -0.19598441 -0.08108868 0.19309272 -0.39234343 -0.3014368 -0.041720655 -0.27086002 0.07388914 -0.12322264 0.27590513 0.096627526 0.28785038 -0.25231054 0.048993286 0.2904704 0.0025166997 0.18707106 0.04005345 -0.06651097 0.14327972 -0.37930188 -0.16267133 -0.12321595 -0.061443675 -0.06979769
3861 0.1077983 -0.21539651 0.4011923 0.2360705 0.047387052 -0.08536196 -0.19888555 -0.06405741 0.08264937 -0.19562282 -0.1931411 -0.38241187 0.21444976 -0.19536103 -0.30682048 0.22198886 0.23860815 0.14183837 0.31311023 0.2239735 0.28803483 -0.0017335084 0.24427243 -0.09892252 -0.04672661 0.05183464 0.08537691 -0.27268386 -0.25372472 -0.30068785 0.29298145 0.06357649 -0.03191875 -0.07033961 0.44859442 -0.04037869 0.5702352 0.28408465 0.20505302 -0.2634683 -0.20265599 -0.18535864 -0.162897 0.060686976 -0.44388077 0.11169525 -0.027853025 -0.110929884 -0.122385375 -0.081307374 0.08957794 0.101837605 -0.09835247 0.13680084 -0.18545662 0.043643422 -0.1287236 0.40577626 -0.31940585 0.6340508 -0.16023073 0.017694848 -0.32520157 0.10135674 0.2888393 -0.087564945 -0.022066096 -0.024093503 -0.015452425 0.29198387 -0.061789423 0.121321455 0.07610237 -0.05333496 0.26613832 -0.3655013 -0.16123813 -0.016656153 -0.2374002 0.13908063 -0.26362202 0.028724803 -0.18320675 0.13838091 0.41861275 -0.21250892 0.21823424 -0.016615897 0.026070105 0.1775953 0.21363744 0.13290098 -0.37565613 0.20086029 -0.31877837 -0.22292876 0.20515616 0.43698904 -0.065554 0.42307696 0.23134336 -0.0049998825 -0.21522981 -0.121436276 -0.06369034 0.09386725 -0.23910733 -0.0851321 0.24341542 -0.23368488 -0.19654699 0.30916432 0.011195244 -0.34359473 -0.0770718 -0.29095894 0.07443934 0.1903072 -0.14876616 -0.0039935764 0.34136263 0.073591135 0.2618471 0.08808012 0.22064833 -0.12771249 -0.18365078 -0.19008896
3501 0.14333147 -0.10826854 0.09810275 0.17819089 0.042480107 -0.3579531 0.022296846 0.00037048658 0.123550065 -0.033284396 -0.1607963 0.12741274 -0.08717264 -0.07944342 0.023396527 0.05838519 -0.12559123 0.0067903795 0.090390205 -0.2196888 -0.13434254 -0.076270334 -0.047074877 -0.009818561 0.14161353 0.22790669 -0.0030318801 -0.14275123 -0.2818582 -0.28001246 -0.22367233 0.0047892723 0.057487622 -0.32197875 -0.033129282 0.06522272 0.10898922 -0.17114413 0.07732233 0.06421033 -0.039512273 0.007883395 0.20187339 -0.059818983 0.3426225 -0.14211448 -0.17204405 0.03032552 -0.03875746 0.021600528 -0.15850519 0.3336028 -0.05189726 0.026648695 -0.18916538 -0.07090529 -0.062403314 0.17969118 -0.14731966 0.021603383 -0.22274584 0.044734128 0.037488814 -0.2855226 0.15929577 -0.10429012 -0.04576135 -0.4540532 0.01251483 -0.10835159 -0.14773643 -0.30159318 -0.17912541 -0.21244097 -0.24274266 -0.040091574 -0.21781929 0.040828835 0.22040324 0.04895351 -0.30764872 0.094671056 -0.09047772 0.007015054 0.1472604 0.12053365 -0.115408145 -0.27935407 0.18317753 -0.27374658 0.18946019 0.17060645 -0.07697201 0.21779746 -0.13043521 0.07255195 0.057058398 0.11777276 -0.043001603 0.35516295 0.059773624 0.1503007 -0.2341216 0.08501718 -0.1570983 0.23316893 -0.12837885 -0.09602364 0.16106176 -0.2746069 0.3820091 0.13182344 0.06444099 0.3338911 -0.10999961 -0.10042896 0.11716784 0.13840385 -0.0064984416 -0.05046289 -0.01534988 0.01953214 0.043334845 -0.42544827 0.25911415 -0.11287387 -0.007376734 -0.15063497
3584 0.009119314 0.04920584 0.33520994 -0.25686827 0.14841911 0.30321458 0.014874209 -0.08484281 0.060759284 -0.017997624 -0.101333655 -0.31412986 0.28453428 0.3035226 0.04818775 0.12337557 0.10764846 0.35748425 0.10985086 -0.28890038 -0.14247952 -0.26389298 0.20630608 0.08695499 -0.019854954 -0.10652894 0.18450019 -0.21074417 -0.23988493 -0.09016063 -0.10220369 -0.38072982 -0.31733578 -0.024369763 0.0067450097 -0.41794235 0.48524985 0.08107794 0.2404947 0.07462887 0.08202929 0.101266384 0.36378482 -0.049005844 -0.09273091 0.06928868 -0.10902622 -0.18571363 -0.32974494 0.15437455 -0.2495906 0.27001515 0.26829758 -0.1555299 0.37331608 -0.091156 0.11424857 -0.035693202 -0.07976144 -0.12164713 0.53339064 -0.016256236 0.0024468568 -0.3343976 0.1540606 -0.39778146 0.07736367 0.1346471 0.003715097 -0.15524122 -0.16999641 -0.115325585 0.31601763 0.09133717 -0.05517468 -0.058726918 -0.12927797 0.28435546 0.10320222 0.010018759 -0.087932035 0.24740349 0.12623641 -0.021308782 0.12885964 -0.08020603 -0.16475266 0.26425296 0.30543223 -0.14497326 -0.10812063 0.22531044 -0.17230465 0.09610746 0.20750566 -0.20588419 -0.14493716 0.30065686 0.27874678 0.15406848 0.19648404 -0.021656305 -0.35898003 -0.21157618 0.10610864 -0.20471096 -0.29089507 -0.06197155 0.18066552 0.09829687 0.16561064 0.45301428 0.18881285 -0.074851565 -0.02771648 0.0025281662 0.14877352 0.16720827 -0.12164942 -0.04217291 0.22409937 -0.031002302 -0.040376775 -0.37663525 -0.34996018 0.36043 0.37977856 -0.06737356
3951 0.037342217 -0.062803455 0.16797565 -0.002125814 0.26027408 0.135561 0.05620615 -0.20486149 -0.2440492 0.056544274 -0.33065876 -0.31962585 0.23879842 0.09005554 0.09653118 0.08816292 0.014560352 0.09752961 0.29721802 -0.27180192 -0.12952416 -0.19530869 0.5062889 -0.16822024 0.07050895 -0.0131475255 -0.37363094 -0.20243496 -0.17055644 -0.10007945 0.008129288 -0.21862012 -0.18211028 -0.09341317 0.023612194 0.13116696 0.27985895 -0.048457842 0.067226194 -0.04234394 0.1644109 -0.3540088 0.3926563 -0.039563756 -0.17320433 0.17495948 -0.08746207 -0.19593588 -0.14273824 0.10750601 -0.26646936 0.049558293 0.009849045 -0.2963824 0.1411937 -0.0021428878 0.095125414 0.17999324 -0.36217815 -0.13497879 0.26141295 0.10698861 0.2575508 -0.31465548 0.39627078 0.15875697 0.011834382 0.03702845 -0.0783109 0.06431381 -0.25513816 -0.17766541 0.1250535 -0.16072942 0.101628795 -0.3038446 0.101813585 0.3564795 0.11830934 -0.020288985 0.23853745 0.34409666 0.34771818 -0.31933942 0.17700323 0.16120051 0.095120475 0.41020253 0.13003209 -0.05329347 -0.105376996 0.080710314 -0.12194299 -0.027743092 0.15234803 -0.19639093 -0.08139048 0.027971312 0.23677485 0.030814486 0.32969788 0.050652854 -0.25472012 -0.31934527 0.20435514 -0.06921722 -0.35140574 -0.26981646 0.021416565 -0.09393256 0.18460874 0.1786621 0.27131805 0.06220649 -0.054037474 -0.10212724 0.14228182 0.06152486 -0.3755958 -0.020973993 0.32074544 -0.065086715 0.05591876 -0.32554555 -0.39419454 0.23531023 0.21223696 0.15862557
3918 0.1626477 -0.29503876 0.020729603 -0.13693656 0.111958496 0.14969382 0.48867992 0.20827448 0.22512732 -0.2100873 0.083327144 -0.012900004 0.2282124 0.44478786 0.10806519 0.03875808 -0.12974335 -0.2306085 0.17364015 -0.0054887743 0.40897784 -0.40204707 -0.20111835 -0.27846324 0.3740436 0.3222671 0.017809113 0.059173867 -0.27667052 0.0091463 -0.066847146 0.03547303 0.031241823 -0.671568 0.15863207 0.25116727 0.39678758 -0.20972322 -0.026170293 0.1914651 0.2579281 0.18467383 -0.06246058 -0.60073966 -0.4445082 -0.1353576 -0.2112924 -0.44464436 -0.023414966 -0.020462452 -0.078185916 0.06606469 -0.06261324 0.04200935 -0.26074883 0.05890111 -0.13691942 0.0137396185 -0.12502918 -0.15532903 0.1981208 0.2859533 -0.19158792 -0.11112106 0.052527267 -0.6369462 -0.3064035 0.30338225 -0.15463667 0.24358869 -0.44910997 -0.14203444 0.25171828 -0.054146793 0.082456626 -0.103992976 -0.36230862 -0.07500352 -0.1455313 0.33114988 0.32943138 -0.14029789 -0.25012684 -0.105916925 -0.3122807 0.33724675 0.031131187 -0.070520565 -0.019776309 -0.30322728 -0.124479406 0.35541406 -0.14343554 -0.22747046 -0.14437939 -0.17317592 0.19285253 0.29365522 -0.21440807 0.7075032 -0.033805173 0.5267627 0.06645889 -0.046138525 0.07620989 0.35106078 -0.2077146 -0.25195545 -0.0032771525 -0.1876586 0.4537021 -0.19248559 0.033909738 -0.09200899 0.24481167 -0.06576647 0.39277482 0.004703271 0.15232643 0.41118532 -0.15688868 -0.22984657 -0.19072129 0.08099952 -0.4116263 0.05756446 0.24035843 0.026350938
