154 128
414 -0.0070910826 -0.16462253 -0.19264413 -0.118212335 -0.090952575 0.0052682464 0.14714998 -0.06352229 -0.07398693 0.09440861 0.013780617 0.13704704 0.15873176 0.10302023 -0.16129802 0.014315221 0.21768124 0.073947385 -0.037504025 0.15233873 -0.04853688 -0.09028468 0.07549861 0.1090333 0.22812362 0.0035571416 0.09961296 -0.09470625 0.0780212 -0.07219252 0.09614152 0.09746059 0.09963731 -8.971809e-05 -0.06415872 0.14738163 0.028988745 -0.06353679 0.021241097 0.035685774 0.015228575 -0.100607134 0.12656806 -0.121711954 -0.15424241 0.07258006 0.010254927 0.0303553 0.13073227 -0.08472438 0.18217684 -0.04823462 0.044723704 0.069013976 0.07087429 -0.026340174 0.079728685 -0.012480337 -0.010932634 0.14448926 -0.0711713 0.06374045 -0.0044126436 0.061503183 -0.03265002 0.10834767 0.12995516 -0.11437385 -0.16192657 0.01248425 -0.031063508 -0.13126895 -0.11726755 0.09651388 -0.007966981 0.07995404 -0.30873114 -0.050219283 0.09594231 -0.039361 -0.13306794 -0.1042206 -0.014912058 0.11481419 0.17963484 -0.12003957 0.051454555 -0.054899924 0.060476784 0.002992215 0.07893038 0.21454686 0.19749774 -0.14100075 0.16074748 -0.07555116 -0.18632752 -0.073482044 0.08435517 -0.04197468 -0.013913699 0.03173173 0.11399612 -0.08080063 0.047783714 0.09925174 0.52089614 -0.031368997 0.00066483865 -0.13383996 -0.16538392 -0.15359692 -0.084779024 0.28399432 0.22637276 -0.11462135 0.17270432 -0.21211039 0.10799 -0.14557588 -0.09091864 -0.15638329 0.07724227 -0.00083503133 -0.12328736 0.13519123 -0.13663273 -0.09249827
601 0.16975361 -0.01063069 -0.09425871 0.09064433 -0.12197486 0.10198458 -0.18626799 0.14335883 -0.40353063 -0.029609099 -0.06898083 -0.09622038 0.17811707 0.19107674 0.07228901 0.07356965 0.038634792 0.0357164 -0.13233319 0.20367314 0.050576907 0.10756691 0.04079249 0.15947402 0.18653892 0.081862636 -0.122260645 0.05083626 0.038068406 0.144796 0.02386271 0.019498296 0.31185207 0.30891767 -0.31331393 -0.03195872 0.0549597 -0.1927831 0.02001196 0.101953186 -0.12731844 0.17807789 0.06882824 -0.17458418 -0.13880916 0.3181302 -0.20480865 0.14170472 0.1908901 0.11588742 0.12035091 0.05694957 -0.20117076 -0.09766905 -0.14957388 0.13030072 -0.13816836 -0.04437061 0.21800078 0.16419606 -0.2226755 0.14272499 -0.24901815 0.21311109 0.06571966 0.038200732 -0.061652508 0.039806332 0.15201147 0.1149582 -0.0082326755 0.006474059 -0.13539504 -0.015639776 0.015123101 -0.1802866 0.118639395 0.11970445 0.07360417 0.025337834 -0.12374603 0.04787412 -0.16029926 0.08624263 0.01622821 -0.020959888 0.12834412 0.28275412 -0.18918407 0.18828997 -0.026842233 0.17697327 0.11283068 0.11549258 0.19467151 0.00818422 -0.35368383 -0.031159671 0.060045585 0.103852466 -0.013661525 0.16742933 0.04306937 -0.24784021 -0.0011523284 0.07466846 -0.02948649 -0.09288888 -0.13287365 -0.2991871 -0.06704107 -0.010922948 0.12740523 -0.04656329 0.08655152 -0.23985057 0.07309085 0.19064894 0.1920148 0.18326029 -0.09748746 -0.004923631 -0.014683466 -0.052660406 -0.35914093 0.1610043 0.053317647 0.024452353
636 -0.20333825 0.0065772124 -0.10046904 -0.056626927 -0.18774128 -0.023178259 0.09294505 0.0920374 -0.27935225 -0.07520898 -0.16923583 0.12590165 0.23948878 0.081738986 -0.21591339 0.03223548 -0.07917127 0.073466845 -0.12806761 -0.09158352 0.03254999 0.06294825 -0.33058634 0.17004213 0.07830644 -0.11557371 -0.24906087 0.11567626 0.16985777 -0.0272055 0.11423199 0.075031824 -0.056134544 -0.06831988 -0.06985453 0.061176937 0.020124555 -0.13825503 0.21594816 0.07923514 -0.08591379 0.15757889 -0.024725933 -0.059327193 -0.08221351 0.027961638 -0.19759728 0.27091601 0.120662734 0.13680072 0.049764555 -0.18369512 -0.25550845 -0.13295314 -0.21502987 -0.15697503 -0.063120775 -0.09414409 0.05932637 0.010983665 0.038298227 0.04154782 -0.31256476 -0.12731342 0.02489456 0.12122796 0.10956378 0.07888492 -0.09171835 0.1657815 -0.049943518 -0.23037456 -0.15613687 0.37372735 0.07362134 0.038689278 -0.2280708 0.2353327 -0.122243814 -0.047383588 0.07384728 0.0012380586 -0.32864863 -0.098039456 0.16633047 0.018759897 0.39194617 0.22792289 0.22519457 0.12560345 0.28049204 -0.18657939 -0.052052084 0.042395227 0.23243329 0.0822427 -0.1361304 -0.2211897 0.1937052 0.13582887 -0.12707391 -0.11507827 -0.009077127 0.030809805 0.010029909 0.029710822 0.1870021 0.35119423 0.15124892 0.031360846 -0.33926964 -0.06120398 -0.045954205 -0.049787804 0.05474102 -0.19118033 0.21374118 -0.118053176 0.0072408915 0.03383868 0.0873074 -0.09477729 0.022038788 -0.05921638 -0.24387825 0.26060313 0.009728605 0.011740447
373 -0.11966192 -0.12547953 -0.1936733 -0.0126034375 -0.082527995 0.31252074 -0.087323084 0.054984745 -0.15146641 -0.17271313 0.010544921 -0.06854328 0.12490891 -0.02003098 -0.041092943 -0.062117077 0.02743877 -0.02980786 0.19414787 0.19894321 0.13702625 0.11419586 0.15416959 0.34363064 0.086246476 -0.009742379 -0.04171996 0.026558168 0.12944116 -0.03340316 -0.050407108 0.08236669 0.09025452 0.056934748 -0.14177707 0.22934589 -0.061928373 0.04214439 0.1236081 -0.02843611 0.04695981 -0.028061893 -0.08615074 -0.09088463 -0.27218673 0.21896924 0.055843327 0.10319796 0.18230215 -0.045979954 -0.007707302 -0.10406379 0.031002255 -0.013076324 -0.13136177 0.21668741 -0.121436924 -0.00448695 0.111908026 -0.015909093 -0.02494001 -0.007465925 -0.09035414 0.17622897 0.035066437 0.10458804 -0.021259852 -0.0625304 0.01791136 0.11910432 0.09072315 0.06273105 -0.19023883 0.18934165 -0.11061744 -0.04797978 -0.02756042 0.1051079 0.2676287 -0.117803015 -0.061429758 0.15862775 -0.060585022 0.09857441 0.08628686 0.07434245 0.054240163 0.2822942 0.05849678 0.1435582 -0.079065256 0.13664246 0.11822559 -0.06655549 -0.09014424 -0.07671768 -0.23771806 -0.093706235 0.18180601 -0.017072862 -0.07465485 0.1102858 0.20010148 -0.26696298 -0.15217793 0.12255991 -0.0535463 -0.11669205 -0.08423894 -0.12815635 -0.036850065 0.0072601177 0.03893657 -0.14083871 -0.11864132 0.054894432 0.2168254 0.29455623 0.101081625 0.022479486 0.07338212 0.024547419 0.013479654 -0.058909927 -0.38697478 -0.07355142 -0.039486203 -0.18928401
492 0.025168935 0.042107303 -0.20490246 -0.03118157 -0.082304224 0.3369171 -0.2100947 -0.03780337 -0.21917982 -0.1278507 -0.1374013 -0.12378789 0.12772839 0.024234891 -0.061622884 -0.07927533 0.22350661 -0.019614223 0.08381523 0.26005095 0.023022734 0.041947413 0.11425699 0.31397292 0.0068337736 -0.07959467 -0.17396605 0.07873157 0.085691385 0.09940584 -0.011868972 0.08527047 0.1406895 0.12553489 0.015293994 0.10228508 -0.030359585 0.13817666 -0.033359807 0.081539564 0.045221556 0.01289423 -0.0055466266 -0.17871337 -0.1501466 0.20882364 -0.024896108 0.25757772 0.033594955 -0.06336817 0.08478651 -0.16795123 -0.08646389 -0.0563715 -0.046205956 0.049239427 0.010848746 0.051444765 0.19079895 0.12480768 -0.0089257425 0.025764406 -0.18896064 0.095968716 0.06186686 -0.053766456 -0.13509122 -0.01600163 0.064398296 0.20990115 -0.0072389324 0.029425338 -0.13287085 0.121696204 -0.19540314 -0.07035362 0.03447323 0.2077031 0.28019944 -0.08160624 -0.126769 0.19789603 -0.15007879 0.07436867 0.11030196 -0.054803245 -0.061216094 0.19979846 0.08273619 0.08139005 -0.012548328 0.090243466 0.1536006 -0.043255508 -0.07162661 -0.04329693 -0.26017496 0.09430453 0.09867834 -0.05292367 -0.09806105 0.11160156 0.16832472 -0.15119308 -0.023512794 0.094541624 0.07048094 0.036196828 -0.12954473 -0.16290224 -0.18197834 0.09403424 0.052114587 -0.11896743 -0.1113009 0.03422952 0.04813719 0.2649371 0.15391752 -0.0520774 0.075066164 0.04314147 -0.054952096 -0.03419444 -0.30457923 -0.0368094 -0.1192824 -0.05298089
580 0.04380842 0.045529194 -0.13540535 0.029835401 -0.20932445 0.10754824 -0.17114934 0.05683081 -0.43930978 -0.0357113 -0.1998695 -0.101853676 0.086541556 0.083075084 0.07981116 -0.15771967 0.21747701 -0.009478972 0.045752503 0.15445077 -0.0023526622 0.13423811 0.017574772 0.13889703 0.085147075 -0.05733439 -0.00693448 0.0029965662 -0.05200389 0.048046343 0.07293512 0.09608701 0.35212585 0.2364045 -0.09668948 0.08047904 -0.08090053 -0.06328958 -0.024508154 0.04939904 -0.056702986 0.106047235 0.042494595 -0.2210856 -0.05569844 0.32553396 -0.04166549 0.2202436 0.06330429 -0.06435021 0.1815626 -0.15916444 -0.08433013 0.06820936 -0.15037142 -0.022828648 -0.063800044 0.0942409 0.01854464 0.17540592 -0.06955087 0.10467261 -0.12635303 0.12163173 -0.013681008 -0.017535426 -0.060029317 -0.0040220874 0.16778919 0.11627223 0.10606342 -0.073827945 -0.16734032 0.03893275 -0.08448003 -0.12187917 0.22853328 0.075780325 0.18524331 0.032560337 -0.25723767 0.13682504 -0.066733755 -0.011090627 0.08464854 0.029072572 0.10526127 0.2799625 -0.057558503 0.28991082 -0.0552144 0.08249907 0.122815914 0.05909501 0.08363364 -0.02413673 -0.31871724 -0.015408797 0.08437414 0.12219972 0.12454882 0.24153404 0.04005405 -0.17614847 -0.04981519 0.03371349 0.12752016 -0.168287 -0.07607421 -0.1989471 -0.16720931 0.0076464317 0.1612741 -0.15627249 0.002541404 -0.03545866 0.10005017 0.34327134 0.22792193 -0.047890607 0.06302565 -0.00085080997 0.040926747 0.0005495118 -0.27539074 -0.029187696 0.01195265 -0.06554693
567 0.05228458 -0.15372434 -0.0179538 0.13793358 0.024854975 0.23908226 0.0009705286 -0.21782567 -0.090651244 -0.11605801 0.09999829 -0.08961207 0.11080616 0.068197295 -0.069480106 -0.084453486 0.25991789 -0.04700465 0.05964059 0.30110508 -0.09180052 -0.15123995 0.21591087 0.2415118 0.18660791 -0.057539802 -0.07901013 0.014467493 0.025834914 -0.057627585 0.10243103 0.06463658 0.073708266 0.11142535 -0.14325666 0.07689739 -0.105275705 0.090452164 -0.0041124322 -0.042447973 -0.041634124 -0.01137296 -0.020280728 -0.16355467 -0.1895806 0.11285407 -0.124836884 0.15061451 0.13799323 -0.13035806 0.18713474 -0.19694102 -0.13913222 0.057301592 -0.049610946 0.16899161 -0.034184866 0.015965888 0.18458438 0.1114669 0.031255048 -0.032134295 -0.15864947 0.094826005 0.09900852 0.00805186 -0.1123843 -0.14023088 -0.024098514 0.25418448 -0.16020839 0.09503054 -0.13446693 0.3186969 -0.14906166 -0.20605387 0.09351204 0.15642177 0.18413557 -0.06471268 -0.08501491 0.12575608 -0.0873561 0.09601945 -0.0019268924 0.17302436 0.06271532 0.22222303 -0.015475523 0.08951895 0.03977184 0.07001448 0.15462172 -0.06580017 0.036197767 -0.12757649 -0.32973167 0.07227209 0.23944865 0.050380006 0.11189322 -0.011708187 0.25464728 -0.14651012 -0.057488415 0.11241542 0.09489463 0.008832574 -0.09198325 -0.19434978 -0.15888734 0.1547564 0.10693673 -0.21901868 -0.13877918 0.18138382 0.048544228 0.31853327 0.03432799 0.0018889625 0.11887855 0.044796873 0.0478535 -0.08121919 -0.29655373 -0.11176427 0.008884073 -0.0074245217
591 0.02810209 -0.046323456 -0.11933563 0.044853345 -0.20635118 0.2538115 -0.15013707 -0.13266067 -0.21726364 -0.30478278 -0.05406975 -0.07009847 0.16570047 -0.053973515 0.019813705 -0.04930754 0.18846698 0.023248192 0.11060362 0.18199454 -0.15466963 0.057493627 0.1560763 0.22702333 0.019939225 -0.034786656 -0.27406052 0.07757668 0.025109159 0.12442305 -0.0027704416 -0.014065254 0.1292498 0.005904986 -0.049444597 0.1050251 -0.20049919 0.1166259 0.013616571 0.18182728 0.043484416 0.0428023 -0.0125575205 -0.20790868 -0.17316946 0.18461864 -0.033689357 0.23398821 0.07789089 -0.19961044 0.17670478 -0.30387416 0.036237497 0.024564767 0.038521122 0.13757026 -0.04453402 0.10575991 0.14717227 0.098356254 -0.16165438 0.012147841 -0.13370742 0.15880652 0.047626816 0.07165323 -0.0022921374 -0.028115025 0.07435178 0.13652107 0.13796769 -0.06677264 -0.076975614 0.19209528 -0.18647374 -0.18209602 0.08484687 0.17159237 0.22862329 -0.046063114 -0.116651446 0.14382556 -0.093577415 0.21327347 -0.10162042 0.110354595 0.105344646 0.1769136 -0.14926302 0.19039677 -0.02457846 0.11826167 0.20138723 -0.08567466 0.01358628 -0.101468876 -0.237325 0.049560364 0.07566461 0.06958093 -0.13975212 0.22335756 0.07705591 -0.2672342 -0.10930941 0.036953658 -0.03905709 0.010801365 -0.122319676 -0.21485105 -0.10033866 0.04012818 -0.012309605 -0.09481218 -0.070042774 0.090272844 0.096204266 0.15187539 0.07108213 -0.18602562 0.06728442 -0.01709987 0.037547436 -0.006818902 -0.36376217 -0.12833086 -0.081369445 -0.17365398
461 -0.061249807 -0.099626705 -0.19175705 -0.12434874 -0.016420878 0.2633132 -0.014194775 -0.068617105 -0.30642396 0.09374273 0.09520929 -0.13115183 0.20084964 -0.014260876 0.01345605 -0.11108692 0.11918603 0.05930384 0.13023202 0.13789359 0.021913622 0.018564386 0.2566648 0.2819082 0.024064146 0.03691065 -0.16555811 0.06252001 0.037055194 -0.08261996 0.00020380803 -0.024524378 0.09011379 -0.067507215 -0.17119046 0.27765515 -0.1122432 0.08688857 0.019963274 0.011503771 0.00365041 0.0010869185 -0.063553296 -0.11528479 -0.27533752 0.13137154 -0.07662991 0.1500836 0.19145161 -0.18486668 0.1727495 -0.115388446 0.021597663 -0.020686325 -0.12010482 0.09147277 -0.05611992 0.07231225 0.20124795 0.16725658 0.01546714 0.020511912 -0.102848455 0.13340014 -0.080779605 -0.08762832 -0.21128497 -0.0579296 0.025322756 0.3192563 -0.18016367 0.060172908 -0.13566831 0.17875916 -0.12967764 -0.1213242 0.10725488 0.13927312 0.23928122 -0.0497026 -0.10634341 0.17526767 0.05711577 0.03518408 -0.0037992978 0.15368646 0.04697435 0.19322385 0.047679298 0.1679017 -0.047943916 0.08336691 0.3066509 0.034365557 -0.0072272923 -0.1851356 -0.29597417 -0.003647439 0.12201802 -0.007996818 0.0036467218 0.010211765 0.060300354 -0.014792844 -0.06755221 -0.030574271 0.10205511 0.0626793 -0.054946393 -0.10029352 -0.15352245 0.049950458 0.040070467 -0.10844467 -0.12298809 0.053683456 0.030276112 0.22637986 0.12755674 -0.03868954 0.16440299 0.049625967 0.014784712 -0.14126664 -0.23736547 -0.07886001 -0.029769547 -0.011646273
370 -0.036841042 -0.0529719 -0.30191925 0.017097957 -0.04572403 0.23587757 0.017479599 -0.03087147 -0.22771186 -0.14351057 -0.09793923 -0.16339807 0.1646025 -0.124613255 -0.19459803 -0.049113337 0.14166214 0.15647994 0.12694445 0.006680456 -0.13816887 0.04880285 0.09694067 0.36141625 -0.038842488 0.02079981 -0.0011185496 0.06304575 0.13054277 -0.11799369 -0.1645618 0.24358773 0.13524945 0.21677381 -0.102473736 -0.0064223222 -0.108640015 0.2200772 0.07088284 0.086090654 0.040114738 -0.03778392 -0.059191022 -0.05701885 -0.16455379 0.13778673 0.054141905 0.2892507 0.13260283 -0.12468776 0.10817502 -0.121584326 -0.014543785 -0.033701807 -0.020260714 0.12543865 -0.10200376 0.05029602 0.18587133 0.104852766 0.05262537 -0.025835771 -0.20632187 0.22111008 0.11246668 -0.1671403 -0.1675786 -0.06093673 -0.03461167 0.30900234 -0.050041776 0.00076925586 -0.13039388 0.22093204 -0.15854745 -0.062267985 0.016370146 0.12618455 0.17793286 0.015129436 -0.07295407 0.23729564 -0.11239485 0.036609378 0.14784275 0.11167657 0.11187774 0.20739459 -0.0010452772 0.10611407 0.03373731 0.14183696 0.23766562 -0.16049102 -0.05306636 -0.24168524 -0.34929636 0.0212655 -0.026949672 -0.1928639 0.08560694 0.058381967 0.16897643 -0.066285186 -0.08459525 0.13788244 0.11285855 0.038616497 -0.1025104 -0.17557421 -0.044768445 -0.11662927 -0.00595252 -0.2172973 -0.20267497 0.16388755 -0.057220437 0.26858178 0.16892336 0.0867236 0.11915342 -0.048734628 0.15694623 -0.11620732 -0.3748927 -0.094811276 -0.060002305 -0.13677748
412 -0.014856251 -0.1795493 -0.10718126 -0.11244972 -0.02094094 0.2201219 -0.036779143 -0.0067315917 -0.40736297 -0.063320376 -0.09950069 -0.076358505 0.06797538 -0.07667507 0.028543305 -0.26642153 0.16483428 -0.1301655 0.17899479 0.17374869 -0.05440785 -0.10136017 0.11544046 0.14980568 0.04217458 0.10068938 -0.05407107 0.09766838 0.1005717 0.021292659 -0.14565678 -0.015676249 0.05321046 0.17486283 -0.04375829 -0.14144143 -0.16744316 0.13839652 -0.028584016 0.12637557 0.021284586 -0.104117125 -0.15315616 -0.12585798 -0.2881096 0.1610402 -0.09135933 0.043483812 0.22306205 0.019079158 0.12270898 -0.027149947 -0.015162992 0.07493592 -0.05688836 0.058034476 -0.07436047 0.092307836 0.21709114 0.015831282 -0.10606498 0.07591764 -0.22935474 0.03593914 -0.07229266 -0.1537102 -0.079967804 0.005290743 -0.038041957 0.25362355 0.024953842 0.02995903 -0.16540436 0.15126456 -0.26569358 -0.033887893 0.12588738 0.13026328 0.3449307 -0.19538207 -0.11069325 0.12314595 -0.00929518 0.05991106 0.13882253 0.13780235 -0.09576302 0.11983976 0.045231123 0.14224419 -0.12982367 0.13330902 0.27969095 -0.021560054 -0.0076182694 -0.1848449 -0.22857253 -0.26803234 0.12086726 -0.015465884 -0.07769614 0.08976961 0.12749067 -0.25119418 -0.09743527 0.08256259 0.2336576 -0.0027242906 0.07772359 -0.18151993 -0.05432146 -0.06058983 0.13693492 -0.12273294 -0.1485893 0.016761182 0.12116368 0.20827599 0.06803806 0.104034 -0.039278477 -0.0022926384 -0.01412295 -0.006411517 -0.25501868 -0.07189826 -0.07501011 -0.05477625
524 -0.09159403 -0.04672936 -0.16047281 -0.06992495 0.005415265 0.3610435 3.6812024e-05 -0.031182177 -0.31684616 -0.07577667 0.007889936 -0.10398456 0.19873103 0.059826 -0.09805563 -0.120036095 0.2385904 0.06437307 0.20356674 0.24201861 0.03186847 -0.072948724 0.16062407 0.32463124 0.11752456 0.14927904 -0.026808787 -0.01905314 -0.019702204 0.017075796 0.011172615 0.015325983 0.12807475 0.011859827 -0.17645122 0.051665533 -0.13494565 0.15251587 0.028211286 0.017628547 0.053267155 0.057639133 -0.038356613 -0.21861403 -0.28993726 0.004403767 0.10486732 0.09782363 0.27338076 -0.16041805 0.026160864 -0.15123138 -0.050115112 0.054250177 -0.14312416 0.13298272 -0.1427688 0.07902701 0.2622459 0.1847823 -0.07122085 0.0063842842 -0.1422181 0.1088195 -0.019718679 -0.03202609 -0.068810515 0.015036715 0.060331967 0.28012747 -0.015350569 -0.03820146 -0.17857295 0.14404356 -0.22946136 -0.015834793 0.13923334 0.1752575 0.16975686 -0.12454319 -0.042132016 0.18555488 -0.14564288 0.047842506 0.118174896 0.04884957 0.02092119 0.2601861 0.10490518 0.16660802 -0.19244382 0.08418054 0.19477516 0.017450484 -0.06603894 -0.28922543 -0.23431998 -0.02365853 0.071204476 0.103555486 -0.19310519 0.09569533 0.10041094 -0.11194288 -0.19548616 -0.0013748163 -0.050374653 -0.07955252 -0.20067388 -0.06283888 -0.115953974 0.11588912 0.0568552 -0.12967636 -0.11240376 0.11037268 0.10676445 0.22105065 0.122052096 -0.051164784 0.055750754 -0.02138359 0.0814051 -0.14844595 -0.28418997 -0.100918934 0.026918318 -0.12877755
566 0.18298855 -0.17634858 -0.21230604 0.025973273 -0.08104274 0.21817893 -0.14740157 -0.024364926 -0.32758543 -0.113286644 -0.1765449 -0.21237515 0.08612596 -0.066414036 0.02130758 -0.0043229037 0.22311093 -0.084021196 0.18313782 0.18273109 -0.17526363 0.02752309 0.086751595 0.37429252 0.10048951 0.09974647 -0.03459882 0.05411638 0.013576971 -0.03733598 -0.10391468 0.1530747 0.1410527 0.21352865 -0.2002036 0.010361488 -0.13943668 0.08427184 0.015047418 0.12680024 0.067680985 0.06093941 -0.03695449 -0.24069482 -0.12170109 0.17115557 -0.007096568 0.18701911 -0.0042693648 -0.052785512 0.23715533 -0.01623534 -0.090161666 0.13585486 -0.0820912 0.16699462 -0.11370278 0.19925785 0.19874683 0.07385069 -0.12929916 -0.068584144 -0.105465576 0.16407107 -0.013923541 -0.035390344 -0.11611568 -0.13788383 -0.042931546 0.1810093 -0.036766227 -0.08309763 -0.011189869 0.073318556 -0.104046404 -0.21069923 0.2701162 0.096872136 0.1933351 -0.0019832365 -0.19821624 0.12194466 0.022746963 0.14767906 0.21602465 0.1574637 0.0897556 0.3321323 0.059085816 0.03648928 -0.09045145 0.038589623 0.31625044 -0.059503943 -0.041646823 -0.09171114 -0.22555815 -0.012081712 0.17132905 -0.0786998 -0.012008017 0.025731435 0.1230956 -0.24647965 -0.029414397 0.15150367 0.095938794 -0.028314456 -0.057485044 -0.1608072 -0.13955386 0.095842354 0.16186479 -0.18152307 -0.0763845 0.07470885 0.19843554 0.19379495 0.1125694 -0.09975614 0.21230121 -0.07992313 0.061089054 -0.16739239 -0.24117629 -0.13273543 -0.09476583 -0.062159035
423 0.05712028 -0.07104116 -0.2090669 -0.007701531 -0.1555868 0.3010663 -0.050807428 -0.11256477 -0.41255164 -0.04122277 -0.066739224 -0.17099014 0.039999567 -0.008498936 -0.020482618 -0.113917515 0.19415061 -0.12838268 0.27955136 0.21008177 -0.04884303 0.03726046 0.14560474 0.42013294 -0.055064186 -0.023355443 -0.10432477 -0.011873488 -0.011730463 0.11417179 0.000519305 -0.030099403 0.029471863 0.12237884 -0.08190078 0.011749002 -0.101519264 0.13297604 0.003776603 0.1266648 -0.004669214 0.00641096 0.042151723 -0.15341322 -0.104914114 0.2920837 0.0054820157 0.08411573 0.13909762 -0.1874277 0.06843263 -0.15691628 0.1325001 -0.040743556 0.005181021 0.17859572 -0.13574582 0.058886494 0.22249627 0.09426975 -0.13243441 0.12422755 -0.14667183 0.12858832 0.028959086 -0.049347002 -0.052634686 -0.10505442 0.044968564 0.19120927 -0.055230163 -0.013759486 -0.09176628 0.21755746 -0.20618565 -0.18622921 -0.097257495 -0.0117587745 0.1977625 -0.06435692 -0.13377056 0.16192114 -0.10077953 0.201926 0.06284166 0.12075695 0.10415051 0.048009694 -0.048894137 0.1776945 -0.059472203 0.17991224 0.09098021 -0.052980337 -0.022742385 -0.22114064 -0.20329978 -0.041100655 0.23984633 -0.12030388 -0.14904495 0.149405 0.11881749 -0.22608343 -0.1809462 -0.012357088 -0.026206514 0.009100515 -0.096282 -0.09506409 -0.074077204 -0.051181227 -0.029896714 -0.13453622 -0.14718916 0.015241 0.08966175 0.24334584 -0.024985475 -0.06855451 0.09034401 -0.08736942 -0.023928227 0.029182393 -0.27903146 -0.028133439 -0.123218164 -0.040531334
553 -0.11815764 -0.08064922 -0.15290521 0.02755453 0.011897888 0.2848226 -0.14854203 -0.10729153 -0.29623982 -0.020314168 -0.1911436 -0.16454345 0.2104334 -0.059213433 -0.12424922 0.12395504 0.20866774 0.047867265 0.025157578 0.13539265 -0.16643476 0.0044927844 0.13605724 0.3931606 -0.009652095 0.030667054 -0.07638553 0.02798725 -0.03594973 0.16028324 0.057687182 -0.08041066 0.1285117 0.11228164 -0.10412748 0.09118048 -0.055227544 0.07972251 0.119498536 0.10709857 -0.054073967 -0.039782215 -0.12971607 -0.039905086 -0.2725629 0.1473907 -0.11371449 0.13082477 0.16436756 -0.17158765 0.10928677 -0.14347973 -0.065600194 -0.03851684 -0.08082991 0.061820082 -0.10597407 0.0009815674 0.26801854 0.20677055 0.013734195 -0.012343415 -0.15291925 -0.02114178 0.014108469 -0.07797457 -0.22364439 -0.016286295 -0.037102234 0.21874106 -0.06809117 0.097905844 -0.016074514 0.26086953 -0.13495469 -0.15876758 0.16773756 0.17616606 0.31273454 -0.086168356 -0.15065682 0.22325508 0.08924952 0.03822124 -9.1094465e-05 0.046508644 0.009977141 0.12968154 0.06806299 0.30493584 -0.03564782 -0.025664428 0.21261492 -0.020131588 -0.13119034 -0.0053989775 -0.25734168 -0.101355426 0.19248813 0.040396973 0.012257462 0.13292165 0.21226183 -0.16923784 -0.19408557 0.12512843 0.04326896 0.08451842 -0.048741706 -0.07121186 -0.027462093 -0.057892635 0.015190851 -0.10480221 0.13939066 -0.105239384 0.109654285 0.23937145 0.103759184 0.008194502 0.17378566 0.14479536 -0.06102353 -0.055641577 -0.21878621 0.01965866 -0.2150552 -0.083418064
623 -0.24050398 0.034113806 -0.018429369 -0.06273879 -0.22111787 0.16365112 0.12699263 0.060444493 -0.31422448 0.07556711 -0.19200456 0.00039118624 -0.022201182 -0.060999554 -0.34097087 -0.008202521 0.098465614 -0.14536794 -0.008538798 0.05819243 0.1162148 -0.07926965 -0.2159111 0.088234484 0.019634796 -0.010399005 -0.09541195 0.09141719 0.008825367 -0.07385432 -0.024264166 0.07943953 -0.12113171 -0.1589597 -0.18981503 0.101863705 0.09971651 -0.01014887 0.23546565 -0.23189712 -0.06393148 0.17408222 -0.08831733 -0.0025869827 -0.0833238 -0.042181723 -0.2444735 0.2189094 0.20082001 0.10929079 -0.19511901 -0.20067535 -0.2653487 -0.16828431 -0.15213895 -0.011251139 -0.12177936 -0.09124654 0.31441438 -0.069931775 0.051939145 -0.08681761 -0.14211577 -0.08664747 -0.023467934 0.11611161 0.12902734 0.011926958 -0.20739351 0.30375585 -0.4324869 0.028047124 -0.02735582 0.26154646 0.113117404 0.038315505 -0.18288541 0.026370147 -0.017653048 -0.018465318 -0.08909809 -0.19236371 -0.24387579 0.10547009 0.09863669 -0.086200155 0.34148592 0.27334884 0.18596736 0.06079124 0.19416294 -0.03721324 0.038430694 0.2634068 0.039905187 -0.0021825617 -0.0922924 -0.11026545 0.0861993 0.13391846 -0.05418715 -0.18166487 -0.02343324 -0.08248773 0.10235498 -0.021900142 0.17988332 0.27395818 0.13620996 0.038666964 -0.1578018 -0.13328291 0.014830494 -0.012461523 0.10744226 -0.11405141 0.20754457 -0.03016141 0.04473638 -0.13610084 -0.047530804 -0.10408825 -0.013323212 -0.32733017 -0.24320553 0.17620698 -0.10987643 -0.036706023
542 0.1263564 0.0120513905 -0.29072145 -0.050474722 -0.0055344375 0.26460594 -0.13799502 0.04384999 -0.20240122 0.101715066 -0.04596928 -0.092351206 0.051339634 0.0147906225 -0.05794422 -0.03628271 0.10611366 -0.09187311 0.094843656 0.1556179 -0.03952805 -0.0062494846 0.24036825 0.16108398 0.093856774 -0.110575564 -0.22748558 -0.06417282 -0.058896985 0.13451964 -0.12908183 0.11884214 0.26592183 0.04075502 -0.07599353 0.15135397 -0.0026692464 0.15194741 -0.028562542 0.10281904 -0.16279629 0.042667795 -0.0512775 -0.09001266 -0.3377096 0.2216538 -0.016179565 0.26868874 0.08790841 -0.07000967 0.21338952 -0.1053527 -0.0687488 0.034992352 -0.16503191 0.15122752 -0.08623626 0.16155598 0.13908741 0.13476467 -0.029920017 0.23128077 0.0132399285 0.19360012 -0.025186336 -0.08238562 -0.14513905 -0.012813466 0.107557274 0.092762336 -0.020570047 0.16953829 -0.031794004 0.32037044 -0.18702665 -0.1963858 0.007065973 0.19458826 0.0889324 -0.07783123 -0.15295903 0.22705051 -0.11923946 0.14011616 0.01891376 0.055005807 0.13533884 0.27911413 0.15151091 0.11068332 -0.13911876 0.06715716 0.10273743 -0.020139895 0.038087904 -0.22811353 -0.31222135 -0.041655596 0.2568691 -0.05012554 0.098929636 0.14719059 0.14903541 -0.12637469 -0.08506955 0.044748817 0.038602162 -0.05934956 0.006585441 -0.098379426 -0.06768232 0.032600667 0.06576338 -0.2019475 -0.13250703 -0.13870837 0.0299953 0.26369548 0.20900834 -0.20362078 0.19620286 0.036559634 0.046316613 -0.042262856 -0.22727327 0.028741216 -0.06640709 0.018268293
641 0.16657317 -0.0036776771 -0.14973295 -0.065341495 -0.23334111 0.20461191 -0.17769355 -0.0216548 -0.37110868 0.00599378 -0.056004345 -0.22088493 0.14278673 0.282688 0.06662729 -0.14914897 0.10979196 0.05835031 0.030255929 0.20602323 -0.104620814 0.04617438 0.14596125 0.16289121 -0.007852461 -0.057352092 0.11094707 -0.004490445 0.0370273 0.009974557 -0.057255402 0.108826116 0.26485312 0.14606653 -0.17105788 0.025904024 0.016445188 -0.04257599 -0.17111118 0.186306 -0.17957938 0.2824848 0.09520975 -0.14604294 -0.12725443 0.21299079 -0.16539262 0.15517198 0.23352724 -0.042149216 0.101303376 -0.07409551 -0.11430766 0.022381807 -0.06508758 0.09939456 -0.06451623 0.033438705 0.11912248 0.13835268 -0.21385315 0.09374348 -0.14690007 0.16458444 -0.12511216 0.022318874 -0.084387384 -0.041274566 0.18450369 0.10268624 0.1656621 -0.12261904 -0.13966629 0.17533791 -0.03842535 -0.11246778 0.11636595 0.15494445 -0.012536595 -0.1289338 -0.23349978 0.2969217 -0.1029356 0.116192564 0.08141451 0.035412002 0.07652987 0.37900996 -0.087624624 0.10006117 -0.048013784 0.16648513 0.21328795 0.12825614 0.14744943 -0.029664159 -0.31834897 -0.053432994 -0.110288754 0.19223216 0.02637933 0.20199224 -0.013352683 -0.10435269 0.025715588 0.06739712 0.00248679 -0.23104034 -0.12001738 -0.14510028 -0.09568634 -0.053071048 0.04379514 -0.023211608 0.14938556 -0.1470748 0.123049445 0.17394562 0.2345793 -0.004207654 0.060151253 0.033647466 0.071722455 0.009294949 -0.16915637 -0.15522152 -0.0047823084 -0.1914276
629 0.055635057 -0.00040068477 -0.050469846 -0.12791249 -0.09988942 0.16318533 -0.21353096 0.09657165 -0.4095284 0.07229085 -0.1837167 0.01304204 0.166457 0.12250042 0.12559068 -0.07249668 0.018965377 0.015254345 -0.12068486 0.13080813 0.018815022 0.15689929 -0.053554054 0.2532516 -0.028382437 -0.042924482 -0.03883073 -0.066768184 0.14352879 0.090293616 0.052672226 0.09015208 0.20417975 0.19311638 -0.22050895 0.030611344 -0.07663067 -0.13294187 0.09844357 -0.10126902 -0.05058797 0.17388508 0.13705654 -0.23175892 -0.039500725 0.14905336 -0.0015656 0.19985184 0.0134833045 -0.010489935 0.2797562 -0.053432845 -0.10553018 0.029090563 -0.11502425 -0.036887895 0.04041374 -0.018026335 0.074697725 0.22726879 -0.046089936 0.01516892 0.055428106 0.3086272 -0.052610017 -0.052939612 0.06315698 0.033626918 0.17442182 0.09714005 0.12187315 -0.21716467 -0.11965916 0.006723554 -0.06091747 -0.2672327 0.1672488 0.05375411 0.06021431 0.17583366 -0.23733568 -0.0034979172 -0.041677747 0.0717234 0.031096581 -0.21944399 0.16679692 0.32301345 -0.09391787 0.31331295 -0.06428236 0.18005042 0.0820161 0.044576056 0.043980237 -0.09149168 -0.3376886 0.020870768 0.028837781 0.10281345 0.14533514 0.24655867 0.029628936 -0.18562044 -0.04280824 0.12582709 0.036327645 -0.15173301 -0.1262598 -0.16691999 -0.038445905 0.04647968 0.16435546 -0.1011772 0.1280556 -0.18385622 0.20840552 0.27407518 0.2770831 0.049449526 -0.14270745 0.0016809902 -0.032563426 -0.040380217 -0.27750638 -0.032547854 -0.044568162 0.010960351
685 -0.18975964 0.08832194 0.08673167 -0.17127563 -0.44050303 0.14322676 0.098283656 0.036377884 -0.30285323 -0.010476235 -0.14573427 0.026209868 0.15993708 -0.040852897 -0.32155907 0.10236424 -0.057231072 -0.07069325 0.0768587 -0.035754018 0.13966802 0.019576218 -0.17029285 0.039197158 -0.107471064 -0.17530109 -0.18203047 0.26817465 0.07905926 -0.057680458 0.0080605075 0.005746969 -0.29680723 -0.028909737 -0.14035623 0.21912941 0.025147738 -0.09816987 0.2888434 0.059144687 -0.035260316 0.073970765 -0.058955494 0.046084832 -0.06381491 -0.0004688396 -0.17515011 0.05328706 0.21643879 -0.03799506 -0.1395345 -0.07720588 -0.33707058 -0.1635988 -0.33652952 -0.18571001 -0.0036656214 -0.1623994 -0.09281842 0.0805575 0.07417447 0.003089414 -0.19723488 -0.013772843 -0.090293966 -0.11012871 0.14300059 -0.060653843 0.08418699 0.19644392 -0.14802383 -0.11906319 -0.16968463 0.13269103 0.117458746 0.091600224 -0.14323603 0.14641526 -0.17922355 0.122080885 0.15707475 0.035156555 -0.287347 -0.04696885 0.14255442 0.08472315 0.18904081 0.25699547 0.12997866 0.068556555 0.27263677 0.052222442 0.10253445 -0.16177255 0.3148995 0.1243957 -0.2689828 -0.21899238 0.14880589 0.26124385 -0.1897161 0.11059521 0.028486917 0.15083586 -0.061536036 0.12016839 0.13886857 0.26318195 0.10438279 0.041386764 -0.13171497 -0.078498304 -0.047609817 -0.20089027 0.14376788 -0.38263872 0.25903887 -0.08275992 0.21649574 0.022494877 0.042548966 -0.24819593 0.06948595 -0.10768802 -0.27822828 0.15875968 0.09466846 -0.12613411
640 0.056101643 -0.31189567 -0.27389312 0.016881743 0.13581818 -0.04473892 -0.20148288 -0.14897922 0.33672565 0.33664936 -0.012923444 0.061735958 -0.3542471 0.039741922 0.20055498 -0.037784997 -0.0851231 0.11142115 0.07195859 0.35406917 -0.04024831 0.055817418 -0.12745978 0.21844979 -0.018337777 0.012216095 0.14790668 0.08853291 0.26505435 -0.010937183 0.22250798 0.031581543 -0.11702899 -0.09430842 -0.11656289 0.099924594 -0.077238835 -0.0092762485 -0.04525669 -0.014602816 0.0005214081 0.1539762 -0.028245922 -0.30115774 -0.03880045 -0.10619647 -0.09301388 0.31243098 -0.09831613 0.077351846 0.25886533 -0.43513393 -0.15095244 -0.2077665 -0.05606014 -0.08242699 0.21616966 -0.09729333 0.098537095 0.2951921 -0.031680994 0.16104053 -0.12847215 -0.3531399 0.052312065 -0.09154043 0.09511597 0.0047435844 -0.10192415 -0.0067186886 0.099398255 0.072580114 -0.35138696 0.07726991 -0.123418644 0.044060122 -0.2810327 -0.15933973 0.21695837 0.02227401 -0.041441374 0.1440617 0.14983597 0.18189299 -0.08502505 0.14681384 -0.20697476 -0.14727953 0.019348416 -0.08723137 0.1956204 0.30474922 0.019582223 -0.16262548 0.12222859 -0.28732002 0.055676825 0.019642211 0.06695693 -0.14409034 0.19945766 0.080316104 0.0027692143 -0.25515655 -0.022259366 0.0010211942 0.57147 -0.11540268 -0.0077978075 -0.0825012 0.06785783 -0.20190369 -0.059769653 -0.21172822 -0.05767773 -0.23981765 0.22543755 -0.40526482 0.14157817 -0.56169313 -0.031259768 -0.12004328 0.2105441 0.075819924 -0.18505146 -0.173916 0.043348804 -0.41000175
376 0.0032517368 -0.18370871 -0.16991241 0.042004164 -0.19106078 0.22601849 -0.06555722 -0.06825452 -0.34010652 -0.08735869 0.012054717 -0.04759827 0.07324702 0.018774088 -0.19289069 -0.09473543 0.016774118 -0.011991987 0.11387168 0.12762344 -0.14922291 -0.046989188 0.17466497 0.11958694 -0.008525297 -0.01890401 -0.10298806 -0.08100217 -0.092547156 -0.04757369 0.07454826 0.14101423 0.040366977 -0.0564218 0.0856116 -0.025989376 -0.022002945 0.180705 -0.03925969 0.25860235 -0.047337256 -0.16153121 -0.05608181 -0.30660394 -0.0807501 0.09659586 -0.07709337 0.31828812 0.0046578017 -0.11979866 0.1030468 0.021234863 0.058442738 0.07293069 0.0045733666 0.14405625 -0.039102603 -0.022727245 0.14947246 0.1422539 -0.07501926 0.07517975 -0.19449165 0.0739678 0.1148327 -0.10123991 -0.008113381 0.004367804 0.10814522 0.25996253 -0.00620274 -0.009061279 -0.25088713 0.3064153 -0.37339908 -0.37467694 -0.04805033 0.2453893 0.116239436 -0.05918501 -0.17656827 0.1967464 -0.1168852 0.3072337 0.0006034649 0.1541856 0.06292096 0.3201086 0.058356807 0.099611826 -0.20265697 0.10488851 0.21335512 0.029888174 -0.217979 -0.23662102 -0.3393948 -0.0028667743 0.1512481 -0.075733565 0.012873853 0.08578552 0.17292981 -0.2666457 0.04721995 0.0663825 0.012700627 -0.041810006 -0.076864235 -0.22389331 -0.029753376 0.038952105 0.068263575 -0.225475 -0.16883263 -0.08703818 0.039044302 0.17714003 0.006171799 -0.02340367 0.14616616 -0.0008591277 -0.029618071 0.004455789 -0.541598 -0.12360394 -0.13374248 0.004847132
616 -0.046196125 -0.1102389 -0.1418949 -0.11908981 -0.26159167 -0.06464663 0.199619 -0.02562132 -0.2902285 0.05739478 -0.26658317 -0.16099532 0.1093846 -0.19112352 -0.19585496 0.19131702 0.0937514 0.060576655 0.02671237 0.18106747 -0.016232975 -0.3225384 0.22801912 0.09165284 0.2936322 -0.00277929 -0.09814034 0.04033548 0.13099878 -0.10776369 0.029517327 -0.043969333 -0.13133545 -0.24023813 -0.0886552 -0.19636218 0.046100307 -0.19027829 0.25217965 -0.12918279 -0.052824978 0.28352174 -0.20334333 -0.00084252504 0.09176091 -2.8421018e-05 -0.2168342 0.092226885 0.028903328 -0.0026116413 -0.0539021 -0.28814232 -0.25250176 -0.014816354 0.021301718 -0.012118266 0.02560755 -0.05849782 0.11538803 0.015415845 -0.11465497 0.028063264 -0.009859154 -0.10417659 0.26307625 0.23635714 0.2987394 -0.016442394 -0.17339936 0.13106076 -0.03951885 0.014996935 -0.10646838 0.0265545 -0.07034315 0.29470697 -0.15086855 0.1106396 -0.055563167 8.0863014e-05 -0.09041569 0.01804089 -0.29351977 -0.18173532 0.16447933 -0.19700226 0.20625904 0.118344136 0.14189039 0.16125743 0.08177491 0.29402617 -0.19282603 0.11162434 0.18287028 -0.12737358 -0.24863654 -0.17713468 -0.12927024 0.25399938 0.12848693 -0.09560386 0.101627365 0.19496113 0.03991071 0.15663041 0.18888229 0.25281858 0.23537907 -0.09440834 -0.084641606 -0.011805012 0.05243051 0.0513492 0.0077932673 -0.19848397 0.2889375 -0.19130425 0.017083328 -0.12394278 0.05084355 -0.2798016 0.0087542 -0.2810394 -0.04984153 0.28300652 -0.104487486 -0.00027105547
513 -0.06869689 0.09235156 -0.14662398 0.017979354 -0.19773784 0.15615907 -0.13458715 0.075115055 -0.19485845 -0.099793255 -0.07664609 0.014788607 0.15239722 0.024271652 -0.023270458 -0.20293404 -0.058192987 -0.055988837 0.09179425 0.15009749 -0.15888569 0.066311546 0.21662311 0.22177657 3.763891e-05 0.026950855 -0.008305702 0.0043915347 0.014459401 0.15922621 -0.07797302 0.036422346 0.16908462 0.10409866 -0.067368 0.19937989 -0.1594698 0.03663899 0.03801134 0.15243462 -0.034287088 -0.09677304 0.10118303 -0.2812739 -0.14337578 0.17378113 -0.12545525 0.18611702 0.10546913 0.042102918 0.13577096 -0.09935909 -0.06093132 0.013675783 -0.012132634 0.07141212 0.013642722 0.0074523957 0.10616131 0.14241992 -0.10189337 0.07305851 -0.24327381 0.14322242 -0.036929164 0.021878125 -0.07314243 0.05954181 0.0057728905 0.17774326 0.020764016 -0.005187387 -0.15567486 0.2133851 -0.07866613 -0.20917182 -0.045418657 0.23049964 0.13311526 -0.07896156 -0.27317747 0.14546822 -0.2214187 0.03306496 0.13208516 0.0047733793 0.12680165 0.3243804 -0.26621547 0.2612376 -0.07635937 0.164503 0.20463027 -0.052855458 0.09793611 -0.10861138 -0.3308476 -0.0966967 0.04237184 0.025749955 0.14673999 0.19707416 0.11663774 -0.15241925 -0.023168359 0.101347804 -0.040876556 -0.05506076 -0.053442627 -0.3381074 -0.09774135 0.051468715 0.33004743 -0.09264885 -0.14864406 0.020226223 0.11372481 0.30089983 0.13046634 -0.03179114 -0.08463829 0.14258212 0.053567685 -0.19222519 -0.35637504 0.03985321 0.038592894 -0.018800491
659 0.0020942397 -0.30701357 -0.29106757 -0.14433417 0.17186049 -0.06990018 -0.18279864 -0.1766591 0.33291188 0.36301073 -0.036472566 0.051404037 -0.42413822 0.035997294 0.22442502 0.027364984 -0.058749355 0.042170275 0.13246846 0.38619688 0.03348103 0.04785508 -0.020035455 0.22987069 0.070797876 -0.00059738243 0.17367047 0.17430945 0.2569839 0.035228405 0.052983 -0.0065308274 -0.11274175 -0.0751629 -0.036244422 0.11877022 -0.12901987 0.06645136 -0.04581763 -0.089505225 -0.07625744 0.11859158 -0.015071002 -0.18589225 -0.1372924 -0.13329929 -0.030090353 0.24428259 -0.11740535 0.15431042 0.28526518 -0.3421358 -0.18293841 -0.13468668 -0.029541086 -0.10253274 0.123208374 -0.079948746 0.0699471 0.23680554 0.110189006 0.16998078 -0.07804872 -0.40863556 0.05412537 -0.12636232 0.13540024 0.0138828615 0.0021860055 -0.047523484 0.2268738 0.0001108278 -0.42799032 0.10895072 -0.14087936 0.13642602 -0.3410482 -0.16841562 0.30811974 -0.036448937 0.10369843 0.038341053 0.22377199 0.23817837 -0.07253465 0.11777835 -0.05728534 -0.08237339 -0.05635681 -0.12195869 0.10712302 0.35012293 0.16353436 -0.075558014 0.19293682 -0.2785898 0.011262706 0.060531817 0.024898048 -0.21239401 0.15755957 0.010266884 -0.0089131 -0.3071601 -0.038773462 0.047418613 0.4917331 -0.039319538 -0.08589036 -0.03335678 0.036232937 -0.10786677 -0.08815283 -0.30153674 0.14368916 -0.2513444 0.27626008 -0.34487328 0.13883147 -0.43623066 -0.017035978 -0.16310824 0.17060797 0.044894185 -0.2803649 -0.07380781 0.071793966 -0.2696278
599 0.033365242 -0.3436031 -0.49724764 -0.22438122 -0.0027685019 -0.0045047496 -0.17414512 -0.32121032 0.15059528 0.36638165 0.002000434 0.085016474 -0.20830263 0.097365975 0.06897974 -0.08564351 -0.053393405 0.16443639 -0.04592479 0.2845537 -0.05181473 0.17989625 -0.045090735 0.19747543 0.045338295 0.022905061 0.083847836 -0.007981673 0.1813304 -0.086665876 0.1034071 0.115706034 -0.14131437 -0.09611501 -0.025680726 0.18392275 -0.08759621 -0.032008123 -0.13661075 -0.043405816 -0.14558196 0.12533472 0.005857701 -0.21547015 -0.10911139 -0.16648173 -0.079703264 0.27339944 -0.21344887 0.04654416 0.25890473 -0.22784661 -0.11252853 -0.1772807 0.040022753 -0.1097667 0.21192944 -0.12510557 0.09671263 0.24181189 -0.038970787 0.06331311 -0.2587985 -0.42185467 0.03157819 -0.06922077 0.15691388 0.010672118 -0.019107789 0.11943788 0.22161482 0.017643366 -0.46127316 -0.014179828 -0.01781892 -0.03078217 -0.35006043 -0.22672933 0.30762178 0.017450625 -0.015557679 0.12755059 0.24181111 0.163412 -0.13282718 0.02624282 -0.0731919 0.047645353 0.027553074 -0.30428043 0.17628746 0.32104045 0.061436355 -0.035945628 0.28851244 -0.2869001 0.17609377 0.025878448 -0.053660564 -0.3067622 0.14357743 0.054478977 -0.053153805 -0.24373126 0.07214071 -0.0931378 0.38248953 -0.090708025 -0.051959757 -0.119896404 0.076917745 -0.19659436 -0.04265854 -0.19345018 0.035036787 -0.18450762 0.2638849 -0.27914053 0.1622068 -0.54757047 -0.05907652 -0.030162223 0.07891374 0.05826349 -0.18601124 -0.07931934 0.067783624 -0.18654056
615 0.024588857 -0.2837505 -0.32674834 -0.076012574 -0.06747472 0.008541856 -0.07201078 -0.093763135 0.1688617 0.37104595 -0.14160733 0.029063566 -0.28503612 0.060392193 0.075898536 -0.05336582 -0.13056673 0.06899837 0.1801196 0.2991802 -0.028288659 0.101067595 -0.12290934 0.15767539 0.0712804 0.028902866 0.14237031 0.067224644 0.13736124 0.008029393 0.12990575 0.0273209 -0.14342439 -0.054455224 -0.02901265 0.10226744 -0.110714205 0.0046669957 -0.059732076 -0.095327616 0.03513472 0.105827704 -0.08066556 -0.20766313 -0.17640837 -0.00146676 -0.11793108 0.23045067 -0.054858517 0.07188175 0.22850789 -0.23567171 -0.1716234 -0.18832986 -0.04152622 -0.059870336 0.16311133 -0.14051016 0.1514053 0.31503987 0.014449216 0.11547921 -0.12163768 -0.40042713 0.040567964 0.056333136 0.13327634 -0.04926295 -0.035751816 -0.12101282 0.16935545 0.046262674 -0.39590484 0.09603959 -0.15093254 0.049653627 -0.39087957 -0.26642188 0.29606035 -0.039749578 0.06393872 0.12124472 0.27232665 0.111461475 -0.08068448 0.10921171 -0.17355874 -0.07642562 -0.10285383 -0.10131622 0.106929965 0.16631173 -0.029991696 -0.09836139 0.17487334 -0.13070413 0.14934489 0.0341843 0.1018452 -0.19415349 0.09640441 0.073965006 0.02612627 -0.29293242 0.040863443 -0.08119824 0.5091799 -0.14622916 -0.08179697 0.0063686087 0.10743199 -0.18294507 -0.021114996 -0.24711615 0.08388825 -0.30506343 0.33245718 -0.38659856 0.06319002 -0.61511225 -0.09992717 -0.14170894 0.23821312 0.014356082 -0.22436966 -0.034080938 0.03787714 -0.29000995
428 0.16347845 -0.011373948 -0.20185654 0.16402711 -0.06688435 0.31646305 -0.17098789 0.20160645 -0.24937902 -0.049355127 -0.0518506 -0.25867432 0.23028788 0.0065009906 -0.3215218 -0.26876912 0.033299346 -0.055948213 0.18208021 0.15734324 -0.1101026 0.14940032 -0.0033631609 0.3672791 0.021362681 0.014482072 -0.112082615 -0.08074571 -0.014748953 -0.011270502 -0.18250945 0.0025617674 0.10149398 0.22358546 -0.34643337 0.16427012 0.05978824 -0.015362713 -0.025869925 -0.05590737 0.103989646 0.21591985 0.0512534 -0.20994174 -0.02535281 0.18795697 -0.17697789 0.1550759 -0.012063488 -0.03146353 -0.003559344 -0.2036696 0.013936165 -0.054563828 -0.02134031 0.13640325 0.13722049 0.062832154 0.107765056 0.29250392 -0.15506087 0.17052808 -0.03726038 0.23779881 -0.01645412 0.09237585 -0.039527744 0.009056527 -0.04309422 0.21823922 -0.1752314 -0.07227488 -0.09895227 0.045874186 -0.11373604 -0.16808483 0.10422597 0.13720973 0.11486243 -0.008942557 -0.10304523 0.13474587 -0.017832378 0.028480105 0.20273268 0.0399854 -0.22360772 0.1390538 0.03352208 0.25438613 -0.121119425 0.22866465 0.18839774 -0.04505709 0.14805676 -0.032299593 -0.19835469 -0.16481629 -0.011270892 0.053843245 0.17077233 0.1112018 0.25074044 -0.11038587 -0.029434228 -0.023345245 0.16025832 -0.20131809 -0.2519289 -0.1508452 0.050539486 0.11983311 -0.04934262 -0.27459502 0.002021106 -0.053676873 0.018260669 0.2899235 0.17003496 -0.015905753 -0.0029447228 0.007179875 0.05387282 -0.043664955 -0.3750867 0.079394296 -0.111085 0.02803198
590 -0.24375886 -0.034988385 -0.2936562 -0.119140126 -0.09180058 0.21009818 0.08562148 -0.054763697 -0.19289587 0.03515861 -0.008712349 -0.06864828 0.19186766 -0.094199866 -0.076965004 -0.05451755 0.14126341 -0.13192534 -0.14814195 0.061764263 -0.097067975 -0.045636404 0.014641129 0.23712683 0.16557455 0.017076405 -0.10495639 0.10157564 0.019887421 -0.039601684 -0.042087723 -0.01622868 0.14610015 0.1682827 -0.11312636 0.052766025 -0.065084904 0.05189573 0.14768966 -0.08987505 0.0847284 -0.0036224022 0.027796654 0.08985541 0.080110356 -0.14720568 -0.25210804 0.12030521 0.095148414 0.062208623 -0.065339744 -0.20391396 -0.23017082 -0.15933648 -0.073810056 0.06375489 -0.11749561 -0.119473055 0.067639485 0.15926115 -0.11879735 -0.08443806 -0.11080483 -0.048851218 -0.12847358 0.12307021 -0.0762244 -0.1590864 0.07541264 0.26692444 -0.20301911 0.104386844 -0.10866717 0.20319302 0.14407676 -0.045246534 0.06558405 0.17856263 0.15786102 -0.14498599 0.3220406 -0.01862866 -0.18063173 0.06096588 0.13963917 0.13591842 0.27407348 0.32140982 -0.02228646 0.11971432 0.009279088 -0.043379676 0.12642314 0.039357226 0.09904824 -0.03742158 -0.12434 -0.32548875 0.4527628 0.038986042 -0.052937236 -0.0640214 0.006341629 0.2176728 -0.21002762 0.010679922 0.13571909 0.18140148 0.20591816 0.063745484 -0.14861776 0.025645118 -0.078069784 -0.081640385 -0.06183437 0.04503745 0.19751413 0.13758571 0.24532054 0.10435354 -0.07705762 -0.029203901 -0.06426965 -0.21509482 -0.3321895 0.15528049 -0.020665739 -0.045892023
559 0.14727023 -0.114936195 -0.077679306 0.078441866 -0.11238732 0.27902973 -0.31369078 0.06180385 -0.18571293 -0.16039331 -0.059627354 -0.19140857 0.1460249 0.028239623 0.04951587 -0.27442792 0.17444962 0.055707976 0.12715623 0.20159006 -0.08083722 -0.032683786 0.26805553 0.3122151 -0.023504635 -0.00370552 -0.2149883 0.025364539 -0.082324184 -0.04427609 -0.0008594917 0.05586255 0.08186986 0.22085296 -0.011757879 0.034959357 -0.104928166 0.08930388 -0.058323603 0.14584267 -0.0033866 -0.030118916 -0.1441968 -0.20682961 -0.16414778 0.13120203 -0.019482998 0.16035664 0.08030099 -0.1381655 0.056436326 -0.12940769 -0.0052381386 0.045854542 -0.11113503 0.12564301 -0.030980881 0.16098313 0.26485315 0.1480551 -0.11284548 0.004027079 -0.27244934 0.15917155 0.03677477 -0.014479133 -0.076796696 -0.04908966 0.11084067 0.29119763 -0.034872197 0.06317463 -0.06499734 0.1240185 -0.23411171 -0.18510526 0.05780219 0.17443712 0.22441688 -0.14096761 -0.023750056 0.15779395 -0.21608335 0.058054265 0.024891188 0.0683227 -0.016011221 0.2086196 0.06918655 0.2287978 0.061041947 0.0429194 0.15813069 0.043666128 -0.095101036 -0.1552584 -0.25389284 -0.12371941 0.15609325 0.05899645 0.028125824 0.16753362 0.22911732 -0.14165618 -0.09615144 0.10464248 0.22869177 0.05126779 0.0351114 -0.15423384 -0.12393558 0.020999383 0.061959848 -0.15612172 -0.13562475 0.001003587 0.11003421 0.2775111 0.2052271 0.055458 0.052664474 -0.053438745 -0.009393958 -0.117732555 -0.3001363 -0.06561302 -0.109 -0.0310825
475 0.12653333 -0.020141657 -0.21227217 0.13502654 -0.115333274 0.29738897 -0.1301939 0.0177594 -0.31193802 -0.10506459 -0.04723411 -0.08371293 0.1196723 -0.06041165 0.07043959 -0.16943604 0.0652354 0.055168387 0.17863381 0.17330801 -0.0841909 0.13378899 0.17796189 0.26344538 -0.0743612 -0.028041525 -0.1332138 -0.03042292 0.02496635 0.030114084 -0.0084660305 0.10013596 0.17253649 0.15972449 -0.14105265 0.03748368 -0.15122342 0.039151594 -0.07010474 0.04628599 -0.0036691553 0.031720284 -0.0050622844 -0.19409461 -0.09338764 0.19385457 -0.03667664 0.12993434 0.057857625 -0.08613523 0.18419549 -0.12257797 -0.05903349 -0.030879078 -0.130977 0.1044115 -0.092638426 0.07109117 0.141637 0.18287973 -0.038552284 0.037975222 -0.10879137 0.1993124 0.008391938 -0.12773 -0.011256711 -0.11125503 -0.009606575 0.20151311 -0.050783977 0.030506412 -0.21979344 0.16785394 -0.0935398 -0.11255005 0.13080625 0.12078071 0.25100124 0.009002038 -0.11631327 0.05339853 -0.08557486 0.137405 -0.01916531 0.05625959 0.0026905308 0.21900488 0.017114596 0.16093902 -0.05771566 0.010760199 0.26322052 -0.061430067 0.060351778 -0.12136761 -0.19336507 0.06679351 0.10663766 0.026667207 0.008762681 0.14946873 0.102175325 -0.06795568 -0.18439995 0.07589311 0.16528122 -0.12753227 -0.05862491 -0.10045606 -0.06897185 0.0117341885 0.17203403 -0.14642827 -0.068686105 -0.007939678 0.020994917 0.19354814 0.22480719 -0.0097384285 0.22241898 -0.17316683 0.096421316 -0.05023692 -0.2834613 -0.020922313 -0.09014397 0.020846719
577 0.091836005 -0.2755491 -0.33391356 -0.13674498 -0.011643371 -0.04588216 -0.15107556 -0.10196934 0.25950128 0.4218068 -0.05960629 0.07660191 -0.22157925 0.12677732 0.21887548 -0.0022675297 -0.0962397 0.083310746 -0.05382439 0.3213315 0.013031485 -0.034095205 -0.08304113 0.42471844 0.13980448 0.0664856 0.14249602 0.11100451 0.1588109 0.06983433 0.17182036 -0.017403344 -0.18299657 -0.017674457 -0.0019615646 0.11714695 -0.13870212 -0.03530058 -0.056465458 -0.09287671 -0.076924555 0.20956318 -0.1393695 -0.2907707 -0.102854535 -0.16956735 -0.09178284 0.21964256 -0.1438102 -0.012456655 0.25523987 -0.3651318 0.025292424 -0.12414579 -0.08019405 -0.044123493 0.1933462 -0.007986549 0.020734308 0.29409102 0.068266846 0.22590524 -0.10061075 -0.39703226 0.12690063 -0.061417166 0.105247915 0.116943814 -0.09899132 -0.094754696 0.2777344 0.11458636 -0.33412164 0.08739935 -0.024560733 0.18526624 -0.32740277 -0.13707878 0.31287467 -0.122126244 0.077017024 0.1524594 0.24620762 0.17901361 -0.06702403 0.10654182 0.097925074 -0.057712816 -0.09546395 -0.11302236 0.23017919 0.29179227 0.11103438 -0.039399177 0.19865783 -0.19103184 0.10860661 0.020658473 0.002520951 -0.32800552 0.2232409 0.02287651 0.048658166 -0.3431038 -0.0014079192 -0.028567838 0.4920406 -0.07111799 -0.07419143 -0.026843837 0.04658056 -0.16403875 0.056000303 -0.29597658 0.10006569 -0.1620136 0.37715 -0.3888855 0.11243646 -0.41315603 -0.014494222 -0.12331872 0.3102477 0.04824658 -0.18195648 -0.12566867 0.05298432 -0.37501165
612 -0.09270765 0.06419152 -0.0004035759 -0.08530476 -0.34074256 0.06545591 0.06481852 0.033544872 -0.2818253 0.0037067006 -0.23829053 -0.083095744 0.29967564 0.19570684 -0.2530972 0.16894132 -0.1521947 -0.016119994 -0.0069905077 -0.056995098 0.13157068 -0.028896881 -0.2385931 0.015596852 -0.03728863 -0.04373714 -0.2516642 0.10095905 0.0627721 0.046308417 0.18692423 -0.006818674 -0.1333731 -0.038827457 -0.26092175 0.049977973 0.01063038 -0.061543364 0.20986314 0.038146198 0.115493014 0.0017051061 0.06627641 0.020717358 -0.042335954 -0.13296068 -0.2324937 0.043470807 0.10824872 0.22846669 -0.053763147 -0.08700726 -0.39953294 -0.04464954 -0.1787195 -0.11288841 -0.10963152 -0.07312186 0.039955854 -0.007981663 -0.105526 -0.08325071 -0.20011377 -0.08424449 0.078974284 0.056378283 0.20885971 -0.02732163 0.023222532 0.23804148 -0.023893014 -0.15090941 -0.13955751 0.2450274 -0.013096399 -0.04627177 -0.23501766 0.13642173 -0.23491628 0.01119861 0.112629615 -0.0469842 -0.10620629 0.06231374 0.18470566 0.13613148 0.16448301 0.16561192 0.08637223 0.042705905 0.17397594 -0.1863322 0.018517816 -0.042857643 0.34798378 0.14120768 -0.14815468 -0.31420833 0.26544863 0.3252893 -0.028815188 -0.12120906 0.21927413 -0.1560826 -0.22045425 0.10121639 0.24099274 0.22135183 0.1213085 -0.08735331 -0.16170508 -0.010555824 -0.15127455 -0.1391758 0.086704426 -0.28493774 0.27799243 -0.10595699 0.12874264 -0.17021492 0.022078497 -0.26519185 -0.08871807 -0.29135674 -0.15185957 0.24746008 0.085729584 0.085170865
483 -0.022510426 0.029968254 -0.1986721 0.03856451 -0.11644527 0.23651634 -0.22529879 0.013807893 -0.25571144 -0.017112523 -0.11990793 -0.12363242 -0.015913375 0.046646006 0.077974856 -0.14333263 0.11673825 0.040835768 0.112175465 0.16155055 0.057986267 0.08918587 0.020106716 0.3299224 0.09104036 0.009767654 -0.04542909 -0.056764435 0.10373709 0.11901578 0.0006634623 0.066129774 0.15917227 0.117644526 -0.21629988 0.09764243 -0.11144431 -0.15499443 0.05868266 0.016239263 0.0004889229 -0.06506048 0.11860789 -0.12527943 -0.0827456 0.2944615 -0.016294908 0.026449693 0.23751411 0.07805823 0.14270873 -0.1925475 -0.052008178 0.004724976 -0.07837491 0.01374122 -0.156846 0.10024486 0.12040817 0.15372883 -0.15001403 -0.0065166396 -0.19958813 0.13169122 0.025614511 0.06656135 -0.031674217 0.055156864 -0.025963342 0.1632819 -0.032979798 -0.12281099 -0.058935225 0.15736006 -0.1367363 -0.22213735 0.12861122 0.17546234 0.2199812 0.014253049 -0.2626889 0.23503958 -0.103406444 0.0067682415 0.071272105 0.0621922 0.18260008 0.24402465 -0.010941181 0.23967692 0.017219182 0.17713366 0.15877126 0.06304831 0.03165569 -0.103455685 -0.25540596 0.015917677 0.12705497 0.08952237 0.0430312 0.23714505 0.16635413 -0.1312915 -0.061936364 0.13856475 -0.0073140645 -0.16960202 -0.023687271 -0.179714 -0.12302831 -0.028138 0.028230617 -0.010272682 -0.0504217 0.033966385 0.12370351 0.2096712 0.19047846 0.06250735 0.024319485 0.056473564 -0.0014674838 -0.24085402 -0.18553959 0.029689431 -0.022401039 0.009953375
400 0.11304062 -0.06830432 -0.31900278 0.0069127027 -0.14231513 0.102355644 -0.1921569 0.09826017 -0.24617688 -0.18897076 -0.076914705 0.035446443 0.054409567 -0.09054471 0.04033949 -0.12275012 0.06551574 0.021704618 0.13878067 0.23306456 -0.06274764 0.16377981 0.104623415 0.2931722 -0.14700487 0.016787967 -0.14895646 0.02801245 0.04467196 0.10599143 -0.08101016 0.0066146017 0.17192069 0.035461605 -0.20921241 0.09933786 -0.12544945 0.052865136 -0.001448612 0.19768415 0.03242324 -0.02289241 0.012006682 -0.31755382 -0.07275872 0.27113956 0.02929882 0.113650054 0.045263756 -0.02572756 0.08213466 0.010276879 -0.026043104 -0.07120747 -0.09547505 0.1330801 0.061210424 0.08293168 0.17752293 0.15744762 -0.08385047 0.07289656 -0.13023984 0.20943844 0.007041736 0.036953826 -0.06509381 0.039185036 0.13910867 0.32361457 0.13040197 -0.01745642 -0.1102273 0.025932493 -0.10643187 -0.1993683 0.15616554 0.21821645 0.063567676 -0.033507783 -0.2708264 0.11330062 -0.15420407 -0.058561355 0.09591964 -0.008691527 -0.055569075 0.21693292 0.13814777 0.26728916 -0.012081081 0.1278918 0.23207355 -0.009113769 0.15538147 -0.15326932 -0.22931361 -0.172304 0.043220416 0.1000508 0.055885404 0.20330605 0.09793511 -0.108672254 -0.023899857 0.008401785 0.02150309 -0.028725555 -0.08336403 -0.21300724 -0.15578134 0.003984327 0.11868047 -0.025777277 -0.08204413 -0.156069 0.13746823 0.2698183 0.30733234 -0.019610474 0.004263855 -0.017747922 -0.018732134 -0.24692574 -0.27226025 0.07218366 -0.11276243 -0.019129524
630 -0.036534257 0.030048808 -0.075726345 0.05959506 -0.2171059 0.03608024 -0.051274862 0.14849411 -0.34052357 0.016299676 -0.19206809 -0.12240626 0.061776083 0.12240343 -0.10400371 0.16096215 0.0014717979 -0.050242428 0.14614414 0.15224329 0.00093430636 -0.011200952 0.035082012 0.2010768 -0.029607376 -0.16816533 -0.17317525 -0.0021310826 -0.0767576 -0.0846993 0.025353502 0.018602895 0.06664112 0.14814599 -0.1715357 -0.04181385 -0.05925281 -0.33757105 0.09174604 0.01585945 -0.08584813 0.14117181 0.016700694 -0.19668132 -0.034264352 0.22513622 -0.082170136 0.11721405 0.09916216 0.16736539 0.18142484 -0.03635898 -0.19680595 -0.2697916 -0.07191065 -0.29791746 -0.033263702 0.021400623 -0.078657724 0.18192646 -0.015627714 0.06685877 -0.24611667 0.0353308 -0.02326906 0.034621585 0.2498768 -0.018378163 -0.045914523 0.1856495 -0.02145913 -0.15237947 -0.22187915 0.07991283 -0.01698045 0.11348018 -0.26965058 0.060172506 -0.22007695 0.02061012 0.033505194 -0.12423957 -0.16496366 -0.13619003 0.2148318 -0.041697573 0.2756046 0.23988125 -0.13747314 0.16398957 0.18892509 0.056172978 -0.019232288 0.018980153 0.0394791 0.037734747 -0.20491327 -0.114859 0.0020692989 0.26107648 -0.017626405 0.21857181 0.117462814 -0.0028648057 -0.061114166 0.037810422 0.01950218 0.12340791 0.013062374 -0.13589032 -0.14672206 0.10787643 0.10753347 0.1013324 0.15824355 -0.17084806 0.21469253 0.102112636 0.15027955 0.020944728 0.116222486 0.02782205 -0.11257578 -0.16113828 -0.11636097 0.20511653 -0.048718162 0.03170758
436 -0.09310846 -0.19468032 -0.24718586 -0.08983797 -0.10324426 0.111383304 -0.18694001 -0.007126396 -0.25476977 -0.10503769 0.12345602 -0.053086076 0.13853815 0.08600967 -0.107643075 -0.1354133 0.23627293 0.021797692 0.14681756 -0.07981198 0.016750842 0.019586332 0.25613075 0.24210952 -0.0806128 -0.005582376 -0.11196473 -0.09900094 0.04546393 -0.022184214 0.038106907 0.13478538 0.030579263 0.12974937 -0.014151429 0.076396 -0.063382365 0.11922416 0.08000475 0.25828636 -0.03054701 0.07868546 -0.123874106 -0.22626452 -0.203449 0.138074 -0.017610157 0.24322376 0.17442238 0.101821914 0.24375969 -0.20407042 -0.1600532 0.09204169 -0.04143042 0.049700677 -0.014026559 0.09283446 0.2418404 0.06952356 -0.05448996 0.010990257 -0.13745636 0.0155371055 0.036389966 -0.10864196 -0.06499526 0.027378784 -0.09413274 0.12726101 0.024252752 -0.1111575 -0.2625045 0.013743125 -0.40570533 -0.27094603 -0.0302322 0.23847942 0.1271694 -0.006667769 -0.047330298 0.15283434 0.0330223 0.18233654 0.100519955 0.0032957855 -0.09929094 0.18107931 0.047099125 0.064973 -0.20430112 0.11402337 0.15667878 0.0677426 -0.108721666 -0.18871395 -0.10147523 -0.009117712 0.09545103 -0.06183453 0.058687147 0.23439887 0.14424287 -0.24569738 0.053612128 0.10635925 0.13312043 -0.096150644 -0.03384679 -0.12509993 -0.12201612 -0.13280503 -0.2253942 -0.21185645 -0.19061203 0.0042919246 -0.02181637 0.2881465 0.1096307 -0.03994663 0.20303355 0.09304856 -0.033818576 0.08529982 -0.39710128 -0.18114766 -0.1929152 0.08528708
348 -0.09815213 -0.103896216 -0.051573932 0.11980967 0.1302505 0.32748365 -0.055437032 0.09416861 -0.0674624 -0.031093908 -0.11453951 -0.104947105 0.0975945 0.02806748 -0.118890546 -0.23554175 0.09110014 -0.0033058908 0.24181885 0.31485757 0.02867653 0.07507517 0.16895282 0.19279633 0.08381207 0.09854463 -0.082249574 -0.085605524 0.016573602 -0.09043517 -0.19083156 0.056457065 0.06860242 0.008892279 -0.23157889 0.012573297 0.17075315 0.112157956 0.009537729 -0.04047806 -0.18187666 -0.106193215 0.14089799 -0.14083774 -0.1699352 0.2745058 0.005238266 0.1609849 0.09972569 -0.14591134 0.10278084 -0.04111105 0.0220594 0.019721176 -0.066361405 0.23710856 -0.07223595 0.13068399 0.06912381 0.11594761 -0.1702553 0.039159942 -0.1841939 0.2388221 -0.020771142 -0.21727587 -0.023503466 -0.04285444 0.1287029 0.19020408 -0.03223168 -0.09317717 -0.20085211 0.1720458 -0.26003477 -0.07218271 0.074991465 0.093319036 0.3081154 0.014193055 0.026910888 0.17827797 0.004555917 0.13775307 0.20515506 0.054101698 0.10707731 0.23860861 0.16324185 0.13732685 -0.24678467 0.11306432 0.23559226 -0.108218566 0.012246797 -0.1275636 -0.4674446 -0.25346255 0.19631797 0.15969089 -0.01908767 0.072381936 0.25322932 -0.07882143 -0.14301974 0.23312712 0.18619975 -0.09877669 0.053580172 -0.17647776 0.041026734 0.111024104 0.1412675 -0.23562536 -0.031449858 -0.03263779 -0.018188402 0.10667019 0.21692038 0.20824793 0.23260373 -0.17654757 0.101263896 0.13588661 -0.37422645 0.051618576 -0.17315106 -0.01376375
650 0.13346112 -0.21841581 -0.24645509 -0.008386894 0.07502041 -0.039409094 -0.18859665 -0.14342955 0.23867218 0.3090014 -0.05485518 0.1696293 -0.3916178 0.16523752 0.14963605 -0.08338192 -0.08588618 0.06806839 0.05510554 0.33785802 0.06741779 0.007732984 -0.10076807 0.22912464 0.21428291 0.012350615 0.07955286 0.22535466 0.24090637 0.014548964 0.15800928 0.0074771154 -0.18690214 -0.14982374 -0.034700423 0.03493414 -0.06616494 -0.052603025 -0.020062046 0.030024659 -0.014311275 0.18341208 -0.08274667 -0.24474598 -0.04283218 -0.18338783 -0.019991877 0.35219735 0.005060863 -0.021517297 0.29430768 -0.22387639 -0.047345843 -0.13532758 -0.02839084 -0.13922895 0.22429447 -0.15797162 0.1464474 0.3015251 0.09467017 -0.0328898 -0.20701496 -0.39279112 0.14662637 0.05368419 0.11597423 0.040528744 0.09017546 -0.03922281 0.26912147 0.008000081 -0.364588 0.100619555 -0.12674548 0.105788685 -0.4441151 -0.2820806 0.26022226 -0.10070012 -0.10595082 0.0923842 0.17596637 0.12822923 -0.06993777 0.048289258 -0.028421199 -0.049895596 -0.042856418 -0.1175979 0.16474234 0.40232402 0.13708228 -0.031324685 0.104614355 -0.23793301 -0.023822362 0.015754292 -0.06776001 -0.25919363 0.13362688 0.023826199 -0.12852389 -0.24395277 0.0812881 -0.05892941 0.56602025 -0.054808505 -0.10237196 -0.11888116 0.17135209 -0.11785723 -0.004098027 -0.30721736 0.08827909 -0.26938787 0.45348492 -0.49988773 0.08243575 -0.48230946 -0.0039143814 -0.054964617 0.23697707 0.15472317 -0.22654276 -0.16600855 0.113252155 -0.3490639
584 0.002595647 -0.14911075 -0.18563114 -0.24359126 -0.17180881 -0.054133277 0.01824505 -0.22610398 -0.26514986 0.029820932 -0.5328945 0.12629534 0.054345667 -0.31036696 -0.010735611 0.26884782 0.13983299 0.012694443 -0.023796713 0.23373598 0.13222356 -0.2739525 0.18741475 0.035334587 0.10164575 0.13874924 -0.1921572 -0.13973354 0.1499201 0.07942179 0.045516375 -0.1398105 -0.030995337 -0.2398383 -0.20377564 0.11211778 0.26867604 0.024047205 0.19249403 0.20421703 0.04380706 0.19965136 -0.008425347 -0.17299433 -0.050433017 0.3052479 0.113996215 -0.071195625 0.19270387 0.23538707 0.02777344 -0.28653622 -0.15797904 -0.0021937264 -0.15327036 -0.19316483 -0.05743275 -0.1241928 0.11721973 -0.09572713 -0.3022327 -0.04605461 -0.2714572 -0.1833629 0.13232791 0.39327586 0.35603115 -0.035653815 -0.41883498 0.20949504 -0.29480082 -0.16455364 -0.041420273 0.033526197 -0.04556185 -0.0063250763 0.002136856 -0.07855241 -0.20585127 0.17598525 -0.054842748 -0.017267978 -0.25838426 -0.06723017 0.124245256 0.012102707 0.20659596 0.006010978 0.05598101 0.11451285 -0.014723823 0.21299043 -0.033418786 -0.038224176 -0.045847565 -0.040720254 -0.25802866 -0.022896428 -0.056309976 0.1131025 0.20594433 0.05242938 0.025103409 0.032774825 -0.063340515 0.1645191 0.16243589 0.074686445 0.28534752 -0.06268274 -0.078288555 0.14203338 0.009272595 -0.085845456 -0.13229798 -0.060249712 0.21575515 -0.15487222 0.08555064 0.009350496 -0.011282858 -0.33910593 -0.09674595 -0.09145273 -0.09661838 0.027112614 -0.026173089 0.029121436
635 -0.042908754 -0.40708992 -0.39326906 -0.2059504 0.025542699 0.046517808 -0.05221878 -0.13508229 0.3392088 0.16402824 0.008312821 0.08637492 -0.3105662 0.054321148 0.13910475 0.04642391 -0.07522066 0.11102942 0.0917941 0.3762909 -0.059410896 -0.0050327517 -0.06841176 0.3084727 0.014711714 0.021239024 0.03009388 0.030997511 0.22342601 -0.042553764 0.07251087 0.012587317 -0.05544721 -0.024316186 -0.12360965 0.134092 -0.21204528 0.04613468 -0.08539067 -0.064333044 -0.010528376 0.12976989 -0.17396757 -0.2212631 -0.12566237 -0.08696669 -0.18668497 0.19541144 -0.06583838 0.00066930876 0.08897947 -0.28920227 -0.046266813 -0.08335366 0.11841046 -0.17710827 0.049199723 -0.22637656 0.12466588 0.275904 0.18165958 0.10967999 -0.063503735 -0.42182177 0.034103118 -0.094070986 0.026935376 0.1406664 -0.18089774 -0.002353722 0.3454531 0.0391257 -0.42654952 0.021858353 -0.13985631 0.1146947 -0.27349383 -0.207987 0.17344603 0.028404169 0.03744727 -0.010051667 0.12743752 0.0649411 -0.062424775 0.12780029 -0.20798092 0.07868486 -0.04286435 -0.06883623 0.07088019 0.1729414 0.022519983 -0.0146342125 0.086266175 -0.16623902 0.1734281 0.019744327 0.2090858 -0.26546094 0.17452216 -0.00014430068 0.017034173 -0.27799675 -0.069393516 -0.034512073 0.41876042 -0.055750243 -0.17078541 -0.0019041565 0.07185246 -0.104825735 -0.06667337 -0.24634515 0.11330262 -0.1020983 0.31860286 -0.3783071 0.117112026 -0.5576281 -0.019594917 -0.10397453 0.17111428 0.11866559 -0.32936344 -0.14206278 0.041499075 -0.28094774
595 -0.06241875 -0.46099114 -0.34382012 -0.15291607 0.11317292 -0.011860491 -0.12603219 -0.119238585 0.21090116 0.41090432 -0.08931758 0.111717805 -0.2982846 0.108738236 0.26446962 0.01818662 -0.0070273117 0.15951285 0.022180073 0.4123205 0.0031520454 0.06306282 -0.17730555 0.3599684 0.003345588 0.04150851 0.19031884 0.07562662 0.21483393 -0.10195147 0.12397901 -0.007643152 -0.09249911 -0.15701549 -0.0967829 0.24897051 -0.016628575 0.055903357 -0.04067741 -0.031098336 -0.16587418 0.25657797 -0.057040814 -0.2609153 -0.23166916 -0.22439827 -0.03343414 0.25814506 0.020179858 0.14641207 0.31307042 -0.36715358 -0.18720323 -0.11270953 0.003960421 -0.22386095 0.2666942 -0.16513693 0.046798024 0.18467346 0.064589195 0.1428657 -0.20463243 -0.44583797 0.035656366 -0.12009519 0.03337716 -0.0012376971 0.018054135 -0.04400155 0.1149185 -0.070496835 -0.4354804 -0.042443763 -0.1614361 0.1352441 -0.23504773 -0.19523416 0.20036629 0.091465235 0.124395825 0.121020555 0.21737573 0.04357477 -0.114687964 0.06449881 -0.10588659 -0.034968946 -0.02578272 -0.16857919 0.16235998 0.28014153 0.065498896 -0.027058536 0.17224309 -0.25643742 0.028144078 0.047971025 0.23230231 -0.17874804 0.2228755 -0.016406551 -0.019810405 -0.28082854 0.06409827 -0.033087417 0.45980301 -0.06962341 -0.016383769 -0.011128506 0.080149665 -0.12333808 -0.04686632 -0.29546496 0.09535422 -0.22539234 0.27705488 -0.42788842 0.038628843 -0.6392263 -0.07495662 -0.15063271 0.14190486 0.13280493 -0.19093528 -0.15363453 0.045773484 -0.46940193
579 -0.262961 -0.052348584 -0.15415621 -0.105172135 -0.2067126 -0.0934353 0.1331797 -0.04519256 -0.3568796 -0.025321895 -0.2249957 -0.1214321 0.03159316 -0.11078078 -0.19965427 0.053928103 0.111315906 -0.18064949 -0.0522682 0.116324246 0.055370305 0.01499056 0.058041893 0.31528643 0.30268943 -0.11565635 -0.136779 0.17931624 -0.035662487 -0.15035775 0.07654517 -0.01626672 -0.06941399 -0.044027735 -0.25170198 0.006000808 -0.023695027 -0.28100795 0.2286633 -0.053304747 0.0014634735 0.16180061 -0.21195288 0.04288334 -0.020502774 0.009891153 -0.2845108 0.11718123 0.3722604 0.06257192 -0.071846075 -0.21936505 -0.25309315 -0.12396478 0.008253921 -0.11053717 0.0002263088 -0.15560217 0.08308856 0.019734787 0.006808675 -0.08140836 -0.13819505 0.074650034 -0.018757183 0.099211924 0.30304238 -0.10685507 -0.08894565 0.27047467 -0.15432918 -0.032899044 -0.16961913 0.18680993 0.16219175 0.059881534 -0.13652648 0.14199089 -0.059396733 0.19473939 0.06618564 -0.12721239 -0.17419168 -0.11659586 0.1252544 0.037376497 0.19766498 0.14467326 0.19567472 -0.078752674 0.29396755 0.08982093 -0.20799112 0.12390099 0.24363832 0.04534837 -0.12785633 -0.014952943 0.09282615 0.28029284 -0.19394797 -0.06180673 0.10495397 0.0788901 0.009093774 0.14306697 0.18590169 0.31096452 0.09093973 0.0564864 -0.10624516 -0.017627187 -0.015016759 -0.018849563 0.07837705 -0.23409915 0.2824735 -0.083817005 -0.08171381 -0.04118441 -0.0037854319 -0.032960832 0.0084514255 -0.2004582 -0.06286849 0.178739 -0.012716845 -0.032981835
395 -0.078870244 0.025680996 -0.2986795 -0.05202406 0.09045668 0.12077279 -0.113203794 -0.007075504 -0.34644267 -0.106415614 -0.099445425 -0.23098233 0.23572135 0.067165926 -0.07258302 -0.022681184 0.09112898 0.08805523 0.081848375 0.21225032 -0.23097579 0.041276082 0.33039203 0.2703841 -0.0838005 0.07900426 -0.1693442 -0.09084751 0.03602402 0.1128008 -0.14088665 -0.008342721 0.1950738 0.050133523 -0.12677716 0.07325565 -0.027566444 0.11746285 0.004417865 0.17485891 0.085509606 0.044738322 -0.27291933 -0.025609737 -0.11177033 0.31833988 -0.09943235 0.19302784 0.32443213 0.02685439 0.064887986 -0.081325196 -0.06617781 0.008530212 -0.002768252 0.1382634 -0.02846776 0.1014435 0.25233933 0.09368276 -0.05942031 0.024423294 -0.14966348 0.16274439 0.102857836 0.012768508 0.023206111 -0.13552628 -0.083741866 0.24115635 -0.18406306 0.04989859 -0.22440024 0.23245452 -0.23341084 -0.1822556 0.07103153 0.09534424 0.20978071 -0.01591987 0.051389735 0.15114671 -0.090071276 0.02543959 0.11727084 0.022379024 0.034336254 0.21672234 0.013349668 0.21829525 -0.024746794 0.16567981 0.09604648 -0.020435968 -0.012399039 -0.081625395 -0.2763878 0.046738237 0.070695646 -0.0829317 -0.07566689 0.1417435 0.0015519348 -0.052025195 -0.19088803 0.091364354 0.096689254 0.022452453 0.06292327 0.1066737 -0.115608856 -0.021641789 0.05331164 -0.051409967 -0.1542043 -0.110252365 0.04223031 -0.07953589 0.08218629 0.027026668 0.26710707 -0.01664956 0.042145155 -0.10595911 -0.100739814 -0.008832836 -0.0521127 0.025284903
561 0.15805496 0.120699696 -0.23214692 0.10801446 -0.14061345 0.20236674 -0.20898159 -0.104414456 -0.21204188 -0.08590054 -0.15607263 -0.101433426 0.12059438 -0.08298381 -0.060700655 -0.080806926 0.108038686 0.094683714 0.09354603 0.0951094 0.060050484 -0.019429885 0.203167 0.247812 0.034535285 -0.0016693468 -0.018088598 0.018685998 0.10610317 0.079573505 0.04506136 0.07049931 0.07353433 0.15649247 -0.17413032 0.00787456 -0.10963779 0.01881684 -0.06940166 0.24090514 -0.0041151294 -0.004910139 0.048643366 -0.19618547 -0.29265052 0.11502146 -0.06474978 0.19563764 0.18879199 -0.13639627 0.042915396 -0.059630185 0.0044579017 -0.018073725 -0.10750907 0.20015635 -0.112151 0.09947267 0.18087964 0.16061807 -0.1443351 -0.03555244 -0.16544342 0.07069982 -0.0679204 -0.10906329 -0.18826245 -0.059008736 0.09932358 0.31184697 -0.069617026 -0.009599469 -0.26241535 0.1840366 -0.27633366 -0.034888808 0.033056516 0.21563718 0.22743204 -0.060970962 -0.13668087 0.24586837 -0.13625807 0.062181212 0.010391965 0.09324363 -0.07312752 0.0007229762 0.098379105 0.12720649 -0.041513164 0.15213232 0.26115575 -0.070689686 -0.004960785 -0.21744984 -0.28960815 0.016052688 0.09486329 0.08756129 0.014722692 0.20149802 0.15922733 -0.12615946 -0.16819297 -0.040648032 0.1250538 0.030199576 -0.062158134 -0.20369668 0.002999124 0.027686605 0.036871444 -0.12498303 -0.17721894 -0.02303221 0.05127016 0.28199175 0.13466771 -0.030793654 0.03046164 -0.04962879 0.10818691 0.063423514 -0.19855843 -0.027097935 -0.029214634 -0.06713028
592 -0.13361293 0.027448349 0.017893009 -0.10220792 -0.21028775 0.06739201 0.1814583 0.18425299 -0.34581918 -0.02669755 -0.312469 0.08000389 0.08428557 -0.028999098 -0.2742631 0.1289069 0.048957687 0.005822885 0.017588114 0.18132739 0.21522 -0.14371012 -0.025664017 0.012933673 0.14173272 -0.116252236 -0.17063355 0.14585294 0.085325316 -0.017665775 -0.026745595 0.031805947 -0.02219674 -0.05238163 -0.21756028 -0.014572429 -0.029838847 -0.11909023 0.21179265 -0.13583203 -0.11708305 0.21892382 -0.120506614 -0.0853788 0.017936142 0.056095403 -0.17185028 0.18388285 0.24806684 0.1400667 0.10262641 -0.30490148 -0.2500632 -0.21306948 -0.119108096 -0.21115893 -0.010765553 -0.15806662 0.07405085 0.06688769 0.034154885 -0.095969066 -0.13169046 -0.15657136 0.017951071 -0.0092585655 0.18194866 -0.046634786 -0.2752575 0.18161143 -0.008644767 -0.056972805 -0.19407512 0.23844491 0.025327198 0.07016244 -0.2381014 -0.022379166 -0.13087021 -0.008037042 0.16879827 -0.18947683 -0.2079489 0.102602005 0.11418546 0.11530612 0.33292723 0.23465775 0.047170702 0.095203 0.25650537 -0.17246139 -0.0011840803 -0.069538616 0.0025709798 -0.037955448 -0.09763997 -0.099603705 0.11953533 0.29286504 -0.11542907 -0.043835506 -0.035854556 0.2286017 -0.0020596995 0.19219391 0.19482854 0.29882059 0.039840337 -0.021513637 -0.0826174 -0.023871165 -0.096457735 0.0018527037 0.16434768 -0.02339107 0.11991323 -0.0525217 0.16223638 0.15291896 0.14500734 -0.17156255 -0.008102273 -0.1849487 -0.09509357 0.07296809 -0.042493775 -0.026251806
378 -0.010497408 -0.090531565 -0.20977597 0.06313039 -0.12947373 0.13380611 -0.10501093 0.05149943 -0.21413203 -0.14951342 -0.13531779 -0.1297603 0.037432272 -0.056769166 -0.0062522395 -0.007897089 0.19455573 0.036648806 0.21397848 0.16467147 -0.111715406 0.016466971 0.19210944 0.31067935 -0.059119076 0.05993222 -0.048264794 -0.056720447 -0.08583495 -0.063898295 -0.02854748 0.16950555 0.0787686 0.10996275 -0.09022234 0.11526199 -0.13532355 0.115061805 -0.09568991 0.13087921 0.057372667 0.012575901 -0.141348 -0.19835955 -0.14975314 0.21353255 -0.065300606 0.08571279 0.1479209 -0.16769154 -0.03972606 -0.05925627 -0.03824795 0.08107573 -0.13339214 0.10416835 -0.25645995 0.01733041 0.2007651 0.075406596 -0.07820423 0.06564058 -0.15586716 0.071720146 0.069808476 -0.106254295 -0.15117617 -0.07013958 0.06002751 0.25588012 -0.074295335 0.046223626 -0.22297657 0.20828682 -0.21241464 -0.17625487 0.091833256 0.17629045 0.27086982 -0.086435944 -0.054972757 0.19087127 -0.10288098 0.10121956 0.020147946 0.17647953 0.02488748 0.22230318 0.08909156 0.12641199 0.00974244 0.12781845 0.15229428 -0.05603286 -0.14136091 -0.26617295 -0.20260511 0.03817282 0.07715535 0.022380432 0.07308151 0.17548656 0.24374294 -0.23618565 -0.20574978 0.19676858 0.107827194 -0.16670631 -0.032593165 -0.09866124 -0.16371973 0.07858994 -0.013120292 -0.07332361 -0.115397654 0.022159897 0.080356576 0.15253411 0.11720582 0.023262499 0.14419459 -0.16952153 0.063281246 -0.054842357 -0.29973638 -0.12067703 -0.16636148 -0.054522023
374 -0.027069615 0.100595854 -0.26045877 -0.104816 -0.13836384 0.32785314 -0.20006646 -0.07119013 -0.24686018 -0.093125015 0.004138909 -0.15390769 0.071980126 0.093814224 -0.05323553 -0.07896956 0.16977812 0.0014000267 0.11445094 0.23743007 -0.06550108 0.0044946573 0.2799984 0.2746532 0.016528217 0.012396652 -0.10475531 -0.027435234 -0.03062282 0.09673811 -0.0928724 0.17155294 0.113031134 0.026018342 -0.028167997 0.16775614 -0.14949632 0.27765697 -0.045216195 0.13180593 0.018543247 -0.012015497 -0.10785307 -0.20765735 -0.11272279 0.2087524 -0.008920755 0.35203746 0.1418218 -0.07908964 0.026769942 -0.063962035 -0.010249234 0.0700662 -0.12906986 -0.026448369 -0.11505212 -0.014477925 0.1963116 0.23145364 0.090169914 -0.09483928 -0.09455498 -0.09166727 -0.1711632 -0.051247127 -0.16502538 -0.01983602 0.15456723 0.1648342 -0.01206833 0.0019555052 -0.101459414 0.20073308 -0.23713638 -0.09215888 0.13862838 0.1611337 0.30270487 -0.10869863 -0.06751592 0.18464638 -0.041318282 0.093817316 0.07486147 0.11869606 0.07869211 0.16260529 -0.0017429333 0.12801352 0.044126026 0.11903787 0.30419978 0.042422593 0.009996042 -0.19917911 -0.2993234 0.044157606 0.14486319 -0.06167422 0.03348015 0.11213499 0.18973629 -0.07024572 -0.21178833 0.101790465 0.18503793 -0.12396965 -0.08938606 0.0576009 -0.10809014 0.051940273 0.07251905 -0.15988897 -0.13512607 0.073858105 0.09560185 0.24498999 0.091067314 0.08380114 0.17748046 -0.01733901 0.124558814 -0.05650092 -0.14668278 -0.0996696 -0.044283014 -0.021863472
609 -0.08224379 -7.507102e-05 -0.050886262 -0.076080084 -0.26325536 0.1750393 0.08277526 0.12331492 -0.29893592 0.035753585 -0.25900674 -0.040972516 0.11391717 -0.099383906 -0.20509404 -0.06435068 0.022237973 0.1684402 0.009924032 0.051794004 0.1347666 0.11830222 -0.08888042 0.3229866 0.04630141 0.028343014 -0.004271348 0.12218027 0.15085176 -0.07862335 0.05856504 -0.04799202 0.1352636 0.055972405 -0.11901507 0.18924358 -0.02998005 -0.04857092 0.043438878 0.04302994 0.030413533 0.09660135 0.039530054 0.014280444 -0.01796371 -0.060851924 -0.20842856 0.17985208 0.19244649 0.12537478 0.021303203 -0.18858345 -0.22767355 -0.037978698 -0.120976575 -0.17517038 -0.016270023 -0.044444256 0.11937202 0.06344103 -0.052803654 0.13001521 -0.10003587 0.22033922 0.0049945735 0.04324011 -0.013543187 -0.03954587 0.1288004 0.23345329 -0.07420373 -0.18716452 -0.081447445 0.30036366 -0.055187568 -0.26675507 -0.13459812 0.14027807 -0.15763974 0.06657947 0.009493335 -0.07673473 -0.22183852 -0.02221494 0.09377759 0.09544142 0.23030426 0.24593797 0.11050313 0.24204859 0.055937253 -0.0236026 0.12459077 0.012301812 0.15517515 0.01571295 -0.2710854 -0.20092316 -0.0004814856 0.39487258 -0.03555903 -0.057902806 -0.04521527 -0.13911332 -0.08559452 -0.011032045 0.0839845 0.083877936 0.039953675 -0.19305366 -0.044540778 -0.028059598 0.017752532 0.04482069 -0.051629312 -0.115717635 0.06332881 0.122252665 0.1662229 0.0024273803 -0.018466242 0.044138476 0.076637976 -0.26969272 -0.0644427 0.20073459 0.17280747 -0.071823604
544 0.008536862 -0.07448719 -0.28033817 -0.055554777 -0.002088462 0.189606 -0.17399321 -0.013611642 -0.15059571 0.0042550885 -0.10433984 -0.11148987 0.12076468 0.082492344 0.004542223 -0.0762246 0.10285804 0.023618665 0.091611534 0.14539266 -0.045025706 0.08343686 0.18051028 0.2971629 0.14082016 0.082430966 -0.09546898 0.06824001 0.10461777 0.12150679 -0.02455669 0.08150043 0.1445409 0.13336949 -0.10627146 0.017912569 -0.20588554 0.114409864 0.14473836 0.049718577 -0.005764363 -0.06401894 0.020322042 -0.13002346 -0.20168053 0.14657208 0.017855534 0.16559538 0.15983161 -0.1825673 0.02687501 -0.123461284 0.0018541559 0.052716583 -0.0013546017 0.1225751 -0.07894925 0.18570505 0.18776132 0.08338177 -0.07522736 0.0007059834 -0.11681454 0.13270505 0.007425117 -0.14737837 -0.1204445 0.00935352 0.1412769 0.2363873 -0.054651145 0.08975321 0.008660924 0.22899956 -0.24807522 -0.19703221 -0.018213881 0.14920446 0.3133141 -0.09644305 -0.120858304 0.19703865 0.027175548 0.13560987 0.1055916 0.11204625 0.06445878 0.029437225 0.016394204 0.26563606 0.046870865 0.1520643 0.2156989 0.033872575 0.10806068 -0.13191038 -0.3131266 -0.025718551 0.04379612 0.061144445 -0.1183171 0.04590626 0.12996587 -0.16571485 -0.23024885 0.14375117 0.10756615 0.08121375 -0.15108767 -0.1470589 -0.18358395 0.041920744 0.0050535053 -0.18018563 -0.18371508 0.054627594 0.17294076 0.2267827 0.12793401 0.042694394 0.065935045 0.051877476 0.07223065 -0.16944008 -0.20645957 -0.021299897 0.08116303 0.010064893
581 -0.104458906 -0.5543353 -0.52907753 0.51561576 -0.40144834 0.5173372 -0.29346263 -0.05805902 -0.105521746 0.266803 -1.3629595 -0.06947909 -0.6283376 -0.2725148 0.08357476 -0.25141487 -0.0900304 0.15962872 0.31812602 1.0270035 -0.31601238 -0.6432306 -0.60320413 0.24039872 0.21051095 0.30620462 -0.8848626 0.42068195 -0.44030645 0.09463866 0.10818652 -0.51882374 -0.5274311 -0.019368518 -0.8214076 -0.25930268 -0.11210664 -0.14455624 0.81708896 -0.37784815 -0.4985078 1.2174963 -0.51878506 -1.0858784 -0.020614404 0.14781903 -0.791606 1.2365787 0.16688325 -0.31785136 -0.015918981 -1.1365125 -1.3006903 -0.49941954 -0.100190386 -0.24175623 0.02303294 -0.20929109 0.03457646 1.0351397 -0.013821822 -0.73591197 -0.8771598 -1.0866575 0.35940176 -0.5037714 -0.5090407 0.0716238 0.8665504 0.73732346 0.5927473 0.12521744 -0.9992117 0.2209515 -0.2271015 0.2117684 0.21985556 -0.21583919 0.88747233 0.41855714 0.8906118 0.55948186 -0.44401407 -0.20941713 0.14580423 0.64399904 0.7022352 0.37961847 0.8391026 -0.22874278 -0.42556003 -0.05229395 -0.91109705 -0.26521224 0.37253886 -0.25789148 -0.6571643 -0.57112724 -0.33123073 0.10417002 0.27671108 0.6281597 0.47075802 0.39871874 -0.5122822 0.23660663 0.3606273 0.38693234 0.074156575 -0.32496342 0.24932142 0.18489315 0.30840468 -1.2034881 -0.2518779 -1.0090362 1.1390142 -0.34530273 0.5877122 -1.2219206 0.50156856 -0.16756746 -0.2433685 -0.8631687 -0.04857333 0.24492794 0.7476665 -0.37710267
642 -0.08074228 -0.57232416 -0.62928206 0.42595044 -0.4369662 0.51938945 -0.26624086 -0.025454396 -0.20695272 0.36984357 -1.3884447 -0.12050767 -0.6758317 -0.1651483 0.0908332 -0.25695822 -0.040928144 0.18995701 0.4139831 0.9959425 -0.27649868 -0.6065156 -0.5690085 0.19957848 0.21388644 0.3358012 -0.89788634 0.38471943 -0.5091506 0.18677066 0.12502559 -0.49587268 -0.6030939 -0.121901035 -0.84845954 -0.28528228 -0.15781817 -0.23263432 0.7802515 -0.41000268 -0.45115876 1.2077787 -0.4301248 -1.0892885 0.025894262 0.16922036 -0.8934877 1.2623767 0.17728567 -0.25197065 -0.0040199053 -1.1067107 -1.300089 -0.50401425 -0.067306414 -0.27432907 -0.044794362 -0.2771617 0.15624271 1.0697523 -0.060496416 -0.7591118 -0.92587495 -1.0113515 0.27669004 -0.5421571 -0.45963708 0.12415677 0.8658573 0.72452533 0.63270795 0.029066812 -1.0413549 0.17104785 -0.20365492 0.23406197 0.24155648 -0.17890139 0.8989485 0.5076226 0.8722885 0.48667306 -0.37038735 -0.14575276 0.23178287 0.6116513 0.7095102 0.36576465 0.8420226 -0.3250036 -0.46874666 -0.11066206 -0.8901056 -0.2814922 0.32226846 -0.24729435 -0.67410254 -0.5413378 -0.2875705 0.19146717 0.1982024 0.64959097 0.460977 0.29582384 -0.5071631 0.16286243 0.252212 0.32693598 0.094892785 -0.3275587 0.20400855 0.20868678 0.38319236 -1.2208675 -0.28637424 -0.9973105 1.06524 -0.3539779 0.55773485 -1.1886697 0.5435772 -0.06356815 -0.22015901 -0.87589264 -0.11670881 0.16602752 0.68493974 -0.29270834
515 -0.0016556628 0.10447152 -0.06733266 0.08707717 0.021233764 0.2409785 -0.34111696 -0.03518217 -0.24161178 -0.10889737 -0.048248712 -0.047393456 0.16472884 0.009357118 -0.010484135 -0.077318095 0.18979432 -0.04691694 0.14832018 0.10085619 -0.057179254 0.08020732 0.1657478 0.27469698 0.0018801123 -0.07167494 -0.01236514 0.01780562 0.00313675 0.11847213 0.0013432159 0.060300186 0.097429514 0.3009161 -0.14891379 0.12536766 -0.22948591 0.029635731 0.14659332 0.18757035 -0.10472778 0.12741841 0.10550437 -0.20907794 -0.19198173 0.21483617 0.03384298 0.3525228 0.21270686 -0.024700548 0.24361037 -0.1724019 -0.14454444 0.031144017 -0.09410955 0.015238534 -0.035688538 0.14463127 0.1880072 0.13554528 -0.101584174 -0.039802562 -0.060716078 0.19635433 -0.060197882 -0.1329098 -0.10735331 -0.106068484 -0.020255415 0.12083588 -0.15414795 -0.055224814 -0.017774062 0.20060277 -0.28353643 -0.13820861 0.020262565 0.19237149 0.17117767 -0.06641265 -0.15913543 0.04757842 -0.15914652 0.17354114 0.20176223 -0.055680074 0.10033817 0.121828504 0.059161667 0.13374592 -0.07269361 0.1578192 0.17442505 -0.11619905 -0.14137042 -0.28504887 -0.15704402 -0.024154587 -0.006063162 0.0070451098 -0.20018116 0.13695614 -0.043596562 -0.22576043 -0.15192874 0.16119125 0.04940833 0.06848972 -0.06176576 0.015987186 -0.26254314 0.12042574 0.08581997 -0.15246436 -0.0730588 -0.084295 0.25403872 0.22506209 0.16477394 0.038018495 0.14277373 0.017856423 -0.0035277854 -0.1734006 -0.21248677 0.010817906 -0.07794914 0.012108613
506 -0.05151814 -0.15197594 -0.11075014 -0.15139492 -0.20310354 0.24845423 -0.13885449 -0.10227401 -0.22798806 -0.13491169 0.13324499 -0.27550498 0.049326602 -0.020435216 0.08006803 -0.25175935 0.1984345 0.025972677 0.17650308 0.13374482 -0.14649525 0.06716145 0.13430862 0.25300255 0.05238436 -0.041857176 -0.18593445 -0.0029996154 -0.040114596 -0.03995705 0.012226308 0.05281129 0.096482225 0.17467086 -0.030791163 0.10350279 -0.12609625 0.09912659 -0.06327873 0.16368547 -0.013768073 -0.049006768 -0.114816375 -0.11483393 -0.06340307 0.050763693 -0.12933247 0.2439309 0.21240011 -0.05296659 0.22332825 -0.16942233 -0.111891285 0.11408136 -0.19533543 -0.035054814 -0.08976831 0.09901285 0.18622878 0.15350518 -0.00088431843 -0.06041905 -0.27000794 0.04527383 0.001600943 -0.03963973 -0.17344186 -0.034062706 0.044439465 0.2871661 -0.13524744 0.016344618 -0.19931097 0.19064625 -0.16347076 -0.1843567 0.10186306 0.20080215 0.26253834 -0.16340779 -0.19308256 0.20815934 -0.10686949 0.15878583 0.0154392505 0.038998898 0.016173765 0.25364122 0.023378154 0.16023915 -0.08685914 0.018709762 0.27881506 -0.08495131 -0.15892798 -0.13731271 -0.29602212 -0.03651454 0.09956465 -0.014935781 0.09308276 0.04671566 0.18145978 -0.108090505 -0.07952611 0.115379855 0.17868437 -0.124390215 -0.07632984 -0.10975392 -0.14540266 0.046328895 0.011208063 -0.12366522 -0.14667845 0.09554236 -0.045469426 0.27126423 0.18962571 0.03671069 0.1708424 0.013585181 -0.010146955 -0.1188751 -0.28568077 -0.18469378 -0.077613235 0.011741149
465 0.108965136 -0.04457175 -0.28821614 -0.066606626 0.049333334 0.248868 -0.15239029 -0.1697688 -0.31200823 -0.20805326 -0.12811588 -0.06313232 0.17204393 0.04020284 0.03525563 -0.12413764 0.27406302 0.017675985 0.11909563 0.21248432 -0.050636828 0.049283266 0.22123608 0.22589828 0.028994288 0.02482625 -0.14722449 -0.026752664 -0.09155888 0.05398543 -0.06622197 0.094469346 0.092524536 0.1941903 -0.17572369 0.018503206 -0.22135621 0.023648582 0.054208733 0.18243808 -0.10418338 -0.0081853755 -0.045888707 -0.15246883 -0.1441408 0.20318776 0.06729834 0.114839464 0.069044605 -0.037521485 0.02848725 -0.08286932 0.079852626 0.079388246 -0.18664685 0.15631987 -0.043926258 0.116039336 0.3143927 0.24351831 0.03673503 0.065169804 -0.1715065 0.18127038 0.003998755 -0.02755797 -0.028083812 -0.123096846 0.0058662132 0.2749151 -0.048480283 0.108862355 -0.060099322 0.16554831 -0.09986035 -0.123655476 0.123356655 0.18375973 0.18120188 -0.17060608 -0.14083935 0.17005102 0.080360495 -0.015773369 0.013084744 0.203 0.00066360837 0.07584103 0.05971462 0.13098715 -0.068301104 0.12308446 0.17135541 0.01609514 0.07480676 -0.09397522 -0.211333 -0.111503296 0.08539446 -0.013009115 -0.04708752 0.1588983 0.21979594 -0.17743246 -0.13450181 0.178501 0.1243702 0.0413113 -0.030130122 -0.16615483 -0.17061548 0.014404962 0.09533567 -0.22214459 -0.08504289 -0.03478659 0.26004413 0.27477285 0.1325345 0.114971176 0.023169635 0.1117221 -0.026866581 -0.036770523 -0.29086027 0.08132528 0.08206909 -0.05291531
391 0.04392038 -0.0015304636 -0.1210418 0.014685226 -0.022576196 0.19619079 -0.05292494 0.10059094 -0.29973274 -0.18432176 -0.118865564 -0.1823024 0.16975799 -0.0036712075 -0.04115351 -0.02116984 0.0695029 0.12303777 0.18275866 0.22381678 0.026290419 0.071819596 0.10541704 0.30749243 0.032533586 0.046689793 -0.0868152 0.043564316 0.017594483 -0.01165803 -0.16217618 0.12639481 0.16258845 -0.017328959 -0.080189355 0.15635698 -0.09891661 0.17922543 0.08455637 0.019146869 -0.01647985 0.019283917 -0.09218683 -0.21247272 -0.23412177 0.24611934 0.016337551 0.21547103 0.1083975 -0.080804735 0.10606812 -0.005835207 -0.017132998 0.04665632 -0.13998431 0.1680734 -0.08674402 0.021071875 0.1580059 0.030532248 0.032154065 0.048954293 -0.084623806 0.1489879 0.12858704 -0.055403017 -0.20663741 -0.031851076 0.16191655 0.13850398 -0.044532932 0.041557424 -0.12611881 0.23136932 -0.26832148 -0.09656123 0.07173603 0.18777141 0.24564868 -0.107103065 -0.10270187 0.22702992 -0.013189904 0.025246028 -0.003505359 0.11525983 -0.016541246 0.15812902 0.024169171 0.18123771 0.02767261 0.09796655 0.19531983 -0.08945311 -0.09348019 -0.29595724 -0.35919622 -0.04044059 0.10437018 -0.044174362 0.08577681 -0.0038281674 0.15066609 -0.26934382 -0.098453306 0.17896675 0.09877433 -0.11789877 -0.079959966 -0.10790547 -0.13408445 -0.0015728979 0.079526916 -0.13206865 -0.054370396 -0.05065972 0.04420018 0.15043226 0.12048485 0.024316303 0.09761464 -0.03322882 0.018802451 -0.18711537 -0.29483938 0.061935455 -0.14084345 -0.08301367
604 0.1692631 -0.04651095 -0.11130231 -0.07297073 0.008494585 0.06327001 0.12562492 0.021485992 -0.33620533 -0.07912106 -0.004387369 -0.1020476 -0.0051628314 -0.14394286 -0.00053096213 -0.13183038 0.17515785 -0.11046707 0.16068286 0.225564 0.005146527 0.17114444 0.085508056 0.33645517 0.008833607 -0.014186308 -0.07672635 0.11270352 0.23580672 -0.035375286 -0.10892318 0.009787607 -0.0006582617 0.0580579 -0.1820603 0.2744612 -0.14887844 0.049625646 0.056257322 0.14465722 -0.009931044 0.014686725 -0.11204147 -0.09055229 -0.27502498 0.1360356 -0.1778215 0.13091847 0.19818847 -0.3254833 0.06532216 -0.13861585 0.017595079 0.17335382 -0.029278884 0.09949901 -0.019535394 0.020217342 0.100592926 0.1607715 -0.1965032 0.22231333 -0.1330852 0.07672946 0.049299084 -0.066775426 -0.067460276 -0.076761074 0.121902 0.124804735 0.015386437 -0.12893078 -0.09913683 0.22036625 -0.16658856 -0.17809342 0.114047244 0.048392497 0.21782942 -0.046549723 -0.22683942 0.22739016 -0.14878522 0.09671503 0.059949458 0.17215379 -0.024847172 0.24646138 0.12765233 0.044673942 -0.12845318 0.18345246 0.30955708 -0.037395623 -0.057097506 -0.11292973 -0.2464119 -0.10829063 0.17273055 -0.25426242 -0.024519252 0.20020424 -0.01883139 -0.053569134 -0.19164285 0.07430748 0.15391405 -0.091750965 0.037745364 -0.16064925 -0.1768264 0.045493618 -0.005093807 -0.12552424 -0.107480064 -0.027464254 0.08579262 0.29083887 0.039032973 0.0031018604 0.16187654 0.07683634 -0.010066397 0.09253468 -0.1666867 0.07233869 -0.07811478 -0.00323747
500 0.09590762 0.055436455 -0.11301044 -0.071320325 -0.057839084 0.09608245 -0.16288443 0.027135672 -0.31397852 -0.12582883 -0.20225118 -0.0591021 0.1622475 0.17413773 0.07311394 -0.24795811 0.12865198 0.049613573 0.09075911 0.24243306 -0.068641834 0.0471276 0.07779202 0.39099917 0.0052777426 -0.01393367 0.12720276 0.06881202 0.009265272 0.17561339 0.05273043 0.043954946 0.21078204 0.15284517 -0.20619972 0.0030398287 -0.122806855 0.036382824 -0.056823842 0.074657746 -0.045554597 0.09629818 0.09560577 -0.2355809 -0.109090105 0.1320156 0.17161934 0.084423445 0.15957268 0.042621035 0.076904856 -0.17371652 -0.07950977 0.08407508 -0.090837084 0.35206127 0.05215195 0.046091657 0.21005195 0.15479471 0.0004918075 0.037909456 -0.12011999 0.16786708 0.070576616 -0.017018924 -0.15032376 -0.023241794 0.1406611 0.052306972 0.11845106 -0.20578642 -0.12701812 0.11753307 -0.053879444 -0.16057435 0.041535873 0.137676 0.04874029 -0.05183931 -0.14043988 0.13386792 -0.1915458 -0.06929385 0.0083505865 0.06288051 0.12093268 0.13514528 -0.12108642 0.19534577 0.024316741 0.107392035 0.08194641 -0.115714744 0.06437015 -0.159446 -0.26537544 0.03988745 0.26236653 0.121244185 0.069700904 0.19357139 0.0795172 -0.17339559 -0.18263862 0.15587972 0.017792992 -0.05080724 0.018914508 -0.22137892 -0.1998131 0.046640594 0.068993844 -0.15093337 0.070524044 0.035036936 0.15838967 0.21463338 0.150953 -0.00033629 0.059046198 0.02729534 -0.03015281 -0.13391046 -0.31722617 -0.15245445 -0.06520648 -0.123504885
651 0.070691705 -0.1433766 -0.100157015 -0.049774386 -0.09398213 0.36382934 -0.07845397 -0.17592297 -0.30687928 -0.11134284 -0.056319274 -0.18629776 0.11737147 -0.16233307 -0.08032218 -0.12671931 0.22523797 0.04426704 0.1294458 0.16764173 -0.14953333 0.05620044 0.12550434 0.27225283 -0.0045655053 -0.044919785 -0.16753826 -0.023079418 -0.08290238 0.07670253 0.04635747 0.025310267 0.12749846 0.04547102 -0.11278994 0.067130156 -0.17579475 0.020051436 0.05075227 0.18883362 -0.016808046 -0.025563555 -0.01483934 -0.27922437 -0.1149202 0.24369037 0.056513328 0.32482326 0.04711668 -0.24484362 0.08725539 -0.2405588 0.023933949 0.041192498 -0.016690267 0.089387275 -0.07487634 0.11087342 0.15174662 0.2016112 -0.08174264 0.18438286 -0.06082807 0.21848933 0.09219194 -0.047826633 -0.17348365 -0.05457356 0.08936733 0.08211191 -0.081762366 0.042706747 -0.05808614 0.23231906 -0.1793453 -0.22734246 -0.0028429616 0.1552106 0.19531932 -0.048960883 -0.12461467 0.19191332 -0.03651034 0.1794154 -0.09891497 0.1820944 0.11247977 0.0918667 0.013437318 0.22210728 -0.05000497 0.10740395 0.17409684 -0.11689889 -0.19749013 -0.16406982 -0.19668426 0.06323345 0.0012904074 0.028742623 0.021272933 0.19153468 -0.014243352 -0.082994826 -0.19357498 0.15394753 0.126027 0.0051061823 0.01974321 -0.24704158 -0.06553764 -0.09905697 -0.013957476 -0.19231138 -0.0577728 0.06238221 0.022785947 0.036605876 0.063721284 -0.17280875 0.21152346 0.025733363 -0.10854426 0.07919606 -0.3698765 -0.26619294 -0.1196013 -0.20938314
661 -0.026140714 -0.40912303 -0.33329073 -0.058423 0.062087506 -0.035851117 -0.1707778 -0.13307859 0.33251393 0.40188557 -0.04284848 0.19543056 -0.26015967 0.049034487 0.1870698 -0.060923014 -0.069807746 0.12464457 0.042496398 0.32814184 -0.041727666 0.11663948 -0.20062351 0.25942758 0.16351745 0.037983526 0.109868035 0.10144183 0.18995932 0.035153076 0.155373 0.0022818558 -0.012781094 -0.09422663 -0.051717263 0.083763614 -0.27197596 0.08138591 0.021452127 -0.049345233 -0.09525448 0.063212655 -0.023284517 -0.21916118 -0.21751402 -0.19615309 -0.12543479 0.26577345 -0.09102161 -0.0118290335 0.28127286 -0.2959641 -0.17941561 -0.078193076 -0.035312645 -0.079279914 0.17005552 -0.18450391 0.06107641 0.25526324 0.10062872 0.05657525 -0.019259017 -0.41041625 0.14260772 -0.09818839 0.0848817 -0.04390265 -0.003846489 -0.11727718 0.20053056 0.08123839 -0.46114913 0.12916036 -0.13065398 0.13670655 -0.51293355 -0.17026755 0.37716708 -0.080455504 0.062666394 0.090361476 0.17169148 0.19222595 -0.0979847 0.0013343878 -0.1207054 0.030565973 -0.13770188 -0.0643203 0.05931606 0.2304617 0.024861975 -0.11669054 0.2636503 -0.29691502 0.111169666 -0.0054187933 0.19235198 -0.15655406 0.08048919 0.06479592 -0.10252091 -0.24604744 -0.04306216 0.16639929 0.45978776 -0.1530209 -0.11062148 -0.054907046 0.13016316 -0.25854766 -0.0727108 -0.26101074 0.08809734 -0.23080312 0.28041345 -0.32856232 0.14256631 -0.41529515 -0.05687169 -0.11593763 0.17871535 0.12337898 -0.2825513 -0.017099079 0.026777925 -0.24341393
576 0.040563006 -0.18566673 -0.44837135 -0.22326876 0.11471134 -0.037628535 -0.031361416 -0.14756009 0.2481212 0.22819142 -0.02467425 0.0968954 -0.31061292 0.13760635 0.16212238 -0.06712289 -0.057136673 0.031215841 0.021058777 0.39165583 -0.13352181 0.15965272 -0.051429655 0.33914873 0.009260187 -0.040519267 0.27196547 0.009253227 0.098246455 0.081021264 0.07216545 0.13419296 0.015566165 0.034814093 -0.023677398 0.004862707 -0.11786114 0.074902795 -0.08547754 -0.22453727 -0.10930013 0.13300031 -0.054015536 -0.22311892 -0.1375392 -0.19282001 -0.09446034 0.3624024 -0.014312059 0.053560417 0.26877716 -0.260767 -0.009716796 -0.117770575 -0.021749495 0.037839424 0.27250946 -0.04918519 0.20348774 0.21970162 0.15066287 0.117661595 -0.08801878 -0.4955196 -0.007077423 -0.058653995 0.15688182 0.07496991 0.008802409 -0.02957564 0.1834704 0.15943518 -0.48415926 0.11987332 -0.1480104 0.07387372 -0.2527763 -0.19236533 0.2114043 -0.0253062 0.009069948 0.06354839 0.31013593 0.13123488 -0.09397172 0.051427756 -0.047826912 -0.15019171 -0.17723605 -0.19477135 0.25922555 0.0854115 0.038758256 0.0075865453 0.21167104 -0.11010959 0.0038643887 0.025976866 0.37470403 -0.2931303 0.19298658 0.08818637 0.052859586 -0.37858254 -0.03263756 -0.062320758 0.43375427 -0.065574236 -0.10130124 0.13040043 0.061653677 -0.14483996 -0.018363226 -0.24911612 0.115130775 -0.1311683 0.44305792 -0.29849115 0.1428913 -0.50616163 -0.07526722 -0.19065127 0.12935068 0.044321984 -0.2064816 -0.09469823 0.06937532 -0.29042614
669 0.071991906 -0.015981123 -0.093284026 0.0037839501 -0.17488234 0.1874033 -0.16054681 0.010725999 -0.1701159 0.19235756 0.025902968 -0.20641674 0.053911578 -0.061969377 0.034318686 -0.2605117 0.33783785 0.009087985 0.23801555 0.11738162 0.043791063 -0.026938252 0.14158165 0.31244755 -0.054815624 -0.0746781 -0.13508129 0.06667709 0.04212659 0.078092925 -0.06254813 0.0038532838 0.046091452 0.082486175 -0.076156825 0.05230092 -0.09588576 0.010257183 -0.015920224 0.0155287795 0.115527116 0.032272667 -0.058052883 0.02913403 -0.1590929 0.20732777 -0.10422529 0.06422032 0.18914782 -0.24481992 0.1266427 -0.27426198 -0.013727048 0.067604 -0.29891455 -0.12615205 -0.04312862 0.040786047 0.24965627 0.19529682 -0.13724868 0.10276702 -0.09917834 0.00029583715 0.04069394 -0.053601544 -0.03016053 -0.036541335 0.054865733 0.18678065 -0.0508425 -0.038411587 -0.12923478 0.2548886 -0.2661228 -0.22627164 0.10960033 0.25911942 0.30705512 -0.1261201 -0.10876467 0.31373906 -0.07291299 0.14820616 0.04577425 0.20065601 0.09881735 0.23955034 -0.056626294 0.26082945 -0.12780586 0.17340666 0.17693387 -0.051270448 -0.12589286 -0.17955439 -0.27194044 -0.064079456 0.103757024 -0.0830746 -0.0012369128 0.29324636 0.16785362 -0.22309682 -0.09802665 0.09650214 0.07542558 -0.07093801 0.0009898823 -0.1505135 -0.09833316 -0.053513788 0.04468274 -0.14511639 -0.20581803 0.09425852 0.01308181 0.30606002 -0.016354151 0.02655765 0.05945045 0.003925599 0.089836866 -0.09705545 -0.2363864 -0.12632306 0.007895664 -0.081406176
422 0.049258146 -0.14567043 -0.117357045 -0.070521615 -0.15288256 0.10927529 -0.040515825 0.040815737 -0.2970328 0.18052499 -0.21184999 -0.059828766 0.23800367 0.035082567 -0.38984916 -0.042130493 0.19123279 0.056316324 -0.018780611 0.3139082 0.078306384 0.11300422 0.05354918 0.15085709 0.11560546 -0.15065472 -0.20972855 -0.097800575 0.015339692 -0.03333678 -0.17364602 0.03514295 0.13747407 -0.010331533 -0.39675272 -0.06936294 0.039086442 -0.08694511 0.073683426 0.11135249 -0.1240752 0.033226762 -0.13400948 -0.16841201 -0.01371631 0.17372939 0.04826908 0.06960157 0.13074307 0.15411156 -0.099919155 0.042207383 -0.15351154 0.024913901 -0.26789293 -0.23491846 -0.0904239 -0.063886486 -0.09812582 0.0848206 -0.23856464 0.19970885 -0.13396958 0.20292431 0.119672135 0.14912052 0.08576956 -0.033681694 -0.09421552 0.17593274 -0.010418349 -0.08724655 -0.19666702 0.12653938 0.046644215 -0.12786353 -0.17288987 -0.072086684 -0.14219607 -0.0717304 -0.013540957 -0.030208627 -0.19524942 -0.08379878 0.061290637 0.06864493 0.30057496 0.37888765 -0.12124854 0.16898139 0.21778403 0.14139 0.016394636 -0.006705872 -0.0057179485 -0.1070335 -0.24160351 -0.2856713 -0.14777355 0.07918034 0.04311486 0.114786945 -0.06810739 0.002315328 -0.0020718167 -0.02948476 0.058542714 0.13820143 0.043021042 -0.09162823 -0.1478698 0.17328113 0.21158439 -0.09026709 -0.0022208577 -0.027832314 0.24172892 0.24394907 0.032895785 0.04772355 -0.047680773 -0.07495264 -0.16452225 -0.20281053 -0.00031860656 0.0058537754 0.08932457 -0.0061921435
107 0.0041895923 0.07293313 -0.0032959518 0.079339445 -0.020184 0.26962665 -0.09897301 0.058187008 -0.2514266 -0.0508445 -0.10298142 0.020757005 0.03627782 0.15711612 0.2514924 -0.11908146 0.122127384 0.10714506 0.099662825 0.1766093 0.103976384 0.057887435 0.085045345 0.306016 -0.0674276 0.057453938 0.04985656 -0.11942128 0.11111755 0.08374232 0.009678436 0.03439487 0.28093356 0.303895 -0.38447294 -0.04771707 0.1002334 -0.050538596 0.054652724 0.29313985 -0.19265199 0.03015864 0.29529124 -0.12527886 -0.04851904 0.080403 -0.030982837 0.16362709 0.0692763 0.07874771 0.19497246 -0.058870763 0.0021974167 -0.01685178 -0.0004696546 0.2569394 -0.087433584 0.06388093 -0.0353121 0.21790715 -0.07075094 0.03482426 -0.04193906 0.3215348 0.06474882 -0.017665276 0.054747198 -0.04462018 0.109493636 0.3059496 0.2149316 -0.055780537 -0.22606891 0.08363764 -0.02345275 -0.25226164 0.09999783 0.0104471855 0.081149384 0.035777144 -0.26933426 -0.017144863 0.124756284 0.15600383 0.119931675 -0.1354269 0.21455573 0.34788615 0.045983132 0.22451434 -0.14492588 0.0152475005 0.08544917 0.24415143 0.18333577 -0.013509806 -0.3083121 0.07363959 -0.23378262 0.22001855 0.14844504 0.23855154 0.20369323 -0.18683133 0.10385503 0.18687369 0.11672795 -0.19520046 -0.11340295 -0.23913226 -0.14657946 -0.013822654 0.08346693 -0.08109691 -0.010131492 -0.22952163 0.20226568 0.17874178 0.39943504 0.027105425 -0.09834636 -0.115042694 0.15943584 -0.14685354 -0.37921914 0.055075053 -0.029221917 -0.043630894
637 0.106884435 -0.27386183 -0.2420976 0.0033517384 -0.17589708 0.43246442 -0.25285733 -0.12576221 -0.38691726 -0.067579776 -0.14968164 -0.18581836 0.09419501 -0.041615535 0.14442225 0.08784619 0.115055144 0.13381043 0.11046441 0.42875567 0.120300755 -0.05418982 0.21796642 0.102547765 0.02100653 0.013555287 -0.054228887 -0.07919725 0.10090634 0.09553424 -0.03760367 -0.13292827 0.26042703 0.089968875 -0.2570034 -0.030525526 -0.0017472246 -0.059108783 0.108875796 0.09638831 -0.14249587 0.2266048 0.15066971 -0.30411926 -0.08659015 0.17788024 0.2752862 0.1164582 0.06850497 -0.007927399 -0.011632418 -0.06063347 0.019023139 -0.022586817 -0.113598354 -0.16027208 -0.09971964 0.01791277 0.10018668 0.0057434007 -0.187563 0.12702715 -0.16129093 -0.07876436 0.20235288 -0.031837016 -0.15546128 -0.011834543 -0.07070583 0.17262764 -0.010202074 0.09230283 -0.07406027 0.21193726 -0.29267898 0.06529655 0.078335956 0.2893863 0.032701604 -0.10665805 -0.21927452 0.21663149 -0.14894386 0.09242116 0.1406921 0.037364658 -0.006353748 -0.014058601 -0.084793836 0.17019616 0.027121708 -0.0029761645 0.1480705 0.014033434 -0.047819115 0.07876422 -0.264802 -0.13084172 -0.004033618 0.14242466 -0.007574212 0.18067198 -0.06658415 -0.22447972 -0.09208508 0.08338503 0.06837891 -0.14178431 0.19029811 0.121619806 -0.22692902 0.13549387 0.046307225 -0.0012338504 -0.054343104 0.011554599 -0.020238392 0.14557657 0.16487983 0.119554676 0.13059007 -0.11251834 -0.10495925 -0.07559526 -0.25698474 -0.29338467 0.021371152 -0.26144588
363 0.1798827 0.16001906 -0.10405969 0.030483028 -0.011244419 0.16091385 -0.1752945 -0.2236139 -0.36227697 -0.16556403 -0.13857599 -0.21122928 0.25554907 0.052603632 0.021726813 -0.00068931055 0.2382039 0.09795165 0.047605675 0.24583872 0.21054573 -0.09836125 0.3885193 0.38508302 0.15521966 0.012657142 -0.067070946 0.13156435 -0.049469985 0.12326112 -0.0031367755 -0.022433195 0.14478658 0.0654332 -0.1690969 0.17193833 0.001997752 0.17320803 -0.15128301 0.19362476 -0.14388673 0.071211204 -0.104446284 -0.23271354 -0.11377634 0.124118865 -0.18235168 0.18128704 0.041945815 -0.20475246 0.070890136 -0.25395286 -0.057995018 0.020115212 -0.06799219 0.2136103 -0.0385994 0.0619005 0.0369812 0.11939165 -0.10159979 -0.0007854928 0.0167921 0.04436324 -0.04528452 -0.3829368 -0.17358814 -0.007048164 0.08699983 0.17271982 0.10085597 -0.0074236784 -0.2590044 0.04517903 -0.19216755 -0.030039445 0.14212048 0.052642502 0.18874252 0.025704885 -0.20107532 0.18473683 -0.011229191 0.22707891 0.07393607 0.07810325 0.13109009 0.27334085 0.13813443 -0.007566676 -0.29666916 0.10474876 0.14329012 -0.10418087 -0.06598646 -0.22184855 -0.12495092 0.04090639 0.03562816 0.1953413 -0.08133662 0.011909623 0.25109696 -0.3327894 -0.046592355 0.103895165 0.16222471 0.050212733 -0.029061498 -0.1362248 -0.19149835 -0.028515555 -0.0036009862 -0.11247052 -0.18520638 -0.12204353 0.020278746 0.17703503 0.23608053 0.12799619 0.063121594 -0.13454765 0.035910975 -0.06708351 -0.25562942 -0.067792036 -0.07084365 -0.026256086
