227 128
527 0.22975247 0.08646655 -0.19720319 -0.20013693 -0.14910448 -0.0041989596 -0.038667448 0.030883182 -0.03559845 -0.049760364 0.15665822 -0.014837599 -0.017930487 0.14946106 0.02845161 0.1042198 0.09876021 0.13447925 -0.23586111 -0.09123977 -0.034782514 -0.05348791 0.19568112 0.09830584 -0.060771357 0.12454233 -0.14803097 -0.12401941 -0.02819338 0.018391838 -0.1071101 0.046223685 -0.064609505 0.07895147 -0.065136954 -0.17383675 -0.09831438 0.081555784 0.035961147 -0.2386106 -0.15308295 0.049923167 -0.120032914 0.114177555 -0.081182785 -0.016527725 -0.18368642 0.062973656 -0.048047144 0.04866376 -0.14651631 0.16204199 0.036484804 0.1039259 0.18524607 0.060983177 0.07546495 0.024718225 0.01810669 0.010984461 0.069472946 0.06457481 0.15995693 -0.010651859 -0.08820336 -0.13639668 -0.09369687 -0.012601358 0.23986489 0.13242875 -0.014967059 -0.087497674 0.026799673 0.1065447 0.05187793 -0.210676 0.010164328 0.09885907 -0.010434667 -0.22211026 0.04053898 0.11195465 -0.124638066 0.14278454 0.028180335 0.0020751455 -0.042651057 0.077953525 -0.07901557 -0.010762776 0.075917915 -0.18545303 0.042652294 -0.04012341 0.069063775 -0.12539105 -0.09517436 0.098382 -0.08971666 -0.073323205 -0.09410035 -0.02409956 0.20334706 -0.072276995 0.1081483 0.05310719 0.025652815 0.0029579452 -0.069439374 0.19031496 0.12715897 0.15778305 0.06307805 0.026430912 0.13630028 -0.090497226 0.1141574 -0.0403955 0.047129095 0.09885157 0.02815742 -0.1591212 -0.14335638 0.072125986 -0.05836063 0.033314463 0.03592965 0.11519088
497 0.109752186 -0.04093268 0.037997402 -0.14528069 -0.18502241 -0.12236525 0.012192772 -0.09097946 -0.022112189 -0.08101453 0.060014162 -0.03396731 0.058790307 0.13768123 0.16156471 0.09562925 0.09176477 0.04353042 -0.13985045 -0.10964806 0.1758312 -0.030548267 -0.05900621 -0.0036833808 -0.09745117 0.050433427 -0.09763105 -0.008651191 -0.13699067 -0.030883815 -0.10945958 0.091733426 -0.12070561 -0.015787719 -0.078609005 -0.19066215 -0.026140517 -0.013952174 0.0723873 -0.2642002 -0.15991592 -0.021984892 0.06983569 0.13382092 0.19698533 0.07241007 -0.07874332 -0.055861793 -0.087414324 0.022443857 0.10964856 0.10639176 0.17880146 -0.09449427 0.17387816 0.16619624 0.0085437475 -0.026800474 0.024961397 0.18154591 0.17541073 0.063854374 -0.12471764 0.013730259 -0.01662766 -0.066200994 -0.038780276 0.19557786 0.19106662 0.057067454 -0.09909021 -0.13452317 -0.08566752 0.027516674 0.0042995187 -0.23157227 -0.11382322 0.17058381 -0.041689247 -0.10320081 0.11024147 0.17558771 -0.032511134 0.050344124 0.111046664 -0.069144875 -0.08506933 0.06427238 -0.117421836 -0.04723557 -0.0035646292 0.006087978 0.069021516 -0.1132977 0.09413846 0.034929547 -0.1782038 -0.028674169 -0.01494824 -0.041509215 0.050693978 0.026694374 0.07218449 -0.09338929 0.021645179 0.12861128 0.10130285 -0.18944828 -0.0931441 0.2928981 0.006556409 0.1637653 0.08586 0.034097977 0.16423687 -0.10671608 -0.046478517 0.036197647 0.10912288 0.16774474 -0.013753284 -0.32421696 -0.08082391 0.11041688 -0.15812214 0.05127481 -0.013343634 -0.098764844
348 0.033933707 -0.21094458 -0.009399158 0.091591686 0.082437776 -0.023718309 -0.0052669523 0.004195336 0.019829446 -0.11542491 -0.14902925 -0.04427885 0.18725556 0.16734438 -0.1566954 -0.14811681 0.23427756 -0.16009517 -0.32990652 -0.058974054 0.09933628 -0.20319185 0.13864614 0.079828806 -0.12738882 -0.13909668 -0.018074777 -0.12695415 0.07389971 0.1495412 -0.1035606 -0.00632698 -0.07629562 0.11701722 -0.28671125 -0.011213946 -0.09051598 -0.13576101 0.08367534 -0.26420826 0.01393643 -0.101271205 0.22678271 -0.11602442 -0.20954692 0.04817535 0.14012964 0.2967464 0.078705914 0.0040536914 0.129358 0.009875393 -0.0101247635 0.11241704 0.08868018 0.15141758 -0.057225905 0.03959223 0.09718066 -0.06716338 0.21173532 0.002106272 -0.16255239 0.13492143 0.13442074 -0.029046724 0.07704392 0.030149635 0.40156645 -0.25169232 -0.24134551 -0.24982816 -0.2214148 0.36024767 -0.13410719 -0.21060069 0.14466302 -0.009532826 -0.05885916 -0.077479705 -0.17510138 -0.12834729 -0.10544357 -0.061119836 -0.02332746 -0.096039176 0.012193605 0.050844718 0.13921602 0.2444415 -0.0038906147 -0.18937221 -0.10767528 -0.19910608 0.12699689 -0.07238997 -0.012911916 0.024349526 -0.022215774 0.07797606 0.08832784 -0.024117995 0.1204895 0.20656618 -0.14319119 -0.11247627 0.19652927 0.127748 0.083822116 -0.052402478 -0.09711633 0.104048036 0.14202647 0.024639735 0.18864965 0.19080363 0.07596563 -0.21601583 0.20574889 0.25001612 -0.1102385 -0.07275328 -0.26153833 -0.0971536 -0.25882152 0.050549503 0.07337187 0.10409658
412 0.16511247 -0.09025275 -0.2627191 -0.13106658 -0.21365772 0.0771885 0.12672013 -0.0076126694 0.035995528 0.07420546 -0.021583268 0.016777802 -0.07037846 0.020801838 -0.022435948 0.0282386 0.24267279 -0.012426843 -0.17425995 -0.068082735 0.03288922 0.01917778 0.07975284 0.00013190968 -0.037893195 -0.028162269 -0.039547235 -0.09159485 0.10398468 -0.07181966 -0.09505552 0.19479719 -0.10277049 -0.025392372 -0.04912368 -0.08780209 -0.13742286 -0.048327584 0.15246151 -0.33149806 -0.0053428262 0.039210357 -0.060511135 0.06826885 -0.14062361 0.17476584 -0.08723457 0.07581454 -0.08319533 -0.013951588 -0.07510155 0.1021118 0.07485877 -0.08579124 0.07890867 0.0852704 -0.08279742 -0.03558061 0.16030145 0.14450699 0.03517172 0.035427317 -0.055800326 -0.016500546 0.025911042 -0.12993312 -0.070162095 0.076584995 -0.022279043 0.2325678 -0.248344 0.038584802 -0.07518304 0.04817087 0.11322911 -0.29820287 0.010532797 0.09889002 0.021236494 -0.16540837 -0.10640497 0.15581964 -0.05960563 0.018705232 0.06700709 -0.12827876 0.1719367 0.2056074 -0.04496998 0.020459067 -0.07281661 0.011123672 0.220396 -0.1374937 0.21246795 0.028278964 0.09109658 -0.020084022 -0.12763539 0.019851038 0.07714194 -0.13334282 -0.03123139 -0.31537274 -0.059160583 0.020656247 0.1678807 0.015620253 -0.013004029 0.16394924 -0.014000228 0.099151395 0.09270359 0.056983996 0.058383975 -0.10740562 0.015402025 -0.20308395 0.022564206 0.12302438 0.09218734 -0.10013522 -0.044496898 0.120619796 -0.14156695 0.054232005 0.10585553 0.037542354
373 0.0069923825 0.11575282 -0.19189009 -0.15594734 -0.19748999 -0.0218408 -0.085099466 0.06323129 0.14841335 0.08220411 0.11207571 0.12654969 -0.10176049 0.16327178 -0.048349876 0.13796341 0.20931324 -0.0034302783 -0.052495312 -0.00812351 -0.11538026 -0.14296076 -0.042372137 0.10186893 -0.010766169 -0.043601483 0.042484734 0.0050670584 0.05737196 0.02103627 0.039485876 0.12775362 -0.051977005 -0.010539725 0.020840742 -0.0061143464 0.0120099615 -0.13703796 0.07645873 -0.16820318 -0.013578095 -0.09355153 -0.1299213 0.1180827 0.029142713 0.23401165 -0.15579787 0.035595346 -0.11585341 -0.012844597 -0.21568777 -0.023779431 -0.015894184 0.13983314 0.14744784 -0.13824835 -0.019975321 -0.03969791 -0.027491597 -0.028047854 0.040929005 -0.050813075 -0.010050548 0.14089428 -0.17065783 -0.08095387 0.0024801234 0.1187047 0.2663127 -0.09797473 -0.26114637 -0.10657875 -0.05181787 0.07584904 -0.084445104 -0.1590778 -0.026456429 0.016790496 0.020340009 -0.01806195 0.1061226 0.21221165 -0.22430158 0.030993456 0.03540008 -0.11423746 -0.06774988 0.04669112 -0.011124392 -0.039166886 0.124554895 -0.1877201 0.13067423 -0.095164955 0.016990723 -0.010663508 0.08710053 0.21932407 0.032465883 0.048147786 -0.08644599 -0.03848677 0.14402099 -0.24168004 0.1823335 0.14809199 0.030009238 -0.09245868 -0.10805285 0.10555182 -0.0782429 0.13480565 0.02268257 0.07494711 0.12795618 -0.07274101 0.12758332 -0.20408897 0.10981706 0.005849107 0.1571027 -0.0799943 -0.11093131 0.24960843 -0.103328615 -0.15808502 0.015729219 -0.11896267
553 0.020624837 0.052796245 -0.14160413 -0.098720014 -0.27350426 -0.035427112 0.08548269 -0.09707258 0.06759547 -0.00034547615 0.20230591 -0.04446752 -0.011695312 0.23008412 0.05108366 0.17357588 0.19939041 0.103528544 0.02136568 0.057249468 0.03126725 0.027529463 0.013412687 -0.068920694 0.075566076 0.081364915 -0.001806598 -0.033809192 -0.07308339 0.058308963 -0.10671412 0.1328925 0.02018247 0.15552962 -0.00689262 -0.11831224 -0.14519 0.00980953 -0.047468685 -0.20975955 -0.08382622 0.0020112281 -0.023410404 0.001636347 0.032197263 -0.049330495 -0.10634522 -0.11963292 -0.057652984 0.16716231 -0.078191295 0.18212788 -0.10077434 0.105732106 0.022068042 -0.054164343 -0.065009855 0.07479075 0.1553255 -0.10618125 0.036151156 0.1355289 -0.18895711 -0.06637983 -0.2765803 0.03402854 -0.16051818 -0.030070271 0.20334998 0.1323586 -0.1640289 -0.0016053197 -0.12868413 0.07393609 -0.15157619 -0.33280605 0.049514133 0.068458885 -0.026200391 -0.15458015 -0.16483945 0.24402896 -0.15520446 0.13415848 0.15008298 -0.12486632 -0.11665813 0.05681592 -0.16214481 0.23489955 0.0131420605 0.13101935 0.058410045 -0.047013868 0.20076294 -0.049522113 0.02416333 0.07028544 -0.02830896 -0.027494434 -0.055733174 0.076888904 -0.08102444 -0.07994433 0.021568488 0.04345897 0.005163767 -0.050613735 0.12933029 0.20296758 0.1029881 -0.029129626 0.106901966 0.011816456 0.2238867 -0.028451862 -0.015219901 -0.10326888 0.078498825 0.15325603 0.013707206 -0.09693995 -0.044397213 0.09937696 -0.18522497 0.06308981 0.0030793299 -0.008046428
417 0.19807754 -0.101035684 -0.049592637 -0.077878974 -0.16687699 0.07091089 -0.056764208 0.12468406 0.027612554 0.08215157 0.06178985 0.040160645 -0.1321974 0.036707684 -0.045612242 0.11178157 0.06287226 -0.15272479 -0.22913043 -0.043588582 0.032562934 0.12310167 0.08589663 0.059648454 0.07634844 0.07806659 -0.04548921 -0.025482478 0.057012785 0.013634031 -0.090595484 0.18314596 -0.17342779 0.10459345 -0.0029102112 -0.12412693 0.0056485767 0.0015658595 -0.023574764 -0.18083613 0.0253468 -0.10735832 0.0029474117 0.010719739 0.12734851 0.09273182 -0.17243038 -0.00067340763 -0.10150085 0.10811499 -0.020604476 0.182737 -0.024868164 0.042233296 0.14387289 -0.044697642 0.11544841 -0.13286002 0.1822913 0.12231657 6.624434e-05 -0.1379933 0.010635039 -0.0114465775 -0.21026899 -0.17649801 -0.16147034 0.109440506 0.28848624 0.08881579 -0.064760864 -0.18093224 -0.024559502 0.04110832 -0.06315766 -0.24432203 -0.014633838 0.054757748 -0.075538486 -0.17028184 -0.091667034 0.20365678 -0.31481183 0.1153266 0.12616764 -0.18513447 0.0220438 -0.040150546 0.0064067217 -0.0064788763 0.06387333 -0.11947734 0.04223694 -0.037824687 0.018963486 -0.1605518 -0.18244877 0.13192646 -0.0009591224 -0.07086959 -0.08508566 -0.030780917 -0.053832483 -0.081433475 0.066328265 0.12141861 -0.053398907 -0.008790813 -0.1501467 0.16158354 0.030415408 0.13299817 -0.17715622 0.035887312 0.1706356 -0.15949936 -0.01756924 -0.0056398986 0.18190211 0.18041365 -0.004190274 -0.03585349 -0.15054119 0.12457103 0.004137966 0.13961466 0.043889575 -0.020399844
503 0.19323577 -0.03997171 0.0058199805 -0.008991427 -0.3214718 -0.06529025 0.0066094105 0.046268255 0.098497085 0.030101152 0.26353297 -0.09313329 -0.11731492 0.15924346 0.12991367 -0.028108569 0.33003166 0.03741409 -0.023133006 -0.054801125 0.059033886 0.0728357 0.11540421 0.08717681 0.034334704 0.023892412 0.06817854 -0.093159385 0.018261138 0.01454217 -0.022765424 0.08088096 -0.029361576 -0.0015312161 -0.15770642 -0.06659559 -0.082690075 0.10599906 -0.021961743 -0.15349938 -0.051887244 0.17701764 0.09177427 0.04697339 0.10105425 0.056860995 -0.13136879 -0.015090895 0.0609609 0.086755276 -0.14384876 0.008107225 0.025061546 0.04085193 0.27530676 0.03261881 0.09458051 -0.06417379 -0.05258844 0.15789519 0.20285712 -0.04120048 -0.057176698 0.14241771 0.1236702 -0.09874113 -0.18949756 0.12578933 0.15550113 0.1557033 -0.13557002 0.048588075 -0.087298036 0.09102784 0.037531164 -0.10760831 0.015056043 0.11422827 -0.14650698 -0.08555385 -0.11355104 0.13263266 -0.07632002 0.14811577 0.13716206 -0.18418664 -0.06255213 0.08762751 -0.2271953 0.120366745 0.021160522 -0.08466112 0.108904645 -0.040459324 0.106433555 -0.05564788 -0.12363883 -0.08624882 0.0213324 0.033372123 -0.143809 -0.16179733 0.1726474 -0.004810803 0.0055380273 0.055688094 0.10995477 -0.12102128 -0.20748597 0.21227616 0.061462324 0.29263672 -0.024576958 0.19155967 0.1240728 -0.053285185 0.19294623 -0.066908315 0.05349265 0.16782796 0.13922274 -0.018023038 -0.20111376 0.1895899 0.06428235 0.021093681 0.011668859 0.025791302
370 0.25798312 -0.014671791 -0.12969188 -0.028593814 -0.2749084 0.00020775093 -0.023746777 0.0015383752 0.19324823 0.016839413 0.20757179 -0.028734667 -0.0015937953 0.13389604 0.16802338 0.059745006 0.20237924 0.023769317 -0.022158604 0.03523312 0.06417722 -0.046863157 0.088951826 0.14654364 -0.092219 -0.013043863 -0.07528567 -0.12974674 -0.10802873 0.018285114 -0.23431511 0.09614557 -0.10961878 -0.056850825 0.026479023 -0.0013065815 -0.033179466 0.13493219 0.18357374 -0.2437676 0.0460862 -0.070840545 0.044562064 0.07397776 -0.11852256 0.16622749 -0.09345162 -0.04061519 -0.094128154 -0.020603832 -0.08516632 0.20389825 -0.09158965 0.09402889 0.092628784 0.07392921 0.019138217 -0.09238557 0.09475894 0.048127208 0.008420498 -0.07658665 0.053098373 0.0038832175 -0.39630824 -0.059804827 -0.046553858 0.30962104 0.1987306 0.14696874 -0.11092439 0.07499156 0.02461391 0.15949118 -0.11120768 -0.15131594 -0.04141834 0.13828754 -0.058729235 -0.11365001 -0.009792785 0.19476461 -0.025513668 0.015116724 0.028379148 -0.15220803 -0.060385093 0.06183204 -0.17636931 0.10693753 0.019864688 0.01680503 0.041715804 -0.03722687 0.14637688 -0.115684085 0.015862497 0.023335477 -0.021406028 -0.094925635 0.002046179 -0.064016014 -0.030935356 -0.20435257 0.06388267 0.18421869 0.028533608 0.0088942805 -0.0011923108 0.17081219 0.07154024 0.094409816 0.026747636 -0.0028854788 0.13635479 0.03647256 -0.077431865 -0.052645564 0.050479025 0.09297886 0.15822546 -0.0002764445 0.008895119 0.0839912 -0.19486657 0.19132005 -0.052282814 0.036336258
542 0.110506795 -0.02440972 -0.27816674 -0.1696366 -0.28779656 0.07582085 -0.066908434 0.029376013 0.052940838 0.18528734 0.23730853 0.11335448 -0.07307972 0.119442776 0.11838842 -0.03373761 0.18749289 -0.18053494 -0.21999091 -0.1361398 -0.017986398 0.021406118 0.001778104 -0.013265431 0.04284871 -0.025278047 -0.0976837 0.0070554237 -0.052011415 0.04443698 0.030383289 0.053327996 0.002237528 0.083701596 0.0042791357 -0.18648186 0.007567208 0.026393747 0.04535156 -0.056232393 -0.09130008 0.07751823 0.098933354 0.19260357 -0.17442682 0.027267898 -0.101661675 0.078633554 0.06889965 0.15417679 -0.051692795 0.040570214 0.042174164 -0.14099772 0.2630635 0.018731184 0.08788124 0.060114417 -0.012971706 0.06834498 0.17212543 0.017598778 -0.00062950514 -0.009015328 -0.2004449 -0.13936655 -0.16564582 0.05201442 0.119747214 0.04932126 0.05231451 -0.1776372 -0.14667737 0.039124712 -0.108932175 -0.23094435 -0.15424149 0.029308397 0.01623262 -0.06723357 -0.13254951 0.3800091 -0.05487747 -0.06818019 0.048384637 -0.08967539 -0.050030358 0.13077186 -0.10240601 0.062151633 -0.015591479 -0.1861771 -0.015388886 -0.13617754 0.047402587 0.0016991065 -0.17137957 0.028478252 0.009706007 -0.082755096 -0.059386656 0.040147267 -0.017309386 -0.12480913 -0.029222935 -0.035926722 0.09567492 0.018074112 -0.0437339 0.1381563 0.027494507 0.082171515 0.0051603396 0.050965484 0.06753272 0.0570299 0.052224666 -0.15173733 0.0669973 0.02605503 0.11370712 0.041145336 -0.041026466 0.08869679 -0.07193069 -0.07572167 0.123600446 0.15196632
524 0.16259757 0.029697077 -0.07118263 -0.10605725 -0.21104363 0.11911757 0.0014887552 0.24186248 0.15889978 0.038381167 0.20892465 0.12555087 0.015038148 -0.046883214 0.089944914 0.08347249 0.1847552 -0.0075658355 -0.16925077 0.005741326 -0.025170606 -0.12849398 0.11278121 0.098532654 -0.056262393 0.03146886 -0.1356264 -0.23394665 0.061833166 0.07565457 -0.10366628 0.08028979 0.09384825 0.117074646 -0.042322278 -0.16551562 0.068282045 -0.12270177 0.06148394 -0.2128485 -0.097373255 0.011423097 -0.058376387 0.06167208 -0.029215839 -0.021489559 -0.09473457 0.05182723 0.0046651023 0.08299139 -0.0023184037 0.2914526 0.032955702 0.0019355365 0.082629465 -0.06549439 -0.019931145 -0.06249045 -0.034215532 -0.11732603 0.16838802 -0.03337762 -0.015583505 0.08909567 -0.17655681 -0.22544274 -0.08201821 -0.08900909 0.19383305 0.21620394 -0.065603316 -0.11282013 -0.07155389 -0.06473271 -0.04180697 -0.18108314 0.014933375 0.09834843 -0.119045794 -0.15493147 -0.06622318 0.18454002 -0.03396714 0.0809563 0.038555596 -0.042182542 0.078670286 0.012766386 -0.028028414 0.032694574 0.050080918 0.013728419 0.13220449 0.040871754 0.12689224 0.050783504 -0.17403021 0.074498706 -0.0037214258 -0.1882661 0.016007189 -0.027754646 0.07993086 -0.34782138 0.13603054 0.10685399 -0.0036588167 -0.049848232 -0.12927838 0.1556001 0.21465366 0.14415841 -0.048122898 0.075721 0.045658216 -0.09951031 0.029757079 -0.17944671 -0.025418462 0.13848446 -0.07123996 -0.16392656 -0.13637167 0.1476372 -0.1562695 0.08355598 0.17782179 0.044021558
423 0.19553052 -0.008304184 -0.2978559 -0.107715994 -0.28685382 0.014581772 0.034758862 0.01541472 0.08105888 0.18352275 0.116135195 0.09283268 0.04586347 0.02653718 0.028228909 0.07437249 0.17065364 0.022585632 -0.24224761 0.039160404 0.003643813 -0.067278326 0.008465969 0.23408489 0.0052217986 0.05598545 0.0735797 -0.10769558 -0.07908154 -0.11588636 -0.00833931 0.12232531 -0.22695525 0.014382707 0.0027098807 -0.060292203 -0.084552385 -0.032584406 0.13446201 -0.23680733 0.014382164 -0.13400862 0.006312563 0.06173654 -0.12559824 0.07481048 -0.17937174 0.12619667 0.07248798 -0.01844285 -0.07383949 0.12492289 -0.004934611 0.006876619 0.238441 0.00082825596 -0.0005781643 -0.030044649 -0.0025607487 0.05599295 0.1476829 0.09511726 -0.023679348 -0.029076347 -0.057394624 -0.1524378 -0.24551955 0.026916735 0.15367275 0.1401733 -0.09203324 -0.09016865 0.031102862 -0.061825193 0.08106696 -0.21234299 0.09252626 -0.019882297 -0.20319349 -0.22741045 0.049797054 0.15342061 -0.1994612 0.16104557 0.09926186 -0.06114398 -0.047658984 -0.11561301 -0.10689092 0.05349213 -0.09505069 -0.13591787 0.05385234 0.14150506 0.22922997 -0.077052586 0.081540205 0.01609612 -0.010317465 -0.13153048 0.04922164 0.060324874 0.12657374 -0.07706434 0.008941196 0.09795044 -0.0050858906 -0.0937275 0.029352563 0.14895687 0.107577674 0.02874279 -0.028187575 0.1082163 0.1900919 -0.21033728 0.019307688 -0.048147146 0.18910564 0.03435316 0.22694491 -0.08934881 -0.16783729 0.22645748 0.0010565728 0.10986696 0.0073873973 -0.06420501
392 0.3371502 0.10028366 -0.14386402 -0.2931018 -0.27801874 0.12022746 0.07597823 -0.05795354 0.07706933 0.10302707 0.18242286 -0.009296532 -0.029037168 0.056059282 0.13579807 0.051796235 0.08265717 -0.008473851 -0.19237159 -0.01430762 -0.22299778 -0.068015054 0.069345705 0.076870814 0.08135512 0.027642054 0.043266997 -0.07747688 0.08939799 -0.14252365 -0.08132798 0.07667041 -0.07918601 0.032964777 0.009904026 -0.18071067 -0.036159933 0.034722824 -0.090798534 -0.2581528 -0.11369521 0.037174523 -0.01914809 0.15343083 -0.09308358 -0.06600482 -0.11547062 0.057898253 0.0029489403 -0.07692882 -0.06175776 0.1259278 -0.08724723 -0.037235316 0.20765701 0.04628809 0.021088967 -0.059974648 -0.077370524 -0.0026386662 0.071765214 -0.11653098 -0.045430694 -0.03595563 -0.120168425 -0.12045335 -0.08451727 0.034044474 0.15496777 0.19501944 -0.118461676 -0.15588221 -0.024078405 0.09871319 -0.07159229 -0.23332044 -0.034617197 0.1418685 -0.15154327 -0.101572156 -0.029207073 0.11261118 -0.046387166 0.220798 0.0870883 0.01570417 0.037669692 -0.036531553 -0.022917366 0.17623815 0.14377178 -0.07205338 0.08782468 0.042591974 0.31010166 -0.030393733 -0.08628394 0.10708968 0.07068213 0.16383983 -0.12555288 -0.1669895 0.017696753 -0.18530177 0.038459133 0.047995187 -0.0017117749 -0.14360169 -0.08393323 0.16428244 0.1632326 0.19177191 0.015319106 0.1093518 0.228847 -0.02380326 0.0788971 -0.036267955 0.08262144 0.06566828 0.08186923 0.020724341 -0.085639544 -0.040342167 -0.09562822 0.10029093 -0.18743184 0.07380821
567 0.05280926 -0.12454934 -0.23965485 0.12268333 -0.2726248 -0.016771853 -0.10369061 0.20066248 0.06766107 0.038993195 0.22939774 -0.15378682 0.013206538 -0.023237552 0.072648115 0.09676426 0.115446895 0.040635455 -0.12980714 0.10378286 -0.042764984 -0.12314584 0.046674218 0.04139754 -0.0637395 0.1494828 0.096315205 -0.26061717 0.0033788679 0.005221045 0.056832552 0.17818527 -0.16867675 0.04902719 -0.13676903 -0.09377301 -0.16638857 -0.021073462 0.016202936 -0.17720808 -0.23244768 0.033356503 -0.050164092 0.08605949 -0.008474707 0.15505576 -0.13640758 -0.10583668 -0.075638235 0.06811342 -0.03853025 -0.04847326 0.04775169 0.08172181 0.31283963 0.078072764 0.11688838 0.013456741 0.08799871 0.026709242 -0.18875909 0.0032484909 0.06740074 0.06896073 -0.2419335 -0.1666844 0.003448747 0.04752173 0.19335228 0.10291121 -0.16051057 -0.07291803 -0.027138691 -0.056959715 -0.14702278 -0.22634879 0.030349027 -0.12631257 -0.027924465 -0.13438554 -0.0066859177 0.10786171 -0.065107584 -0.14491576 0.10756505 -0.21917945 0.025570398 0.07297184 -0.04746191 0.2521349 0.15205653 0.016829226 0.08599799 0.013492952 0.1583576 -0.1787543 -0.0585232 0.06466375 -0.06765627 0.033483148 -0.15136126 -0.0761219 -0.084735766 -0.18367726 -0.070795245 0.21303414 0.06445591 -0.09674478 -0.11180462 -0.08001916 0.044959817 0.282916 0.14710154 0.1072246 0.12801197 0.046287287 -0.0123447655 -0.012476377 -0.030400863 0.13784407 0.2770014 -0.0034005628 -0.038772065 0.10443944 -0.08960006 0.09369064 0.08067297 0.0074477834
566 0.020425944 0.061103683 -0.14320707 -0.19166265 -0.22380382 -0.0060703685 -0.097115375 0.24527487 0.0809607 0.23563893 0.22383481 0.121758796 0.03467486 0.1121108 0.13762528 -0.0069145435 0.12416145 -0.048016526 -0.21061762 0.037164122 -0.03965823 -0.0722006 0.083978124 -0.022945628 0.08330944 0.122375615 0.10300199 -0.008489446 -0.026827412 0.2600602 -0.13897137 0.114594825 -0.014858887 0.026134077 -0.009885342 -0.13328679 -0.07184289 0.13275489 -0.004304636 -0.26073837 -0.07053931 -0.16709358 -0.025744585 -0.08297037 -0.08383383 -0.023995373 -0.13933626 0.03296152 -0.14383553 0.08289862 0.17363821 0.08067771 0.164109 -0.10304537 0.2322927 -0.010173242 0.023008704 0.10153421 0.13190278 -0.06865671 0.053037826 -0.16608512 0.012325197 0.14407058 -0.08662465 0.08419704 0.0139786 0.15599005 0.18296736 0.08501132 -0.10026063 -0.068296686 -0.107760124 0.029793754 0.04526582 -0.12501326 0.023417918 0.14560613 -0.0016460364 0.037300482 -0.07592423 0.23487075 0.016727578 0.053690366 0.23012665 0.028589517 -0.008613016 0.040221483 -0.15778314 -0.030708028 0.006757466 0.052507244 0.04293698 -0.029436266 0.13234799 -0.12172256 -0.3093156 0.12152434 -0.15494324 0.07918709 -0.07257154 0.12445402 0.0394885 -0.01162709 0.031182863 0.22501747 0.21383056 -0.15115681 -0.22342595 0.08331955 0.2737121 0.048594464 0.04449162 0.24661784 0.19520725 -0.051188838 0.20065303 0.00040855395 -0.049227033 0.21430388 0.2139081 -0.088872954 -0.09261373 -0.028676707 -0.17804885 -0.089243405 0.0871919 -0.033344403
353 0.1153188 -0.12219451 0.0104628345 -0.04023125 -0.1838113 -0.00791293 0.070674166 -0.059831362 -0.09477816 0.14447518 0.19334187 0.06678287 -0.11396039 -0.04302567 -0.060703892 -0.045769263 0.23082083 -0.089662105 -0.21513617 -0.044827066 -0.15859474 0.17083097 0.102218986 0.19552703 -0.08368538 0.23493369 -0.06714305 0.00025350362 -0.19721785 0.07265828 -0.27305505 0.006448542 0.06989549 -0.024246218 -0.06381657 0.12002645 0.07561174 0.18865201 0.07637556 -0.2588287 -0.25536317 -0.14389926 0.158187 -0.08694441 -0.032134924 -0.036679585 -0.17561914 0.07514121 -0.15920667 -0.019554466 -0.013240944 0.07110434 0.109043516 -0.023429714 0.19178225 0.13577588 0.11187944 -0.13658328 0.06768332 -0.056715116 0.079485394 0.04374837 0.061735827 0.02876078 -0.10558191 -0.1722131 -0.22537856 0.098042965 0.09317398 0.24946108 -0.46367288 -0.26400283 -0.01177714 0.110577114 -0.31711277 0.089556225 0.113675736 0.24766116 0.1476251 -0.00014425945 0.06524196 0.2868654 -0.012705596 -0.12038455 0.11698208 -0.13612235 0.15836819 0.014923732 -0.024754047 0.16074024 -0.058244474 -0.11511536 -0.07558046 0.008178323 0.055193167 -0.10872176 -0.2008921 -0.02830367 0.05254565 0.11665263 -0.18306726 0.07387462 0.021312702 -0.083396986 0.10425477 0.23904783 0.10796686 0.008369678 -0.22397706 0.2571225 0.15293258 0.21596588 -0.19290549 -0.0057301256 0.13343388 0.14420824 0.082293086 -0.1735108 -0.03964451 0.02813217 -0.017280418 -0.1422649 -0.07434004 0.1025512 -0.107410125 0.013691426 0.18564165 -0.05634302
473 0.34670606 0.0077521876 -0.2535422 -0.08655646 -0.20081617 0.0029338724 0.059175454 0.027410667 0.219939 0.04936641 0.07441038 0.090351894 0.08027455 0.009700528 0.06809036 0.17356727 3.695478e-05 -0.096487656 -0.18870018 -0.08765565 0.09274087 -0.082619525 0.17426944 0.042943295 -0.07651513 0.00797006 0.012165847 -0.0014897928 -0.08956627 -0.0033945562 -0.055409078 -0.061335362 -0.042701673 0.20018212 0.07036709 -0.06904809 -0.066053905 -0.09903612 -0.10808129 -0.19469987 -0.06303717 -0.005128107 0.08538674 0.041928157 -0.12591368 0.051114716 -0.039504897 -0.06002387 0.044747274 0.08445404 -0.125894 0.12154419 -0.06423695 0.06796862 0.1528128 0.14771143 0.03506858 0.053721633 -0.051498942 0.09643627 0.075349085 -0.09316109 -0.0050973026 0.05775208 -0.16273312 0.013039387 -0.083662435 0.12817465 0.113162585 0.1565359 0.0784776 -0.19470337 -0.11223523 0.14208782 -0.09415016 -0.023773693 -0.0635357 0.108834326 -0.14270064 -0.12321158 -0.20955177 0.44478282 -0.23379476 0.09832842 0.051930014 -0.13365985 0.06457985 0.032804016 -0.105028845 0.022353446 -0.0020353985 -0.33151874 0.07930926 -0.029198555 0.13294251 -0.038346436 -0.14943594 0.0470838 -0.14219862 0.069565065 -0.059802186 -0.024102911 0.16757593 -0.14937839 0.0014419571 -0.044501517 0.0045291674 0.019905299 0.052561723 0.085702956 0.048087854 -0.047666665 -0.07850623 -0.00762357 0.24024028 -0.075975694 0.077394545 -0.18442962 -0.013856767 0.08425266 0.18160994 -0.038289193 -0.037636682 0.085716136 0.07669488 0.109279916 -0.045541417 0.0058939643
492 0.25500974 0.015025381 -0.05434098 -0.11352077 -0.32397804 0.1672555 0.052308645 0.09211074 0.0499981 0.06235533 0.1665834 0.061180886 -0.11145863 0.08429693 -0.027449405 0.13862693 0.20305568 0.074512176 -0.16823897 0.047589157 -0.024920352 0.10375431 0.27491328 0.15118772 0.038131714 -0.0197904 -0.30939522 0.001626457 0.065654844 0.08232611 0.060655016 0.2670066 -0.18580636 0.17669882 -0.19378182 0.019243667 -0.09559695 -0.015430936 0.0030577276 -0.25637835 -0.14987142 -0.018460816 0.05900559 0.12716582 -0.165253 0.005551997 0.025084352 0.09396386 0.010057662 0.15790704 -0.09947045 0.26500767 0.1214766 -0.22458416 0.2758411 0.2262095 -0.06464892 -0.2779195 -0.124867626 0.060141537 0.008590091 0.08444914 0.08196532 0.033756185 -0.20714635 0.15886235 -0.07242436 0.02578313 0.19080849 0.094884 -0.12438964 -0.22885025 0.04369047 0.14110962 0.07529619 -0.09962191 -0.05552138 0.21865653 -0.10342827 0.0018960532 -0.25048935 0.39298773 -0.20681643 0.12791249 0.01845109 -0.15014882 0.094471484 -0.0384324 0.01596213 0.05217177 -0.09142437 -0.046564307 -0.040085107 -0.022513397 0.059040956 0.014569508 0.036506414 -0.07014944 0.037469033 0.015406284 -0.09693172 0.1328324 0.034179278 -0.080959946 -0.07880792 0.12571517 0.27547884 0.008887086 -0.015747752 0.2333027 0.10711599 0.020733453 0.17147043 0.18238528 0.07765606 -0.07824809 0.21405198 0.009317035 -0.007415138 -0.017950986 0.12893727 -0.01424725 -0.0144448895 0.07334951 0.053990144 -0.022243802 0.11696347 -0.10836009
463 0.18862422 0.12154834 -0.12880424 -0.090467885 -0.23391367 -0.166622 -0.19475012 -0.046384618 0.13335574 -0.0073459297 -0.15800814 0.041577615 0.04498 0.032002356 0.09132421 -0.1085966 0.040353812 0.024037456 0.0926164 -0.12346447 -0.16710144 0.23313351 0.15852012 0.10812859 -0.0881264 -0.11356296 -0.1413983 -0.13683972 -0.1628132 0.10088763 0.19566879 0.033632554 -0.03339896 -0.031559277 -0.02221796 -0.13626589 -0.120310396 -0.12921105 0.13883479 -0.1415822 -0.27017534 -0.24373089 0.12025812 0.12928383 -0.15548731 0.081032015 0.055853847 0.043702345 -0.0888673 -0.16318767 -0.022857973 -0.051908385 -0.16013151 -0.0307542 0.11583459 -0.09273085 0.036382955 -0.07917605 0.008996967 -0.13430713 0.007873321 -0.07923678 -0.04459287 -0.06413569 -0.1669827 -0.049755603 -0.10645497 0.33404556 -0.19819568 0.09998839 0.13146053 -0.42705342 -0.2084316 -0.011655983 -0.07812975 -0.08348954 0.05678563 -0.019311227 -0.014831808 -0.011635764 -0.32807875 0.1534141 -0.060141098 0.06882732 0.2756902 0.045974545 -0.05475703 0.18684985 -0.19218266 -0.006144327 -0.033568032 -0.040526472 -0.0048785866 -0.009784013 -0.08473989 0.15281306 -0.17037146 -0.043020666 0.20354903 -0.18954185 0.0048698094 0.011220638 0.0041469405 -0.2286937 0.034368776 0.1832729 0.2364011 0.030393966 -0.12660666 0.10806217 -0.003957381 -0.13090888 0.16944568 0.097238064 0.08226911 -0.007098301 -0.06914436 -0.12193976 0.259971 0.24168707 0.18660565 -0.17731236 -0.017841918 -0.041522667 -0.10119983 -0.07149282 0.14121556 -0.015029363
461 0.21999206 -0.20030674 -0.16078447 -0.038692676 -0.19876158 0.07897592 -0.21257804 0.2256597 0.0836097 0.052828215 0.20454851 0.09730212 -0.020428574 0.110115804 0.060068734 0.10716519 0.32736373 -0.07604725 -0.2355472 0.02622804 0.08363781 -0.06703061 0.15430085 0.14141984 0.0028204524 0.1582107 -0.0039610583 -0.084030695 -0.10640253 0.09590578 -0.11986613 0.19090386 -0.16857068 -0.22087252 -0.11131744 -0.111327514 -0.19828519 -0.21306103 -0.009922743 -0.11848888 -0.067739815 -0.10931152 -0.054539025 0.10145006 -0.04098796 0.021518242 -0.0689351 0.015427475 0.06691306 0.20068961 -0.18795569 0.04708357 -0.115984105 0.004808208 0.20245227 -0.054757684 -0.024343545 -0.106458634 0.12338246 -0.2206708 0.07378719 0.08689123 0.018107418 0.209402 -0.15516059 -0.14534546 -0.15077381 -0.010414552 -0.0002937175 0.20739058 -0.032431316 -0.16076797 -0.060974043 0.17655309 -0.0017012664 -0.051298883 -0.14661205 -0.0959706 -0.22527294 -0.069757044 0.12100936 0.09817261 0.056535557 -0.00974928 0.023675112 -0.030245168 0.056059495 0.04079878 -0.009146749 0.06439174 0.06220198 -0.119459376 -0.073929384 -0.04981409 0.088715054 -0.03900057 -0.18343228 0.25050598 0.13746272 -0.2187477 -0.00268764 -0.1864578 -0.11090314 -0.13305715 0.06334379 0.10689838 0.13038081 -0.073912926 0.040289927 0.23097557 0.08779576 0.14343907 -0.19786377 -0.017123276 0.13684112 0.039390646 0.060746137 -0.16543481 0.11932973 -0.17230214 0.07446885 -0.067237295 -0.040457822 0.076835714 -0.13816044 0.0039745327 0.16217412 -0.11875472
360 0.34159696 -0.13379633 -0.28108618 -0.13743259 0.027215272 0.12501611 0.072424255 0.1507743 0.065084435 0.028932909 0.08499863 -0.075155534 -0.034248568 0.059304185 0.2773788 -0.045463413 0.026265057 0.23326662 -0.26816255 -0.018207435 0.019969828 -0.05830506 -0.039820958 -0.050109126 0.12494866 0.14125799 -0.026554447 -0.16515303 -0.3121911 0.04230972 0.11195035 0.31203622 -0.01685248 -0.048782066 -0.12936969 -0.20372073 0.05763465 -0.05654956 0.07932963 -0.13505584 -0.0029785405 -0.009635934 -0.0020903985 -0.2481103 -0.16390182 0.12306902 0.08660114 -0.16145359 -0.0042668665 0.10662162 -0.104656614 -0.05387952 0.07727918 -0.30177113 0.11691139 -0.20111336 -0.1254708 0.03482305 0.03454844 0.016589355 0.03302041 0.17070691 0.032744892 0.061155368 0.0399062 -0.006235513 -0.11647147 -0.030385768 -0.02055502 0.088214725 -0.24019316 -0.28489086 0.12066569 0.04078038 -0.2195135 -0.17409341 -0.087127805 0.13835172 -0.1406888 0.08657028 -0.23391107 0.30492127 -0.09964186 -0.12703533 0.24559677 -0.25069597 -0.13773644 0.2561261 -0.12721822 0.045721523 -0.040121634 0.0062046265 -0.057532493 -0.15030678 -0.07912346 -0.11862912 -0.0244105 0.16845919 0.03330652 -0.16668184 0.03403562 -0.21353872 0.19665988 -0.13403134 0.10667004 0.18299298 -0.015294164 0.09465418 -0.15982582 0.118388675 0.060494207 0.004370718 0.2530171 -0.06460338 0.020700052 -0.015192628 -0.046482194 -0.26623702 0.36141437 0.08266789 0.06707381 -0.056125015 0.13741481 -0.06590128 -0.25000685 0.19688703 -0.072444245 0.01820538
560 0.06483795 0.062377233 -0.036797076 0.013928032 -0.013658005 -0.08225516 0.08077005 -0.16702954 0.14325243 0.055351708 0.0077081374 0.038346276 -0.03868332 0.05977627 0.0298669 0.24528554 0.024008382 -0.087986104 -0.24649107 0.027378084 -0.15104006 -0.22628473 0.10264398 0.09342166 -0.015843287 0.02610532 -0.2155714 0.027934782 -0.07737996 0.0969081 -0.20624448 0.021503324 -0.15628256 -0.030154813 -0.03800829 0.062414862 -0.09835445 -0.110468365 -0.10299862 -0.041790124 -0.14299265 -0.06589425 0.2902254 0.11264197 0.09463831 0.09722672 -0.13275947 0.0069207083 -0.11839384 0.011611119 0.041297168 0.20980765 -0.04458954 0.029272037 0.19282478 -0.056613345 -0.10428852 0.06683603 -0.17600803 0.17302111 0.18323292 0.051517397 0.060302593 0.018626064 -0.16877943 0.074355446 -0.27375653 0.3343171 0.2627631 0.19968337 -0.04551126 -0.044839263 -0.21629016 0.1868631 0.016831925 -0.23545021 0.014300508 0.13415202 -0.0402274 -0.009691038 -0.34786862 0.23153852 -0.13151562 -0.18597797 0.06385079 -0.004577025 0.33170328 0.10880713 -0.28131816 0.13640447 0.033137217 -0.22756311 -0.105907105 -0.012372156 0.04143751 -0.28226632 -0.035660125 0.03919724 -0.010591637 -0.15681006 0.04739238 -0.021969398 0.24496777 -0.11119108 -0.1190442 0.14493859 -0.039795034 0.016766496 -0.25774476 0.15670511 0.2237256 0.11212127 -0.07690032 0.13738059 0.18955788 0.065502666 0.14440523 -0.04021072 -0.08308797 -0.13607937 0.0034426227 -0.107218325 0.022552561 0.29416147 -0.00089168875 0.027465226 -0.008470722 -0.019946333
500 0.15905397 0.06726427 -0.13773026 -0.116342925 -0.15699223 0.039343912 -0.0009238091 0.05635198 0.083968125 0.12306554 -0.005702577 0.07265498 0.024723683 -0.09564053 0.11575803 0.046776105 0.08632124 -0.15225011 0.04386525 0.005415033 -0.18901996 -0.07767329 0.13396072 0.20501898 -0.0058734575 0.028362457 -0.20537025 -0.023661328 -0.0713272 -0.04545776 0.08768007 0.15362419 -0.21415634 0.20597298 0.001095276 -0.13598228 -0.14690368 -0.008312552 0.07413337 -0.1730557 -0.18230471 0.03052898 -0.06163639 0.1792715 -0.076967455 -0.22610964 -0.09802452 0.13096589 -0.04082533 -0.05364691 0.05554732 0.062424317 -0.14028947 -0.090879455 0.13198821 -0.09970806 -0.06509478 -0.003916217 0.10672041 0.057744946 0.07915316 -0.016153894 -0.054746024 0.038122676 -0.1604756 -0.23093836 -0.18828988 0.14813761 0.2765832 0.13562185 -0.15682545 -0.067914985 -0.023995055 0.16727386 0.033051502 0.02144287 0.016869472 0.106748775 0.005108741 -0.010291887 -0.035076104 0.26495892 -0.03184995 0.098603204 0.03420736 -0.10166311 0.13369459 0.23069416 -0.095927395 0.01540553 0.0003648771 -0.008599401 0.14280191 -0.21910867 -0.0216514 0.008860964 -0.13267164 0.0934232 0.11270553 0.009363063 0.004638766 0.061832875 -0.012259876 -0.14836942 0.09844662 0.055937737 0.16238531 -0.150175 -0.21063271 0.07619755 -0.025674189 0.11289045 0.050437734 0.10753266 0.0020751283 -0.051712275 0.16811566 -0.08847566 0.1129173 0.036463607 0.11706367 -0.010226158 -0.07810252 0.22964413 -0.24585964 0.022612786 0.015884612 -0.03662533
376 0.20328575 0.05712156 -0.15495323 -0.0067971875 -0.20211941 0.09144397 -0.076931335 0.26389682 0.24524629 -0.07974366 0.08672551 0.068711184 -0.012354228 0.03294042 0.0015596554 0.008089031 0.05525569 -0.032936122 -0.19861138 0.042645503 -0.12231101 0.127618 0.033898488 0.06021864 -0.08157656 -0.0713903 0.07817011 -0.20325425 -0.08179471 0.0849291 -0.02824699 0.11845998 0.083931334 -0.025373634 0.0041116304 -0.06435514 0.02372164 -0.04128166 0.0064087934 -0.12752143 -0.14144683 -0.15327764 -0.015067644 0.04216097 0.1020632 0.11359216 0.024804898 0.104576245 0.062345628 0.03245228 0.022276442 0.21235217 0.05074843 0.10480525 0.19731091 0.018015297 0.065587536 0.09125738 0.017924748 -0.17945373 0.018335499 -0.07293993 0.069173865 0.022314066 0.009105376 -0.0063729538 -0.115785085 0.19354331 0.16357058 0.03479908 -0.07840394 -0.12875268 -0.1293456 0.12861224 -0.123797424 -0.19492203 -0.12981215 -0.016831446 -0.09139079 -0.042448927 0.11195469 0.19278714 -0.02463211 -0.013354535 0.052250937 -0.16768606 -0.078882545 0.17975017 -0.08978599 0.044249978 0.21479587 -0.14901204 0.078853555 -0.094040915 -0.14893861 0.07988737 -0.1414395 0.087235674 0.021238692 -0.10232307 -0.038935088 0.08023098 0.023426438 -0.14003938 0.12743041 0.14151007 0.105097875 -0.07225755 -0.0290512 0.24499981 -0.02977655 0.14935404 -0.03922949 0.048772573 0.16260248 0.013740703 0.020185566 -0.13722311 0.013419299 0.042378932 0.15434484 -0.019079411 -0.17270808 0.083286636 -0.097713694 0.08600174 -0.0863717 -0.084610045
475 0.059293617 0.06714347 -0.11744931 -0.07499361 -0.0018485873 0.07866873 -0.14608958 0.013307941 0.121315405 -0.050528128 0.02698968 0.056861278 -0.004107414 -0.035394188 0.093644 0.09246136 0.091918446 0.10760661 -0.08496035 -0.05586033 -0.22828045 -0.15780538 0.067269735 0.15185598 -0.112727284 -0.112018146 -0.0017959749 -0.08510322 -0.10127409 0.19637562 -0.04098174 0.22634257 -0.05654577 -0.037890483 -0.105880186 0.07666119 -0.025742972 0.12654725 0.04441292 -0.19178323 -0.12843269 -0.12065829 0.032202434 0.11410276 -0.030128272 -0.06602901 -0.05941738 0.06184332 -0.0112800915 0.032367975 -0.030245878 0.018711481 -0.04510697 0.0047315415 0.17242332 0.06564575 -0.056824103 0.07558003 -0.041033033 0.13151608 -0.007704473 -0.0005226664 -0.06547544 -0.09792593 0.010526914 -0.04924542 -0.007041033 0.112143844 0.22393148 0.14326814 -0.1974433 -0.04939066 -0.039251152 0.14109349 0.008882129 -0.06481418 0.044041436 0.117024995 -0.07773312 -0.15035467 0.19227737 0.37306535 0.009598502 0.09724645 0.046135515 -0.29400286 -0.02462231 0.14824711 -0.062634975 -0.0018543962 0.02493803 -0.13723531 0.15085252 0.020598006 0.07518263 -0.06657006 -0.020443633 0.15167059 -0.045649014 0.095543265 0.021143664 0.10973266 0.07099206 -0.19661167 0.090310305 0.23294362 0.047807757 -0.13784862 -0.10521978 0.22243898 0.10543311 0.11124971 0.11784268 -0.08381824 0.1602155 -0.105448574 0.17439066 -0.106926635 0.13984586 0.06376855 0.05276502 -0.11062136 -0.04346679 -0.06736195 -0.17310825 -0.01612059 -0.08473571 -0.061803687
561 0.19787765 0.029565528 -0.041045833 -0.13937832 -0.23163922 0.09237148 0.10872548 -0.036046382 -0.0030755438 -0.045865152 0.11100583 -0.0104242 -0.038504466 0.0038212084 0.06313678 0.048625786 0.162528 -0.039629396 -0.075630546 -0.058824554 0.029866213 -0.15618818 0.115276486 -0.019027723 -0.10082194 0.021368366 -0.23482166 -0.020659963 -0.048361354 0.037797578 -0.12125882 0.07519055 -0.000371796 -0.046307232 -0.05015646 -0.07268801 -0.10286465 -0.087958954 0.03730804 -0.25497627 -0.22788243 0.007076957 -0.058086086 0.14863506 0.10274441 0.080636114 -0.12622838 0.002908382 -0.15504593 -0.01988014 0.071227476 0.10733461 -0.10638181 -0.08105858 0.043862276 -0.023006668 -0.0033809983 -0.08128048 0.0748957 0.025084939 0.10395947 -0.031995427 -0.0027416856 0.07018949 -0.2153171 -0.005397812 -0.07313052 0.01288234 0.32232723 0.1980687 -0.16988577 -0.20811224 0.017867943 -0.07659417 -0.07909748 -0.25295645 -0.117585 0.25966325 -0.10102214 -0.14302213 -0.034306828 0.21972236 -0.069882855 0.06356175 0.111475825 -0.18551402 -0.10050619 -0.029661765 -0.14116971 0.11644327 0.0025457765 -0.09293192 0.017841082 -0.037585914 0.06667722 -0.13264564 0.01346754 0.08546362 0.089483246 -0.035676885 -0.027305497 -0.030989373 0.040837627 -0.1280223 -0.009119113 0.1723964 0.079358056 0.008419855 -0.03841215 0.1821427 0.091721825 0.13645318 -0.0064824615 0.06922554 0.2094608 0.02640026 0.094246335 0.011657682 0.12069489 -0.029640617 0.12127366 -0.004016208 -0.20756875 0.13371813 -0.11018043 0.03102114 0.1431113 0.06894098
483 0.30885574 -0.06210014 -0.051973224 -0.15520744 -0.21558067 -0.08574044 0.014993068 0.06979661 0.04891991 0.17482272 0.22649162 0.06289458 -0.10091719 0.03739602 0.0028866995 -0.038290303 0.23904732 0.10330071 -0.10079064 0.04114055 0.00015052 -0.13271585 0.07143677 0.06272822 -0.12398636 0.074672766 0.017044647 0.08694466 -0.027873984 0.026439888 -0.05761308 0.295766 -0.09725415 -0.13640295 -0.0005432863 0.014982088 -0.018245276 0.09167729 0.15169951 -0.16687192 -0.17198272 0.039281093 0.037922796 -0.04480048 -0.19291525 0.08947025 -0.115923196 -0.039227314 0.066857465 -0.015977029 0.05566739 0.019619657 -0.03592301 -0.1100715 0.29625136 0.10000751 -0.05304197 -0.08993586 0.041388053 -0.039773136 0.02057897 0.06463972 0.08893797 -0.14937404 -0.121415846 -0.1900969 -0.22828984 -0.053914867 0.20361537 0.15268418 -0.1437849 -0.06246649 0.02388316 0.21081518 0.066091545 -0.2634456 0.062066093 0.044077076 -0.03838639 -0.082067534 -0.004882527 0.20976172 -0.08789328 0.13680325 0.16011152 -0.082057364 0.08996889 0.10657462 -0.06674749 0.033234596 0.041656982 -0.11712442 0.11260936 0.06275774 0.050514933 0.010557584 -0.11940497 0.08413178 0.028001623 -0.00047142585 -0.07986597 0.11616534 0.12857945 -0.08816685 0.0071300133 0.22157261 0.018040577 -0.103946604 -0.059859097 0.30561435 0.0651784 0.20607518 -0.13902724 0.15932947 0.32415426 -0.05295173 0.0595036 0.008649905 0.0018713678 0.17242876 0.089850016 -0.068037584 0.010288393 -0.049576633 -0.04713356 0.06443949 -0.013420586 -0.10000189
537 0.1942901 0.016666744 -0.048394687 0.06279757 -0.13546552 -0.1304738 0.0072517754 0.06547673 -0.037725355 0.20988287 0.254753 0.10710516 -0.16395627 0.19314705 0.15344216 0.014934711 0.17920119 0.07129966 -0.14184968 0.045435388 -0.04559716 -0.20171358 0.14454712 -0.13026793 -0.1460088 -0.027365426 -0.04715073 0.0031560666 -0.11677599 0.113455094 -0.18553174 0.1437867 3.3949287e-05 -0.005323958 0.16342966 -0.06386271 -0.0061085913 0.2126999 0.026648546 -0.2542415 -0.15308113 0.0018880476 -0.099768296 0.03673931 -0.011906822 0.07861542 -0.12176541 0.0108442055 0.032124378 -0.039248984 0.10882688 0.06326619 -0.049304906 0.05968236 0.02784889 -0.09178847 -0.16083378 -0.13547528 -0.03637116 -0.05120584 -0.108340956 0.05758572 -0.08392168 0.08227198 -0.18657298 -0.15668578 0.050616946 0.24713625 0.21594489 0.17568357 -0.1256397 -0.31785953 0.063157335 -0.09143136 0.114244066 -0.10008684 -0.017596234 0.28521723 0.16235887 0.08340168 -0.06714343 0.20834117 -0.22494355 0.10546757 0.0409154 -0.08985558 0.24920383 -0.075023994 -0.23554078 0.19990936 0.19887151 -0.06473189 -0.029444734 0.094152555 0.22363582 -0.0792923 -0.081008196 -0.034339648 -0.12518217 -0.035454366 -0.056605864 -0.11130888 -0.120566286 -0.12897152 -0.22955975 0.06257777 0.0843197 0.059233405 -0.30623037 0.27784297 0.13837777 0.10835434 -0.13163218 0.36419272 0.18983334 0.03119499 0.07995294 -0.19698036 0.11745447 0.11612127 0.10530821 0.050808813 -0.20053232 0.28119192 -0.099813774 0.03326848 0.05096785 0.13498983
513 0.19446975 -0.05956099 -0.036051597 -0.12580109 -0.15663713 -0.044079717 -0.033536945 0.14343461 0.16916889 0.1257791 0.20552582 0.08541142 0.037948806 -0.03180116 0.19730987 0.08744816 0.18763436 -0.0086012855 0.046252087 -0.10428548 0.03334428 0.15187024 0.046260834 0.11168851 0.019316884 0.16538678 -0.018956492 -0.118970074 0.02912107 -0.035524003 -0.040514167 0.13209987 0.05844851 0.10087045 -0.13918498 -0.17987084 -0.014282888 0.074314766 0.21088487 -0.26809597 -0.06766705 -0.09512466 -0.14067769 0.11389171 -0.076988496 0.058297146 0.014753015 0.046759304 0.059678756 -0.10078461 0.021112185 0.19627844 0.08283706 0.09358379 0.1489391 -0.026746808 0.04647509 0.028072754 0.030386217 -0.032871887 0.052049384 -0.030837819 0.015327296 -0.046727076 -0.0064052087 -0.019506795 -0.044563085 -0.002974281 0.19000971 0.16709867 -0.011482003 -0.05395839 -0.015649995 0.030188516 -0.14845324 -0.074121356 -0.05293892 0.20260182 0.09467178 -0.06885225 0.011135222 0.22287656 -0.24554722 -0.027521675 -0.016002672 -0.15452911 -0.07687342 0.13430546 -0.030014768 0.050144546 0.15164316 -0.04747888 0.040681586 -0.11444608 0.026576115 -0.23794296 -0.069007486 0.15149444 0.037461307 -0.18796043 0.042126592 0.010692974 0.15675516 -0.103267334 0.028914252 0.23142748 0.12617615 -0.03829382 -0.0039924285 0.12809631 -0.03994144 0.18768248 -0.024098534 0.04894424 0.1685143 -0.0926093 0.046797857 -0.0054532033 0.07907182 0.022982331 0.17147717 -0.17495829 -0.22076243 0.081246376 -0.06937524 0.026434187 0.022264495 -0.035697214
548 0.013322941 0.028311452 -0.2651433 0.050315645 -0.17660636 -0.16966349 -0.0040824637 -0.012588655 0.044045214 0.05038431 -0.12284541 0.2089929 0.029757533 0.08186182 -0.10874596 -0.057427395 -0.06057857 -0.29171613 0.06549653 0.21834072 -0.15207288 0.03311248 -0.038702622 0.23669279 -0.27546784 -0.15774813 0.19616754 -0.21550192 -0.0955351 -0.18338229 -0.115131184 0.345612 -0.11573019 -0.13363351 -0.13386953 -0.07020764 -0.15906437 -0.09656437 0.2849969 -0.20608816 -0.1737149 0.01458979 -0.10593289 0.2475952 -0.08970522 -0.14996554 0.04360422 -0.092539445 -0.12735122 0.06673132 -0.038450252 -0.0069346377 -0.1964198 0.117819265 0.065659694 -0.07819216 -0.3254819 -0.113881476 0.15467773 -0.07148886 -0.12095929 -0.10364283 -0.017846057 -0.068490505 0.17161939 -0.03982216 0.020395765 0.18013524 0.010594446 0.0832018 0.10689872 0.0677328 -0.103476524 0.16782577 -0.029788252 -0.124751836 0.08220837 0.19231138 -0.022275237 0.1124675 -0.13798097 0.4315604 0.22177796 0.055334244 0.3165989 -0.23740497 -0.09130917 0.06231697 -0.123346046 0.057408404 0.24471167 -0.20769463 -0.009369201 -0.08080029 -0.16608039 0.2924347 -0.12151563 0.024055855 0.15358381 -0.024174605 -0.3349754 0.14430992 0.0998789 -0.116195746 0.016027497 -0.040306527 -0.019993836 0.04614391 -0.2631197 0.25931284 0.043231096 0.0063320817 -0.04281955 -0.035128526 0.120235145 -0.10492982 -0.019372331 0.011379543 0.18963946 0.08813674 0.12945925 0.021639207 -0.13684677 -0.08878108 -0.073241055 -0.0035350455 0.11626074 -0.04601144
559 0.16802695 -0.040173013 -0.06572866 -0.19271733 -0.2006612 0.014819684 0.0008806107 0.19546407 -0.039864648 0.06837943 0.036443595 0.0706892 0.026113005 0.033221725 0.07265994 0.0636114 0.06646518 0.10878606 -0.16066153 -0.065623514 -0.08103304 -0.10679682 0.07732688 0.026315771 -0.044497978 0.048433036 -0.13043007 -0.0069515323 -0.04303098 0.09570039 -0.07479103 0.17568204 0.06834433 -0.026821027 -0.0622212 -0.1373435 -0.07757666 0.11339445 0.08385353 -0.23542516 -0.15943694 0.032584637 -0.07846515 0.08389455 0.083710305 0.0012199492 -0.16752455 0.10054005 -0.054796558 -0.07397344 0.048367776 0.13159987 -0.13113166 0.05192728 0.24511985 -0.10869971 0.045080226 -0.11912727 0.07379342 -0.01277444 0.23729128 -0.030684335 -0.007602928 0.09441653 -0.15799125 -0.12739627 0.08269714 -0.014263509 0.23761037 0.20334493 -0.18308236 -0.0746187 -0.07852212 0.16013426 0.00044691563 -0.20088652 0.123832725 0.13659161 -0.012360172 -0.16226298 -0.043100964 0.19288075 -0.06487949 0.105140604 0.10327462 -0.084160574 -0.05822866 0.08378631 -0.14127648 0.11345134 0.110369876 -0.13063881 0.0307699 0.027832005 0.14394075 -0.013410574 -0.044033743 -0.025722072 -0.065016 -0.06354653 -0.004644262 -0.03840252 -0.059085358 -0.16136989 0.12808195 0.16989225 0.0110967 -0.0672778 -0.013491579 0.22339314 0.18411303 0.0626408 -0.027559463 0.111030266 0.06243021 -0.002858717 0.07536898 -0.16119505 0.076784566 0.07774762 0.12217892 -0.06826372 -0.09159326 0.085121125 0.06830058 0.0025524623 0.013415478 -0.041267864
555 -0.00582215 0.009987672 -0.21404679 -0.1092355 -0.20711407 -0.16690324 0.18919925 -0.0034931398 -0.08786735 -0.126748 -0.06558211 -0.19712912 0.16014513 0.1000602 0.29647994 0.24877857 0.11993542 0.076121084 0.029228205 0.08165932 -0.09054628 0.11217428 -0.15687563 0.14318104 -0.016204773 -0.18389042 -0.073921815 -0.072990954 -0.17381988 0.08258988 -0.13318367 0.20439842 -0.0112636695 -0.0405371 -0.20959319 -0.21497571 -0.041473325 0.14246467 0.004988757 -0.05769143 -0.321444 -0.06873558 -0.078216456 0.011674046 -0.06454522 0.13406105 -0.112102576 -0.04757648 -0.004570423 -0.11000256 0.00010504113 -0.1502226 0.19750796 -0.030453777 0.054122593 0.24187805 -0.07597135 0.080602795 -0.04666389 0.03862256 -0.048707996 0.001388746 -0.31601113 0.17447147 -0.020814683 -0.051682353 0.13524435 0.24333593 -0.13569508 0.19481581 0.2211956 -0.13426314 -0.12322887 0.24563059 -0.028414084 -0.2980181 0.16854085 0.18645138 0.24237622 -0.07266905 -0.09360511 0.083399296 -0.0455806 0.1478857 0.22546333 -0.11490806 -0.14303996 -0.120710224 0.105762355 0.005656557 0.32630137 -0.17250681 0.0051469067 -0.12609348 -0.09331166 0.061162297 -0.1599104 0.08077915 -0.014198306 -0.11384757 0.032107353 0.03191807 0.0059364657 -0.24155238 0.12963098 -0.008255167 0.26038072 0.00240473 -0.12162833 0.16648634 -0.32550135 -0.10932919 -0.049231753 -0.023726722 0.14529799 -0.026426 -0.16402441 -0.047104686 0.079355605 -0.20218728 0.25496578 -0.028967207 0.0866861 -0.03393877 -0.1279526 -0.13095921 0.048796013 0.09272835
395 0.19189069 -0.1772745 -0.14080961 -0.00032067893 -0.10784501 0.09115298 -0.08750525 0.053634487 0.11871073 0.10718569 0.23645395 0.019263832 -0.07266654 0.11831898 0.14000276 -0.13718812 0.11122187 0.11843088 -0.17275724 -0.15184833 0.15091966 0.004142509 0.14698799 0.07745198 0.048546225 0.111141756 0.113671206 -0.0599625 0.04718605 -0.03911302 -0.082311064 0.058091562 -0.14269957 -0.013827022 0.018088229 -0.14699273 -0.119846806 0.020426333 -0.042365678 -0.23559895 -0.26014844 -0.111673996 0.06371573 0.085998125 0.046678554 0.009956983 -0.15296498 -0.05006085 -0.073202275 -0.0207429 -0.09695214 0.0618544 -0.07308739 0.011959771 0.095304966 -0.09891771 -0.1175679 -0.028744671 0.093147285 -0.021138784 0.033730883 -0.07078192 -0.026530905 0.07328553 -0.19296958 -0.026373176 -0.22462392 0.052728932 0.1937818 0.10605218 -0.039931443 -0.096389204 -0.14461766 0.18607871 -0.19028443 -0.15461524 0.015803812 0.17254989 -0.13606144 -0.07675497 -0.028550362 0.34975097 -0.16595423 0.04587412 0.14296223 -0.12034505 -0.008907045 0.01826061 -0.044982865 0.06367422 0.12441007 -0.1252465 -0.029326532 0.04336515 0.017655123 -0.09081202 0.0053930255 0.10111489 -0.03356406 -0.2209082 -0.022501957 -0.14501613 -0.028509168 -0.17254461 0.12159816 0.15741237 0.03057877 -0.024078572 0.018596644 0.23506844 0.11705502 0.11355874 -0.030875541 -0.032922424 0.13907467 -0.07803536 0.0036085143 0.005612994 0.03444528 0.032707587 0.18927485 -0.0057521905 -0.037299555 0.24042684 -0.05760498 0.040175576 0.035012893 0.04737828
431 0.2734415 0.05739588 -0.17174613 -0.08862356 -0.25599805 0.055993136 -0.022520391 0.062523365 -0.07759754 0.044753097 0.12116215 -0.07689602 -0.051531073 0.042403415 -0.07012948 0.19875368 0.21714641 -0.13678227 -0.12771855 -0.07304504 -0.077331826 -0.07832714 0.20111586 -0.023552367 0.011926536 -0.05160092 0.013196508 -0.20404983 -0.09672773 0.07233195 0.031973436 0.087855496 -0.09196987 0.08982907 -0.05887454 -0.09882402 -0.105424784 0.004230136 -0.030221602 -0.36929113 -0.23149422 0.035445206 0.01889795 -0.009203402 -0.08646316 0.09928274 -0.25665426 -0.03546418 -0.09543798 0.103388585 0.06632257 0.17622562 0.08431415 -0.057764634 0.19320446 0.20116386 -0.19631086 0.06159382 0.042904817 0.14424816 0.091106765 0.029424993 0.038434803 0.16810067 -0.26722997 -0.11073258 -0.106651574 -0.08275546 0.24779937 0.24679947 -0.06875558 0.03296662 -0.07490527 -0.056027383 0.0042066923 -0.12985268 0.11645641 0.010198275 -0.10500769 -8.497835e-05 0.047176823 0.1891894 0.06900656 -0.080089204 0.15065737 -0.120471254 0.039302368 0.13674976 -0.052913934 -0.020994144 0.121914044 0.106133826 0.005833466 0.010821162 0.12672924 0.08395245 0.005966605 0.012892812 -0.20416132 -0.020772401 -0.14391738 -0.16674584 -0.10034769 -0.034635432 -0.046366792 0.16792125 0.02508199 -0.017048955 -0.022679713 0.10413915 -0.03781621 0.2580887 -0.07143874 0.10921769 0.28259116 0.013317683 0.039366413 -0.2747218 -0.020651022 0.18973723 0.15423287 0.038667507 -0.13316065 0.08464857 0.05467437 0.03827972 0.046211723 -0.037027854
506 0.13308984 0.13141897 -0.06867842 -0.11654854 -0.26911712 0.0152696 0.017287932 0.15576757 0.11046657 0.024369394 0.11643145 0.15813568 -0.006102107 0.12256832 -0.020694114 -0.00019732182 0.07720138 0.02646693 -0.11332496 -0.092165366 0.027762484 -0.015552104 0.1689335 0.16509308 -0.06490414 0.06333897 -0.11038006 -0.07495965 -0.032995056 0.10927907 -0.079772465 0.251473 -0.18748255 0.023295883 -0.08354996 -0.29139975 -0.08722214 0.06881007 -0.00424363 -0.09304035 -0.03944019 0.011620008 -0.016158264 0.052557867 0.00041972788 -0.09639452 -0.037002336 -0.042479698 0.012283514 -0.052248463 0.087714724 0.08268229 -0.05821913 0.15752415 0.16700189 0.027235907 -0.07297431 0.13210084 0.096326165 0.006195066 0.06904463 -0.08685303 -0.054927964 -0.05146375 -0.31883767 -0.13529377 0.057500344 -0.023498725 0.25843737 0.13562225 -0.17225046 -0.078474596 -0.2287738 0.07340265 0.09708134 -0.018282935 0.00041994255 0.020161185 -0.06426984 -0.18044923 -0.031017547 0.2141815 -0.08727066 0.14780042 0.047616422 -0.03891366 0.009023993 -0.03949642 -0.14786352 0.08891951 -0.033767745 -0.0017414102 0.15066823 -0.08140772 -0.0028920108 -0.14369592 -0.10279457 -0.0355709 -0.04876808 0.06728968 -0.049113777 -0.08341118 -0.103555575 -0.09012895 -0.0218142 0.24161644 0.15054479 0.0037957907 -0.15146476 0.1750532 0.07357563 0.3227583 0.124430634 0.046868265 0.1495445 -0.17039768 -0.062925905 -0.03423291 0.05042442 0.10959899 0.13617864 -0.11993462 -0.030341929 0.123179376 -0.04885005 0.09399569 -0.07266842 0.050214283
456 0.1822874 0.15528207 -0.09663411 -0.16064768 -0.23209943 0.06382587 0.09205103 0.08485055 0.059363835 0.11756822 0.1442667 0.087939136 0.0059557064 0.081774175 0.07018911 0.09279597 0.28771156 -0.104261115 -0.19814679 -0.09916595 0.07023339 0.02513696 0.03348259 0.11270332 -0.03547051 0.014222521 0.0042983294 -0.0037836665 -0.049088698 -0.020769464 -0.07702481 0.0039914264 0.013728409 0.05174272 -0.10420513 -0.12967353 -0.009688387 0.05402195 -0.058079164 -0.30356354 0.088822834 0.102354966 -0.04269128 0.050187297 -0.11626296 0.12931255 -0.18559234 -0.005360578 0.014999667 0.013138457 0.06864544 -0.13888521 0.1312525 0.08402015 0.28009546 0.12059492 -0.15363559 0.11748234 0.017586442 -0.029566176 0.091106005 -0.07155717 0.08413155 0.05142284 -0.1316874 -0.050962757 -0.101974644 -0.073957935 0.25979733 0.043781016 -0.046393387 -0.007865756 -0.058495086 0.01914997 0.020662384 -0.19265085 -0.08401219 0.19021478 -0.06471998 -0.09288611 -0.07895136 0.34099534 -0.24721819 0.07196561 0.08436239 -0.030317616 0.004199436 0.09296099 -0.17338398 -0.046479728 0.12913594 -0.12754194 -0.11490806 -0.017126372 0.0034742034 -0.070258275 -0.032291308 -0.010615294 -0.057078116 0.04859216 -0.07228328 0.020523956 -0.0056990194 -0.11392352 0.15098026 0.18851571 0.041245747 -0.055247877 -0.15121242 0.18004726 0.13183087 0.11188945 -0.08229066 0.102767535 0.032702725 -0.18896501 0.037137453 -0.04988261 0.07805261 -0.062257107 0.23109588 -0.06972713 -0.064801015 0.10813874 -0.099786475 0.0052177743 0.06541988 0.09649554
515 0.24595046 0.237044 -0.3019499 -0.046219446 -0.10845736 -0.015366582 -0.0579376 0.010387891 -0.03262138 0.041176606 0.18906328 0.054652225 -0.065260895 -0.007700641 -0.057220034 0.11287438 0.06626116 -0.07740606 -0.12597574 -0.04831712 -0.114277735 0.026523985 0.0672519 0.14258537 0.009617767 -0.1216864 -0.10046308 -0.012680699 -0.08624411 0.2088195 -0.14250337 0.09195311 -0.10769133 -0.06865219 -0.08957408 -0.08795481 -0.10310764 -0.0027500421 -0.12174544 -0.11727557 -0.13888533 0.0070505766 0.026302226 0.233819 -0.08948996 -0.1196989 -0.14372009 -0.00025926187 0.110434 0.051325202 -0.028401196 0.22330151 -0.024467843 -0.008676387 0.14623119 0.060996648 0.0027280515 -0.0029901029 0.044150453 0.059465267 0.118669026 -0.023368213 0.062043 0.08877685 -0.17384768 -0.057339657 0.22030872 -0.06443458 0.11478751 0.10958114 -0.2024126 -0.05034152 -0.1220961 0.07100957 0.07796099 -0.22149234 -0.015559581 0.17753272 -0.101563945 -0.10608289 0.04375018 0.18040413 -0.021615565 -0.07336435 0.0892947 -0.25184932 -0.013242991 -0.01348176 -0.107424036 -0.012160851 -0.050002582 -0.0059234616 0.04451831 0.13629885 0.14036265 -0.06903223 -0.113885134 -0.0056086546 -0.011892272 -0.08789016 -0.062227037 0.01544358 -0.15497619 -0.13903004 -0.00719442 0.18453422 0.08651669 -0.08917037 -0.14615244 0.17922394 0.026766023 0.082329266 -0.07870206 0.047814496 0.1847896 -0.20374115 -0.0124185765 -0.10262114 0.03850041 0.11308717 0.1830392 -0.25493926 -0.25565895 0.047567856 -0.07292695 0.1292618 0.018882742 0.08532253
432 0.13999036 0.045609035 -0.049867596 -0.06960482 -0.05883033 0.18267164 -0.078048125 0.15675706 0.01613928 -0.13135897 0.050050233 0.0067847627 -0.16183624 0.048464645 0.09341257 -0.211177 0.25851303 0.027517289 -0.16334957 0.0102861775 0.08043671 -0.22112711 -0.039076403 0.2960771 -0.15888108 0.07485427 0.12934941 -0.10178211 0.070347376 0.17186436 -0.1686686 0.19158365 -0.19119759 0.2221913 -0.077382416 -0.23034312 0.06670546 0.07385149 -0.082757466 -0.20997542 -0.0031163364 0.07360768 0.21141838 -0.11457584 -0.10517133 0.08016458 -0.093367994 -0.09565508 -0.20263788 -0.023485802 0.12746194 0.030639384 -0.11175819 -0.10086112 0.26797265 0.055424802 0.019502468 -0.009855784 -0.008535118 0.011016629 0.008351665 -0.095716946 -0.012866627 0.11580848 -0.2773798 -0.045260042 0.043388795 0.14391632 -0.051948644 0.09948283 -0.09477011 -0.10583473 -0.009488884 -0.040469445 -0.0070669404 -0.27656737 -0.044452872 0.2040751 0.019165501 -0.16170742 0.024413804 0.28360918 -0.16443309 -0.032736987 -0.0855558 -0.13792963 0.083714224 0.13649486 -0.10514284 0.12597033 0.19672105 0.045066074 0.16802867 -0.04867441 0.20401089 -0.157024 -0.17538336 0.014813223 0.031843957 0.12435329 -0.1251384 -0.031235583 0.09801718 0.033679187 -0.035374004 0.069699004 -0.04941137 -0.21232635 -0.030948509 0.24879444 0.07144096 0.007792724 0.08025861 -0.13615952 0.23799004 -0.15815216 -0.15986226 0.01918916 0.28027138 0.07185144 -0.13142492 -0.018417377 -0.064706124 0.08266921 0.043238778 0.17039329 0.13290271 0.043206945
391 0.1476845 0.123170525 -0.19773695 -0.03192399 -0.22424534 -0.0073137754 -0.062829874 -0.06936296 -0.028395012 0.019727899 0.1636034 0.07357839 0.06981945 -0.042541716 0.002812257 0.12619156 0.23519208 4.36303e-05 -0.19386251 -0.06610814 -0.14202869 -0.053422917 0.0002688818 0.066833444 -0.10694636 0.158956 -0.09276245 -0.0023993305 0.0889708 0.077250384 -0.18173417 0.11798771 -0.0036579615 -0.037763473 -0.09199196 0.0074051316 0.10602951 0.015602679 0.118267305 -0.078467935 -0.19329122 -0.0671829 0.0051332354 0.12969543 0.0018172769 0.0069830795 0.013195531 -0.10427517 -0.009544225 0.136352 -0.0044432306 0.26137576 0.073979385 0.15260094 -0.0052905395 0.16311689 0.0011580908 -0.04944549 -0.10700119 -0.078840345 0.021298897 0.01688098 0.09833 0.030911958 0.015071254 -0.08899242 0.0041100597 0.21966782 0.104597956 0.2034604 -0.14395615 0.03202658 -0.027837224 0.21353765 -0.09050924 -0.08155381 -0.01644413 0.17894022 -0.1479091 -0.11176245 -0.06683689 0.29542437 -0.0770255 0.11150522 0.2849202 -0.26597193 -0.0007537641 0.13364315 -0.053418938 0.028821647 0.13923725 -0.13996918 0.11156487 0.058121927 0.20854795 -0.14940226 -0.1286151 0.05334016 0.06265952 -0.04796323 -0.08158156 0.07963147 -0.021537043 -0.09583929 0.0048610438 0.16856581 -0.08169653 -0.1749673 -0.095557585 0.15632546 0.10225856 0.11818835 -0.10847179 -0.12924743 0.11871345 -0.020526031 -0.14022167 -0.07830832 -0.109957695 0.03566678 0.09252498 -0.16082646 -0.15588884 0.030416638 -0.078185365 0.03458008 0.03447031 0.0420159
517 0.16724162 0.041017324 -0.09133988 -0.105507575 -0.1718953 0.03444943 0.077778526 -0.026914159 0.007048483 0.08442247 0.060231436 -0.03303192 -0.2018281 0.09268109 0.0047979015 0.058388982 0.14362001 -0.03212876 -0.1280073 -0.062186383 0.014303333 0.04929343 0.01997023 0.07364304 0.058941808 0.07638542 -0.045589067 -0.16159536 0.12779197 0.015222856 -0.13580275 0.17027016 0.05937533 0.010954386 -0.17209901 -0.22864605 -0.1868914 0.16973047 -0.022834083 -0.116838284 -0.11514067 -0.0076856227 0.100831375 0.009254743 -0.04330968 0.090895824 0.019936074 0.014720067 -0.11814208 0.15563487 -0.06572378 0.15432535 -0.00259975 -0.067076445 0.1383827 0.06564824 -0.024116548 -0.004698029 -0.05877567 -0.060644012 0.28469548 -0.025120916 -0.012806828 0.0032908472 -0.23478849 -0.0057675536 -0.1435286 0.016633656 0.21794118 0.12814121 -0.23164488 -0.11124417 -0.09169978 0.11692077 -0.055289447 -0.08596916 -0.035974752 0.11113837 0.054316822 -0.09485101 -0.0045797983 0.275583 -0.023782087 0.041613337 0.010989274 -0.117762156 -0.12889707 -0.04181519 -0.013452292 -0.008699153 0.12749161 -0.13286611 0.00661606 -0.09136606 0.018126234 -0.12523265 -0.17085993 -0.011269491 -0.07261841 0.049181502 0.08406254 -0.02683752 0.059390686 -0.24638899 0.09793469 0.14462614 0.12612814 0.031214159 -0.08688253 0.062271018 0.21134895 0.15975353 -0.2271537 0.1731568 0.115114495 -0.110951185 0.036062106 -0.1763757 0.043943558 0.10225259 0.10691988 -0.03620095 -0.13983913 0.11852743 -0.13887191 0.10740572 -0.023771763 0.12061819
520 0.12688202 -0.018958328 -0.26119247 -0.020026056 -0.20419171 -0.044607192 0.028558612 0.079986654 0.08875301 0.083795674 0.11328528 0.16796058 0.006924257 0.10327147 0.22926734 0.23056272 -0.012072009 -0.012850117 -0.055034276 -0.08577519 0.10348878 0.09193941 -0.00511927 0.13619773 -0.09192389 0.13286941 0.016244544 -0.014943924 -0.09972895 0.036958028 0.106833495 0.18868147 -0.008567113 0.081177086 -0.120043226 -0.12325106 -0.10780989 -0.04482054 0.12441349 -0.015718538 -0.01205267 -0.13225245 0.07640932 -0.057613313 -0.023267502 0.09504234 0.09809543 0.11384124 -0.06124228 0.039432734 0.08900172 0.1513081 -0.0014963988 0.10124519 0.12785973 -0.048779834 0.0077328077 -0.03606245 0.09778779 0.010093244 0.24205929 0.066394806 -0.0043843184 0.121757865 -0.1523187 -0.09679752 -0.18133269 0.12110561 0.11588859 0.100108944 -0.19568112 -0.14099719 0.15923393 -0.053980775 -0.22969006 -0.1873886 -4.8078262e-05 0.14564653 -0.14928031 -0.23322926 -0.17608011 0.26709142 -0.28644744 0.028343411 0.020285068 0.010721004 -0.21613955 -0.005547657 -0.008837908 0.13658234 0.08904544 -0.15010963 0.019280475 0.10164796 0.041458167 -0.2623423 -0.12992689 0.15797882 -0.067430064 -0.067672625 -0.15671436 -0.07562029 -0.029820574 -0.029958643 0.10448616 0.26163557 0.014035793 -0.075076185 -0.0026915506 0.2259887 0.027583303 0.13576758 0.03017368 -0.06314746 0.065049805 -0.060244516 0.010055792 -0.063500285 0.034002777 0.16682161 0.04036122 -0.03088971 -0.28598025 0.06346437 -0.08875645 0.10173131 -0.017722819 0.0017508431
484 0.30268303 -0.07798126 0.022961432 -0.093665056 -0.19334921 0.108127154 0.024076683 -0.09298721 0.08948507 0.082524 0.22678086 0.11960538 0.04071827 0.04341504 0.06343522 0.3045852 0.3275457 -0.05797753 -0.03958988 -0.054390427 -0.099800356 -0.028379213 0.012731936 0.117983826 0.016389178 -0.010487013 -0.05970034 -0.13558641 -0.11996292 -0.0058907503 -0.024840655 0.0983956 0.1100698 0.105956085 -0.021827843 -0.11843488 0.11644779 0.14335363 -0.047940675 -0.21049267 -0.04542928 -0.09491466 0.06710383 0.06552534 -0.19889957 0.036053605 -0.071329504 -0.08060308 -0.025753612 0.0060610105 -0.03299474 0.20126384 0.010083904 -0.05375798 0.26070464 0.02073243 -0.06342441 0.055646997 0.18485521 0.030025417 0.18197004 -0.025374068 0.023894085 0.05670609 -0.14569043 -0.065272786 -0.09143853 -0.0013740353 0.27353767 0.0812253 -0.14399713 -0.051587787 0.04660007 0.11027798 0.11539863 -0.12309239 -0.015599432 0.08990246 -0.018409222 -0.12168564 -0.09128088 0.22581112 0.019467179 0.080148526 0.09821165 -0.14171946 0.06531303 -0.06292128 -0.1545781 -0.009692247 0.06499373 -0.072464466 0.14904279 0.05999854 0.101304576 -0.07086811 -0.0027963368 0.011699402 -0.05640498 -0.0048421915 -0.09989812 -0.10257597 -0.027127493 -0.13562733 -0.029814681 0.092772126 0.045863014 -0.07731775 -0.106442675 0.21836764 0.055943016 0.19561005 -0.1640985 0.092952386 0.17732902 -0.13898332 0.0934488 -0.23877305 0.046062555 0.16994895 0.16227502 -0.0061963866 -0.101226926 0.15520756 -0.11496469 0.15836626 -0.13140917 0.052011386
374 0.1419955 0.12650377 -0.20763843 -0.16925462 -0.1970009 -0.15278295 -0.047814377 0.05783256 0.16435197 0.035211075 0.022135112 0.060091 -0.006011957 0.045636307 -0.03337856 -0.028160881 0.0679527 -0.0035846129 -0.18419133 -0.05906807 0.04586644 0.049128316 0.21487844 0.17181483 -0.03385694 0.061946042 0.17731933 -0.0923414 0.13986646 0.0852821 -0.11618755 0.23882137 0.021258468 0.09769115 -0.11410773 -0.21770938 -0.13942713 0.15723999 0.13242401 -0.21973449 0.024212265 0.038567122 0.007794068 0.106648885 -0.04241344 -0.034977015 -0.19646367 0.008915887 0.020802053 0.038632795 -0.052963585 0.06756766 -0.06439149 -0.110751584 0.18048632 0.021580096 -0.08414594 0.023275714 -0.04140064 -0.008639548 0.13103856 -0.049723223 0.017951043 -0.13358463 -0.32941213 -0.14710784 -0.14905107 0.10167142 -0.0692102 0.07656974 -0.080794334 -0.050362572 -0.04382071 0.017850365 0.09608761 0.024813922 0.0747043 0.0755251 -0.13376026 -0.1599309 -0.20703766 0.38385564 -0.09798641 0.061295256 0.07806909 -0.029790241 -0.124104254 0.0050163385 -0.081476375 0.06886173 0.11673507 -0.00502906 0.27065715 -0.18415156 0.05168688 -0.13839011 -0.05872227 0.08828705 -0.03159503 0.11990618 -0.1653251 -0.0401817 0.026667764 -0.27387768 0.10073499 0.21169692 0.10358323 -0.026681194 -0.059701297 0.038187455 0.039819546 0.10857424 -0.09050402 -0.03070914 0.21062967 -0.20236875 -0.073328815 -0.05779886 0.09344734 -0.06211295 -0.20842937 -0.06883108 -0.12897949 0.11438926 -0.08174152 0.09454812 -0.010875937 0.018176945
436 0.16905217 0.086937726 -0.23403586 -0.107650585 -0.31940165 0.001538589 0.034231666 0.271756 0.18318601 0.21033601 0.11808126 -0.11765148 0.047819678 0.022913098 -0.07201983 0.0038424092 0.14506479 0.032288764 -0.29123968 0.037974026 0.117919624 -0.12357833 -0.028510438 0.13879706 -0.04834711 0.087474585 -0.025132166 -0.0637156 0.0593415 0.040459104 0.056933858 0.2054085 -0.16876936 0.09533036 0.045009963 -0.17811197 -0.13394535 0.0552924 0.1259722 -0.22493029 -0.0010982518 -0.013233873 -0.114353485 0.093738586 -0.07900029 0.07797712 0.019564986 0.1192062 0.05425878 0.07336513 0.17555809 -0.013221892 0.009674082 -0.0053467983 0.097420484 0.20973033 0.08863523 0.029928496 0.026411807 0.061532717 0.048019223 0.17084879 0.13329169 -0.027592525 -0.15924548 -0.10734765 -0.15667318 -0.012145629 0.31163073 0.23931153 -0.1412952 -0.028148312 -0.028826647 0.14274943 0.03295254 -0.22368465 0.076616555 -0.14466436 -0.16227573 -0.0019084341 -0.040375125 0.2553647 0.046124008 0.09551246 -0.0054272306 -0.10517425 0.016649967 -0.07896264 -0.052815117 -0.012165937 -0.024329122 -0.06262392 0.029576411 0.112135604 0.073165216 -0.05800799 -0.039801788 0.084829256 -0.014317179 -0.044884894 0.0063394974 0.04221767 0.024625547 -0.16457781 0.12265575 0.3098131 0.03429348 0.050170675 -0.0060478146 0.1460381 0.071363874 0.11761811 -0.09245614 0.11694396 0.20907988 -0.16610052 0.06082196 0.007834 0.14646208 0.010848212 0.1554468 -0.20146722 -0.14614908 0.07169969 -0.15684462 0.08481183 0.18763581 0.079271995
538 0.23442174 0.1953772 -0.11812289 -0.011741511 -0.27086723 -0.13813673 -0.028116008 -0.11559267 0.10553397 0.2664818 0.20253418 -0.071292154 -0.10104079 0.07729754 0.11912694 0.15137477 0.21882772 -0.118712835 -0.15378518 -0.1293549 0.019403169 -0.059955034 0.13322684 -0.0034493778 0.16134673 0.056797083 -0.04327878 -0.08296552 -0.033623308 0.074206114 -0.034639575 0.08520501 -0.051431555 0.20354815 -0.16353668 -0.106041506 0.071554214 -0.09639792 -0.053121123 -0.092741884 -0.13389358 0.10260851 0.07701339 0.02464662 -0.00036950439 0.0752088 -0.27696034 0.034458846 0.032154974 0.06460779 -0.060611445 0.18329084 -0.10844868 -0.09641078 -0.02743239 0.13391383 0.0442904 -0.005731006 -0.08459835 0.053340096 0.113007255 0.11624773 0.05811929 0.0414409 -0.08791079 -0.177648 -0.08923576 -0.07336195 0.39456683 0.17151117 -0.14430085 -0.054986328 0.04475564 0.2190815 -0.19604763 -0.058200683 0.10987867 0.22236106 -0.00790409 -0.048908748 -0.05073626 0.304724 -0.22169806 0.10487378 0.10101711 -0.0810035 0.022552721 0.17202313 0.028386777 -0.0063830893 0.015494869 -0.004525286 -0.081458956 0.08305015 0.03185528 -0.15942012 -0.035935115 0.08767517 -0.03603343 -0.043876648 -0.24480687 -0.042548295 -0.002008057 -0.1186387 0.06081759 0.07757646 0.08918235 0.017053204 -0.097662546 0.11962448 0.11650669 0.16555583 -0.12008263 0.13208097 0.25074756 -0.25616255 0.13496685 0.028830202 0.09365835 0.17842372 0.13141139 -0.023762083 -0.15040655 0.08782346 0.004652506 0.108961664 -0.03829666 0.08900644
419 0.17323986 -0.097050756 -0.12795211 -0.13983315 -0.31399235 0.15773629 -0.11317797 -0.06989942 0.036398284 0.0846059 0.07333293 -0.22044972 0.08867126 0.17960988 0.15829803 -0.020442694 0.10173058 -0.1879153 -0.13746963 -0.19829161 -0.006542335 -0.08168112 0.1599937 0.0031634592 -0.064057894 0.004210489 0.030975087 0.0033514518 -0.20117831 -0.00031841372 -0.024527429 -0.001215293 0.0515394 -0.13393562 0.1285557 -0.19537595 0.09685631 -0.032655586 0.09398671 -0.2625643 -0.09055225 -0.09751715 0.068237826 -0.018047303 -0.02368953 0.074078105 -0.124683045 -0.103259765 -0.06607564 0.09592487 0.030335175 0.31904724 0.019469256 0.11078815 0.0929615 0.20822822 -0.018161735 -0.04246463 0.07412861 0.17266835 0.15378849 -0.03150318 -0.034365673 0.08381415 0.001408829 0.05141213 -0.28403455 0.033694275 0.25824413 0.021968685 -0.1450105 -0.21079896 -0.07859744 0.04614943 0.010071938 -0.10402573 0.14612988 0.17000635 0.13864306 0.19894251 -0.028006328 0.18465176 0.025932029 -0.0944317 0.07753202 -0.044436943 -0.032034457 -0.08967125 0.019937152 0.0012723799 0.027569676 -0.058669735 -0.031425104 -0.10080876 0.16832413 -0.10236155 -2.8445618e-05 0.18119246 -0.17988116 -0.07586161 0.01412937 -0.17375562 0.04042898 -0.25306687 0.09455311 0.061928727 -0.02198502 -0.052931372 -0.09694459 0.20294055 0.09523384 0.1323429 0.052063655 0.18035476 0.3416617 -0.019414255 -0.088319674 -0.015700758 0.14102787 0.047390964 0.161535 -0.1186025 -0.30302456 0.31641182 0.048129514 -0.00767821 0.046800394 -0.002527148
378 0.2371067 0.11327545 -0.2511909 -0.025166651 -0.20197272 -0.016202537 0.072655424 0.18995732 0.16613558 0.18351862 0.200888 0.12883733 0.038580798 0.09366162 -0.023385642 -0.097409286 0.03444438 0.053220548 -0.23270133 0.0010276193 0.03578112 -0.061415408 0.038328897 0.06797699 0.06187858 0.057212725 -0.18038046 -0.11089569 0.074725285 -0.0062861065 0.03150754 0.2350657 0.01997952 0.2022425 -0.05322186 -0.22714937 -0.026525673 -0.14217028 0.0030648238 -0.17299841 -0.011243167 0.01796817 -0.10241272 0.006207828 -0.024232546 0.062147718 -0.064546965 0.04308406 0.08026028 0.0006933815 0.10953683 0.31763387 0.071658336 0.173965 0.10160665 0.1685805 -0.09885198 -0.113437764 0.031454507 0.04747441 0.08662625 0.06810012 0.020529274 0.032205187 -0.2702243 -0.06070314 -0.046222173 -0.08102808 0.17514564 0.13934006 -0.11932059 0.038384944 0.030185208 0.23088044 0.004484495 -0.24068275 -0.0034939456 0.1262379 -0.023107436 -0.19308409 -0.030125175 0.25890106 0.03535092 0.13659798 0.03393091 -0.15025115 0.035566173 0.19021764 -0.08419695 0.0069450745 0.12299856 0.054067902 0.028687457 -0.0028606781 0.13251679 0.09950616 -0.13613282 -0.022618428 -0.064246945 -0.021573452 -0.023189455 0.031066695 0.044954263 -0.16564603 0.1593758 0.17425439 0.093019255 -0.046297144 -0.05324809 0.33107904 0.07632772 0.0855251 0.05187888 0.0017542806 0.21926185 -0.04152527 0.10571336 -0.21138239 -0.071231216 0.13224766 0.11831842 -0.06322075 -0.111059666 0.069576584 -0.0787906 -0.024742087 -0.13783139 -0.12458959
428 -0.0061351634 -0.06848158 -0.35464507 -0.34981066 -0.0768313 0.1337698 0.14417517 0.20604454 -0.05339898 0.24217443 0.100591764 0.28345844 -0.11812591 0.114900745 0.19038638 0.21571492 0.26070514 -0.040143196 -0.13924702 0.16682774 0.11822611 0.07300495 0.006999056 -0.036826115 -0.0620867 0.036442444 0.025961498 -0.21044306 -0.0795287 0.080962054 -0.13042101 0.033828568 0.03603589 -0.15247221 -0.03051518 -0.042090055 -0.05368736 -0.11821788 0.03731471 -0.24868594 -0.16519296 0.018754551 0.09910201 0.038816515 0.0073838793 0.011910845 0.053417765 -0.043947846 0.09412849 -0.07112728 0.08661617 0.08774512 -0.05111793 0.003192859 0.23917273 -0.024463538 0.08680099 0.0021839743 0.08383528 -0.023109464 0.35280392 0.19217728 -0.12067613 0.019268552 -0.077977926 -0.024571344 -0.057434563 0.009270766 0.02752456 0.15562922 -0.06557889 -0.09242693 -0.047167677 0.101936445 -0.10895891 -0.20968826 0.08514732 0.18330324 -0.16540852 -0.04078792 0.008161822 0.2062902 -0.18761727 -0.018208586 0.1026494 -0.15058354 -0.054382194 0.09608262 -0.1150097 0.17136379 -0.027240533 -0.07173877 -0.12838662 0.01834301 0.13620023 -0.10537386 0.0013685611 0.047236312 -0.13296223 -0.10475121 -0.23715755 -0.033907663 -0.065264694 -0.1409828 -0.017692858 0.31344134 0.1761735 0.10416308 -0.3115317 -0.112975396 0.1921365 0.11310577 0.1136176 0.17539498 0.3283163 -0.15947685 0.13269153 0.023344556 -0.15963471 0.0037579653 0.002925656 -0.119151294 -0.05811485 0.17842236 -0.03327038 0.0056732222 -0.0011606338 -0.22975235
416 0.20954213 -0.15004283 0.0803827 0.30774763 2.4763012e-05 -0.08325385 -0.0537329 -0.17338164 -0.06213201 -0.066813275 0.018959364 0.15431373 -0.027963115 0.19946899 0.12967849 0.1401442 0.3672038 0.08224123 -0.2509981 0.07965978 0.002428743 -0.18891713 0.0086435 -0.076050155 -0.2467609 0.0659716 0.039318003 0.016112871 0.18650419 0.11272646 0.00965756 0.20757638 -0.16297834 0.049551684 -0.06029681 -0.10168819 -0.11403116 0.10305037 0.11666058 -0.25239316 -0.05288797 0.06185121 -0.06360012 -0.07092163 -0.11438581 0.110835604 -0.17783406 -0.116879664 0.032065857 -0.11511243 0.07482407 0.10590247 -0.12426176 0.24628781 0.18434346 0.08573793 -0.14010319 0.29437822 -0.145873 -0.31096143 0.13361333 0.06031167 0.062985994 -0.106576785 -0.21549268 -0.019032007 -0.24127205 0.035340004 0.032768153 0.010395378 -0.29054722 -0.068686366 0.06674317 0.027638802 0.0404059 -0.15079592 -0.2358471 0.26457295 0.012831619 -0.0838341 0.06275981 0.30266675 -0.07319445 0.1436212 0.27615693 -0.23957548 0.0073557766 0.049336165 0.100986 0.17257607 0.1698155 0.020891998 -0.15720987 -0.033253178 0.2530333 -0.09271732 -0.22529554 -0.18795304 -0.13344528 0.16367419 -0.029154403 -0.13444807 -0.027681146 -0.09007962 -0.068271816 0.011595189 -0.10735761 -0.27392232 -0.17624028 0.18080254 -0.14503762 0.20445581 0.053647652 0.40723407 -0.018198822 -0.22590509 0.08310685 -0.036024082 0.16353042 -0.13309553 0.0638002 -0.22691944 -0.0071988776 0.014307043 0.025228472 0.0764141 -0.03050631 0.17399101
362 0.5038006 0.06603529 -0.17890134 -0.103388794 -0.0029109025 0.03541824 0.06662295 -0.084023766 0.11132482 0.08718405 0.28596964 0.048673768 -0.05371928 0.0057690023 -0.06711553 0.026814284 0.13617483 0.13581458 -0.28295523 -0.07562977 -0.003735856 -0.050938595 0.12408474 0.31758535 -0.22407953 0.070292145 -0.29876462 0.08574022 0.12263971 -0.17229429 0.029598812 0.12931691 0.17500086 0.15002054 0.1755441 -0.15797928 -0.104418114 -0.11472225 0.17701538 0.09034567 -0.17277256 -0.0013492105 0.40299585 0.009470733 -0.18267585 -0.009293688 -0.04008937 0.06242686 0.0469697 -0.13199688 -0.04961275 -0.07196951 -0.052472647 -0.29956648 0.06812773 0.051517725 0.2004972 -0.061534632 -0.14009665 -0.07689296 0.14941247 0.12654498 -0.089622654 -0.10846897 0.0024490268 -0.04667369 0.0013247494 0.16445573 -0.084999986 -0.10124835 -0.14193556 -0.14309742 -0.087372534 0.13298279 -0.10914979 -0.21060963 0.060301054 -0.09464748 -0.10489032 0.10322115 -0.45817947 0.3549349 -0.07992364 -0.02878628 0.4006297 -0.043684356 0.10306158 0.19410914 -0.20166478 0.138984 0.019801464 -0.35461852 -0.09846349 -0.16882847 0.16007318 0.011994653 -0.255162 -0.009276275 -0.18172039 -0.09946079 -0.02841654 -0.076632194 -0.1746499 -0.023924112 -0.1276293 0.04825763 -0.021076435 0.1479045 0.095785104 -0.00024118744 -0.12552124 0.11462912 0.181755 -0.14742318 -0.012468913 -0.3666562 0.11631146 -0.29106808 0.13915321 -0.054438103 -0.025716186 0.0533216 -0.09338107 0.071122795 -0.3302224 -0.08157577 -0.014629062 -0.16479416
363 0.110835746 -0.0030948473 -0.09593752 -0.24963485 -0.27859703 -0.08084331 -0.19225423 0.035709348 0.071785755 -0.13454497 0.218312 -0.018282132 -0.2086962 0.1925514 0.13951616 0.09225511 0.15325771 0.06520362 -0.2131805 0.0018676351 -0.18577413 -0.08823861 0.052569807 0.0134680495 0.038959667 0.15882769 -0.14065178 0.022785785 -0.10046744 0.11705101 0.0057078428 0.22080423 -0.02851857 0.032257944 -0.0071190046 -0.0631825 0.015517025 0.09488559 0.03497408 0.025042864 -0.16877598 0.057828806 0.076737925 0.15439573 -0.06964157 0.033722073 -0.071294785 0.090748005 -0.032350868 0.0096192965 0.06604955 0.28834152 0.060312163 -0.059588853 0.049805086 -0.016534979 -0.18469615 -0.012639415 0.059173945 0.19402668 0.21426457 0.053031407 -0.042437337 -0.083133444 -0.13683097 -0.0120271165 -0.080549344 0.014510777 0.13562287 0.007227174 -0.004953534 -0.02051586 0.019853128 0.16324519 -0.055964995 -0.26872414 0.012894639 0.17674853 0.05879416 -0.0869979 -0.18327221 0.23614737 0.028930526 0.045211706 0.1430389 -0.23429345 -0.13159546 -0.03975202 0.039250664 0.04512414 0.028917765 -0.0471407 0.22394185 0.025829472 0.06659344 -0.036163934 -0.15977624 0.0026409053 0.015494658 -0.09785128 0.012017301 0.009179978 0.18673402 -0.17941117 -0.06044194 0.13418262 0.14391048 -0.010393957 -0.028762005 0.07441003 -0.0024060449 0.19819486 -0.090779044 0.015532046 0.33663103 -0.07941316 -0.0467417 -0.30245468 -0.101919524 -0.08375029 0.090517886 -0.026806723 -0.07525517 0.04298891 -0.10127987 0.050747357 0.15147379 -0.03508327
547 0.20227529 -0.1521042 -0.22674361 -0.15039115 -0.3338322 -0.042778738 -0.06524004 -0.06355514 0.16567367 -0.16210343 -0.16606677 0.079269044 0.034950104 0.19692363 -0.042530425 0.16738713 -0.00927797 0.060596064 0.23617052 0.15552947 -0.27653253 -0.1859443 -0.0010743268 0.3205353 -0.088081315 -0.25615075 0.047099534 0.039265472 -0.12222128 -0.07232652 -0.2849273 0.10979529 0.064093694 -0.04748933 -0.118351564 -0.074540354 -0.07478182 -0.008019284 0.096836016 -0.12566325 -0.31246734 -0.02897279 0.043728936 0.0369264 -0.10488635 0.08074007 0.11157237 0.05194575 -0.11044198 0.2602947 0.070535235 -0.08379509 0.00083432585 0.20627886 -0.042042267 0.10094213 -0.18253894 -0.10733108 0.09156312 -0.10400847 0.0046487907 0.0054369504 -0.33919674 0.17189549 0.030472266 -0.2318349 0.10107396 0.041974608 -0.04434482 0.030459812 0.19217254 0.08584181 -0.25884494 0.26438653 -0.0761398 -0.04680276 0.22357175 -0.019666618 0.09726086 0.13000652 0.030202042 0.21191391 -0.20601387 -0.05348111 0.38746446 0.11478515 0.05935007 -0.116798066 -0.12195124 0.028799927 0.12251012 0.027366485 -0.07061442 -0.23006333 -0.055322103 0.27894554 -0.29937628 0.16242635 0.027470835 -0.15727961 0.009010335 0.16959985 -0.08605155 -0.18967022 0.19285142 0.026263114 0.33024547 0.09375906 -0.13786206 -0.12022058 -0.12834486 0.07266356 0.014599781 -0.051073425 -0.008050927 -0.13261394 0.055649545 0.13799949 0.22358143 0.11096558 -0.028150568 -0.1875889 0.190204 0.021150507 0.048981026 -0.06020745 0.021684919 0.14355268
525 0.18803747 0.09488874 -0.0899942 -0.17528394 -0.30775177 -0.029281769 0.006463622 0.056605875 0.064124435 0.104251124 -0.0045750453 -0.03184848 -0.03753624 0.032781836 -0.042084135 0.09843992 0.2475332 0.02615765 -0.115451865 0.09230828 -0.07639288 0.045557186 0.12518245 0.061341047 0.10675239 0.06763829 -0.10031452 -0.011422377 -0.06278675 0.14189999 -0.13961288 0.1357617 -0.083690114 -0.087661736 -0.097795255 -0.2174483 0.015474946 0.011622738 0.06718687 -0.25674692 -0.006021962 0.11515813 0.035424396 0.015603515 0.096114315 0.032183025 -0.13870366 0.05592966 -0.20948626 0.053412803 -0.070712596 -0.05222307 0.0324896 0.1726141 0.23022908 0.018194573 -0.004819746 -0.10033208 0.019707832 -0.116207495 0.0934144 -0.03482424 -0.030682344 -0.042982426 -0.09138023 0.026702952 -0.0370816 -0.19941615 0.15562563 0.025926463 -0.08616847 -0.10552092 0.057335146 0.11451861 -0.13057554 -0.21756136 0.034072228 0.06730605 -0.07659968 -0.20164308 0.011416349 0.24891135 0.0037447887 -0.11927108 0.096025854 -0.09453179 0.097711846 0.13622005 0.032193348 0.16977589 0.14167468 -0.076181 -0.13102654 -0.13184586 0.10326836 0.0063553024 0.033219125 -0.0043417453 -0.11723418 0.13785124 -0.10014942 -0.09242948 -0.101615034 -0.1529053 0.0638056 0.099215075 0.1132851 -0.14676337 -0.23707905 -0.015316134 0.104943424 0.17021157 -0.2185971 0.2675803 0.21784896 -0.22344048 -0.028559264 -0.11936501 0.011679507 0.05436563 0.17056993 0.06061444 -0.13283964 0.14649615 -0.044809714 0.059352506 0.07946753 0.14432967
460 0.12719965 -0.140434 -0.38351476 -0.27248433 -0.09534172 0.1431606 0.056482174 -0.030856209 0.019799702 0.17737263 0.1821148 0.19864199 -0.19785096 0.23321488 0.02120471 0.060685333 0.19733487 -0.12847796 -0.13126637 -0.04970759 0.08790393 -0.032319378 -0.05209825 0.15507397 0.09694333 -0.15644613 -0.06634605 0.03856691 -0.12010309 0.20427358 0.043672357 0.32046792 -0.016529446 -0.083855174 0.16442183 0.058522824 -0.28107667 -0.023471922 0.090044014 -0.030760234 0.1645551 -0.04999926 0.21216002 0.009937257 -0.09232887 0.021316456 -0.00034864977 0.046330027 -0.14331776 0.2114786 -0.041856095 0.09334313 -0.021633042 0.06508148 0.2836801 0.13713567 -0.119266786 -0.05275821 0.018167743 -0.10672065 0.05660301 -0.18811034 0.08002886 -0.12848939 -0.08057168 -0.0028224718 0.0068624397 0.1911553 0.13754745 0.056037895 0.07198068 -0.32735565 -0.18460551 -0.022697955 0.067261465 0.14865124 0.06948228 -0.046451263 -0.039837517 -0.13574742 -0.11413793 0.29636028 -0.07196395 0.07018077 0.17599258 0.16241942 -0.1565617 0.1112684 -0.01169613 0.10583787 -0.11473509 -0.013159419 0.037666924 -0.21413451 0.082822986 -0.08406738 0.0049899407 -0.16128215 -0.16398472 -0.21157928 -0.12358323 0.04682487 -0.08919544 -0.18343167 0.11249638 0.25556663 -0.043426186 -0.016700963 -0.23747489 6.597082e-05 -0.26370287 0.0959611 0.0022331954 -0.107351534 0.30861712 0.052378487 -0.08339313 -0.19815603 0.30079296 0.03550007 -0.15342824 -0.12357026 -0.15123987 0.079008125 -0.041487087 0.1001627 0.0131466435 0.091049135
465 0.216386 -0.0808605 -0.065973066 -0.13822973 -0.13727587 -0.085442804 0.100890435 0.08659228 0.13969529 0.11021479 0.14535391 0.0016212924 0.044642076 0.08692636 0.078340486 -0.07018689 0.105237976 0.058870964 -0.25569248 -0.054810364 -0.13193038 0.11557155 0.056907706 0.08336851 -0.16840847 0.0906762 0.023051633 0.09102008 0.080585435 -0.0084020365 -0.056678385 0.05374408 -0.108767584 0.091879375 0.033444896 -0.19438525 -0.06102995 0.047465395 0.22649926 -0.18893951 -0.10621605 0.03179703 0.18045764 0.02014608 -0.15846345 0.1919359 -0.11022652 0.005193838 0.02764204 -0.019318394 -0.13331413 0.0642506 -0.2251704 0.0032885568 0.2658467 0.047486328 0.04761549 0.089161076 0.23342715 -0.24356367 -0.13926391 0.048326243 0.021180952 -0.1643058 -0.3924255 -0.0013495923 -0.0681901 0.061540905 0.11568411 0.041812617 -0.069688305 -0.114268616 -0.24803714 -0.006412344 -0.026251586 -0.13409886 0.0066362107 0.105396785 -0.06627822 0.064372756 -0.13008651 0.26595575 -0.18443473 0.059461445 0.26447842 -0.0682234 -0.010231844 0.17213531 -0.21952641 -0.018136663 0.08787651 0.049562752 0.08305709 -0.20734398 0.2517909 -0.15245286 -0.0013280128 0.022699857 -0.077518225 -0.10388283 -0.039636295 0.03360528 0.08493606 -0.019913282 -0.016344866 0.08833844 -0.0722126 -0.15864182 -0.12139982 0.013961244 0.18771192 0.13598326 0.04057545 0.121436246 0.26771605 -0.105847694 0.16244923 -0.0664096 0.06292873 0.14692937 0.17193349 -0.054954257 0.062759966 0.18781833 -0.21460514 0.08831826 0.09712634 -0.07588591
565 0.19139071 -0.053500716 -0.2740338 -0.2708536 -0.15045977 -0.053841982 0.05725652 -0.05724048 -0.11388886 0.11642497 0.13369553 0.14271268 -0.031057257 -0.13424863 -0.028682524 0.036741085 0.18360464 0.27936992 -0.07447938 -0.11108675 0.010795126 -0.09360762 -0.07486427 0.021318419 -0.05304764 0.14410289 -0.0872282 -0.09316585 -0.060578097 0.034469824 -0.19060881 -0.14125116 0.064379565 0.020119986 -0.025381256 -0.06971634 -0.3726531 0.01815187 -0.06428032 -0.03543979 -0.055277895 -0.2018863 0.040774748 0.2620376 -0.02514494 -0.039359447 -0.036760565 -0.15614162 -0.10683892 -0.013066142 -0.12044897 0.121931486 -0.04151756 0.11651804 -0.0911804 -0.01429411 -0.07290007 -0.021953458 0.0040407223 -0.21017092 0.15287338 0.03271771 0.1406322 0.11103079 -0.16508016 0.12212895 -0.071801156 -0.06773758 0.106320865 0.21498702 -0.28652883 -0.115731135 -0.03203503 0.12764558 -0.029488157 -0.3090966 -0.004412061 0.04138597 0.091331236 -0.08286438 -0.07960977 0.05393705 -0.047585458 -0.08632929 0.07983916 -0.15197626 0.040436465 -0.08847594 -0.10088524 0.061400127 0.09188525 -0.14331721 0.23787305 -0.12783417 0.13918637 -0.105484694 -0.12817436 0.022360498 0.12734893 0.0370375 -0.33209103 -0.00015944958 0.09717649 -0.077702574 -0.0704765 0.014821548 0.32529634 0.0901739 -0.028488873 0.4312403 -0.17079662 0.11736091 0.27070335 -0.09367763 0.029445382 -0.09703381 -0.06864873 -0.18438731 0.0650724 0.12639582 -0.016656749 0.036651716 -0.06386957 -0.07293774 0.02356527 -0.12649187 -0.026546922 0.038630687
439 0.2692295 0.08869577 -0.24548502 -0.100607775 -0.14828849 0.17565857 -0.15085405 0.076982275 0.40029207 0.10320908 0.09740766 0.08446187 -0.14963078 0.14342755 0.23674203 0.031665538 0.027089784 0.0010572437 -0.04496907 -0.0042875693 -0.15666166 0.048943613 0.09205168 0.001143377 0.14915113 0.06257688 -0.033092674 -0.046670087 -0.13641687 -0.080282025 -0.0190647 0.13679694 0.11161979 0.06538816 -0.06839658 -0.0895622 -0.07705538 -0.076326616 0.06854592 -0.25527644 -0.05732805 0.16487516 0.2245695 -0.012670278 -0.14350104 0.17179723 -0.030682156 -0.049578294 0.058884237 -0.12681873 0.037470225 0.07641805 -0.04432311 -0.00024831045 0.18977046 0.09587596 0.13104543 0.07564218 -0.12183362 0.032941908 0.062698044 0.022929534 -0.04047361 -0.06637678 -0.065343216 -0.10373519 -0.1242752 -0.17794384 0.32788673 0.06137536 -0.23422858 -0.2902402 0.005699971 -0.08965713 -0.014782754 -0.23729923 0.014648536 0.2186479 -0.12004067 -0.2622135 0.14159709 0.16705681 0.07153316 0.14273186 -0.03958506 -0.1995214 -0.021215642 0.075987816 -0.14019635 0.1158767 0.07393925 -0.077910654 0.11823419 -0.10587416 -0.021614393 -0.14773701 -0.0678309 0.047767065 -0.1300843 -0.14674929 -0.28634113 -0.008930253 -0.1356854 -0.11531859 -0.043969255 0.17836815 -0.045359444 0.029213281 -0.049529124 0.10458516 0.12513414 0.10343072 -0.031070264 0.05712455 0.013043534 0.05741309 0.21271971 -0.14044544 0.20299459 0.16245265 0.0897859 -0.11686299 0.08942182 0.22191657 -0.15503046 0.15342896 -0.08465145 0.053498097
368 0.3217087 -0.047702163 -0.05131992 -0.082072385 -0.253176 -0.029811816 0.314162 0.07737465 -0.003289881 -0.008649799 0.1382233 -0.08134042 -0.12421493 -0.034982093 0.23045966 0.06258765 0.20956813 -0.10129747 -0.09032912 -0.10260952 -0.049596325 0.1563305 0.25166786 0.022321882 -0.030895168 -0.10085438 0.10350661 -0.09568463 -0.052875962 0.18782389 0.12703104 0.1151314 0.0262783 0.13114007 -0.050485305 -0.03611605 0.029312123 -0.05569962 0.19080003 -0.23173672 -0.007541175 0.15466093 0.019869313 0.16435313 0.020041727 0.08686693 -0.14632563 -0.11419948 -0.19625227 0.078591086 -0.056284875 -0.02081392 -0.08521868 0.13962182 0.2157964 0.041104443 -0.30838183 -0.054035343 0.028997125 0.1363265 0.09573421 -0.06419357 -0.046270072 0.040226154 -0.08717574 -0.22082563 -0.25851056 0.15205386 0.14631702 0.00261137 -0.15467137 0.12237898 -0.13821703 0.031674724 0.31760517 -0.13607404 0.08602098 0.10765061 0.08947359 -0.21985342 0.026559962 0.23483159 -0.034927294 0.2441237 0.12591252 -0.122168064 -0.08076325 0.068984866 -0.033953246 0.015163606 0.08017375 -0.04098472 -0.18059707 -0.108039066 0.21270812 -0.2387054 -0.18684776 0.08943162 -0.118780285 0.120842375 -0.22390832 -0.065519 0.12313061 -0.03187593 -0.11905962 0.011000141 -0.039266158 -0.17291285 -0.06730832 0.111427136 0.20787121 0.25051197 -0.033832878 -0.005754393 0.14012854 -0.090080984 0.04369711 -0.22554538 0.17099836 0.05622776 -0.026975645 -0.08245391 -0.14775154 0.15829799 -0.11437681 0.10288328 0.13970011 0.08970792
514 0.07250867 -0.0081577 -0.21217842 -0.032707106 -0.18505293 0.090291716 -0.053597327 0.28398043 0.050143246 0.028096627 0.09956628 -0.020075282 -0.028872345 0.12809195 0.044916645 0.20887636 0.27564225 -0.14319435 -0.0968718 -0.08868145 -0.008783774 0.022595154 -0.03427434 0.096659094 -0.06346094 0.17579116 -0.03539874 -0.1392811 -0.027147481 0.09537475 -0.29173556 0.25229666 0.024956528 0.12951154 0.22376071 -0.23156105 0.031680435 0.018123018 0.00045637874 -0.21471708 0.06387844 0.14049807 -0.11820957 -0.015710438 -0.2110702 -0.03435267 -0.19374914 -0.09969769 -0.06550221 0.072096616 -0.15749642 0.030177431 -0.088966034 -0.08997257 0.184778 0.008729002 -0.082171984 -0.0913402 -0.07813833 0.11197547 0.08505469 -0.14733495 -0.0049756453 0.15059812 -0.17805892 0.04162496 0.0013581957 0.12180032 -0.08832732 0.15100978 -0.27445227 -0.045613427 -0.07501597 -0.073368564 -0.19548419 -0.06236566 -0.01744 0.0032089062 0.104261205 -0.0018182963 -0.19264384 0.24320623 -0.08566794 -0.11688839 0.17061567 -0.08975916 0.056258194 0.04586995 0.0047463486 0.16378413 0.2266756 0.009494051 0.04720903 -0.17689472 0.058708347 -0.2399404 0.001959369 -0.007539439 0.03909186 -0.25049233 -0.048511155 0.05485282 -0.031000195 -0.11432915 -0.07755171 0.26599103 0.030956779 0.059375916 -0.010279001 0.25366563 0.105693914 0.087412074 0.081052996 0.29694504 0.19973014 -0.18819219 -0.019676706 0.0416197 0.23772176 0.06485625 0.17179789 -0.10599324 0.0094953785 0.06347235 -0.035257977 0.12779343 0.14180271 0.077274024
479 0.206317 0.1720127 -0.16999486 -0.0747778 -0.2212119 0.1192779 0.12774943 -0.16633657 0.09430922 0.107537486 0.1114628 0.031522226 -0.11957973 0.1857034 -0.03352997 0.16543041 0.11373994 -0.054430168 -0.21543261 -0.13530609 -0.13367413 -0.02071476 0.17151864 0.09153896 -0.11260754 -0.0102354335 -0.027359553 -0.0088729905 -0.123280175 -0.012173522 -0.042878706 -0.020516802 -0.14233206 -0.059630807 -0.059326194 -0.19388816 -0.030075543 0.008361061 -0.059050187 -0.028325351 -0.043445867 -0.042859215 0.100536235 -0.023365814 -0.09577953 0.012370243 -0.26574615 0.0065639834 0.026665628 0.17141302 0.076415166 0.15305084 -0.049790725 0.06438039 0.103497155 0.12000659 -0.01019304 0.05065722 -0.034916047 0.08601188 0.020452887 -0.05225294 -0.023004401 0.044665437 -0.14369422 -0.14068586 -0.061548576 0.00011849943 0.22623727 0.10450533 -0.18692797 -0.18455963 -0.050339732 0.05743791 0.017685782 -0.23006792 0.07106858 0.1783816 -0.1620295 -0.27749506 0.054418284 0.14488387 -0.20097731 -0.0050243204 0.12969074 0.0301789 0.06468493 0.097186364 -0.039064597 0.0105898855 0.22269349 -0.17017467 -0.06816547 0.037729457 0.041274756 -0.049601413 -0.0037538342 0.006049789 -0.042383995 -0.029454723 -0.14443749 -0.10664488 -0.018009286 -0.13720323 -0.071054645 0.10940741 -0.07257931 0.07153805 -0.021568112 0.1284606 0.29878882 0.32181734 0.0056155403 0.11854514 0.15267208 0.010783843 -0.015246892 -0.15291551 0.10317929 0.22535616 0.2584728 0.060432184 -0.37140217 0.27188417 -0.011517418 0.05391261 -0.11231672 0.08703896
402 0.13860601 -0.043804545 -0.08354699 -0.2090047 -0.0873187 0.05483126 -0.01780582 0.06751771 0.04640624 0.138752 0.1983181 0.053736072 -0.13428201 0.03596593 -0.017992083 0.10404099 0.22937633 0.20775256 0.0071213315 -0.044060387 0.07781002 0.042786714 0.06047302 0.116304114 0.032981656 -0.0681545 -0.014430383 0.025697505 -0.07140068 0.21515325 -0.14264981 0.011716291 -0.16072556 -0.14757317 0.07087812 -0.027599169 0.005643438 -0.1259458 -0.02899124 -0.11460393 0.03412421 -0.01355868 -0.02515725 0.11800294 -0.052578688 0.24466547 -0.056361 -0.09712084 0.038349755 0.0054974705 -0.044764444 0.17450002 -0.027506856 0.013159689 0.25888473 0.17030975 -0.1554513 -0.0022014868 -0.056561302 -0.07358612 -0.006374641 0.051340926 -0.063537024 0.18816052 -0.1802178 -0.10205705 -0.06453295 0.17417581 0.021240056 -0.08280522 -0.12618126 -0.22696249 -0.19278164 0.08334023 -0.25957346 -0.058058616 0.115999185 -0.0036386645 -0.19366358 -0.13537076 -0.17440923 0.22970259 -0.12828156 -0.22587678 0.11994427 -0.07733108 -0.21320063 0.0045425873 0.10930375 0.21890278 0.16240871 0.041254263 -0.025958518 -0.040871274 -0.0721095 0.08488159 -0.1601607 -0.014000714 -0.1227972 -0.012000453 -0.32422945 -0.14650467 0.09781177 -0.16112907 0.14597678 0.24491553 0.028772464 0.20800006 -0.02491533 0.1979447 -0.101362385 0.084407166 0.050582007 0.012921588 0.0138321705 -0.15864708 0.006925902 -0.13117974 0.11149301 -0.10993594 0.035473417 -0.071316965 -0.083115235 0.04589209 -0.14785008 0.24695459 -0.13742082 0.08757101
366 0.15669024 -0.022048006 -0.04855081 -0.19335619 -0.21133912 -0.018328656 -0.03652574 0.1300387 -0.067571834 0.08511788 0.14724158 0.06404307 0.023365833 -0.030366218 0.016356386 0.16746004 0.0889103 -0.05005235 -0.15933703 -0.023160204 -0.20911497 -0.036318034 -0.05157387 0.13090512 -0.10662284 0.038336437 -0.09700255 0.08382421 -0.013828857 0.10922142 -0.13416491 -0.010804661 -0.01231911 -0.017612984 -0.16842765 -0.11307346 0.039008167 0.043522637 0.0070321546 -0.23325296 -0.10126446 0.0055077923 -0.07685947 0.08584251 -0.11397525 0.018866185 -0.06044324 0.19394691 -0.15780717 -0.014357033 -0.14824818 0.14348595 0.26794395 -0.097896494 0.09498504 0.20553628 -0.00071322336 -0.130557 -0.071604885 0.14153458 -0.032373793 0.204926 0.053963125 -0.02847254 -0.056736145 0.10225168 -0.066521235 0.24278559 0.20375107 0.17644909 -0.21808684 -0.13681987 -0.17986333 0.076277785 -0.014823 -0.12373269 -0.04263942 -0.20564526 -0.04565617 -0.17117013 -0.09788933 0.3763403 -0.060450032 -0.12459229 0.175689 -0.0051773903 0.19127794 0.25052422 -0.0041157245 0.121679515 0.15755484 0.030062731 0.068545684 0.162217 0.23216638 0.032203406 -0.23259002 -0.09697145 0.010832516 0.19519655 -0.06416701 0.05056406 0.037313323 -0.045755148 0.10837844 0.20612876 0.1384049 -0.11809656 -0.27304086 0.076704055 0.17384551 -0.02639871 -0.16122882 0.14676066 0.038619522 -0.056217033 0.049897797 -0.08839752 0.07783363 0.04614572 -0.15715778 -0.10680277 -0.12855025 0.0051356405 -0.115502365 0.11662606 -0.0557999 -0.027156785
563 -0.10488856 -0.15971978 -0.25412706 0.10801925 0.14126617 0.057201646 -0.24019009 -0.11168642 0.09984068 -0.17668928 -0.0020011028 -0.024305793 -0.059877045 -0.03151308 0.026821394 0.06809052 0.21754906 -0.23635797 0.17029998 0.012818333 0.110129565 0.22596475 0.13704212 -0.4425644 0.119960345 0.16961572 0.45251435 -0.09806935 -0.20357573 -0.058092248 0.07382733 0.1290643 0.36947653 -0.06801508 -0.07522534 -0.11701595 -0.10244067 -0.18763354 0.24670462 -0.3715906 0.10118758 -0.04970217 0.038064018 -0.06775675 -0.16103178 0.00563515 -0.10377892 0.012175758 0.0021116545 -0.007225689 -0.06197534 0.039517518 0.16121498 0.17570888 0.2945374 0.1352318 0.2747958 -0.0782719 -0.002573643 -0.23787306 -0.04701708 0.048676345 -0.3067565 0.18400161 -0.3231214 0.053744722 -0.0026489657 -0.00879111 0.16933444 -0.077584304 -0.33004987 -0.13158475 -0.22574793 0.36398953 0.09549227 -0.46369696 -0.29654965 -0.10744525 -0.000981331 0.03562734 -0.20795774 0.17423908 -0.14607252 0.09190494 0.046464227 -0.109365165 -0.08830326 0.090270184 -0.34307933 0.10537731 -0.02233016 0.075843036 -0.010683824 -0.30065984 0.114104725 -0.17597221 -0.06042567 0.22141089 -0.12427054 0.090562806 -0.15245456 0.07725373 -0.12773848 -0.12336994 0.08290491 0.020105422 -0.1822446 0.26987818 -0.20491344 0.06540694 -0.14858384 0.08887634 0.081706755 0.13533103 0.32772776 0.061045036 0.043042403 0.13547643 0.26983505 -0.038527574 -0.06391752 -0.14635213 0.16601366 -0.01745654 -0.112742834 0.108949505 -0.04932553 -0.08850788
507 0.1314291 0.087507375 -0.10929924 0.15353118 -0.036100183 -0.01360619 0.14715032 0.0921892 0.10770765 0.097572096 0.15454544 -0.22620936 -0.12729564 0.035311084 -0.025376145 0.07583094 0.24191023 0.26211324 -0.1745078 0.10099839 0.37752998 -0.014849876 0.022157153 0.13844854 -0.17097005 0.18162154 0.057913113 0.023063535 -0.234448 0.12120428 -0.20470884 0.39504844 0.023141412 -0.029880062 -0.10401552 -0.3796973 0.018132191 0.08701092 0.0576152 -0.07699467 -0.21291278 0.08197336 -0.004869483 -0.017413268 -0.080221325 0.116234906 -0.15315877 0.092589326 0.022048201 -0.17778517 -0.028608536 -0.0068622185 0.16983141 -0.017861037 0.15507664 0.10690069 -0.10284045 -0.07332367 0.05120133 -0.27941182 -0.055250555 -0.09571601 0.07155782 0.07981525 -0.15961841 -0.1342191 -0.14173721 0.123104736 0.0217893 0.22860435 -0.09741866 -0.1925473 -0.16585983 0.030351058 -0.16987708 -0.107296854 0.117754355 -0.19191362 -0.08087912 -0.0830612 0.043235023 0.13003129 -0.0788773 0.16824262 0.041705325 -0.045747273 -0.13863313 -0.08441921 -0.074777015 -0.01267251 0.12367329 0.11201002 -0.12139602 0.08260284 0.07668867 -0.025198994 -0.14661779 0.114887476 0.06049144 0.057640668 -0.051980365 0.12013995 0.10733396 -0.16930202 -0.0029646568 -0.11955714 0.06931594 -0.013588991 -0.05636649 0.29482603 0.054233782 0.03199013 -0.13585187 0.21095695 0.2208885 -0.030474458 0.038074788 -0.10600196 0.22323589 0.00059926294 0.041460305 -0.15970273 0.020894941 0.09535753 -0.38154805 0.07644828 -0.018479345 -0.2319749
438 0.25505927 0.023437433 -0.25670713 0.10283992 -0.2261036 0.044794235 -0.023444947 0.28575304 0.08495492 0.28232142 0.16999611 0.1357891 0.06295252 0.114229485 0.1084249 -0.048204973 0.07744845 -0.040755164 -0.06949679 -0.23213996 0.036904182 0.010737955 0.20400268 0.15813519 -0.07717557 -0.035859592 0.025218781 -0.1973979 -0.15023638 -0.074818715 -0.011199985 0.053546917 -0.12428992 0.23560901 -0.16056086 -0.22255102 -0.037733708 0.026867196 0.20266038 -0.017471364 0.12693016 -0.03414699 -0.060854167 0.08544738 -0.036711212 0.00090979465 0.07272731 0.024642514 -0.068992585 -0.01698327 0.042477027 -0.02296686 0.115414776 -0.19543183 0.048204325 0.20703134 -0.0030523923 0.09732299 0.042045742 -0.107963786 0.074023016 -0.10362277 -0.09615274 0.11410347 -0.26668918 0.16699634 0.0005106469 0.25852975 0.13425547 0.22626437 -0.17257728 -0.11501136 -0.09547063 0.014533627 0.035559963 -0.10417271 0.1828886 0.029199533 -0.16988276 -0.23328456 0.02598036 0.4021385 -0.061780177 0.12561251 0.2665168 -0.07876779 0.076737724 0.12362609 0.09120652 0.039450087 0.16261593 0.0744412 0.0033167698 -0.10442332 0.2142056 -0.050212175 -0.0006958903 0.025023766 0.049676042 0.13817762 -0.05921966 0.078822955 0.10069535 -0.12572315 0.06165718 0.19658357 0.15612721 -0.008788611 -0.2016803 0.113602325 0.06643904 0.29681113 0.12156848 0.19208114 -0.045136377 0.05869513 0.038709637 -0.10105638 0.1296326 -0.16094308 -0.039684586 0.019653391 0.017025836 0.16818598 -0.078226455 -0.00084749836 0.16826922 -0.11484235
400 0.09176639 -0.14589788 -0.09631672 -0.2972281 -0.22159581 0.11825531 -0.060973395 0.07835321 0.013342883 0.20639677 0.13446887 -0.07010406 0.097033314 -0.052063238 0.189997 0.2520996 0.06348734 0.051141247 -0.20007463 0.03181921 -0.074817985 -0.02823457 0.042944573 -0.06162757 0.020867947 0.019605238 -0.011866109 -0.083427034 -0.12358442 0.061226927 0.08305524 0.11589306 -0.17518127 0.13777792 -0.11716194 -0.04812882 -0.13152687 0.16243064 0.019626271 -0.18464358 -0.18263297 -0.026242252 -0.05859148 0.05200992 -0.054071352 0.08052 -0.051219475 0.09352946 0.013210891 -0.09611146 0.048434094 0.20507452 0.088933885 0.063095346 0.28678942 0.1678267 0.12803 -0.10460297 0.07029383 0.024539791 0.13247834 -0.0061562113 0.1347287 0.015509454 -0.23245753 -0.06391072 -0.120854124 0.23130311 0.13488886 0.17863096 -0.14847946 -0.12084959 0.008212948 0.06856326 -0.12777929 -0.10090035 0.11825985 0.20326515 -0.26420715 -0.054718275 -0.17564836 0.419939 -0.19284417 0.051178284 0.026822181 -0.19562875 -0.06721814 0.052503217 -0.1501253 -0.082389206 0.07020476 -0.12109128 0.013975643 -0.14480576 0.022129148 -0.0021599773 -0.08152393 -0.013169327 -0.04215935 0.1974003 -0.33710092 -0.0777078 -0.059978332 -0.09786556 -0.11071752 0.17760801 -0.004774837 -0.0941137 -0.18146943 0.16485223 0.11412554 0.06789499 0.0056086257 0.1743484 0.06498576 0.08093719 -0.0003180439 -0.047760464 -0.049708687 0.10591966 -0.009337485 0.06256817 -0.13483836 0.10080771 -0.05361069 -0.0013715631 -0.14650472 -0.20940685
