751 128
2520 -0.08980996 -0.0059612105 -0.1191748 -0.017110247 -0.11720175 -0.23347056 0.062825136 -0.065377474 0.021267103 -0.05190851 0.15353921 0.16751024 -0.07726289 -0.10744834 -0.027352646 -0.08382098 0.09526681 0.017527645 0.28675467 0.06934425 0.083507404 -0.026296271 -0.20489621 0.0037899613 -0.037646502 -0.24053596 -0.2263866 -0.19092758 -0.09769568 -0.020981653 -0.28100574 0.08685806 -0.028103469 0.06529668 -0.21765743 -0.07169791 -0.09544458 -0.2991961 -0.15393125 -0.118321 -0.018430572 -0.277824 -0.0987832 0.064336136 0.2785701 -0.08461282 0.08472019 -0.011487417 0.069696434 -0.28068438 -0.075779445 -0.10549767 0.22776549 0.14936191 0.011037149 0.016551828 0.2429328 -0.28758314 0.15920028 -0.101512134 -0.1403878 0.0469262 0.035720374 -0.16395126 -0.008127381 0.000884827 -0.0642265 -0.11904916 -0.2422294 -0.10035844 -0.31096402 0.056763913 -0.2852773 0.24530597 -0.15856516 0.1321415 0.13202715 0.24837181 -0.06448107 0.1161772 -0.027651355 0.2386349 0.17784174 0.04140358 -0.14977422 0.108174756 0.07064506 0.10909102 0.08135738 -0.3607969 0.10829333 -0.09103341 -0.23874786 -0.15596302 -0.054586068 0.019651258 -0.26202247 0.065877445 -0.006533897 -0.07342409 0.29588723 -0.032356024 -0.032617908 0.08154068 0.09451973 -0.16379283 -0.027320493 0.22824012 -0.06400462 -0.1877521 0.08798653 0.293284 0.19490573 0.011523223 0.04788843 0.0400312 0.07782578 0.1603998 -0.25086918 0.15603647 -0.04323654 0.028872585 0.22158158 -0.046683025 -0.0139067 -0.09679819 0.32195082 0.07670854
2139 -0.17073086 -0.10127254 -0.11206956 -0.088318184 -0.21922512 -0.17741631 0.14328915 -0.14493783 0.043825928 -0.09371472 0.26962167 0.06988354 -0.24066627 -0.105494 -0.061842255 -0.060901027 0.08023077 0.11446074 0.06322169 0.15774359 0.07754208 -0.1400174 -0.14876492 -0.0106586795 -0.0808682 -0.21487215 -0.08268514 0.025957774 0.121017635 0.022763079 -0.1855721 0.25512293 -0.041637674 0.119837694 -0.2004584 -0.17820388 0.070708804 -0.16184688 -0.02772401 -0.08250717 0.036878973 -0.083607644 0.030971823 0.027308313 0.36451554 -0.19525976 -0.057091497 -0.049780637 -0.019187968 -0.097307995 0.0059012794 -0.06914706 0.23828967 0.01326375 -0.08453319 -0.15300123 0.2119768 -0.1924105 0.05503591 -0.109766565 -0.08603111 -0.03501016 -0.06501774 -0.11835117 0.0559193 -0.028541133 -0.179293 -0.13288641 -0.1472401 -0.14590062 -0.1399576 0.05468282 -0.4685762 0.24107309 -0.12656403 0.24111374 0.13542998 0.16381204 -0.08090148 0.07294944 0.053047664 0.17378473 0.35142478 0.038327243 -0.102407515 0.12741211 0.067799464 0.20176849 -0.009685595 -0.39321166 0.13438377 -0.09019791 -0.066329084 -0.18263866 0.0141792325 -0.10876861 -0.17938486 -0.09663135 0.0832919 -0.2608102 0.2385014 0.04511962 -0.035514466 -0.14535294 -0.0478224 -0.06360615 -0.19117448 0.00039063892 -0.120852165 -0.11224171 -0.058350462 0.16774277 0.06651724 0.0415221 -0.045529876 -0.17495818 0.098311275 0.2792917 -0.14090137 0.27901962 -0.03888541 -0.022308676 0.15963648 0.17262723 -0.030452162 -0.0521616 0.2800709 0.2887126
2398 -0.096861355 -0.0668017 0.062144503 -0.09118592 -0.28909376 -0.2983735 0.2779625 -0.15645856 -0.13072537 0.16889688 0.20702139 0.0918583 -0.0888618 -0.117232695 -0.20686701 0.061943073 -0.09927088 0.2460541 0.17386547 0.04105149 -0.016903944 -0.053294025 0.0518133 0.07037729 0.18834303 -0.12521678 -0.03876695 0.06609199 -0.3428519 -0.004269964 0.104980774 -0.09274428 0.12303088 0.21439227 0.1362799 -0.13549523 0.14957371 0.289305 0.04581329 0.0009421572 0.12198405 0.110133655 0.044270515 0.062017664 -0.066556536 0.18473476 0.08758817 0.12745653 0.04030325 -0.1565428 -0.29341787 -0.3146362 -0.0808927 0.047511708 -0.23747875 -0.074966766 -0.06019307 -0.16475621 0.11548583 0.3722822 0.088739105 -0.101463005 0.15428342 -0.042008985 -0.11814017 -0.047400046 -0.09483509 -0.10125856 -0.09451785 -0.31792328 0.011311785 0.13774753 -0.04810064 0.038362972 -0.28574333 -0.063600376 -0.21506743 0.22838396 -0.1114095 -0.2461817 -0.12655394 0.29500622 -0.18251401 -0.049464297 -0.1337826 -0.1778187 0.09378774 0.011940884 -0.26991525 0.07330682 0.07281058 -0.05072178 -0.10428646 0.07599025 -0.10429269 -0.099723704 -0.0025399348 -0.1851837 0.118019514 -0.18460266 -0.22247654 -0.28524908 -0.12492452 0.23414141 0.011919918 -0.17566212 0.20607403 0.11083317 0.11732197 0.1738604 0.15579018 -0.24969831 -0.13088559 0.110588506 0.09500554 0.035032693 -0.071495585 0.02768839 0.04179389 -0.020738086 -0.06655793 0.17526537 -0.037475757 -0.032188963 0.18369825 -0.15483117 0.055122927 -0.093546145
2124 -0.09073546 -0.13072677 -0.09435951 -0.03439746 -0.14562981 -0.16989937 0.058839742 -0.0007838136 0.12557034 0.097980015 0.21627317 0.099447474 -0.090493575 -0.11745006 0.008012272 -0.08099302 0.117098995 0.041429456 0.09462518 0.09836486 0.12187854 0.008613594 -0.15643707 0.17719789 -0.091216885 3.874422e-05 -0.14152433 -0.05287539 0.090796486 0.09802802 -0.1548556 0.15800907 0.059258897 -0.06972879 -0.38123685 -0.28239092 -0.14488026 -0.29834387 -0.25767758 -0.15216178 0.0676687 -0.29934862 -0.11253772 0.0419 0.28033307 -0.05445671 0.16368876 -0.038409863 0.13750942 -0.16069834 -0.09063623 -0.035522096 0.12655818 0.0650695 0.039480288 -0.24190655 0.068557456 -0.3005833 0.14847432 -0.04860032 -0.11092056 -0.056692127 -0.038451165 -0.124979995 -0.06629613 -0.13636075 -0.26092306 -0.021670708 -0.28740376 -0.24238135 -0.23057587 0.18491206 -0.29987392 0.2409337 -0.04232227 0.25077966 -0.017355625 0.14884754 -0.028822819 0.14718747 0.24570759 0.35266215 0.26754206 0.41111732 0.0058726096 0.17639291 -0.10130306 0.20269175 0.09760697 -0.231175 0.15862948 0.08270239 -0.13416706 -0.06569468 0.095571645 0.0066060903 -0.19710253 -0.23027405 -0.00848401 -0.16790178 0.30439985 0.08906605 -0.0136730615 -0.0070603588 0.08883503 -0.10230987 0.10463266 0.11373403 0.021593576 -0.21483569 0.028449783 -0.012291397 0.11365485 0.15824729 0.009923191 0.051637717 0.040452894 0.13716611 0.017282194 0.056249887 0.0031549553 -0.067033 0.22218673 0.0917919 -0.15760393 0.06868848 0.36660233 0.13226193
2086 -0.10029626 -0.032166466 -0.024749627 -0.09670186 -0.19929898 -0.09918135 0.08926752 -0.026100509 -0.091533 0.10182941 0.32944968 -0.048014 -0.10124603 -0.26172206 -0.07039464 0.04575268 0.028707827 0.35806343 0.19932196 0.15063684 0.14281614 0.107405074 -0.21032354 -0.0013394558 -0.033253066 -0.057365548 -0.13809843 0.04073261 -0.12140089 0.10592671 -0.20526445 0.30901164 -0.039149225 0.14655094 -0.24963471 -0.19298914 -0.028577223 -0.1690609 -0.049544238 -0.1788181 0.1436017 -0.19299033 -0.030579727 0.12379987 0.22839195 -0.18237261 -0.11925044 -0.12690796 0.109202474 0.011400824 -0.113526784 -0.16241379 0.11988686 -0.03753608 0.04591872 0.0027784756 0.18547308 0.028261757 -0.0675048 -0.022545153 -0.16422564 0.09071743 -0.10294066 -0.03771353 -0.012532185 -0.0332836 0.006179045 -0.067252256 -0.052312814 0.12115621 -0.20503747 0.13033877 -0.37117174 0.25394368 -0.08157692 0.1073883 0.1212304 0.3195906 -0.18049537 0.09463608 0.158908 0.21700257 0.30106342 0.120148495 -0.22277266 0.33568528 -0.04430092 0.11468019 -0.03881076 -0.26985314 0.20236367 -0.1341206 -0.042267337 -0.009774329 0.058855213 -0.0041233767 -0.23254524 -0.055111676 0.21638392 -0.18161656 0.4466596 -0.083836995 0.092424154 -0.061412808 -0.1233288 -0.13991462 -0.11409686 0.23471561 -0.1543295 -0.17908305 0.08550061 0.0977291 -0.023523513 -0.06419662 0.114958264 0.039483104 0.09423124 0.2538788 -0.120588504 0.25435346 -0.12703206 -0.117303886 0.074743666 -0.028352236 -0.17201838 -0.06501536 0.23406553 0.19415453
2313 0.5305699 0.12715775 0.013704837 -0.34133908 -0.27004865 -0.2715236 -0.05007147 -0.22146258 -0.002698568 -0.076099224 0.24103318 -0.060911622 0.12417959 -0.27856404 -0.14685655 -0.20007437 -0.036404014 -0.28842813 0.054242693 0.16461416 0.11684882 0.012557114 -0.050860412 0.13539484 -0.009790928 0.022674488 0.13932455 0.19361311 0.23102517 -0.08198999 -0.11512545 -0.044048525 -0.047963057 -0.13414598 0.04362535 0.15823403 0.11689339 0.18599577 -0.14983417 -0.38503072 0.1556088 0.17829603 0.18641104 -0.121888384 -0.11992726 0.099222586 -0.13539325 -0.32428718 0.29414928 -0.16867435 -0.07762887 -0.1357813 -0.31390515 -0.16455023 -0.18447627 0.11184591 -0.051179156 -0.24792367 -0.20771474 0.16344392 0.1261151 0.07940771 0.614721 0.3904295 -0.037016965 -0.43613154 0.24281003 -0.3791639 -0.22515789 0.0184962 -0.036843773 0.15761155 -0.2521302 -0.12999657 -0.28692794 0.19179851 0.12706201 0.35342148 0.218156 -0.10197658 -0.15914081 0.24684529 0.062288504 0.03620218 -0.12272184 -0.19267064 -0.24085468 0.067553006 -0.38187027 -0.09359595 -0.042590965 0.03292836 0.28080887 -0.121633336 -0.07406702 0.2594638 -0.17476687 -0.30271477 -0.028889313 -0.085951485 -0.30822507 -0.09806518 0.074087285 -0.046527654 -0.25746766 -0.08899168 -0.12372274 0.39246505 -0.16643196 -0.25068724 0.22515658 -0.16472435 -0.0066442997 0.245285 0.07214344 0.038909707 -0.015876694 0.53803945 0.24759568 -0.39481476 0.1842861 0.09656941 0.12891564 -0.10831095 -0.13836697 0.069699086 -0.017469382 0.10652589
2519 0.027322534 0.16709317 -0.15833054 -0.09332693 -0.31097606 -0.10954017 0.23126501 0.25042608 0.48077136 0.50405246 -0.13289542 0.1373383 -0.18453288 -0.25748715 -0.13265656 -0.03573937 -0.009600921 0.46970317 0.09060783 0.16923143 -0.12759909 0.20641032 0.13361168 0.4842591 -0.2124307 0.08155546 0.053200174 0.038412467 -0.17530966 0.12586209 -0.036401924 -0.02601727 0.38180095 0.22831878 -0.10183115 -0.32669714 0.12288731 0.20462121 0.35185546 0.02428214 -0.2278046 -0.0738044 -0.03924108 0.086670935 -0.28305924 0.0681976 -0.07620889 0.024160804 0.07420947 0.15674199 -0.3768252 -0.128986 0.036788825 -0.020352304 -0.28236198 -0.24843629 0.0070553124 -0.16083533 0.05132026 0.17950495 0.14239061 -0.100018084 0.05005423 0.053425953 -0.21921632 0.014253458 0.0042903502 0.050794635 -0.25886104 -0.16128571 0.29076838 0.07900532 0.08128786 0.08537999 -0.26000395 0.14687943 0.061595056 0.4417498 0.082443394 -0.3445627 -0.4601712 -0.020017779 -0.096883774 -0.0656773 -0.067870624 -0.021413855 -0.096162416 -0.009384255 -0.048322167 0.06316438 -0.15453546 -0.1016796 -0.009469066 -0.010512703 -0.15414023 0.059521444 -0.004179476 -0.28999388 0.0833672 -0.3634574 -0.45678526 -0.34191987 -0.13474154 0.10791283 -0.45562497 -0.0359652 0.21791248 0.04857658 -0.029279599 -0.30771175 0.0961256 0.08904051 0.17804386 0.13093352 0.254595 -0.19655898 -0.27929592 0.04297459 0.095370434 -0.16272488 0.16037455 0.0016604523 0.17282581 -0.16133493 0.119212344 -0.2574563 0.18445008 0.24941657
1912 0.30856493 0.18366015 0.055326313 -0.11684459 -0.060101956 -0.20645377 0.15140921 -0.01649895 0.10338873 -0.0786538 0.023242667 -0.27226952 -0.016407762 0.04784922 0.05664369 -0.05344456 -0.13155684 -0.21358918 0.077851176 0.2446053 -0.19710317 -0.010309151 0.01466492 0.053410426 0.1257952 0.07512877 -0.17345828 0.011635034 -0.061896764 0.20102213 -0.10982301 0.2844627 0.056954704 -0.044100903 0.07418816 0.013664064 0.11726095 -0.09893685 0.1823205 -0.083551206 0.20864528 0.07473096 0.3156545 0.10137735 0.11540272 0.06879389 0.05925501 -0.15337205 0.03919681 -0.030704439 -0.08205916 -0.05034457 0.099993765 0.018296098 0.056475453 0.021878181 -0.030402277 -0.2525275 -0.05834073 0.17437476 0.17899062 -0.11559154 0.07313025 0.04120033 -0.32274958 -0.12088917 -0.017924078 -0.12794583 -0.22205219 -0.043922722 0.11400069 0.19564597 -0.21504931 0.14066216 -0.19097489 0.059069928 0.077375755 0.003434036 0.14080276 -0.004383032 -0.08900513 0.42120692 0.22243579 -0.17326152 -0.016346809 -0.13333327 0.09114085 -0.1399122 -0.04306247 -0.06869705 0.019157521 0.02141292 0.15238062 -0.078231275 -0.106227495 0.07241366 -0.10530375 -0.14266467 0.12794557 -0.007420534 -0.10028255 -0.13083562 0.07818336 -0.25276035 -0.03802103 -0.24721551 0.06754681 0.19022475 -0.0023037088 -0.12072171 0.08555884 -0.13333249 0.052013725 0.49530226 0.13209681 0.11760112 -0.02563236 0.30412087 0.052177567 0.1565265 0.13497613 -0.108224444 0.20667593 0.03265909 -0.07046454 0.016137747 -0.009023366 0.0564291
2092 0.06659136 0.06830308 -0.11059258 0.07358262 -0.1514153 -0.28310645 0.33298707 0.06858225 0.009379952 -0.0100402655 -0.1666697 -0.4969222 0.18049996 0.07086704 -0.1523313 0.3322304 -0.23735854 0.13559161 -0.028380089 0.2879965 0.072706826 -0.15741943 -0.24310976 -0.3741812 -0.043360546 -0.17162946 -0.032177825 0.24141347 -0.08567141 0.30589977 0.18873799 0.17907266 0.03427729 -0.2602053 -0.19377238 -0.22099565 0.028948033 -0.21787539 -0.09291391 -0.35379726 -0.14341846 -0.13641836 0.18497616 -0.017740197 -0.114420705 0.00014577141 0.32843447 0.055649348 0.39614043 -0.27295417 -0.317907 -0.08079049 0.101881064 0.14493515 -0.025935331 0.11414939 0.043777503 -0.17722304 0.19639498 -0.08041054 -0.1377735 0.11608193 0.030841695 0.05363473 0.0732561 -0.029020032 -0.19261864 -0.2723085 0.17474735 -0.1796584 -0.36795318 0.12024315 -0.5337457 -0.03392492 -0.24718973 0.6528904 -0.13960475 0.008450698 -0.044618253 0.18087563 -0.2693745 0.097444 0.49974203 -0.14896424 -0.21960571 0.26253033 -0.11672819 -0.07765279 -0.090142645 -0.030793222 0.030358516 -0.063520804 0.03934243 -0.2601001 -0.15366171 0.43065295 -0.17416121 -0.19379415 0.11662956 -0.06589127 0.26037538 0.11464052 -0.092730716 -0.1904405 0.18854816 0.016522575 -0.073448084 -0.048032865 0.013309674 -0.13297512 -0.02861798 -0.1573431 0.24586919 -0.12703447 0.042240392 0.11354139 0.06664399 0.13199216 0.010848088 -0.058675565 0.4413588 -0.16479665 -0.030870983 -0.04732051 -0.15111518 -0.21379371 0.051636275 0.23960188
2543 -0.1949519 0.073695526 -0.05548709 -0.030455628 -0.02549284 0.111090995 0.2726415 0.109535195 0.15869796 0.17753515 0.14971934 0.17294574 -0.17459612 -0.011238614 -0.06616043 -0.28159687 -0.0014078132 0.1680444 -0.16738804 0.06722583 0.1788061 0.006660181 -0.07109068 0.3611313 -0.039940782 -0.49907517 0.088859275 -0.20808502 -0.22966102 -0.12873286 -0.0020704693 0.21915646 0.11365943 0.1215891 -0.126048 -0.24352297 0.06897702 0.21363562 -0.061659567 -0.044218004 -0.110666074 -0.29547867 0.010940989 0.02622823 0.0110107595 -0.086735755 0.0186733 0.0015969264 0.17625177 -0.21759933 -0.32944003 -0.15367521 0.12174786 -0.17170605 -0.069550455 -0.21216303 0.36937544 -0.15798452 -0.16152903 0.10125302 -0.092925996 0.2065392 0.07440036 -0.022209188 -0.055555508 -0.12850893 -0.123084255 0.27817842 -0.04020518 -0.105401695 -0.13307378 0.13769267 -0.07309715 0.04525945 -0.06754192 -0.06906123 -0.1804376 0.1871167 -0.021573214 0.014839815 -0.075036906 0.061745208 -0.011948806 0.007064945 -0.093565166 -0.09852739 -0.024736509 -0.049612377 -0.02621106 -0.13665678 0.18013394 -0.17332248 0.08988282 -0.15090945 -0.003712145 0.007173938 0.03859313 -0.11606557 -0.038046286 -0.16071697 -0.02574198 -0.108407035 -0.07991179 0.049088046 0.014969082 -0.1687803 -0.03885893 0.22958069 -0.022221953 -0.07898423 0.00877895 0.15149426 0.10665724 0.107729115 0.0896817 -0.19211587 -0.12865935 -0.12178938 -0.0614972 0.19927461 -0.30905303 -0.08058301 0.10788482 -0.16428392 0.10844172 -0.1514001 -0.06600775 0.20802729
2111 -0.008815287 -0.07129734 -0.021662496 -0.33691272 -0.21370889 -0.1017471 0.08380443 0.08879051 0.1431294 0.1170189 -0.0044958093 0.13821663 -0.20801912 -0.09223023 -0.3424906 -0.08562273 0.020704398 0.17542757 0.219771 -0.016648808 0.057891894 -0.06906813 0.06006156 0.12078441 0.012203365 -0.15284851 0.16392256 0.06368364 -0.1450456 0.09312732 0.08780373 0.092579134 0.16249132 0.19658205 0.12360832 -0.31995934 0.2627834 0.36064586 0.14642969 0.05245745 -0.121828035 -0.016597662 0.16096634 -0.049961016 -0.2790581 -0.014836873 0.043376137 0.13415012 0.047218822 -0.2407423 -0.23019876 -0.33874878 -0.08548503 0.009111354 -0.22842374 -0.0773844 0.022278672 0.063557886 -0.15944639 0.20750077 0.27048394 -0.113854036 0.17956439 0.15545739 -0.04701073 0.05003145 -0.03330041 -0.12313348 -0.12105883 -0.23789953 -0.049164105 0.04924274 0.043424055 0.063443966 -0.23162739 -0.003937457 0.17498079 0.372682 -0.028127402 -0.22646715 -0.1348769 0.19000307 -0.314895 -0.007735857 -0.12905748 -0.02790911 -0.0787075 -0.01886843 -0.21546042 0.18008822 -0.13926901 -0.12424185 0.020184876 0.096869804 -0.106869124 0.07892302 0.10169658 -0.21195364 -0.037521746 -0.19453384 -0.3366424 -0.29513803 -0.23073831 0.0077061784 -0.16953789 -0.2144182 0.26273426 0.18309899 -0.17361686 -0.2666117 0.08550545 0.102911785 0.08697512 0.33956727 0.067612335 -0.21985173 -0.22308278 0.06003841 -0.057484936 -0.10745041 0.1990502 0.11491005 -0.2192998 -0.13033296 0.09047725 -0.12636317 0.14520922 0.113967516
2347 -0.19150819 0.100915976 0.09416921 0.10025533 -0.13185564 0.019643137 0.31871793 -0.025630571 -0.048653923 0.17220451 0.22506621 0.19304754 -0.12439923 -0.16394387 -0.014732402 -0.05702141 -0.060431153 0.17915934 0.05366112 0.0909221 0.01098457 0.12847091 -0.041719373 0.1972487 -0.22435763 -0.16691463 0.22902742 0.030909827 -0.31016505 -0.28359404 -0.0053921784 0.26244247 -0.03187617 0.014407812 -0.07528171 -0.22819105 0.19803761 0.08112736 0.24966644 -0.037624992 -0.08998124 -0.48560393 -0.18922806 -0.029019743 0.34610206 0.18661469 -0.24997461 -0.15109207 0.13825005 -0.31349105 -0.25461388 -0.19297914 0.1316373 0.066749975 -0.028241744 -0.012409688 0.04485908 -0.083927065 -0.11409214 -0.12416597 -0.089626186 -0.077740744 0.106317736 -0.12212005 -0.04546878 -0.08422322 -0.045394786 -0.01642073 -0.09117619 0.007208717 0.008374292 0.13790785 0.061357465 -0.075127 -0.097196184 0.12391069 -0.08003795 0.18471007 -0.076317854 0.22474897 -0.07355875 0.17837834 -0.011349081 0.13451397 -0.35450643 0.16011435 -0.0875997 0.11891794 -0.040757656 0.0029896344 -0.08797292 -0.05375071 -0.2203869 -0.07336274 0.062902145 -0.00021110986 0.21837187 -0.23718232 0.040273737 -0.13971023 0.046135988 -0.14881516 -0.11779287 0.11697023 -0.0853914 0.09175766 -0.00798121 0.20731124 -0.059300892 0.08496792 -0.062578924 -0.21254349 0.024500426 -0.08661334 0.023999095 -0.012952952 0.062337406 0.11339922 -0.10213692 0.121163405 -0.19984578 0.019296503 0.092605144 0.012496301 0.058072057 -0.22439934 -0.035861183 0.2739608
2047 0.38341275 0.050863322 -0.17637008 -0.19456252 -0.5278904 -0.300293 0.002712421 0.018240413 0.015887156 -0.19072582 0.18718612 0.096454844 -0.09473871 -0.1499499 -0.038919903 -0.21700144 0.05294954 0.27436814 0.14786182 -0.14788869 0.17445669 -0.06855303 -0.15475601 -0.036141142 0.20835194 -0.054452404 0.023617188 0.053149544 -0.28202465 -0.0090159215 0.12523922 -0.038662102 -0.26687187 -0.019408736 -0.079751514 -0.21063416 0.23694886 0.35753042 0.19350593 -0.18126029 -0.022894405 0.088600844 0.16878003 0.17004208 -0.06247596 0.22210515 0.08913616 0.25468242 -0.023399882 -0.04477542 0.08037939 -0.10814795 -0.31909105 0.16760108 -0.10541122 -0.051790975 -0.095723525 -0.14600027 -0.0053508356 0.13900423 0.10598724 0.14806241 0.37637615 0.175 -0.2407352 -0.27767307 0.100591384 -0.14427887 -0.26297745 0.05411934 0.04554897 0.20696318 -0.0074085346 0.0919591 -0.42609796 -0.08086005 -0.008362303 0.3591382 0.20536321 -0.07896132 0.015074881 0.17269346 -0.12428014 -0.041187532 -0.25168893 -0.3523802 -0.1435443 0.16658908 -0.17468317 0.1955792 0.02267552 0.18961255 0.14077406 -0.1449449 -0.09245168 0.019730994 -0.09332667 0.021377489 0.36853972 -0.17456289 -0.2721903 -0.08277725 0.08884176 0.2188234 -0.35830683 -0.018796813 0.21592437 0.08660063 -0.27372402 -0.17148247 0.13426505 -0.30512628 0.12227753 0.19380559 0.07175789 0.31301007 -0.07915992 0.034433983 0.28474703 -0.33828747 0.2501035 -0.0120930625 0.10440834 -0.11367288 -0.026352568 -0.10055427 0.13318393 -0.15800314
2542 -0.25905243 -0.052181393 -0.013643631 0.021173583 0.015782276 -0.23894355 0.16281788 0.14951558 -0.13170987 0.111141 0.15811571 0.08444125 0.13424519 -0.26917878 -0.13186668 -0.044096194 -0.16222595 0.06406657 0.13736363 0.05813434 0.07075735 -0.14890088 -0.018470384 0.010352712 0.0002913926 -0.41862574 -0.047940675 -0.22985654 -0.12426899 -0.18451172 -0.11482613 0.047141083 0.14921537 -0.024939442 -0.16889624 -0.21645392 0.15321428 0.215223 -0.0523022 -0.047966737 0.08393487 -0.39056468 -0.033073407 -0.0521344 0.13222462 0.097520754 0.095094316 -0.05695951 0.30653632 -0.29016998 -0.14554198 -0.34922332 0.22232205 -0.083659634 -0.23256668 -0.1375191 0.1807827 -0.29221228 -0.13732867 -0.12321632 -0.1613494 0.06064529 0.1281572 -0.33831456 0.09495438 -0.08022021 -0.24720922 0.031782527 -0.01718898 -0.05412194 0.07646777 0.05964498 -0.25679266 0.08036682 0.19151835 0.026283702 -0.017226622 0.28421444 -0.034262005 0.1361904 -0.03837817 0.063122414 0.16607012 0.15136659 -0.050726034 -0.072466925 0.058447633 0.30807877 0.05364341 -0.25404882 0.06481087 -0.0043088 -0.1031912 -0.020228807 0.17362124 -0.07329386 -0.2531374 -0.06472361 -0.047842413 -0.21248594 0.38242164 0.0074404757 -0.0268704 0.036666162 0.14818127 -0.26545805 -0.09352652 0.14388992 -0.008278977 -0.10652104 0.10460193 -0.01789959 -0.02053553 0.030222846 -0.002340899 0.116481975 0.11749677 0.224248 -0.004069045 0.10486963 -0.03281365 0.09493924 0.1411877 0.06613795 -0.06669475 -0.13062367 0.16162035 0.1823672
2384 0.069801636 -0.02181027 -0.11161532 -0.4430479 -0.17872237 -0.235979 0.023665473 -0.038260523 0.029439695 0.065800734 0.116892874 -0.009268483 -0.10040962 -0.2483286 -0.028411653 -0.0025545328 -0.17674688 0.19948463 0.095008016 0.08046058 0.11234158 -0.10941843 0.04699683 0.10690153 0.19613348 -0.020347098 -0.19477682 0.12646848 -0.06427509 0.07095071 0.07430676 0.13398588 0.059731707 0.11997623 -0.00031752224 -0.3242027 0.3112232 0.19663501 -0.09197365 -0.066871084 -0.18360388 -0.011678732 -0.19464393 -0.046807185 0.05892737 0.058112398 -0.084309116 0.13716872 -0.06966616 -0.39846134 -0.059722908 -0.30887038 -0.11648154 0.2650177 -0.2456226 -0.3106983 -0.0036896865 -0.045904744 -0.018926892 0.346863 0.1996168 0.06927785 0.16182362 0.029459 0.0055809114 0.18119773 -0.35118037 -0.13753314 -0.25063726 -0.18034667 0.07133098 -0.055191197 0.22515582 -0.0419352 -0.3478646 -0.12515461 -0.07863646 0.27509144 -0.15435769 -0.086937875 -0.13878003 0.11423475 -0.0746913 -0.106495254 -0.15933415 -0.13543518 -0.013593987 -0.21022098 -0.47420132 0.16919753 0.0072590336 -0.16433111 -0.0046539586 0.29117635 -0.12087801 -0.20550032 0.023524676 -0.0848027 -0.08100026 -0.009499391 -0.22989044 -0.3750585 -0.22037132 0.27479443 -0.16773592 -0.110378265 0.18885577 -0.0077043604 -0.11758119 -0.103717566 0.26945466 -0.06620825 0.15847054 0.20083655 0.12024667 -0.1498882 0.010976418 0.031551585 0.13387188 0.0023652646 0.18881041 -0.15035808 0.044597268 0.059716877 0.17827865 -0.17339323 -0.13181269 -0.04840494
2206 -0.10553331 -0.09060093 -0.1445243 -0.15195067 -0.17121851 -0.13380896 0.03165003 0.12813197 -0.03688483 0.04379141 0.15067911 -0.123454325 -0.13448684 -0.2759298 0.043084823 -0.17840955 0.009190244 0.14846478 0.21903825 0.06556487 0.07838188 -0.042818848 -0.12004161 -0.07806846 -0.011612546 -0.15639992 -0.057582382 -0.096242554 -0.008413009 0.07696693 -0.29081327 0.22496901 -0.1151506 0.098950975 -0.14092928 -0.12821111 -0.053976156 -0.010114007 -0.16365004 -0.25008592 0.07387206 -0.24506488 -0.14287774 -0.04091888 0.2684803 -0.13631308 0.021820923 -0.13007021 0.022101905 -0.05632603 -0.21535449 -0.025639668 0.14864539 0.08023422 -0.13675356 -0.23613165 0.15259501 -0.34102932 0.09919888 0.016926287 -0.20553343 0.045206845 -0.09514479 -0.12707436 -0.012646591 0.09934048 -0.038040217 -0.07290608 -0.09328016 -0.2497579 -0.27274 0.28671956 -0.29016468 0.107057795 -0.14439714 0.09024626 -0.009798833 0.12401379 -0.13279381 0.124456696 0.09209013 0.23773628 0.2831808 0.15918465 -0.16812497 0.1095425 0.099518634 0.19871165 0.07011346 -0.33954102 0.11432884 -0.13600186 -0.18431766 -0.13348116 0.02345008 -0.12596647 -0.22834213 -0.2164934 -0.030919554 0.06789793 0.28779954 0.021421008 -0.056887835 -0.008324121 0.072403975 -0.076109655 -0.08747739 0.1232674 -0.14361714 -0.28510678 0.069481716 0.18632367 -0.032351118 -0.037472323 -0.010326066 -0.252209 0.17130901 0.13110729 -0.117792614 0.17738909 0.106580965 -0.065824315 0.14854905 -0.046159446 -0.10704139 0.06269834 0.3638524 0.32468483
2218 -0.027415877 -0.09271757 -0.11943367 -0.16915232 -0.18029942 -0.2732646 0.053058144 -0.09251885 0.046410013 -0.016089447 0.21957543 0.032971334 -0.053008333 -0.19196138 -0.040217035 -0.05654742 0.1512953 0.17403854 0.19517162 0.14673002 0.1341256 0.07480887 -0.057842404 -0.12601425 -0.15154153 -0.2269599 -0.15475358 -0.005644282 0.06918762 0.06187357 -0.19858111 0.22406173 0.14285631 0.02319834 -0.20655526 -0.1450704 -0.01981777 -0.23328361 -0.105531566 -0.21379393 -0.007846838 -0.19239794 -0.22741511 -0.05414076 0.3036149 -0.23681802 0.05772711 -0.15674697 0.19894189 -0.020178946 -0.29031128 -0.17106725 0.14509243 0.11543379 -0.039262604 -0.13001864 0.11917251 -0.09342974 0.19733101 -0.058177687 -0.15887696 0.13226976 -0.084333956 -0.015872926 0.029217925 0.016429327 -0.082462244 -0.13815561 -0.22772993 -0.2055683 -0.26294535 0.043303836 -0.3994306 0.3034994 -0.17060086 0.18503448 0.13377737 0.097289 -0.14061332 0.15088466 0.1520138 0.124499775 0.19127962 0.17764261 -0.20619255 0.14440536 0.07168212 0.17427641 0.12310836 -0.2179887 0.059312172 0.009492135 -0.028331315 -0.18449183 0.0068146084 -0.114581764 -0.17778747 -0.09764225 0.04084788 -0.19174683 0.26857695 0.0011682573 -0.110017575 -0.18125995 0.08675278 -0.029688353 -0.062418368 0.24968271 -0.07003017 -0.24625249 -0.107493386 0.073338695 0.031047456 -0.06915164 -0.034572586 -0.13246408 0.22375913 0.13025337 -0.16203806 0.07422788 -0.09801857 -0.036027625 0.13766786 0.11170981 -0.0699421 -0.009450093 0.10299815 0.2754734
2123 -0.11565999 -0.01883183 -0.19417812 -0.044315357 -0.23056462 -0.21166755 -0.1669327 -0.07323143 0.05222685 0.081838354 0.12056381 0.07207575 -0.19923858 -0.06640349 -0.1075657 -0.029201848 0.056756705 0.07586288 0.02755995 0.05940348 -0.061109886 -0.027007421 -0.17536302 -0.0021864607 -0.09377173 -0.24925831 -0.024093326 -0.074602604 -0.22865947 -0.083120875 -0.18170258 0.23601055 -0.066320054 -0.013214515 -0.30618283 -0.23627785 -0.0058449972 -0.13813181 -0.011748378 -0.08357814 -0.011874912 -0.28746405 0.02083393 0.05976024 0.32790062 -0.16243173 0.05831647 -0.02936312 0.14674246 -0.09465522 -0.21478406 -0.20802768 0.07147683 0.19533002 -0.058211762 -0.0734538 0.22921614 -0.18258782 0.05073471 -0.11736197 -0.18030502 0.053655524 0.011834019 0.042290963 -0.017179172 0.00806305 -0.117788695 -0.14190125 -0.19182032 -0.15027815 -0.2522299 0.10693489 -0.43119714 0.077909246 -0.047591355 0.17404738 0.19179568 0.07946837 -0.10226438 0.105961904 0.22332096 0.24707223 0.19826725 0.01806449 -0.15152234 0.11615469 0.08295342 0.22464147 -0.03832426 -0.40549657 0.042024538 -0.15226609 0.011688662 0.009861333 0.090906546 -0.1531253 -0.07217677 -0.0922765 -0.06484594 -0.13494472 0.4702655 0.11802462 -0.112230934 -0.09261273 0.08864634 0.089349054 -0.049496558 0.1653397 -0.24074207 -0.25687644 -0.0036878542 0.13908608 0.026445549 0.026478352 0.051927265 0.054355577 0.1655652 0.23680544 0.0876845 0.19257897 -0.10154147 -0.1600449 0.11742705 -0.019435195 -0.055367865 0.07246195 0.3768564 0.28258997
2149 -0.12804724 -0.0038425098 -0.07283805 -0.29460627 -0.31202665 -0.015430248 0.10269312 -0.05186102 0.16731904 0.15504949 0.080064364 0.26730558 -0.21231024 -0.10250443 -0.050384548 -0.044900328 0.12144968 0.34861323 0.2702713 -0.041548897 0.08793941 -0.07276595 0.17627963 0.08896181 -0.07726156 -0.0053850585 0.099412985 0.11711055 -0.18136151 0.10434111 0.1849657 -0.052681286 0.20354123 0.0051134625 0.17254768 -0.26648432 0.25129423 0.22720928 0.17273356 -0.07858114 -0.20420851 -0.046134606 0.13920508 -0.03064864 -0.18405816 0.064129405 -0.15668172 0.20288664 0.16327892 -0.22727457 -0.17935939 -0.36375847 0.08072173 0.048433773 -0.14473806 0.031413823 0.06855384 -0.03674228 -0.1383125 0.24637075 0.17546879 0.071853206 0.14600913 0.010058335 -0.07124566 0.080307536 0.0044314214 -0.08062288 -0.04658002 -0.2456822 -0.010074989 0.18696398 0.030923296 0.10478198 -0.1536107 0.03077643 -0.002530286 0.350365 0.27039555 -0.10394946 -0.246171 0.105096005 -0.03317812 -0.18296133 -0.25884858 -0.18749996 -0.016371744 0.13616349 -0.33865365 0.09231136 -0.06549439 0.035981312 -0.012901783 -0.069096334 -0.070349716 -0.0063542644 0.09427629 -0.21120022 -0.05250821 -0.2860572 -0.48290384 -0.40688398 -0.18445893 0.16716537 -0.20269121 -0.17482895 0.20549819 -0.1631188 -0.14509754 -0.042525467 0.039979618 -0.10337603 -0.0051402478 0.14349279 0.030060543 -0.007878265 -0.17181006 0.17282581 0.06935217 -0.038339444 0.09738615 0.11699391 0.100917935 -0.20930716 0.07668265 0.029382857 0.12812328 0.050698493
2199 0.071963355 -0.11089849 0.038161457 -0.21296456 -0.5515718 -0.27793354 -0.038437396 -0.16984212 0.08943652 0.07291983 0.15512288 -0.022980103 -0.157006 -0.2840075 -0.05092344 -0.07705472 -0.02694776 -0.07930058 0.27370524 0.051793646 0.046590135 -0.14978573 0.056120675 0.103569694 0.27130926 -0.12272236 0.1221944 -0.06064722 0.031248769 0.0006947816 0.23429273 -0.07584081 -0.12400081 -0.103116475 0.13708737 0.008572267 0.12512276 0.37221697 0.18915226 -0.04075314 0.005101738 -0.2924945 -0.006585076 -0.026113603 -0.07598626 0.18544856 -0.04640516 0.030568063 0.059641704 -0.16506918 0.034422413 -0.105442874 -0.36537918 -0.04334565 -0.31534183 -0.085741766 -0.09078679 0.056720994 0.018309684 0.32693446 0.25534746 -0.048464224 0.27008724 0.29113227 -0.16214277 -0.0524964 -0.014837465 -0.19869675 -0.33884415 -0.06772992 0.07574445 0.02932348 -0.037370283 0.041221067 -0.43968967 0.116507016 0.08827492 0.21617477 0.14505516 -0.18861899 -0.3358196 0.30780572 -0.17276937 -0.17447557 0.024811188 -0.19167855 -0.09118163 0.014438411 -0.18074083 0.16106944 -0.16516772 0.008255145 0.033929687 -0.005570301 0.10507517 -0.03889495 -0.03391332 -0.0064153657 -0.0140511915 -0.47520185 -0.40752327 -0.12575836 -0.09731051 0.10946697 0.009850795 -0.07688596 -0.011615483 0.18987429 -0.07710319 -0.24627382 0.19387807 0.0050368584 0.021791821 0.22368062 -0.19963312 0.1808387 -0.08320711 0.18406804 -0.0931967 0.05913843 0.124670684 0.21361285 -0.03368384 0.08276889 0.14591801 -0.28414762 -0.17437027 0.05469558
2131 -0.1792066 -0.07921304 -0.076045774 -0.107042626 -0.24126051 -0.31933615 0.11057357 0.07900878 -0.017708955 0.047754295 0.16943583 0.19426695 -0.109923996 -0.29835486 -0.108353674 -0.12077202 0.00796335 0.085757256 0.30094197 0.1417628 0.12389422 -0.08030094 -0.17320873 -0.10083338 -0.29186603 -0.09135457 0.004446127 -0.12877344 0.04373551 -0.15581547 -0.14139284 0.30807692 -0.04584722 0.03271138 -0.040465407 -0.27862063 -0.055516656 -0.38505325 -0.03957807 -0.051665414 0.1564241 -0.13562115 -0.23307584 0.09845006 0.29392287 -0.121676564 0.17375809 -0.039812215 0.026152551 0.035277836 -0.09995653 -0.13558249 0.250467 0.23916213 -0.014560432 -0.0015223956 0.29849392 -0.034753952 0.004493494 -0.0106541505 -0.0838694 -0.0010029209 -0.062464625 -0.19007546 -0.21409906 -0.15617566 -0.17714442 -0.0016302393 -0.054381624 -0.18856384 -0.26186967 0.341068 -0.3697159 0.11478795 -0.052105874 0.20787738 -0.042835765 0.048497252 0.027544877 0.18404245 0.11252972 0.28730953 0.26720235 -0.016168622 -0.07753055 0.13160536 0.055967294 0.17449875 -0.043562386 -0.29417583 0.085306734 -0.14847852 -0.09079673 -0.00442685 0.04813151 -0.12341986 -0.12485155 -0.08572639 0.087619215 -0.24051154 0.3081265 0.044785913 -0.064841926 -0.08539127 0.053306494 -0.08562642 -0.12943523 0.11921663 0.17543934 -0.2905674 0.1036614 0.06647849 -0.028715903 0.03103137 0.013329903 -0.121166304 0.11230067 0.07972211 -0.103975445 0.049677465 0.062947266 -0.035428323 0.27871343 -0.012478788 -0.018212564 0.09933146 0.2381754 0.24204488
2188 -0.29675448 0.025169723 -0.17312519 -0.12535642 -0.17530529 -0.26525256 0.099201374 0.033046447 0.0042227684 -0.0936052 0.15748551 0.026321353 -0.26511645 -0.11028745 0.1306144 -0.09517901 -0.013223348 0.16292457 0.16878602 0.066964164 -0.027431969 0.02376747 -0.10987875 0.042564478 -0.07459623 -0.20693915 -0.06543542 -0.23435965 -0.03590686 0.073362924 -0.24535184 0.10244632 0.047219086 -0.05846644 -0.24369465 -0.1488335 0.21269387 0.022179453 -0.1117539 -0.19167389 -0.039611805 -0.12202459 -0.18318298 -0.03715877 0.21389434 -0.041403513 0.18050456 -0.04060898 0.0914425 -0.13292745 -0.31451213 -0.18508358 0.2107089 0.024858382 -0.0074554496 -0.13374223 0.25225806 -0.197533 0.18157151 -0.038769346 -0.105139494 0.014089861 -0.052179243 -0.005570655 -0.009696326 -0.07097439 -0.0139704365 -0.13449174 -0.13111992 -0.0655001 -0.35216275 0.101384714 -0.3870527 0.32981354 0.13740057 0.17676342 0.10367083 0.051999833 -0.1387903 0.08244637 0.2183449 0.33460784 0.2996881 0.10944181 -0.19739555 0.10698969 0.09624069 0.35725564 0.047365967 -0.37961945 0.14162078 -0.019527 -0.11472052 -0.25394025 0.13106525 -0.13835356 -0.17543405 -0.033844482 0.02302878 -0.0538983 0.42342958 0.122076735 -0.063755296 -0.31188482 0.06621946 -0.108810745 -0.05914493 0.26042843 -0.06092284 -0.18717176 0.1420934 0.04288375 0.1825929 -0.009423458 -0.024785671 0.025927315 0.04927724 0.3244709 -0.060744714 0.046888337 -0.056980368 0.0037512379 0.07496502 -0.008881703 -0.13742985 0.14405066 0.1128755 0.19404157
1917 -0.10743835 -0.14816625 -0.04964777 -0.037069537 -0.2471446 -0.2055379 -0.0495089 0.06170139 0.06669757 -0.014526071 0.19690375 -0.01636016 -0.180325 -0.17542717 0.05263163 -0.14315017 -0.023112992 0.14642803 0.055374436 0.146932 0.039846964 0.09157303 -0.24417238 -0.018676093 -0.101689965 -0.21232648 -0.05097179 -0.21251924 -0.17046952 0.065732315 -0.30085215 0.15693836 -0.16164754 0.008644973 -0.14878495 -0.16327523 -0.07383202 -0.10325611 -0.08344061 -0.28662974 0.06783679 -0.23492785 0.010470233 0.27323303 0.1388148 -0.23523885 -0.053546693 -0.07647552 0.0125570875 -0.11062134 -0.034446802 -0.05745371 0.07885958 0.007471613 -0.009392061 -0.13589749 0.14448771 -0.25974557 0.061189294 -0.103311084 -0.17254128 0.0117319925 -0.032276288 -0.057261385 -0.025511619 -0.21197788 0.0017391511 -0.22124285 -0.129601 -0.17824474 -0.163967 0.19848382 -0.43398628 0.2214102 -0.17221555 0.16350193 0.19153106 0.20991765 -0.06066646 0.057948966 0.22263825 0.15574749 0.23004344 0.010774509 -0.28464308 0.19714206 0.053157914 0.019182684 -0.10278914 -0.2766436 0.18894215 -0.099283814 -0.25194952 0.044617843 -0.0071733394 -0.12355231 -0.032529388 -0.034051057 0.048633747 -0.23807621 0.34570387 0.07836835 -0.1341847 -0.040543694 0.19957244 -0.03761175 -0.028515538 0.15045415 -0.034406707 -0.21684916 -0.12143034 0.15925474 0.12806872 0.13342215 -0.070247054 -0.06592263 0.036832977 0.10416623 -0.0140518565 0.11943648 -0.19138336 0.009194774 0.1397901 0.022508387 -0.13987938 -0.013840789 0.20984389 0.32104534
2090 -0.18015856 -0.19227132 -0.09853035 -0.05267199 -0.1500128 -0.27360448 -0.06680125 -0.12027428 0.016091183 0.105057165 0.20728303 -0.14090389 -0.099471875 -0.11573914 0.00345036 -0.055908736 0.03805687 0.06079089 0.017023154 0.018844558 -0.07676996 -0.04802887 -0.24962685 0.08844808 -0.2136704 -0.19689132 -0.016558588 -0.29574072 0.07458715 -0.13685782 -0.07847142 0.17180637 0.019468918 0.103030525 -0.19087243 -0.18636212 -0.11354837 -0.14198385 -0.087762475 -0.12998213 0.10650276 -0.39957348 -0.12427384 0.09377397 0.29784673 -0.26923147 0.14154853 -0.082376726 0.18194316 -0.08947444 -0.17571148 -0.13637252 0.23333047 -0.008526268 -0.060273603 -0.1391984 0.25001967 -0.09487904 0.07943995 -0.045255993 -0.20372596 0.045913715 -0.01381722 -0.15586752 -0.04424388 -0.02037929 -0.17979994 -0.06525538 -0.26458764 -0.07705896 -0.25116944 0.08764785 -0.53520626 0.3096557 -0.14061 0.23792881 0.011745598 0.11643888 -0.14642875 0.12003264 0.09175331 0.15619907 0.05681881 0.0939201 -0.11619501 0.09009576 0.016055975 0.1192466 -0.024373349 -0.2712066 0.3099638 0.030893913 -0.16122831 -0.1568377 0.06768898 -0.117892876 -0.22528264 -0.20429681 0.047157228 -0.015646767 0.2071097 -0.06987271 -0.1565218 -0.101529606 0.016478283 -0.089832924 -0.14152703 0.20726986 -0.15025237 -0.21772948 0.0027464908 0.058508016 0.21900515 0.0013950025 -0.054194804 -0.020370265 0.19746079 0.18195368 -0.053256903 0.06525832 0.0005696498 -0.121419765 0.20481674 0.012836144 -0.16254687 0.12978885 0.3557148 0.18746972
2229 -0.07592043 -0.36198655 -0.0012576127 0.059780754 -0.15602557 -0.3230943 0.017957186 0.0971274 -0.031229671 0.008655833 0.33441582 -0.030610219 -0.03205398 -0.15678482 0.09062689 -0.11899467 -0.076540664 0.23689531 0.102196276 0.19927526 0.16511357 0.060931984 -0.21048607 0.01362033 -0.1395484 -0.20938972 -0.17681497 -0.060249552 -0.024794243 -0.1956702 -0.23087887 0.14366104 -0.012515279 0.1232733 -0.37077802 -0.050846964 0.09968927 -0.15898621 0.04691826 -0.26191908 0.0074857324 -0.14234996 -0.062086537 -0.116209716 0.12719648 -0.2588148 0.014114581 0.05866446 0.18500628 -0.20842502 -0.2558314 -0.056446057 0.15701193 0.07936129 -0.20348015 -0.11490494 0.27985448 -0.25307456 -0.0033701041 -0.054389495 -0.043437015 -0.10319385 0.06472807 -0.37968802 0.14659174 -0.13915397 -0.2481283 -0.27225128 0.013167311 -0.10738857 -0.23013139 0.08548122 -0.2519522 0.17060506 -0.19510147 -0.04173028 0.098694734 0.1212067 -0.23751713 0.079365715 0.20318379 0.24175994 0.12760898 0.18307303 -0.2032279 0.27996853 0.1934628 0.16216801 -0.020758787 -0.14759319 -0.0055890367 -0.13505477 0.18430342 -0.07757589 0.13829663 -0.083311506 -0.13889068 -0.011566872 0.21507622 -0.2186428 0.27328363 0.26177505 0.057154227 0.06083085 0.0928399 -0.04500097 0.06389291 0.16167481 -0.15554594 -0.15209658 0.26839846 0.13138151 0.16719648 -0.050121408 0.079672724 0.13950875 0.08743424 0.25463855 -0.058194008 0.2950027 -0.071672104 -0.24320385 0.20054257 0.1293264 -0.11232081 0.08739702 0.32247132 0.32314998
2419 0.071477614 0.06179309 -0.10039752 -0.25466204 -0.3832982 -0.08583334 0.17323627 -0.10627723 0.48581365 0.17820369 -0.23192003 0.09957819 -0.10655827 -0.23455597 -0.13732038 0.09184291 0.13691792 0.30227444 0.24726856 -0.16044863 0.17224719 0.056568448 0.076164775 0.21031997 0.019914934 -0.15155576 0.024262805 0.124452785 -0.36569306 -0.04486451 0.34199363 -0.0076989536 0.30866647 0.07065077 -0.015076233 -0.13490874 0.22477715 0.34638634 0.16416337 -0.11370326 -0.05914277 -0.018661235 -0.009636786 -0.0720717 -0.19022168 -0.009321477 -0.049820315 0.19321634 0.054419313 -0.08470216 -0.19811237 -0.29287145 -0.045179725 0.05996209 -0.29552168 -0.115162104 0.1384355 -0.13769221 -0.06773352 0.1829039 0.12539244 -0.055860877 0.03122902 -0.15100434 -0.15163617 -0.062118288 0.072511025 -0.010110674 -0.249155 -0.38127643 0.20630191 0.041187663 0.012163932 0.21654911 -0.4119761 0.15773591 0.020357052 0.18334799 0.18602341 -0.24303536 -0.14211905 0.23463236 -0.09314072 0.14907013 -0.24900825 0.024268871 -0.16561621 0.060209736 -0.25070325 0.13098106 -0.04523325 -0.011319223 -0.08176019 0.014973517 -0.21988846 0.08805693 0.19250943 -0.13344045 -0.04197764 -0.1599874 -0.43904272 -0.30117646 -0.15462422 -0.042861596 -0.28548568 -0.123763405 0.11114094 0.22582641 -0.17904581 -0.061376926 0.12914169 -0.08367126 -0.26923752 0.1367974 -0.07313042 -0.17469409 -0.17178774 0.14426136 0.093124725 -0.27390936 0.014605808 0.21292764 0.10328309 -0.17223676 -0.053576898 0.007628574 -0.05373752 -0.12102179
2602 -0.24830313 -0.1567011 -0.2342553 0.0072246077 -0.27882236 -0.04607463 0.120384015 -0.11379003 0.01601262 0.18656981 0.059658963 0.04004496 -0.17990324 0.018429719 -0.17607677 0.0003041777 -0.0062422217 -0.028321091 0.24064541 0.08843684 -0.013450922 0.034451388 -0.20764248 -0.051415753 -0.15953837 -0.2681733 -0.047333382 -0.09010459 -0.3088003 -0.016285859 -0.16022642 0.15353198 0.023074994 0.108386725 -0.24511738 -0.12631184 0.034403946 -0.25422296 -0.0560581 -0.02916219 0.048345663 -0.09179235 -0.037506316 -0.013063518 0.30846468 -0.2158379 0.027836332 -0.06082187 0.13013707 0.049217675 -0.15633631 -0.1850542 0.19636592 0.18783715 -0.07152304 -0.16593188 0.0509483 -0.2650058 0.22807215 -0.14545666 -0.13785344 0.0222674 -0.17528503 -0.09204046 0.02886762 -0.14166024 -0.37064767 -0.14021331 -0.1959537 -0.2488853 -0.15736358 0.1440174 -0.43341908 0.17164184 -0.15284112 0.09790519 -0.11649797 0.1895657 -0.2802251 0.1538898 0.11944254 0.3043151 0.44042656 0.07459898 -0.100137115 0.06541877 0.0393239 0.21919839 0.08086832 -0.26241088 -0.02983025 -0.035774868 -0.20549743 -0.18146856 -0.15369414 -0.031660248 -0.20574111 0.019125644 -0.080459096 -0.08035848 0.37320682 0.119073234 -0.07620634 -0.026587775 0.039547466 -0.1501208 -0.059662588 0.20598765 -0.026574846 -0.109244116 0.0964162 0.23583385 0.0086303 0.08927367 0.09162653 0.049976476 -0.054503035 0.20630924 0.057750396 0.013572874 -0.058768153 -0.038505998 0.037710723 -0.021236945 0.0099911 0.22091982 0.23631081 0.155158
2266 -0.29440206 0.0013030908 -0.2210228 -0.17026974 -0.16151243 -0.27040157 0.10356632 0.050844222 0.08974316 0.11727296 0.14102474 0.28476116 0.043246068 0.038196407 -0.022059018 -0.25000843 0.03944016 0.29892313 0.04889077 -0.18620563 -0.13282587 -0.13434938 0.06239321 0.03782242 -0.18865713 -0.17193341 -0.21288012 -0.017592894 -0.088053636 0.0033730834 -0.24059136 0.13486554 -0.039909605 -0.09952504 -0.17780316 -0.3006773 -0.022066128 -0.10558391 -0.030839555 -0.06705366 -0.10649929 -0.14655212 -0.020043112 0.14923255 0.31700727 -0.117281646 0.14456569 -0.07269396 0.26793155 -0.23391561 -0.068358466 -0.02915987 0.09340813 0.20750499 -0.2659406 0.046088986 0.14291048 -0.14051603 0.08915813 -0.04651753 0.06613622 -0.0062770266 -0.13320352 -0.31140217 0.17837897 -0.18478619 -0.13757402 -0.22682384 -0.08451053 0.0029607662 -0.1317526 0.18275444 -0.32913566 -0.0043879435 -0.22191553 0.31425962 0.25171033 0.21063678 -0.20794691 0.099244624 0.040103078 0.18117563 0.3418083 0.20581439 -0.20510472 0.1409843 -0.07626796 0.35628018 0.17240448 0.014547158 0.176293 0.02978605 -0.0022149116 -0.11492869 -0.11689818 0.092997484 -0.12691861 -0.06180333 0.09806304 -0.16830438 0.26577938 0.01874664 -0.050705463 -0.21023312 0.11425448 -0.06859864 -0.18163121 0.28535992 0.11416273 -0.1955579 0.001179934 0.14595327 0.056301963 0.010054457 -0.0059702126 0.09890356 0.067919955 0.21768433 -0.2912373 0.041460432 -0.03694137 -0.0705105 0.28687683 0.10739307 -0.092679285 0.25837082 0.2502356 0.20856382
2142 -0.2047213 0.10413913 -0.007639014 0.06554146 0.019309452 -0.26635805 0.15177867 -0.041328963 0.29384917 0.2143966 0.19996719 0.15002574 0.025504364 -0.21552329 -0.19186038 -0.12675454 0.098010704 0.24698265 -0.06777771 0.11561849 0.002670847 0.11350682 0.10235544 0.06956596 -0.13955255 -0.2675501 -0.16451095 0.0046497555 -0.13445935 -0.09074745 -0.09955191 0.1369204 -0.04454372 0.13101381 -0.1646052 -0.2803695 -0.08941886 0.04904995 -0.102329016 0.020622782 0.07103851 -0.27688703 -0.16956602 -0.10284483 0.103309765 0.1279545 -0.013518073 -0.070523396 0.23658752 -0.14675735 0.04484299 -0.21108948 0.3214964 0.038911168 -0.28898203 0.010235004 0.11421635 -0.27462777 0.030630298 -0.19693013 0.0743452 -0.22597423 0.22029413 -0.21747679 0.059709795 -0.08992927 -0.36862648 -0.036386732 -0.05712716 -0.19326302 -0.0828188 -0.051649176 -0.15299778 0.11525256 -0.04670186 0.034307532 0.020822238 0.1521983 -0.17683524 0.15911329 -0.028486505 0.2730884 0.0140699195 0.014539523 -0.10361185 -0.005293951 0.103548564 0.22770786 0.1406863 -0.18168999 0.16177548 -0.040112343 -0.020208057 -0.13145535 0.17364728 0.054647814 -0.19484311 -0.045948848 -0.090416946 0.03963293 0.13424698 -0.1852104 0.09189984 0.051483497 0.1126802 -0.17173146 -0.09489484 0.24700673 0.24911095 -0.089195654 0.18674392 -0.03436544 -0.0734837 -0.123133175 0.033691388 0.25888997 0.090860695 0.04502704 -0.06149891 0.061056525 -0.076611705 0.021853106 0.15445939 -0.1966579 0.07955621 -0.15568288 0.23032549 0.16342875
1983 -0.08779966 -0.043421865 -0.14040147 -0.2077959 -0.2626231 -0.3870832 0.079803854 -0.20893165 0.067029566 0.090085015 0.19105838 -0.057745423 -0.038636696 0.25328115 -0.0935693 -0.017073143 0.035642818 0.14762624 0.04821461 -0.024612084 0.08447137 -0.041583527 -0.012384369 -0.16839075 0.008698269 -0.1472378 -0.03805751 -0.09234803 0.07173147 0.14850236 -0.25245345 0.44028458 -0.049890023 0.004382021 -0.0032299284 -0.18050763 -0.22296818 -0.2874505 -0.056418233 -0.37381905 -0.14397003 -0.22244318 -0.119848505 0.07967593 0.31380853 -0.15897407 -0.02111141 -0.095053226 0.23448443 -0.14085715 -0.19046006 -0.26081967 0.020705786 0.044267725 -0.08277134 -0.13683534 0.14316674 0.040776823 0.16050014 -0.17759287 -0.018428462 -0.010905463 -0.03404316 -0.114306174 0.21191731 -0.073878795 -0.16755974 -0.15186092 -0.12740716 -0.2085909 -0.16970634 0.11257342 -0.29719704 0.018086784 -0.14941366 0.1859466 0.004546962 0.09380705 -0.0065347087 -0.05675226 0.13650386 0.09760161 0.28142488 0.065546125 -0.24824496 0.1263656 0.06924315 0.17049976 0.03837085 -0.2728903 0.18720546 0.061842114 -0.07059552 -0.2809159 -0.0577571 0.103183985 -0.2814882 0.029491087 0.07292447 -0.09162888 0.408377 0.107186384 -0.039346162 -0.076265655 0.03122007 -0.14207 0.13650514 0.26124576 -0.15590754 -0.35928458 -0.04477416 -0.14758377 0.1055825 0.058806553 0.14760394 0.019679617 0.112755306 0.059541162 -0.26467794 0.14969584 0.080430806 -0.04710161 0.14639929 0.07853139 0.12297284 -0.01307454 0.36265692 0.09955276
2615 -0.103836775 -0.10916084 -0.19284719 -0.1429288 -0.13898261 -0.2597723 0.013174069 0.1418699 0.10614726 0.08496375 0.09746099 0.066473484 -0.31244725 -0.14460258 0.016709631 -0.08418238 0.110551655 0.18360011 0.16591814 0.038319692 0.036793914 -0.061821662 -0.30923256 -0.05960593 -0.07464596 -0.13082331 -0.0014582396 0.013689504 -0.20051251 0.010796722 -0.30244598 -0.03970118 0.00720864 0.043744367 -0.33157817 -0.028254125 -0.031624217 -0.27667782 -0.30240083 0.006735617 -0.04510282 -0.100901894 -0.08199415 -0.058657654 0.23884366 -0.31095147 -0.13477556 -0.0318161 0.17422408 -0.1384742 -0.10657648 -0.08380509 0.29570243 0.13025267 -0.06514966 -0.11749942 0.114544675 -0.13003314 0.18481502 -0.08693872 -0.08911644 0.03999589 -0.022409631 -0.19312029 0.085387595 -0.14158571 -0.09689511 -0.052481107 -0.08113095 -0.14996392 -0.20381567 0.050833803 -0.39830774 0.25598773 -0.09844498 0.15781458 -0.14407665 0.22237979 -0.11268089 0.1621495 0.082956806 0.34657285 0.2902519 0.08717482 -0.1290277 0.14571081 -0.040085733 0.019207189 0.055005822 -0.22489156 -0.00045707717 -0.08167157 -0.13126837 -0.33825675 0.058130153 -0.15447283 -0.23606549 -0.10396977 0.110181466 -0.08115339 0.28301156 -0.020463878 -0.074682705 -0.13823253 0.12670952 -0.14087878 -0.047264602 0.13241546 -0.21494463 -0.2705476 -0.039109003 0.019452449 0.14066045 -0.0226337 0.025099926 0.026171502 0.121123075 0.07777081 -0.123742744 0.19877933 -0.015278662 -0.036264017 0.26652446 0.037916347 -0.032880854 0.15895085 0.33523482 0.3403234
1943 -0.14849453 -0.05250993 -0.22081095 -0.09520118 -0.24762228 -0.27509245 0.31825873 -0.0014551097 0.19979715 -0.03164938 0.053232122 -0.10158244 -0.28959966 0.009122069 0.07269198 0.13633078 0.096379936 0.091530494 0.091518484 0.17074752 -0.090819456 -0.07253461 -0.05972875 0.030445302 -0.011360116 0.012873861 -0.065592974 -0.01797441 -0.118148014 -0.0065911054 -0.19875227 0.1794297 -0.108450234 -0.17031215 -0.14938337 -0.20399411 0.070028275 -0.18654664 -0.10702148 -0.08991196 -0.15820917 -0.21157719 -0.09777424 -0.16245791 0.2264644 -0.14965868 0.06423242 -0.053883567 0.2148769 -0.1600453 -0.046331123 0.099699296 0.021740537 0.035560116 0.09294354 -0.0457128 0.11958293 -0.17576317 0.18802088 -0.16905382 0.011489925 0.047328144 -0.020501299 -0.11158417 0.12064274 -0.1322873 -0.20314002 -0.14108257 -0.16953082 -0.1933933 -0.16145347 0.011665999 -0.40797558 0.18433693 -0.19906504 0.19023716 -0.015664749 0.12087177 -0.10644849 0.11644268 0.16677769 0.15315238 0.21739866 0.13040586 -0.36811906 0.25410864 0.11205784 0.06395797 -0.05936647 -0.2647606 0.27931154 -0.023567574 0.022398597 -0.39405847 0.08147646 0.007901172 -0.24197909 -0.00065900944 0.0893751 -0.10484401 0.47400904 -0.074487396 -0.047188867 0.11367343 0.13423446 -0.021682477 -0.01609401 0.15939899 -0.12908976 -0.3892967 -0.025870645 -0.089051284 0.057673387 0.004146056 0.18530719 -0.0610411 -0.019280028 0.115109496 -0.12353645 -0.019489724 0.0040166616 0.06462835 0.14897956 0.11147082 -0.0544644 0.12711306 0.288394 0.30039626
2059 -0.1869273 -0.038345538 -0.16227658 -0.13479944 -0.22827846 -0.26922402 0.18033254 0.06352158 -0.12571183 0.04180903 0.19597055 0.001200752 -0.091693595 -0.20166664 0.024004333 0.041063808 -0.021120248 -0.010479901 0.10783117 0.04992298 0.1417037 0.16429387 -0.16136123 -0.10375278 -0.21019152 -0.17082904 -0.02330415 -0.04918208 -0.0016657665 0.02711278 -0.08611501 0.22150642 0.02937121 0.03315711 -0.31762096 -0.1375709 0.025760142 -0.060206287 0.026065895 -0.17976132 0.117028035 -0.30709088 -0.16302185 -0.026372558 0.40802255 -0.23125945 0.017188072 -0.13546051 0.06546001 -0.14995122 -0.034883603 -0.12101227 0.35000378 0.04912399 -0.10887105 -0.09845245 0.16476814 -0.14755015 0.1216444 -0.16678473 -0.00033960873 -0.06662776 -0.19062677 -0.28781793 0.0071378457 0.03403066 -0.16679054 -0.017573649 -0.27036366 0.006274027 -0.14894746 0.1524361 -0.3781943 0.37001857 -0.21028778 0.08572433 0.044582568 0.13390625 -0.09558159 0.09107092 0.082593724 0.24967046 0.22384521 0.15113704 -0.0750084 0.0037697302 -0.038455322 0.12889968 -0.0015546635 -0.3163176 0.20175716 0.042881615 -0.15549482 0.031237774 -0.044922564 -0.073884726 -0.120357715 -0.15738429 0.025442 -0.16665225 0.4340827 0.16382124 0.009882732 -0.072248 0.07456167 -0.006501839 0.0141747985 0.16104083 -0.10717047 -0.41064757 0.03599331 0.11354784 0.1086694 0.044787362 -0.08047352 -0.044122532 0.007902587 0.19598669 -0.085751265 0.06095899 0.0073183193 -0.12806419 0.15468726 -0.008612796 -0.020867435 0.12754768 0.1607468 0.38626227
1979 -0.057173792 -0.11348213 -0.20086859 -0.005973041 -0.234709 -0.22779913 0.024077881 -0.0694296 0.06272964 -0.008153442 0.14258878 -0.07387368 -0.29231077 -0.1218232 -0.053032152 -0.042832658 0.094645 -0.013942259 0.1317702 0.12862878 0.050752 -0.04938093 -0.021750918 0.10891041 -0.109275505 -0.31964594 -0.0070094066 -0.117574535 -0.085013986 -0.015381968 -0.15823255 0.13353945 -0.06003353 -0.011581641 -0.16975561 -0.18364812 -0.09808241 -0.1720121 -0.2106103 0.031049576 -0.090338886 -0.09370189 -0.2761036 0.052102298 0.329449 -0.22218329 0.03877991 -0.0073936433 0.14072101 -0.14560232 -0.2367978 -0.087904885 -0.0038923891 0.0044355094 -0.021076698 -0.10332175 0.16632956 -0.3890358 0.07228697 -0.10889514 -0.036382534 0.07514079 -0.0175566 0.033328533 -0.036508236 0.048207693 -0.17236333 -0.14042853 -0.024623353 -0.20231266 -0.26685932 0.1266822 -0.20133622 0.18645611 -0.07502399 0.064566165 -0.0072464305 0.08591873 -0.070053525 0.15221757 0.2588729 0.21418507 0.28424758 0.034582067 -0.16743432 0.21832927 0.050958056 0.27473816 0.042339955 -0.39942923 0.100013524 0.037336398 -0.104476966 -0.12019824 0.15396482 0.045340315 -0.19196771 -0.06856032 0.038893066 -0.4082518 0.33836958 -0.04588955 -0.004309801 -0.094487436 0.13673909 -0.06876161 -0.07027337 0.2101823 -0.15454185 -0.105062045 0.093555 0.36574703 0.26788267 0.07090193 -0.097575694 0.061544944 0.07207574 0.30778307 -0.22099736 0.114908196 0.07382019 -0.07196667 0.1460396 0.09730021 -0.08149128 0.07583772 0.35284987 0.15621243
2611 -0.05884514 -0.19727685 -0.16818516 -0.021274015 -0.19408587 -0.17111766 0.061537508 0.05972077 0.17650084 0.2013194 -0.042973913 0.1620552 -0.053925727 -0.061384052 0.14705287 -0.13918272 -0.124940015 0.2347027 0.14435594 0.11660631 -0.034369845 -0.04737907 -0.12471031 -0.06558826 -0.21980332 -0.1794619 -0.18036349 0.13786907 -0.10502822 -0.019007144 -0.21703102 0.24094683 -0.08106816 -0.02971141 -0.27278054 -0.16302577 -0.18824053 -0.065900095 -0.10027661 -0.12448141 -0.006215242 -0.0835847 -0.024199609 -0.030543566 0.5465831 -0.39938563 0.09865156 -0.07291528 0.18110175 -0.068344325 -0.024418037 -0.37051767 0.110287875 -0.030571504 -0.18065207 -0.1770278 0.22522195 -0.166492 0.14135024 -0.05698615 -0.07185396 0.10631382 0.039272208 -0.1502168 -0.032566417 -0.056580354 -0.18938805 -0.16743124 -0.0797862 -0.17099999 -0.1733475 0.23349483 -0.47735003 0.42086694 -0.08122877 -0.08850058 0.1311837 0.21986979 -0.24150448 0.24330796 0.07706731 0.17568503 0.33464503 -0.018687857 -0.22414212 0.24220781 0.10764089 0.0538955 0.10990612 -0.106829375 -0.049656246 0.009167178 -0.10079926 -0.07066758 0.046613604 0.016420057 -0.30215797 -0.10950022 -0.08577901 -0.1450101 0.29506987 0.02090257 0.014152022 -0.25274512 0.03882202 0.10448702 -0.03727852 0.19148953 -0.06831176 -0.2342774 0.023840548 0.000524917 -0.026209008 -0.08863154 0.14593221 0.039056893 0.015911613 0.27871752 -0.13347857 -0.09808337 0.029567955 -0.014003995 0.14825407 0.036450174 -0.0007765252 0.05706626 0.07661302 0.020382201
2087 -0.015220359 0.014914019 0.06404719 -0.37083724 -0.20327778 -0.17164059 0.14102659 0.010214492 -0.046871778 0.08152752 0.10998603 0.20060866 -0.2076922 -0.21525009 0.07394416 0.11800962 0.04557848 0.23159415 0.19512525 -0.10746235 -0.0010772335 -0.13845406 0.08016596 0.11121724 0.15605927 -0.04583842 0.23636249 0.19617234 -0.20925795 -0.0006710336 0.15964547 0.042848848 0.077272646 0.13157086 -0.028667195 -0.11853275 0.3311143 0.3307773 0.10928168 0.019386211 -0.10196128 -0.18817846 0.20552328 -0.0856501 -0.10719773 0.08245716 -0.07160063 0.13360585 -0.04998416 -0.38657716 -0.05798439 -0.3853138 -0.06275942 0.0801069 -0.19182932 -0.13934574 -0.076996066 -0.15790212 -0.036377527 0.2032982 -0.04383932 -0.02143817 0.0021369953 0.33922032 -0.033159714 -0.10836379 -0.07701717 -0.14415695 -0.21472694 -0.28555396 0.029138697 0.12602197 0.18140458 -0.07458224 -0.22923477 0.14697216 -0.17982773 0.34788182 0.030927368 -0.12828176 -0.019003153 0.26293892 -0.19687735 -0.19131532 -0.11694192 -0.21459214 -0.043700352 0.06945021 -0.24375646 0.17603873 0.072044425 -0.07473162 -0.01966627 0.17566815 -0.06830699 -0.106473535 -0.052578487 -0.35380867 -0.007835375 -0.25849545 -0.28358033 -0.24489364 -0.16332789 0.1227553 -0.30667558 -0.23300046 0.20714368 0.070161946 -0.05630767 -0.035486583 0.10703542 -0.021885823 -0.027151786 0.16578889 -0.10136839 0.020751156 -0.029654525 0.12636277 0.07409195 0.002530456 0.14430693 0.008870401 0.053287737 -0.04487047 0.23304756 -0.15334919 -0.002938453 -0.09723468
2081 0.0060809026 0.08192429 -0.120059446 -0.1334905 -0.24974531 -0.20156717 0.060056053 -0.07142945 0.05621756 0.2760552 -0.020139439 0.050821066 -0.08422456 -0.104653366 -0.03373391 -0.08688702 0.058515664 -0.002348363 0.13822778 -0.15277943 -0.004400457 -0.12704733 -0.027941907 0.10141728 0.102178484 -0.08353496 -0.05511589 0.08678924 -0.106478035 0.0969469 -0.0014100688 0.034402132 0.10146855 0.017671173 -0.124008745 -0.121235274 0.5318338 0.41241705 0.021312827 0.23149836 -0.104863375 0.025243413 -0.03493788 0.06190984 -0.06338111 0.14972962 0.11861857 0.12546635 0.080024734 -0.17760414 -0.120170996 -0.22161904 -0.032052796 0.2500839 -0.24079381 -0.20459211 -0.038283736 -0.23687242 0.038362943 0.25156605 0.16278958 -0.004995178 0.16174802 0.1851647 -0.1330251 0.06903744 -0.06849252 0.020681541 -0.1603446 -0.25649434 -0.049153946 0.11763646 0.09773761 0.22730322 -0.3650664 0.03354658 -0.078331426 0.007996498 -0.10142523 -0.2006226 -0.09530429 0.23222457 -0.23837952 -0.11318238 -0.20443779 0.00863136 -0.17260456 -0.08793591 -0.23106031 0.3188936 0.1098036 -0.07176361 0.0455601 0.1595889 -0.05922464 -0.12236853 0.03449416 -0.18524837 0.04917664 -0.38641745 -0.27764636 -0.013830628 -0.34776407 0.24649958 0.02053248 -0.24007076 0.029673936 0.22991447 -0.26425973 -0.032489337 0.37750006 -0.05960023 0.043723993 0.0997071 0.18136416 0.008633003 -0.19411859 0.12217697 -0.043854337 0.030794019 -0.01345877 -0.10559842 -0.092234366 -0.1425297 0.3120995 -0.11303223 0.031207768 0.08993488
2582 -0.1342115 0.18804574 -0.16258685 -0.14460136 -0.15499489 -0.047467336 0.2658045 0.0033193484 0.34206125 0.27233717 0.16038886 0.269443 -0.22488102 -0.30265677 -0.048961665 -0.14736494 -0.015457675 0.35623336 0.28078404 0.016652994 0.06522103 0.03121012 -0.052577727 0.21284091 -0.11548642 0.21019438 -0.020847952 -0.094075724 -0.13502143 0.11420931 0.24648365 0.023044879 0.2169063 0.1390448 0.1467601 -0.16692138 0.0075278822 0.19698647 0.17779933 -0.0357614 -0.10315319 -0.16656221 0.07413168 -0.11412317 -0.28845367 0.15642977 -0.037909623 0.04854303 0.10378342 -0.2572584 -0.16253331 -0.19665661 -0.018903168 0.007192461 -0.19203895 -0.086054996 -0.0073030344 -0.13919114 -0.15077654 0.36199304 0.13237475 0.08631849 0.07277229 -0.009310073 -0.2098624 -0.073745236 -0.051370863 0.0916837 -0.26624325 -0.3521947 0.08510956 -0.04818934 -0.013621172 0.23367347 -0.11728461 0.11286711 -0.05781255 0.34401587 0.22059707 -0.20941246 -0.32289642 0.057496857 -0.21232331 -0.11311089 -0.0770465 -0.18029217 0.004203782 0.046834026 -0.324655 0.059467576 -0.0102534145 -0.08558412 -0.06918392 0.18537204 -0.25855395 0.028924944 0.12413376 -0.3388916 -0.048969287 -0.21870376 -0.26820746 -0.17033638 -0.16966304 0.08056523 -0.1022859 -0.03815492 0.3593888 -0.00987774 -0.2084909 -0.12116384 0.07024723 0.11195454 -0.056281976 0.1416542 0.11500356 -0.16098438 -0.11235597 0.047874667 0.14880668 0.049111784 0.16308759 0.08612676 -0.09551471 -0.11882454 -0.030900091 -0.13394445 0.12755717 -0.066500165
2468 -0.0602989 -0.15594944 -0.019723035 0.023791153 -0.3037433 -0.19917768 0.3298262 0.00847949 0.13142839 0.15320437 0.11559013 -0.009449837 -0.28064695 -0.18359338 0.08886407 -0.2006464 0.09160708 -0.10054425 -0.2843366 0.088684164 0.03045598 -0.11849313 -0.094656676 0.19500175 -0.096947655 -0.37874416 -0.11604991 -0.06364939 -0.3367014 -0.16889705 -0.23248746 0.24078785 -0.07026315 0.054784335 -0.19992621 -0.17435187 0.10295513 0.008122405 -0.08071005 0.1454113 0.08419165 -0.42666218 0.06104302 0.0147934165 0.033718843 0.23920612 0.103940055 0.25217542 0.18701264 -0.48984668 -0.047393005 -0.35842848 0.14642769 -0.14567602 0.14595819 0.13535538 0.06310566 -0.09586428 -0.0147523815 0.13674551 -0.0088395905 -0.0785449 -0.13393734 -0.09165673 0.15814947 0.15205102 -0.20490344 0.030806785 -0.063813835 -0.18571414 -0.31621674 0.31236285 -0.07914951 -0.14243945 0.1269682 -0.08517195 -0.0070204074 0.2642517 -0.16075681 0.06682187 0.046984844 0.112116195 0.12991875 0.30073914 0.010473241 -0.020016912 0.032215964 0.15869173 -0.06862558 -0.302122 0.106383346 -0.11621588 -0.11066218 -0.04763132 0.24485147 0.1906961 0.13535252 -0.25960547 0.095805645 -0.29759336 -0.10683145 -0.2810617 0.12955868 0.056857213 -0.059864033 -0.22494769 0.09540939 0.12139285 0.07513559 -0.037463576 0.0119444365 -0.11491788 -0.059441872 -0.29528436 0.096915714 -0.1259513 0.028388638 0.20997408 -0.034511782 0.13968919 -0.11661081 0.015473247 0.13454998 0.030542389 -0.08625274 0.06261392 -0.15118545 0.2617048
2271 -0.08221271 -0.075913504 -0.15027323 -0.005133548 -0.30696324 -0.4499059 0.11279293 -0.16181006 0.22148377 0.025949983 -0.009960817 -0.11010672 -0.21019316 0.03148826 -0.19109434 -0.008059578 0.10823893 0.19337597 0.0660306 -0.082204364 0.05845334 -0.09627952 -0.03296594 -0.21491218 -0.061023317 0.0010989165 -0.09310915 -0.11446802 -0.006511346 -0.012160626 -0.17236504 0.25442 -0.14781517 -0.022763908 -0.032046672 -0.014210002 -0.017061416 -0.13872418 -0.343214 -0.2337891 -0.10266261 -0.32503158 0.0664744 -0.111631915 0.542745 -0.081180334 0.2598429 0.09964573 0.37799144 -0.06452441 -0.25603887 0.004214176 0.23526438 -0.08876214 0.024479894 -0.11759274 0.09943684 -0.23061691 0.021547625 -0.23867333 -0.046821516 -0.024044922 -0.12673329 -0.08597893 -0.012678335 -0.049383767 -0.06522328 -0.049386255 -0.14421298 -0.051898304 -0.22789678 0.08099943 -0.29381117 0.31661645 -0.20563129 0.09796007 -0.0032605203 0.15589416 -0.2114129 0.029750703 0.060357556 0.20664757 0.3055785 0.08589773 -0.1485183 0.12607525 0.071576424 0.14310625 0.104184374 -0.17656742 0.11383638 -0.038668208 -0.1697309 -0.21483587 -0.07847914 -0.026647342 -0.19710727 -0.10936002 -0.16228296 -0.026151847 0.2763598 0.055793963 -2.115999e-05 -0.18070869 0.04776473 -0.11606723 0.022960382 0.22110148 -0.32464904 -0.36690983 -0.012062852 0.025966626 0.18091391 0.1301544 0.06039287 0.05937522 0.07981684 0.10549212 -0.13687879 0.08205373 0.0850233 0.0006239052 0.048781004 0.11598944 -0.2408766 0.10221506 0.18057084 0.12789889
2078 -0.19059964 -0.16144629 -0.1728608 -0.1376688 -0.29561678 -0.019935865 0.15751731 -0.15902454 -0.1760466 -0.022747478 0.18939072 -0.023997054 -0.20458797 -0.033898164 0.084956005 -0.037009675 0.14353806 0.14764024 0.18269081 0.038495813 -0.031315446 -0.04740266 -0.15920992 -0.0759184 -0.20873451 -0.2865767 -0.18421754 -0.037293985 -0.049330585 -0.13074905 -0.23598139 0.11057709 -0.12317159 0.031377472 -0.21103972 -0.116842665 -0.07234163 -0.22057228 -0.11132564 -0.16493693 0.059035953 -0.19827226 -0.0776495 0.13442239 0.20945841 -0.26608804 -0.06646343 -0.06411312 0.10245468 -0.35684744 -0.16721524 -0.040175643 0.19492994 -0.000114756775 -0.10958816 0.10998655 0.11806194 -0.23976354 0.33421645 -0.01799812 -0.03215314 0.03227327 -0.007953042 -0.09686873 -0.14425309 -0.010315855 -0.11562457 -0.068282165 -0.06029251 -0.2078393 -0.13240579 0.16119374 -0.23710656 0.26060292 -0.12665296 0.104165144 0.1554767 0.24314371 -0.17368405 0.20844038 0.17751382 0.2905419 0.12686421 0.20002432 -0.25461125 0.130194 0.04336209 0.060556162 0.11565803 -0.42524785 0.23335792 -0.026728287 0.047674388 -0.10399953 0.14188974 0.0069270865 -0.123352215 -0.16341056 0.09097175 -0.16275406 0.30434883 0.18093722 -0.068997666 -0.085255235 0.12814826 0.0633082 -0.18837719 0.274323 -0.20698887 -0.36010808 0.07263275 0.09244415 0.1835633 0.03765045 -0.016681695 -0.07640265 0.11294112 0.12999476 -0.13784774 0.1230847 0.1067519 -0.11785362 0.11017493 -0.08852839 0.02922692 0.03507834 0.15828893 0.19382273
2381 0.036263887 -0.076320074 0.062179364 -0.06763444 -0.24226084 -0.13285819 0.07252598 -0.08989304 -0.009683465 -0.07143666 0.046120387 0.0015289264 -0.2249455 -0.06936238 -0.05379632 0.008681534 0.026463712 -0.0079768235 0.17438126 0.006698797 -0.011702586 -0.025289947 -0.32112527 -0.029811217 -0.11626279 -0.1272629 0.06121514 -0.22211015 -0.1229423 -0.13646914 -0.2151734 0.16273691 -0.09006704 0.23285578 -0.043243837 -0.33231324 0.08095579 -0.3290475 -0.10128364 -0.21879625 -0.051931243 -0.18495062 -0.12858929 -0.13533781 0.15341203 -0.09610865 0.11718805 -0.060797576 0.06335098 -0.13859412 -0.1671609 -0.2442325 0.18314347 -0.0053430777 -0.00037389752 -0.11676081 0.22906698 -0.36322662 -0.03564951 -0.14960274 -0.014044634 -0.074866004 -0.07085222 -0.22959861 0.058555946 0.016536955 -0.09481526 0.15604202 -0.12731324 -0.24543603 -0.300659 0.2805187 -0.37778744 0.3552493 -0.0125388075 0.19910921 0.15813343 0.10136433 -0.007970272 0.16252816 0.010538591 0.06563127 0.29722872 0.15819363 -0.20913184 0.03949144 -0.07530703 0.074235804 0.077906296 -0.3603619 0.20858018 -0.007860025 -0.12832807 -0.13094321 0.23113611 -0.0053870496 -0.13863434 -0.1161946 0.06962019 -0.16279154 0.27146542 0.117501035 -0.15742299 -0.13410261 -0.017821249 0.007802481 -0.060603634 0.1908962 -0.1936517 -0.27505344 0.07695099 0.08619257 0.12216949 0.047668662 -0.08697737 0.12568173 0.22398834 0.11335664 -0.070046 0.19448325 0.057322778 0.024809184 0.13957444 -0.047748085 -0.12578407 0.007446472 0.36944413 0.0808228
2233 -0.14840633 -0.2355215 -0.03251993 0.035209022 -0.1307383 -0.1587837 0.14027987 -0.24031487 0.011563933 -0.0667993 0.016747018 -0.15686582 -0.14421196 -0.0620828 -0.09174413 -0.015689984 -0.08273156 0.13440697 0.2548987 -0.052557632 -0.04962185 0.02591915 -0.15558477 0.26755914 -0.02616167 -0.2094944 -0.023876036 -0.038026765 -0.13783139 -0.06639911 -0.32240078 0.08507826 0.049961433 -0.013198883 -0.32797992 -0.088511266 -0.24108009 0.05384374 -0.10701357 0.035187405 0.022896655 -0.3036335 -0.057022464 -0.28525233 0.17012155 -0.066817 -0.043694902 -0.18591167 -0.051381495 -0.061893966 0.03213062 -0.02942967 0.16208975 0.09495693 -0.1916342 -0.1573435 0.107770175 -0.16302966 -0.10292319 -0.17007318 -0.023654236 0.05626968 -0.059434462 -0.17930141 -0.09857419 0.0703662 -0.17102835 -0.13335186 -0.123182625 -0.31770104 -0.2588685 0.11206354 -0.24592589 0.031662855 -0.067108564 0.21165416 0.06840064 0.06596561 -0.059158802 0.35884535 0.06864854 0.12455718 0.34417173 0.15219198 -0.24973518 -0.0268167 -0.12495256 -0.002249198 0.00095399935 -0.2706772 0.16143273 -0.216274 0.021301482 -0.019619578 -0.16738899 0.010877753 -0.16677754 -0.38904995 -0.021143408 -0.4129909 0.29454952 -0.056802414 -0.15283374 -0.06171959 0.115592964 -0.07551469 -0.044126224 0.25875455 0.0012911995 -0.070754915 -0.034835648 -0.02915402 0.059997868 0.24483493 -0.074008115 -0.26569533 0.051722355 -0.007859513 0.06639507 0.60102195 0.09928676 -0.0868506 0.16578652 -0.042157616 -0.46492833 0.070706695 0.110901386 0.24196178
2007 0.051838767 0.1531603 -0.2331651 0.27993667 -0.30652574 -0.009192202 0.40322375 -0.07082324 -0.02541745 -0.20191465 -0.10667649 -0.1819968 -0.11297329 -0.062991954 -0.063842505 0.028915234 -0.10866412 0.1110387 0.14155096 0.14586192 0.061480742 -0.03975502 0.12891938 -0.14361939 -0.1196875 0.054766838 0.183194 0.031665012 -0.07008006 -0.21134785 0.22734089 0.17618452 0.07000874 -0.2127266 -0.13610485 -0.20373528 0.10993773 0.20765996 0.034198705 -0.3514249 0.09103094 -0.07112829 -0.13922875 -0.19613771 0.00043619276 0.29509392 -0.12914346 0.05066676 0.2838793 -0.30826867 -0.18812959 -0.25931174 0.095690794 -0.015061959 -0.14347565 0.034009855 -0.07900639 0.032896243 -0.19870518 -0.15450716 -0.09563431 0.13566889 -0.17628978 -0.3161759 0.01719887 0.019007204 -0.050232142 -0.05147851 0.03164203 -0.23378262 -0.051267594 0.24888526 -0.06601299 -0.13638254 -0.35210958 0.3031796 -0.15144207 0.09731335 -0.15894689 0.1693018 -0.07700577 0.058510616 0.06812784 0.036664482 -0.08237929 0.10342929 0.08694387 -0.013274335 -0.11957492 0.10531689 0.12592138 -0.07127315 0.12980162 -0.08912941 0.058524482 0.11091563 0.2652537 -0.06729184 0.013082247 -0.31425396 -0.11698407 -0.20714527 -0.04142272 -0.029448409 -0.107894324 -0.43314087 0.2729887 0.36027142 -0.06243728 -0.26061764 0.16154604 -0.16785225 0.01614977 0.010498638 0.14167325 -0.06304167 -0.034359384 -0.031500034 0.15298292 0.07084353 0.051721472 0.32537138 -0.3016554 -0.11919942 0.21843274 -0.28982097 0.09391633 0.0951452
2289 0.07825746 -0.056900974 -0.25136322 -0.23168516 -0.47595236 -0.08201448 0.16720626 -0.15640405 0.15263018 0.22383933 -0.11231276 0.16775586 0.06973634 -0.22305308 -0.15794604 -0.09162305 0.009534066 0.099496 0.08534698 -0.1302643 -0.10563793 -0.29527926 0.27651674 0.0045809895 0.2137438 -0.07314183 -0.2838812 0.11905485 -0.34618342 -0.008278034 0.19825222 -0.068848595 -0.17578463 0.27395892 -0.028470777 -0.059402518 0.21137987 0.325414 -0.025689224 -0.26583722 -0.050815184 0.10511351 -0.0075874133 -0.06680053 -0.10598285 0.17986648 0.08900815 0.039791863 -0.030939227 -0.18224297 -0.16265295 -0.39727294 -0.24271137 0.037727408 -0.039305132 -0.27757686 0.20863013 -0.16943324 -0.20894954 0.32287973 0.04053944 -0.027655806 0.2240906 0.10993609 -0.15643181 0.13025254 0.063663036 0.120519005 -0.15400542 -0.041508477 0.1452062 0.10448358 -0.3109891 0.083707415 -0.16748425 0.11410221 -0.14035764 0.31654772 0.13679844 -0.2165233 -0.31438905 0.068934925 -0.08637493 0.037980366 -0.33282977 -0.18356453 -0.04825244 -0.18240318 -0.2147709 0.12421396 -0.042049706 0.2810545 -0.09194996 0.1715935 -0.06863664 0.22585058 -0.10274957 0.030751998 0.26276398 -0.3606114 -0.35217 -0.18913299 -0.026096674 0.084533304 -0.04805234 -0.20296529 0.2112915 0.18175198 -0.14015561 0.08745039 0.0017787352 -0.26963538 0.04934526 0.24092738 -0.11008341 -0.15836626 -0.1471674 0.27919528 0.29788184 0.13950552 0.3544136 0.22610962 0.07238461 -0.25057086 -0.2246562 -0.08581764 -0.09285168 -0.13056493
2133 0.15674941 0.01522297 -0.1904965 -0.19766901 -0.40052584 -0.17074482 0.021550799 -0.18256967 0.07794562 0.061550602 0.06838344 -0.042894356 0.01209151 -0.35411483 0.03977514 -0.14192994 -0.09483541 0.0554344 0.116618246 -0.34645537 -0.03959086 -0.12661043 -0.060890842 0.2748272 0.17218393 -0.17237741 -0.12113998 0.046113465 -0.2835274 -0.101510055 0.19678918 0.071619086 0.009380208 0.020501548 0.01566721 -0.015021737 0.26167047 0.25863048 0.05670959 -0.33162507 -0.18862946 0.055084247 0.14341672 -0.08972741 0.05828323 0.18495706 6.2856736e-05 0.02331558 0.039368752 -0.10074703 -0.112613834 -0.41022158 -0.06417647 0.059531916 -0.18545297 -0.17042342 0.03480727 -0.09919227 -0.35298386 0.20221189 0.14205864 -0.13844317 0.43503127 -0.06220623 -0.11575004 0.19813503 -0.08563675 0.07899185 -0.2215643 -0.118147396 0.053434927 0.0097284475 -0.046785735 0.15191326 -0.13729328 0.065761246 -0.032721538 0.506251 0.15482946 -0.2340375 -0.2339916 0.14615472 -0.2652 -0.20921995 -0.4496763 -0.036410935 -0.08431268 -0.29298484 -0.1787064 0.102205016 0.05770305 0.033255287 0.06131164 0.053057153 -0.2202225 -0.02839343 0.113277845 -0.08244832 0.124635525 -0.3011922 -0.21889651 -0.08017181 -0.08626944 0.009647854 -0.0020688653 0.1666846 0.36966667 0.21553287 0.13069743 -0.06957443 -0.09111393 -0.23053664 -0.07865755 0.1925964 -0.14860772 0.06256892 -0.19635989 0.100977264 0.37045074 -0.41935894 0.15969561 -0.08749787 0.045787174 -0.06799445 0.04833693 -0.09303875 0.19918628 -0.12209094
1941 -0.0725779 -0.09482675 0.01718811 -0.031373437 -0.123627685 -0.16386543 0.29983202 -0.088179454 0.07773507 0.1457107 0.18681219 0.16671719 -0.24370201 -0.17991504 0.018237602 0.10235039 0.05375663 -0.07400124 0.10966818 -0.1900877 0.099204935 -0.055971622 -0.11008056 0.23627698 0.07000281 -0.12688391 0.006273732 -0.10901112 -0.013700786 -0.048443172 -0.00042921593 0.39909726 0.21347377 0.30738598 -0.11294687 -0.3209514 0.012173329 0.2172016 0.008464786 0.061643146 -0.23604593 -0.21616471 -0.19919471 0.12774698 0.19706804 0.2960443 -0.16103995 -0.0663677 0.30478427 -0.09407044 -0.48460037 -0.26163417 0.38291845 0.03795831 -0.38294703 -0.07921716 -0.09870015 -0.07969941 -0.2203945 0.14704148 0.19306439 0.06978416 0.07361491 0.04014068 -0.21322887 -0.107029386 -0.06031928 0.11812635 -0.035029158 0.22581214 -0.1254628 0.15924285 0.0065067075 0.0015491111 -0.20495157 -0.06513662 0.11505183 0.012315435 0.003629732 0.13360068 0.04659463 0.23559873 0.117554285 0.24376093 -0.2350021 -0.121067025 0.073861405 0.045832325 -0.102523185 0.19820654 0.077052146 -0.12186327 -0.09798595 -0.021296768 0.21976046 0.14154898 -0.006570278 -0.20797257 0.05968047 -0.18434736 -0.022282187 0.070262454 -0.22934794 0.19547819 -0.07531225 -0.0058017666 0.062554345 0.12406534 -0.0685351 0.10271652 0.17819318 -0.076101184 0.023035241 0.056884095 0.017006032 -0.014454848 0.016567258 -0.045227986 0.042528097 0.1033953 -0.093648605 -0.059325658 -0.10724824 -0.037607193 0.12600578 -0.38456318 -0.39356863 -0.067934446
2118 -0.16284093 -0.21986182 -0.2184145 -0.09029865 -0.3151371 -0.2096246 0.22408484 -0.23237371 -0.071844034 -0.005104115 0.45451164 0.08917842 -0.18538755 -0.20801927 0.08657199 -0.062380347 0.036831897 0.13986205 0.03241771 0.09816724 -0.03567766 -0.057923365 -0.08795643 -0.10328957 -0.13225491 -0.103930734 0.15666331 0.0876521 0.010466731 0.018100316 -0.08004228 0.23155686 -0.17048796 0.12255437 -0.22217709 -0.2823926 -0.17230943 -0.32087314 -0.081515625 -0.28232795 0.00075916934 -0.19657294 -0.07313727 -0.007443018 0.19707987 -0.17189142 0.024483556 -0.17343579 0.16211331 -0.1635632 -0.16905144 -0.21833092 0.15123452 0.040330596 -0.08996598 -0.14100444 0.054069053 -0.033029813 0.04713815 -0.12170104 -0.13425991 0.0070957816 -0.10979646 -0.21909761 -0.14334421 -0.15926415 -0.22026163 -0.11446895 -0.10711246 -0.048227433 -0.12380253 0.18052329 -0.1683392 0.25011262 -0.10930854 0.13245486 0.11767111 0.1283489 -0.11643252 0.060295295 0.113906465 0.2808202 0.19694224 0.15660474 -0.18092768 0.17331748 0.030634366 0.2491675 0.18357311 -0.38523942 0.15748379 -0.12996845 -0.12488508 -0.06273204 -0.017743751 -0.03709751 -0.04330722 -0.17954682 -0.06454568 -0.09413423 0.4060044 -0.02800392 -0.044626407 0.0050115488 0.061472896 -0.11829387 -0.05054648 0.15649293 -0.043072633 -0.07257711 -0.04526714 0.16398525 0.14224334 0.01966651 0.001735542 0.055158954 0.10579006 0.084373236 -0.109487705 0.15473762 0.122214995 -0.0174196 0.19379048 0.039146513 -0.064120695 0.030889546 0.22823203 0.2602342
2593 -0.2430115 -0.24378443 -0.24008852 0.009476637 -0.18746881 -0.21672207 0.029230379 -0.08789145 -0.017014228 0.06371976 0.35606605 -0.017569374 -0.038840428 -0.20716144 -0.02562697 -0.10860754 -0.10529663 0.012442557 0.16265355 0.027592491 0.15299462 -0.009773326 -0.16187981 0.019449113 -0.16754027 -0.2126048 -0.013319832 -0.189635 -0.047001243 -0.11406157 -0.13276318 0.13825484 0.037145045 0.020559259 -0.07769512 -0.17171611 0.20278099 -0.26125276 -0.1356869 -0.11875526 -0.07169947 -0.18216686 -0.04971845 -0.032192804 0.3683444 -0.21044277 0.019842628 -0.04241153 0.0760399 0.06229841 -0.011070594 -0.04766007 0.2141288 0.08248505 0.013544702 -0.13410798 0.1335016 -0.2636103 0.16057274 -0.08380534 -0.1840742 0.121584065 0.12265682 -0.17313087 0.11327777 0.16220747 -0.062348723 -0.07020166 -0.13627778 -0.29205686 -0.21151619 0.19222566 -0.56749356 0.27771962 -0.2233984 0.13660361 -0.053970005 0.122096136 -0.11669692 -0.00081078976 0.21370684 0.3189322 0.28553745 0.0017960435 -0.15035187 0.1506512 -0.017699657 0.0979581 0.013527739 -0.24823745 0.18986231 0.029129634 -0.07291735 -0.14426884 0.055143274 -0.0053418637 -0.13946989 -0.027871853 0.05796865 -0.15049519 0.50286764 0.101277545 -0.0012857966 -0.11256735 0.098300435 -0.16637659 0.01841023 0.27608988 -0.11113514 -0.16177054 0.07814591 0.03745536 0.0072628884 0.049188714 0.02614474 -0.009641907 0.0333416 0.054722596 -0.0211395 0.13952066 -0.09391456 -0.13815632 0.24355504 -0.032118596 -0.20337929 -0.040320653 0.27916485 0.21893556
1946 -0.11677458 -0.040444646 0.08229677 -0.092623405 -0.17572238 -0.2543295 0.2137914 -0.10051575 -0.036305085 0.03091607 0.16333304 0.036192227 -0.31021497 -0.17524058 0.123868756 -0.0058515402 0.068416975 0.17312674 0.25499764 0.06933409 0.19825087 -0.006180084 -0.19458881 -0.07944647 -0.09298693 -0.2588174 0.04397329 -0.265629 -0.050824206 -0.12690501 -0.17510515 0.06710045 -0.06448499 -0.010864816 -0.19846034 -0.1379162 -0.092131525 -0.3152326 -0.13387921 -0.014417786 0.021307085 -0.17829356 -0.13112897 0.0669041 0.28378016 -0.17163308 0.01466496 0.0056128297 0.18800727 -0.13805194 -0.24053721 -0.17099033 0.12485985 -0.059919715 -0.028338859 -0.15265071 0.16218087 -0.06841895 -0.00046695865 -0.12827866 -0.07644423 0.19031811 -0.033978026 0.011060277 -0.056069408 0.03323728 -0.09785598 -0.11971578 -0.21714884 -0.17274016 -0.21848612 0.03312743 -0.21254414 0.3572355 -0.16575275 0.11255297 0.17844729 0.16584261 -0.021296151 0.13373871 0.055344902 0.33135006 0.31350407 0.18333684 -0.14684069 0.10191302 0.11910595 0.25804824 0.08283155 -0.4175571 -0.0004519435 -0.059515312 -0.26221058 -0.14944029 -0.009263537 -0.05102651 -0.06785729 -0.14913458 0.21245423 -0.1456437 0.29710072 -0.024360271 -0.010554472 -0.022939239 0.17555594 -0.09135406 -0.085395746 0.089150466 0.06649398 -0.2550946 0.091873266 0.2658422 0.037482016 0.038992096 -0.04565269 -0.0838587 0.16409045 0.27756292 -0.04825755 0.22214277 0.19634408 -0.14303303 0.19890031 0.14699666 -0.07998779 0.07728096 0.12245008 0.17427732
2308 -0.14982235 -0.0708967 -0.2250564 -0.043178864 -0.16943246 -0.038257625 0.19826935 0.06013047 -0.012007801 0.051103927 0.15948626 0.0057104193 -0.22940597 -0.009798476 -0.0023596664 -0.06312024 0.19621238 0.014756249 0.24644683 0.069603145 0.017444696 -0.113848254 -0.16303964 -0.004406765 -0.114885725 -0.20824291 0.022819787 -0.09526677 -0.09559154 -0.000852133 -0.2806797 0.14007148 -0.03161053 0.08934209 -0.30495292 -0.20395175 0.13932778 -0.17992912 -0.15561974 -0.24446279 -0.029326169 -0.3857144 0.22519472 -0.08856591 0.37119406 -0.19857162 0.08597567 -0.037355006 0.13390315 -0.08322741 0.030328501 -0.121526584 0.26391342 0.10043107 -0.116399765 -0.13644381 0.088026196 -0.3359342 0.06466689 -0.1099781 -0.06752603 0.0564396 -0.09443054 -0.038150143 0.22003625 -0.18061464 -0.12428905 -0.13569735 -0.26501873 -0.043611433 -0.20356357 0.24309221 -0.4388655 0.29941308 -0.059102092 0.20285958 0.10939313 0.12194074 -0.007335653 0.23754875 0.24900459 0.22607508 0.03494027 -0.11433847 -0.21287568 0.26762596 -0.015638573 0.19790706 0.105424516 -0.41028386 -0.083784096 -0.11885056 -0.18662956 -0.049185455 0.003252335 -0.055332538 0.035630118 -0.22538836 0.11212794 -0.09864254 0.3392327 -0.002252361 0.08103602 -0.08724233 0.038289294 -0.092301324 -0.041575477 0.26185364 0.028878408 -0.16951837 0.25875074 0.13346191 0.16873145 -0.11010428 0.09532231 -0.24926607 0.034696918 0.029150201 -0.09247144 0.1525578 -0.022153119 -0.028267242 0.12932977 -0.086259596 -0.13723685 0.21045896 0.24116822 0.102995336
2414 -0.07713637 -0.0648264 -0.16840513 -0.045238804 -0.26261735 -0.12104822 -0.014571168 -0.10934961 -0.08677381 0.26861057 0.25285107 0.060360845 -0.07951713 -0.15129155 -0.040453218 0.070950486 0.03981216 0.20659521 0.17232941 0.039098237 0.20295721 0.042307515 -0.18099514 -0.022591162 0.043527834 -0.25557068 0.044711147 -0.15415843 -0.073103376 0.22331108 -0.18095058 0.3046327 -0.03460078 0.030554408 -0.13984227 -0.020535057 -0.037220933 -0.089914836 -0.0112148095 -0.08481377 0.030305441 -0.103343055 -0.1558424 -0.210704 0.28637967 -0.19793925 0.11448103 0.1254823 0.082057655 -0.025269149 -0.0887184 -0.17317332 0.2707358 -0.09591121 0.031823833 0.15239306 0.17618035 -0.3180689 0.19600904 -0.052934006 -0.05172154 0.051412657 0.026652794 -0.21463887 -0.09253566 -0.24910298 -0.19554277 -0.2170638 -0.098825954 -0.15940768 -0.3216789 0.10845303 -0.40317667 0.16028675 -0.049907196 0.18206419 0.08458136 0.0893421 -0.076820545 0.27843934 0.17844652 0.25150213 0.2083526 0.18667543 -0.008742851 0.0824845 0.13121618 0.1269217 -0.12053622 -0.23308338 0.09736892 -0.17855987 -0.123267494 -0.01397133 0.07030743 -0.18975627 -0.108200364 -0.20473668 0.11063898 -0.12520175 0.5131772 0.0010681879 0.13652499 0.13767053 0.12163926 -0.21008329 0.1154392 0.19927733 -0.052627884 -0.27991626 0.02281516 0.035118602 0.23616756 -0.0062399013 -0.1865837 0.013196897 0.096196346 0.15413009 -0.35560676 0.17521343 -0.003437381 -0.11292765 0.21428175 -0.046387006 -0.07670753 0.029982729 0.27781135 0.22414756
2045 -0.09773221 -0.03923237 -0.08853823 -0.031219348 -0.20019135 -0.18534094 0.056939088 0.026388936 -0.11124543 0.123337 0.34579486 -0.19769122 -0.116081536 0.12778927 0.025148805 -0.015644267 0.06968395 0.08890219 0.28032324 0.08143829 0.053475335 0.18341666 0.014798336 0.08720123 0.02616069 -0.25645688 -0.12108022 -0.14480735 -0.014600797 0.027350934 -0.0929973 0.19543226 -0.15040337 0.076583795 -0.18540667 -0.13995783 -0.13862622 -0.18092252 -0.045197845 -0.04503467 0.022097891 -0.12152644 -0.039822597 -0.13395873 0.17258167 -0.30020738 -0.15679495 0.0034605667 0.18693599 -0.21153848 -0.038109113 -0.09999731 0.3094644 -0.07836197 -0.2373283 -0.11653608 0.22879851 -0.1736788 0.17959696 -0.11273842 -0.01322067 0.04909353 0.014773459 -0.1330844 -0.009831766 -0.029592002 -0.09928543 -0.09252236 -0.21363336 -0.0845474 -0.18003768 0.16470404 -0.3059988 0.33346903 -0.07258291 0.2240228 0.17184107 0.21638478 -0.19846451 0.32532173 0.055040028 0.412732 0.34515995 0.2695148 -0.18646409 0.14292966 -0.091152355 0.14390193 -0.036914706 -0.4226538 -0.0032083662 0.056358237 -0.3692296 -0.11238825 0.061839152 -0.06778077 -0.2503658 -0.025276395 0.12320454 -0.25386703 0.24257356 0.046667147 -0.0731863 -0.06645062 0.12789913 -0.04427977 0.047920313 0.111833364 -0.25034016 -0.11812364 0.134013 0.1859803 0.100969665 0.08492333 0.06495463 -0.046786748 0.10822458 0.028726028 -0.19188234 0.26257634 0.12913492 -0.15950647 0.18132743 0.13540569 -0.106833726 0.21289498 0.036921706 0.41239062
2511 0.057145357 0.039087083 -0.12148654 -0.35129866 -0.22996132 -0.37930837 0.12104338 0.0054498487 0.08769747 0.15954153 -0.029537732 0.13231027 -0.319878 -0.35322106 -0.20812106 -0.10154706 -0.04151188 0.28526774 0.0885578 -0.012409113 0.035561092 -0.020366685 0.18433021 0.060858496 0.2383763 -0.2975388 -0.011631318 0.0013737127 0.00027426687 0.16364343 0.38238448 0.077641256 0.112455115 0.037410058 0.109570555 -0.26837394 0.21884169 0.21993756 0.06217085 -0.012757668 0.013702287 0.13566072 -0.08992274 -0.08186156 -0.06434912 0.20507719 -0.13438052 0.10714593 0.07005115 -0.13311121 -0.12446099 -0.2208642 -0.07646073 0.05839033 -0.2709218 0.07850015 -0.15340708 -0.14099331 -0.003180788 0.28835073 0.053309504 -0.058491953 0.16688803 0.01947958 -0.020515632 0.025550142 -0.17668879 -0.19927888 0.049670134 -0.15921888 -0.07220703 -0.013502984 -0.12071258 0.103881106 -0.2328567 0.117121756 -0.100554615 0.17947988 -0.031033535 -0.1927961 -0.18682554 0.1684639 -0.1810741 0.13772082 -0.08399137 -0.12884793 -0.074405156 -0.12886165 -0.24510783 0.19618443 -0.23920795 -0.23475543 -0.130433 0.31405824 0.08068556 -0.25599778 0.09358728 -0.1294512 -0.022824727 -0.26141644 -0.33534023 -0.1912381 -0.1198522 0.2075778 -0.1175146 -0.10855266 0.24687086 0.07003262 -0.21067023 -0.0047157067 0.46035767 -0.23322463 0.11039877 0.040484093 0.15423003 -0.00053390546 -0.09412463 0.18130511 0.11465325 0.04432494 -0.05116203 -0.03837019 0.042692367 -0.19610718 0.18248747 0.018886123 0.14558636 0.08800819
2275 -0.09932248 -0.033334613 -0.09693005 -0.109856635 -0.34082264 -0.22820829 0.077465035 -0.1557043 0.064711705 -0.048521146 0.24229418 -0.05727131 -0.30450097 -0.08762347 0.028741809 -0.02521212 -0.024578933 -0.09624677 0.101546936 0.16895157 0.031199694 0.12097067 -0.17843287 -0.08678159 -0.14335185 -0.17625172 -0.090845406 0.07030691 -0.11436032 -0.14337496 -0.15124398 0.23174034 -0.07491875 0.16600148 -0.33039758 -0.23494318 -0.06185452 -0.18785478 -0.1695691 -0.18631628 -0.06081013 -0.38821098 -0.18549058 0.11241606 0.1514506 -0.19050881 0.17944132 -0.045827005 0.27507585 0.03920591 -0.120450646 -0.33475444 0.25855196 0.051710688 0.10127185 -0.11999903 0.08746445 -0.31206632 0.083170764 -0.09128954 0.038446285 0.10792636 0.0036505 -0.13495143 0.038501076 -0.16371115 -0.22026376 -0.3030129 -0.20121047 -0.17811404 -0.13575047 0.039825324 -0.27542847 0.2698917 0.057571758 0.12421295 0.054161463 0.15685907 -0.1798512 0.30562264 0.040597502 0.14106695 0.12602745 0.13939488 -0.13827586 0.24712813 -0.013338045 0.121258706 0.01790429 -0.2754843 0.01923033 -0.181792 -0.1883021 -0.04704372 -0.009441161 -0.09471574 -0.1287446 -0.19225502 0.063871026 -0.01793543 0.40588695 0.18305045 -0.016256385 -0.0930972 0.094963126 -0.12624562 0.006172698 0.11909302 -0.16558644 -0.24728137 0.13729972 -0.04319286 0.15799585 0.08485799 -0.10608534 -0.09145613 0.31268817 0.22404377 -0.20357907 0.24246086 -0.057764128 0.055381436 0.12507333 0.020882828 -0.13512424 0.1400427 0.27266178 0.1296664
2356 -0.16977483 -0.017711937 -0.15773147 -0.14740917 -0.28198293 -0.053705584 0.10568231 -0.012511279 0.05276018 -0.026747292 0.40167987 -0.045658816 -0.0031586026 -0.026126146 -0.12961978 -0.04389393 -0.05918699 -0.0006860458 0.13115916 0.10068293 0.06719527 0.0025112536 -0.1946697 0.04505808 -0.051290814 -0.2328944 -0.01902609 -0.09893203 -0.04880076 0.06264154 -0.08027802 0.20629294 -0.05055481 0.08608873 -0.19494426 -0.28766516 -0.2591242 -0.24323228 -0.21485282 -0.17123109 0.04352591 -0.16964854 -0.20257533 -0.12063519 0.37161618 -0.0095959725 0.09129851 -0.05984347 0.1629744 -0.06584523 -0.1501221 -0.20412147 0.40942964 -0.09110971 -0.06999469 -0.15740031 0.18756063 -0.19228102 -0.04992735 0.04147658 -0.25295955 0.003997968 0.02891533 -0.021033905 0.12790641 0.009820921 -0.20528139 -0.17741795 -0.3508206 -0.04260964 -0.23280582 0.07571098 -0.285762 0.34035033 -0.07935044 0.10993228 0.037278075 0.09941597 -0.014915646 0.0037176833 0.043940607 0.27620548 0.26705545 0.021039931 -0.0859218 -0.007200616 -0.00089676114 0.23502906 0.0143267205 -0.42282942 0.3289642 0.026626026 -0.28061575 -0.07273314 -0.023012007 -0.13668941 -0.14446585 0.028422812 0.07542436 -0.0661458 0.28855944 -0.014338761 0.056671217 -0.08239354 0.06760083 -0.08278589 -0.10545217 0.22931376 -0.104323484 -0.2038295 0.04898209 0.09691756 0.11392131 -0.060964663 0.06385865 -0.06178891 0.01730193 0.14951505 -0.100550555 0.20771119 -0.018275386 -0.06053047 0.19360101 0.040672593 -0.15996376 -0.053487044 0.29362103 0.39351913
2064 -0.3184146 -0.120291054 -0.092982896 -0.21113063 -0.16464183 -0.2488002 0.20767333 -0.12371953 -0.0014925931 0.02798782 0.11930556 0.024290541 -0.19136086 0.14467487 0.030829167 -0.08386106 -0.036384597 0.2089612 0.20148323 0.00490683 0.11099623 -0.14636968 -0.2609631 -0.03949012 -0.023046156 -0.23091988 -0.09225767 -0.06856791 -0.079408064 -0.048329514 -0.2000921 0.30795375 0.14532886 -0.0250357 -0.03752489 -0.20444763 0.08472768 -0.23842542 -0.15149714 -0.114252284 -0.08154562 -0.30538252 -0.21833056 -0.006943696 0.2757482 -0.21498357 0.14448449 -0.10522754 0.0040581045 -0.10790431 -0.14859712 -0.118283905 0.059276033 0.08789166 0.045538638 -0.029531715 0.27924517 -0.17624842 0.12963377 -0.10065706 -0.11436369 0.02949071 -0.0020743825 -0.03305787 -0.09482566 -0.06078399 -0.081358574 -0.078174636 -0.2057333 -0.086757034 -0.093778744 0.1012365 -0.4585019 0.085580096 -0.17687063 0.3587846 -0.05445454 0.1593072 0.089919254 0.3044287 0.0876615 0.089049086 0.22029524 0.13649613 -0.292258 0.16537532 0.19322692 0.06517228 0.12515599 -0.23802646 0.059794337 0.1431792 -0.15573615 -0.10766365 -0.06728232 -0.033142224 -0.025111938 -0.22832172 0.12405632 -0.103358984 0.32928282 0.10686686 0.064352885 0.053625982 0.10688802 -0.10853239 -0.011922199 0.29442573 -0.23066173 -0.23679751 -0.07792264 0.14045438 -0.008810153 -0.02697325 -0.07528718 0.05017423 0.27386916 0.33400586 0.0035302518 0.2833364 -0.045480575 -0.0139662875 0.16382019 -0.0050301338 -0.26671472 0.105813764 0.27412173 0.27366412
2590 -0.15213023 -0.05335564 -0.23494336 -0.03117375 -0.24568525 -0.44398054 0.17096536 0.07551692 -0.023378214 -0.108914495 0.28006878 -0.04013385 -0.19882785 -0.07938294 -0.16198438 0.1197189 -0.0488823 0.16244082 0.019422406 0.19828236 0.009387603 -0.091416076 -0.065232895 0.06896736 0.010318274 -0.036417313 -0.11279159 0.038440693 0.08373508 -0.06701458 -0.14856747 0.14646718 0.0040287143 -0.04733651 -0.18057267 -0.29397088 -0.03871525 -0.22453947 0.06270413 -0.18695143 -0.08899312 -0.22421291 -0.123642206 -0.12785992 0.24266244 -0.20905747 0.046230204 -0.12873349 0.18366738 -0.22002302 -0.1854479 -0.04142821 0.06469834 0.11993148 -0.111686215 -0.05597717 0.16988608 -0.17224224 0.16959614 -0.23463283 -0.03132899 0.065619506 -0.09092288 -0.16461249 -0.0075467 -0.09447777 -0.03113857 0.02042128 -0.04842057 -0.3234939 -0.3511835 0.12573396 -0.32969472 0.1468582 -0.049639147 0.18943357 -0.0943961 0.025349172 -0.13864824 0.03276058 0.13646607 0.1704351 0.25665018 -0.101768434 -0.11321739 0.10409987 0.0762382 0.20940016 -0.012985809 -0.3852694 0.1329657 -0.031385615 -0.08755874 -0.1716912 -0.08921617 -0.09944094 -0.19403437 -0.0042704404 0.058808018 -0.027618874 0.32929844 0.065648265 0.0073968098 -0.1691626 0.20247512 -0.12904684 0.18355194 0.2522113 -0.249849 -0.4621086 -0.035133816 0.005061082 0.009557272 0.048328687 -0.04830919 0.1191243 0.15283215 0.16701156 -0.09394866 0.14956045 -0.06457142 0.10258486 0.096680164 -0.0627078 -0.07869028 0.23789051 0.27735886 0.1944109
2363 -0.32841077 -0.13095425 -0.13709489 0.12369427 -0.25530568 -0.093143016 0.15658844 -0.010127535 0.028319834 0.055815294 0.20364262 0.019699905 -0.23533523 -0.12699535 0.06878034 0.08430045 -0.09907618 0.11663886 0.15674706 0.11511615 0.064789936 -0.051887345 -0.13856338 0.107615076 -0.021183914 -0.042240154 -0.044649232 -0.1037728 -0.012494793 0.17631163 -0.23100904 -0.0675945 -0.052963346 0.116536215 -0.11623183 -0.26096475 -0.20353551 -0.37468293 -0.058953937 -0.18659054 -0.04372379 -0.21525566 -0.07057897 0.032026812 0.19397418 -0.09891709 0.097212784 -0.06838684 0.058392033 -0.1235437 -0.0591304 -0.28140295 0.14577606 -0.012175723 0.033727318 -0.30558118 0.27580515 -0.23867561 0.10260403 -0.11095384 -0.04418201 0.20098123 -0.036151636 -0.20249957 -0.12116315 -0.11162142 -0.05615352 -0.15475245 -0.2742208 -0.19900657 -0.08736186 0.14530359 -0.38040626 0.3361579 -0.08801068 0.15864427 0.06273634 0.20852314 -0.19538197 0.10148925 0.06802357 0.25104615 0.18363929 0.21945383 -0.11740792 0.13788085 0.029671755 0.26679 0.04448492 -0.18431266 0.13270597 0.03248899 -0.011609824 -0.22609323 0.17487796 0.18145594 -0.17789952 0.019406516 0.109613284 -0.09276782 0.3474804 0.03477894 -0.109141305 -0.028985053 -0.002396462 -0.18547408 -0.078352034 0.15905116 -0.00206763 -0.25407997 0.04545337 0.20582077 -0.09092191 0.10749157 -0.1104527 0.015850678 0.06497756 0.1452378 -0.044779405 0.10153608 0.07993713 0.09183855 0.23298228 0.08532257 -0.29645488 0.07110353 0.23867899 0.393416
2283 0.09304715 -0.07084333 -0.32073364 -0.18813226 -0.37976992 0.05720926 0.15863608 -0.19317533 0.068038724 0.30105057 0.12675421 0.12164159 -0.0019915341 -0.13818881 -0.17585756 -0.18457355 -0.18042569 0.3529684 0.15608291 0.026179168 -0.13931395 0.20364822 -0.04761641 0.059349738 0.07001554 -0.21515223 -0.065512024 0.0066528707 0.117925666 -0.09891884 0.28842872 0.011138089 0.23541118 0.053305298 0.053426247 -0.19229662 0.2981337 0.40992212 0.042407632 -0.1423516 -0.20836315 0.0043852543 0.06937878 0.07357081 -0.11565439 -0.07278151 -0.03630366 0.102440536 0.30144203 -0.14788383 -0.15233536 -0.06342769 0.006962614 -0.122890376 -0.3738908 -0.06837373 0.08013798 -0.028657692 0.087711185 0.29808506 0.31137088 -0.025388382 0.17308457 0.30870444 -0.20859548 -0.15505715 0.045490835 -0.23004599 -0.35512766 -0.06529136 -0.22143385 0.15372628 0.16721965 -0.026202325 -0.4148901 0.27972445 0.054583937 0.45222428 -0.06545519 -0.07285558 -0.35979918 0.16271721 -0.22798002 -0.042734552 0.015775472 -0.2055392 0.029171553 0.16326793 -0.2827515 0.18449269 -0.080341205 -0.21590151 -0.052244812 0.22124834 -0.19070266 -0.1540736 -0.01369005 0.018356383 0.005695743 -0.27122837 -0.19334286 -0.43564755 -0.08707005 0.03164556 -0.24762684 -0.15735418 0.3235158 0.05134068 -0.0489025 -0.120116085 0.17323042 -0.05630614 -0.013829879 0.13134289 -0.17611131 0.17409416 -0.33127618 -0.12336205 0.08758496 -0.0981455 0.017979197 0.16745766 0.1475724 -0.17017654 0.11636527 0.025133716 -0.16517606 -0.19318733
2150 -0.25046417 -0.20368226 -0.06379732 -0.1555569 -0.3560998 -0.13143165 0.08348691 -0.07040056 0.028464353 0.15966348 0.16102563 0.06407109 -0.13239852 0.18489441 -0.14765927 -0.06929993 -0.0033229212 0.12954426 0.12618399 0.15752155 0.223172 0.0529144 -0.10935998 -0.051852033 -0.2121718 -0.21140523 -0.26150772 -0.040967446 0.0040680035 0.06291695 -0.122846045 0.20048979 -0.12776993 0.009254505 -0.10766171 -0.18199328 -0.24556719 -0.13220948 -0.13882925 -0.033171024 0.25460967 -0.2651636 -0.086045176 -0.045569297 0.28164598 -0.23215318 0.17068996 -0.10535162 0.12116875 -0.17892185 -0.16880167 -0.06123099 0.06433024 0.13817318 0.023795163 -0.23621131 0.13653466 -0.13941981 0.09246455 0.04565583 -0.10562 0.042473115 -0.0124102775 -0.16878831 -0.029968366 -0.048286658 -0.040651646 -0.0900709 -0.05942946 -0.13002309 -0.2299669 0.17280346 -0.28668502 0.14340319 -0.0063618547 0.1413997 -0.08705209 0.19682957 0.044235084 -0.019113246 0.1773856 0.34600222 0.25405025 0.1175674 -0.14829628 0.2114012 0.061368164 0.15652367 0.010944715 -0.46652696 0.17944323 -0.14466174 -0.22854392 -0.1284603 -0.060039308 0.11458118 -0.26927218 -0.07247128 0.15024634 -0.029868769 0.12915644 0.033697717 -0.17811652 0.08102053 0.07148739 0.17130756 0.084349334 0.34897065 -0.071937315 -0.013043582 0.109284975 0.1582609 0.09792585 -0.018016865 -0.12682693 0.10438332 0.16905627 0.07088664 0.02809631 0.19530226 0.017548481 -0.058240287 0.24330352 -0.11854939 -0.06957723 -0.04103834 0.2930471 0.3708446
2093 -0.13900872 -0.10718796 -0.22838616 0.07312485 -0.31275544 -0.19003356 0.12763238 0.00640473 -0.06871057 -0.05280384 0.14645475 0.075425535 -0.3040578 -0.14646634 0.06575162 0.11095704 -0.099099554 0.06049149 0.09635508 0.14980076 0.19601871 -0.011323181 -0.024279267 0.050020743 -0.18177722 -0.028572425 -0.033220414 0.0010247978 -0.15542534 -0.038317826 -0.10972289 0.2962236 -0.24627356 0.21514389 -0.12568876 -0.21873854 0.0024362148 -0.16143318 -0.13781363 -0.09778342 0.07874149 -0.21254669 -0.027879195 -0.097354874 0.068473846 -0.26607013 0.16057973 -0.04237596 0.07873894 -0.12768623 0.0035700602 0.07082001 0.10388327 0.17490627 -0.074388124 0.024321122 0.17019139 -0.27359068 0.15384606 0.020674234 -0.26068714 0.045501836 -0.12991998 -0.10850684 -0.090657994 -0.104996145 -0.10265321 -0.012795824 -0.12678494 -0.011316356 -0.21890248 0.206721 -0.45046264 0.07503383 -0.11793062 0.16244714 0.18634294 0.14953478 -0.13454853 0.22530168 0.09106328 0.3957203 0.2691886 0.119912274 -0.117502026 0.14351715 0.13546753 0.23253961 0.025001612 -0.34863344 0.026348814 -0.054198194 -0.14764807 -0.17899641 0.17393252 -0.09005706 -0.19057454 -0.18939903 0.12982687 -0.19703637 0.35206863 0.10454788 -0.038531054 -0.07558986 0.041347615 0.11628864 -0.013438152 0.3059879 -0.1436978 -0.12562498 -0.047519136 0.03994018 0.00037462392 0.027578404 0.07494651 -0.048219614 0.037265826 0.18195385 -0.064535566 0.07318212 -0.0025420813 0.11318547 0.08173822 0.2002115 0.07947204 -0.13083698 0.23320544 0.18602687
2344 0.04707146 0.050502602 -0.07388095 -0.10201168 -0.16008773 -0.197155 0.184379 0.042243212 0.2987211 0.27673307 0.054905567 0.19488901 -0.2706796 0.06611356 -0.11549026 -0.08792891 -0.21868378 0.36733803 0.32648274 -0.06331017 -0.018852679 0.21034653 -0.035359964 0.24190156 0.08855846 -0.06545261 0.041170206 -0.061762765 -0.31342396 0.21348932 0.031649668 -0.13827197 0.31249312 0.0009443444 -0.042761557 -0.39227527 0.25887215 0.38748652 0.047433503 -0.03225713 -0.11842564 -0.29274762 -0.11762369 0.017708551 -0.38594854 -0.16084671 -0.19309576 -0.028911388 -0.019314403 -0.13732862 -0.17265308 -0.117939614 -0.11692933 0.15025602 -0.0257856 0.073118955 -0.025992779 0.07062311 -0.14579456 0.24476676 0.35928813 -0.027279088 0.14221765 -0.08118613 -0.27745634 0.11812574 -0.20465966 -0.14779386 -0.11947018 -0.35495496 0.007629573 -0.016224444 0.15036076 0.06258077 -0.39076808 0.28555298 0.1982278 0.43597293 0.12922053 -0.13628533 -0.41856283 0.20052268 -0.2367061 -0.055809937 -0.1644933 -0.2614049 -0.2749643 0.036792677 -0.29208437 0.21917735 -0.120496124 -0.013562046 -0.18459803 0.08919966 -0.21259426 0.025140578 0.054685 -0.15830018 0.011674779 -0.27059388 -0.45928818 -0.11752047 -0.07354218 0.14649248 -0.092284776 -0.02132387 0.08598719 0.08333177 0.02181907 -0.044382755 0.23629178 0.25926948 0.11793357 0.10766511 -0.037542667 -0.36456132 -0.049739577 0.42957598 0.0563468 -0.06087723 0.25226253 0.14211956 0.12921435 -0.040504586 0.0072824266 -0.22754255 0.1343177 -0.0865675
2607 -0.08826689 -0.0748139 -0.12268475 0.046946898 -0.31467083 -0.3454493 0.035941727 -0.2426287 0.07700766 -0.08103817 0.27338177 0.052230828 -0.05643095 -0.04531857 0.029961059 -0.07865635 0.05232426 0.101345226 0.23279414 0.07986992 0.18024719 0.09303209 -0.1182781 -0.24001496 -0.05596079 -0.08584616 -0.06941078 -0.14190954 -0.0827666 0.15450035 -0.06969749 0.27181295 -0.14570926 -0.19358362 -0.22408985 -0.08595267 -0.045883223 -0.26110896 -0.030019546 -0.09896405 -0.042425636 -0.16456625 -0.11022663 -0.17783439 0.20290409 -0.29185116 0.12803765 -0.08087819 0.051699836 -0.031436622 -0.19515021 -0.19060288 0.22309758 0.04358553 0.026578072 0.044538658 -0.07349323 -0.27359173 0.16826682 -0.10224959 -0.103178225 0.110897526 -0.09662748 -0.065625116 0.11843317 -0.09043179 -0.022052597 0.04616588 0.015958667 -0.24374568 -0.34485835 0.16895197 -0.4056179 0.15321742 -0.1898438 0.10865003 -0.038091727 0.034689125 -0.113523394 0.19592558 -0.01959583 0.20408317 0.26852393 0.09247939 -0.18073656 0.12530705 0.00028271985 0.32147416 -0.014901685 -0.335518 0.04684974 -0.099786736 -0.16327256 -0.07407272 -0.0349556 -0.027951522 -0.02814855 -0.060702242 0.10621594 -0.18983506 0.4788084 -0.13235627 -0.12726164 -0.05627769 -0.008926483 -0.11444066 0.14274608 0.41506994 -0.020475129 -0.40777588 0.07960692 0.08853089 -0.12062498 0.07704977 -0.11395361 -0.0027510442 0.08257657 0.15869391 -0.040290218 0.25119123 -0.041223228 -0.0025619704 0.026330588 0.0944917 -0.00019807531 0.039729673 0.20836598 0.03601342
2220 -0.16942999 -0.22134553 -0.25381222 -0.042170897 -0.006304947 -0.21234542 0.09392112 -0.04320811 -0.047073033 0.15822285 0.2884805 -0.025790447 0.032162596 0.03847106 -0.050502654 -0.13030362 -0.02082506 -0.034406137 0.17530799 0.14715837 0.11211809 0.072005324 -0.25242108 0.07717603 -0.05599582 -0.16022074 -0.02839854 -0.23346652 -0.09283204 0.1435806 -0.10051984 0.2845847 0.011506306 0.054549772 -0.13584352 -0.2635724 0.09027555 -0.3029727 -0.036001824 -0.15515098 0.03692784 -0.2546832 -0.07568833 -0.059020475 0.20775592 -0.20965524 -0.024958367 -0.045914162 0.1591225 0.01281331 -0.033109184 -0.23333265 0.20395918 0.0830307 0.07594984 -0.06879428 0.12960494 -0.28971383 0.11425503 -0.20270991 -0.036099598 0.04174015 -0.050309666 0.009047875 -0.014549209 -0.085332826 -0.045143962 0.0037296468 -0.09527184 -0.18025112 -0.2592437 0.29273656 -0.35231736 0.17922294 -0.27952614 0.009451227 0.096521795 0.27780014 -0.10761275 0.23711547 0.17389324 0.34542683 0.2846672 0.034172237 -0.15151012 0.18884571 -0.022433883 0.14953367 0.12725039 -0.40551287 0.14572477 0.012351724 -0.1025857 -0.13238296 0.018156972 -0.26178604 -0.14840053 -0.16096364 -0.03608267 -0.21514845 0.3666506 0.031308707 -0.05218109 0.005108313 -0.03534755 -0.11977072 0.009664084 0.15127283 -0.045845907 -0.17737447 0.18272087 0.16092175 0.047285136 0.018775897 -0.046212833 -0.17139643 0.081255905 0.111542486 -0.1335064 0.15344967 -0.017108193 -0.012409916 0.12903436 0.05766769 -0.2136 0.07446578 0.18795182 0.23654465
2428 -0.09861444 -0.10485525 -0.13200107 -0.0615406 -0.088171236 -0.25729126 0.19779386 -0.21599387 0.16167116 -0.070591226 0.2759614 -0.009660548 -0.15050763 0.028542183 -0.020667227 0.008394867 0.032842238 0.07012689 0.116315976 0.14992218 0.034959514 -0.15299058 -0.05508213 0.14326248 0.08403399 0.010154012 0.0030434877 -0.0015177695 0.07254226 0.27079812 -0.2195875 0.19249208 -0.062947676 0.046039622 -0.09089259 -0.24384163 0.09747681 -0.19423239 -0.0982849 -0.123248674 -0.07538239 -0.2191519 0.087619096 -0.096006416 0.13240036 -0.11862646 -0.017525021 -0.09884803 0.20989682 0.05871434 -0.17027062 -0.23196821 0.17601155 0.2192186 -0.15579417 0.009220818 0.09778026 -0.22567815 0.2046434 -0.16151921 -0.16904579 0.014963389 -0.30434334 -0.15151162 0.1275772 -0.071891904 -0.061429426 -0.019015612 0.1289357 -0.057054646 -0.15856068 0.25743017 -0.36438745 0.116234556 -0.259778 0.13377932 -0.04260169 0.14521356 -0.13099402 0.2449483 0.23245287 0.24212903 0.26680404 -0.0031987645 -0.16871479 0.15758343 0.087907314 0.26643857 0.018132381 -0.4658983 0.16105902 -0.047817662 -0.014112772 -0.0893092 -0.06629457 0.033801578 -0.21649438 0.0036431057 -0.06663108 -0.21908526 0.31262589 0.13801771 -0.24128976 -0.023101093 0.010105202 -0.05284315 -0.18334514 0.32054868 -0.15190753 -0.19533442 -0.012283741 -0.003343778 0.17602456 0.16836253 0.05573169 -0.021629537 0.11121493 0.3216119 -0.16255051 0.16961284 0.056106117 -0.05798138 0.12133533 -0.021480897 -0.15270592 0.26172704 0.2696707 0.27107057
