58 128
3980 -0.049885627 0.011307236 -0.01030832 0.03890179 -0.020964092 0.14831832 0.025107492 0.11592274 -0.11236824 0.055170152 -0.001561315 -0.04179815 0.08901391 0.14544505 -0.13936858 0.053623844 0.0017190021 0.039623987 -0.06227208 -0.120472625 0.16127431 0.12081805 0.00024249102 0.06527578 0.044564176 0.11761854 0.0101287095 0.16475424 -0.003461702 -0.0224181 -0.08905209 0.10606965 0.051144328 0.100472674 -0.13138103 0.0002292542 0.079316 0.020742076 -0.029576898 -0.0062358743 -0.022506002 -0.016335875 0.09796146 0.13765743 -0.092063814 0.028663797 -0.042956524 -0.014414634 0.052226573 0.11199392 -0.016264036 0.038403455 -0.08698246 0.16282924 -0.078798674 -0.04626003 0.09862924 -0.15501927 0.0707779 -0.07535079 0.026347194 0.07267627 0.013527427 -0.079641625 -0.052766893 0.018907141 -0.015471451 -0.0019209809 0.07620611 -0.004859496 0.05392873 -0.08159455 0.020584967 0.075371034 -0.033355553 -0.026053721 -0.12428412 -0.15570578 -0.04968846 0.116993755 -0.014677055 0.00066859066 -0.08537927 0.15784143 -0.004659324 0.28383157 0.1657376 0.19139048 -0.015367418 -0.0336508 -0.009780024 0.08570931 0.13672855 -0.046049796 0.13972369 -0.10988179 0.058165748 0.09479901 -0.11069221 0.21540943 -0.06237542 -0.043284867 -0.16084686 0.08351569 0.009475402 -0.13611236 -0.10243434 0.042062335 -0.0548084 0.076465644 -0.017067209 -0.054072376 -0.057256386 0.070503354 -0.09374441 -0.02224992 0.04235937 0.028160285 0.02899916 0.095704116 -0.16353296 -0.032180306 0.0036922286 -0.048454728 -0.06435177 0.023488447 0.054876637 0.076030046
4001 -0.014444058 0.009645831 -0.058671866 -0.041271146 -0.2360816 0.2639166 -0.050584823 -0.04236135 -0.11782311 -0.1780685 -0.1444634 0.07024372 0.14318816 0.17354542 -0.124899186 0.051889367 -0.0046562664 0.014210028 -0.05910335 -0.080681816 0.11084091 0.030575056 -0.113787465 -0.00065074913 0.052857596 0.11688939 0.032216452 0.19242476 -0.016105331 -0.0018005113 -0.078405075 0.09488788 -0.10327192 -0.04114475 -0.01067681 -0.039934907 -0.02709562 -0.029794876 0.0036876292 -0.03144938 0.019324536 -0.03966756 0.07000204 0.09098693 -0.031950593 -0.01685404 -0.032264214 0.033144817 0.15847713 0.037811596 -0.005421687 0.020124871 -0.046759702 0.22123492 -0.07556474 -0.03485988 0.008699085 -0.12575486 0.04322194 -0.14131302 0.08412606 0.06509696 0.05493327 -0.010855929 -0.073102176 0.11534493 -0.124005966 0.098729245 0.07584575 0.053578366 0.045319915 -0.07106442 0.020828689 0.097008705 -0.015466779 0.07665174 -0.011653696 -0.08439013 -0.072894245 0.0947891 -0.05823182 -0.064672954 -0.019182688 0.1284232 2.1015887e-05 0.106663324 0.021765454 0.3823535 0.011439526 -0.064195536 0.01862509 -0.025108218 0.15784602 -0.019656695 0.124160476 -0.03156942 0.09645589 -0.023919018 -0.167083 0.28850046 -0.13138102 -0.032519232 -0.10687076 0.13836466 -0.1313401 -0.20906535 -0.14920548 0.20372477 -0.032294087 0.10775593 -0.037541978 -0.09065369 -0.08470148 0.17405571 -0.1276938 0.004799247 0.04664976 0.024147358 0.012510595 0.14118147 -0.17622451 0.0066700387 0.015072337 0.0047411695 -0.13479844 0.09738871 0.15845591 0.11461423
3994 0.039323147 -0.007294725 0.021908978 0.11069493 0.07224467 0.12332679 -0.026730785 -0.13083102 0.09850555 -0.019615678 -0.064799406 0.06176552 0.038617853 -0.032970805 0.19362141 0.057731938 0.00020878782 0.04639973 0.097580805 0.063650824 0.0823916 -0.015185114 0.13306254 0.018530834 0.08419585 0.06675221 -0.078578964 -0.007929237 -0.084307045 -0.07050135 -0.16802572 0.11798046 0.017440075 0.2329128 -0.07799164 -0.1548011 0.09331236 -0.0859729 0.036068026 -0.21573676 -0.077282116 -0.124658525 0.06633938 0.14392386 -0.15480585 0.056943186 -0.060868606 -0.12215044 -0.15437247 0.14172892 -0.06475184 0.1786845 -0.00030758625 -0.121625625 0.0842602 -0.14519054 0.018104168 0.027215812 -0.08841112 -0.035449028 0.03268175 -0.111638635 0.031617455 0.082928136 -0.12961686 0.016087485 -0.16471457 -0.052133672 0.20324029 0.03735622 0.17776087 0.027152514 0.1168035 0.13837244 -0.04270266 0.07250246 -0.084207654 -0.048520487 0.03722148 -0.015685925 0.006151301 -0.11830537 0.010666925 0.11262279 -0.09651321 0.2102988 0.10850528 -0.0035836007 0.032212824 -0.0983243 -0.03152939 -0.010241949 0.16752328 -0.021923939 0.25430852 0.20827228 0.08440217 0.066869035 -0.13288577 0.2931174 0.07517179 0.05261115 -0.054598585 -0.08443833 0.08085988 -0.013541999 -0.16853625 -0.16567801 -0.0030966455 0.11645434 0.06265199 -0.13386825 -0.15786895 0.16837567 -0.16105501 -0.04376999 -0.015758114 0.22201839 0.14059876 0.11202961 -0.11793497 0.023057602 -0.07833807 -0.051319458 -0.13263957 0.15565687 0.014404043 -0.12519608
4018 0.047522996 0.019151377 -0.053481687 0.029706929 -0.02189825 0.06574201 -0.029979799 -0.2287976 0.007614008 -0.035467256 -0.092346475 0.13581161 0.052955553 0.048112173 0.18411899 0.09918699 -0.014463521 0.09175545 0.15488675 0.06412536 0.023784759 -0.010885458 0.054639023 0.1419651 0.09156745 0.06570668 -0.046175607 -0.07332373 -0.055765525 -0.026772218 -0.071178235 0.06743578 0.023366146 0.09797293 -0.04126302 -0.033227548 0.1197841 -0.11204514 0.026378296 -0.14551248 -0.020556722 -0.095745854 0.056354824 -0.018469917 -0.115586415 -0.0042633186 -0.029056065 -0.13486299 -0.12833172 0.019488001 -0.011023483 0.11582665 -0.040817995 -0.1407851 0.05449695 -0.09162877 0.006759758 0.072579384 -0.05435682 -0.085019425 -0.0034381915 -0.03866715 -0.050594375 0.03530536 -0.087664284 0.009020323 -0.1743835 -0.02711539 0.13270453 0.038458053 0.16798289 0.07560413 0.079441905 0.07794525 -0.10319375 0.15709978 -0.10752319 -0.026620956 -0.016656972 -0.057193555 0.00053288235 -0.096333936 -0.04292853 0.13646784 -0.12099536 0.20498304 0.19279613 -0.031970963 0.05506873 -0.14243644 -0.01788358 0.09688076 0.240756 -0.024854615 0.29901633 0.20325965 0.16351536 0.15089105 -0.15900226 0.3501673 0.04386729 0.06518585 -0.11327811 -0.110605195 0.0672168 -0.03542086 -0.18407895 -0.14259791 0.043600053 0.027817579 -0.0041402304 -0.11244512 -0.12788446 0.114043236 -0.13646953 -0.038596276 0.08258842 0.23541132 0.10205393 0.0442637 -0.13866301 0.03909959 -0.08879042 -0.15461294 -0.0967003 0.110041216 0.052663434 -0.072655424
3981 -0.05325747 -0.022000622 0.050593123 -0.026510002 0.0066004335 0.05551216 0.035148162 -0.17446919 0.08179005 -0.050033014 -0.13880202 -0.0013279476 0.10703979 0.05110839 0.14405224 0.073621966 0.008151287 0.038962692 0.14282636 0.0853852 -0.019347807 -0.015369629 0.12833385 0.027088465 0.08106976 0.03201781 -0.10474242 -0.086990446 -0.089615755 -0.0034911155 -0.12924683 0.010071944 -0.015100151 0.071852036 0.049833763 -0.10582045 0.13504563 -0.1094206 0.019462662 -0.28525156 -0.06988438 -0.094258025 0.018979726 -0.0292055 -0.0881084 0.09751295 -0.08216757 -0.10073452 -0.18285586 0.0917945 -0.07075481 0.07974157 -0.08713769 -0.101596914 0.024736362 -0.14287351 0.053581595 0.017514333 -0.11808991 -0.14650457 0.029063452 -0.048370063 -0.032286186 0.12043577 -0.0823691 -0.007240438 -0.15050633 0.012702498 0.1427712 0.08636388 0.15757959 -0.011856802 0.08514595 0.119393736 -0.059175465 0.10308292 -0.23930275 -0.05795082 -0.017684769 -0.048797034 -0.02320784 -0.12558977 -0.06091343 0.16508922 -0.08836042 0.25363517 0.15839468 -0.049949713 -0.047683135 -0.16451801 -0.053195305 0.01914981 0.27147055 -0.058080453 0.2696939 0.15481302 0.1796712 0.16199614 -0.13869518 0.35267836 0.09916324 0.13544802 -0.1134651 -0.05299541 0.06694074 -0.015824946 -0.04701253 -0.16496971 -0.032318875 0.10667752 0.033640057 -0.21173392 -0.110774666 0.17503093 -0.14031379 -0.06579648 0.015615009 0.23595001 0.073258884 0.057375606 -0.13331315 0.028153924 -0.09723852 0.0061264704 -0.17138931 0.06039969 -0.0016487126 -0.02597698
4029 -0.10792432 0.066967435 -0.063789606 -0.15961967 -0.21868192 0.26201302 -0.04525038 0.11524788 -0.047344416 -0.039681107 -0.11890069 0.12654406 0.26437628 0.15295663 -0.19513142 0.012050291 -0.055215586 -0.014321628 -0.1683185 -0.10665257 0.14374872 0.14939934 -0.08585608 -0.042428255 -0.03387258 0.11822592 -0.036670115 0.23175234 -0.04352876 0.026713744 -0.13333634 0.07224888 -0.11302481 0.0038596883 -0.022580778 -0.10121873 0.038642 -0.062009595 -0.06939556 -0.101088375 0.011115239 -0.08995409 0.096029885 0.072655514 -0.05534943 -0.013407907 -0.07079925 -0.011721417 0.19288993 0.090091 0.0671284 0.025126435 0.08342855 0.18626678 -0.1147006 -0.04376989 0.05163717 -0.1845982 0.12174472 -0.09123944 0.08533279 0.03393831 -0.0039398293 0.14030313 -0.05276751 0.041781306 -0.021878213 0.055179942 0.07083145 0.013731331 0.050761048 -0.032868546 0.039760914 0.06761692 -0.0019512688 0.14026503 -0.070770524 -0.056635868 -0.055222847 0.045440916 -0.053216767 -0.023537977 0.0025473437 0.14654295 0.017959896 0.08921917 0.10555402 0.23872103 -0.0015870288 -0.1322218 0.007814286 -0.010146723 0.17556769 -0.00016294298 0.12999658 0.00275392 0.07808967 0.003125812 -0.06707655 0.28868994 -0.017736724 0.021310978 -0.13329859 0.09922849 -0.031039706 -0.124548234 -0.18316826 0.001990153 -0.030586416 0.12186715 -0.028798405 -0.15348011 -0.096861474 0.10528723 -0.12899701 -0.043992966 0.038655296 0.026007181 0.0454105 0.08631872 -0.08444392 -0.009337619 0.0705924 -0.037695482 -0.09689571 0.12391086 0.007988223 0.08970394
4023 0.21082848 -0.0032598062 0.017359568 0.09981993 -0.06995019 0.103169 -0.045359474 -0.13881804 0.12387063 0.041525844 -0.16278218 0.17633224 0.08313368 -0.008961346 0.05138763 0.058623385 0.059823025 0.10727154 0.022167347 -0.048126537 -0.051111788 -0.03194113 0.08178589 0.1200828 0.0604073 0.09693629 0.03309484 -0.10957953 -0.03560827 -0.025343463 -0.060327657 0.10953431 0.015518763 -0.057755884 -0.002478237 -0.08871193 0.09796687 -0.06321068 0.06612096 -0.11187431 -0.07559068 -0.12469236 0.05710391 -0.048707582 -0.08458666 0.18941933 -0.0044083237 -0.12978825 -0.18283264 0.061464604 0.03070272 0.057963993 -0.113977544 -0.056523003 0.03027554 -0.15150036 -0.0033825138 0.088316694 -0.09736198 -0.12064099 -0.033783413 -0.017414633 -0.09086793 0.048623856 -0.037431024 -0.029252687 -0.1148734 0.0036656281 0.09009514 -0.0002384654 0.10099842 0.037747163 0.16806078 0.010153708 -0.17090102 0.15715642 -0.2441936 -0.063109905 -0.059288025 -0.033438317 -0.008282715 -0.10302128 -0.136461 0.060381178 -0.21304023 0.21772087 0.2561865 0.03500627 0.06196362 -0.12528615 -0.051443398 0.16301715 0.20641525 0.056463897 0.23483482 0.01764811 0.18844436 0.08632168 -0.0046736547 0.33082703 -0.0341351 0.0023982106 -0.02980864 -0.0098637575 0.07674279 -0.13169488 -0.18517457 -0.0049025114 -0.07692312 0.037183113 0.034802437 -0.13448213 0.0129994 0.043537002 -0.11239154 -0.055875693 0.05621193 0.19418272 0.07719736 -0.10388452 -0.17060994 0.02267946 -0.12582313 -0.14681031 -0.12275781 -0.028254509 0.13277157 0.0017636915
4013 0.26648834 0.020586679 -0.1803302 0.019050347 -0.08448504 0.1505431 0.06251189 -0.09972849 0.09902143 -0.07402437 -0.45565793 0.15912555 0.09986615 0.35576183 -0.08584271 0.16840662 0.12159411 0.025962854 0.041140668 -0.116386764 0.11512205 0.1680761 0.054036587 0.20528167 0.023119206 0.34447363 0.123893656 -0.0421881 -0.056806035 -0.02458478 -0.09563277 0.160168 0.032823227 -0.16496094 -0.054572348 -0.046210125 0.08280544 0.096679024 -0.012242185 -0.09153375 -0.041437063 -0.024200818 0.05516309 -0.06482764 0.06611243 -0.037401386 -0.040651713 -0.24431533 -0.1766051 0.036865972 -0.02568055 0.09239879 -0.26199293 0.010129774 0.012611862 -0.105422325 0.06198271 0.06291737 -0.13484834 -0.11227334 -0.12390083 0.05220741 -0.023570934 0.16195063 0.08696127 -0.08916153 -0.1877149 0.1447519 -0.061897483 -0.0014446246 0.13157926 -0.08879247 0.09364943 0.07556758 -0.13529304 0.06870129 -0.11347949 0.13259593 -0.13838947 -0.05863667 0.0879174 0.030169297 -0.12919371 -0.02712219 -0.310251 0.106206715 0.23777345 -0.051692568 -0.043115146 -0.22500777 -0.21644613 0.1351981 0.18169539 0.07154584 0.19659524 -0.02921531 0.047742978 0.02548495 0.08619995 0.13553008 -0.019279715 -0.03063266 -0.14063765 0.07189806 0.009850004 -0.014604193 0.08332023 -0.14751953 -0.07504418 0.17712879 0.08290925 -0.19860081 0.16035214 -0.16863354 -0.06294418 -0.12294327 -0.06391847 0.20546858 0.023486152 -0.14360744 -0.13588998 -0.08382825 0.08004743 -0.17861524 -0.09028071 -0.097938225 0.13176626 0.085277475
3997 -0.08072481 0.0044615814 0.025462743 -0.036789786 0.03793833 0.117437616 -0.03409479 -0.20859975 0.03450096 -0.13056642 -0.12928751 -0.017426157 0.036277812 0.0022353043 0.20184018 0.0034306322 -0.037431575 0.117037155 0.1747648 0.03725748 0.054786574 -0.011558315 0.13137354 0.09495896 0.0824136 0.084383905 -0.09908613 -0.08214758 -0.045821954 -0.010494015 -0.108441316 0.095665015 0.08569802 0.14328887 -0.042244095 -0.1807548 0.12898546 -0.11059774 -0.009207416 -0.25852597 -0.09633323 -0.05803995 0.042188596 0.015296733 -0.08135326 0.08310182 -0.060180888 -0.0914416 -0.13976309 0.032934885 -0.005551137 0.08897025 -0.010488227 -0.090037376 0.05671687 -0.16691938 0.041187458 0.05660981 -0.10863546 -0.090588845 -0.020613274 -0.060781926 -0.040883902 0.10464383 -0.11451122 0.016588047 -0.14487083 -0.063178025 0.2078978 0.051036086 0.11866956 0.05855972 0.08208343 0.048018683 -0.0890172 0.14957818 -0.12321288 -0.034633484 -0.00050724397 -0.07035412 0.027030213 -0.091262154 -0.07735557 0.1038799 -0.12540998 0.14008057 0.15712138 -0.021163313 0.033119764 -0.12333313 -0.0126274 0.055527043 0.17545743 -0.024800645 0.23448558 0.13100833 0.09214738 0.13632165 -0.14691885 0.28320545 0.039525066 0.07825793 -0.09151354 -0.104403846 0.05899954 -0.08853215 -0.20954038 -0.13053961 0.0014887188 0.072405525 0.029521376 -0.15941612 -0.13379687 0.16831991 -0.15815368 -0.012596338 0.08883879 0.16623187 0.15781753 0.093955174 -0.10150932 0.040383745 -0.086491995 -0.094209015 -0.2006947 0.065779805 0.023427138 -0.03444548
4030 -0.02390759 0.038961887 0.037497766 -0.045618158 -0.0058016833 0.17834313 -0.05735351 -0.09839836 0.025321241 -0.0051997113 -0.0033027232 -0.025935808 0.16320825 -0.023815911 0.10164156 0.059633333 0.06388058 0.025782522 0.09618972 0.09234109 0.1366147 0.03628364 0.15594424 0.024823321 0.10769544 0.028103532 -0.07479509 -0.11445815 -0.008828235 0.10524122 -0.068314835 0.011017035 0.0769453 0.2214301 -0.07618112 -0.05963 0.1270837 -0.008195234 -0.013741275 -0.21885133 -0.044874296 -0.02347415 0.088004544 0.0581072 -0.0016363629 0.061536986 -0.062266532 -0.1578209 -0.07236717 0.112125404 0.00807788 0.20271344 -0.13199161 -0.09196571 0.11799264 0.04151587 0.12488427 0.07273298 -0.0997552 -0.00443907 0.029425325 -0.023418931 0.044639386 0.09884636 -0.21543996 0.10502963 -0.120827936 0.021008385 0.163144 0.060549237 0.12075376 0.06833299 0.0030565655 0.1271991 -0.05294365 0.08015636 -0.19729479 -0.07503638 0.030358935 0.03124351 -0.01206497 -0.16024797 -0.052724037 0.21926057 -0.05606237 0.23827799 0.13207671 0.052681115 -0.087306194 -0.11937614 0.11181141 0.2278204 0.17881562 0.06857809 0.17277445 0.1048068 0.19064908 0.09913504 -0.034711253 0.30062705 0.14361529 0.044895783 0.019363698 0.020504067 0.099815205 -0.0076342467 0.043902397 -0.19201219 0.03680584 -0.05394373 -0.0045626597 -0.16202824 -0.09589869 0.12244439 -0.12955758 -0.15115327 0.08050724 0.12470503 0.06717167 0.012552218 -0.05748856 0.013452386 -0.12507586 -0.008937671 -0.047143742 0.04813904 0.0011192492 0.1014958
4020 0.18704227 -0.011108098 -0.07786141 0.1297587 0.19031447 0.0652873 0.06851432 -0.054181337 0.26895174 -0.029971363 -0.17339557 0.18023157 0.056053147 0.24886946 0.01800425 0.22227417 0.09565307 0.07328099 -0.021386914 -0.09687825 0.066323936 -0.01570584 0.080837935 0.14233528 0.069326095 0.29837477 0.20059851 0.07529417 -0.008212128 0.044504542 0.062113963 0.1044528 -0.038210336 -0.011601132 0.0009694579 -0.20890418 0.18556938 0.05549231 -0.277528 -0.17385446 0.016229684 -0.04098437 0.11132622 0.23626195 0.14715616 -0.13479681 -0.058870185 -0.20146546 -0.11209779 0.18480664 -0.12760371 0.10288864 -0.22240613 0.13672039 -0.176403 -0.06444165 0.112638034 -0.027366798 -0.034175806 -0.22246012 -0.21462278 -0.061091833 0.11682241 0.22591497 0.1579491 0.16865602 -0.12960151 -0.052155714 0.0047578244 -0.023143591 0.114266075 0.08435724 0.040843934 -0.076494165 -0.26068714 0.04339749 -0.10612272 -0.081540756 -0.14168334 -0.011764407 0.14582698 0.027551414 -0.052482318 0.07202359 -0.22459081 0.2665729 0.14676486 0.02254446 -0.08256564 -0.29529086 -0.23733766 -0.08366619 0.14004874 0.28532428 0.22630629 0.00060763705 0.06666785 -0.18705162 0.08853879 -0.018899808 -0.010084506 -0.07471876 -0.019756356 0.19675092 0.022781836 -0.07739764 -0.12753843 -0.14212728 -0.037607096 0.30298907 0.03775485 -0.123038635 0.23054923 -0.05262098 0.023520865 -0.29174063 -0.07669494 0.19642252 0.045946717 -0.13081373 -0.07988889 -0.20952316 0.022694258 -0.20755716 -0.0111075565 -0.04011442 0.19174805 -0.007672967
4009 -0.05725387 0.063673474 -0.07614848 -0.10565572 -0.063868836 0.13121414 0.0051255203 -0.25569096 -0.022378843 -0.13622122 -0.11559285 0.07888547 0.13260195 -0.00279031 0.22653645 0.06536342 0.0010002512 0.17957954 0.1155681 0.122547425 0.049461447 -0.017078515 0.10013999 0.08847437 0.086344555 0.088305674 -0.07590118 -0.017951678 -0.063779004 0.009564114 -0.15632856 0.094355986 0.02671096 0.20405565 -0.13691297 -0.10551362 0.12999114 -0.13429567 0.026683988 -0.19695035 -0.13362592 -0.11856077 0.10512165 0.09629493 -0.12253853 0.096481256 -0.043412246 -0.07953772 -0.11444644 0.073948875 -0.05621557 0.11205579 -0.046576004 -0.1627966 0.118518874 -0.11136527 -0.00081577094 0.110922806 -0.05485952 -0.08696823 -0.028642124 -0.081631415 -0.034172487 0.094373904 -0.07523416 0.004696788 -0.15867586 -0.0037235804 0.045332417 0.056102943 0.07313715 0.08396378 0.06028643 0.08271379 -0.098925315 0.09020997 -0.16567674 0.019778289 0.029040946 -0.09741524 -0.00032341477 -0.1597135 0.0045191413 0.19277647 -0.0909268 0.2246116 0.08193644 -0.06745631 0.06864562 -0.08700158 0.08847483 0.085189804 0.20080933 0.031782806 0.2605486 0.2327373 0.055595215 0.12502466 -0.17586556 0.3452122 0.09629616 -0.039863102 -0.08372875 0.07102174 0.09981913 -0.016777618 -0.16728453 -0.18990761 0.077654146 0.09789995 -0.0071563567 -0.092620686 -0.14739501 0.14771964 -0.12274591 -0.00680151 0.031962447 0.123727396 0.024805607 0.04296182 -0.1355498 0.11493762 -0.08844949 -0.039583877 -0.20098533 0.13151686 -0.024444073 -0.10913522
4031 0.21915862 0.08193532 -0.12847945 0.15937033 0.042476825 0.14903224 0.06649565 0.0126878675 0.111637466 -0.040511847 -0.25419512 0.18747193 0.057396784 0.2648708 0.07787683 0.154125 0.09730427 -0.003941256 0.019697476 -0.13270293 0.10772342 0.12440133 0.064275794 0.19347402 0.00037309458 0.22996265 0.21586308 -0.0069179083 -0.018372813 -0.17518818 0.014405916 0.18445837 -0.025120392 0.00089349935 -0.014315887 -0.09068285 0.13310222 0.029389583 -0.11971151 -0.052518234 -0.05047782 -0.09579627 0.07706683 0.034977432 0.020826088 -0.12830971 -0.091557294 -0.15166502 -0.07852829 0.11755208 -0.018319875 -0.03693799 -0.15901352 -0.0034044273 0.009188462 -0.014845672 -0.051153384 0.02760216 -0.08143927 -0.10416863 -0.13153669 -0.07804045 0.045917436 0.15885283 0.03637637 0.0908985 -0.12561403 0.0739388 -0.040029984 -0.04535408 0.13396062 -0.20330076 0.03811826 0.014926692 -0.12829527 -0.06288254 -0.0064521716 0.09584156 -0.082963035 -0.07774868 0.20323156 -0.038408533 -0.13164929 0.05913966 -0.30858022 0.21686545 0.23221725 0.08292638 0.010165698 -0.21237244 -0.22160189 0.103084505 0.13170193 0.18508613 0.1262985 -0.05827485 -0.036979843 -0.034217637 0.19736744 0.15049562 -0.041573357 -0.021305818 -0.065000966 0.11568743 0.1250843 0.0752869 -0.07571473 -0.09631931 -0.06433227 0.19233668 0.13419633 -0.10239951 0.14357506 -0.1020411 -0.014299476 -0.0590636 -0.08962677 0.26557124 0.033723373 -0.054094657 -0.24379513 -0.23339386 0.10383815 -0.14928378 -0.027240468 -0.052640416 0.1906187 0.106316775
4004 0.27937257 0.100309 -0.069908634 0.11016671 0.009352907 0.20789106 -0.05130008 -0.048443776 0.17526522 -0.001159938 -0.3144784 0.037684802 0.0355018 0.24899603 0.035255242 0.1882179 0.12604815 0.015365372 -0.020615349 -0.08715734 0.08228591 0.22794595 0.12200053 0.22174954 0.101200536 0.11543063 0.091119595 -0.008559228 -0.013449839 -0.04121457 0.09793796 0.103119306 0.04475054 -0.015041318 -0.036888465 -0.06938256 0.19169444 0.07373166 -0.10141197 0.017894408 -0.013039681 -0.094524845 0.08485055 0.09383703 0.06062422 -0.0886572 -0.008754031 -0.197542 -0.11760163 0.0605162 -0.049210317 0.04722697 -0.115474224 -0.024033679 -0.053387515 0.018268008 -0.045289177 -0.02874362 -0.12477504 -0.097685695 -0.14283039 -0.052601226 0.0204196 0.101757094 0.019531216 0.06698745 -0.11690196 0.14490783 -0.044617556 -0.038416766 0.049732033 -0.07468053 0.07707721 0.020894706 -0.086525984 0.021343509 -0.07184118 0.041226156 -0.023380976 -0.101924896 0.08988023 0.0016786436 -0.1023041 0.016158001 -0.26737377 0.21887226 0.2816976 0.08660962 -0.0446799 -0.16970499 -0.2633821 0.16476873 0.16371748 0.10730608 0.14298227 -0.13429722 0.08384919 0.036376465 0.32769665 0.13536553 -0.08139461 0.036572415 0.046819195 0.027827002 0.10823431 0.061208073 -0.050396666 -0.093606286 -0.15617636 0.10594825 0.18241361 -0.19767833 0.19753861 -0.009511255 -0.20177259 -0.17871973 0.013115137 0.34275034 0.10533012 -0.06865079 -0.19140479 -0.26028845 0.0076360023 -0.119729385 -0.0051003597 0.0031153734 0.13428424 0.055401705
3998 0.036076736 -0.12949379 0.058280855 0.050857678 0.003361036 -0.13833162 -0.026397511 -0.09835782 0.09906149 -0.09872086 0.0052644974 -0.048786886 -0.0859724 -0.15406701 0.113738894 -0.08902948 -0.07377875 0.03319181 0.18516982 0.031061202 0.032591872 -0.0062159705 -0.029221842 0.056585614 0.04560594 0.09459571 -0.12832302 0.026716163 -0.18037055 -0.057173647 -0.18217358 0.0918196 0.025369702 0.18168329 -0.031667177 -0.15289138 0.18008082 -0.14752828 -0.006075221 -0.267991 -0.26190534 -0.15360808 0.05783081 0.1357116 -0.13291661 0.060873184 -0.069826156 -0.15499781 -0.17297806 0.10817071 0.0059426534 0.1388602 -0.08409539 0.033766545 0.099810086 -0.16343246 0.05765796 0.001030141 -0.022178313 -0.12250837 0.02326796 -0.13363756 0.011614805 0.07884345 -0.009062091 0.077373326 -0.18802266 0.0060307183 0.15765122 0.06906626 0.05675803 0.010308221 0.060797147 0.053118583 -0.059978686 0.22493777 -0.088597335 -0.102871515 -0.0148719335 -0.030620536 -0.1299705 0.0043284516 -0.1042386 0.030207843 -0.068513185 0.28923416 0.22691026 0.075180665 0.030000467 -0.019888902 -0.012906381 0.032211434 0.08219667 -0.050933156 0.17555821 -0.024564566 0.10193532 0.07206747 -0.05140821 0.19743457 0.14735547 0.015888756 -0.14042442 -0.056342978 0.09597139 -0.13403022 -0.12048121 -0.062157176 -0.054797884 0.27412775 0.0063717673 -0.22957553 -0.12113387 0.23868152 -0.20980093 0.05505893 0.053934626 0.19316395 0.014530175 -0.017027503 -0.23897763 -0.02998794 -0.048894778 0.015227962 -0.27166578 -0.035708223 0.11156423 0.07230517
3982 0.03232415 -0.038789753 0.04197975 0.06997803 0.113709226 0.1440427 0.16064073 -0.15060416 0.048581604 -0.11131855 -0.0625248 0.017731138 0.19775577 0.068568274 0.13032195 0.10079981 0.003271654 0.13812707 0.11307144 0.08332429 0.13047566 -0.02139214 0.11553409 0.10071267 0.08514118 0.017403938 -0.09098848 -0.07546832 0.029118042 0.05009693 0.052730944 0.062652625 0.0048105 0.24356192 0.039727207 -0.053432543 0.101144955 -0.23447685 -0.10553354 -0.16458473 -0.061390556 -0.052388027 0.0028373972 0.044132102 -0.025727313 -0.013059357 -0.030167734 -0.14090566 -0.08760399 0.19170146 0.07245004 0.13713375 -0.07405525 -0.042376705 0.058863096 -0.046476826 0.04471517 -0.029985579 -0.029072404 -0.13306579 -0.00022895436 -0.14752959 0.11035342 0.1695578 -0.19190209 0.086647026 -0.10694459 -0.04947825 0.26821992 -0.030358728 0.14609973 0.09817735 0.065146275 -0.07382373 -0.15806702 0.07359799 -0.1915098 -0.023714937 -0.02173704 -0.035028048 0.11783459 -0.11268859 -0.123768345 0.14117627 0.0059506716 0.30616063 0.16240138 -0.042004365 -0.09090871 -0.14026527 0.07100153 0.10096414 0.15641285 0.15084316 0.21159929 0.18552716 0.123602435 -0.0053301943 -0.12980141 0.27896702 0.121808 0.03627697 -0.11342445 -0.035126224 0.08834379 -0.060856987 -0.129747 -0.22530189 0.12621585 0.08495471 -0.071338184 -0.023894079 -0.06748491 0.1379174 -0.03441704 -0.025379965 0.02600414 0.1353914 -0.01621379 0.02855927 -0.10186198 0.014327925 -0.08693865 -0.06449516 -0.07357015 0.10842058 0.025720935 0.05020752
3990 -0.28562066 -0.087093264 0.1786181 0.0077666068 -0.021152928 0.46446288 0.18088338 0.0648204 -0.010093345 0.14794885 -0.12180662 0.12575264 0.19783819 0.049168732 -0.21736999 0.08044621 0.042258114 0.114094965 -0.16339967 -0.25498974 0.2667876 0.30137208 0.123878255 0.23763561 0.08643607 0.099106826 0.034996234 0.0845306 -0.0631553 0.027291294 -0.14772166 0.13837525 0.0872273 0.17515227 -0.107797556 0.066370085 0.09499722 -0.075516306 -0.37028196 -0.011389702 -0.081344366 -0.041950513 0.17134956 0.13100798 -0.05594829 -0.121849075 -0.09094775 -0.118214 0.03734092 0.12915854 -0.0653479 0.16259217 -0.07158593 0.17657487 -0.14600098 0.11917469 0.114062116 0.06537524 0.1717642 -0.0426633 0.14375395 -0.04238475 0.013925805 -0.119583145 -0.13878323 0.10352985 0.17425902 -0.28474584 -0.109808296 0.16411051 0.11973631 -0.09240491 -0.15769985 0.38840225 0.2133834 -0.13417977 0.17719124 -0.05209602 -0.09685125 0.11461754 0.034736756 -0.23978022 -0.039150313 0.06446141 -0.1654675 0.16246715 -0.10311645 0.22116564 0.1590087 -0.1036521 0.12937091 -0.10444109 -0.096519604 -0.0055848593 0.20058706 0.20071627 0.31157193 0.0220229 -0.19924316 0.29731292 -0.15492758 0.18653363 0.048914548 -0.117985085 -0.16135038 -0.2564406 -0.11277738 0.30332047 0.15932369 -0.053455025 -0.017728165 0.1143468 -0.10295299 0.16133462 0.07353675 0.199481 0.030741768 0.11010214 0.03996786 -0.028784126 0.021368314 0.13966578 -0.08371088 -0.024308292 -0.004929634 -0.104633056 0.09084034 0.31788683
4000 -0.150731 0.15231143 -0.03353125 -0.17276181 0.04714005 0.12842205 0.047137696 0.05314589 -0.119970575 -0.090615325 -0.039997354 -0.14977099 0.16237481 0.0013502847 -0.13862488 0.0010818 0.11669175 -0.19693907 0.13216627 0.008367858 0.2625523 0.25067407 0.03689964 0.055876553 0.03550008 0.094101824 -0.08103127 0.040708054 0.019473448 -0.01704326 0.022792991 0.03738244 0.21445902 0.30166715 -0.26833957 -0.061805636 0.09447254 0.060908355 0.16590679 0.048807487 -0.110947974 0.010173659 0.09900888 0.10655134 0.0067078625 -0.05374288 0.07761342 -0.04109685 0.064789295 0.20747918 0.20772126 0.1679148 0.090005115 -0.027694816 0.1411961 0.015388522 0.06531637 0.01952124 -0.052543238 0.13900308 0.087543644 0.0036641315 0.12857981 0.06708521 -0.3183734 0.12235333 -0.022170639 0.052832495 0.18360452 -0.12333533 0.18884754 -0.21266139 -0.07094356 0.13166304 -0.1158412 -0.25539547 -0.14668436 -0.05436285 0.047848526 0.13821498 0.2336033 -0.19806843 -0.070442945 0.19252479 0.010828128 0.33413953 -0.0827388 0.07091951 -0.057163827 0.014065875 0.1672612 0.1983977 0.14500935 0.18070678 -0.028503282 0.029708149 0.1867347 0.1088421 -0.037626415 0.1350309 0.039643455 -0.22397053 -0.022028001 0.14964661 0.2999695 -0.052268036 -0.06461818 -0.14494254 0.05385791 -0.008695223 -0.029065311 -0.05982688 -0.050492357 -0.008923093 -0.023703326 -0.12863737 0.2399357 0.012446725 0.07919422 0.00856976 -0.13337462 -0.03882484 -0.022271935 -0.02275713 0.097660094 -0.12998581 0.13954334 0.06991303
3992 -0.11358682 0.23894069 -0.09020789 -0.08145067 -0.023095313 0.014050617 -0.012580007 0.04419328 -0.061332174 -0.052979536 -0.12243833 0.08830612 -0.011871797 -0.026607271 -0.009552415 -0.02763019 0.027187942 -0.14620359 0.099689186 0.10101434 0.18684226 0.17802446 0.0042405366 -0.029139422 -0.042061154 0.17646183 -0.032080844 0.14596695 0.061065614 -0.14405201 -0.15620384 -0.015185303 0.19173566 0.124760255 -0.20196103 -0.045262337 0.028069625 0.17736712 0.055736993 0.054068584 -0.13347872 0.13410956 0.05145563 0.020510359 0.0028223277 -0.052132953 0.049859088 -0.030772582 0.11445195 0.16330585 -0.073136985 0.16767655 -0.06622565 0.16693774 0.10136025 0.041865442 0.21953265 0.08177025 -0.045920033 0.09703815 0.167488 -0.0048916778 0.054240588 -0.15598176 -0.29370552 0.26932058 -0.062715024 0.0018751172 0.033533946 0.034923244 0.15493406 -0.16745868 0.034894817 0.099121444 -0.23218277 -0.2478075 -0.10111386 -0.1139285 -0.029162101 0.10037789 0.06280863 -0.13609168 -0.13815548 0.1985012 -0.09620688 0.22348255 -0.009436596 0.09833988 -0.06461938 -0.042617686 0.1425294 0.2527667 0.2028299 0.24838717 0.043541193 -0.09343094 0.18780906 0.19119045 -0.043566044 0.30469462 0.011897468 -0.20397404 0.078698136 0.17726925 -0.01611698 -0.030213602 0.038330674 0.025345339 -0.06273978 -0.049325094 -0.08095762 -0.103503264 -0.23410937 0.053792287 -0.0058391406 -0.10300585 0.18434465 0.021087162 0.0008100357 -0.09021135 -0.08036458 -0.0077197137 0.03073822 -0.024417793 0.09269371 0.0149314385 -0.02182823 0.18415216
4019 -0.03945974 -0.012758854 0.03229385 -0.004692849 -0.04252807 0.19178194 0.058391217 -0.15391386 -0.034497853 -0.15651694 -0.114130974 -0.038971335 0.053853944 0.051503524 0.19209427 0.066616915 -0.06632552 0.026316948 0.08111704 0.08770473 0.016092105 -0.05846784 0.05883775 0.025731463 0.093806475 0.0388972 -0.11077154 -0.07938081 -0.020567307 -0.029650211 -0.056481775 0.029061837 -0.004235463 0.16627666 0.02982024 -0.015383769 -0.010243779 -0.08148299 -0.021514527 -0.23200515 -0.032757573 -0.046332948 -0.0016527632 0.009568947 -0.12177315 -0.0024923016 -0.049614076 -0.0726345 -0.08914873 0.12824407 -0.072738834 0.16281359 -0.03161127 -0.068160474 0.07825028 -0.06272008 0.09593747 -0.07510981 -0.008221787 -0.015259231 0.01039926 -0.09227481 -0.0029097113 0.08467026 -0.16906208 -0.030835574 -0.14271146 -0.013429224 0.26764184 -0.0066977423 0.12938908 0.02270168 0.06809392 0.08285863 -0.06286353 0.13841444 -0.08610386 -0.021639803 0.026650345 0.019146862 -0.016287109 -0.08287999 -0.07829061 0.12561558 -0.05337483 0.2844087 0.22487116 0.04078642 -0.04508087 -0.11801388 0.033166945 0.089861006 0.19988412 -0.02416055 0.25929746 0.1594202 0.09274027 0.12586361 -0.1403564 0.33117872 0.12842447 0.07847094 -0.06482553 -0.091131635 0.02064885 -0.03659214 -0.095414415 -0.13669544 0.074883446 0.08318847 -0.046788044 -0.13859019 -0.18236609 0.18425868 -0.15867768 -0.043952566 0.035691965 0.18349575 0.073337294 0.16822748 -0.16208585 -0.0304463 -0.06384869 0.001436052 -0.13483328 0.054173697 -0.041691717 0.029746838
4038 0.2938815 -0.022439513 -0.087737605 0.14493667 -0.07926011 0.18327269 0.00068939273 -0.15544172 0.17775021 -0.028031658 -0.27689335 0.14918078 0.104282185 0.18879218 0.03783377 0.14986028 0.18117467 0.06906061 -0.099985026 -0.15613903 -0.045106456 0.03588132 0.090869136 0.20098731 0.03824546 0.19842342 0.18786386 -0.028443454 -0.07974255 -0.03703145 -0.06271202 0.101038836 0.004236227 -0.040191367 -0.048450984 -0.07821774 0.13884419 0.12986998 -0.07125378 -0.020541092 -0.1711578 -0.09454186 0.14848107 0.1426242 0.007902303 -0.040026292 -0.061425623 -0.15100034 -0.16491999 0.06811767 -0.04785929 0.017659053 -0.21611103 0.08290437 -0.0066769193 0.007918497 -0.022424258 0.11472272 -0.097432695 -0.09752389 -0.16929959 -0.07814224 -0.030550418 0.19307336 0.13642511 -0.061539385 -0.056604456 0.16820312 -0.07526922 0.027102994 0.12970178 -0.18466382 0.03964868 0.110414244 -0.13440803 -0.018005734 -0.039861675 0.0521871 -0.027450036 0.033914573 0.063670285 0.037200477 -0.11148555 0.0054696244 -0.29302278 0.18890588 0.17852467 0.0027297335 -0.065943055 -0.12282895 -0.23147961 0.076583706 0.22445314 0.23441839 0.11415147 -0.0787307 0.10923902 -0.03937075 0.17863059 0.23698755 -0.03687318 -0.11723547 0.000775668 0.1969085 0.10257017 -0.07010373 -0.07688081 -0.08109793 -0.17200324 0.15146933 0.17398712 -0.13272001 0.08149054 -0.09434442 -0.038393278 -0.10119955 -0.04488104 0.3420976 0.005598676 -0.09133743 -0.13473055 -0.1497268 0.049071316 -0.086773515 -0.034902856 -0.101719975 0.111044675 0.029276296
4025 -0.20354664 -0.15649913 0.14792852 -0.0075859204 0.12750149 0.32740065 0.24486169 -0.030431254 0.028830517 0.10391166 -0.13427328 -0.010531793 0.13206655 -0.05728299 -0.2811667 0.07093945 -0.09547353 0.24132346 -0.19047242 -0.2197382 0.2785127 0.45935285 -0.007319106 0.29990873 0.000908112 0.14154394 0.01750798 0.20469311 -0.09724206 0.019060913 -0.12485757 0.014554372 0.06453687 0.21338257 -0.22795777 0.0917776 0.11356553 -0.07056452 -0.49955544 0.078632504 0.021262122 -0.06069231 0.19800836 0.11382862 -0.07304903 -0.008175593 -0.14267331 -0.069184266 0.010678474 0.1572769 -0.123238385 0.07200756 0.005446774 0.14300376 -0.2192238 0.14733078 0.040703293 0.004976576 0.21151614 -0.044667773 0.13534485 -0.10733671 -0.004643056 -0.056501456 -0.08193851 0.1980324 0.19381721 -0.3338178 -0.18036163 0.15135734 0.052759033 -0.09000283 -0.11143236 0.33629295 0.09322661 -0.18718402 0.11437482 0.0012922446 -0.13443261 0.111391686 0.13076372 -0.31380114 -0.11146719 0.11352909 -0.18189745 0.22470765 -0.1384035 0.24569207 0.15599327 -0.14124072 0.105250716 -0.20408219 0.090742484 0.031896673 0.24973355 0.20246692 0.33922035 0.0410622 -0.20542051 0.3426095 -0.20254086 0.18647143 0.12982583 -0.06429631 -0.17326419 -0.15146664 -0.2020292 0.29551086 0.14767657 0.041221667 -0.05133016 0.114911824 -0.07692447 0.18812962 0.17482209 0.150197 0.123003185 0.13198446 0.010609663 -0.16325511 0.010494369 0.14500393 -0.041480094 0.050951697 0.048366457 -0.1446777 -0.03190266 0.27681318
4017 -0.3056909 0.20941396 -0.03276182 -0.10595565 0.052528054 0.21592657 0.12788802 0.026325397 -0.13346496 -0.20221993 -0.25544724 -0.20072265 -0.11416523 0.039083544 0.019013073 -0.14878134 -0.029723132 -0.119564034 0.1920308 0.108621456 0.22530834 0.14378436 0.08487042 0.053921547 0.028951965 0.23256114 -0.23557915 0.02110781 0.1695837 -0.070423566 0.012629291 0.0119198235 0.24226724 0.0839584 -0.07722423 -0.25002578 -0.0039401436 0.094950736 0.044178255 -0.010521177 -0.18397984 0.2143313 -0.061491918 0.055210486 0.11996899 -0.10879281 0.039285526 -0.13036485 0.07150827 -0.03540132 0.024547804 0.18523097 -0.032525435 0.14983064 -0.042035755 -0.09193622 0.20242319 0.068098575 -0.053878352 0.20407946 8.120212e-05 0.1294871 0.029784797 0.03182022 -0.21453677 0.19459452 -0.030098243 0.032611877 0.18718927 -0.007985524 0.12150364 -0.24657106 -0.0043685725 0.066399455 -0.18967345 -0.16070738 -0.05701314 -0.20584284 -0.00560711 0.11423044 0.10999779 0.03195546 -0.25630754 0.16157447 -0.020071436 0.14224319 0.04951457 0.04263853 -0.112866804 0.037102874 0.037048485 0.25031638 0.25745863 0.21815938 -0.010821935 -0.10979559 0.1347021 0.075161576 -0.094903186 0.24207303 0.10434399 -0.24367012 -0.024300676 0.01414896 -0.028195895 -0.20715776 -0.14837354 -0.029831566 -0.12851608 -0.03223123 -0.041343 -0.1423377 -0.1815358 0.14707528 -0.12980755 -0.090631194 0.29532024 -0.0082743 0.08867166 0.071900874 -0.14946985 0.07367072 -0.02163954 -0.14178376 0.07297797 0.013695052 -0.04568647 0.2750473
3986 0.12474581 0.22052199 -0.07144677 -0.2577032 -0.0045340336 -0.05616811 0.06607487 -0.11980108 0.022258194 -0.26442304 -0.14502776 -0.08353399 0.15429963 0.08574927 -0.024337513 0.11911292 0.13632238 -0.13439989 0.18071184 0.07502367 0.077012986 0.1377276 -0.028527223 0.11195781 0.049855012 -0.047231752 -0.1858511 -0.01749169 -0.005591906 0.05484578 0.046673816 0.10899972 0.17729017 0.26409057 -0.2627651 0.025893217 0.07896775 -0.17518993 0.14669023 0.037975445 -0.2198779 -0.094848946 0.09623383 0.1873595 -0.06223381 -0.10839331 0.22508337 -0.17391503 -0.04314691 0.33514616 0.202155 0.40686148 0.12347985 0.14011261 0.15520732 -0.038877737 0.02929626 -0.044254724 -0.061673414 0.033524923 0.2034482 -0.16080388 0.15620698 0.068431824 -0.4300595 0.022184685 0.038977254 0.13634798 0.16719416 -0.18306519 0.21748479 -0.12524314 -0.05338177 0.09168903 -0.12469328 -0.23744932 -0.1704964 0.042330276 0.068470314 0.01307228 0.16054818 -0.12631246 -0.037194837 0.03338292 0.079883866 0.3310768 0.021943215 -0.07054368 -0.092464246 0.07609494 0.1781488 0.13439575 0.037814606 0.16922897 -0.0069706407 -0.035583083 0.27404156 0.08804332 -0.010277276 0.15255438 0.030271275 -0.29230884 -0.07190208 0.033015568 0.30493626 -0.24297954 -0.0044102124 -0.15163317 0.21714921 0.09392425 -0.20078483 0.041831583 -0.16419275 0.06254843 -0.18983674 -0.04131305 0.16187957 0.057041682 -0.011059689 -0.02287869 -0.03417436 0.035684515 0.034429953 0.067845985 0.008323004 -0.064705245 0.11725013 0.04294863
4027 0.098093554 0.132154 -0.07292512 0.14803088 0.03631415 0.005928921 0.059540447 -0.011378124 0.1665915 -0.060750537 -0.17814392 0.18222132 0.042421136 0.3168511 0.034179404 0.24872816 0.17272608 -0.050630488 0.09346948 -0.086343236 0.066188626 0.09540353 -0.08215838 0.116694435 0.14756013 0.15909748 0.021661961 0.21223325 0.0048931674 -0.11351549 -0.002286079 0.18150806 0.010962226 -0.05175423 0.080666795 -0.1868482 0.3181554 0.021697363 -0.19728814 -0.12341143 -0.050064746 -0.15261276 0.12829185 0.11673737 0.14501111 -0.18802841 0.006378084 -0.14408892 0.025706884 0.14486964 -0.04905959 0.032628678 -0.1932158 0.11199968 -0.15442602 -0.06232932 -0.049701136 0.08682294 -0.13682073 -0.25259674 -0.094697766 0.07065284 0.17320976 0.11125542 0.14577979 0.2034187 -0.112519264 -0.02983206 -0.053526714 0.024567213 0.0889012 -0.11165309 0.12012804 -0.06259623 -0.25878233 0.025782762 -0.2123831 -0.073904864 -0.2271678 -0.2174961 0.06340954 0.004464634 -0.026195422 0.070356876 -0.24180427 0.12418085 0.23774746 0.024672156 -0.024189277 -0.23334472 -0.28166354 0.040496834 0.070506446 0.18771343 0.20024933 0.0074582775 0.08674923 -0.16164444 0.17747834 -0.109663114 -0.054426968 -0.06430464 0.014319257 0.15463723 0.02812868 -0.09035229 -0.22604376 0.031746324 -0.13369519 0.085781015 0.055479128 -0.21592076 0.3272319 0.11829745 -0.05432469 -0.045310862 0.064694256 0.30318725 0.045173813 -0.2178543 -0.26140338 -0.2523891 0.066362634 -0.23861639 -0.06220941 -0.0025298703 0.2991213 0.07539463
3989 0.3110843 0.0051700654 -0.18875745 0.024329714 -0.10946707 0.24339806 0.03533286 0.07003907 0.001912047 -0.06917115 -0.24057174 0.07820825 0.09790164 0.244257 0.0766225 0.17761235 0.07404283 0.052569363 -0.04926128 -0.11718368 -0.00037270965 0.068800606 0.09250042 0.14990722 -0.060546737 0.14660376 0.2540517 -0.1924922 -0.013557934 -0.13479835 -0.08693147 0.16879816 -0.03380947 -0.1294286 -0.12864533 0.027476026 0.02134354 0.033275206 -0.10394598 -0.060179465 0.046928886 0.0064853975 0.09975882 -0.00011081781 -0.03301075 -0.017923838 -0.14269677 -0.121497616 -0.11127075 0.008903955 -0.09555265 -0.06556358 -0.2090719 0.027002482 0.011162354 -0.026796553 -0.017297873 0.010447217 -0.073362 -0.061525162 -0.0895087 0.014465078 -0.09139083 0.19881254 0.04855787 0.032923978 -0.09126398 0.13104385 -0.18467885 0.0070000524 0.04968395 -0.21508607 -0.06754379 0.14204697 -0.08621682 -0.04417803 0.035619333 0.07142207 -0.11157432 0.0072753 0.2219757 -0.14030088 -0.22752918 0.10580759 -0.44099292 0.25611365 0.2287244 0.15924431 0.08277778 -0.2669469 -0.18108508 0.1964272 0.23772769 0.053441297 0.087732695 -0.016971305 0.0109547535 0.05837769 0.109299526 0.2990742 -0.1397101 0.03101759 -0.12881397 0.1440637 0.12548055 0.015219111 -0.08187327 -0.06792758 -0.08760646 0.10817081 0.14336829 -0.08775492 0.09926327 -0.24931093 0.036636576 -0.018916637 -0.053720325 0.24206313 0.052516084 0.0060865316 -0.19970632 -0.043868054 0.096988246 -0.18008634 0.013156532 -0.18288574 0.24363737 0.13650139
3995 0.26803342 -0.09523955 0.05479756 0.114199236 0.018737976 0.055934235 -0.2364242 -0.097712316 0.18486185 0.031911213 -0.03475936 -0.076834485 0.24246301 0.08834041 0.01143635 0.10534325 0.08492883 0.08022433 0.07341979 -0.09626221 0.12938443 0.13401952 -0.028687187 0.1753514 -0.0010257175 0.09176413 0.02931729 0.07552023 0.0913434 0.26143572 0.08033202 0.05085661 0.21296348 0.15825604 -0.26849943 -0.082167834 0.16436325 0.12204296 -0.1783504 0.018263932 -0.033230316 0.041320644 0.09189831 0.18797968 0.07264624 -0.11960386 0.033621944 -0.23533024 0.017506026 0.021590458 0.08845807 0.30504787 0.032124884 0.16502945 0.046424214 0.19390118 0.10354153 -0.19302954 -0.12558542 -0.033040058 0.0871624 -0.058677446 0.05118025 0.021492919 -0.1657316 0.20731387 -0.06889302 0.016448658 0.14868487 0.023062581 0.22825441 0.010145535 -0.09183394 0.12677321 -0.007347216 0.0844173 0.047634356 -0.10416722 0.024004795 0.061334886 -0.010759932 0.04985844 -0.0573827 0.032403048 -0.087290406 0.046508428 0.21795057 0.14498842 -0.15360624 -0.049314726 0.044339206 0.19125721 0.12894653 0.025824944 0.079883814 -0.19856977 0.27108774 0.098277554 0.15928538 0.2013499 0.030050356 0.018785264 0.0773366 -0.14455047 0.20466307 -0.14408475 0.026383597 -0.08003698 0.09287798 -0.019773275 -0.13111791 -0.07474387 -0.16113923 0.057882294 -0.19264854 -0.21916243 0.127557 0.13402776 0.17842813 0.07953601 0.19237751 -0.10318209 -0.002590058 -0.055183724 0.15070435 -0.06877748 0.13652024 0.25860798
4033 0.13360429 0.059437457 -0.027122032 -0.2062145 0.07607509 -0.058332752 0.041674886 -0.1323388 -0.04304975 -0.26917908 0.0034803853 -0.077613465 0.2292274 0.02068278 0.004009931 0.15309109 0.12774271 -0.15977764 0.17935829 0.041215863 0.1455967 0.23370224 -0.16384847 0.02039683 0.16636857 -0.059134442 -0.15983759 0.08383498 0.1323053 -0.067253605 -0.09613881 0.09828379 0.19673473 0.2062982 -0.2960828 -0.03316502 0.17563997 -0.08404343 0.18938538 0.108874165 0.08097676 0.01905019 0.22449732 0.16058464 -0.041597873 -0.037773497 0.14616974 -0.045443233 -0.013916062 0.26033476 0.2851783 0.24516268 -0.0002555629 0.20801337 0.26593772 0.069869354 0.10783383 0.037440818 -0.22875188 0.030141385 0.19123153 -0.07649575 0.24049945 0.11341729 -0.4660173 0.17567812 -0.046320297 0.12986472 0.20867832 -0.09854293 0.35018015 -0.19987507 0.0012793896 0.14512081 -0.15411521 -0.18453519 -0.14922553 0.16099092 0.037782356 0.1674855 0.20584103 -0.06440816 0.003977635 0.15065134 0.023172438 0.18727008 -0.017168136 0.0144338235 -0.07537799 0.055620015 0.18143375 0.19796892 0.12524508 0.32796487 0.06537197 -0.023155306 0.2410718 -0.04687067 -0.11143194 0.09113484 -0.0431964 -0.18154533 -0.061844997 0.17647453 0.2635923 -0.14919391 0.056149516 -0.13049062 0.12973778 -0.047566213 -0.0974239 -0.065277144 -0.16600864 0.06297825 -0.13824427 0.012350135 0.25423384 0.10772632 -0.07660876 0.015190722 0.0053557586 0.008787453 -0.03688307 0.043443076 0.028233057 -0.13084938 0.1868587 -0.014412225
4012 0.06790356 0.016257338 -0.054737624 -0.1450649 -0.07452205 0.17233406 0.0038868831 -0.011456243 -0.026258865 0.085359454 -0.1558539 0.16283606 0.3042195 0.21324071 -0.06976569 -0.07009727 0.011460304 -0.01738672 0.003510349 -0.18724863 0.27508998 0.16328728 0.16409753 -0.06364072 0.020101765 -0.08127752 -0.14220972 0.18314813 0.0068506617 -0.09459652 -0.19538224 0.28157437 0.0030357712 0.07316142 -0.13371167 0.02806207 0.13850151 0.12133143 0.006235366 0.11015096 -0.16347943 0.0032190513 0.033957805 0.15652628 -0.056780644 -0.28401634 -0.040316638 -0.037539616 0.01867716 -0.07787851 -0.020832492 -0.14714006 -0.07571068 0.19663617 0.07405574 -0.10035643 0.113117516 -0.19247584 0.12930672 -0.2152026 0.029147444 -0.07698513 0.0012384626 -0.20236948 -0.0057501188 0.083614014 -0.10944758 -0.21690154 -0.033393946 0.019447884 0.18895596 0.016463516 0.114340946 0.10475409 0.052755084 -0.058973353 0.20140612 -0.26783177 -0.032391082 0.22343262 0.16042238 0.101747096 -0.039077867 0.2910867 0.0034309782 0.18982172 0.013846585 0.123018906 0.21417245 -0.16336638 0.087895006 0.026202668 -0.032046154 0.1397462 0.07415033 -0.020847034 -0.12623724 0.069941156 -0.23314023 0.23870204 0.05024556 -0.12814978 -0.14944105 -0.1338331 -0.051838044 -0.27695167 -0.0058934055 -0.00097254675 -0.066523276 0.112103075 0.005696476 -0.06980856 -0.19662227 -0.010599573 -0.083040036 0.0038508289 -0.0940164 0.02838747 -0.006090887 0.1925193 -0.121734396 0.01079774 -0.05144434 -0.097173385 -0.067367546 0.061175294 0.22190428 -0.10213471
4007 -0.2572235 -0.0983298 0.14968239 -0.09364679 0.07785396 0.40001437 0.14253849 -0.0465847 0.03193577 0.031224573 -0.14820309 -0.016438555 0.11157543 -0.047796223 -0.2502898 0.03595627 -0.068022616 0.13392726 -0.14076349 -0.26040167 0.29897177 0.4072129 0.052076302 0.30877897 0.063952304 0.13704962 0.056964703 0.07818423 -0.10208827 0.045623578 -0.08152707 0.04849121 0.13220808 0.22209059 -0.19768694 0.04800106 0.11581568 -0.047022354 -0.4087677 -0.021781038 0.0013154872 -0.033697464 0.21084075 0.1349892 -0.042525 -0.064276636 -0.106419384 -0.10085736 0.019022785 0.10474199 -0.05799321 0.0874816 -0.04712738 0.158411 -0.20139085 0.16266058 0.07854725 0.07454559 0.18163982 -0.016508926 0.081254944 -0.0683629 -0.027571479 -0.04802524 -0.15710711 0.15151991 0.16819914 -0.26810127 -0.08221353 0.12530199 0.08508874 -0.09316127 -0.13825418 0.36233026 0.14460987 -0.13704331 0.18984853 -0.029680967 -0.07044916 0.1361249 0.1445366 -0.26672092 -0.09954552 0.09795662 -0.14553922 0.18674852 -0.19144458 0.31421486 0.17998242 -0.086940445 0.15746643 -0.14757346 -0.025252081 0.050647322 0.14343618 0.14334545 0.32817557 0.04129332 -0.18517458 0.27733156 -0.2285687 0.16772053 0.12360181 -0.093464464 -0.15156983 -0.19967853 -0.13206398 0.31856507 0.11865637 -0.014713609 0.029691758 0.09433272 -0.074549064 0.11790654 0.10449554 0.11044598 0.12778087 0.05974912 0.03592348 -0.09445216 0.02534714 0.11779813 -0.07869439 0.03892904 0.019724723 -0.15014929 0.028842967 0.24734719
4016 -0.22298583 -0.13604507 0.1557035 -0.0064995927 0.06441309 0.40380627 0.23874506 0.053596467 0.0019734118 0.108976856 -0.18228684 0.025492739 0.10188731 0.094984025 -0.23079284 0.114061 0.030503515 0.14488064 -0.18748143 -0.21272984 0.19599268 0.29674745 0.12200012 0.1917911 0.021498749 0.032181658 -0.037264302 0.106536865 -0.112210855 -0.010365088 -0.15308614 0.10927283 0.0606933 0.15536228 -0.16605498 0.11487844 0.04981583 -0.057097018 -0.38867736 0.100775026 -0.01581487 -0.073917545 0.14774461 0.16308974 -0.04796398 -0.13578671 -0.08408573 -0.11096247 0.024691932 0.15160826 -0.11857838 0.1499309 0.01043158 0.17480057 -0.17895105 0.088007785 0.05198294 -0.004994281 0.12081839 -0.041057844 0.16607702 -0.06460174 0.021155687 -0.044963192 -0.09807202 0.046818946 0.18212202 -0.27734432 -0.14020972 0.18780233 0.13503054 -0.13055517 -0.101371765 0.47932962 0.15220101 -0.21794313 0.22319125 -0.0033518723 -0.1563373 0.11748604 0.11254567 -0.25285923 -0.07825827 0.019841531 -0.22412899 0.16447921 -0.1198445 0.23844773 0.12628727 -0.14915386 0.033692766 -0.19870143 -0.013698533 -0.028631974 0.20521986 0.2427025 0.35266542 0.06249976 -0.19075368 0.3186425 -0.23516464 0.12604909 0.06948353 -0.11209746 -0.1782781 -0.2516398 -0.2108235 0.25937268 0.07696678 -0.017524578 0.0003304825 0.05503244 -0.05563896 0.11003268 0.121767655 0.18756562 0.047275938 0.15678471 0.10185029 -0.07060555 0.099536166 0.11748079 0.02890568 -0.02796701 0.057200722 -0.13380139 0.10196415 0.21963625
3987 -0.0059021036 -0.0213215 0.09746497 -0.06423648 0.018946635 -0.091079265 -0.0027783804 0.043862056 -0.098260835 0.07142756 -0.005757252 0.09968224 0.23885784 0.26833317 -0.15002608 -0.07177412 0.14279555 0.13994725 -0.002234563 -0.22230014 0.24814068 0.10829551 0.09016219 -0.08918516 -0.03553195 0.03729618 -0.12343328 0.12009283 0.14306815 -0.038967926 -0.06458684 0.1969402 -0.0001156711 -0.049469657 -0.2075729 -0.0011292278 -0.056934554 0.21281144 -0.034127563 0.14192125 -0.11214864 0.015353002 -0.0065280325 0.0010025658 -0.029775292 -0.16888271 -0.102021135 0.075558715 0.08098094 -0.038743105 -0.075123824 -0.12293438 -0.11014411 0.35483092 0.067010544 -0.082079224 0.17623772 -0.33879527 0.20528294 -0.2604617 0.080101915 0.06280736 0.037445 -0.17073478 -0.09223161 0.1761846 -0.11635321 -0.17335387 -0.10515797 0.06911156 -0.042555496 -0.04460404 -0.03438088 0.1373049 0.09434355 -0.027473489 0.010547403 -0.034382965 -0.0045446055 0.12960811 0.106445566 -0.041069448 -0.056520484 0.20891365 -0.1202673 0.1868121 0.06585016 0.24031276 0.17751965 -0.18005106 0.0024735192 0.054883823 0.115620926 0.017247388 0.19789287 -0.038235363 -0.275696 0.07355703 -0.19490114 0.23530701 0.15033275 -0.083431505 -0.032149795 0.04281378 0.088402815 -0.2656506 -0.14645834 0.08480143 0.08215383 0.20787558 -0.05496627 -0.206114 -0.12223405 0.09410049 -0.12607959 -0.11318266 -0.08362605 -0.0050923885 0.077050954 0.1665461 -0.30777887 -0.043955177 -0.07184052 -0.0023685081 -0.28485885 -0.18458037 0.3044914 -0.08860575
4026 -0.2699174 -0.065369256 0.05622518 -0.052406374 -0.022492953 0.1531167 0.09663469 -0.1396211 3.3024935e-05 -0.1105831 -0.21735384 -0.055803478 0.12297821 -0.015549239 0.025519587 -0.019486219 0.022487737 0.046328533 0.14656925 -0.013465199 0.18523368 0.18606503 0.040094685 0.09725188 0.0484109 0.22653951 -0.006746925 0.16597894 -0.04797407 -0.019987809 -0.08212624 0.018771801 0.21750116 0.20353124 -0.13702758 -0.1821409 0.12981503 0.00064098265 0.11448489 0.08211384 -0.2450212 0.051471855 -0.013287868 0.08089921 0.022278225 0.08018983 0.089838944 0.001871423 -0.028162435 0.19984965 0.16667752 0.12665293 0.13055061 -0.008341412 0.23256063 -0.118480116 0.054115366 0.02509411 -0.19032203 -0.012330845 0.07972994 -0.14670981 0.11847261 -0.048977677 -0.15671071 0.20447394 -0.09503343 -0.038885623 0.17298985 -0.05001181 0.12653388 -0.013627896 0.015892755 -0.117853954 -0.13772492 -0.12944731 -0.11003171 -0.07319145 0.025614928 0.060912304 0.06374909 -0.11127475 -0.1314445 0.035214182 -0.044034623 0.18108699 0.06517753 -0.056411177 -0.0872412 0.021414563 0.11815999 0.112927906 0.12995942 0.14118716 0.10967184 -0.11761412 0.20425974 0.19978373 -0.07052979 0.23747005 0.012951418 -0.09480228 -0.03003767 0.049941506 0.13908464 -0.050539773 -0.022267165 -0.13801153 0.044816364 0.08891976 -0.09362854 -0.0314978 -0.22379524 0.20174125 -0.053343005 0.047861 0.18909611 0.015452147 0.122589126 -0.010126304 -0.011832213 -0.051392194 -0.046315704 0.017257998 -0.037001897 0.033635795 -0.032128826 0.0927592
4014 -0.20473245 0.021924444 -0.01892498 -0.1284975 0.097643174 0.14206204 0.042185206 -0.19279574 0.04017462 -0.113412745 -0.14175604 -0.13563055 0.24518147 0.17882353 0.122098565 0.09914112 0.07646024 0.15671957 0.19002812 -0.069108695 0.069790155 0.14515829 0.06839964 0.30201337 0.11146097 0.2262297 0.050592102 0.08730602 0.027103657 0.055905327 0.023541378 0.13597912 0.19767837 0.15667091 -0.1438855 -0.13335565 0.22484672 -0.19731061 0.018796014 0.026070666 -0.15956186 -0.046776123 0.04903761 0.13306761 -0.012725885 -0.010111343 0.0742501 -0.0015294894 -0.094033964 0.08739769 0.18006384 0.09374521 0.05628428 0.01661477 0.14178501 -0.06744727 -0.059585925 -0.060838286 -0.20882414 -0.12365172 0.0008290205 -0.16468027 0.08206145 0.003005495 -0.05560622 0.19421571 -0.11196865 0.010112823 0.14832988 -0.0030944732 0.12655768 0.036954865 -0.07141736 -0.05592966 -0.01784411 0.0063284016 -0.041861117 0.0437293 0.0072545833 -0.030554112 0.036244415 0.041204162 -0.06592117 0.023867665 -0.043322857 0.1258324 0.134588 -0.0836899 -0.056731097 0.004897741 0.04923992 0.073630795 0.077850394 0.09787036 0.14933789 -0.20714733 0.1984394 0.19680063 -0.035032783 0.23534042 -0.048571154 0.026974743 -0.17926283 0.003957859 0.2089547 -0.066889696 -0.096598476 -0.15715697 0.059481733 0.061680548 -0.022203127 -0.013464202 -0.06455097 0.19522747 -0.12038225 0.15936907 0.094400406 0.06151284 0.113353916 0.11845808 0.10407541 -0.030620342 -0.02227388 -0.005435121 -0.12502503 -0.003880189 0.03375007 0.06573879
4036 -0.2837969 0.11011823 0.027515758 -0.2189194 -0.20519698 -0.02691254 0.09338678 -0.15787019 -0.13710599 -0.12800671 0.15365502 -0.02389385 -0.05998735 -0.114644304 -0.14954478 -0.19805846 -0.24834336 -0.0115960045 -0.052367695 -0.17572087 0.13165028 -0.0019941807 0.027903074 0.1736256 0.17769785 0.20877364 -0.102231406 0.0053102016 -0.29768124 -0.11250682 -0.12667502 0.07373069 0.0013524184 0.15096726 -0.011805418 0.26203576 0.016086966 0.062748104 -0.10104079 -0.11253248 -0.16295332 -0.09698421 0.041945774 0.0462334 -0.12176355 -0.14051206 -0.09951839 -0.011685742 0.023972604 0.108031444 -0.015162278 0.0114795435 -0.29818535 0.2592908 -0.033149194 0.060387827 0.06794372 -0.11897837 0.21262011 -0.14944486 0.023984753 -0.08730456 -0.09072278 -0.05818742 -0.048778493 0.11165119 -0.2847763 -0.031134848 0.17631328 -0.021199157 0.052613795 -0.01562304 0.011306773 0.15444659 -0.046889234 0.16150714 0.060854226 -0.030304484 -0.053920165 0.19287185 -0.16562073 0.17236137 -0.1111332 0.042059757 0.02294218 0.3216977 0.22786939 0.22501071 0.10107607 0.015175908 0.06323404 0.03503722 -0.008794986 0.10791767 0.15132871 -0.2524641 0.09465391 0.13890405 0.037628844 0.2366919 -0.024752097 -0.093929 -0.11264119 0.05608386 -0.08410252 -0.22271548 -0.049064007 -0.0010976798 -0.18628302 0.08494326 0.07254582 -0.27772775 0.014534722 0.0937685 -0.06774297 0.09449275 0.04853094 0.11865608 -0.016779436 -0.07015797 -0.24376176 -0.2602408 0.02575564 0.09103629 -0.27552554 -0.16321248 0.03270615 0.07656906
4037 0.054088224 0.1695622 -0.0028510639 0.11696048 0.0590441 0.13212532 0.030436803 0.0029494504 0.20467465 -0.037421785 -0.119126156 0.212684 0.02751369 0.27381077 0.1487892 0.25628275 0.13918397 0.007488266 -0.0018945538 -0.072238885 0.04977512 -0.026933804 0.049604915 0.0041138753 0.1412069 0.12917677 0.07342585 0.15209231 -0.04271025 -0.10766206 0.001874287 0.22124496 -0.028886437 0.1634494 -0.0193005 -0.1399467 0.19294123 0.06206716 -0.18953131 -0.14751461 -0.057162445 -0.2415521 0.13650072 0.28653637 0.06278218 -0.19607857 0.0051548574 -0.15076475 0.003604195 0.25416425 -0.13350923 0.14115107 -0.0844058 -0.04447661 0.019243341 -0.010545709 -0.014890365 -0.05252121 -0.09111207 -0.18967924 -0.11739957 -0.09189327 0.16533303 0.08605594 0.061127122 0.10975188 -0.14304842 -0.10260278 0.01127733 -0.041723464 0.11336385 0.020882035 0.10399775 0.05380339 -0.14854975 0.0008810752 -0.041847542 -0.017676886 -0.10377781 -0.14593895 0.06882379 -0.06286565 0.079989545 0.08930526 -0.19313316 0.21093255 0.21233375 0.09712139 0.019706657 -0.18346469 -0.09746851 -0.011311018 -0.08306176 0.13011062 0.2210405 0.10293042 -0.015234698 -0.06722808 0.18275256 -0.056302134 0.03981444 -0.10292144 0.12673715 0.08083033 0.09643504 -0.020221028 -0.16473989 -0.09019228 0.05134736 0.1686128 0.008762414 -0.16201755 0.19163886 0.1298966 -0.07764563 -0.106621906 -0.07708876 0.16090006 0.12417635 -0.07449203 -0.1714661 -0.31482244 0.0727075 -0.10351069 -0.10416925 -0.0035391815 0.26254463 -0.033598024
3988 -0.005434548 -0.08968677 0.040715247 0.016494792 -0.04680621 0.19406478 -0.16352877 -0.10493684 0.05571742 -0.004250924 -0.14663719 -0.16877453 0.1926983 0.117164396 0.06122218 0.13545947 0.050935883 0.037164185 0.13087623 -0.031282406 0.12216444 0.13462861 0.122225754 0.26027203 0.060858846 0.24157682 0.06852647 0.09217904 0.0030305535 0.16579328 0.13612548 0.054313082 0.23465504 0.14675899 -0.25879773 -0.12392632 0.10935098 0.043112323 -0.012204284 0.07697293 -0.056609984 0.0704395 -0.05165456 0.18721731 0.0421673 -0.034687515 0.08936716 -0.10779819 -0.07491768 0.021430155 0.031526845 0.25220147 0.17265868 -0.03479742 0.0277283 -0.03170584 0.038104206 -0.25619742 -0.17244704 -0.013778406 0.07046658 -0.09536896 0.008289402 -0.12302497 -0.06443287 0.24507378 -0.16777307 -0.052742325 0.1580063 -0.007417021 0.064850464 0.15617336 -0.114415206 0.010615381 0.0144441845 0.04138092 0.059846748 -0.20353661 0.02699864 0.005590239 -0.027355228 -0.047608297 -0.055942457 -0.04333916 -0.12194517 0.20318817 0.16959487 0.057914123 -0.07662553 -0.080054425 -0.07929728 0.07192608 0.1719323 -0.13520853 0.11655042 -0.13582166 0.28834903 0.29825205 0.113022745 0.20938843 -0.050012667 0.08263866 0.011185257 -0.17096962 0.17528595 -0.037495866 -0.09526607 -0.15058643 -0.013502207 -0.014263853 -0.074294455 -0.033490885 -0.06921233 0.112808436 -0.1876255 -0.18199016 0.12305473 0.14892031 0.31875256 0.1448278 0.14465967 -0.09810508 -0.100448936 -0.08103413 0.14070219 0.025825266 0.096948475 0.07568269
3999 -0.17959832 0.029483493 -0.12830448 -0.17151012 -0.16771379 0.02912185 0.14630195 -0.117644206 -0.089315124 -0.0013174366 0.11546718 0.032777295 -0.28943902 -0.20262288 -0.06485304 -0.16611151 -0.32470906 0.14778458 -0.03571101 -0.073586315 -0.058113657 0.011303394 -0.24464194 0.08208053 0.15861252 0.16240767 -0.0418486 0.12756942 -0.23693453 -0.0849522 -0.21447465 0.008540956 -0.037917625 0.06980201 -0.05766211 0.2622821 0.09754078 0.041424584 -0.10969455 -0.098969676 -0.04574053 -0.15512417 0.11250072 0.106784746 -0.07060691 -0.114155956 -0.12496728 -0.05231917 -0.0466212 -0.041096404 -0.12700129 0.13685142 -0.17385939 -0.06068181 0.08052992 0.08804926 0.0273545 -0.036693763 0.25987834 -0.0063757156 -0.14016552 -0.082428984 -0.061978705 -0.05788355 0.25452822 0.1109945 -0.3111441 -0.12280001 0.091245 -0.07847919 0.15810655 0.08770504 -0.013408812 0.27629933 -0.12416811 0.39411235 0.09630978 0.004461163 -0.053434547 0.17159675 -0.25347862 0.2437152 0.007866359 0.21604078 -0.032928217 0.4119171 0.39620498 0.14224781 0.21722215 0.070267916 0.23820765 0.18674858 -0.011495005 0.07932665 0.3563807 -0.19761282 0.09761718 0.13531461 -0.011246683 0.16668797 0.10440601 -0.13887678 -0.15110566 0.005912177 0.050665192 -0.13940464 -0.13385193 -0.012790904 0.07153812 0.27913243 -0.08183264 -0.35082805 0.027370555 0.32592764 -0.18551272 0.1238117 0.2509447 0.09945318 0.0091065345 -0.047154315 -0.32382083 -0.20044495 0.017652545 -0.05830475 -0.35770258 -0.25008738 0.09847814 0.2568425
4002 -0.18552062 0.3066061 -0.020948606 0.050984517 0.059521224 -0.005324667 -0.047256697 0.045543965 0.20841052 0.17108223 -0.064374104 0.23327741 0.23126854 0.10308983 -0.03590837 0.13333572 0.21887185 -0.013098268 -0.062694736 -0.059438247 -0.045065258 0.079138555 -0.08349016 0.1701587 0.13298325 0.29853377 0.10712872 0.16705124 0.1316882 -0.07440351 -0.12767446 0.08511857 -0.022398472 -0.12531453 0.09990109 -0.15056115 0.05337729 -0.119135395 0.09352179 -0.15098102 -0.19942272 -0.15613484 0.090819865 0.13612314 -0.19612594 -0.17625399 0.12665968 -0.058586273 -0.06744154 0.064133115 -0.10430633 0.18705748 -0.27051863 0.20152058 -0.16798095 -0.046925046 0.0656923 0.062611386 0.07857195 -0.07936976 0.0089415 0.05188956 0.01920859 -0.07589089 0.0041370303 0.14975901 -0.11786153 0.13042164 0.015779274 0.12026934 0.19307412 -0.089702226 0.04475165 0.18510592 0.01323927 0.20181671 -0.06502626 -0.06625069 0.003291431 -0.06571901 -0.15277946 0.08598614 0.031452406 -0.027114034 -0.08259308 0.20284066 0.0114187095 -0.008342421 0.044940278 0.0012628991 -0.050499026 0.067763954 0.15091929 0.12905891 0.20272689 0.055150874 0.15932438 -0.08625668 -0.017640179 0.19199438 0.114055656 0.057245772 -0.06098825 0.10254145 0.119440585 0.03545497 -0.17124449 0.10049327 -0.093068324 0.19182986 0.16548741 -0.1982459 0.07928312 0.15341374 -0.1741745 -0.05238682 -0.08392338 0.18627115 -0.08994183 0.02807521 -0.13317855 0.07519657 -0.12786843 -0.112209566 -0.10901331 8.739451e-05 0.12978381 -0.05241697
4003 0.096416935 0.122245155 0.022160262 0.085647516 -0.06487916 0.15083684 0.08659721 -0.17945777 0.12637109 -0.13895983 -0.25400406 0.15253772 0.041309822 -0.0008260097 0.015145372 0.036201924 -0.06852405 0.03827559 0.074146785 0.05708347 0.14273709 0.07340692 0.1319028 0.026941704 0.042021792 0.16175267 -0.09412023 0.010697961 -0.078702524 -0.10218945 -0.06679026 0.04989773 0.032632336 0.178055 -0.08561293 -0.064635895 -0.046904095 -0.014416651 0.048796903 -0.12096941 -0.0043651843 -0.044981614 0.005639163 -0.020238647 -0.087965466 0.14925328 -0.050453052 -0.09227679 -0.0617555 0.14051898 -0.09847174 0.1550097 -0.001524038 -0.10302274 0.024317523 -0.06977703 0.082920894 -0.06510279 0.028876498 -0.05418644 0.1102355 -0.08539055 -0.0034813194 0.045875523 -0.26108104 -0.081009656 -0.15948108 0.0048367726 0.24113841 -0.018558735 0.12599085 0.018105818 0.14446317 0.11484158 -0.12434671 0.037115008 -0.19441211 0.071287565 0.018713055 -0.03789116 -0.028006304 -0.12463411 -0.007869589 0.08065553 -0.040215034 0.23221272 0.06879427 0.01402428 -0.030543368 -0.05478031 0.028375974 -0.013861911 0.20284632 -0.0053270236 0.23138084 0.150957 0.11076906 0.18410213 -0.0027069114 0.31924936 0.05156972 0.017932344 0.0005242973 -0.00027372962 0.047633607 0.015157032 -0.060539793 -0.14971723 0.0025501077 0.14846954 0.003267844 -0.17185433 -0.116949424 0.139761 -0.15857874 -0.16110279 -0.043285955 0.14941351 0.056272972 0.026422868 -0.16735634 -0.059152458 -0.041151408 0.01750458 -0.19014247 0.11858509 -0.045907415 -0.09203316
4021 -0.145223 -0.17678465 0.07135118 0.15550049 0.07867373 -0.04760248 0.01619937 -0.082850695 0.046872083 -0.07379729 -0.22603795 -0.1512004 0.14069088 -0.009715557 0.09587655 -0.07009973 0.054959707 0.25063843 0.08038081 0.034275014 0.13294984 -0.054293267 -0.050846167 0.09353705 -0.09005085 0.14212915 -0.033148684 0.06802467 0.03357423 0.19539484 0.004279808 -0.01313808 0.15250663 0.11907171 -0.014107005 -0.16650075 0.019132258 -0.053401295 -0.03748535 -0.017124565 -0.36488518 0.010179939 -0.19476603 0.042986978 -0.009689815 -0.08901073 0.09891041 -0.17938513 0.002115973 0.10483953 0.15239206 0.2267229 0.03797041 0.075284876 0.10644451 -0.04879969 -0.0981579 -0.0019467318 -0.19973497 -0.01449875 0.08591341 -0.082085915 0.058699455 0.05031346 -0.109960586 0.28479227 -0.21751988 -0.011572621 0.2257001 0.044513967 0.2909954 -0.15442559 0.04932768 0.05277071 -0.11035773 0.019633465 0.007517923 -0.16021486 0.015414545 -0.04327244 0.083360046 -0.01564359 -0.32800448 -0.07723327 -0.037013385 0.06066906 0.21233967 0.068605326 -0.12648319 0.098424435 0.12131937 0.2443071 0.1979869 0.03990873 0.08545666 -0.1341983 0.1741929 0.054892804 -0.09185706 0.39003986 0.072285786 -0.1010846 -0.042168636 -0.19728284 0.18077481 -0.10911528 -0.15628901 -0.046272088 0.06696438 0.19045119 -0.0888479 -0.09966634 -0.253654 0.17268002 -0.0649465 0.049599722 0.17139061 0.011746497 0.120651625 0.011756536 0.025226662 0.08029647 0.014892042 -0.04066815 0.040522184 0.05437116 0.029528208 0.39191425
594 0.058510028 -0.15582684 -0.04137083 -0.064902216 -0.18733057 0.18904218 0.04974699 -0.017091626 -0.11708158 -0.19151725 -0.46364933 -0.07190642 0.089669794 0.34438005 -0.03460807 0.31614324 0.10510048 0.12455732 -0.26776436 -0.2022713 0.03716316 0.055758923 -0.17466624 0.070262454 0.04787142 0.23672031 0.23716375 0.068488345 -0.040371366 -0.110528596 -0.29977122 0.11666035 0.17467137 0.0016461603 -0.27189732 0.036796108 0.019560223 0.16881417 -0.03331174 -0.20208195 -0.028014045 -0.0766232 0.14694078 0.17076066 -0.2019293 -0.027125651 0.052282166 -0.06338748 -0.15625295 0.16192116 -0.1911481 0.017712113 -0.2779615 0.17322473 -0.02288664 -0.070271604 0.08591915 -0.10677711 -0.17605515 -0.16398859 -0.20084214 0.068244375 -0.22869618 0.015793527 0.16338643 -0.2857966 -0.07360367 0.07351228 -0.08011758 -0.06207951 0.12246546 -0.1595955 0.20272328 0.12906827 -0.18045186 0.020575687 0.005715983 0.107282974 -0.07663025 -0.024789091 0.19136232 -0.004607266 -0.19720589 -0.09626793 -0.32651082 0.12385669 0.27382278 0.084243834 0.01087262 -0.06100527 -0.15714316 0.20239776 0.14609852 -0.12772684 0.10947045 0.06560509 -0.0677583 0.12945585 -0.15412137 0.105784446 -0.23990025 -0.014858361 -0.033168178 -0.052229527 -0.052556597 0.043187298 -0.07636989 0.03532482 -0.082517184 0.05059074 0.11421418 -0.08625452 -0.07725616 -0.2903904 0.058195684 -0.036802344 0.04468211 0.0405225 0.07015396 0.00942687 -0.024812125 -0.022946198 0.092925325 -0.06962019 -0.037928194 -0.1746665 0.13774082 -0.11315201
4024 -0.028501304 0.073631965 -0.075928375 -0.17563987 -0.24899915 0.16756082 0.022236891 -0.07645603 -0.080494046 -0.10264353 -0.13385157 0.06929934 0.18271346 0.067849815 -0.11581835 0.036733344 -0.07413038 0.019819213 -0.10248556 -0.065544344 0.0854532 0.047263056 -0.053973608 0.021695286 0.047535237 0.11930694 0.006008702 0.100822926 -0.032305866 -0.02355177 -0.13569675 0.08708916 -0.018261578 0.025434623 -0.16941379 0.048563436 0.0013457657 0.09956796 -0.01412021 -0.05449403 -0.019650055 -0.026076177 0.04807109 0.07273722 -0.062355097 -0.049820982 -0.0028645701 -0.004415467 0.044837162 0.013251592 -0.07448053 0.022635682 -0.11430505 0.12610906 -0.06540412 -0.00013574284 0.105402365 -0.16300568 0.0921863 -0.0945321 0.080362625 0.052416865 -0.059764452 -0.055883437 -0.09028663 0.06618846 -0.10893167 -0.038876235 0.017546115 0.03903554 0.10471087 -0.04952595 -0.00031828147 0.19940773 -0.042383958 0.040002827 0.029880024 -0.098553136 -0.024177242 0.11060006 0.03869025 -0.09772707 -0.047712084 0.15236586 -0.026482113 0.20747457 -0.007692609 0.18529904 0.09957772 -0.06677496 0.07521576 0.041711986 0.15610501 -0.03465031 0.1075565 0.09490214 0.060898103 0.07484013 -0.09616329 0.19578925 -0.02746142 -0.057612386 -0.032155667 0.0516544 0.017058108 -0.09980701 -0.06461038 0.050847966 -0.021888658 0.08581232 -0.052804645 -0.12859853 -0.028417151 -0.01862046 -0.029266736 -0.12152343 0.053938847 0.06646608 0.027497234 0.05484354 -0.14470936 -0.036082484 -0.041869476 -0.037886333 -0.040066034 -0.08512605 0.16042554 0.015475287
4035 -0.027241766 0.07616904 -0.021939186 -0.17227566 -0.25080365 0.19046693 0.04032178 -0.03126085 -0.027769022 -0.12043788 -0.18157527 0.10909773 0.18306436 0.11971042 -0.13955782 0.0033883809 -0.027974082 -0.033208497 -0.022890091 -0.11657574 0.13970129 0.1216398 -0.057700895 -0.0090978425 0.040656567 0.086604066 -0.079869926 0.15581301 -0.0050809397 -0.0705636 -0.10568578 0.14861564 0.015495152 0.038643517 -0.12224811 -0.06567939 0.116385825 0.065176584 -0.020253764 0.008257743 -0.0629658 -0.045505837 0.06744737 0.06308119 0.032545846 -0.053043757 0.0023519585 -0.03199169 0.08259 0.0085675195 0.074489705 -0.024777956 -0.040831592 0.14476906 0.00750433 -0.02554729 0.08357487 -0.11044364 -0.008374178 -0.12581208 0.09876185 0.038882073 0.024225388 -0.0064769164 -0.110193804 0.08769485 -0.04561174 -0.04214752 0.03773242 0.057339557 0.09470909 -0.08883271 0.032304816 0.10773953 -0.07006289 -0.01217648 -0.015395881 -0.083535865 -0.06618704 0.07008463 0.057967156 -0.06683939 -0.06545315 0.15246525 -0.004088032 0.081004806 0.017353889 0.16894107 0.036784656 -0.053184714 0.04939399 0.05821251 0.08353242 0.02937596 0.0455219 0.008830128 0.087507814 0.055041324 -0.03697464 0.15002388 -0.010684605 -0.08166909 -0.036761273 0.028648391 0.025014695 -0.19189191 -0.07495719 0.047007136 -0.059967794 0.038306072 -0.06966641 -0.15794258 -0.042880893 0.07498425 -0.06501863 -0.0251424 0.10199612 0.058735866 0.04012632 0.002446727 -0.13670523 -0.07335587 -0.008394925 -0.04784705 -0.07229944 -0.06368466 0.22101921 0.07802468
3993 0.2314027 -0.17400767 -0.01756837 0.15008028 0.1059696 0.19831215 -0.10304031 -0.11009046 0.00711461 0.0799505 -0.09095491 -0.09553683 0.2539413 0.12715587 -0.05776962 0.107918896 0.09035079 -0.0008940025 0.116208255 -0.029371453 0.124000475 0.07448155 0.036923885 0.3191936 -0.0138225285 0.2705192 0.08603232 0.03126327 0.043675832 0.11212255 0.1279688 0.12359837 0.16457738 0.1941374 -0.23504293 0.015516973 0.07546416 0.0073284297 0.06849301 0.07847737 0.042282123 -0.07695026 -0.0047071953 -0.015524823 0.00019047275 0.0061385166 0.057976656 -0.124490015 -0.11778892 0.02411509 0.24136531 0.13798763 0.0030754816 -0.11082249 0.050930806 0.05927763 0.029853353 -0.20873328 -0.14126225 0.06995947 0.03304651 -0.07698439 0.053613633 -0.010815275 -0.1573156 0.077374615 -0.16497582 -0.057355814 0.43632704 0.052116454 0.2603756 0.099734314 0.04635521 0.16742244 -0.078402825 0.18988012 0.030990208 -0.04654982 -0.0684388 0.07955061 0.13888738 -0.04109645 -0.1357978 -0.01794028 -0.09894433 0.2499301 0.16185695 0.13464287 -0.09254064 -0.15119211 -0.036381368 0.17958142 0.18818328 -0.0050758845 0.08819654 0.036683645 0.25963742 0.1927283 0.07382589 0.16122933 0.011555345 0.037328262 -0.06914832 -0.105751224 0.18817046 0.06908514 -0.15159495 -0.188439 -0.08626955 -0.09203461 -0.03239804 -0.10438424 0.21673782 -0.12470912 -0.021392921 -0.22495629 0.074830614 0.2375015 0.21432388 0.0010895322 0.14219157 -0.15628709 -0.037507806 -0.22566901 0.19221099 -0.13550952 0.16705602 0.08188167
4005 -0.2559204 0.103232555 -0.0074761836 -0.14543429 -0.067917116 0.0006230599 0.12006169 -0.19184725 -0.07475214 -0.13188572 0.09478944 -0.013391815 -0.080754384 -0.0041519357 0.088010885 -0.074393734 -0.24751906 0.028358668 0.0010025805 -0.14141074 -0.00027708252 -0.018618735 -0.091945685 0.13212395 0.18082952 0.16910088 -0.0720963 0.011825532 -0.1742967 -0.14601018 -0.1378768 0.04488663 0.00836095 0.16031893 0.06345149 0.2574835 0.03191428 0.051143162 -0.18547226 -0.19460675 -0.10110106 -0.10547737 0.08745905 0.03932651 -0.18649456 -0.2540829 -0.07136357 -0.0044168415 -0.014435516 0.15706629 -0.097904086 0.079622775 -0.19573003 0.12892798 0.13150737 0.09185361 0.09440145 -0.09636042 0.16072075 -0.09786061 -0.115243554 -0.1800887 -0.08416678 -0.009325184 0.037960704 0.013179465 -0.25787556 -0.08504946 0.19012697 -0.11517493 0.16394198 0.0039128684 0.0749944 0.057108764 -0.11442642 0.19350317 0.10593294 0.08065981 -0.037070263 0.17738691 -0.11384136 0.23271422 -0.08530832 0.09136547 -0.061575387 0.28561857 0.39739698 0.062118232 0.058141455 -0.04211223 0.14101002 0.100596346 -0.0045601865 0.17411438 0.32104537 -0.18577284 0.06155862 0.16235459 -0.080540396 0.2683929 0.07756603 -0.04180091 -0.09397454 -0.06707259 -0.046566565 -0.14220104 -0.040967993 -0.07235548 0.055365894 0.12639199 -0.027767489 -0.2151985 -0.19037043 0.16759631 -0.06377899 0.1744134 0.081147365 0.10595991 -0.0049996832 0.061536733 -0.18293986 -0.25842184 0.08240493 0.07249402 -0.2681621 -0.19440089 -0.04984708 0.08501963
3991 0.31919757 -0.07867164 -0.10620973 -0.033420336 -0.11924163 0.2799183 0.10667628 -0.106537625 0.1104548 -0.11353478 -0.449185 0.088262245 0.030052975 0.20724614 -0.12797871 0.16515133 0.029574066 -0.0015162881 -0.10477385 -0.14636713 0.11994548 0.36265856 -0.002971988 0.09726345 0.08757106 0.1469493 -0.0015326177 0.06742893 -0.034698702 -0.15463924 -0.1892862 0.13687497 0.099143684 -0.058935806 -0.21887746 0.014232421 0.09526668 0.18168534 -0.094781 0.06339759 0.021966936 0.04487256 0.18579829 0.11078858 0.010321869 -0.044454515 -0.011319058 -0.0990026 -0.16036075 0.059625164 -0.13012394 0.047272734 -0.14513867 0.14315751 0.043159097 -0.07674563 0.1953091 -0.045023557 0.0067340755 -0.05900522 -0.13462938 -0.040715046 -0.0009994059 0.09401664 0.07258244 -0.13796994 -0.02301152 0.055395175 -0.14823137 -0.044733826 -0.03509887 -0.0013769967 0.11282503 0.021648422 -0.13135281 0.027953882 0.0455392 0.118303485 -0.0697508 0.12865087 0.094849996 0.013823739 -0.11438196 -0.0003915084 -0.29140097 0.2117228 0.13127564 0.01616886 0.05196679 -0.19502883 -0.14649862 0.056154337 0.10924095 0.15446973 0.18786572 0.008626495 0.02912472 -0.0034518568 0.047239304 0.032410312 -0.078704245 -0.018951925 0.013664303 0.09503034 -0.09505997 -0.0824365 0.042918697 -0.026707744 -0.07087827 0.15533431 0.06911999 -0.15668182 0.067187406 -0.10718304 -0.06096704 -0.07414383 0.04755611 0.22364144 -0.008326031 -0.08359883 -0.15769339 -0.12734394 0.010064772 -0.10004991 -0.048471693 -0.19537582 0.09544386 -0.052773915
3996 -0.09354097 0.24850255 -0.016376693 -0.06684058 -0.25768906 -0.020068945 -0.078725025 -0.13799812 0.18830724 0.11708 -0.07204887 0.08382375 0.5188089 -0.15955345 -0.09011759 -0.07545942 -0.078114524 -0.09193397 -0.13326955 -0.09003973 -0.08153077 0.21841562 -0.30361634 0.24565192 0.04219825 0.26166385 -0.0528197 0.31173667 0.12976286 -0.041471474 -0.17490906 0.15905279 -0.12220095 -0.15078306 0.05363855 -0.23677158 0.22668639 0.0025551722 -0.09762545 -0.3428746 -0.36422318 -0.24789356 0.011006157 -0.04214283 -0.22695723 -0.037919637 0.16783519 0.07939115 -0.03608429 0.036795303 -0.0122043155 9.081918e-05 -0.10775494 0.23606032 -0.28487405 -0.16473742 0.03802212 -0.21513885 0.13357666 -0.0770331 0.097258694 0.10079162 -0.12545668 -0.08943758 0.022437505 0.3009865 -0.042836867 -0.075017154 -0.007595525 0.057582762 0.03482112 -0.2206572 0.12705755 -0.09614385 -0.033372637 0.199647 -0.15497191 -0.2995922 0.0028653292 -0.09992309 -0.043120015 -0.17330462 -0.04960023 0.06130902 -0.0590573 0.19519739 -0.0068456796 -0.05472302 0.23601823 -0.13479006 -0.093490325 0.017522952 0.24709088 -0.019756464 0.13067663 0.19429843 0.014430733 -0.20647822 0.050522752 0.0053527467 0.1958939 0.11039544 0.084815234 0.022875803 0.16299449 0.035382167 -0.30738306 0.31374422 -0.15071304 0.08705937 -0.06268553 -0.12216409 0.15457666 0.05930085 -0.008370346 -0.07860357 0.096180074 0.32706705 -0.037022687 -0.020329984 -0.3986175 -0.002968656 -0.26922876 -0.075905934 0.0196496 -0.19766012 0.15459104 0.066334024
3985 0.008850177 -0.22632562 0.06940758 0.020697514 0.06350996 0.21897498 -0.17808558 -0.033302277 0.0405041 0.0820432 -0.18378648 -0.19091675 0.41737106 0.16532865 -0.061495215 0.06861396 0.12473427 0.17783453 -0.0054375045 -0.0028969983 0.19336447 0.13899672 0.038369447 0.19314988 -0.027825547 0.14329384 0.025176335 0.20810576 0.124340795 0.25682527 0.13513151 0.07184414 0.1924206 0.23634103 -0.22594397 -0.10232102 0.17141348 -0.004535711 0.0032876967 0.1407803 -0.1123023 -0.059695933 -0.057825703 0.122679494 0.05441223 -0.057966568 0.12613577 -0.07653812 0.0022223538 -0.045564186 0.21818115 8.702207e-05 0.048734732 -0.043464653 0.08844428 0.10961709 0.025779398 -0.29544395 -0.17686644 -0.08156299 -0.008700016 -0.10850715 0.061701555 -0.07333679 -0.081203766 0.18257755 -0.1504153 -0.038836118 0.29896644 0.16211306 0.13164353 0.18438694 0.09173275 0.089727394 -0.017920457 0.23048873 0.10189896 -0.18475033 -0.0070176246 0.013383678 0.11315985 -0.012350634 -0.20318893 0.03651075 0.036207646 0.17845304 0.081043236 0.28140494 -0.12157877 -0.045024592 0.12648876 0.26421043 0.13479148 -0.022758944 0.001211556 -0.038420413 0.16489872 0.22536317 0.035752866 0.22649118 0.045767594 0.027618006 0.003580371 -0.12197956 0.1566802 0.06709772 -0.1261599 -0.09442867 -0.11943705 0.0031821136 -0.014299207 -0.18075159 0.099208936 0.028018348 -0.07828522 -0.18589242 0.114082575 0.04879311 0.13078906 0.051866174 0.19420198 -0.11506141 -0.07244076 -0.09978434 0.15955238 -0.010257045 0.1722219 0.13871782
4034 -0.061916724 0.09961756 -0.07847744 -0.027044104 -0.19673237 0.089795545 0.008078731 -0.16350272 0.012659756 -0.010225695 -0.11750715 0.15569156 0.21297158 0.070353575 -0.033198383 0.024517043 -0.065203376 0.08004058 0.01607945 -0.067144655 0.055062104 0.040923875 -0.016802669 0.18336606 0.022620665 0.23581742 0.03398761 0.13525812 -0.058964904 -0.005559689 -0.11968534 0.10205395 -0.02235002 0.044762116 -0.092049696 -0.11817173 0.20314094 0.011467138 -0.048130494 -0.14710447 -0.071221985 -0.10767389 0.08009624 0.01589116 -0.056435514 0.04788919 -0.0883668 -0.09052369 -0.0052634175 -0.07065274 0.00089154916 -0.03011278 -0.13489468 -0.012601255 -0.1458432 0.009659981 0.00581197 -0.0051377323 -0.018213239 -0.12681925 0.061268978 0.09787051 -0.112887576 0.019521907 -0.012889988 0.03138487 -0.09024873 0.00901539 0.020390065 0.1597136 0.2079433 -0.1851602 -0.004184148 0.23377973 -0.03126319 0.031271093 -0.107915334 -0.06925965 -0.05323268 -0.033821397 -0.04631858 -0.022112435 -0.0012201847 0.17853251 -0.013477195 0.07671618 0.032744903 0.031008504 0.01254192 -0.02354202 -0.066838525 -0.021286279 0.26402414 -0.08695644 0.1399121 0.07768155 0.13456853 0.10560015 -0.025521416 0.2674052 0.004802634 0.017022558 -0.13653941 0.050928894 0.08827328 -0.021617975 -0.097144976 -0.021565698 -0.12290559 0.058940213 0.020892235 -0.13383202 -0.019944701 0.036908958 -0.04653151 -0.071398675 0.0107416725 0.19645175 -0.0002038051 0.01640536 -0.12577148 -0.019779405 -0.01206094 -0.07500616 -0.07434731 0.036046278 0.06971783 0.06923556
4028 -0.20615031 0.27972692 -0.020205367 -0.13799043 -0.122866295 0.064119495 -0.0437569 0.022703925 0.09183041 0.019634647 -0.1365551 0.017750653 0.35401997 -0.047863 -0.15059805 0.099722445 0.14425941 -0.0001779676 -0.14373219 0.026965711 0.06791283 0.17752232 -0.13360581 0.16590889 0.17587356 0.24779648 -0.0134291295 0.17694959 0.16778523 -0.05611861 -0.20166534 0.11849821 -0.005339158 -0.15914552 -0.038648628 -0.13467072 -0.0068823365 -0.1751119 0.15622652 -0.20368277 -0.20869833 -0.08201478 0.0066881175 0.1617662 -0.20028657 -0.08546556 0.20382987 0.005930258 -0.079472885 -0.0150256045 -0.12329397 0.16385604 -0.35776997 0.33866978 -0.31396183 -0.15113863 0.101324335 -0.09692903 0.13669105 -0.062734485 0.11388249 0.1573876 -0.017890755 -0.14443602 -0.07893346 0.2887414 -0.1736459 0.12752858 0.012804358 0.13389692 -0.0041823015 0.0068482296 0.042951737 0.16171283 0.026807511 0.33576107 -0.026293144 -0.23072611 0.01045252 -0.073547095 -0.09293523 -0.024445636 -0.07607184 -0.056908205 -0.011364021 0.2926273 -0.12764494 0.12404227 0.20846708 0.019292003 -0.037458684 0.13882709 0.15466107 -0.0057450724 0.019143535 0.164783 0.048781287 -0.173254 -0.023871077 0.014077524 0.04509 0.09936921 -0.026090045 0.081396736 0.044623245 0.05394661 -0.24046385 0.21519436 -0.24449533 0.11488857 0.17412667 -0.24198002 0.28744465 0.07748125 -0.17035377 -0.10882335 0.013497815 0.14963171 -0.10889102 0.015916184 -0.22951932 0.19235113 -0.2872933 -0.13544814 -0.028666057 -0.040762495 0.22605138 -0.06365721
3983 -0.26082194 0.16102037 -0.02496944 -0.045489434 -0.13210063 0.16604774 0.008672663 0.08951484 -0.008692473 -0.07421723 -0.3253547 0.07284046 0.0073468583 -0.03937706 -0.05814657 -0.0855174 -0.020990694 -0.058759622 -0.032419614 0.026563203 0.20848735 0.1670932 -0.050024707 -0.09076613 -0.0760233 0.2264348 0.038748883 0.19375795 0.040646903 -0.108116314 -0.105799176 -0.07325672 0.14645801 0.038577944 -0.07096556 -0.1527585 -0.04375979 0.2363005 0.03321564 0.032905232 -0.19438927 0.12883523 -0.07622131 -0.015750123 0.045240287 -0.058722302 0.06584335 0.0016114808 0.16474281 0.09283382 -0.06868139 0.047302265 0.021235652 0.07502165 0.043829925 -0.0017360062 0.100184426 0.038512263 -0.038525276 0.06745749 0.075838864 0.014365647 0.01033039 -0.10150086 -0.14995027 0.30516538 -0.13015103 -0.018282324 0.04594014 -0.015350705 0.12032002 -0.17120679 0.090748794 0.0012107025 -0.22928202 -0.12888318 -0.032978486 -0.19635773 -0.011069352 0.039754685 0.09616747 -0.15148555 -0.22433731 0.12432204 -0.10321779 0.14464077 0.018663228 0.17518741 -0.028094744 -0.00381863 0.15126546 0.26178414 0.21281338 0.17363128 0.016194336 -0.09273874 0.12530415 0.16163616 0.0011968206 0.3111135 0.0028482939 -0.15283567 0.1428023 0.06321882 0.010249453 0.015470227 -0.072541036 0.08217261 -0.08717673 0.083660826 -0.03459493 -0.17820801 -0.21623579 0.110877626 -0.0067614843 -0.12849927 0.22290252 -0.048419546 0.08560786 -0.061370175 -0.15731856 -0.044262573 0.0058699944 -0.045028243 0.08435273 0.036491424 0.015851906 0.25642192
4011 0.008800042 -0.12779064 -0.058792006 -0.040923197 -0.23334 0.10654878 0.014865564 0.19256754 0.07494207 -0.1523653 -0.25410858 0.05068788 0.14183308 0.21963009 0.12543848 0.2564433 -0.080077685 0.02745867 -0.075176984 -0.081530616 -0.12125441 0.13077508 -0.21642359 -0.011618428 -0.13278836 0.23620284 0.24664734 0.07486701 0.053709842 -0.25369027 -0.3332006 0.113185205 0.08518974 0.016473271 -0.23564078 -0.11555838 0.069630176 -0.018896088 -0.118778445 -0.21207291 0.0045767496 0.045752376 0.17599246 0.16654137 -0.26749855 -0.025906129 0.0047816862 -0.018123565 -0.011228896 0.08762787 -0.1618202 -0.0067070555 -0.04190492 0.116895534 0.16400094 -0.007262737 0.28624925 -0.23590182 -0.078237675 -0.08012245 0.020752259 -0.022365173 -0.16258769 0.115515694 -0.012481192 -0.14981562 -0.00519774 0.15354042 -0.14293659 0.12608974 0.019510724 -0.17662743 -0.026532734 0.10382263 -0.05960239 0.08990267 0.25853834 0.07220137 -0.1280078 0.089475706 0.051606156 -0.036928598 -0.25170034 -0.045263555 -0.3232504 0.1998218 0.15021285 0.26080355 -0.027804563 -0.13318688 0.014423036 0.08045429 0.18911597 -0.19534367 0.08065452 0.1253124 0.09682891 0.25991848 -0.06974209 0.22469182 -0.07185953 0.22550315 -0.1576701 0.051058583 0.059267487 0.13367273 -0.028307084 0.016139647 -0.026708761 0.248519 0.021085776 -0.13261448 -0.23117788 -0.21452084 0.08870222 0.091649786 -0.007643648 0.07876417 -0.056645814 0.18363056 0.0051511033 -0.0736722 0.2100099 -0.08385758 0.07209875 -0.30730316 0.2104493 0.08845908
3984 -0.03791851 0.08741687 0.0102403425 -0.08961384 -0.1686158 0.076000296 -0.05921481 -0.03876727 0.027251007 -0.02786984 0.01254732 0.09575007 0.19603537 0.09732301 -0.08546333 0.08575477 -0.04414374 -0.023219874 -0.15276209 -0.16707407 0.049297713 0.058751788 -0.14795215 0.04047222 0.09309409 0.108080074 0.047410537 0.21710497 -0.03216992 -0.014185727 -0.09584377 0.09946979 -0.042950675 0.055975676 -0.075832434 0.015015593 0.1078618 0.123022765 -0.1600073 -0.10947112 -0.06620677 -0.11587731 0.1228195 0.1671174 -0.08454392 -0.15499316 0.025482826 -0.0039696004 0.084663995 0.15040904 -0.0675105 0.038051113 -0.11257796 0.2676052 -0.09023282 0.046414785 0.092145726 -0.19491418 0.099242985 -0.1727737 0.027711455 -0.021236476 0.00067448255 -0.07187319 -0.020576626 0.15965801 -0.056132134 -0.087836154 0.01620339 -0.019769022 0.089879006 -0.0412711 0.042375155 0.047653828 -0.06342555 0.049279295 0.011536858 -0.17612247 -0.03552976 0.09582713 0.003085125 -0.027177224 -0.015605449 0.13610446 -0.016079448 0.19694445 0.105375744 0.21672483 0.0701025 -0.09702376 0.033105623 0.0032906253 0.06251817 0.0598515 0.12774913 -0.03007856 0.05720223 -0.025179524 -0.030351983 0.10796635 -0.015299893 -0.051506307 0.06300692 0.03971259 -0.0020022313 -0.15452679 -0.09806637 0.12958619 -0.0022781675 0.08034574 -0.0828899 -0.09362226 -0.05340748 0.07443867 -0.038395584 -0.088867694 0.06116005 0.08857488 0.029160675 0.015513674 -0.15189141 -0.15941851 -0.019231696 0.015278834 -0.023649042 -0.07853827 0.14456818 0.008184983
4015 -0.19549659 0.1504363 0.027596494 -0.115178995 -0.14083067 0.1547341 -0.04310016 -0.042415407 -0.06847914 -0.043590154 -0.0104615 0.07330954 0.1607373 0.055788063 -0.12251071 0.015458299 -0.013849185 -0.03039103 -0.02419984 -0.07504892 0.18988635 0.13572173 -0.012020532 0.013966129 0.13418372 0.09177037 -0.096116096 0.18147367 0.0049410868 -0.032798026 -0.11030205 0.076403916 0.032691807 0.064625375 -0.08319953 -0.01877899 0.05322425 0.07728504 -0.032186408 -0.023211014 -0.022015316 0.007686132 0.07868345 0.1005087 -0.047547102 -0.098873086 0.011591062 0.01401254 0.14001693 0.045109794 -0.053942353 0.07251152 -0.09215979 0.2001902 -0.08129908 0.015238165 0.12345176 -0.07057451 0.074608095 -0.10426094 0.13743238 0.07952301 0.042302 -0.1316422 -0.18005902 0.19478886 -0.110744886 -0.05492681 0.05567711 0.09011825 0.08237672 -0.02952787 0.010419202 0.15835033 -0.0033589161 0.0025281652 -0.017319962 -0.15139475 -0.03363672 0.10215965 -0.055336114 -0.071441896 0.004276919 0.15576246 0.024769712 0.13543075 -0.045179285 0.22855183 0.05856058 -0.04428698 0.077638075 0.014666495 0.112018764 0.019802371 0.14356759 0.04066984 0.13240705 0.04773934 -0.12926833 0.20241985 -0.04737577 -0.013881003 0.016189773 0.050794404 -0.06872892 -0.16759752 -0.09706417 0.12286794 -0.06305467 -0.012092135 -0.010626492 -0.14393458 -0.081728354 0.1677783 -0.10246961 -0.057576988 0.10230422 0.052397102 0.043590304 0.06736466 -0.13425829 -0.013066959 -0.08953136 -0.010187001 -0.06838486 0.051468514 0.11415437 -0.0014045031
4032 -0.044665333 -0.00184586 -0.0044656517 -0.14243656 -0.14328124 0.17425486 0.014601318 0.014522686 -0.063750334 -0.15117128 -0.13047549 0.06142304 0.14817263 0.21445741 -0.062075038 0.0689381 -0.061777566 -0.013315927 -0.051887617 -0.15250002 0.18416819 0.062358957 -0.04977917 -0.061965216 0.055284336 0.0036847603 -0.033195022 0.12946182 -0.0057285386 -0.05618154 -0.10996572 0.15740417 0.03998703 0.08766215 -0.115323626 0.01609766 0.07637693 0.07158179 -0.11600124 -0.027904985 0.030998485 0.013693019 0.07523031 0.13200855 -0.017795827 -0.1759652 -0.01215068 -0.0364103 0.12943451 0.06366404 0.0028524732 -0.03414827 -0.06813261 0.22296627 0.013624068 0.019474866 0.102396406 -0.1540546 -0.009940024 -0.1729619 0.058976747 0.011220021 0.017466757 -0.03457019 -0.11451445 0.08748373 -0.082292475 -0.09695791 0.06762174 0.014607739 0.15320767 -0.06504858 0.059918195 0.11006261 -0.061317887 -0.030436506 0.11947854 -0.13526948 -0.08845366 0.1458303 0.13124247 -0.0023891642 -0.11612382 0.17757595 -0.0101601435 0.09268363 0.079475656 0.29592505 0.046697248 -0.08627833 0.09785188 0.052654143 0.017088506 0.032013346 0.06528121 -0.035654385 0.04739925 0.06350998 -0.17751732 0.18518217 -0.11059207 -0.05710363 -0.06665256 -0.066695355 -0.07609206 -0.24485296 -0.040316917 0.075727195 -0.0033192188 0.033213034 -0.05665873 -0.099463716 -0.16419826 0.031322114 -0.030978844 0.03075871 0.07701632 -0.033514924 0.0400871 0.10130159 -0.06344023 -0.07192274 0.05400523 -0.03251398 -0.03505573 -0.009583399 0.19461946 0.07127212
4010 -0.051713083 0.05269277 0.008054016 -0.25112933 -0.22440785 0.14637116 -0.034574494 -0.063600436 -0.046711702 -0.074583136 -0.06081235 0.096710846 0.22635594 0.1528276 -0.14913425 0.08302861 -0.032382365 0.00515211 -0.07443486 -0.20073569 0.16727607 0.13939959 -0.011529706 -0.0073635397 0.104116865 0.014819108 -0.0112971105 0.121002 -0.09776734 0.0029201827 -0.16290398 0.15605098 0.0065016137 0.10473032 -0.1794412 0.007357116 0.16172017 0.07622659 -0.0737853 -0.11837444 0.009747855 -0.081174046 0.1764355 0.14919677 -0.075007536 -0.053035755 -0.03213248 -0.02324497 0.0541209 0.111167446 -0.004898342 -0.016904857 -0.061191816 0.16266884 -0.016721496 -0.03209411 0.10539138 -0.15621938 0.054953028 -0.24051794 0.044310525 0.034566466 -0.035778638 -0.026086614 -0.08567885 -0.010044016 -0.04300735 -0.0685665 -0.03926924 -0.030681904 0.069348805 0.01321736 0.018032541 0.08055995 0.0068640844 -0.021949805 -0.05679618 -0.08155954 -0.0454601 0.10629679 0.06536617 -0.08294777 0.048481535 0.19367707 -0.017414914 0.14853625 0.04563735 0.17617024 0.10134171 -0.12826498 0.044116292 -0.039339084 0.025823357 -0.061818164 0.13322161 0.047294945 0.022421302 0.07345492 -0.14770661 0.112768576 -0.10149745 -0.010465791 -0.073528476 0.014886151 0.006161894 -0.20458883 -0.02871186 0.02331239 0.043841798 0.06362839 -0.04336755 -0.079229735 -0.10886147 0.002990087 -0.0722735 -0.07067564 0.040239073 0.010088459 0.06610089 0.076539725 -0.12528363 -0.069673225 -0.01899187 0.008269972 -0.132956 -0.037234567 0.19942933 -0.11928948
4006 0.035133105 0.32066518 -0.014247062 0.102339685 0.303572 0.004698392 -0.0864284 -0.048130136 0.41129395 0.13689023 -0.045714326 0.43276677 -0.038535297 0.24945025 -0.06748971 0.17751628 0.19220391 -0.1406367 0.01684377 -0.27432194 -0.036547426 0.065945305 -0.08359906 0.2431851 0.15117724 0.36283213 0.2945445 0.111888066 0.018592045 -0.07518554 0.1891291 0.1120563 -0.10468063 -0.07389268 0.22826096 -0.3253995 0.30398074 -0.016449414 -0.12769145 -0.15484703 0.009308799 -0.33193976 0.25797972 0.17816141 0.05301954 -0.25285757 0.0457966 -0.2146407 -0.0894342 0.2226022 0.100114964 0.044413496 -0.16446382 0.057373255 -0.14948164 -0.0069201924 -0.05135471 0.23538822 -0.12069055 -0.20452495 -0.30379865 -0.04195978 0.129685 0.21260862 0.118807636 0.16356604 -0.07001323 0.07749924 0.09065231 -0.052376762 0.33162376 -0.10146288 0.1727433 -0.037213236 -0.23688446 0.02932436 -0.16894211 -0.006135147 -0.11011192 -0.045595862 0.14606446 0.0462785 0.07456193 0.09027005 -0.1722814 0.1191403 0.10372287 0.10822168 -0.07305278 -0.213811 -0.22474797 -0.0941255 0.111273415 0.4213486 0.25958744 -0.0548668 0.2382423 -0.23675051 0.06957041 0.06790816 -0.026598904 -0.096892275 0.043993227 0.15419014 0.11605543 -0.09975658 -0.24907297 0.03997277 -0.06136217 0.23443185 0.16558646 -0.15653537 0.20855714 0.108642235 -0.074105985 -0.20900488 -0.0056279735 0.20562367 0.063218154 -0.20230225 -0.17213687 -0.27441314 -0.0017389749 -0.18101099 -0.09167979 -0.012141071 0.3021748 -0.15668955
