64 128
830 0.13038768 0.042612355 0.3362072 0.20152669 -0.07225077 -0.0031720896 0.015460404 0.007069307 0.18052454 0.22247773 -0.030214814 0.0094690705 0.09038421 -0.027987354 -0.090141214 -0.044075817 0.060266096 0.014154137 0.06258814 -0.004994584 -0.069513746 -0.052454032 -0.026161917 0.06206032 0.09060372 -0.10571004 0.09666946 0.09882494 -0.10337113 -0.030727642 -0.068155296 -0.19109963 0.1328585 -0.2408758 -0.059051238 -0.023157727 -0.073053 -0.06954691 -0.017329354 -0.026731381 0.077671826 0.035357926 -0.009072119 0.22763926 0.20000772 -0.045063864 -0.038679227 -0.10104756 0.050981473 -0.06386313 0.01662682 -0.120748624 0.08102962 0.051632494 -0.107087165 -0.106530026 0.006634563 -0.12583944 0.03601474 -0.07209791 -0.09823423 -0.04930668 0.2536856 -0.15959564 0.1641493 -0.1758006 -0.004051929 -0.19971319 -0.0056734793 0.030436143 0.06469454 -0.03484371 -0.08854245 -0.063907616 0.058871314 -0.055274144 -0.07817382 -0.017605161 -0.098652735 -0.1385814 0.1322382 -0.085411586 0.066900276 0.08523363 0.037048794 -0.06715339 0.11117121 -0.02277014 -0.0036843012 -0.0019228418 0.16356157 0.0028656495 -0.04047579 -0.06486934 -0.050521377 -0.022295855 -0.14695463 0.0058573326 0.011925347 0.16070867 0.003375635 0.34146494 -0.0652936 0.0063770358 -0.06259128 -0.2444488 -0.0020780037 0.0112667475 0.06163639 -0.036092117 -0.08185937 -0.042905763 0.0043884004 -0.12469729 0.035605397 0.025011871 -0.04414827 0.016048508 0.08289867 0.05219621 -0.062601075 -0.043774962 0.16215488 -0.12120839 0.10740448 0.068091825 -0.045796778 0.20288402
698 0.070869565 -0.10743341 0.37864417 0.17275555 -0.1149392 -0.06884646 0.015534572 0.09540367 0.0037947032 -0.00035649823 -0.13496968 -0.07906485 0.039732963 -0.052434698 -0.1848293 0.04766014 -0.1044711 -0.055378206 -0.06822017 0.015022139 -0.024498401 -0.013010558 0.015303617 -0.10324294 -0.036203444 0.04013795 -0.087740585 0.0058149123 0.024164697 0.09701742 0.07530732 -0.046423767 0.066278875 -0.076290496 0.01106825 -0.12903565 -0.0015314635 -0.07031727 0.017265972 -0.08606762 -0.018470647 -0.058299895 0.03113532 -0.005084205 0.20745638 -0.10064802 -0.005772415 0.045541957 0.00823777 -0.05009169 -0.20339516 0.050315596 0.013968083 -0.061207723 -0.086537085 -0.06352302 -0.056300152 -0.059707582 -0.0095997695 -0.10533564 0.026386004 0.025516955 0.17579298 -0.07599166 0.072824776 -0.065988936 -0.017813556 -0.08529617 -0.054615438 0.06698474 0.05534738 -0.10258106 0.027150474 -0.006814339 0.028225625 -0.022738481 0.028716378 0.04593163 -0.07936519 -0.13276465 0.077085726 -0.106885076 0.16343205 0.19201711 -0.15549369 0.0023355987 0.05075885 -0.038822617 -0.123465836 0.021286458 0.09690934 0.10956906 -0.0016248547 -0.04450425 0.058963574 -0.024130655 -0.17076375 -0.09383782 0.053806704 0.10554922 0.009540407 0.080726065 -0.105877 -0.008387348 0.096388154 -0.0864051 -0.07492284 0.065773524 -0.027991405 0.03374548 0.04961685 -0.03267904 -0.035146426 -0.03575633 0.057232372 0.027339404 0.16432384 -0.06671486 0.047383912 0.12454279 -0.034334537 -0.16159125 0.08290103 -0.022304991 -0.06645779 0.17700551 0.07939899 0.15376407
856 0.054041326 -0.1320141 0.1824497 -0.027176332 -0.24942657 0.11160406 0.090593114 -0.12944567 0.1921673 0.17010841 -0.036830023 -0.098310955 0.044390146 0.07552893 -0.20287365 0.08306557 0.06931532 -0.13616376 -0.06711552 0.048441682 0.037879158 -0.18826646 -0.026893094 0.1030948 0.06703569 -0.012510758 0.10008365 0.18937404 -0.10072834 -0.029908916 -0.11403955 -0.10653978 0.07542741 -0.17929532 -0.06185063 -0.09795998 -0.034793194 -0.097307585 0.007104815 -0.025618685 0.030616665 0.12941532 -0.058528572 0.074712016 0.2170817 -0.023651015 -0.020595413 0.031075645 0.0008856731 0.019615306 -0.0054406286 -0.13740419 -0.010612904 -0.07486401 -0.06328253 -0.08247499 0.11979016 -0.18223596 -0.05516422 -0.09415039 -0.038731907 -0.1056116 0.1873267 -0.07056968 0.07861309 -0.17564313 -0.014879378 -0.1802234 0.033437792 -0.08915779 0.08518613 0.061411988 -0.13950488 0.04137977 -0.10350605 0.049554277 -0.075463444 -0.053306922 -0.049070794 -0.07930861 0.11621212 0.042721026 0.044026095 0.15334934 -0.12131124 -0.105772465 0.0017047889 -0.033622414 -0.09157711 0.04599798 0.112294786 0.10366749 -0.17171791 0.0015339174 -0.0056415694 0.016971547 -0.07377075 -0.108848296 0.061398465 0.14309481 0.07740458 0.11168213 -0.07493529 -0.03552977 -0.07125791 -0.13339679 0.08064655 0.18876895 0.052810285 -0.020332316 0.023045238 -0.05120832 0.14561212 -0.018961377 0.0073464024 0.1847842 0.06365844 -0.044578273 0.07900028 0.12175273 -0.049306344 -0.16032712 0.18298815 -0.09927169 0.017479774 0.15322849 -0.02348779 0.11668649
774 0.08335401 0.023648385 0.2672354 0.015342878 -0.096530005 0.09858091 0.035313487 0.046598803 0.17894013 0.22916919 -0.07852577 -0.015742453 0.13328049 -0.068663694 -0.10662513 -0.015949806 0.029490832 0.017807612 0.040511295 -0.0556896 -0.085051715 -0.096271455 -0.04578653 0.119814985 0.10162281 -0.06689862 0.1186217 0.116418935 0.02311554 0.017259922 -0.050730873 -0.18240511 0.110449 -0.21912113 -0.066595204 -0.09470566 -0.11005729 -0.12961829 -0.027527064 0.020018075 0.038954917 0.15107128 -0.047054604 0.11984857 0.25397837 -0.071791396 -0.06804864 -0.058162335 0.104055844 -0.038343906 -0.030984405 -0.078040995 0.05091478 -0.0105416 -0.06796515 -0.1511099 -0.062317718 -0.009269357 0.02596711 -0.09608273 0.0036704391 -0.111411765 0.22323866 -0.086214304 0.12703718 -0.16489202 0.11575002 -0.21093442 -0.06620209 -0.071938924 0.0037037306 -0.11357575 -0.07472962 -0.076434374 0.027778072 -0.08538987 -0.14099418 -0.07062414 -0.118953705 -0.03039793 0.13000497 0.012558526 0.08156833 0.107949674 -0.0023522556 -0.11006085 0.19155836 -0.047010805 -0.068745844 0.08986999 0.2539245 0.07060032 -0.0023052702 -0.027949845 0.017465247 0.008152351 -0.15442549 0.05970003 0.10078955 0.20397364 -0.0005107938 0.29000813 -0.13947973 0.12616307 -0.18559551 -0.27444953 0.010153307 0.06044807 0.07117028 -0.03149618 -0.06409504 -0.12337003 0.07621351 -0.12782961 0.02526065 0.029164013 0.033479128 0.0076819416 0.059864286 0.0762564 -0.01546129 -0.058773395 0.27763036 -0.10616329 0.016070925 0.09426043 -0.042945806 0.061155293
840 0.027606407 0.058688525 0.037565053 0.107644744 -0.09906907 -0.031364653 0.047573105 -0.042864405 0.19163863 0.24672575 0.0026196644 -0.045557767 0.09911368 0.00036042318 -0.11294956 -0.0076026404 0.083806425 0.064544916 -0.017924832 -0.02681638 -0.09029464 -0.11384892 -0.059097145 0.042026155 0.07215943 -0.049736395 0.04944356 0.11908388 -0.04815399 -0.065673776 -0.14662357 -0.1611441 0.122489706 -0.2802156 -0.1602957 -0.13058448 -0.11753095 -0.10487449 -0.09518936 -0.035185475 0.09508932 0.0733147 -0.028040538 0.18624212 0.2688409 -0.08412406 -0.12659204 -0.08287446 0.14892145 -0.09634606 0.024382435 -0.13259274 0.054190006 0.036359258 -0.10638508 -0.18441772 -0.07750633 -0.0675479 0.11507855 -0.17093757 -0.04296405 -0.038706444 0.19767289 -0.0905646 0.18527322 -0.13726689 0.020330165 -0.17417969 0.063993126 -0.0136584435 0.05456628 -0.1605569 0.008345813 -0.05690251 0.15827772 -0.055646457 -0.0996761 0.0056530256 -0.08297529 -0.11146174 0.1714015 -0.03174151 0.0996127 0.11101331 -0.035717964 -0.14900577 0.18512516 0.01937164 -0.059866767 -0.02466371 0.36423048 0.09680713 -0.07394336 -0.07866031 0.035351705 -0.0067910277 -0.17356546 0.08472878 0.057338335 0.26137096 0.013870128 0.31127596 -0.07644009 0.032872617 -0.05012267 -0.24027966 -0.0055720094 0.07857345 0.11133577 -0.08186331 0.027349211 -0.14946122 0.05902378 -0.03482968 0.017790224 -0.04574049 -0.011175175 0.0072619724 0.115037344 0.03197764 -0.06553011 0.006074924 0.23911843 -0.09377929 -0.021286037 0.07450512 0.04873197 0.22372665
747 0.2126207 -0.01476023 0.16108294 0.17104004 -0.07294835 -0.054388873 0.011887443 -0.058429364 0.021497667 0.30017063 0.06348665 -0.085966565 0.19352084 -0.07710658 -0.0913574 -0.11166046 0.031473935 0.08756789 -0.03092052 -0.09313354 -0.057798818 -0.1348464 -0.018641848 0.02013275 0.055068232 -0.14154974 0.053375036 0.19170058 -0.08521411 -0.075160325 0.04167124 -0.19315791 0.03124303 -0.27284244 -0.003435656 -0.14183143 -0.055882804 -0.12692237 -0.065898255 -0.0903617 -0.05712307 0.056042332 -0.062299106 0.14659223 0.27884662 -0.055886142 -0.017662968 -0.096647285 0.06373294 -0.106065735 0.022703715 -0.0768084 0.052163225 -0.058778726 -0.119772054 -0.19192223 0.026368162 -0.085479796 0.041729767 -0.0064237528 -0.04187501 -0.040337455 0.2677411 -0.091793016 0.29415643 -0.15851459 0.052025262 -0.2770217 -0.03737502 -0.037736572 0.115907826 -0.11710758 -0.023205949 -0.1320747 0.07139906 -0.05762162 -0.08964508 -0.0012062707 -0.0641642 -0.07151034 0.055558704 -0.013906865 0.10170613 0.07469719 0.013680257 -0.16934565 0.050308686 0.023986159 -0.063610695 0.112294 0.22943062 0.07119455 -0.07383408 -0.048971653 0.08588938 0.10754518 -0.10957782 0.01970316 0.034987286 0.16606069 -0.024224903 0.21111138 -0.08182039 0.016836371 0.064159974 -0.15667225 -0.03661424 0.024763994 0.13764933 -0.046354745 0.042662892 -0.11114691 0.02643789 -0.029837403 -0.07091306 0.016835475 -0.06834193 0.016012937 -0.01757932 -0.016817918 0.06388982 -0.053984355 0.23766616 -0.14505365 -0.011062579 0.17189841 0.04788945 0.2016934
697 -0.014250233 -0.0055085947 0.1928342 0.0988155 -0.07904189 0.1430221 0.09651661 -0.087490566 0.1685178 0.20839703 -0.014865496 -0.09794127 0.11404847 0.00016710353 -0.088896915 0.030260442 0.050964404 0.005156536 -0.06713658 -0.067346215 -0.1792239 -0.05653278 -0.0445472 0.00045674288 0.045938864 -0.027069494 0.054579116 0.13759583 -0.08298274 0.028200129 -0.035901908 -0.18863665 0.0685654 -0.17187554 -0.07660176 -0.09665542 -0.092344426 -0.11061958 0.00063983287 0.029671574 0.060551453 0.044224165 0.025835196 0.13168435 0.20992255 -0.09796568 -0.030763222 0.00097428734 0.14063427 -0.09378554 0.038135104 -0.12053647 0.09190295 0.05433605 -0.06172488 -0.14600688 -0.13473932 0.037243005 0.10885796 -0.016245756 0.020573106 -0.06141212 0.2026384 -0.09543027 0.21088995 -0.09085736 0.058569334 -0.08382827 0.014196725 0.041778594 0.008116783 -0.1036814 -0.030104568 -0.0063017877 0.10834053 -0.09106734 -0.115966305 0.031605735 -0.11862269 -0.058974583 0.13061637 -0.08740288 0.103650175 0.19455957 -0.031129219 -0.10505381 0.10803488 -0.0637024 -0.105171114 0.0405872 0.26821175 0.015360088 0.0017645678 0.007604162 -0.008331154 0.027075015 -0.11805324 0.04615443 0.09459442 0.15361725 0.089762524 0.24312957 -0.11846367 0.1181479 -0.10569528 -0.18861485 -0.0028408938 0.17462143 0.07897502 -0.030853821 -0.07381104 -0.11257306 0.030696327 -0.03413689 0.04844355 0.004199782 0.046976816 0.04176239 0.066032015 0.0650851 -0.040074814 -0.03705664 0.23033041 -0.1404359 0.012816972 0.03931715 -0.040182784 0.09782694
800 0.037225496 -0.011686037 0.17365634 -0.042353995 -0.026486885 -0.0020035713 0.011046343 -0.031126188 0.3134156 0.390608 -0.035467867 -0.012703712 -0.047808986 -0.03813924 -0.15610538 -0.01867987 0.08486102 0.011058058 0.02206712 -0.044382386 -0.015383763 -0.11739178 -0.079120375 0.12509406 0.088845946 -0.1302216 0.08111791 0.14399011 0.063510075 -0.053265136 -0.08847313 -0.18844083 0.14631285 -0.20747697 -0.11219959 -0.10052133 -0.118435405 -0.082624815 -0.03360928 0.036625244 0.006655844 0.11730896 -0.045636714 0.13805941 0.37398165 -0.02644523 -0.024896711 0.0027218598 0.083748884 -0.09928247 -0.01828554 -0.16767362 0.087043785 -0.07098011 -0.10725241 -0.1172282 -0.028838927 -0.14337586 0.004167993 -0.11140878 -0.03548073 -0.14797276 0.200063 -0.10071691 0.14967598 -0.19094867 -0.10549129 -0.16391277 0.0119787 -0.0746974 -0.037680287 -0.032290697 -0.087177545 -0.020886583 -0.0615595 -0.034407675 -0.18017781 0.06759133 -0.11563923 -0.03612373 0.049640406 -0.105643526 0.06655225 0.037233543 0.01577747 -0.09226524 0.18503259 0.037798245 0.0099970065 0.14595424 0.23204234 0.07624681 0.014015558 -0.03267913 -0.021210862 0.14309345 -0.18015337 -0.061301395 0.07811687 0.19384074 -0.014979285 0.14243896 -0.066279896 -0.028233241 -0.10188557 -0.16771424 -0.0041693337 0.0013440239 0.08578314 -0.07077679 0.044904813 -0.037476834 0.09368202 -0.10541756 0.03688375 0.025341943 0.010284829 -0.010728513 0.04150411 0.055592127 -0.0955332 -0.109290645 0.1707131 -0.06578701 0.023942275 0.23585796 -0.0073568057 0.1826934
753 0.053027328 -0.12722652 0.008867727 0.16282737 -0.103364676 -0.011868195 0.16510639 -0.1797167 0.07305711 0.26128682 0.105553314 -0.07319384 0.20900737 0.06166109 -0.11403591 0.124124005 0.071125574 -0.0757024 -0.052245297 0.018300723 -0.006382069 0.019315103 -0.050372045 -0.030127674 0.121504344 -0.06561002 -0.06084643 0.11378404 -0.08733374 -0.06478714 0.024880094 -0.15089275 -0.031552553 -0.09650914 0.14262325 -0.031675853 0.060895972 -0.043554604 0.17176 -0.12796572 0.067057915 0.09014142 0.030867878 0.027067974 0.27959916 -0.02416512 0.022876384 0.021464169 0.0671071 0.014211168 0.09528431 -0.07235781 0.09093936 -0.032954454 -0.10495877 -0.14731693 -0.04282929 -0.014373694 0.06236771 -0.10925781 -0.021894228 -0.008523096 0.2612299 0.05165851 0.12119899 -0.050036337 0.03953738 -0.18623993 -0.015798312 -0.1506312 0.18973531 -0.02401983 -0.08872107 0.09026815 -0.055036627 -0.034333445 -0.14716692 0.049091157 -0.03957062 0.050983895 0.087418854 -0.034664616 0.1401255 0.11108021 -0.044591784 -0.11826273 -0.021682722 0.08009215 0.029494021 0.17373064 0.21036491 -0.00573871 -0.08778181 0.009051066 -0.049704783 0.054153576 -0.15991771 0.052501615 -0.07958111 0.11959766 0.12530003 0.1292781 -0.13501637 0.028591642 -0.028128803 -0.17635517 0.04426909 0.17276299 0.09386389 -0.101911284 -0.04338603 -0.2010132 -0.015925134 -0.08752896 0.073580675 0.15722401 0.10911689 -0.15008537 0.12247415 0.19659762 0.049118455 -0.2453706 0.30584085 -0.24490494 0.056231685 0.16775484 -0.124903455 -0.05186232
708 0.15724558 0.014640582 0.2066901 0.14739256 -0.03203939 -0.07030481 0.063206784 -0.023154307 0.22455132 0.2607195 0.020739803 -0.043463264 0.017361868 0.030654674 -0.08997057 -0.007120742 0.069673456 -0.0060935183 -0.045605868 -0.06782171 -0.10267483 -0.108069375 -0.06712408 -0.02080663 0.07665962 -0.1725905 -0.0029486185 0.11241789 0.004715507 -0.03347269 0.024042048 -0.074032694 0.064229324 -0.04513119 -0.055799033 -0.0071577667 -0.1142636 -0.09119541 -0.0064676087 0.058847267 0.034538906 0.06319431 -0.0062540807 0.056407653 0.21886608 -0.06446062 -0.03444158 -0.020813935 0.12390042 -0.062465977 -0.046165366 -0.106295906 0.14610453 -0.021664904 -0.06532427 -0.19414991 -0.015684618 -0.03675495 0.08323359 -0.09770072 -0.013357861 -0.07998116 0.2086661 -0.1870008 0.20446248 -0.22377518 0.020218886 -0.22376953 -0.0007347553 0.047479976 0.1180764 -0.008361293 -0.15946896 -0.037907284 0.041763045 -0.087400585 -0.18987276 -0.03796435 -0.008848533 0.033825003 -0.004034856 -0.09357558 0.106132105 0.1634274 -0.07314957 -0.118917175 0.05273582 -0.030459238 -0.04608145 0.11029597 0.25225073 0.025528751 -0.053302277 0.025226893 -0.16428798 0.01525901 -0.18201095 0.03702305 0.1505428 0.16727912 0.10939141 0.18422239 -0.09841332 0.10290374 -0.04872181 -0.21811566 0.029634625 0.14923368 0.21253575 -0.061371084 -0.11042469 -0.10144832 0.01714178 -0.057066634 -0.0053852587 0.027005568 -0.016305054 -0.021195607 0.041719273 0.1264713 0.04677656 -0.13406213 0.20465735 -0.2911227 0.0273888 0.11136352 -0.111470684 0.055880938
823 0.21416761 -0.02353389 0.33980957 0.11601313 -0.18590769 0.07669449 0.06516533 -0.018911107 0.13896939 0.34829852 -0.0132193025 -0.020437064 0.15311633 -0.0128289955 -0.12296102 0.024565991 0.07061042 0.007106437 0.008499636 -0.036848236 -0.03410565 -0.18620868 -0.06686597 0.11517289 0.09240596 -0.06897079 0.11509296 0.1575176 -0.047785725 -0.01989423 -0.058082297 -0.096667126 0.05418327 -0.20578165 -0.052547723 -0.17642713 -0.064483106 -0.06918375 -0.055249985 -0.0070043285 0.03828356 0.059720952 -0.12066215 0.11950705 0.29637793 -0.030795582 -0.06894374 -0.021490872 0.06655237 -0.092852995 -0.036883052 -0.11613657 0.025946453 -0.056339506 -0.10539707 -0.1158322 0.024878979 -0.10969946 0.012461547 -0.13052349 -0.05678318 -0.13657627 0.25625113 -0.1171131 0.10961817 -0.164933 0.026747817 -0.15466335 0.02099862 -0.021548552 0.08245493 -0.075362734 -0.07325172 -0.089655094 0.036693934 -0.06309264 -0.08758732 -0.00870781 -0.05060268 -0.06762965 0.053593557 0.019694073 0.041476063 0.109570995 0.015404283 -0.12988657 0.10864526 -0.0012569953 -0.09009862 0.03292092 0.2674933 0.06686691 -0.023340605 -0.039683398 0.061233126 -0.001625012 -0.0886334 0.054687478 0.07693335 0.17035323 -0.030673759 0.2402349 -0.07347507 0.08330433 -0.14270775 -0.17936939 0.024193129 0.07279759 0.14395264 -0.053619593 -0.0092070205 -0.117226884 0.107946716 -0.026921067 -0.020023435 0.044139955 -0.063766584 0.07674563 0.048939075 0.072284125 -0.014192328 0.054989018 0.18533255 -0.05194248 0.038125847 0.08208724 0.04074887 0.06249982
871 0.024538133 0.24025911 0.21932334 0.08564841 0.19986978 0.28931135 0.009572807 0.07364438 0.0013972466 0.13575317 0.08170266 0.1846275 0.20757578 -0.009690486 -0.086408235 0.09591125 -0.14414203 -7.594198e-05 -0.32611603 0.08434276 0.071996704 0.43177718 0.13391186 -0.22016917 -0.05193339 0.06120396 -0.2273319 0.0029390687 -0.1368345 0.12890124 0.08960025 -0.1544642 0.088209085 0.030918749 0.042851157 0.17254083 -0.031052174 -0.19423474 -0.07922024 -0.004196198 -0.055082265 0.09493476 0.14487615 0.022779737 0.055240445 -0.22848882 0.031165993 0.25855106 0.13650766 -0.0821844 -0.24482672 0.033435278 0.06665176 -0.0035779807 0.17909923 -0.02645083 0.009260485 0.1721409 -0.063739665 -0.054343294 0.13328953 0.05624223 0.19999066 0.05245825 0.1045077 -0.20848766 -0.07235095 -0.098538734 0.086532146 0.0019569064 -0.27465746 -0.15318541 0.13827807 0.11463293 0.21261908 -0.021438682 -0.02789647 0.09567075 -0.1401886 -0.20667976 0.24896064 -0.03255323 0.214634 0.08950597 -0.11391708 -0.10056996 0.13545336 -0.013600825 0.06514556 0.030796595 0.0580499 0.17442589 -0.11759784 0.1393944 0.24890836 0.17318155 -0.19557382 -0.16976805 0.011879068 0.04406525 0.11112347 -0.07845671 0.04724098 -0.031884767 0.29132676 -0.08525425 0.009969422 0.07469657 -0.13067423 -0.30942315 0.17050438 -0.12844954 0.15150446 -0.10294675 -0.03223797 -0.13173617 0.032501157 -0.045980662 -0.09867896 -0.10228135 0.019708471 -0.1501941 0.16450414 0.069755234 -0.040289387 0.1760597 -0.13882312 0.19936357
828 0.06858853 -0.04087404 0.17233679 0.0982288 -0.024213837 0.029514672 0.049942214 -0.0019218008 0.122521356 0.26337028 -0.0062834057 -0.03329914 0.14558457 -0.08112542 -0.15465672 0.015096932 0.023223635 0.0059166593 -0.052904353 -0.027388368 -0.07482883 -0.041491393 0.0046206634 0.008553294 0.09138716 -0.11279062 0.085420854 0.16298743 -0.018624475 -0.00169802 0.03582039 -0.23519284 0.115592554 -0.23701818 -0.06715756 -0.09266545 -0.14689112 -0.12746353 -0.0135616595 -0.05391976 -0.033698615 0.11872614 -0.04733635 0.13326913 0.22967333 -0.078992106 -0.03399037 -0.1004129 0.06846715 -0.03863993 0.043172188 -0.060695488 0.06848768 -0.024804138 -0.10412464 -0.15571952 -0.008584807 -0.11587048 0.07276001 -0.033620875 -0.043791458 -0.0716601 0.27356866 -0.10969737 0.19535612 -0.15790085 0.050688647 -0.2224734 -0.05248384 -0.031689573 0.05233952 -0.04254335 -0.041991334 -0.09813171 0.04136888 -0.06183882 -0.13680752 -0.04979149 -0.10111125 0.0017218876 0.12384775 -0.025819559 0.080447726 0.09776982 0.0027808878 -0.12992905 0.11354811 -0.0006892366 -0.107026845 0.08994941 0.16062424 0.055844028 0.005334292 -0.07368742 -0.0086178 0.025268001 -0.11662441 0.04737814 0.09625805 0.19579422 0.008349349 0.2617704 -0.16417345 0.02739433 -0.07102221 -0.1635901 -0.027124647 0.05672071 0.11814943 0.003611454 -0.017882828 -0.081160195 -0.014862028 -0.048468504 0.01448903 0.06706539 0.02096239 0.02768272 0.020847531 0.038877998 -0.010839825 -0.059532434 0.1914738 -0.14907108 0.0156674 0.068368316 -0.015676206 0.12243869
886 0.056873333 0.08783511 0.12263343 0.052885875 -0.14970653 0.08760939 -0.00022479339 -0.10063487 0.0075072353 -0.052343227 0.037091017 -0.026737258 0.12160004 0.13142887 -0.17195565 -0.010612926 0.053437896 -0.15695687 0.06438749 0.0779078 0.3116106 0.049367797 -0.09210545 -0.15909295 -0.053092513 -0.033686407 -0.1709844 0.13197923 -0.140364 -0.015363432 0.16358966 -0.20830284 0.14881492 -0.22809988 0.39939705 0.0072471574 0.091894545 -0.0658381 0.28739202 -0.068790786 0.091202155 0.21877366 -0.069038786 0.04223722 0.2817387 0.060599767 0.20406368 0.10731842 -0.02503611 0.008697534 0.06711392 -0.09756148 -0.021770682 -0.11300983 -0.002331945 -0.048923552 0.21285555 -0.26316807 -0.059864156 -0.17669515 -0.13544701 0.02236953 0.24573179 -0.10876599 -0.0027635593 -0.04601031 -0.08658717 -0.20094809 -0.10226188 -0.13247153 0.092431955 0.024755789 0.049585707 0.037970223 -0.10565811 -0.1938578 0.012804697 -0.21997476 0.101487614 0.12287231 0.1727154 -0.005015735 0.019500911 0.26509324 -0.10664943 0.0045410874 0.027751807 -0.008422662 0.067515776 0.022741497 0.30772948 0.05182592 -0.05525775 0.0028765316 -0.14771023 -0.22392942 -0.26324058 0.0063002785 -0.024301881 0.029627174 0.15100427 -0.082852595 -0.060628362 -0.21947148 -0.16181022 -0.23506089 0.10131659 0.15612768 -0.01634323 -0.012370116 0.14993766 0.0501155 -0.02916158 -0.014655457 0.12104755 0.07926994 0.24359554 -0.058419082 -0.019849272 0.26196915 -0.034448083 -0.15411517 -0.14849845 -0.20214279 0.046145182 0.19563985 0.12431681 -0.04086531
805 0.12623611 0.03216823 0.2191693 0.06117804 -0.081082076 0.09353646 0.05683944 0.023255367 0.20185013 0.28513807 -0.05340301 -0.0007439325 0.17319009 -0.048015613 -0.12250778 0.03508487 0.06077284 -0.0072563537 -0.06296877 0.016713768 -0.09903548 -0.046961404 -0.018056368 -0.027140709 0.10728425 -0.0427415 0.08458467 0.09706719 0.017716305 0.03769317 -0.053330597 -0.1493472 0.11807637 -0.23321597 -0.0401047 -0.14768799 -0.099479996 -0.05716494 -0.06912953 -0.0518328 0.060822245 -0.029066674 -0.0718465 0.15021554 0.251966 0.029576838 -0.05405219 0.012384682 0.11551061 -0.065866314 -0.059259232 -0.08498333 -0.10125243 -0.011265083 -0.07013059 -0.16316698 -0.008818469 -0.1783544 0.03157279 -0.1768935 -0.062265914 -0.13021682 0.2036799 -0.08130294 0.10544681 -0.13415094 0.05121715 -0.21257679 0.027146956 0.048424624 0.095332295 -0.11581048 -0.031163989 -0.06712733 0.01567587 -0.050107505 -0.066478916 0.027758714 -0.07671573 -0.11703474 0.064363055 -0.027544055 0.07070917 0.0710687 -0.03897608 -0.10942362 0.09272969 -0.02443645 -0.120705046 0.0020650374 0.16716474 0.102475025 -0.0074198144 0.0021286006 0.060647406 -0.0014316092 -0.11399619 0.0041542803 0.11947784 0.22219186 0.0075066113 0.23157127 -0.04445283 0.020104617 -0.08766487 -0.1958943 -0.034917198 0.112054735 0.1370593 0.0122201685 -0.06318019 -0.01218598 0.03652136 -0.031212451 0.04953076 0.03049349 0.033624563 0.042976175 0.09825378 0.051480483 -0.073927976 0.04837252 0.18396385 -0.05784259 0.023029322 0.01425832 0.03288415 0.15165281
713 0.08705136 0.06482965 0.16373542 0.034262717 -0.078761734 0.028474541 0.008266097 -0.008027814 0.27976558 0.29530022 -0.027281234 -0.019097818 0.15833557 -0.013604291 -0.15036654 -0.004797491 0.046890475 0.014599937 -0.024281519 -0.022300124 -0.0358937 -0.035854805 -0.036022656 -0.004541192 0.06591283 -0.06251777 0.031859413 0.08825137 0.012755683 -0.0066983374 -0.091896094 -0.21441768 0.16964705 -0.2883319 -0.052709337 -0.15589108 -0.08376061 -0.08838743 -0.065450914 -0.017342098 0.086451136 0.03177008 -0.017307648 0.20115274 0.2339955 0.0062400186 -0.097549945 -0.043710966 0.15638836 -0.10889375 -0.040230535 -0.11482842 0.0499103 0.020347705 -0.05202914 -0.17623392 -0.09918227 -0.04580625 0.056659386 -0.1995468 -0.09045998 -0.039039876 0.21123981 -0.09465786 0.09891886 -0.1487737 0.041558538 -0.18463722 -0.084024474 -0.03778436 0.052663818 -0.14155431 -0.099521026 -0.060958657 0.05615518 -0.0501815 -0.1098986 -0.055790108 0.012293493 -0.051794007 0.12925462 -0.028340524 0.0730617 0.052813035 -0.0029075556 -0.14652939 0.145157 0.03715529 -0.02125115 0.034098554 0.22680797 0.019296637 -0.062403332 -0.024874419 -0.04634713 -0.08841623 -0.19150272 0.071838394 0.058743104 0.19616118 0.013790125 0.22228585 -0.06834511 0.0656491 -0.095027156 -0.28717574 -0.0044218134 0.10821577 0.113559864 -0.043719903 -0.05086848 -0.076503456 0.042761076 -0.12639874 0.044684432 -0.0184355 -0.052962832 0.033327967 0.028337818 0.14341626 -0.018158538 0.019160137 0.14923471 -0.06056006 0.029379066 0.07187079 0.015811438 0.15106323
872 0.10533241 -0.2426741 0.42118502 0.22020166 -0.39297938 0.17984432 0.19521645 0.07410447 0.3597847 0.039354533 -0.10310672 -0.0374998 -0.20060475 -0.028651511 -0.2731524 0.08377368 -0.09261346 0.058601048 0.031887617 -0.022181438 0.10392712 0.11435927 -0.029813092 0.006765085 -0.099350065 -0.039348174 -0.2549386 0.09018859 0.046973314 0.14463663 0.13697346 0.0072821244 -0.01704431 0.033056423 0.025709257 -0.12323856 0.13234806 0.007333745 0.015380009 -0.054955866 0.027103206 -0.1874863 0.015628317 -0.0622301 0.09254335 -0.26067126 -0.011720281 -0.063020706 0.07916694 -0.085032396 -0.1686995 0.026142823 0.1871626 -0.12289901 -0.36811456 0.06922262 -0.11205949 0.0094367815 0.07834588 -0.22067335 -0.041453943 0.147777 0.3190413 -0.25428608 0.06090077 -0.17718518 -0.35235578 0.09520235 -0.13865015 0.2979554 -0.1541715 -0.040246226 0.21365665 -0.062191285 0.042361163 0.008305415 0.1161148 -0.032948736 0.0457255 -0.13285023 0.17980552 -0.17421904 0.21076572 0.1908454 -0.09669361 -0.23273905 0.05352367 0.1349236 -0.17545703 -0.1506557 -0.16270389 0.071752414 0.09418212 -0.3233572 -0.26175797 0.1623358 -0.056022976 -0.058482926 0.11782529 0.19324176 0.11364448 -0.06933744 -0.29916027 0.06853205 0.01867042 0.20889115 -0.10599058 0.12048148 -0.0144854495 0.016405659 0.14203452 0.07840514 -0.030399965 0.054881863 -0.20105666 -0.08525149 0.067088194 0.25581744 -0.2017594 -0.07598065 0.064962745 0.1799863 -0.010597273 -0.0992125 0.093360014 -0.006563878 0.0508267 0.23433816
882 0.026646791 0.18447225 0.1492766 0.16409798 -0.164655 0.08698848 -0.01928576 -0.031199748 -0.0139491465 0.014736481 0.008602438 -0.00010841571 0.17104498 0.10735194 -0.090947345 -0.035884276 -0.00018791397 -0.12550019 0.111858435 0.012608197 0.24666972 0.022158723 -0.08146197 -0.122411445 0.029433705 -0.047698524 -0.13000892 0.07161125 0.073410414 -0.1092971 0.0912607 -0.05845482 0.09469818 -0.1983767 0.32023427 -0.028712148 0.09595212 0.0011664664 0.28689772 -0.06454707 0.01957882 0.2640131 -0.016660934 0.004680554 0.27471465 0.1592571 0.12000707 -0.008077036 0.00026025635 0.06780609 -0.025803754 -0.0057927147 -0.11842655 -0.0012105549 -0.06911434 -0.098114975 0.19182838 -0.32452017 -0.0054288227 -0.2695635 -0.1265865 -0.09184835 0.224945 0.010944 -0.041795816 -0.10157234 -0.11185693 -0.27911344 -0.19037238 -0.070573 0.11541564 0.10019394 0.1539042 0.05737333 -0.21174201 -0.12165683 -0.018001262 -0.16214795 0.11205121 0.122663856 0.23906872 -0.108739555 0.14457509 0.2191597 -0.21372052 -0.033603318 -0.072914235 0.1032161 -0.01214699 -0.0020819462 0.20167246 0.09477558 -0.08845745 -0.0004853519 -0.24048494 -0.03463842 -0.32623202 -0.06740012 -0.019863974 0.17425352 0.23596339 -0.10241929 -0.15547976 -0.14426926 -0.16501251 -0.17414647 0.11020705 0.12258699 -0.063257985 -0.055695012 0.025411712 0.02060142 0.06909282 -0.116404004 0.13146605 0.1864287 0.184289 0.007131674 0.0067768227 0.15546967 0.03617235 -0.1386446 -0.053942822 -0.10484716 0.07152561 0.09861073 0.14829403 -0.103499144
745 0.13109368 0.053008612 0.21502793 0.1416362 -0.018818533 0.018197851 0.06513215 -0.03572508 0.1803042 0.2852679 -0.01405487 0.015333184 0.068908244 -0.065903604 -0.14326921 0.05069214 0.04289692 0.043969885 0.08811026 0.010300276 -0.10811542 -0.06755914 -0.10322621 0.079500236 0.1577344 -0.15684794 0.033359952 0.10057247 -0.033281114 -0.0035546415 -0.00029382802 -0.16051231 0.1924954 -0.27303657 -0.0462464 -0.0035826052 -0.19604504 -0.076729596 -0.02205557 -0.014268055 0.10919074 0.033425786 -0.08402533 0.21867126 0.2446387 -0.047837757 -0.09554883 0.04049976 0.043550942 -0.07632053 -0.04085073 -0.093174286 0.05676666 -0.015165598 -0.025371466 -0.100720495 0.0051742075 -0.096230164 0.089111336 -0.14968093 -0.04956029 -0.0999786 0.17965057 -0.121319294 0.050494432 -0.15013616 0.063161165 -0.22394802 0.0710142 0.061659213 0.0070584645 -0.06934773 -0.025185134 -0.012848809 0.020955246 -0.062220648 -0.13608079 -0.04986552 -0.119250126 -0.020351185 0.07149047 -0.035339985 0.020136705 0.043567285 -0.007821086 -0.11030489 0.17957892 -0.09385831 0.041806635 -0.018378498 0.1605076 0.13094164 0.03996425 -0.095158756 0.039731074 -0.011096956 -0.17632781 -0.0094118165 0.038898773 0.1995034 -0.011090693 0.31718853 -0.14096126 -0.022531956 -0.15570903 -0.24939482 0.044755694 0.051815983 0.12687398 -0.0681835 0.06732346 -0.053293116 0.0401934 -0.0871331 -0.00831513 -0.00059468887 0.047367815 -0.010001384 0.115094446 0.07222378 -0.045257542 0.0039773807 0.25336745 -0.13057739 0.096703716 0.11193166 -0.038093507 0.13460547
719 0.11836205 0.061095424 0.248497 0.051912256 -0.059631538 0.111064315 0.061120033 0.05242456 0.22988862 0.24685304 -0.010498895 0.012796436 0.10670718 -0.063451275 -0.09724511 0.054494187 0.045331758 0.016026812 -0.04643334 0.007056794 -0.1318182 -0.088205636 -0.0180082 0.024329059 0.13792573 -0.13816969 0.12060252 0.08123629 0.03862475 0.014053994 -0.040358115 -0.17944597 0.1062111 -0.21829835 -0.07291028 -0.066030234 -0.17909795 -0.014965106 -0.03824129 -0.0034644408 0.01843847 -0.015306243 -0.034852304 0.12060122 0.2189428 -0.027023239 -0.08941945 -0.0618036 0.15291432 -0.057076607 -0.07716296 -0.091514654 -0.009018321 -0.013425065 -0.09423203 -0.17718036 0.0211408 -0.14457071 0.004748738 -0.11784694 -0.007319019 -0.061582856 0.30603746 -0.11392635 0.1756096 -0.19122875 0.13237871 -0.27145278 -0.0014056044 0.0008709505 0.050607044 -0.1079069 -0.05668188 -0.05576961 0.06866352 -0.01490729 -0.05013521 -0.016113676 -0.10675511 -0.073795006 0.08126271 -0.010827908 0.124191426 0.13431847 0.018661821 -0.08010645 0.1732224 0.019400556 -0.1540881 0.042671103 0.21099815 0.04420895 -0.016315745 0.036658783 0.034816857 -0.04163938 -0.11867309 0.073299736 0.13851582 0.1657948 0.045305654 0.30640787 -0.0658334 0.07570249 -0.13626105 -0.28312287 0.0017557968 0.08407614 0.16616118 -0.032925345 -0.06115669 0.006506652 0.05523628 -0.004333504 0.05277308 -0.042955387 -0.0032402659 0.011553686 0.10425406 0.07931915 -0.00997273 0.00083342893 0.19526093 -0.12941088 0.004838435 0.025494091 -0.029024573 0.0583844
861 0.15451993 -0.0007584155 0.18164213 0.19081448 -0.29563865 0.09403789 0.10144284 -0.23066753 -0.03367767 0.31563434 0.015014829 -0.12426016 0.263825 0.08078198 -0.092262715 0.07620142 0.042133328 -0.1559505 0.043205295 0.028228 0.03422297 -0.09940554 -0.05297461 -0.09111495 0.15739526 0.05074797 0.070326455 0.17598316 -0.20398803 0.03889689 0.038949873 -0.10973341 -0.03942883 -0.08412524 0.1591167 -0.052767545 0.13335726 -0.043301795 0.1782373 0.010573733 0.0016759342 0.1562008 -0.050283376 0.02081693 0.27319932 0.032167714 0.15150931 0.10971514 -0.028794384 -0.07852436 0.017032413 -0.014897551 0.029056348 -0.02208477 -0.108565435 0.008022548 0.15057017 -0.14848697 -0.016367607 -0.099710435 -0.065787755 -0.13143648 0.22964013 -0.07231111 0.0040512234 0.07821247 0.030971952 -0.031557187 -0.047978695 -0.044837706 0.09113352 0.10284915 0.00041510747 0.17707953 -0.087564684 -0.14958711 -0.039407305 -0.026858553 0.030614186 0.08203262 0.225551 -0.0410391 0.1259486 0.36081463 -0.17600945 -0.14989413 -0.084879406 -0.022891274 -0.023137288 -0.0030087088 0.3151274 0.006420783 -0.03267588 0.09202067 -0.118636884 -0.083175436 -0.15478484 -0.016475411 0.0041153734 0.021963 0.16173008 -0.040731438 -0.13523471 -0.024644556 -0.075500175 -0.11272834 0.11261356 0.1933644 0.06135373 -0.15286379 -0.049397256 -0.18996297 -0.062483326 -0.03616136 0.2577889 0.24044693 0.17306153 -0.056023702 0.067216836 0.17309585 0.040790185 -0.18051222 0.01935321 -0.20687975 0.089197434 0.1519796 -0.037288237 -0.28081965
769 0.1024386 -0.077784486 0.2557772 0.20430915 -0.017274883 -0.0020604485 0.060348503 -0.081602596 0.22997975 0.45070574 0.10127607 -0.06359292 0.002138962 0.12722096 -0.07040087 0.022668067 0.1522319 -0.04766243 -0.096312724 -0.08079685 -0.030074472 -0.155756 -0.06149376 0.032981995 0.060462505 -0.10976214 -0.0005459372 0.13819402 -0.0039749104 -0.087502025 -0.07119336 -0.017418282 0.05197186 -0.013435658 -0.06757965 -0.010845496 -0.11020215 -0.051792115 0.038199015 0.09715504 -0.04067448 0.13553949 -0.03194392 0.06359878 0.31419817 -0.057180014 -0.0193795 0.033084918 0.120483175 -0.056695126 -0.07384937 -0.20783399 0.1464692 0.003352066 -0.07907527 -0.211408 0.040076375 -0.21004006 0.098334216 -0.12707473 -0.05165722 -0.17201844 0.28750244 -0.12985621 0.23828287 -0.23262458 -0.07927903 -0.1912632 0.071736336 -0.056270503 0.059172623 0.044322327 -0.124314606 0.03261056 0.011792165 -0.0290529 -0.2320596 0.08189446 -0.04854197 0.016982757 -0.058274366 -0.15738225 0.08313463 0.056443203 -0.062336475 -0.1370035 0.04510696 0.06142272 -0.08386257 0.12378469 0.34180593 -0.014522153 -0.028909992 0.086697936 -0.17559612 0.0017429399 -0.10071112 0.04846608 0.07254744 0.10762887 0.15844825 0.21224509 -0.042519957 0.08786969 -0.061021034 -0.17734666 0.029430076 0.07763211 0.24575575 -0.071773686 -0.12367926 -0.06614176 0.03703738 -0.060320992 0.077245295 0.042773664 -0.031703137 0.01912604 0.021838695 0.11562232 -0.027420426 -0.1732552 0.16831575 -0.2135701 0.024938546 0.11012451 -0.05143209 0.042064723
885 0.013960874 -0.066485606 0.4435318 0.06073297 -0.3131375 0.1387634 0.19228983 0.07819238 0.28178486 0.0011913835 -0.15676881 -0.11172946 -0.16410498 -0.041946594 -0.29215047 0.14933772 -0.24217105 0.11002573 -0.02739489 0.023047354 0.12054931 0.20939843 -0.08094525 -0.05655579 0.0011773473 0.032346144 -0.3831478 0.044915427 0.015055635 0.29096568 0.17525256 -0.03760415 -0.069534615 -0.008388321 0.18831494 -0.24041773 0.22583671 -0.008407558 0.027386634 -0.11587811 0.18868402 -0.24351774 0.030772798 -0.054715358 0.119418 -0.23995098 0.07319626 -0.063451774 0.13822976 -0.16001913 -0.1240782 0.0327284 0.075173736 -0.16015697 -0.38094404 0.0039877286 -0.16881791 -0.040744137 0.120764196 -0.33057228 -0.06708862 0.11042778 0.20596604 -0.1940451 0.074981794 -0.155332 -0.24053371 0.09439792 -0.263372 0.2927856 -0.013055445 -0.027774213 0.11605231 -0.06956373 -0.052534014 -0.16730274 0.019100154 0.022209372 0.13737261 -0.15948446 0.16184855 -0.091820166 0.09464525 0.1475634 -0.14102562 -0.33827057 0.0681941 0.09278133 -0.056956887 -0.116706885 -0.21866935 -0.015980667 0.15284075 -0.22487967 -0.31273127 0.2006792 -0.12226986 -0.09042714 0.06014953 0.20735635 0.094888315 -0.021438621 -0.22604872 0.12027653 -0.0036615005 0.24985094 -0.15903169 0.23005264 0.047009256 0.0515257 0.06793919 0.018654857 -0.13453875 -0.0538929 -0.11989249 -0.08595881 0.073131576 0.28829715 -0.21308582 -0.12743965 0.008301113 0.26314762 0.037268586 -0.08923324 0.15738401 0.031760886 -0.09217558 0.30870712
867 0.17387497 -0.16645268 0.3213382 0.081695795 -0.3360471 0.049211442 0.09171336 0.010726593 0.27003574 0.04228775 -0.076042846 -0.1260471 -0.17919621 0.010928725 -0.31900007 0.080520995 -0.24031849 0.07077242 -0.09847618 -0.0131559335 0.13306068 0.088104166 -0.036402613 -0.028318875 -0.14803861 -0.011490355 -0.28491077 0.09228423 0.016613772 0.16271646 0.13312031 -0.036185987 -0.02830722 0.021585302 0.04603457 -0.15270777 0.19646813 -0.030997535 -0.010787799 -0.02100558 0.07124801 -0.18079199 0.0051394505 -0.087757066 0.1440581 -0.21463047 0.019622736 0.0046602306 0.060134225 -0.2017373 -0.26151353 0.005110233 0.17803226 -0.21369267 -0.33710578 0.02841329 -0.055086304 0.024685737 0.043654535 -0.25149268 -0.013587233 0.16507262 0.3272153 -0.28505126 0.093546815 -0.21240588 -0.30846328 0.07298794 -0.2250155 0.28927365 -0.13238934 0.005446949 0.082653485 -0.09924506 -0.02931545 -0.05205688 0.050487258 -0.027464755 0.10566873 -0.118729606 0.13070852 -0.08123968 0.16913623 0.15854415 -0.087141044 -0.28922716 0.05345019 0.15421468 -0.10455324 -0.09985675 -0.12257575 -0.032958023 0.07120138 -0.21663633 -0.22457018 0.19246256 -0.09244794 -0.08060019 0.110571 0.13083376 0.13298221 -0.13395037 -0.28457254 0.03833492 0.039398793 0.18739153 -0.05012655 0.15704027 0.04165249 -0.03974455 0.229253 0.09181036 0.017018462 0.03686779 -0.15727064 -0.12437422 -0.03580539 0.25559607 -0.27373472 -0.036455903 0.1380204 0.2341698 -0.045450922 -0.09862028 0.10180331 0.17602114 0.021707442 0.20239983
875 0.07238073 -0.08534766 0.24022302 0.15451412 0.083792165 -0.06119507 0.02325492 0.08091256 0.014041006 -0.032574024 0.04130363 0.04070653 0.094882704 -0.0824277 -0.26664436 0.03646915 -0.029720917 -0.07694884 -0.0986333 0.0037561432 0.015496234 0.057447877 0.06709822 -0.0949178 -0.081644386 -0.033996638 0.060549367 0.048163794 -0.040058948 0.01891392 -0.015212964 -0.23797782 0.10742487 -0.084010266 -0.011337144 -0.026165254 0.10407772 -0.07048846 0.0016309984 -0.15226945 0.08169666 0.041298606 0.001700154 0.017203173 0.2592835 -0.073369026 -0.046295192 -0.0006079224 0.068562925 -0.03978665 -0.1655758 0.05892991 -0.016248109 -0.12025693 -0.02622721 -0.06721987 -0.0017453607 -0.10210963 0.020537289 -0.1938995 -0.033955462 0.10205383 0.13108172 -0.10585376 0.07281332 -0.021983253 -0.046993956 -0.037089426 0.11070772 0.10210528 0.031113774 -0.068175346 0.118039414 -0.04034531 0.1585088 -0.04693843 0.045407463 0.015465472 -0.04083091 -0.11140938 0.1282077 -0.041291397 0.10786786 0.18445098 -0.12942612 -0.0370299 -0.020782739 -0.020882834 -0.063697636 -0.14380842 0.06801012 0.08006978 0.058623277 -0.15026803 -0.011031366 0.1019737 -0.032148175 -0.017359797 0.23920214 0.20122722 0.12574333 -0.004479253 -0.13397576 -0.005335812 0.10843126 0.10801674 -0.08197877 0.10408151 -0.044280175 0.08574763 0.08820195 -0.052618187 -0.00060216367 0.06525124 -0.07637963 -0.077618316 0.052347038 -0.022270922 0.0016775288 -0.029499773 -0.033063825 0.053082287 0.11145687 -0.14911434 0.010753523 0.06278696 0.003697526 0.1054824
776 0.19719966 -0.26793593 0.26836815 0.105188146 -0.3734051 0.04880132 0.10244314 0.055449527 0.2672727 0.07103935 -0.1336499 -0.09631496 -0.085742705 0.01899257 -0.31065828 0.09699628 -0.20482245 0.08478728 -0.15126066 -0.0010507631 0.06905813 0.14665757 -0.013865482 -0.0985476 -0.1505621 0.0069192494 -0.32000178 0.094289765 0.018938487 0.21073858 0.19883211 -0.094428055 0.00074813236 0.014748016 0.038276173 -0.16416237 0.21180938 -0.104551 0.05617582 -0.01593427 0.09281512 -0.15282659 -0.00854019 -0.07297943 0.18546788 -0.31835946 0.06666309 -0.07893654 0.03767281 -0.21723303 -0.16661227 0.001699051 0.28054535 -0.22501616 -0.5068838 -0.0389963 -0.09049636 0.07602525 0.06568243 -0.27979937 0.022794215 0.1738208 0.4072259 -0.35717332 0.09723452 -0.24893557 -0.38271648 0.06900397 -0.24385215 0.30699193 -0.12360263 0.012129961 0.10954062 -0.16225295 -0.037766244 -0.1330721 0.061476033 -0.06764804 0.07269638 -0.06620078 0.051922414 -0.10479482 0.09228251 0.06944944 -0.0050323773 -0.27982736 0.08358422 0.1508126 -0.14387245 -0.07068647 -0.18051028 -0.1075677 0.13402718 -0.26708317 -0.2765308 0.15464021 -0.09414229 0.001088679 0.04244814 0.10657458 0.030405676 -0.022923952 -0.3328533 0.0808773 -0.0060646627 0.14094742 -0.0848565 0.065205306 0.022703853 0.00010095393 0.17954656 0.099807486 -0.06497163 -0.036085412 -0.12416835 -0.112973206 -0.020266231 0.2720145 -0.22381014 -0.06574566 0.11876326 0.24958643 -0.04201616 -0.11755442 0.11003049 0.13708557 0.037393205 0.23667279
819 0.18533069 0.030386848 0.44505456 0.21872726 -0.09562362 0.021524737 0.048999995 -0.08292598 0.13764016 0.3754033 -0.0071900254 -0.20263176 0.16150048 0.009297804 -0.102381885 -0.062278196 -0.028113987 0.060687378 -0.04495645 -0.10389553 -0.1359357 -0.22319609 -0.14154798 0.090031676 0.03434682 0.025383506 0.066290304 0.115520105 -0.08544576 -0.070720725 -0.05517543 -0.19610876 0.13825813 -0.33851877 -0.07978416 -0.18352826 -0.14772268 -0.086751945 -0.05154827 -0.0064760013 0.0981756 0.06071394 0.0006715235 0.16120575 0.25737548 0.036126498 -0.08123005 0.073586516 0.09956962 -0.1426794 -0.014176105 -0.15653439 0.020606143 0.054597333 0.0031215257 -0.18894555 -0.058140296 -0.10654119 0.18211219 -0.09119197 0.055334352 -0.0029793396 0.27995282 -0.046378277 0.17152059 -0.1706155 0.15971908 -0.24035442 0.055468444 -0.05880034 0.05139124 -0.13532017 0.038422327 -0.0080939075 0.08325353 -0.097304545 -0.10832048 0.007992435 -0.010661927 -0.020771174 0.100290045 0.007129443 0.04460991 0.06819635 -0.045243558 -0.12291203 0.0010048343 -0.006905893 -0.08919527 0.016594997 0.33971718 0.033601157 -0.03660549 -0.0040470418 0.07446559 -0.078809306 -0.14245698 0.059646793 -0.06553758 0.030062132 0.008209983 0.09153154 -0.09400154 0.05051009 -0.08808934 -0.15170224 0.09449281 0.083793014 0.15399261 -0.022640636 0.06895506 -0.11751142 0.03046314 -0.029404612 -0.023830753 0.013590264 -0.0035684821 0.039383724 0.027770853 0.0715017 0.02915477 0.031165974 0.21611749 -0.020936895 -0.049407896 0.05361446 0.14301269 -0.012366766
876 -0.041974753 0.1001747 0.15005173 0.16332074 -0.12195551 0.11818718 0.01498416 -0.18762235 -0.13174905 -0.07357029 0.10146625 -0.07798645 0.18034784 0.1252468 -0.022097552 0.02129766 0.04532826 -0.17893891 0.12797908 0.05318852 0.18003713 0.03701985 -0.06290275 -0.19034158 0.112421766 -0.037152644 -0.053465754 0.118114 -0.111185566 -0.012004735 0.13419436 -0.17066918 0.10466657 -0.18938988 0.38331616 -0.06992055 0.10184725 0.014306075 0.3057199 -0.08099243 0.07392598 0.106341235 -0.03280086 0.061617523 0.26664174 0.09630742 0.18105768 0.05242815 0.06511978 -0.019094236 0.11658338 -0.04044209 -0.0415969 -0.011253097 -0.0061871703 -0.10776194 0.17935868 -0.29108322 -0.01408859 -0.13773322 -0.122922346 0.009225043 0.29496562 -0.017407726 0.048043735 -0.037601046 -0.026431708 -0.21625532 -0.09832728 -0.05931005 0.08138465 0.06249821 0.10952389 0.11380965 -0.06202508 -0.15207309 0.041003145 -0.15003766 0.07113031 0.1266502 0.25042036 -0.12622648 0.11928761 0.30229968 -0.12212872 -0.012314487 -0.1098429 -0.013211851 -0.011633773 0.021593673 0.1549317 0.01608517 -0.07144151 0.06763066 -0.11188188 -0.08669119 -0.25208455 -0.07562984 -0.015410552 0.056784 0.25344744 -0.09005179 -0.09106607 -0.10825691 -0.06678293 -0.19058934 0.09002879 0.25214484 -0.10087135 -0.10142035 0.07170693 -0.04814655 0.034309935 -0.095591575 0.16509178 0.17743056 0.21657169 -0.044840015 0.029153332 0.10934116 0.015983032 -0.194015 0.03316446 -0.21076459 0.065927505 0.11939333 0.03810197 -0.069717154
810 0.18363145 -0.032450017 0.25419593 0.035883047 -0.08118124 0.026574412 0.026980316 -0.124065466 0.32780555 0.28953856 0.025619123 -0.117106415 0.00756626 0.065757096 -0.06795385 -0.041575164 0.056444168 -0.016839141 -0.03344912 0.06676715 -0.042704567 -0.10134286 -0.038236797 0.03232764 0.121830836 -0.12319665 0.12689464 0.09702037 0.030166844 -0.003543154 -0.047509804 -0.1912047 0.2476347 -0.21840811 -0.10904078 -0.033120092 -0.24864244 -0.09851405 -0.0592989 0.07100089 0.112392 0.014025489 -0.015824256 0.12122973 0.17476998 0.005861267 -0.086585775 -0.06743665 0.17637852 -0.09750012 0.027555395 -0.16379276 0.072530426 0.013718207 -0.05059772 -0.24392049 0.016428828 -0.11706153 0.08817932 -0.12642981 0.029551655 0.06850476 0.27639842 -0.13032049 0.1797887 -0.24370532 0.047913805 -0.27634183 0.012907408 0.02846712 -0.007641206 -0.06355237 -0.07162903 -0.03381427 0.024139801 -0.038770482 -0.07297853 -0.0799217 -0.08995283 -0.033957947 0.09991823 -0.027842632 0.09142802 0.04829412 0.055629317 -0.12765874 0.15237242 0.028304772 -0.091727845 0.08461182 0.13009247 0.002104097 -0.036679663 0.038866248 -0.023347178 -0.02615477 -0.14021538 0.031376034 0.09043893 0.0971657 0.08097605 0.2273056 -0.10607945 -0.018167952 -0.090138674 -0.30743212 0.10436133 0.11324661 0.14387392 -0.04625723 0.06744108 0.08195865 0.1096292 -0.027183225 0.018465769 -0.0798219 0.0047441535 0.009068748 0.05081649 0.026970377 0.018926514 -0.01624152 0.20306177 -0.20916325 0.024156855 0.08604104 -0.07365838 0.1379489
889 0.13242005 0.08823365 0.22458167 0.07939764 -0.20306706 -0.005177734 0.0946204 -0.11878624 0.06462507 0.102234565 0.033729676 -0.080277085 0.075357586 0.17135078 0.025060618 0.05419742 0.045279197 -0.17457823 0.0052074892 0.060003035 0.1972243 0.020596806 -0.04555412 -0.12891634 0.16804308 0.0033761251 -0.06901853 0.0822103 0.008861127 -0.015393872 0.05027249 0.09723384 -0.014808151 0.041582182 0.21498619 -0.059437227 0.06587047 0.0019388425 0.2039268 -0.0279234 0.11618448 0.13420093 -0.062079832 -0.08972443 0.25275636 0.07493121 0.13951153 0.057000063 0.031051692 0.032466866 0.0961126 -0.05918687 -0.08855544 -0.06834119 -0.0017676235 -0.13910486 0.24831712 -0.31890407 -0.048983872 -0.28461087 -0.09011881 -0.0569698 0.20443292 -0.08963721 -0.019919435 -0.089134715 0.00660919 -0.22429328 -0.03292063 -0.118438 0.18904147 0.12146794 0.06497321 0.121858336 -0.081731014 -0.16614878 -0.025245618 -0.11109267 0.08026308 0.12818667 0.17989297 -0.0050708456 0.10940809 0.26662827 -0.21092395 -0.051201567 -0.11941519 -0.020983094 -0.0013612587 0.021810373 0.18215537 0.08412465 -0.14747852 0.12579934 -0.067974456 -0.045383714 -0.3499688 -0.03923222 0.060967192 0.13141692 0.20062587 -0.08863714 -0.005294824 -0.11478149 0.020092927 -0.1860547 0.1304442 0.27098492 0.021176193 -0.13881782 0.035339344 -0.114765726 0.047619577 -0.09580062 0.16552852 0.18304975 0.21190913 -0.14125775 0.07349899 0.11299081 0.044618826 -0.22774406 0.04927871 -0.24048918 0.053242017 0.1885667 -0.050210863 -0.11739807
890 0.04361936 -0.06241434 0.459778 0.22348197 -0.13142595 0.17873348 0.2493166 -0.12586236 0.1933802 0.32958052 0.13597818 -0.039059766 0.06332207 0.096117646 -0.14904149 -0.006974795 0.09039013 -0.036157377 -0.15106031 -0.1478705 -0.07713496 -0.09702451 -0.11272327 0.08444064 -0.019641053 -0.10816898 0.013224768 0.21958007 -0.04977386 -0.15035592 -0.013658045 -0.05643173 -0.032491438 -0.06693992 -0.13162908 -0.112111606 -0.04904704 -0.09691614 0.0028700577 0.03768953 -0.055669066 0.23750445 0.09153959 -0.0063600005 0.21702679 -0.12758046 0.018240571 -0.18534179 0.05943835 0.029518748 0.15458655 -0.120110385 0.2561486 -0.03503161 -0.16504334 -0.20932586 -0.05272892 0.060712546 0.15423423 0.024948714 0.01925628 -0.02081079 0.15618819 -0.06792997 0.29084957 -0.15237987 -0.017589847 -0.053947352 0.0011023243 -0.2525994 0.18701117 0.1230943 -0.05365797 0.06633181 0.022725945 -0.23157084 -0.22505142 0.103831336 0.05873344 -0.012769605 0.032974716 0.025609324 0.011547691 0.11390321 -0.20117125 -0.1605143 -0.03057268 0.13234556 -0.006012194 0.18631521 0.43981642 -0.060585056 -0.10370142 0.14230937 -0.13630319 0.08257247 -0.15770717 0.16604753 -0.020616688 0.103575505 0.12163201 0.292674 -0.041889213 -0.027892977 -0.01823642 -0.15755786 -0.004120054 0.18731026 0.14456546 -0.03012405 -0.13320456 -0.22329906 -0.02516673 -0.10238854 0.110920615 0.09919601 -0.08639936 -0.07886912 -0.03175704 0.21215616 -0.014288786 -0.1553527 0.15910788 -0.19771552 -0.034442138 0.2880503 -0.15357997 0.05016487
884 0.2055548 -0.19551815 0.41360155 0.025073005 -0.115185425 0.022514902 0.022511145 0.043761045 0.12934272 0.17918433 -0.10942187 0.037749786 0.1448902 0.27639356 -0.06774374 0.26391044 -0.049219374 -0.17354032 -0.29429072 0.15839222 0.21293719 -0.022021787 0.20542604 0.023346743 -0.017444445 0.27731022 0.13907595 -0.054581355 -0.09963983 0.016665854 -0.32260215 0.027467638 0.13854408 0.007893163 -0.114471965 0.0351324 0.03451819 -0.19458437 -0.05749265 -0.1402783 0.27277145 0.2630196 -0.09558229 0.011812226 0.09756132 -0.12904166 -0.15820995 -0.16026573 -0.111807555 -0.010955717 -0.0060145007 -0.14750025 -0.053100172 -0.10624618 -0.093878865 -0.06672524 0.1101049 -0.0878915 -0.16477211 -0.2084569 -0.032066137 -0.13486983 0.009626062 -0.22802949 -0.260605 -0.21172388 0.09522305 -0.050121434 0.05371954 0.038826637 0.20240596 0.17999677 -0.101890504 -0.10177936 -0.006381162 0.12324044 0.12366276 -0.21988879 0.0062138294 -0.0693234 0.29210705 0.09117941 0.052854583 0.2711437 -0.13341351 -0.081943676 -0.22885704 -0.23862344 -0.23133786 -0.13941947 -0.23770604 0.217183 -0.1804472 -0.20334789 -0.090344705 -0.003253717 0.018202005 -0.18206303 0.22108603 0.24697971 -0.0063019106 0.14541794 -0.10391471 0.16267067 -0.034188773 -0.00055303983 0.21271461 0.26990455 -0.17409436 -0.054440163 0.057563957 -0.16560808 0.32167527 -0.030512707 -0.17609604 0.2991092 0.011502959 -0.06645603 0.18950471 -0.17676148 0.060714133 -0.11779608 0.35934764 -0.18257886 0.04518528 -0.040141776 -0.031408522 0.106976084
772 0.063539155 0.05135972 0.28989524 0.15640484 -0.08033262 -0.060871225 0.00045290115 -0.023798827 0.15454632 0.24738334 -0.027331354 -0.05479871 0.05655645 -0.02300613 -0.11971925 0.0024060328 0.044473853 0.022593696 -0.052997153 0.013358317 0.071153805 -0.019101515 0.020066358 0.040992748 0.03404027 -0.058860976 0.028089913 0.058908958 -0.007122622 0.016295291 -0.011048919 -0.2025215 0.17239773 -0.13873902 0.020551007 0.027440429 -0.027997592 -0.10651232 0.055401 -0.043070447 0.04008366 0.18533029 -0.014695482 0.083367184 0.2419237 -0.04688469 -0.04535049 -0.025903199 0.05311702 -0.04816324 0.033915747 -0.11156747 0.070606835 0.0024257244 -0.06484181 -0.08752035 -0.042229164 -0.13492045 0.039427277 -0.13910805 -0.0060202964 -0.05601545 0.17165056 -0.08863568 0.12098861 -0.12017201 -0.015375787 -0.1506417 0.0469708 -0.044980485 0.021222359 -0.05425194 0.011033443 -0.0064058695 0.046636228 -0.027497577 -0.09667986 -0.07693121 -0.13920037 0.036003895 0.14351484 -0.06160309 0.09094738 0.096263856 0.02137203 -0.08389174 0.103732124 -0.025673985 -0.048441976 0.016588833 0.29344043 0.099762306 0.0136077395 -0.09704732 -0.06373223 -0.015596702 -0.11013174 0.023016373 0.09048419 0.12686555 0.011971634 0.17835285 -0.094780646 0.03585847 -0.13227741 -0.18586373 0.05673704 -0.08248241 0.08498697 -0.010626082 0.0019329233 -0.06414905 0.03873162 -0.044687387 0.02508443 0.0024503306 0.09860748 -0.009148517 0.096054435 -0.024069685 -0.05476416 -0.1265899 0.1519228 -0.1163612 0.050322983 0.06484126 0.039765406 0.02283588
874 0.06768514 -0.20858973 0.5072727 0.15926445 -0.34850317 0.14678 0.17634231 0.10751277 0.30677918 -0.048892293 -0.13142334 -0.10857309 -0.1376499 0.036841698 -0.34612644 0.13440171 -0.18655948 0.08537268 -0.102046855 0.0328478 0.05930454 0.06512739 -0.11292555 -0.03704155 -0.101211004 0.05343233 -0.3017935 0.12276687 0.008735828 0.1831817 0.22987258 -0.10263699 -0.00891108 -0.013371555 0.17802873 -0.14855132 0.13923903 -0.05289768 0.083636425 -0.08472876 0.12678027 -0.08335149 0.004051041 -0.10347368 0.112113684 -0.20075795 0.076707296 -0.04440352 0.11167284 -0.0685769 -0.13172126 0.027426817 0.09105736 -0.10797019 -0.4560063 -0.037149146 -0.15517011 0.07049202 0.12028924 -0.23027654 0.11188877 0.08541758 0.2820667 -0.18555892 0.115531765 -0.24333924 -0.3181605 0.014938525 -0.25128445 0.35214332 -0.06886015 -0.032201152 0.09954015 -0.14191315 -0.051354326 -0.13866672 0.0576271 -0.0059221736 0.07317986 -0.09562834 0.17394704 -0.18518332 0.17201379 0.19509183 -0.13035078 -0.28786898 0.07790287 0.18604219 -0.19487211 -0.08087513 -0.17014425 -0.06343772 0.17349422 -0.23309563 -0.38510153 0.2102699 -0.05585856 -0.05221745 0.08015714 0.1324824 0.09888643 -0.11932385 -0.33507502 0.1327029 -0.040257618 0.26140574 -0.14165601 0.105776675 0.026258102 0.07737698 0.12507834 0.097867474 -0.13045353 0.062204927 -0.15481485 -0.14264669 0.07841037 0.37941915 -0.18655801 -0.094873644 0.035170767 0.30353972 -0.08667894 -0.05344234 0.022498958 -0.07970791 0.046047796 0.27946526
881 0.09206205 0.17454396 0.14535919 0.117319375 0.22716351 0.33425745 0.104499 0.16528428 0.1305576 0.24162816 0.1203353 0.33637837 0.23481575 -0.016780011 -0.077185914 0.09288062 0.019484656 0.0034254615 -0.28695378 0.15069912 0.007062179 0.39014697 0.09230967 -0.24419677 -0.055277213 -0.05115516 -0.2377444 -0.03225978 -0.19788718 0.07052961 0.22467282 -0.28204224 0.13623068 0.016852776 0.21407464 0.29437762 0.004367615 -0.17359617 0.03590783 -0.13186291 -0.013358569 0.10324449 0.18873848 0.034434594 0.12473515 -0.19883233 0.05839763 0.29149568 0.124192275 -0.019919865 -0.24567461 0.026582027 0.0695641 -0.031690944 0.1466164 -0.06962085 0.024028104 0.16036455 -0.06936368 -0.050027892 0.25389954 0.07339912 0.23285654 0.1042605 0.13715316 -0.29626212 -0.14422484 -0.2572209 0.30995837 0.022450315 -0.19465819 -0.17379461 0.14907858 0.15107156 0.19193831 -0.057318617 0.03146012 0.1718691 -0.1299621 -0.23641537 0.13706037 -0.13098025 0.19800407 0.0589672 -0.088420466 -0.046004802 0.08437719 0.0074684457 0.096129976 0.050679922 -0.06750078 0.17462033 -0.07525547 0.088571586 0.20335162 0.2167821 -0.15611756 -0.1609541 -0.054018907 -0.05048238 -0.027522271 -0.08536686 0.088247925 -0.029078687 0.29156926 -0.054383636 -0.027522625 -0.05709849 -0.10078371 -0.24327637 0.16412532 -0.068791784 0.050738476 -0.086417824 -0.12667204 -0.17282453 0.08647064 -0.111233935 -0.008421098 -0.078179814 -0.053609677 -0.18093835 0.18201497 0.043709166 -0.06566569 0.14792761 -0.15217105 0.22182266
879 -0.01852237 0.29832646 0.17270042 0.105000235 0.18678127 0.30228016 0.07465685 0.21833143 -0.0362855 -0.05223442 0.058031246 0.30578113 0.093586646 -0.024976222 -0.0668723 0.11335094 -0.038453866 0.07792485 -0.27927583 0.091196135 -0.08571197 0.31549013 -0.039285026 -0.12685546 -0.06875587 0.026549812 -0.23924768 0.022245757 -0.22269888 0.066703185 0.12605372 -0.17622086 0.061243244 0.0074149654 0.12462097 0.2205793 0.008383713 -0.12679793 0.006773245 -0.09145849 0.03136334 0.10703885 0.10844655 0.005050664 0.10579001 -0.2594167 0.09030976 0.28298762 0.06403362 -0.0059829573 -0.26711375 -0.002920109 -0.008595881 -0.064341605 0.00992345 0.018311987 0.058279067 0.14429353 -0.09123934 -0.019458607 0.24675782 -0.0532568 0.22910936 0.018004501 0.05779272 -0.32346985 -0.18687479 -0.1571645 0.2503846 0.075844996 -0.19412786 -0.09566732 0.14876333 0.07580342 0.15426208 -0.145362 0.050418217 0.18777151 -0.14223966 -0.3336458 0.17586358 -0.09837344 0.20594332 0.1707038 -0.1846526 0.024155851 0.10784196 -0.047730125 0.023962423 0.028904976 0.07459245 0.23512366 -0.06176305 0.12883633 0.25076833 0.26980126 -0.17036924 -0.22397189 -0.025186732 0.02809035 0.037103843 -0.0449801 0.14778315 -0.07221631 0.17585015 -0.06940402 -0.03105567 0.039318994 -0.18539074 -0.30256099 0.18827473 -0.09790487 0.11657853 -0.060067073 -0.0433042 -0.06711664 0.15207691 -0.07344371 0.08718091 -0.103122465 -0.12098974 -0.13884173 0.18059115 0.074700035 -0.11967443 0.16648415 -0.07196595 0.29591835
870 0.04147173 0.12028735 0.23606062 0.12298331 0.28440022 0.27941117 0.07650327 0.13858804 0.037287034 0.1689971 0.07241323 0.3182936 0.20035356 -0.033000924 -0.07370505 0.18618056 0.030210217 0.025544116 -0.27058098 0.10866505 -0.04965899 0.4105815 0.015460637 -0.25300008 -0.04959017 0.049096804 -0.27264184 0.018788846 -0.12249711 0.12162762 0.20578733 -0.2658707 0.16274093 -0.01898552 0.09780526 0.20671871 -0.045115102 -0.14466734 0.036278155 -0.108710565 -0.0401576 0.15478228 0.101823434 0.059448037 0.111559875 -0.21998052 0.060045835 0.30257064 0.08657976 -0.027452327 -0.20625938 0.022397952 0.085475214 -0.046944365 0.1598606 -0.058168896 0.0095451875 0.11063492 0.0055856104 -0.08383598 0.19299598 -0.08537301 0.25121313 0.03624019 0.052387938 -0.3370977 -0.18808074 -0.21752651 0.25955302 0.013289393 -0.2658932 -0.07723797 0.19483225 0.16087802 0.205683 -0.13800606 0.028527156 0.17209995 -0.022775205 -0.17044361 0.19886705 -0.11561625 0.06926397 0.09057128 -0.19299737 0.0065223267 0.019054096 -0.10355025 0.11807872 0.055591468 -0.117371924 0.2592304 -0.035739362 0.13796632 0.24911435 0.25081256 -0.1393973 -0.2538179 -0.010295901 -0.009176253 -0.0196023 -0.15752368 0.15328188 -0.044597443 0.23969565 0.02446161 -0.06644767 0.035755776 -0.19239685 -0.3181733 0.19177832 -0.21325009 0.060522277 -0.116892345 -0.028352475 0.0044954405 0.1125383 -0.09027605 0.008907332 -0.18863416 -0.11416112 -0.16392499 0.15796864 0.12202361 -0.17402226 0.13085577 -0.10484072 0.21548976
878 0.013142647 0.0038476049 0.14864369 0.122928225 -0.22340912 0.0026075367 0.054561894 -0.24293977 -0.043223813 0.07386492 0.0945631 -0.13121326 0.13495277 0.056268297 -0.12005017 0.0716672 0.11038994 -0.18428625 0.1529056 0.044190314 0.1216363 -0.04648901 -0.094984986 -0.023380583 0.16013674 -0.07673544 0.02617424 0.13829209 -0.067294165 0.021804454 0.052220806 -0.09128697 0.039379675 -0.08762248 0.29791456 -0.11042333 0.18994932 0.086555034 0.24522194 -0.06528157 0.06661848 -0.0035883398 -0.07139788 0.04024326 0.29706502 0.14506164 0.12187642 0.12367045 0.042923447 -0.013585557 -0.008589401 -0.050703414 -0.03957627 -0.05233632 -0.041414995 -0.01774134 0.10748778 -0.25689414 -0.041326094 -0.19462228 -0.15022267 -0.09723835 0.27726796 -0.011478463 -0.03654187 -0.013223153 -0.11764639 -0.094167106 -0.025488734 -0.018219829 0.09617023 0.0985203 -0.0032391832 0.17330976 -0.17883855 -0.090645954 -0.016440263 -0.032195147 0.04144882 0.03488407 0.15218416 -0.13767883 0.1456986 0.26377016 -0.13333723 -0.061976478 -0.124472365 0.012639791 0.00757584 0.019879958 0.16999406 0.02421 -0.039822698 0.070462555 -0.12607582 0.018476926 -0.19458109 -0.12853013 0.052830335 0.11644311 0.2814297 -0.043705173 -0.08739741 -0.04685728 -0.15461475 -0.18853112 0.0768893 0.26141816 -0.029555399 -0.102332935 -0.033958476 -0.054657444 0.08871586 -0.12825951 0.20536512 0.24939336 0.20964164 -0.043544862 0.07939237 0.19193117 -0.02547137 -0.182984 0.09459279 -0.19149435 0.17036922 0.19862562 -0.038782258 -0.1271364
863 0.057738192 -0.06775954 0.24054664 0.15831728 -0.10000028 0.09680013 0.0420853 -0.12868299 -0.09929454 0.0071361028 0.0589553 -0.04422774 0.19314204 0.13142876 -0.08240743 -0.0066539664 0.09953984 -0.24098514 0.15857056 0.07716106 0.29149342 0.0603343 -0.034496795 -0.120146215 0.009743729 0.014698197 -0.074786 0.085207485 -0.17100875 0.0002836019 0.1271498 -0.037779264 0.058280904 -0.12285884 0.40174407 -0.045476824 0.09680595 -0.041047778 0.2504329 -0.10158363 0.090445265 0.09078194 -0.04481697 0.026231108 0.29428512 0.05483613 0.17795108 0.12755182 -0.013900064 0.01542009 0.046204567 -0.064697474 -0.06041737 -0.04697974 0.08689603 -0.011706749 0.14679404 -0.2515848 -0.054343536 -0.121431775 -0.2073213 0.03223201 0.20988682 -0.04387565 -0.009704289 0.0765975 -0.02886983 -0.09817208 -0.03715226 -0.08241803 0.17132217 -0.031919558 0.069076635 0.07791096 -0.06910202 -0.12102392 0.016406415 -0.07989526 0.029381193 -0.012093132 0.2053438 -0.08501452 0.12308832 0.33039182 -0.11366712 -0.022428878 -0.04408329 -0.04545863 0.025782656 -0.009775809 0.21804164 0.077520855 -0.028757159 -0.07628952 -0.090297095 -0.16057482 -0.2767584 -0.041417535 -0.009985413 0.12440827 0.15761296 0.00078508415 -0.121317424 -0.14273803 -0.06182392 -0.13877633 0.061000172 0.24268094 -0.02149461 0.022368168 0.06679736 -0.021951111 -0.03670268 -0.028325932 0.0649126 0.1287853 0.2591365 -0.08173616 -0.015041397 0.32169235 -0.039192326 -0.18129028 -0.0167768 -0.20944907 0.15042503 0.14214386 0.04851974 -0.0128830895
869 0.0026187212 -0.098452926 0.23046833 0.16915809 -0.049022064 0.092554025 0.11991769 -0.24455306 0.19593413 0.34754086 0.044344597 -0.12674417 0.2576508 0.16146366 -0.048565887 0.061174292 0.23699568 -0.04504698 -0.25652012 -0.13712806 -0.0800412 -0.03404875 -0.035687987 -0.07656482 -0.0032261764 -0.06283319 -0.059153758 0.17064321 0.066411525 -0.04771961 0.020300036 -0.094076045 -0.00056890515 -0.07270297 -0.0233062 -0.14213204 -0.05627894 -0.1499787 0.1114186 0.014470095 0.0075992523 0.12301737 0.025550997 0.018958021 0.3138597 -0.04279332 0.010931857 -0.0331551 0.20545328 -0.022602841 0.29506612 -0.2446468 0.13815735 0.08150272 -0.18120155 -0.30008188 -0.2475105 0.066674985 0.16833712 -0.08867183 0.02514265 -0.19524622 0.18549544 -0.042483445 0.36261812 -0.11388981 -0.09864083 -0.07639669 -0.021635702 -0.013537639 0.1947441 -0.08132678 -0.11570505 0.011355947 0.024196621 -0.0817565 -0.19146606 0.102449484 -0.080918595 0.08451203 -0.042025797 -0.19017856 0.06256248 0.11605575 -0.030665925 -0.129893 -0.019680584 0.02707356 -0.12255474 0.2755243 0.33351365 0.07892672 -0.067387514 0.079906695 -0.13823158 0.13895313 -0.08092443 0.08561944 0.022034843 0.16471642 0.07663988 0.16642559 -0.09837236 0.15139529 -0.11745778 -0.16234183 -0.012832601 0.17947148 0.19485492 -0.021968015 -0.22767073 -0.15986975 0.049992386 0.020097788 0.03335958 0.06644765 0.026026761 0.12188323 0.103847355 0.035384648 0.01980325 -0.12371959 0.21531288 -0.18780287 0.005350306 -0.005550717 -0.05493623 0.09979219
857 -0.029601242 0.1477053 0.31484577 0.036112133 -0.012630089 0.37867844 -0.018115632 0.07332489 0.08558817 0.10555101 -0.1275149 0.11671334 0.14542206 -0.025043335 -0.104773276 0.18418022 -0.28090164 0.08815623 -0.3882821 -0.010751344 -0.10355207 0.2895702 0.20960142 -0.37503338 -0.23136574 0.021644073 -0.35684538 -0.033862494 -0.074427694 0.05369814 0.028341306 -0.31314296 0.0040637488 -0.2047345 0.15140301 0.05594181 0.15016444 -0.09348642 0.13471687 -0.035244763 -0.092977665 0.07555251 0.20794646 0.10818536 0.24582617 -0.17476705 0.046147283 0.14014429 0.037851766 -0.21015349 -0.25024828 0.09340193 0.02042939 -0.03862857 0.029305236 -0.07893866 0.013733816 0.06645757 -0.10950461 0.04371765 0.15168004 -0.004811699 0.09509166 0.12866722 0.23332904 -0.018672915 -0.015174005 -0.11589295 0.10212865 0.0068283794 -0.10261734 -0.066665284 0.20887056 0.16846661 0.022167226 0.06665915 0.11850299 0.18370819 -0.12999654 -0.090309404 0.002400181 -0.09274508 0.08289912 0.1129488 -0.100738086 0.010475351 0.025326956 -0.01841534 0.034249563 0.02986046 -0.017449947 0.06924972 -0.10911495 0.18277168 0.25366992 0.30549538 -0.06083353 -0.221011 -0.017548533 -0.035207234 0.078401536 -0.0033191014 0.13331854 0.04063552 0.1379107 -0.020276014 0.045440815 -0.01567435 -0.14607298 -0.15579858 0.05752694 -0.0020767436 0.2226467 -0.031360127 0.06773261 -0.07799916 -0.006161088 -0.07928291 0.073481984 -0.10949331 0.044465408 -0.18449032 0.16437328 0.069427505 -0.07925087 0.16895668 0.06399986 0.097732045
858 0.07355707 0.08773112 0.18891792 0.1505262 0.23676123 0.1957179 0.045430586 0.16175285 -0.04178209 0.10960164 0.09284578 0.3049923 0.19551694 0.03224713 -0.020722808 0.19933301 -0.030264793 0.0035145408 -0.1852777 0.13194525 0.0813473 0.35448658 0.05379274 -0.26691002 -0.047097877 0.087745786 -0.26317185 -0.07378654 -0.17055465 0.0877141 0.12975092 -0.23252568 0.12979683 -0.048426446 0.13288759 0.18350211 -0.02274329 -0.08392598 0.018219091 -0.16142353 -0.0055099535 0.07505451 0.08289741 0.11326984 0.104910314 -0.19435506 0.055465512 0.18103379 0.088443466 -0.050045975 -0.17372663 0.0042792237 0.07833795 -0.047524188 0.13272429 -0.05574487 0.046105947 0.035387218 -0.027910503 -0.043035824 0.090688705 0.0032039573 0.26843005 0.018043516 0.07138557 -0.28112882 -0.08649294 -0.22134879 0.16732377 0.02128737 -0.20980015 -0.1567721 0.14867559 0.06393717 0.29423052 -0.107643984 0.09937978 0.14597517 -0.004612447 -0.23043004 0.2233382 -0.11202892 0.106973715 0.13864885 -0.09956105 0.048238967 0.08979181 -0.07234316 0.10425662 0.042224776 -0.078736864 0.20572414 -0.034441758 0.062133215 0.24260832 0.092675105 -0.12604944 -0.18906467 -0.060385566 -0.014801696 -0.035963163 -0.06625083 0.14118207 -0.030990629 0.299922 -0.009706565 -0.090145454 0.06140474 -0.21469341 -0.30054638 0.24606039 -0.20053528 0.044301525 -0.06402297 -0.06328376 -0.06734191 0.07082398 -0.08931183 -0.019319454 -0.19519621 -0.08238968 -0.16635624 0.18524751 0.051688526 -0.18539315 0.16402544 -0.08278895 0.2664945
888 -0.011748283 -0.015625067 0.15082528 0.1826576 -0.30529433 -0.08585165 0.17403062 -0.21878101 0.053357925 0.12746336 0.16165148 -0.17355873 0.06087402 0.09207115 -0.13324718 0.13261417 0.036745377 -0.14039336 -0.008960596 0.111154355 0.23247704 0.0327476 -0.019134864 -0.09034985 0.22108859 -0.023306353 -0.007827165 0.114463724 -0.08494349 0.027739344 0.0999618 -0.10133599 0.030005256 0.04790865 0.3209397 -0.110613845 0.18902399 0.04975627 0.23959228 -0.17825885 0.14677773 0.05449303 -0.05705906 -0.069189094 0.27457306 0.07405404 0.12315006 0.026916033 0.025823232 -0.0097512845 0.12084576 -0.053940944 -0.010763403 -0.11081045 -0.09080373 -0.07285741 0.11262728 -0.23575619 -0.06482464 -0.26013094 -0.0534166 0.03809051 0.2518327 -0.035713326 -0.07791756 -0.02517173 -0.037757564 -0.11197225 -0.003954663 -0.13825423 0.11683328 0.09020491 0.009208342 0.1244678 0.00037857387 -0.10516562 -0.024949398 -0.078736745 -0.0013776241 0.1761533 0.2094642 -0.058214623 0.17565013 0.19008507 -0.05158024 -0.05141248 -0.08519807 0.03725004 -0.0031557146 0.019031292 0.1828764 -0.04750724 -0.03595901 0.041965116 -0.04897028 -0.057262845 -0.21548139 0.010845681 0.07306829 0.04422071 0.18182132 -0.07822134 -0.060382374 -0.028970515 0.03247116 -0.17426325 0.053946678 0.17745046 -0.0719435 -0.12681295 0.12738918 -0.13517894 -0.021067364 -0.1042159 0.20186703 0.14008953 0.22029251 -0.15916815 0.09665861 0.071339056 -0.0042902753 -0.22971568 0.07607004 -0.20361684 0.037637886 0.26144958 -0.025817575 -0.13888662
880 0.1693228 -0.044136737 0.033292178 0.07229228 -0.07129244 0.0016723585 0.13139619 0.1315545 0.29301104 0.15240207 -0.07017385 0.027010407 0.11330583 -0.14646992 -0.21646944 0.08054123 -0.0027939158 0.01104203 -0.10911572 0.009065006 -0.1692843 -0.008350105 -0.024859043 -0.032680303 0.06762414 -0.08453745 -0.014263321 0.0036470834 0.03362979 0.033023734 0.0057283626 -0.28881356 0.08626162 -0.18484218 -0.11126144 -0.012947755 -0.05360276 -0.028384313 0.0307128 -0.13608062 0.104619876 -0.040945802 0.018676551 0.0385847 0.2202586 -0.08544523 -0.12136171 0.028039519 0.097116835 0.006060278 -0.15945263 -0.027687464 0.024134832 -0.09886161 -0.11131931 -0.1702247 -0.016837494 -0.14502299 0.08738293 -0.31803834 0.03181557 0.103273675 0.38598353 -0.13652492 0.08918735 -0.19826894 0.11989514 -0.34457773 0.040592346 -0.07140588 0.09957878 -0.1362646 -0.025640305 -0.021965131 0.0885302 -0.008120745 -0.06805321 -0.079492435 -0.025338668 -0.026274256 0.04866234 0.10096374 0.06317294 0.03858176 -0.04851508 -0.021586994 0.09293039 0.0016607685 -0.087153465 -0.010578399 0.13675027 0.07505168 -0.061553072 -0.090782374 0.010644667 -0.15079096 -0.12972721 0.15627839 0.0647495 0.1345274 0.019862186 0.117681235 -0.12515219 0.03731086 -0.068734206 -0.18338123 -0.024107939 0.08207963 0.17951429 0.06654954 -0.02898704 -0.064555705 -0.11187679 0.014718822 -0.026136572 -0.008186381 0.11093958 -0.14089799 0.13593933 0.1338608 0.007980818 -0.057392243 0.23647012 -0.17157538 -0.06045198 0.003106055 -0.0061947666 -0.07034607
804 0.05387468 -0.0015515024 0.22562656 0.07057796 -0.11186182 0.2250809 -0.026296956 -0.036356322 -0.08175 -0.017573303 -0.02821557 0.023149569 0.16813001 0.12665226 -0.082066156 -0.00023558013 0.028111404 -0.18204756 0.14519648 0.02577812 0.19368437 0.024169479 -0.07161028 -0.052106816 -0.018825138 0.039181083 -0.108856685 0.117892206 -0.117258325 -0.053704623 0.061567154 -0.04654878 0.03690447 -0.20411204 0.30525556 -0.012581446 0.052429978 -0.05819002 0.27241135 0.015746979 0.012328837 0.21693414 -0.04877414 0.037117288 0.29227418 -0.016947 0.17265508 0.098464586 -0.032923713 0.026574817 -0.028589927 -0.028329154 -0.040614415 -0.022944288 -0.038022764 -0.0152043775 0.1998406 -0.21343222 -0.06575401 -0.12084731 -0.14246435 -0.044863157 0.26624182 -0.019018063 -0.026743889 0.0267259 -0.0702067 -0.14110756 -0.117227904 -0.1337599 0.08906553 0.032183066 0.10569983 0.08283108 -0.19099604 -0.13242505 0.008794036 -0.1204346 0.03441385 0.016459236 0.20081683 -0.06352727 0.08353711 0.2745377 -0.16583854 -0.05433402 -0.00420937 0.022370579 -0.00016638145 0.012248759 0.2185292 0.0587957 -0.06951188 -0.0055727796 -0.13076346 -0.10223446 -0.28279102 -0.047608547 -0.09333357 0.09397886 0.18423301 0.0012890425 -0.12354178 -0.14127053 -0.15172854 -0.19452055 0.11862866 0.16931519 -0.04010615 -0.05016304 0.02055025 -0.016443672 0.019046107 -0.09770239 0.14140096 0.17946398 0.24718508 -0.04329541 0.015498553 0.31350562 -0.014933838 -0.17744489 -0.03650225 -0.14021735 0.12690984 0.10101019 0.07370076 -0.0538481
729 0.12814637 -0.08920699 0.12048712 0.06482991 -0.2235629 0.061890636 0.09066638 -0.2488362 0.027976178 0.25635803 0.06970677 -0.13984142 0.1645109 0.18364727 0.03965033 0.04668811 0.12725043 -0.17066853 0.1756481 0.1234913 0.2733008 0.008014865 -0.049748164 -0.034251973 0.12739371 0.065705165 -0.04310503 0.06331903 -0.115145095 0.018945752 0.036856238 0.016441422 -0.000508847 -0.059926562 0.37094772 -0.014883238 0.12679864 0.05299335 0.27137992 -0.08628629 0.1307612 0.06643481 -0.052393187 -0.01250956 0.2779238 0.110511854 0.15290529 0.060252137 -0.04054924 -0.0099439565 0.05908287 -0.12350617 -0.052399036 -0.038413025 -0.0034943328 -0.020818118 0.17048186 -0.27303353 -0.06978109 -0.18063235 -0.15137762 -0.02312367 0.31502065 -0.028689887 -0.046429567 0.014331497 0.012690987 -0.15452003 -0.041746456 -0.15409409 0.14746672 0.028274696 0.0958525 0.17644416 -0.15483391 -0.09059893 0.06413007 0.011150993 0.03380335 -0.021197617 0.275384 -0.054987606 0.17800824 0.35310572 -0.08077195 -0.09129218 -0.06802231 0.01727677 0.0068068593 0.02779149 0.20033067 0.04815176 -0.04322291 0.029928425 -0.07378636 -0.07278717 -0.23987998 -0.044738356 -0.044248756 0.08210526 0.16895908 0.05382448 -0.08789953 -0.081827655 -0.16741487 -0.18503939 0.1366109 0.22907494 0.012910225 -0.077124536 0.043523442 -0.021172501 0.032557502 -0.0372698 0.16430631 0.1803366 0.22201452 -0.10949113 0.036345284 0.24251205 0.004800921 -0.18637604 0.05110369 -0.18634102 0.1473373 0.18918128 0.010122629 -0.17290033
873 0.1536226 -0.2195009 0.4438318 0.16017991 -0.3341166 0.069117814 0.08796925 -0.048302725 0.3162171 0.104086325 -0.10865795 -0.12566672 -0.17009766 0.0074829664 -0.28061473 0.06401875 -0.1665741 0.04600013 -0.013745983 -0.04733862 0.17413229 0.08043817 0.00471176 -0.02533302 -0.16298318 -0.053005632 -0.27156746 0.08211508 0.04715774 0.12924038 0.06959997 -0.035036165 -0.00030244753 -0.05006733 0.027109992 -0.12678266 0.16352797 -0.010039134 0.015270547 -0.015065762 0.026152875 -0.15983401 0.0339449 -0.021857975 0.12633832 -0.17941833 -0.031411733 -0.06454544 0.06788021 -0.18457754 -0.14114335 -0.0019238151 0.2088611 -0.13048986 -0.27577254 0.064192586 -0.091363944 -0.024159076 0.079542816 -0.19138543 -0.11255028 0.15559909 0.24483228 -0.26640362 0.13028076 -0.11137743 -0.27930713 0.12714073 -0.18155518 0.27653602 -0.090180226 -0.0069248076 0.14453714 -0.042504333 -0.0024990519 0.04674153 0.083517686 -0.051315274 0.10094567 -0.07192798 0.14564373 -0.12436908 0.14886124 0.2099969 -0.08119116 -0.25867414 -0.004654038 0.11979044 -0.09486517 -0.12477819 -0.10201121 0.059419446 0.04980019 -0.2871451 -0.28002626 0.1679598 -0.0465213 -0.0960639 0.10775757 0.17778078 0.14116439 -0.09306834 -0.27656344 0.032925718 0.0002838457 0.22730279 -0.021538533 0.145964 0.063621394 0.0033094196 0.1437848 0.07679788 0.03878629 0.08520298 -0.20391913 -0.08334057 -0.034152564 0.26488286 -0.24571596 -0.064101 0.14692134 0.17654333 -0.02380748 -0.1416146 0.16283292 0.05258093 0.02827817 0.16682799
825 0.31992137 -0.18498841 0.10197619 0.024652425 -0.2078167 -0.09947374 0.031653762 -0.08429278 0.15030275 0.22318693 -0.096521884 0.016017664 0.28626025 0.17447881 -0.09179698 0.09263093 0.18344703 -0.14872523 -0.11180273 0.11032175 0.20047586 0.06261284 0.09281688 0.09681703 -0.1351108 0.23558873 0.03892339 -0.07590292 -0.07316763 0.029362641 -0.18147483 -0.03308964 0.15111893 0.036670804 -0.054608636 0.11129618 0.20766774 -0.1343932 -0.018441066 -0.17415655 0.22189832 0.1555317 -0.040259253 0.012915046 0.054916523 0.016089601 -0.1093313 -0.038092796 -0.15986896 0.061123684 -0.042991564 -0.1546498 0.046046853 -0.06284405 -0.074035235 0.039007824 -0.06966347 0.09648262 -0.0730712 -0.2680584 -0.03346604 -0.09557325 0.1366843 -0.18984254 -0.26273084 -0.19585936 -0.10985025 -0.03209962 0.15254012 -0.017181171 0.14853352 0.053783983 -0.0064770775 0.06836738 -0.07491634 -0.016056819 0.16469526 -0.119768076 0.10712612 -0.18636586 0.27904108 0.045171913 0.065396205 0.27952006 -0.20799394 -0.08058225 -0.32062602 -0.20504759 -0.06402554 -0.101679265 -0.04072429 0.32237315 -0.19423452 -0.17115653 -0.11017867 0.015585317 0.012390059 -0.1667626 0.11393798 0.1832841 0.022200122 0.042013995 -0.079432644 0.06928749 -0.17985572 -0.14001876 0.18159527 0.2285459 -0.16280706 0.007433187 -0.06075862 -0.11914008 0.22278138 -0.049610175 -0.10712617 0.32828093 0.1305145 -0.1082353 0.14274721 0.012237046 0.0030285008 -0.1405904 0.26969263 -0.11806991 0.11016367 0.10284567 -0.000243085 -0.08761436
887 0.15420027 -0.21115643 0.46425417 0.22276047 -0.33159634 0.07264553 0.11662348 0.023100754 0.2783887 0.04554455 -0.0810216 -0.05660438 -0.14730737 -0.06143712 -0.28568757 0.049271893 -0.119968936 0.01523467 0.025481522 -0.00788685 0.12489652 0.15274194 0.0007762111 -0.021429976 -0.10370895 -0.07775388 -0.19293813 0.09417466 0.061018832 0.1372864 0.16363436 -0.033152387 0.025622964 0.034716934 0.036058478 -0.1552642 0.12822816 0.0026623001 0.029277341 -0.023836402 0.028076857 -0.18630612 0.020652138 -0.06905413 0.14636822 -0.18064825 0.007506896 -0.028345328 0.0694237 -0.14848015 -0.14651822 0.05502432 0.20526941 -0.12645864 -0.28069398 0.085608125 -0.10869451 0.017653048 0.0576049 -0.2077973 -0.059255395 0.20048635 0.3310735 -0.25699174 0.044739872 -0.11455965 -0.34489784 0.13688393 -0.111919485 0.26968458 -0.13584808 -0.030008715 0.19623683 -0.05492184 0.044804968 -0.04101503 0.10119013 -0.03701896 0.039326403 -0.06419773 0.16995895 -0.16836424 0.2037692 0.19709998 -0.045276325 -0.18814462 0.026756449 0.13238256 -0.116321556 -0.12986442 -0.115748346 0.02905227 0.11201521 -0.30023497 -0.19073898 0.1641946 -0.13691032 -0.04889957 0.14558737 0.16393465 0.10925287 -0.11928213 -0.2987167 0.0199908 0.032696594 0.15915908 -0.05824096 0.10800568 -0.016382659 0.002269891 0.17386629 0.06650086 -0.01889737 0.032507967 -0.13913907 -0.08721529 0.054973368 0.22099392 -0.20566118 0.0022982794 0.08383185 0.1845075 -0.073097125 -0.08192497 0.14619035 0.068075426 0.04782152 0.12914045
811 0.053385217 -0.11124295 0.19159685 -0.027707445 0.026579583 0.08760859 0.011736088 -0.12767489 0.088433504 0.4137308 0.06215479 -0.10807699 0.07145929 0.10450203 -0.07453825 -0.016457155 0.10296862 -0.054281946 -0.057977017 0.04586318 0.069027364 -0.09623232 -0.03732008 0.21019816 0.049053114 -0.019552933 0.10130957 0.16364944 -0.06844346 -0.05306308 -0.030024642 -0.14495896 0.15559001 -0.14563201 -0.040368106 0.07751489 -0.19955665 -0.19275801 0.044963226 0.059396707 -0.052744262 0.3154105 -0.025159534 0.0785604 0.21272051 -0.12916547 0.034461595 -0.07421941 0.023688218 0.016863177 0.0991223 -0.16011338 0.14466101 -0.008964103 -0.17521603 -0.10934461 0.00620476 -0.0474204 0.05278209 0.06835707 0.102522984 -0.091984995 0.2276331 -0.009343882 0.18538548 -0.17927237 -0.051948767 -0.12916136 0.03556459 -0.12368247 -0.05096451 0.02145393 0.018030342 0.04096484 -0.14431825 -0.099941075 -0.11196425 0.018891968 -0.1791857 -0.061290126 0.11538486 -0.09022158 0.09371185 0.08813193 -0.04842641 -0.25827995 0.09525243 0.063598834 -0.1392837 0.19551504 0.18905681 0.06955279 0.0468069 -0.018123636 -0.1383074 0.15170757 -0.033032577 -0.054478664 -0.039294876 0.040001344 0.06278417 0.26425514 -0.19493861 0.009605773 -0.14878029 -0.18778844 0.10804845 0.014198402 0.09544512 -0.023142876 0.03383645 0.007661966 0.094243295 -0.09256629 0.02923508 0.08496537 0.14800565 0.026609574 0.01877073 0.0026073193 -0.044098865 -0.21289283 0.2806232 -0.198619 0.08188087 0.17854981 -0.11607245 0.1301308
803 0.0360952 -0.00022040753 0.12524961 0.18139565 0.1635189 0.04568823 0.05003068 0.093898594 0.18230785 0.26852682 0.083537064 0.03658624 0.12118807 -0.0083979275 -0.13670407 -0.053826746 0.032910127 -0.05483719 0.009618931 -0.12453238 -0.16448098 -0.09827849 -0.09845203 0.06867381 0.0473778 -0.0951261 0.08698843 0.06806638 -0.077492446 -0.13279565 -0.120944746 -0.20826791 0.10890875 -0.19591014 -0.06494367 -0.111330196 -0.083797194 -0.056981552 -0.0047226753 -0.05469334 0.15799537 0.011759544 0.026624942 0.17093913 0.30769473 -0.042586263 -0.13672361 0.046094634 0.13967639 -0.07996206 -0.1985098 -0.12452013 0.06345601 0.00291933 -0.0017191697 -0.15952113 -0.083334714 -0.08704228 0.11417705 -0.16369845 -0.06425662 0.037809636 0.33174998 -0.14844987 0.120636486 -0.18018845 0.06840509 -0.17329127 -0.03476827 0.045855813 0.008250438 -0.10385679 -0.03863417 -0.11539624 0.13752016 -0.020701794 -0.1597638 0.004458191 -0.027939085 -0.08196735 0.086553656 -0.12869062 0.15413502 0.10269333 -0.014502683 -0.05221044 0.07070411 0.025386633 -0.08554463 -0.05592442 0.17177966 -0.059832405 0.023042915 -0.1588796 -0.085220605 -0.07905283 -0.19383007 0.12841175 0.057245713 0.20431346 0.12526163 0.13111012 -0.22939716 0.11652506 -0.03898914 -0.07174487 -0.054418523 0.1745099 0.08150302 0.07332628 -0.0023714649 -0.057517324 0.0004128708 -0.10873643 -0.12602863 -0.047385387 -0.083124965 0.06489684 -0.071797095 0.20826976 0.02141545 0.079349026 0.19396658 -0.09679048 0.06674355 0.037371784 0.062058594 0.118217774
703 0.14774457 0.023460494 0.40070897 0.14130972 -0.12625828 -0.026760776 0.073555246 0.0003874223 0.20806181 0.31246963 -0.01677355 -0.08004736 0.026421515 -0.017599465 0.09708507 -0.09702545 0.086214155 0.13316584 0.10347168 -0.047475047 0.06065763 -0.13936478 -0.113484 0.19767281 0.11361649 -0.0012171525 0.052707452 0.025132373 -0.05553927 0.030901212 -0.02468014 -0.15798706 0.08462906 -0.13466617 0.1720798 0.0323304 0.08806723 -0.0045422358 0.07193813 -0.14904676 0.1632787 0.103471145 -0.044697367 0.028544059 0.17015609 -0.00063357357 -0.048776306 -0.05930941 -0.023469301 -0.032355517 0.024932887 -0.23115505 0.006931785 -0.05315276 -0.05489513 -0.0698753 0.0052895085 -0.16499767 -0.038983718 -0.087656476 -0.005830475 -0.084248796 0.27826095 -0.16868897 0.091764964 -0.28578973 0.1374655 -0.31877398 -0.069632456 -0.13242881 0.069424964 -0.04284038 0.005247331 -0.06906334 0.0153991645 0.009048686 -0.029035555 -0.057041965 -0.060309675 -0.06456057 0.25052634 0.014668781 0.13633598 0.19468555 0.09423269 -0.0047510103 -0.0007431116 -0.08641298 -0.049157612 0.044968575 0.22611931 0.11844434 -0.021466458 -0.09646881 0.0030992122 -0.006940056 -0.12836203 -0.012363508 0.02672165 0.13950332 -0.07051946 0.16387653 -0.04028167 0.084840655 -0.25171414 -0.09411824 0.021430582 -0.08081501 0.041979466 -0.028976234 0.044910103 -0.08377077 0.082071744 -0.06915622 -0.11400979 0.074271895 -0.008014473 -0.011390811 0.012169188 -0.08218666 0.01721544 -0.06579598 0.20453656 -0.03874481 -0.0018478393 0.10380416 0.12027125 0.026510227
864 0.33080304 -0.22113736 0.3804924 -0.041906614 -0.17578246 -0.12941562 -0.062486608 0.034516558 0.25072443 0.19239977 -0.18594925 0.021105232 0.07440692 0.18802753 -0.06416864 0.12732548 0.07301932 -0.118942454 -0.20217602 0.062274154 0.14712769 -0.032407157 0.13360366 0.11533954 -0.07187151 0.20682228 0.15828492 -0.041432004 0.008572339 0.012586562 -0.25857732 -0.020673854 0.18288103 0.09632039 -0.17819919 -0.018878127 0.09190667 -0.18391779 -0.0652032 -0.026839992 0.23892014 0.25558648 -0.10441525 -0.02084934 0.15916239 -0.059802298 -0.12946254 -0.08760485 -0.101891294 -0.082046114 -0.044331364 -0.1541356 0.07233905 -0.10367956 -0.07946489 -0.01603711 -0.018002942 0.03639604 -0.1334873 -0.26156774 -0.0103611965 -0.13554353 0.07871528 -0.292389 -0.24326861 -0.23579495 -0.096387625 0.008245584 0.15575705 0.004166441 0.13396275 0.162545 -0.09652556 -0.030417047 -0.021723984 -0.041233413 0.11349 -0.17667566 0.08182542 -0.034373198 0.27388728 -0.0009659396 0.045390494 0.33750266 -0.14949055 -0.062502496 -0.28854233 -0.2382943 -0.11548955 -0.07173005 -0.13316637 0.22057334 -0.15804176 -0.14380807 -0.14431296 0.11976467 -0.06767162 -0.21323548 0.3361196 0.22068451 0.020338727 -0.003325854 -0.047469273 0.20594674 -0.11810378 -0.109947085 0.23790258 0.23387802 -0.15683806 -0.04769136 -0.031547476 -0.2006726 0.3115808 -0.09658938 -0.0952234 0.3030679 0.029424148 -0.04437954 0.15656105 -0.11008018 0.0156056965 -0.100740775 0.24809085 -0.13855518 0.06482736 0.048382964 -0.011548643 -0.06664058
893 0.3080636 -0.23763122 0.30119303 -0.06914065 -0.18138312 -0.17130621 -0.07310216 0.0823167 0.1786415 0.26525828 -0.1816383 0.047581308 0.21765858 0.24209525 0.0062449505 0.09755184 0.1397463 -0.13951536 -0.14496909 0.08953001 0.1608896 -0.08140678 0.15610145 0.11104988 -0.15312938 0.26177457 0.11570322 -0.14360216 0.07218467 0.023681717 -0.30627495 -0.023586763 0.23630844 0.04764093 -0.10692087 0.086097315 0.18607892 -0.181807 -0.0044510695 -0.10222737 0.22943825 0.29619753 -0.09735229 0.021258175 0.17896354 -0.03562678 -0.19429235 -0.18660028 -0.11048531 0.037392747 -0.07765593 -0.14126463 0.068299524 -0.09236319 -0.12843439 -0.13832398 -0.049768556 0.054690883 -0.12366957 -0.28079736 0.060057826 -0.17693633 0.077457525 -0.20690389 -0.19635509 -0.26908916 -0.037623357 -0.09563689 0.13692419 -0.02272909 0.13060462 0.059971634 -0.024488436 -0.030531982 -0.06800096 -0.03261786 0.18584669 -0.15385564 0.019953007 -0.13548976 0.15361999 -0.01949231 0.0137826605 0.23925808 -0.17846428 -0.055353414 -0.23826759 -0.2230743 -0.17314458 -0.047269005 -0.042838518 0.25804624 -0.13266829 -0.12717934 -0.12792055 0.06495288 0.036850408 -0.14722425 0.21072124 0.21425872 -0.04922828 0.23456472 -0.06657315 0.23845907 -0.21192689 -0.20334727 0.14015444 0.07793702 -0.20727068 0.044901546 -0.09666637 -0.122503504 0.3771007 -0.17604302 -0.08725587 0.23223281 0.042890012 -0.08431923 0.19530033 -0.13638465 0.0072612306 -0.16814506 0.40252838 -0.1396321 0.040646464 0.13903889 -0.0025227545 0.023706904
862 -0.041041717 0.25628757 0.4490107 0.031437583 0.23187198 0.07328144 -0.06746716 0.039310604 0.01357466 0.0545948 0.024091195 0.017027942 0.15923691 -0.1833588 -0.2925456 0.1815389 -0.29732683 0.08766014 -0.26929858 -0.08502816 0.04151554 0.15163785 0.122401394 -0.16501006 -0.25652143 -0.056197815 -0.13879003 -0.1235841 0.06465243 0.06914239 -0.067300476 -0.43352005 0.032301534 -0.24993332 0.09130638 0.1797234 0.16471241 0.089927904 0.03502315 -0.1505574 -0.08834801 -0.03765484 0.18726219 0.08252324 0.16599452 -0.019115549 -0.1188432 0.029444616 0.062552854 -0.14916189 -0.4155554 0.039737064 -0.005817544 -0.13873732 0.0690766 0.0664752 -0.13460304 0.14171395 -0.18458045 0.0743081 0.049450345 -0.024674537 0.049103543 -0.029273015 0.16594799 0.042640295 0.22489423 -0.02045131 -0.23969072 0.027590537 -0.10897865 -0.1427929 0.07929966 0.05448172 0.06700566 0.2219624 0.14111872 0.113640934 -0.066323645 -0.1123233 0.096662186 -0.025397157 0.21806104 0.3301274 -0.03218792 0.15170981 0.108720385 -0.015485925 0.00010614061 0.03548697 0.30363283 0.14559606 0.02955762 0.08806758 0.10849766 0.13559616 0.0009374996 -0.14298883 0.20625633 0.07973948 0.21373649 -0.061477106 0.015362782 0.04221016 -0.09027325 -0.02001412 -0.06391477 0.07549254 -0.09199149 -0.08983188 0.09799914 0.0414845 0.23327386 0.17056833 -0.00785799 -0.15004213 -0.022250254 -0.07348253 -0.009218079 -0.0025834385 0.1257498 -0.13218103 0.10794474 -0.058882065 -0.09239596 0.29460266 0.10514924 -0.06702345
895 0.097034685 0.042410433 0.26919505 -0.0013679479 0.25667462 0.03886914 -0.019662008 0.16454862 -0.09831181 0.031454794 0.06502689 0.25092825 0.23165742 0.0563725 -0.10720504 0.08132669 0.09272265 -0.19199856 -0.228595 0.2760919 0.08168878 0.25170588 0.028445898 -0.13953662 -0.060769714 0.09636898 -0.014018735 0.007886149 -0.2031488 0.16890466 0.19309452 -0.2246789 0.25107393 0.13110822 0.18999967 0.1698178 0.03199171 -0.20355104 -0.002000429 -0.09660523 0.092608936 0.13123317 -0.00055685756 -0.0720254 0.19553527 -0.10589447 0.095752195 0.33407813 0.15416065 0.035608202 -0.16445126 0.054455496 -0.020730926 -0.07977501 0.17794114 -0.08453443 0.050757125 0.041739017 -0.029183531 -0.09259117 0.23256506 0.06098615 0.21104026 0.055348143 0.11122942 -0.2541137 -0.2092346 -0.11763112 0.39490488 0.12329391 -0.15425973 -0.19250625 0.12505342 0.041626234 0.19693533 -0.3116234 0.07993289 0.17501007 -0.14322574 -0.33581293 0.14147024 -0.13473 0.11968783 0.18958084 -0.16404681 -0.038871083 0.074357636 -0.053010173 -0.0019528228 0.013831807 0.05354364 0.18034068 0.08530557 0.070052445 0.23034677 0.21750182 -0.13276765 -0.18233582 0.1091244 0.014682001 -0.0016451369 -0.092444845 0.018125262 -0.08355777 0.24987997 0.029447528 -0.11419836 0.0027055142 -0.10616452 -0.078420855 0.21169437 -0.08124909 0.046553884 -0.041987114 -0.062124144 -0.19116947 0.18067609 0.019518277 -0.029019797 -0.074056074 -0.21333554 0.019016705 0.083371714 0.0822776 -0.035144158 0.1467512 -0.18211944 0.293332
866 0.06623264 0.19233976 0.16048682 0.13624671 0.38826287 0.32432222 0.061193675 0.15464197 -0.048207644 0.103798546 0.08682187 0.4597352 0.17609796 0.050592262 0.023772413 0.10336025 0.02882446 -0.16070886 -0.13906603 0.17663372 0.019724756 0.5603427 0.051275987 -0.36911517 -0.07440134 0.022721717 -0.17161824 -0.009229583 -0.0018094038 0.08598644 0.17867155 -0.09589686 0.19147594 0.09096409 -0.07421294 0.22775021 -0.16874355 -0.13530028 -0.016519366 0.026421914 -0.04187766 0.08021955 0.062265925 0.040618785 0.20906042 -0.2553295 0.12234829 0.15107158 0.08709498 -0.04273307 -0.22083135 0.09435094 0.11647316 -0.060685914 0.109223805 -0.08143315 0.11899171 0.020912582 0.017580085 -0.055789668 0.09720057 -0.015543083 0.32438484 -0.10628684 0.134128 -0.2779003 -0.2513817 -0.118747585 0.24876003 0.120227404 -0.34346488 -0.08801533 0.319675 0.039559357 0.27413738 -0.32716137 0.06027688 0.22820781 -0.14130284 -0.2843878 0.16042854 -0.16650836 0.09478334 0.108151056 -0.1789041 0.06363168 0.2235675 -0.07669754 0.054050192 0.053310424 0.029085023 0.25753918 0.12243326 0.14527631 0.35327768 0.2447574 -0.21374509 -0.13684691 0.033542797 0.102015324 0.08739382 0.049614605 0.02469899 -0.2990716 0.295749 -0.054529157 -0.09775099 0.1379244 -0.25681213 -0.26884162 0.25974762 -0.03920452 0.059193823 -0.057771422 0.12695141 -0.11136034 0.12750866 -0.10356194 -0.039894037 -0.15667912 -0.15498692 -0.09497705 0.09446343 -0.011758678 -0.116230145 0.29734194 -0.15759435 0.3268596
868 -0.13389723 -0.024403015 0.3853151 0.027571227 0.11841886 0.03909229 -0.11768587 0.05477133 0.080046855 0.08181879 -0.19006985 0.0134369405 0.090707146 -0.050340675 -0.27633926 0.28978923 -0.41022572 -0.014579432 -0.2906581 -0.0031442312 -0.058014847 0.18685739 0.26458472 -0.25342622 -0.2939865 0.09103141 -0.20891866 -0.098500796 0.00783733 0.044477224 -0.23629864 -0.39033064 0.0016642248 -0.23358229 0.0779549 0.12879993 0.27518985 0.051013526 0.22228467 -0.068800986 0.031648226 0.08060064 0.14362276 0.09364941 0.40744546 -0.08280383 -0.12018445 0.03516426 -0.032427546 -0.2270341 -0.45066416 0.14085361 -0.016989352 -0.057364848 0.08843751 -0.008740443 0.018679837 -0.110067286 -0.09699273 -0.019260775 -0.034207802 0.027240045 0.127573 0.06090845 0.22825901 0.22742225 0.17908351 -0.0033484288 0.063592136 -0.046611384 -0.022982214 -0.054352213 0.18310906 0.12933071 0.021412482 0.2137808 0.09176087 0.2553811 -0.25144762 -0.096060865 0.03168387 -0.048799623 0.0901756 0.20496087 -0.030078825 0.10600671 0.106654316 0.008335117 0.045876827 -0.11551976 0.21727115 -0.045836292 0.05895754 0.06603515 0.19734216 0.25897825 0.017255727 -0.117271915 0.14786637 0.16616504 0.285847 0.22473605 -0.039097436 0.04736753 -0.051768795 0.11023674 0.00749404 -0.08280459 -0.06962301 0.043894857 -0.015266598 0.046616282 0.2213114 0.110310294 0.17809251 -0.16880374 -0.078164734 -0.11325362 0.12050855 0.01079116 0.039588634 -0.07194567 0.14949952 -0.013577661 0.040073384 0.14335689 0.103794985 -0.11601017
865 -0.040345047 0.18605614 0.38980985 -0.087788105 0.15899277 0.06841453 -0.03399148 -0.039940078 0.09596663 0.035613265 -0.007299387 0.0041245646 0.17557557 -0.13351527 -0.262303 0.23252876 -0.174329 0.03562045 -0.30937582 0.005519242 0.09341997 0.22629918 0.17975666 -0.24446341 -0.23418543 -0.061433766 -0.19073814 -0.11719919 0.08042364 0.114583045 0.004328208 -0.45956388 0.010328531 -0.18982188 0.14289135 0.14346185 0.18381386 0.063821636 0.10964008 -0.17789206 -0.047108762 -0.04688451 0.20956364 0.03694584 0.18288128 -0.017805984 -0.05379638 -0.015111718 0.09509111 -0.13575707 -0.22840074 -0.0012675163 0.028252644 -0.14094861 0.013704458 0.029013656 -0.17975596 0.17075427 -0.21867132 0.027500536 0.09235198 -0.012493403 0.07563807 -0.028526623 0.19845083 0.014523884 0.12715319 -0.03026285 -0.16410263 -0.011640895 -0.030078301 -0.13774201 0.0345522 0.11099607 0.040915187 0.20205973 0.19229573 0.11495632 -0.043530755 -0.055418536 0.08400798 -0.04966703 0.16860336 0.35936123 0.015090551 0.14576215 0.072958045 -0.034237057 0.011239612 0.10005899 0.16901527 0.1298344 -0.024155663 0.09493191 0.06420808 0.17909966 0.0056598596 -0.14763883 0.20854829 0.042721074 0.13776574 -0.099096246 0.06478496 0.09602769 -0.09380247 -0.041778095 -0.054800205 0.10696525 -0.0981804 -0.05852293 0.028769504 0.04254215 0.19995226 0.18582894 -2.4280766e-05 -0.12472553 0.027116634 -0.097021736 0.063686326 -0.038436506 0.087502144 -0.18166083 0.072563455 -0.07460955 -0.08016679 0.24493389 0.02761187 -0.0754785
894 0.061425425 0.3500784 0.2758013 0.07969118 0.3204032 0.5089416 0.22307016 0.14294726 0.2231037 0.3786582 0.0268285 0.4266913 0.22892566 0.093543366 -0.043455146 0.07968594 -0.008257798 -0.09025853 -0.3400306 0.18314402 -0.0048294878 0.50816786 -0.013472754 -0.20508112 -0.038551882 0.032820616 -0.19622755 -0.042300493 -0.17584215 0.078652464 0.19040634 -0.11541804 0.15537974 0.1108357 0.11697457 0.36802438 -0.08319824 -0.2189593 -0.05257483 -0.051128145 0.14253213 0.100840226 0.1759332 -0.033733793 0.17432496 -0.18500336 0.13182685 0.33705595 0.056535196 -0.0014288513 -0.2022464 -0.019927328 -0.020841189 -0.022623597 0.10692982 -0.03957602 0.054700095 0.14680214 -0.02092359 -0.036987215 0.28831294 -0.046034627 0.096303046 0.007890364 0.1390518 -0.2803633 -0.13146794 -0.12055334 0.38992417 0.12685703 -0.159522 -0.08537064 0.22547145 0.1340581 0.09966169 -0.2827606 -0.027692148 0.3242029 -0.21906269 -0.37417436 0.10821449 -0.119895086 0.1461408 0.073674075 -0.21395583 -0.046531975 0.094591856 -0.06727292 0.10824965 0.044911332 0.04477323 0.3141895 0.06084968 0.15521987 0.2517757 0.3516228 -0.21404952 -0.19490446 -0.10057095 0.039703563 -0.009616203 -0.012080555 0.02255696 -0.28028864 0.22264779 0.06661573 -0.011480541 0.041360214 -0.06932676 -0.17315692 0.1595334 0.0420186 0.008677227 -0.020105334 -0.06610586 -0.18391575 0.13124323 -0.054307453 -0.0070327814 -0.11534627 -0.12932983 -0.023144493 0.12765133 0.07383425 0.021031717 0.23397171 -0.2431156 0.29026103
877 0.15432121 -0.41526607 0.4869137 0.12304653 -0.340359 0.032796964 0.17414476 -0.006621296 0.41643316 0.056590512 -0.15027025 -0.09453759 -0.1848045 0.041097317 -0.2706375 0.12355288 -0.16307297 0.056844786 0.034398 0.014885347 0.017437622 -0.006856197 -0.11831999 0.032071825 -0.10887328 -0.045238346 -0.28010896 0.07030618 0.12234534 0.060720377 0.09705975 -0.15381384 0.027000532 -0.08499431 0.05394854 -0.035793073 0.14296633 -0.0064820643 0.15637445 -0.060196716 0.103212714 -0.010120399 0.07738626 -0.085619874 0.18826298 -0.21954665 -0.065852985 -0.13555387 0.07146008 -0.05849421 -0.15786152 0.087905 0.23530754 -0.12861635 -0.39002994 -0.048077278 -0.12213548 0.12095067 0.12289947 -0.19920596 0.1420985 0.19942504 0.27045983 -0.1352442 0.18070592 -0.16850124 -0.23893632 -0.0177354 -0.21616708 0.25849962 -0.16851872 -0.023233565 0.21885164 0.0015351945 -0.0525108 -0.016880918 0.16352554 0.04085092 0.06005707 -0.06491487 0.15471064 -0.14506336 0.17137009 0.20982152 -0.1348033 -0.21152721 0.1029855 0.2203733 -0.047490977 -0.04418695 -0.24119543 -0.004651869 0.13715194 -0.2483405 -0.24869809 0.32943147 -0.035405017 -0.06874581 -0.013679095 0.10308035 0.1057227 -0.13560687 -0.37879565 0.05347334 -0.008674888 0.35364226 -0.08916391 0.028895682 -0.05005748 0.03268027 0.24423194 0.071039446 -0.0020564483 0.07085787 -0.17498228 -0.18307321 0.006082735 0.22488274 -0.18112491 -0.09878738 0.16357937 0.19209313 -0.0074671856 -0.07409156 0.0061238552 0.11995212 0.01111197 0.1922771
859 -0.020087063 -0.062254645 0.59409845 0.33671468 -0.49157667 0.42234665 0.29635277 0.1235811 0.3146283 0.14283195 0.033602104 0.0034481701 -0.037528723 -0.1818754 -0.49428725 0.2157169 -0.14960606 0.09168179 -0.14008537 -0.0025673378 0.229217 0.3437628 0.07286908 -0.07991615 -0.020570742 -0.035927124 -0.24712642 0.20395617 -0.081891716 0.31091997 0.2824863 -0.07553528 -0.103296064 0.049526796 0.22981611 -0.31998456 0.24803711 0.08329963 -0.06204085 -0.17486139 -0.07723173 -0.3443135 -0.018113136 0.0015642239 0.0127835795 -0.19507445 0.12642007 0.0013299589 0.10076084 -0.13451524 -0.1661174 0.017248824 0.093893304 -0.14395496 -0.39558247 0.19040099 -0.15721428 -0.04445344 -0.03979015 -0.21011479 -0.20729391 0.037226867 0.36695674 -0.24643093 -0.088997185 -0.15410529 -0.4100154 0.23943655 -0.2708007 0.24371329 -0.10191125 0.010897628 0.07279904 -0.12965828 0.07934401 0.015071606 0.013546709 -0.022085162 0.09165439 -0.10553144 0.229741 -0.13597707 0.2227708 0.06835149 0.04398554 -0.28149784 0.03343151 0.21647538 -0.21462959 -0.19784231 -0.15160345 -0.10540431 0.13619998 -0.25871238 -0.28619412 0.0036056456 -0.04280732 0.0062233973 0.20664604 0.17107134 0.08219471 -0.037853353 -0.15430485 0.14422338 0.029816234 0.124029756 -0.22564721 0.14534722 0.023963286 -0.024470106 -0.004822499 0.043911967 -0.188332 -0.031429797 -0.071719535 0.009029353 0.012250585 0.3713547 -0.29025555 0.012570701 -0.0481428 0.28062248 -0.18312529 0.038142804 0.159647 -0.11128046 0.05923637 0.19353926
883 0.09432939 0.03301176 0.26193547 0.14279571 -0.12806211 0.17911465 0.08874188 0.05969601 0.04124884 0.09837838 -0.018215712 0.015667647 0.16723254 -0.10271942 -0.21570164 0.023578243 -0.10397334 -0.009376928 -0.13745447 0.028815385 0.013766854 0.08258095 0.069264665 -0.14945266 -0.05843166 -0.041391872 -0.028047258 0.077657275 -0.06329184 0.060044445 0.112612166 -0.21772157 0.028355807 -0.1374807 0.12939106 -0.029915914 0.09358256 -0.08588517 0.038903065 -0.11864555 -0.03745829 0.05911726 0.060415074 -0.011271352 0.18545175 -0.05043829 0.04708997 0.040223256 0.034159742 -0.03908746 -0.109923795 0.0827977 -0.05979675 -0.08072726 -0.083238155 -0.03443133 0.020646011 -0.04304241 -0.03327482 -0.06367587 0.056939166 0.04715787 0.13180692 0.002012911 0.0826624 -0.017678026 -0.010979986 -0.08338321 0.014523343 0.05659353 0.05137807 -0.07223583 0.10597843 -0.006447212 0.016007751 -0.036655877 0.03366725 0.002337137 -0.072569825 -0.06761111 0.12203034 -0.0012049697 0.15426172 0.17142254 -0.09609231 -0.0901628 0.022021692 0.038858388 -0.10998249 -0.033270273 0.11806515 0.07288046 0.0094071645 -0.056300286 0.022630341 0.07741398 -0.05638646 -0.015072809 0.09188756 0.101435885 0.035639342 0.0070880977 -0.12582666 -0.020758688 0.018021308 0.010745639 -0.020508932 0.029523147 0.004035357 0.018839983 0.045058616 -0.0027013682 -0.004520639 0.048664384 -0.012173256 -0.011867304 0.08946245 -0.0046761804 0.014323305 0.028353142 0.01887133 -0.018126488 0.07484358 -0.07976143 0.0051825396 0.056070495 0.043491766 0.027672889
860 0.13917375 -0.012783487 0.2199165 0.06848003 -0.01037227 0.04092224 0.067543164 0.08132668 0.12933367 0.12306217 -0.052829318 0.042400736 0.13499993 -0.08171756 -0.24944377 0.049652297 -0.09276058 -0.051885385 -0.11029834 0.056046236 0.005122515 0.066506356 0.06705228 -0.12322288 -0.005246153 -0.033417113 0.05650183 0.067810826 -0.007893595 0.04916485 0.05104352 -0.24897794 0.100208804 -0.14243624 -0.00858573 -0.020817855 0.030682458 -0.1000112 0.013866925 -0.1058791 0.07278491 0.084665954 0.018333087 -0.006207547 0.25099596 -0.057121694 -0.008343238 -0.045232013 0.035070512 -0.061544813 -0.09359024 0.073866196 -0.025482256 -0.11293313 -0.08336735 -0.08572865 0.06254214 -0.10729005 0.011531991 -0.193845 0.016185148 0.08358878 0.15878446 -0.1058719 0.05870837 -0.049458355 0.012133535 -0.11547509 0.032533646 0.0581927 0.041693773 -0.03493685 0.12072425 -0.040799987 0.053434707 -0.07924697 0.009422209 -0.019923441 -0.039857257 -0.025255367 0.14971384 0.03662604 0.075944245 0.14460275 -0.08783859 -0.09270863 0.04937178 0.026894903 -0.060041893 -0.09174739 0.038877904 0.051728893 0.05790575 -0.12572815 -0.020456018 0.090086095 -0.105710104 0.027276084 0.15869886 0.16618946 0.019652015 0.0017749459 -0.18177797 -0.052974313 0.042046495 0.08063666 -0.01281294 0.039256096 0.027673688 0.057393774 0.087541506 -0.016681138 -0.05440663 0.067510776 -0.028832044 -0.054771736 0.044767752 -0.01992131 0.0104376 -0.0050349757 0.010949518 0.084112994 0.04678239 -0.11223473 0.020727616 0.042442355 -0.0024298723 0.0043021655
